124 512
-0.092372 -0.0211346 0.135095 0.104074 -0.0641366 0.0421318 0.132768 -0.310437 0.0785388 0.045909 -0.00247335 -0.0115968 -0.0514612 0.04145 -0.109982 -0.0791312 0.00359487 -0.0538195 -0.177279 -0.0831717 0.281818 0.227348 0.264425 0.00723731 -0.0590313 -0.134018 -0.178017 -0.109245 0.127212 0.0314765 -0.00893705 0.00783332 -0.0182119 -0.170158 -0.101489 0.112948 -0.0127319 -0.0885091 0.109354 -0.0693877 -0.134576 0.0763984 -0.0746452 -0.15072 -0.0302546 -0.0199925 -0.0967255 -0.0293168 0.128621 -0.0350574 -0.0696253 0.191311 -0.0810824 0.0995318 -0.0293798 -0.0467422 0.16535 -0.0323477 0.120595 -0.062676 0.15113 0.080469 -0.00994992 0.129266 0.0331125 -0.0755071 -0.023916 -0.041983 -0.127202 0.0801522 0.072643 0.120464 -0.124275 -0.214177 0.101147 -0.00164065 -0.0539136 0.205595 0.0628689 0.0839755 -0.138891 -0.134703 0.016134 0.351076 -0.0157534 -0.00957816 -0.00853696 -0.0309327 -0.0457755 0.0328122 -0.00308247 -0.0207046 0.131511 0.0936861 -0.0845434 0.281156 0.152513 -0.0422368 -0.0250625 -0.0597241 -0.133658 -0.0645929 0.122106 0.0532219 -0.0012557 -0.0219227 -0.0659752 0.0411014 0.0856887 0.173687 -0.0287821 0.0822005 -0.0585764 -0.00371058 0.128341 -0.118185 0.188979 -0.2248 -0.0772238 -0.175122 0.0140727 0.0659165 -0.0967246 -0.0228184 0.163877 0.0510742 -0.119059 0.106019 -0.0213644 0.0630327 0.00691273 -0.000468064 -0.101008 0.09233 0.0546629 0.17956 0.0296118 -0.0850101 -0.123147 0.0979244 -0.0670125 -0.0569669 -0.179226 0.164469 -0.0730084 -0.0646062 0.147505 0.145241 0.160678 -0.0262875 0.149409 -0.0452289 0.186627 0.093721 -0.0223303 -0.068485 -0.0801047 -0.00590642 -0.16411 0.166895 -0.0737842 -0.0108725 -0.0125258 0.19139 0.121688 -0.0635922 -0.0509433 0.0566897 0.0249659 -0.10045 -0.0506709 -0.0905595 -0.260466 -0.0672666 -0.0406386 -0.0206656 -0.10169 -0.227871 -0.0267424 -0.0437085 -0.093667 -0.0730321 0.239286 -0.15259 0.133832 0.0312038 -0.192395 0.0128035 0.0050918 -0.0428073 -0.0357775 -0.273606 0.0824893 0.115896 0.375036 0.0249457 0.0660355 -0.13492 0.0712513 0.0471833 0.450866 0.0330498 -0.0177283 -0.00539225 -0.018467 0.0466793 -0.0724464 -0.231663 0.153282 -0.0364737 -0.266807 -0.0620784 -0.00299348 0.0601397 -0.0760759 0.128517 -0.119979 -0.0702002 0.0605442 -0.163638 0.152904 -0.156581 0.0263391 0.00856752 -0.0181618 -0.0439624 -0.0969819 0.151524 0.0386824 0.141036 -0.156585 -0.1204 -0.00520483 0.0245563 0.046857 0.174023 -0.0807045 0.162529 0.00919618 0.183222 0.159359 -0.0642001 0.0730826 -0.00680035 -0.0215267 -0.0172844 -0.1305 -0.137861 -0.106425 0.192402 -0.157437 0.0480446 0.129411 0.072062 -0.0421821 0.0307288 0.00332779 -0.121874 -0.056975 -0.163564 0.00498678 -0.0511295 0.103009 0.0356487 0.0407861 0.166111 -0.195988 -0.00634595 0.0710428 0.0330604 -0.232531 0.101342 0.291562 0.0894264 -0.217009 -0.048077 -0.0639865 -0.075708 0.0731314 -0.0947801 -0.00774517 0.0157008 0.186056 0.103104 0.26317 0.0605109 0.0497888 -0.103733 0.14178 -0.278471 0.315824 0.0412746 -0.163472 -0.191993 -0.0743199 -0.0462375 -0.0313104 -0.185489 0.187909 0.0509918 0.199428 0.0401155 -0.161723 0.13702 -0.223461 -0.118349 0.086282 0.129187 -0.171245 0.0155907 -0.145208 0.0915762 0.17613 0.0787163 -0.206828 0.00413336 0.171261 0.0188442 -0.0638954 -0.268894 -0.142706 0.228916 0.156851 0.0531258 -0.00191508 -0.00497971 -0.177019 0.127706 0.0903889 0.0710254 0.0713705 -0.0840312 -0.11713 -0.0659538 -0.00309989 -0.193022 0.212879 0.0150337 0.0717194 0.0407113 0.000170658 0.0652785 0.352269 -0.219829 0.0236595 0.00337095 0.0874861 -0.151676 -0.0430716 -0.242829 0.00502826 -0.117483 0.108166 0.15567 -0.151302 -0.344979 -0.0945529 -0.027268 -0.0406884 -0.101321 0.182439 -0.00755955 0.00984804 -0.168352 0.251659 -0.0388366 -0.200498 -0.0463873 -0.094679 -0.049924 0.237608 -0.140935 -0.0401807 0.027289 0.159084 -0.18748 0.0754099 0.0846257 -0.186541 0.157044 -0.0689614 -0.132132 -0.116063 0.0698648 -0.0192393 0.0663463 0.137727 -0.0824155 -0.0181917 0.051188 -0.0966706 0.10831 0.222107 0.190829 0.0925669 -0.102112 -0.0376211 0.174517 0.177613 0.116236 0.0607309 0.035307 0.162671 -0.155565 0.107738 -0.00695803 0.21658 0.0368833 0.189235 0.00804305 -0.0548506 -0.0784817 -0.0477576 0.0688412 0.19345 -0.122778 -0.175826 0.277736 -0.0217574 0.0425503 0.135989 0.0120662 -0.0871466 -0.257898 -0.113581 0.0550743 -0.111267 0.0964277 -0.117959 -0.0773393 0.106123 0.325875 0.0442461 0.0506964 0.114756 -0.258743 -0.103922 0.225649 0.0144936 0.0157559 -0.0171594 0.148834 0.0810294 0.0535341 -0.0107588 0.18906 0.145956 0.150164 -0.179747 0.189942 0.057168 0.111317 -0.0907568 -0.0738875 -0.0624356 -0.0326215 0.160705 0.0955912 -0.0569716 0.0118165 0.0676563 0.233714 -0.0483812 -0.115019 0.285266 0.0602922 0.0657334 -0.1959 0.0422381 -0.130429 -0.235564 -0.0865713 -0.0255713 -0.00074115 0.0649134 0.162684 0.0458319 -0.0173413 0.0697677 0.0644328 0.115545 0.00274219 0.210267 -0.0133838 -0.0899965 -0.180664 0.0153016 0.00553635 0.0756172 0.0394244 0.1591 0.0174516 -0.183643 0.0441355 -0.17632 -0.111728 -0.0751852 -0.129825 0.0634602 0.0468171 0.150327 0.0938271 -0.0365164 -0.0621878 -0.220636 0.16124 0.129437 0.0726156 -0.0533609 -0.00932639 0.00141961 0.098157 
0.0673909 -0.215255 0.018494 -0.154344 0.169488 -0.119458 -0.0053524 0.00603407 0.0871674 0.106948 -0.085714 0.0929257 -0.0250376 0.0708401 -0.152793 0.123057 -0.029807 0.313555 -0.0867372 -0.222764 0.00961108 -0.186643 -0.0635254 0.19948 0.0260556 -0.0497605 -0.144519 0.0166883 -0.0672685 -0.0407966 0.19206 -0.167644 0.0190585 0.125358 -0.0931567 0.00626207 -0.133259 0.00317573 -0.0707659 -0.0393999 -0.0371955 0.0681389 -0.147848 -0.0674558 0.140733 -0.0245777 0.0258626 -0.0384498 -0.073601 0.0488148 -0.0905231 0.00212565 -0.06688 0.0464867 0.0263909 -0.0710156 -0.281058 0.0258257 0.0185975 -0.0657305 -0.0283199 0.0917528 -0.169944 0.0674397 -0.170837 -0.0624536 -0.251083 0.00428905 0.0317875 -0.264661 0.267304 -0.0194308 0.155018 0.0193528 -0.15011 0.206955 0.102467 0.0195673 -0.0523736 0.107673 0.036644 0.0770414 -0.158608 0.0565886 0.126018 -0.0918746 -0.0943442 0.0724699 0.134076 -0.156151 0.0360525 -0.00308902 0.0470091 0.0762037 0.0460805 -0.0706912 0.00304587 0.0483754 -0.037829 -0.0455324 -0.279323 -0.0716707 0.263834 0.011332 -0.0963794 -0.0546828 -0.123768 -0.0956743 0.0863889 0.186577 0.0836221 0.00413162 -0.151171 0.0224013 0.144142 -0.044891 -0.0175133 0.0784814 -0.000328714 0.0943529 -0.133514 0.113253 0.0855183 -0.152073 -0.03874 -0.0393921 0.228247 -0.085773 0.162735 -0.0265622 0.018092 -0.0189796 0.0675495 0.0401905 0.0365784 -0.0920324 -0.102151 -0.235641 -0.0979645 -0.246802 -0.182894 -0.134531 -0.215136 0.100666 -0.274037 0.0496429 -0.0452487 -0.0194081 -0.0879527 0.152283 0.10655 0.0943382 0.206805 0.176232 0.0130145 0.00233073 0.0805216 0.193195 -0.132303 -0.0360388 -0.343117 -0.0588911 -0.0709591 -0.0080147 -0.0942298 0.12008 -0.0890578 0.164739 0.080081 0.156755 -0.101392 0.0124991 0.121226 0.0138032 -0.15786 0.128963 0.00710989 0.0806179 -0.0350493 0.0356616 0.170628 -0.160416 0.0870509 -0.207596 0.0781182 0.0081265 0.0902563 0.0927362 -0.235157 0.157942 0.212231 0.117229 -0.0276651 -0.0974799 0.109329 -0.130082 -0.133682 -0.106165 -0.158924 0.0145385 -0.0806863 0.121281 -0.0213831 -0.225425 -0.0717306 0.0158969 -0.0346655 0.146803 -0.162664 0.0251952 -0.173533 -0.0172372 0.0639892 -0.034183 -0.177114 0.138037 0.133996 0.0552933 -0.060731 -0.115577 -0.092351 -0.0796231 0.108105 -0.200841 0.00458962 0.0492372 0.282338 -0.0658057 0.0602845 0.074143 0.0507454 -0.0780158 -0.0609997 0.176232 -0.00810452 0.0976421 -0.0129788 -0.215399 0.0915274 0.01292 -0.0108425 -0.0142888 -0.301131 -0.0273564 -0.088478 -0.02456 -0.12225 -0.266603 0.209648 0.243356 -0.296356 -0.023782 0.0494318 0.0743347 0.12139 0.0620008 0.183223 -0.102202 -0.130134 0.034293 0.0140331 0.0460805 0.0490738 -0.085632 -0.0660698 -0.249123 0.218908 0.0107667 0.125498 -0.277569 -0.152176 0.0261244 0.0786589 0.243681 0.0895309 -0.0237556 0.0659098 -0.254674 -0.0826162 -0.223716 -0.142103 0.114993 0.130402 0.112084 0.069955 -0.138165 0.0996045 -0.119067 0.0107266 0.213785 -0.0850942 -0.126258 0.107888 -0.0969419 -0.106446 0.193062 -0.34198 -0.174395 -0.0457712 -0.0991177 -0.0474523 0.0680043 -0.168861 -0.0974492 -0.0441024 0.0189746 0.103284 -0.0158691 0.0920139 0.0903344 0.136617 -0.202293 0.0368696 0.0204223 0.0872547 -0.0577602 -0.0606925 0.0927953 -0.221571 -0.0771517 0.139262 0.0765243 -0.0138887 -0.17305 0.244822 -0.211298 0.223801 0.0447 0.138385 0.0417432 0.01577 -0.158081 -0.380174 -0.148793 0.199825 -0.151033 -0.0992932 -0.012622 0.210052 -0.0467643 -0.0299715 -0.150407 0.022763 0.0607615 0.198554 0.0616392 0.0492376 0.0504335 -0.019329 -0.10852 -0.0647951 -0.109637 -0.111856 0.0198428 -0.110299 -0.00202882 -0.0106691 0.0124727 0.0415087 -0.0895374 -0.183219 0.010926 0.118856 -0.0899207 -0.0369106 0.207691 -0.0185523 -0.0770738 0.102964 0.069529 0.0504501 0.0370553 0.0503119 -0.0104605 -0.0253237 -0.0194831 0.0045381 -0.19387 -0.386648 0.286631 -0.0756953 -0.206724 0.0482862 0.0713853 0.176166 0.0117231 0.305961 -0.13303 0.174802 -0.150244 0.068264 0.193999 0.0698928 -0.162547 -0.0557375 -0.160639 -0.076175 -0.0812399 -0.0765214 -0.0462472 -0.167565 -0.146134 -0.12147 -0.249356 0.0341821 0.115208 -0.0860791 -0.0456824 0.207166 0.0109913 0.135563 0.0101267 0.0136569 -0.146717 0.124179 -0.058192 -0.0448956 -0.16919 -0.0446897 0.024803 -0.0908154 0.0138815 0.023547 -0.148854 -0.115914 0.144041 0.116454 -0.0201502 0.079827 0.0852534 0.00724912 0.233285 -0.0944042 -0.039315 0.0100407 0.238083 -0.111555 -0.0323667 -0.0447524 0.028768 0.0901728 0.0658917 -0.00624947 -0.046192 -0.0235445 -0.219967 0.232326 -0.148291 0.026661 -0.120411 -0.247276 -0.0448083 -0.013293 -0.104361 0.105359 0.0717808 -0.0917858 0.0963472 -0.0432321 0.0125081 0.123827 0.0220753 0.0674934 0.148041 0.0951466 -0.0331141 0.0441129 0.0296396 0.0568754 -0.117702 -0.0345154 0.16354 -0.18256 0.0377355 -0.0687778 0.366022 0.00699692 0.0370221 -0.0547203 0.0867385 0.0748974 -0.0366754 -0.284174 0.0828798 -0.116641 0.0976029 0.0118367 -0.168099 0.145474 0.172609 -0.0429674 0.0895407 0.129127 0.274075 -0.0477733 -0.158738 -0.0513788 0.155988 -0.0970128 -0.0237786 0.0450747 -0.176406 -0.0184977 -0.00574556 -0.152598 0.0623804 0.118276 -0.255751 0.115956 0.319565 0.150688 0.000101415 
-0.0949007 0.107629 0.389438 0.0610347 0.205438 0.0683597 0.108387 -0.040876 0.0737659 0.109814 0.107683 0.166169 0.192734 0.0269174 -0.0971582 0.0689888 -0.157384 0.0478052 0.166037 0.0582309 0.096838 -0.0956002 -0.0594821 0.171227 0.0253794 -0.0337478 0.132739 0.0340137 -0.07867 0.128169 -0.0386315 0.0375471 -0.0334501 -0.0813767 0.0103253 0.0888392 0.0129769 -0.124173 0.117628 -0.0162872 0.123246 -0.188819 0.0334676 0.0339558 -0.0640648 0.0937692 0.141121 -0.0103307 -0.0616479 0.111439 0.235021 0.140442 0.0540039 0.13644 -0.0982593 -0.0379746 -0.0732554 0.167258 -0.108686 -0.191213 0.000171351 0.0743041 0.0777114 0.0289537 0.149975 0.0231782 0.102858 0.29484 -0.0449517 -0.137549 0.26118 -0.0040111 -0.274082 0.11429 -0.261717 -0.144969 -0.0671257 -0.171864 -0.131968 -0.245433 0.0856299 -0.109306 -0.0262109 0.0359519 -0.0540306 -0.012268 0.177166 -0.124871 -0.0419273 -0.0980119 0.0743722 -0.112132 0.17785 -0.0500536 0.172374 0.0273796 -0.0596077 0.159179 0.0645395 -0.0646083 -0.0395776 -0.0750641 -0.112916 -0.0513273 0.117284 -0.112583 -0.145269 -0.0122369 0.0992177 -0.0612794 0.0806525 0.230003 -0.081791 0.182087 0.101204 -0.0326233 0.26281 0.201606 0.314215 -0.161667 0.316795 0.145031 0.0812121 0.317901 0.105532 -0.367928 0.0772099 0.122086 0.0817301 -0.144683 0.154734 -0.0914637 -0.0665311 0.0902258 -0.209734 -0.236368 -0.0732921 0.0708718 0.138272 -0.0837793 0.208228 -0.150438 -0.0713054 0.120058 0.169522 0.0580559 0.115891 0.0664099 -0.00815201 0.0980643 0.324217 0.160005 -0.0599065 -0.0998664 0.175859 0.0198637 -0.174029 -0.0736258 0.204785 0.0089636 0.00209634 -0.00185356 -0.0851799 0.141013 0.0139398 0.0990684 -0.019262 -0.156815 0.124178 -0.145807 -0.0461121 -0.00810465 -0.0446742 0.353454 0.193025 0.0356658 0.0122183 0.0263262 0.197542 -0.0477531 0.133188 0.0473689 -0.0162827 0.043924 0.0975789 0.160727 -0.196209 -0.212152 0.00321851 0.00728032 0.0931417 -0.135528 -0.161218 0.0123756 0.198613 -0.210706 -0.0988947 -0.0291431 -0.0955653 0.0162709 -0.0268061 -0.164174 -0.181125 0.183264 -0.0873743 0.0733075 0.00143034 -0.0579652 -0.118823 0.0488159 0.17997 0.0675253 0.0951368 -0.0320597 0.120714 0.0462004 0.157517 -0.200723 -0.0137795 0.0254248 -0.286927 -0.0620813 0.261931 -0.0257197 -0.0284735 -0.111393 0.121339 0.0353746 0.094038 0.259741 -0.0679219 -0.0133038 0.04705 0.0249766 0.0981556 -0.19831 0.0562881 0.086488 -0.0910201 -0.00756516 -0.0491596 -0.179339 -0.350743 0.0339053 -0.118873 -0.00944717 0.189232 0.086826 -0.0602161 -0.16889 -0.184564 -0.0718515 -0.23959 0.185093 -0.109853 0.0504317 -0.159682 0.0590283 -0.0291737 0.098158 0.0285838 -0.0944439 -0.0822345 0.00768484 0.025102 0.0912353 0.0512619 0.0868792 -0.0858413 -0.106594 -0.163673 0.110442 0.101737 0.139643 0.0100304 0.0365876 0.161043 0.120324 -0.0579625 0.0833079 0.0930842 -0.0371339 0.0646446 -0.0158965 -0.0786646 -0.0168093 -0.265653 0.165901 -0.262177 -0.010887 0.205254 -0.123433 -0.34025 -0.0585013 -0.0796551 0.0297526 -0.231575 0.0575898 0.105119 0.294707 -0.0771676 -0.172587 0.109419 -0.0443989 0.0717764 -0.1092 -0.074898 0.0331655 -0.22931 -0.269842 0.132387 -0.367196 0.138504 0.258038 0.170596 -0.21707 0.223468 0.0789308 0.0778657 0.0464192 0.167169 0.0126694 -0.0902465 -0.0857538 -0.0167046 -0.347102 -0.0797413 -0.0639561 0.126772 -0.012981 0.182409 0.0490067 0.0672211 -0.0944508 -0.117277 -0.110291 0.0585307 -0.159779 0.101488 -0.149277 -0.0657754 -0.00440116 -0.0813959 0.140197 0.00485287 -0.0766096 -0.0203866 -0.015391 0.100316 0.0891161 0.0177654 -0.0393175 -0.138158 -0.000622406 0.0659561 0.000949899 -0.118465 -0.0423608 -0.00485956 0.137418 -0.105681 0.00950833 -0.111016 -0.000157579 -0.0774007 0.0159233 0.231802 -0.0517276 0.222884 -0.100909 0.0234696 0.0151158 -0.0118714 0.0926881 -0.107874 -0.0213533 -0.113572 -0.0219798 0.210979 0.166863 -0.103227 -0.030285 -0.0572371 -0.0122391 0.0678822 0.0355145 0.0233256 0.0982177 -0.011177 -0.0219573 0.059503 -0.190738 0.0369848 0.0371597 0.260395 0.0613532 -0.0937386 -0.250332 -0.157167 -0.0666886 0.0506469 -0.178022 0.0590689 0.104933 0.128474 0.0100778 0.0723037 -0.251127 -0.0655013 0.117805 -0.130852 0.0457361 0.00673893 -0.0476056 -0.00915385 -0.143784 -0.018132 0.291847 -0.233557 0.00846905 -0.139388 0.199973 -0.0228002 0.0177376 0.136668 0.00638341 0.184978 -0.0607666 0.0472971 0.00772668 -0.17526 0.0470508 0.237526 -0.110707 -0.0723416 -0.120495 0.0340794 0.241033 -0.0439639 0.14384 0.122658 0.0749411 0.272638 0.0716602 0.0149559 -0.0185462 0.049028 -0.034691 0.00715994 0.0256286 -0.296001 -0.373101 0.0881823 0.0624578 -0.0599602 -0.127464 -0.0532547 -0.0215503 0.0842655 0.189797 0.0493705 0.0197977 0.252947 0.0803554 -0.102081 -0.103717 0.00771856 -0.0628759 -0.138072 0.0286357 -0.058109 -0.0145428 -0.167793 0.0852963 -0.235487 0.0664038 -0.0278403 -0.0988083 0.141754 0.237939 0.173473 -0.121367 0.0428768 -0.0507193 0.155553 -0.0348777 -0.0803805 0.0469905 0.0961271 -0.144832 0.0871377 -0.0502829 -0.158411 0.0481756 -0.286628 -0.119043 0.093846 0.110234 0.139258 0.0307221 -0.0441524 0.00687696 -0.0401635 0.0985801 -0.0106556 0.0838388 -0.105995 -0.118285 0.101333 -0.0530651 -0.0406202 -0.0809268 
0.0362437 -0.107937 -0.0890069 0.326571 -0.266205 0.118717 0.169614 -0.0445615 -0.160768 0.11234 -0.0301424 -0.146015 -0.225519 0.0859641 -0.0147732 -0.0487051 0.106584 0.0580005 -0.098511 0.00880647 -0.162443 0.0473528 -0.056245 0.103213 -0.144518 -0.0738499 -0.0666735 -0.0422272 -0.0131181 0.161035 -0.127109 0.0233179 -0.110645 0.157991 0.205989 0.0194001 0.0211965 -0.150565 -0.00995617 0.060585 0.203357 0.00250777 -0.0313846 -0.12531 -0.112014 -0.190434 -0.0371 0.112339 -0.0285514 0.0720127 0.0994812 -0.133021 -0.315899 -0.127462 0.0485526 0.0356783 -0.150396 -0.0636584 -0.0953202 -0.13193 -0.062851 0.126819 0.088494 -0.0764338 -0.0440136 0.117805 -0.0457979 0.239833 0.0384462 -0.125224 0.198664 0.208534 0.072762 0.0306251 0.281781 -0.242649 -0.189469 0.260995 -0.034315 0.192364 -0.0804854 -0.0207856 -0.0536237 0.000468125 -0.0272911 0.134829 0.253822 0.155724 0.151424 0.0288178 -0.0674536 0.139423 -0.111143 0.0803359 0.280065 -0.0955517 0.0967394 -0.164091 0.0409621 0.0182307 0.0950797 0.0817343 0.0405195 -0.263242 -0.0931531 0.0453275 0.260627 -0.0731132 -0.0171539 0.0720792 -0.0314139 -0.302759 -0.100073 0.0433498 0.0910045 -0.273499 0.00906055 0.0615584 0.19931 -0.148382 0.00615241 -0.0090162 -0.0627471 0.112935 -0.23695 -0.0843585 0.0702851 -0.110581 0.101768 -0.0972031 0.118648 0.177305 0.156353 -0.058249 0.0283328 0.130979 0.173915 0.126273 -0.104616 -0.0296079 -0.146136 0.116988 -0.0499969 0.0947357 -0.183244 0.0397281 0.0366431 0.0113962 -0.265256 0.029115 0.194651 0.00662777 -0.058188 -0.0820705 0.0263243 0.0247303 0.237982 -0.136254 0.195641 0.0412149 -0.113951 0.0559475 0.155427 -0.180666 0.0536432 0.0435959 0.136396 0.200398 -0.216846 -0.135965 0.0133188 -0.09718 0.0668232 -0.0386834 0.0755802 -0.176212 0.0968775 -0.0175429 0.173408 -0.056264 -0.0143671 -0.0894764 -0.1823 0.0340132 0.202032 -0.0926884 0.108677 -0.0147411 -0.133513 0.0600078 0.0594244 -0.0585276 -0.0696234 -0.106688 -0.0861516 0.0309147 0.142385 0.159831 0.181282 -0.116784 0.257579 -0.0117765 0.135118 -0.207208 0.00114605 0.00858257 -0.248233 0.0541052 -0.00830774 -0.0628116 -0.0127013 -0.0627676 0.155065 0.162828 -0.0809168 -0.188048 0.0943097 -0.0567626 -0.0451144 0.0374598 0.0365442 0.0028463 -0.0475149 0.201379 0.208461 0.0105552 -0.0658332 -0.0551672 0.0136375 -0.105379 0.223133 0.0463006 0.126887 -0.115113 0.100671 -0.063863 0.325689 -0.0535908 0.158179 -0.0605465 0.0590733 -0.118119 -0.0957671 0.151363 0.0502173 0.0602619 0.0338246 -0.0161489 0.029643 -0.270031 -0.0758655 0.0373451 -0.101556 0.0618741 0.217173 -0.0570424 -0.0478929 -0.120313 -0.0952743 0.0292482 -0.00493196 0.0710448 -0.0920446 -0.0276813 0.00453919 0.202193 -0.167 -0.0726954 0.196274 0.0123184 -0.0170368 0.119913 -0.0207336 -0.178517 -0.119772 -0.0956305 0.203791 0.12431 0.0755253 -0.0428833 0.040769 -0.0296956 -0.100768 0.138556 -0.0759053 0.0531435 0.0690463 0.0145839 0.0883924 -0.0382919 -0.016561 0.0777271 0.0250989 0.0537067 -0.0426192 -0.151585 -0.110302 0.0609299 0.267126 -0.189986 0.0345602 -0.0454406 -0.0509685 -0.0524622 0.217196 0.0324223 -0.0118141 0.00150659 -0.0249084 -0.0118486 0.0528199 -0.0186473 -0.0851044 0.0630952 0.0438471 -0.160869 0.124814 -0.149915 0.0558282 0.0585754 -0.0475571 0.120774 0.0829825 0.156407 -0.061824 0.00214811 -0.102758 0.0345058 -0.116931 0.126885 0.0372266 0.133796 -0.0529514 -0.0311462 -0.00929648 0.0342318 0.0217518 -0.159943 -0.0486611 -0.154077 -0.193925 0.0890923 0.155746 -0.218488 0.200656 -0.0477323 0.0337369 -0.317793 0.0600867 -0.0171795 0.0328594 0.026786 -0.104424 0.107097 0.298235 -0.00501327 -0.233475 0.141238 -0.166104 0.050038 -0.0580031 0.145247 0.169144 0.0339445 -0.23287 0.00447608 0.00671482 0.132219 0.102841 -0.0681948 0.180188 0.0368667 -0.157724 0.161665 0.0643713 -0.157786 -0.208388 -0.0712399 0.0100439 -0.199461 0.160389 0.246062 -0.153327 -0.0236299 0.151279 0.0312651 -0.0587585 0.079329 0.107189 0.271204 0.121789 0.238463 0.0556468 0.193681 -0.150086 -0.0489062 -0.0706173 0.115756 -0.0539883 0.0665196 -0.333843 -0.0174986 -0.00696975 0.182 0.212183 -0.17573 -0.188235 -0.0879742 -0.0430197 0.133857 -0.19872 0.0217138 -0.0336459 -0.104059 -0.0710431 -0.0716584 0.144682 0.00197226 -0.201789 0.144964 -0.0309709 0.317197 -0.000325345 0.168745 -0.0969063 -0.010861 -0.0859836 0.154819 0.103064 0.0110715 -0.148162 -0.133668 0.177586 -0.159653 -0.220773 0.0979078 0.108352 0.114682 -0.0294413 0.024785 -0.0304379 0.102307 0.244317 -0.156201 0.0354095 0.238971 0.107024 0.0250088 -0.117155 -0.179891 0.0556452 -0.077458 -0.309029 0.124436 -0.209653 -0.0200785 -0.0844966 -0.087024 -0.0405699 -0.128104 -0.205045 0.0437109 0.0611247 -0.120653 0.194755 -0.00910512 -0.117104 0.0621309 -0.0386881 -0.158108 -0.0528312 0.207566 -0.144699 0.0286036 0.16041 0.0298172 0.198188 0.00403059 0.0377921 0.0339053 0.125125 -0.00510755 0.0200148 -0.181813 0.0959134 0.158961 -0.0190995 -0.0473074 0.0978244 -0.210956 0.0561628 -0.108931 -0.0246688 -0.0224808 -0.131193 -0.0236802 0.210965 -0.238072 0.174527 -0.233066 -0.107639 0.187812 0.145148 -0.0504882 -0.0222709 0.193543 0.106237 0.384136 -0.123811 0.0334014 -0.039276 0.0397074 
0.011638 -0.086383 0.0675161 -0.288788 -0.0581249 -0.204908 0.124524 0.122707 -0.0276461 -0.0507985 0.133498 -0.104249 0.0165209 0.210506 0.117249 -0.00531594 -0.209304 0.125014 -0.198346 -0.0704459 0.0903769 0.0272361 0.0741139 -0.204537 0.106067 0.083634 -0.0491944 -0.0289371 0.148944 -0.107084 -0.00272708 0.0653957 -0.226419 0.27895 0.276649 0.0192512 -0.159143 -0.153938 -0.0377747 -0.0295207 -0.0512288 -0.0376219 -0.0212541 -0.190023 -0.0310851 0.0437742 -0.0854554 0.172708 0.148073 0.167849 0.0992358 -0.15847 -0.0337789 0.132107 -0.0945887 0.0449663 -0.0236442 0.121698 0.119791 -0.233796 -0.0583624 -0.0764874 0.0223375 0.157624 0.165263 -0.0788423 -0.130638 0.102825 -0.0943813 -0.11981 -0.123639 -0.233239 -0.123222 0.308335 -0.044316 0.343828 0.266064 0.195752 -0.0233733 0.187075 -0.10309 -0.152375 -0.149448 -0.150119 0.129302 0.138978 0.299662 0.00443448 0.147227 0.0100939 -0.0218026 -0.200127 -0.140746 -0.19708 0.241539 0.161718 0.0142027 -0.185029 -0.324773 -0.00878173 0.0920207 -0.123683 0.0664637 -0.191425 -0.0822221 -0.150741 -0.237515 -0.232044 -0.0570689 -0.0109758 -0.105453 -0.012283 -0.322918 -0.151032 -0.0622294 -0.111801 -0.133678 -0.158078 0.0863333 0.0570073 0.0360147 0.00568643 0.0558721 -0.0400248 -0.220135 -0.223643 0.0777672 0.00255309 -0.0699185 -0.203062 -0.166689 -0.0118748 0.0128035 -0.0707477 0.196781 -0.120431 0.0115388 -0.012913 0.012888 0.214501 0.0455659 -0.156275 -0.175516 -0.110911 0.0568417 0.0770513 0.0206513 0.168766 -0.0905503 0.115127 0.150811 0.00752787 -0.0301049 -0.129229 -0.0270597 -0.033942 -0.200674 0.329512 -0.0407428 0.015969 -0.0501743 0.0338714 -0.0144588 0.0440699 0.112478 0.00902406 0.0761337 0.0797504 0.131572 -0.223039 0.191514 0.211807 0.109413 0.0514147 -0.0435087 0.102424 0.120808 0.0917238 0.154525 0.0958457 0.0426381 -0.0315976 -0.101647 0.0141277 -0.0697516 0.151424 -0.234345 0.0495303 -0.142372 0.0686417 0.0668904 0.147221 0.0282928 0.0559255 -0.08577 -0.0802729 -0.0813992 0.0158094 0.0413507 -0.066799 -0.13021 0.239328 -0.219136 -0.0754906 0.206608 -0.152801 -0.0424479 0.0950751 -0.104156 -0.0686064 0.0154269 -0.310194 0.0506655 -0.195349 0.000174621 -0.200356 0.0406728 -0.0529559 -0.00802047 0.014246 0.139169 0.240788 0.263048 0.294928 0.195116 -0.0865283 0.0735933 0.114915 -0.0292758 0.0909708 0.00987032 0.0269981 -0.0573531 -0.245309 -0.277176 0.190654 -0.0880339 -0.363437 0.164123 -0.0506295 -0.157512 -0.109224 0.0622233 0.16553 0.0106004 0.0848608 -0.00967888 0.138439 0.252122 0.0147565 -0.272157 -0.0393394 0.442599 -0.000644647 -0.00770442 -0.174171 -0.231914 0.204824 -0.089301 0.028537 -0.0374853 0.128453 -0.0824377 0.172175 -0.0775746 -0.0912004 -0.0616393 0.119197 -0.317148 0.118174 -0.170946 0.108138 -0.137347 0.0560903 -0.176182 0.0127609 0.0191401 0.0353901 0.0220142 -0.089468 -0.226733 -0.128114 -0.13291 -0.0198132 -0.191526 0.0788191 -0.108288 -0.285448 0.0815244 0.0672737 -0.0747045 -0.0121908 0.0948397 0.0704419 -0.0169651 -0.0977582 -0.0429665 0.0279262 0.0712417 0.180763 0.0181581 0.064532 -0.0770498 -0.0388698 -0.259467 -0.0742583 -0.215523 -0.325193 -0.0286445 -0.117246 -0.137456 -0.168955 -0.046064 0.0841657 0.107338 0.315701 0.083392 -0.034645 -0.139477 -0.115276 0.159258 0.112681 0.233826 0.0529308 0.0214737 0.197456 -0.0613118 0.00320773 -0.0896438 0.0586983 0.105479 0.0838282 0.0906372 0.0681354 0.0315722 0.104287 0.166867 0.125822 0.0726065 -0.0419757 -0.0502607 -0.00355043 -0.197344 0.0841528 -0.093441 0.139372 -0.043036 0.0498258 -0.0947665 0.00800379 -0.0177732 -0.0707965 -0.0354966 0.0902924 -0.237038 -0.0284949 0.0297863 -0.058279 -0.255364 0.180295 0.156692 0.0170969 -0.0789497 -0.0818109 -0.119153 -0.053894 0.0965633 0.0550295 -0.0120884 -0.0732425 0.174925 0.134658 -0.0400593 0.0784042 0.0689381 0.115242 0.0296504 0.0788636 0.0463133 0.0391432 0.11874 0.187728 -0.0253766 0.14921 0.0348183 0.214391 -0.105355 -0.026017 -0.263375 -0.190669 0.0444439 0.148621 0.104918 0.101724 0.0819887 -0.280084 0.0963404 -0.152132 -0.0535471 -0.240875 -0.331834 -0.0922671 0.0510132 -0.120902 -0.0110038 0.0654936 -0.291596 -0.185697 -0.018714 -0.0245001 -0.10657 -0.0211359 -0.160864 0.000160181 0.178979 0.309897 -0.0358802 0.116884 -0.00562621 0.00529627 0.144562 -0.00129995 -0.217778 0.0138215 -0.0412005 0.0195733 -0.107955 0.128814 -0.0648278 0.0796949 -0.0663973 -0.127867 0.015781 0.0392518 -0.105334 0.192111 -0.0647342 0.194275 0.0798356 -0.135705 -0.150559 -0.0287984 0.0910918 -0.0559809 0.049444 -0.0529153 -0.142835 -0.137099 -0.0597672 0.254347 -0.225918 0.0894747 0.0594472 -0.0661369 -0.0169947 0.0331269 -0.27214 -0.165596 -0.346166 -0.170165 -0.0841321 -0.0907249 -0.155679 -0.0430825 0.0950142 0.0877895 -0.0383501 0.0181764 0.117044 0.0941267 -0.136354 0.0225317 0.0579794 0.185623 0.114648 0.25587 0.108787 -0.144108 0.15925 -0.0292363 0.278341 0.0855174 0.0635094 -0.210649 0.0280417 0.123052 0.127618 -0.146101 0.00362505 -0.191808 -0.0206016 -0.0187089 -0.22416 0.116101 0.407919 0.074041 0.0645942 0.117663 0.150164 0.196944 -0.0204846 0.119175 -0.0752929 0.110918 -0.0491994 0.00488785 0.0408742 -0.331903 0.0659202 0.223847 -0.0400124 0.073128 
-0.149584 0.0655929 0.012502 0.143355 0.0656347 -0.137169 0.0679831 -0.116242 0.0347052 -0.0200218 0.0503956 -0.147677 -0.00422036 0.0439194 -0.119117 0.214537 -0.0471015 0.184823 0.0438594 0.0118732 0.109912 0.199435 -0.160584 -0.0394018 0.0472912 -0.0488267 -0.1357 0.0508468 -0.112085 0.0195608 -0.00434456 -0.135195 -0.0910054 -0.0895459 -0.183951 -0.00778735 -0.284578 0.166442 -0.0773824 -0.19775 0.0193041 0.235082 -0.0838192 -0.339424 0.225157 -0.142125 -0.0593399 0.0931076 0.145052 0.0545158 0.0425047 -0.0627551 0.114928 -0.0422502 0.134037 0.0309681 0.0180565 -0.208229 -0.13339 0.0508061 0.0942536 0.186934 -0.0260266 -0.231862 0.180384 0.0656018 0.0568501 0.0489377 -0.0960493 0.133298 -0.238287 -0.0681087 -0.150488 -0.142811 0.0987502 0.206728 -0.0261068 0.232421 0.267821 -0.230712 0.0800546 -0.0479093 -0.195986 -0.206949 -0.100557 0.040331 -0.121492 -0.134416 -0.101661 -0.0628081 -0.117609 -0.0777936 -0.160031 0.00393384 -0.000405068 -0.089207 -0.00857782 -0.0997593 0.244037 -0.021949 0.0110431 -0.151782 -0.0470468 -0.0595543 0.198966 -0.103955 -0.0526669 -0.00820741 0.0766323 0.177897 -0.0955712 0.247037 0.166606 -0.0159975 -0.0158149 0.135592 0.142121 -0.0642139 -0.14942 0.0743755 -0.018972 -0.218492 0.060519 -0.0635191 0.144811 -0.0964975 0.0660261 0.0956004 0.111242 0.0872566 0.183697 -0.0506151 -0.0365764 -0.0789567 -0.120427 0.0297083 0.125901 -0.170169 0.00996673 0.111774 0.171817 -0.12292 0.0612245 0.0822586 -0.0844532 0.130475 0.0827142 -0.0858463 0.161705 0.0818361 -0.306073 0.344719 -0.139089 0.135757 -0.0648261 -0.159913 -0.0940437 0.114375 0.215188 0.159956 -0.0211184 0.0513219 -0.0858147 0.0603831 0.149443 0.0663264 0.071429 0.0680943 0.0583711 -0.207237 -0.0101013 -0.180704 0.0638978 0.127392 0.0464499 -0.169069 -0.0582626 0.0732179 -0.108406 -0.141708 -0.0324365 0.143955 0.0046739 -0.0477489 -0.0570277 0.166307 0.0313344 -0.0205464 -0.188638 0.0950346 -0.0698822 -0.16531 0.138392 -0.0269088 -0.00239723 -0.118123 -0.202397 -0.0165673 0.0877707 0.103416 -0.0101084 0.0163449 0.106676 -0.012444 0.0851226 -0.0786712 0.115877 0.0660781 -0.048606 -0.134582 0.0268315 -0.251614 -0.0919645 0.0620562 0.0484637 -0.0902123 -0.0550929 0.104893 0.0424969 0.053679 0.0571203 0.00647269 0.0995051 0.119084 -0.0975256 -0.0764605 0.0134312 -0.0284497 -0.0794724 0.0114494 -0.0509689 0.133181 0.188257 -0.304573 0.10578 0.0485684 0.154042 -0.0631982 0.104446 0.0717858 -0.115423 0.0300106 0.0578497 -0.189411 0.170759 -0.222555 0.0197224 -0.0970527 -0.0729999 0.0531053 -0.0628585 0.055306 -0.185455 -0.120582 -0.0195546 -0.0402928 0.0596893 0.00635978 -0.0341547 -0.0100971 0.0482605 0.0323389 -0.0419755 0.127652 -0.209428 -0.0555118 0.0523316 -0.0709369 0.128095 -0.361123 -0.212463 0.141674 -0.0132755 0.122202 -0.166449 0.0466618 -0.00421381 0.0489024 0.139498 -0.142316 0.0329825 -0.0854743 -0.0529692 -0.259092 0.0540589 0.00602481 -0.000518072 0.0947247 -0.17268 -0.168348 0.0587182 -0.0115508 0.174222 -0.0167417 0.0647225 0.22825 -0.0309443 -0.0920976 -0.16828 -0.0379627 -0.110909 -0.0473778 -0.171348 0.267479 -0.109223 0.0386634 -0.170318 -0.0287249 0.00904726 0.125199 -0.025425 0.0465036 -0.00696699 0.132596 0.036718 -0.0862267 -0.0219566 -0.0171002 0.046234 0.169743 0.0126483 -0.0800494 -0.0368635 0.0359375 0.138114 0.0795814 -0.170707 -0.0158871 -0.138336 -0.150529 -0.311752 0.0030129 -0.0626836 -0.0695406 0.274841 -0.0155657 0.03593 0.234426 0.115448 0.203356 0.037441 0.0282316 -0.164057 0.105708 -0.0386495 -0.046673 0.121088 -0.0440126 0.0418755 -0.0306805 0.0935979 -0.00316715 -0.290875 0.179793 0.164945 -0.0909573 0.061238 -0.0780052 -0.0169739 0.0667277 -0.0153698 -0.135804 0.082943 -0.111173 -0.108706 -0.0238174 0.0187601 0.0955612 -0.0425985 0.0089822 -0.145488 0.242725 -0.163298 0.0524514 -0.348458 -0.0213344 -0.0369671 -0.318256 0.00287768 0.21605 0.0764634 -0.101397 0.139645 -0.13854 0.129358 0.0347903 0.0758309 0.328946 0.221822 0.0848667 0.0869034 -0.0663962 -0.136898 0.151262 0.100546 -0.092202 -0.191331 0.154586 0.0894345 -0.0877288 0.197725 -0.108438 -0.181326 -0.302554 -0.0652202 -0.20487 -0.0579122 0.200134 -0.0454235 0.0889115 0.00687776 0.0195263 0.069755 0.0113178 0.0226963 -0.0834325 -0.3238 -0.110781 0.0178319 0.28512 0.0554616 -0.200722 0.178807 -0.198387 -0.112622 0.166206 -0.0377971 -0.126093 -0.291998 0.0456495 0.0342014 0.0502374 0.16719 -0.0205528 0.0986177 0.0426096 0.0297228 -0.0778393 0.10524 -0.227335 0.155152 -0.0558135 0.0526767 -0.0421577 0.144985 -0.0972068 -0.199583 -0.125628 0.0130325 0.191292 -0.203549 -0.123732 0.00737688 -0.187141 -0.0889339 -0.0290218 -0.015 0.0432783 0.0212699 -0.0801703 -0.0129443 0.074519 0.100823 -0.177422 -0.0941756 0.130737 0.0274188 0.0722363 0.135516 -0.0224197 0.109723 -0.209084 -0.0956174 0.0801545 -0.0600769 0.0927312 0.0110188 -0.0887544 0.133893 -0.0354806 0.0191854 -0.0281888 -0.0204687 0.00983683 0.034132 0.0904143 0.00637259 -0.00111023 0.0354186 -0.0887354 -0.0459923 0.00365917 0.116119 -0.0571741 -0.0668457 0.0781118 -0.0784245 0.09771 -0.149937 0.0033133 0.0197889 0.111643 -0.134975 -0.0251214 0.0129031 0.0216371 0.0731523 0.0596625 -0.159961 -0.047975 0.17122 -0.154545 
-0.155937 0.0870713 0.0328794 -0.003007 0.0586355 -0.13431 -0.0858966 -0.0158764 -0.0692123 0.0787063 0.217335 0.317939 0.0156071 0.040845 0.0353389 0.110459 -0.250883 0.0433787 -0.00691119 -0.149377 -0.0403507 0.0672248 0.110842 0.228449 -0.0839777 0.00418521 -0.030908 -0.107433 -0.130451 -0.0490841 -0.0225864 -0.169405 0.0301137 0.0236899 -0.084658 0.166448 -0.138727 -0.0188275 0.0416712 0.262023 0.183626 0.142397 -0.191831 -0.0554485 -0.0632461 0.012448 -0.0217112 0.117966 -0.0828159 -0.0438862 -0.0680527 -0.104853 -0.0977538 0.0172552 0.0157466 -0.159348 0.0118552 0.158008 0.0104614 -0.0952859 -0.294853 0.143082 0.0689709 -0.0193669 0.0173489 -0.0574243 0.0500779 0.0179462 0.0341303 -0.296328 -0.0166283 0.113862 0.166126 0.0569366 -0.279629 0.134375 -0.166455 -0.0460636 0.0322285 0.0440804 -0.0770852 -0.0566247 0.0133383 -0.237827 -0.0387052 -0.148849 0.054315 -0.12841 0.030111 -0.10775 -0.00724292 -0.0254332 0.117904 -0.154849 0.0967459 0.0555425 -0.112507 0.093349 -0.300564 -0.228602 0.267139 0.0933128 -0.0996032 -0.0857525 0.112735 -0.00587371 0.147521 -0.23805 -0.0187699 0.0310635 -0.0382613 -0.204466 -0.167746 0.0743596 0.0725145 0.0181755 -0.0556473 -0.0693729 0.0108093 -0.0908287 -0.249763 0.0197843 -0.0501597 -0.0492522 0.109439 0.253232 -0.0393243 -0.0824007 0.0758051 0.0236935 -0.124534 0.0306763 0.0780547 -0.0637931 -0.0597301 -0.00898543 0.191137 0.184104 -0.0599733 -0.171205 0.15857 0.0325777 0.190752 -0.0671687 -0.0361757 0.0197911 -0.105864 0.0158427 -0.0147438 0.194546 0.193902 0.0337807 0.120988 0.0273219 -0.0913372 0.217477 0.045851 -0.103618 0.0335636 -0.25282 -0.262602 0.12012 0.0688872 0.0828166 0.119527 0.304005 0.234382 0.0129833 -0.119903 0.0467405 -0.181642 -0.00151157 -0.0324858 -0.0806122 0.1506 0.0309329 -0.0865756 0.163723 0.246159 -0.0436015 -0.163938 -0.0049278 0.13888 -0.0400573 -0.0253145 -0.0368617 -0.0145868 -0.103499 -0.157264 0.070644 -0.158029 0.078568 -0.0468446 0.288949 0.0784157 0.10618 -0.0755364 -0.0783609 -0.011014 0.0536828 -0.123385 0.030272 0.217669 -0.0837744 0.151267 0.264027 0.106109 0.12227 -0.106998 0.0842032 -0.00552446 -0.241049 -0.0299562 -0.0870057 -0.0248312 -0.0371754 -0.0625754 -0.0990059 0.135936 0.0904696 -0.048555 -0.0242572 -0.244023 -0.0383772 0.233803 -0.114165 -0.0817115 0.12822 -0.070756 -0.262408 0.108664 0.0737337 -0.0085909 -0.000840218 -0.0125913 0.0837528 0.105549 -0.000419547 -0.147445 -0.0968371 0.126819 -0.0762053 -0.163682 -0.0349306 0.054327 0.0601975 -0.188588 -0.14386 0.0189463 0.00945346 0.108411 -0.0707653 -0.0499899 0.0932769 -0.138962 -0.0897104 0.0866802 0.244273 0.148368 -0.190776 -0.0563468 -0.0233688 -0.063043 -0.0241284 -0.0465954 -0.255292 -0.022681 -0.0471964 0.145725 0.0187166 0.0301282 -0.11585 -0.00692976 0.0512385 -0.0882959 -0.212446 -0.0571309 0.0509975 0.261714 -0.211207 0.0437147 0.275271 -0.102664 -0.1073 -0.159547 0.0904744 0.0956029 -0.00401517 -0.163927 0.0554861 -0.167066 -0.0102653 0.0226468 -0.0417822 -0.0688491 0.0786147 0.123407 -0.021261 0.179656 -0.00138868 0.144673 -0.103625 -0.0524315 -0.242097 -0.0959281 -0.0295175 0.0237828 -0.153623 -0.098325 0.164653 0.22839 0.106996 0.121486 0.0297742 0.0368057 0.0758327 -0.298465 -0.105089 0.0104707 -0.0136751 0.0286691 0.0256049 -0.157222 0.00665409 -0.0340239 -0.0633455 0.101196 0.048135 0.18479 0.126745 0.0537139 0.0756507 0.0320561 0.00793733 0.00485785 0.00431996 -0.314043 -0.0538371 -0.147575 -0.0901287 0.168767 -0.105604 0.0769956 -0.149645 -0.0685813 -0.104929 0.036995 -0.26078 0.00354429 0.0779917 -0.0629863 0.0498401 0.136621 -0.01613 -0.146646 0.212266 -0.147568 -0.0315631 -0.142477 -0.110604 -0.0338049 0.0947348 -0.11069 -0.120166 0.276983 -0.189603 0.0569252 0.0219013 0.0379652 -0.11794 -0.00495164 0.0223604 -0.00160362 -0.0420728 0.0267636 -0.0288728 0.028669 -0.0600751 0.0167873 0.215447 0.0988437 -0.122586 -0.00381833 -0.101686 -0.161226 -0.0938129 0.172232 -0.0880602 -0.136794 -0.0757138 -0.000888694 -0.166357 0.170078 0.267713 0.137178 0.0642574 -0.0552342 0.133705 0.23004 -0.157573 -0.0030393 -0.0717564 -0.0794219 0.174378 -0.0198735 0.219801 -0.0600861 -0.00344424 -0.120168 0.00174394 -0.127741 0.170926 -0.238555 0.057014 -0.117006 -0.182629 0.0220086 0.100102 -0.0187269 -0.0405281 -0.155355 0.0716592 -0.0342548 0.0506884 0.0898123 0.128849 -0.0067696 -0.202246 0.115827 -0.306272 -0.292642 -0.0439966 0.144318 0.0889166 -0.139489 0.013125 0.105096 0.0358622 0.0454871 0.0844266 -0.237203 0.0319344 0.0294252 -0.0720161 -0.332751 -0.140911 0.171984 -0.00822562 0.0531833 -0.145779 -0.187498 0.0666021 0.0033914 0.0182194 -0.0676878 -0.0710599 0.245853 -0.145798 0.179468 0.157406 0.112896 0.0620698 -0.0260164 -0.25072 -0.0481432 0.103493 -0.00248292 0.168446 0.112191 -0.108102 -0.0950929 -0.12689 -0.00659124 -0.0476902 0.041323 0.202791 -0.0358853 0.0487003 0.0201028 0.0324195 -0.256394 0.0380086 0.0841396 0.015439 -0.0113374 -0.106887 0.116629 0.151628 -0.00845711 0.123526 0.0947105 -0.243745 0.0429232 0.0606923 -0.0668154 0.17682 0.00253944 -0.155707 0.221543 -0.192004 0.0963778 0.253315 0.0588047 0.175789 -0.0268167 0.117017 0.144741 -0.0023292 -0.125112 -0.0778404 -0.362359 -0.040567 
-0.0570689 0.0848802 0.0325509 -0.163439 0.0303133 0.0663041 -0.0524737 -0.0529301 0.0954942 0.0795545 0.105281 -0.496762 0.174068 -0.0486295 -0.0867775 -0.0694396 0.115111 -0.0561083 0.141529 -0.0478386 -0.018338 -0.0503961 -0.00327612 0.16228 -0.0326445 -0.183181 -0.0479323 -0.00317317 0.13335 -0.0298562 0.0591969 -0.0420876 -0.0734583 -0.0597122 -0.104492 0.0361702 0.00828934 -0.316138 -0.113104 -0.0935867 0.209546 -0.0268812 -0.213396 0.143663 -0.0939595 -0.0840323 0.0516839 -0.0330134 -0.128318 0.22962 -0.073725 -0.0741351 0.0908154 0.146323 0.0260248 0.136919 0.0939671 -0.181316 0.115984 0.0409229 -0.275259 -0.0588299 0.115928 0.0708409 -0.140625 0.0144305 0.0893748 -0.0107673 -0.0720047 0.0461722 0.0561186 0.0116895 0.125836 -0.162951 0.114144 0.0018842 -0.0902234 0.0326263 -0.148376 0.0710816 0.255219 0.194178 -0.0150634 -0.0838852 -0.0711897 -0.059308 -0.00505531 -0.240975 0.158575 0.0318598 -0.0706567 -0.0464321 -0.224356 0.0363341 0.0173767 0.144325 -0.00063591 -0.0487425 -0.154314 -0.150097 0.0417156 -0.0475564 0.231751 -0.140864 0.0194197 0.079292 -0.0212617 -0.0907297 0.119353 -0.140606 0.101838 -0.105616 0.0305302 -0.056266 -0.0481166 -0.0844446 -0.0278493 -0.101347 -0.070358 -0.187445 -0.0983273 -0.102858 0.0241967 0.0803084 -0.0207301 -0.125928 0.0382491 0.174411 -0.0101682 -0.0776909 0.0471578 0.131021 -0.0214197 0.0473787 -0.0605248 0.137894 -0.0870361 0.0490958 0.110809 0.105316 0.065783 -0.108337 0.0446296 0.144308 0.15387 0.0885222 0.095098 0.262083 0.0939835 -0.0889334 0.114311 0.121594 0.211124 0.083527 -0.0299529 -0.0208091 -0.249331 -0.186096 0.0110143 0.350786 -0.0238824 -0.0457567 0.264825 -0.0468386 0.27339 -0.058324 0.115546 -0.1262 -0.153789 0.266695 -0.114393 -0.119202 0.124964 0.0135379 0.0526051 0.159775 0.238555 -0.0713073 0.0457543 -0.0356068 0.246827 -0.232777 -0.0467142 -0.409831 -0.0607103 -0.0327962 0.0695817 0.136109 0.135859 -0.142831 -0.0904336 -0.0669755 0.0656098 0.0344413 0.0036226 -0.0606302 -0.146202 -0.0826064 -0.0123493 -0.0283931 0.0314186 -0.248048 -0.0189067 -0.00989756 -0.0306627 0.213758 0.0100525 -0.0257877 -0.0833984 0.11849 -0.12985 0.0616867 -0.0547462 0.270955 0.0455767 -0.0150687 0.0400603 0.136682 -0.00721273 0.142996 -0.0102495 0.20567 0.100986 0.169268 -0.0206423 -0.14171 0.267211 0.0346363 -0.0129439 -0.0309744 0.119903 0.0447307 -0.0674703 -0.0501279 -0.162603 -0.0735246 -0.0650874 0.113052 -0.196115 0.0750365 -0.164023 0.190589 -0.00935929 0.0826847 -0.0416911 -0.232241 0.0474966 0.127844 0.128752 0.0524471 -0.0730637 0.0482343 -0.0394414 -0.0196528 -0.303367 0.085271 0.0578218 0.0658986 0.221114 0.017079 -0.0355447 0.142556 -0.207904 0.048522 -0.169909 0.0971954 0.0433871 -0.0112743 -0.114679 -0.136326 -0.10388 -0.207522 0.0877737 -0.0131105 0.100232 0.153929 0.0866749 -0.053238 -0.116177 0.0717366 -0.0779698 0.0515202 0.136604 -0.111841 0.109286 0.205953 -0.224407 0.0604585 0.0223993 0.185265 0.0787537 -0.0605327 -0.0438125 -0.164068 0.146618 0.0285821 -0.124822 -0.113735 -0.200929 -0.0582196 -0.0645393 -0.00740816 0.192409 -0.0767733 0.259879 0.0517119 0.0109081 -0.0509217 0.0333066 0.306874 -0.113141 -0.01951 0.194084 0.065915 0.0291686 0.204111 0.190061 -0.0991767 0.00569471 0.13617 -0.156793 0.135088 -0.213994 -0.0595881 -0.177416 0.126024 0.0274707 0.170347 0.268313 -0.00946228 -0.0730899 0.0988834 0.0747332 0.148698 -0.0299547 0.143775 -0.00559928 0.0433197 -0.0354996 -0.294681 0.151663 0.29494 0.00955432 -0.265716 0.132684 -0.156591 0.018541 0.0360082 -0.0677444 -0.0389804 0.0239107 -0.0816963 0.14919 -0.245279 0.0114282 -0.00943295 -0.197796 -0.280446 0.203471 -0.0755331 0.0176133 0.0620124 0.0161469 0.164785 0.177828 -0.0186115 -0.272017 0.00323396 -0.235532 0.165563 0.125137 0.0935613 0.141534 -0.159129 -0.0344453 -0.291874 0.115081 -0.215684 0.171005 -0.0188284 -0.0538221 -0.231401 -0.0599222 0.00621764 -0.0828176 -0.00814813 -0.209204 0.0406192 -0.0761795 0.0649835 0.0812395 -0.257374 0.00903252 0.156225 -0.144184 0.0516783 0.0599957 -0.056144 0.0601904 0.159393 -0.0434769 -0.0307847 0.108501 0.0763099 0.065721 0.154894 0.141677 -0.0153472 0.0886429 0.0470754 -0.0548125 -0.0535405 0.0728076 0.0411981 -0.0107907 0.224818 0.063093 -0.0410356 -0.0276255 -0.0178126 0.0232821 -0.0061435 0.0472214 -0.00101745 -0.206848 -0.0170641 -0.140217 0.0854737 0.115883 -0.195829 0.233832 0.00645833 -0.300234 -0.112613 0.242627 -0.0515823 -0.0767796 -0.0801746 -0.045083 0.122558 0.0446076 0.0938813 -0.0437369 0.00703396 -0.0336249 -0.0289084 0.0739461 0.137591 -0.0751766 -0.016034 0.127174 0.135827 -0.133649 -0.12885 0.124203 0.0338341 0.114868 -0.0330761 -0.162582 -0.0691702 0.0882997 0.0111095 -0.0883401 0.0759438 0.0285272 -0.0249751 -0.0854997 -0.0855469 -0.0704416 -0.20034 -0.0214502 -0.00797652 -0.114622 0.0101493 0.108844 0.100183 0.00737498 -0.0738045 0.150918 -0.0277966 0.125912 -0.254905 -0.0448178 0.28349 -0.155065 0.148705 -0.140782 0.120842 0.134045 0.0403703 -0.15028 0.00838039 0.0520418 -0.112673 -0.000662937 -0.135478 0.0159987 -0.0903412 0.15685 -0.137961 -0.0507204 -0.00795158 -0.0263398 -0.157577 0.00243441 0.167513 0.0442372 0.0141349 -0.00511603 0.0889135 0.115212 0.0580678 
-0.00978518 0.153215 0.000623856 -0.04703 -0.270585 0.0989357 -0.202441 -0.02071 -0.116549 -0.151216 -0.116627 0.0420837 -0.0689644 -0.151438 0.161135 -0.116165 -0.196541 -0.0119606 -0.285396 0.109131 -0.0445703 -0.156364 -0.206557 -0.0808723 -0.212135 -0.0514501 -0.122391 0.0188373 -0.0842317 -0.0862579 -0.103193 -0.0185862 0.122891 0.089708 -0.0566935 -0.168274 0.128388 0.0746431 -0.0663699 -0.113708 0.0969982 0.0764629 0.123406 0.0248582 -0.0483342 -0.145176 -0.0123453 -0.144379 0.079827 -0.00648135 0.0123157 0.0708629 0.0439773 0.266951 0.0352136 0.141978 0.0885108 0.00726959 0.0730124 -0.00185264 -0.0421827 -0.0566884 -0.175368 0.118078 -0.0810818 -0.110253 0.142367 0.0354276 0.0242553 -0.00171937 0.342044 -0.258642 0.00292186 0.0184895 0.121179 0.0365209 -0.158273 -0.0664241 -0.226588 0.097707 -0.13131 0.109792 -0.205969 -0.0720695 0.0222029 0.0691009 -0.110384 0.115251 0.0570951 0.0513534 0.0307859 0.175219 -0.0420603 0.124576 -0.0392642 0.0212744 -0.0515479 -0.0790815 0.0385876 -0.0883142 0.167877 0.0927113 -0.149321 0.0432938 -0.00212316 -0.286967 0.102234 -0.00723618 -0.12791 0.181975 -0.276137 -0.0971653 -0.0219851 -0.112497 0.0484102 0.0170573 0.0265746 0.0379744 -0.266797 -0.344653 0.171548 -0.0574786 -0.0483675 0.151134 -0.165805 0.162086 0.00833519 0.0394336 -0.00736014 -0.0528654 0.00641956 0.101581 0.142721 -0.121096 -0.015577 0.0509017 -0.0158777 -0.117652 -0.184404 -0.0536483 0.21499 0.011932 0.149471 -0.0455616 -0.123153 0.137277 0.120342 0.155723 0.134785 -0.139685 0.0225579 -0.13086 0.116352 -0.00394849 -0.0450537 0.0555396 0.236176 -0.093881 -0.00989755 -0.0733698 0.132039 -0.15266 0.0595334 -0.0498585 0.0883488 0.088378 -0.239455 -0.0293121 0.116722 0.0450303 -0.0282408 -0.180514 0.0687927 -0.0765262 -0.0513639 -0.206485 -0.111052 0.0487374 0.0138598 -0.201544 -0.145179 0.0156639 -0.0267011 -0.182597 -0.0656609 0.0842449 0.165532 0.00484986 0.215354 0.111817 0.154291 -0.092028 0.176104 0.160441 0.0635193 0.030969 -0.0107663 -0.0465907 0.0138913 0.250673 -0.0629394 0.0397189 -0.195619 0.0771711 0.179391 -0.0778473 -0.20444 -0.129092 -0.16832 -0.0351954 -0.131323 -0.0171865 0.0386259 0.106826 0.00885207 -0.0781076 0.154237 0.233481 0.0723608 0.155146 0.117998 -0.0849708 -0.168013 0.0204628 0.0428951 -0.232265 0.0829333 0.130053 -0.00531096 -0.0270235 -0.191517 -0.111716 0.0697598 0.0137565 0.0472403 0.110107 -0.0139565 0.0288135 0.0218301 0.133402 -0.107562 -0.156001 0.270307 -0.18062 -0.117506 0.0574525 0.00112308 0.0344316 -0.0265388 0.128006 -0.0909711 0.113295 0.0819322 -0.0444815 0.0756814 -0.094192 0.320627 0.128645 0.0192025 0.105834 0.0574077 -0.0549651 -0.175302 0.285792 0.0328278 0.0945395 -0.0893608 0.0547892 0.0512393 -0.193908 -0.126557 0.0049562 0.310491 -0.117063 0.036308 0.0676238 -0.130208 -0.0534252 0.112374 0.0688444 -0.0793595 -0.0162597 0.0428649 -0.00283802 0.0345824 -0.107313 0.115347 0.272626 0.224366 0.0212394 -0.041966 -0.0305661 -0.126957 -0.0571273 -0.117329 -0.0257341 -0.033456 0.0812619 0.261029 0.165698 -0.0763963 0.0263898 0.0407934 -0.0188142 -0.0183587 0.0144481 -0.150214 -0.0633728 -0.255193 0.121679 0.193617 0.263977 -0.0821202 0.0297557 -0.000896282 0.0749004 -0.0631902 -0.0508977 0.147307 0.0163973 -0.128684 -0.0602335 -0.0382939 0.289725 0.0968988 0.0896324 0.171345 0.090555 -0.274602 0.0206844 0.122554 -0.0309304 -0.0916042 -0.0141041 -0.0634751 0.0648619 -0.0513663 -0.0444646 -0.0716064 -0.104567 0.0427199 -0.195367 0.0283781 -0.0685781 -0.00435855 -0.0817751 0.153409 -0.0446617 -0.0942169 0.0200079 -0.107383 -0.0857345 0.133311 0.0617797 0.0853458 0.0225046 0.145708 0.00295445 -0.0246011 0.124366 0.18849 -0.0390397 0.0379116 0.216739 0.0221025 -0.0997415 -0.12178 -0.0955269 -0.0552544 -0.0950924 -0.242486 -0.273468 -0.0552006 0.083046 -0.0869146 -0.0606312 -0.025212 0.0812715 0.109664 0.285969 -0.148675 -0.155866 0.0175157 0.13288 0.192205 -0.0997265 0.05011 0.227275 -0.0642377 -0.107684 -0.0783153 0.0309238 0.0386548 -0.17525 0.00470565 0.0186774 -0.11603 -0.0872363 -0.174087 -0.124915 -0.239237 0.0685406 -0.0487115 0.0468175 0.193578 -0.0279687 0.0521057 -0.16707 -0.188682 0.0813579 -0.0494329 -0.0449736 -0.086718 0.045332 -0.0300221 0.288625 -0.0652894 0.0573579 0.00414301 0.00151549 -0.152238 0.173054 0.250364 0.265542 -0.0724808 -0.246748 -0.135817 0.154247 0.0250234 -0.0990419 -0.267444 -0.102843 -0.262123 -0.045154 0.167644 0.113024 -0.133202 -0.0823878 0.0362823 -0.144937 0.0289509 -0.0293695 0.0448261 -0.056572 0.121359 -0.000108979 0.145181 0.0475316 -0.0345014 0.0984798 -0.0996385 -0.0538745 -0.0374836 -0.0278241 0.0707374 -0.00858085 -0.0485315 -0.194896 -0.197113 0.068313 -0.105912 0.156144 0.240121 -0.131664 0.00540746 -0.0824735 -0.179721 0.0573835 -0.315793 -0.0875793 0.047676 -0.18309 -0.112117 0.0563208 0.0697064 -0.165905 -0.0206914 -0.0122882 -0.165216 0.0345881 0.354381 -0.172897 -0.038135 0.355929 -0.0697466 0.122299 0.165407 -0.0146075 0.13991 -0.10684 -0.0128875 0.0040449 0.0286586 -0.0583835 0.0723439 0.127219 0.201149 0.117715 0.213784 -0.137745 -0.051046 0.550666 0.23699 -0.0677043 -0.0689357 0.163315 0.115257 0.0486869 -0.16986 0.254314 0.0857132 0.178343 
0.0769728 -0.253185 -0.125585 0.0709741 -0.268314 0.0454834 0.0845509 0.0307102 -0.0751819 0.00421495 -0.130393 0.0328685 -0.0873892 -0.104077 0.181693 0.121657 0.23499 0.126758 0.146482 0.203091 -0.246381 0.193255 -0.0546021 -0.0357362 0.0642229 -0.223928 0.139553 0.157224 -0.123153 0.0794799 0.131878 0.119103 0.0588366 -0.168203 0.112051 0.156625 -0.109179 0.00638545 -0.0819583 -0.0154208 -0.0915014 0.081795 0.356052 0.264695 0.0986772 -0.0558186 -0.0211911 0.161288 -0.151151 -0.0927498 0.091072 0.0287465 -0.126327 -0.160266 0.000848886 -0.115619 -0.135576 -0.0378821 -0.0621356 0.38082 -0.0267598 -0.0761969 -0.0390857 0.00293464 -0.293068 0.26889 0.13916 -0.0136469 0.0238249 0.032205 -0.0932565 0.235864 -0.378695 0.0398252 0.0459041 0.0850547 -0.148596 -0.197208 -0.117962 0.153179 0.0488132 0.0515997 0.0595974 -0.00452355 0.121153 -0.0624421 0.370649 0.159367 -0.0437524 0.231373 -0.0479011 0.0133023 -0.0317642 0.21342 -0.165829 -0.305462 -0.131731 -0.148965 0.0600112 0.1048 -0.0674807 0.00689111 0.058799 -0.199456 0.0755765 -0.265675 -0.12452 0.0466879 0.132505 0.105575 -0.0892299 -0.0178933 -0.103319 0.0263448 -0.191299 0.130138 0.168617 -0.104287 -0.0381857 -0.150995 -0.0972986 -0.0935268 -0.073195 0.00123188 0.049349 0.013072 -0.05337 0.0997946 -0.371512 -0.148148 -0.0574576 -0.0781804 0.0166295 0.103368 -0.0996455 0.159908 -0.092204 0.219328 -0.0592475 -0.117433 -0.106107 0.00906793 0.13729 -0.0105955 0.09493 -0.0833525 -0.225498 -0.119638 -0.0860477 0.258825 -0.349542 0.317048 -0.408178 -0.227746 0.100655 -0.0568879 0.0897184 -0.115327 0.0190939 -0.0215229 0.0783345 0.0219216 0.119549 0.0298949 -0.0202197 0.0676343 -0.180834 0.0911593 -0.0873111 -0.216568 -0.232692 -0.0587686 -0.114097 0.0629502 0.163634 -0.0303289 -0.0695456 0.118476 -0.0581546 0.203632 -0.048144 -0.0387209 0.264476 -0.230694 0.0912187 0.00330839 0.244868 -0.00724098 -0.0634921 -0.0323983 -0.0376338 -0.0343656 0.130715 0.00985057 -0.15092 0.0819981 -0.153453 -0.14436 -0.195699 0.000568726 -0.0418439 -0.0404726 0.0361672 0.118449 -0.123995 -0.0429836 -0.0341491 -0.0122876 0.129214 -0.0906282 0.0670097 -0.0348695 0.139751 -0.0184063 0.121143 0.0849151 0.252796 -0.197468 -0.0335269 0.0699178 -0.283843 -0.0197058 0.0458722 0.0538964 -0.234159 -0.115877 -0.187491 -0.115177 0.0174875 0.0398806 -0.0490754 0.0653106 0.0317021 -0.200201 0.083076 -0.0814611 -0.336676 0.0842074 0.0648453 0.0917825 -0.0409524 0.193244 0.0111548 0.136297 -0.145388 0.0187149 -0.138094 -0.082815 -0.118637 0.0903221 0.0273753 -0.232169 -0.0687989 -0.0513474 -0.0764576 -0.144194 0.0619531 -0.0972691 0.0524791 0.114136 -0.0423897 -0.0227684 0.043278 0.0438635 0.101852 0.0993186 -0.150442 -0.0803805 0.134189 0.11246 -0.0451752 -0.016519 -0.0390499 0.317618 0.122623 0.0619569 0.00458538 0.0897571 0.132829 0.0679129 0.0869911 -0.0221464 -0.244013 -0.0308172 -0.0450195 -0.126419 -0.126282 0.00433997 -0.180995 0.100691 0.175522 0.134225 -0.0691058 0.0706008 -0.164385 -0.118586 0.0198993 0.101167 0.0526013 -0.000512913 -0.284628 -0.00948181 -0.142616 0.0910084 0.0252908 -0.162536 -0.171876 0.0142392 0.178477 0.197649 0.140437 0.0622119 -0.0893413 -0.00685917 -0.0742835 0.124665 -0.0972444 -0.0505657 -0.0218766 -0.0543596 -0.0233566 0.15328 -0.0487351 -0.025953 0.0447391 0.0880591 0.061144 0.140236 0.0582059 0.0809624 -0.119156 -0.0537194 -0.0012522 0.0912913 -0.20826 -0.0408798 0.121034 0.107606 -0.351357 -0.0503587 -0.00312341 -0.161921 -0.104776 0.147757 0.171728 -0.0578642 -0.248803 0.0845741 0.0132461 -0.00513179 -0.185643 0.218859 -0.130852 0.143397 0.0861771 -0.00620062 -0.172769 -0.0784681 -0.00568287 0.0457731 0.16776 0.0638951 -0.0214168 -0.102765 0.353328 -0.0189508 -0.0690143 -0.0110098 -0.0269923 0.051363 -0.0426368 0.0427842 -0.28649 0.0848521 -0.212623 -0.0322468 0.000199532 0.00261126 -0.0354647 0.144836 -0.0501447 0.0768941 -0.240377 0.017356 -0.0243043 -0.00975579 -0.394715 0.0087131 -0.0158941 -0.328504 0.154353 -0.127609 0.0361945 -0.146853 -0.0982024 -0.00445372 -0.168188 -0.0451048 -0.171503 -0.0888993 -0.131619 0.0917468 0.0307718 -0.157053 -0.0703524 0.0168145 0.0380714 0.0362967 0.00384244 -0.184435 -0.101161 -0.0409145 0.106091 -0.120272 -0.0239903 0.15936 0.0399934 -0.258416 0.0597538 0.163199 0.172678 0.0579995 0.027612 0.129833 0.0389625 -0.261007 0.305246 0.102549 -0.135996 -0.0148904 -0.0399327 0.0190058 0.0999483 -0.282422 0.0238373 -0.147936 0.210784 0.0740729 0.0184219 -0.0968293 0.126555 0.132444 -0.0415688 0.0211345 0.0436008 0.038058 0.08777 -0.085672 0.104729 -0.0331769 0.0634705 0.0462238 -0.105739 -0.0166802 0.0439784 -0.201425 0.0513139 -0.181532 0.0639964 -0.0784239 0.0373576 -0.245659 0.0512791 0.0455123 -0.059722 -0.0656826 -0.0773598 0.091788 -0.106713 -0.0454881 0.0360471 0.0515942 0.105383 -0.022008 -0.0523624 0.38658 -0.108402 -0.0776056 -0.0465033 0.0394595 0.0539109 -0.0809507 0.127396 0.0928516 -0.122543 0.0521622 -0.0597939 -0.129605 0.141794 0.0630203 0.0242342 0.0694894 -0.0752089 0.104641 -0.2218 0.17573 -0.0550719 -0.0196603 -0.0858759 0.0481087 -0.0322567 -0.166345 0.0763921 0.216535 0.0430243 0.0255023 -0.0484009 0.0621597 -0.370034 0.00841699 -0.00144538 -0.0320351 
-0.103715 0.138736 -0.026085 -0.0505918 -0.145981 0.0851687 -0.0465892 -0.241801 0.0580348 -0.300853 0.0100332 0.158035 0.118241 0.0114967 0.0447028 -0.0872625 -0.150814 -0.0206137 0.146822 0.0428141 -0.28143 -0.121726 0.115137 0.0138268 0.0475491 -0.0363653 -0.139846 0.0491639 0.00179385 0.0626272 -0.179205 -0.0587899 -0.148024 0.0824554 -0.069176 -0.184215 0.235451 0.0441372 0.0327998 0.111801 0.01304 -0.0750266 -0.102875 -0.303779 -0.0137303 -0.179598 -0.0517524 -0.122857 -0.0245911 -0.215436 -0.2542 0.0550123 -0.0543871 0.207635 0.0332172 -0.193043 -0.27707 -0.053002 0.265834 -0.169641 0.0828256 -0.0992389 -0.0484029 0.0712588 0.0829422 -0.0502535 0.0720515 -0.0845961 0.0472558 0.0662558 -0.0579185 0.0181852 -0.0633709 0.00806011 -0.0406514 -0.025241 -0.0813177 -0.0693657 -0.0924969 0.105001 0.0923936 0.0739352 0.218874 0.134648 -0.226169 -0.187066 -0.196964 -0.0131383 -0.0759405 -0.0633162 -0.178849 0.0228328 -0.124635 0.0147235 0.109587 0.0784163 0.0496983 0.0527566 -0.173743 -0.151245 0.0591177 -0.0734085 -0.18279 -0.249469 0.100419 0.0137145 -0.206743 -0.0304231 -0.111085 -0.111509 -0.10002 -0.0782404 -0.146298 -0.114312 0.0614775 0.171504 -0.0588444 0.102027 -0.2959 -0.0913388 0.173624 0.144723 -0.043737 0.322324 -0.161917 -0.0801115 -0.0696375 0.0126806 0.0687354 -0.0137788 -0.0255707 -0.259189 0.0577774 0.0327931 -0.00453812 -0.0740365 0.262305 0.0662527 -0.13695 -0.0875957 0.182699 0.0106411 0.157617 -0.0309427 0.187357 0.0246465 -0.0404983 -0.04317 -0.0833684 0.204573 0.133205 -0.0705121 -0.0705972 0.0580073 0.00913917 0.248774 -0.00628397 0.0957027 -0.0803434 0.00237499 0.217395 -0.071179 -0.0612961 0.057905 -0.210683 0.130716 -0.044197 -0.188671 0.0498561 0.156358 0.132601 -0.0463123 0.101172 -0.0811002 0.0692694 -0.101152 -0.0541232 -0.00701917 0.0329657 0.112619 -0.0888786 0.0907926 -0.251699 0.0910016 0.0685443 0.137143 0.170167 -0.186767 -0.173274 0.0103079 -0.203711 0.0488188 0.0744744 -0.253709 -0.136271 0.063159 -0.089474 0.109864 0.188859 -0.0123759 0.0504338 0.149053 0.0537294 -0.0675342 -0.239575 -0.202969 0.0247829 -0.113495 -0.0629816 -0.0763912 -0.00324955 0.117126 -0.0519816 0.139337 -0.190092 0.0126127 0.0158157 -0.0739014 0.0850099 -0.226898 -0.0603133 0.152784 -0.0177805 0.210326 0.23596 0.254283 0.0350987 -0.0209743 -0.178734 0.137651 0.154312 0.076961 0.0891664 0.184842 0.134279 0.181243 -0.1038 0.00701795 0.189123 0.10678 -0.0757058 0.12015 0.166977 0.197023 -0.0354922 0.0754301 0.266331 0.0447402 -0.0155107 0.168537 -0.128332 0.0745525 -0.053484 -0.138939 0.110814 0.0274796 0.19837 0.00370699 -0.0407957 -0.031793 0.314637 -0.0534407 -0.00904 -0.0491866 -0.0305156 0.0238624 0.17369 0.0906978 0.104795 -0.223444 -0.141652 0.0425101 0.119892 -0.0315606 -0.203116 0.0605954 -0.16235 -0.11705 -0.000928439 -0.0265235 0.100031 0.0426995 0.147034 -0.131064 -0.0112986 0.0543961 -0.0379169 0.0221664 0.0611186 -0.0026088 0.166181 0.0248798 0.0967561 -0.0851056 0.014635 0.0354929 0.152014 -0.0235821 0.060515 0.232037 0.131703 -0.196707 -0.0182458 0.0012941 0.0942622 0.0534403 -0.234083 -0.0330036 0.114342 -0.0229625 -0.119528 0.151334 0.126516 -0.136707 -0.107137 0.109441 0.0671775 -0.100862 -0.0406269 0.00360587 0.0682972 -0.0694298 -0.0703822 -0.146024 -0.0455778 -0.179287 -0.000234778 0.184241 0.261584 0.0809715 -0.183914 -0.242941 0.162795 -0.0629909 0.0598071 -0.00883303 0.0866111 -0.00997951 -0.181712 0.0526335 0.108017 0.0529562 -0.268213 -0.0556503 0.0531844 0.0994109 0.235284 -0.035111 -0.107446 0.0183305 0.035946 -0.114396 -0.111719 -0.00392734 0.11663 -0.143475 0.0416642 0.0199185 0.0810733 0.0656696 0.00561669 -0.00294736 -0.16392 -0.101626 -0.0160434 0.0963286 0.194837 0.24562 -0.0904746 0.40047 -0.193815 0.0341077 0.0405982 0.0368988 0.0611178 0.0188397 -0.282583 -0.205943 0.0207674 0.000431511 -0.251494 0.310578 0.0255581 0.191082 -0.0291217 -0.102191 0.00764057 0.011771 -0.104775 0.0577712 0.13562 0.0761185 0.217677 0.0373694 -0.166336 0.00390574 0.0784118 -0.0714484 0.20522 -0.251386 0.0627488 -0.148397 0.00557183 0.0349907 0.000885522 0.19594 0.18009 0.13247 -0.138667 0.0431754 -0.0787608 -0.0892695 -0.149861 -0.0197639 0.0501026 -0.182446 0.0665897 -0.103918 -0.20482 -0.0428107 -0.0104082 0.0618644 -0.0741167 0.147772 0.0608069 -0.0272958 -0.171204 0.297895 -0.201977 -0.0799024 0.00154012 0.0388444 0.0935387 0.0494159 -0.105505 -0.0408792 -0.048746 0.060862 -0.148709 0.0528021 0.0362147 -0.0104994 0.0536175 0.168793 -0.0285724 -0.147216 -0.0322303 -0.111189 0.0633146 0.0672847 0.106358 -0.23312 -0.27033 -0.0150643 0.106672 -0.27013 -0.00328183 0.0779751 0.00881177 -0.0802371 -0.00390765 -0.0163073 0.0388685 -0.204453 -0.136323 0.129139 -0.0618065 0.274557 -0.063593 -0.057695 0.0168973 -0.191101 0.0738213 -0.0913526 -0.109616 -0.107708 0.0537785 -0.1216 -0.0182959 -0.098861 -0.218765 0.216757 0.010241 -0.229322 -0.00239621 0.13281 0.117295 0.0943795 -0.0428525 -0.116708 -0.20173 0.191889 -0.141433 0.071595 -0.0468042 -0.022003 -0.0379263 -0.08348 -0.130491 -0.0589368 0.19412 0.0700016 0.124437 -0.0302877 0.179843 -0.106462 0.0525788 0.0119679 -0.11119 0.134707 -0.0359024 -0.0382403 
0.211233 0.100143 -0.0129497 0.081447 -0.0651849 -0.0112661 0.152723 0.0392458 0.120597 -0.21507 0.0345898 0.00553742 -0.0667127 -0.18338 0.0747229 0.131465 -0.089169 -0.112234 -0.0597507 0.214688 -0.038489 -0.0742642 -0.123453 0.0129529 -0.00473971 0.0656759 0.0524554 -0.0256519 -0.0311801 -0.0436524 -0.101271 0.102931 0.0605728 -0.142456 0.0449443 -0.0889577 -0.225509 0.127945 0.0429314 0.109403 -0.0610763 0.281455 -0.219861 -0.0914095 0.131776 0.033913 -0.0758235 0.0872084 0.143116 -0.0153368 0.234464 0.0916931 -0.178475 -0.0173323 -0.170195 -0.159904 -0.037891 -0.0278146 0.0978932 -0.0433933 0.214784 -0.091108 -0.103411 0.0399778 -0.142541 -0.410023 -0.00369277 0.067927 -0.228768 0.0455883 0.189446 -0.273102 -0.128564 0.0893062 0.0700919 -0.0404379 -0.102472 -0.207718 0.058911 0.040426 -0.103562 -0.00120428 -0.00473785 -0.0702076 0.142423 0.101725 -0.185583 -0.17595 -0.0492805 -0.0310213 -0.113823 0.0842915 0.240548 -0.0729189 -0.136533 0.0829817 -0.119007 0.00298341 0.0225627 -0.22172 -0.0643585 0.0480245 0.0773042 -0.0364613 -0.0392807 0.100975 0.118319 -0.0564867 0.0760127 0.143089 0.0329355 -0.00611695 0.00507536 -0.0257829 -0.113083 0.0663168 -0.0261513 -0.0534772 -0.0778674 0.208466 0.10346 -0.089944 -0.0104712 -0.131973 -0.0699303 -0.129365 -0.0336751 -0.142895 -0.0575816 -0.116434 -0.186933 -0.0416467 0.0344622 -0.0421733 0.248129 0.255431 -0.105008 -0.220669 0.0513361 -0.191112 0.028553 -0.0626463 -0.0750643 0.0454743 -0.240475 0.104234 0.139558 -0.0191922 0.0630776 0.0828435 -0.0955213 -0.17088 -0.0663115 0.0771503 0.0308122 0.121567 0.138758 -0.0213954 -0.121153 0.0730531 0.196902 0.0771934 0.141012 -0.0428582 0.279084 0.0346862 -0.0707357 -0.117999 -0.20595 0.0261157 -0.203459 -0.110818 0.109064 -0.102849 -0.138328 0.0273004 0.151154 -0.120632 -0.186121 0.103246 0.14359 -0.161479 0.119389 -0.0194617 -0.125362 -0.020297 0.0879048 -0.0725047 0.138506 0.0411687 0.0200059 -0.153044 -0.244162 0.0229527 0.0795792 -0.269823 0.0356737 0.153342 0.158006 0.203572 -0.30853 0.0253513 -0.031116 0.161887 0.0356135 -0.0714128 0.0797351 -0.086317 -0.00361487 -0.235558 0.0905037 0.119931 0.0583799 0.125128 -0.220924 0.224304 0.0916542 -0.230895 -0.162919 -0.176891 0.0304447 0.0611324 0.0847039 0.267453 0.0559993 0.068109 -0.169189 0.00987644 0.121773 -0.105174 0.00706257 0.162568 0.210113 0.0269486 -0.0378496 0.268079 -0.0159818 0.134965 0.0296765 -0.00742766 0.0485608 0.158097 -0.0257145 -0.0342437 0.0497328 -0.0604151 -0.15618 -0.0671241 0.183373 -0.0396742 0.149169 -0.272306 0.143822 0.0117709 -0.0303745 0.124231 0.0961147 0.0104476 -0.169248 -0.141991 -0.100616 -0.325359 -0.171486 0.0567133 -0.0938541 0.00365961 0.295606 -0.0120903 0.0172869 -0.156338 0.0909264 -0.0715772 -0.0270445 0.00461474 -0.214777 -0.00813578 0.0702149 -0.00599009 0.209413 -0.0156682 0.0441739 0.0628318 -0.171334 0.026005 0.0717784 0.0632237 0.171913 -0.0717966 0.145465 -0.0380243 0.0867249 0.016962 -0.0688023 0.00297052 -0.10183 0.14603 -0.0549606 0.250751 0.0280359 0.217724 0.000983269 -0.226724 -0.149534 -0.0290519 -0.173531 0.0456616 -0.000365022 -0.0484736 0.127518 -0.190911 0.278033 0.0346542 -0.0300296 -0.111756 0.313869 -0.0552978 0.0494131 0.00774497 0.251419 0.0990934 -0.0412352 0.22928 -0.123476 0.0566356 0.105919 0.139272 0.128306 -0.0576591 -0.151106 -0.186722 0.179845 0.0054154 -0.129482 -0.14976 -0.316854 -0.199234 0.0485724 0.0992191 -0.0725949 0.191033 -0.136525 -0.0553253 -0.259501 -0.072083 -0.00986906 0.0933396 -0.0411092 -0.0691274 -0.0452527 -0.016566 -0.0915342 0.00584617 0.142575 0.231763 0.0786891 0.283808 0.170219 -0.00671858 -0.00115539 -0.125311 0.0840653 -0.0887863 -0.0702174 0.0361775 0.0606661 0.102268 0.0870264 -0.0824153 0.0197359 0.0451692 0.0336417 -0.00909991 -0.194274 0.0521316 0.0435023 0.123851 0.100641 -0.0483239 0.0542227 0.151803 -0.312169 -0.205774 -0.0884358 -0.144796 -0.219083 0.111429 -0.252048 -0.0112335 -0.0610969 0.0613229 -0.298539 0.222626 0.129762 -0.307338 0.247865 -0.0505435 0.0862302 -0.0228161 -0.222875 0.0564638 -0.0777324 -0.0319214 -0.107273 0.0738516 -0.0416914 0.108903 -0.0721628 -0.256673 -0.0217855 0.135354 -0.0443044 -0.0296705 0.142157 -0.090921 0.0507601 0.17852 0.231091 0.0972015 -0.0137986 0.236813 -0.0399704 0.0794503 0.0739623 -0.180163 0.0384724 0.107111 -0.126509 0.0804089 -0.157945 -0.0579134 0.0250325 -0.0983936 0.161487 0.18933 -0.007196 -0.0536241 -0.144816 -0.135933 -0.263134 -0.158338 -0.190296 -0.170435 -0.0358054 -0.211972 0.0808677 0.0510149 -0.0730485 0.0316049 0.086584 0.190966 -0.0476595 -0.21256 -0.0703373 -0.10507 0.172344 0.133699 0.105085 -0.0908244 -0.142759 -0.0187205 0.00338866 -0.0185541 0.0659376 -0.113202 0.128285 -0.0440592 0.15872 0.0192965 -0.171645 -0.0746627 0.026745 -0.107055 -0.252175 -0.0423296 0.00420833 0.0307975 0.0051136 -0.0782087 -0.147335 -0.197243 -0.0734247 -0.00749712 -0.0777949 -0.0029126 0.100597 0.0624535 -0.205105 -0.152571 0.0282171 -0.0531382 0.102529 0.0652647 0.191217 0.0763818 -0.0121204 -0.150089 0.080715 -0.076445 0.0166462 0.171557 0.0257786 -0.124905 -0.183441 0.0516362 -0.230071 0.0983364 -0.13983 -0.0136622 0.201335 0.0775913 0.100143 -0.150431 
-0.0172168 -0.110001 0.094395 -0.00170397 -0.0607199 0.150084 0.109457 -0.194291 0.0695602 -0.0303357 -0.135802 -0.0392249 -0.0639607 -0.0278846 0.100138 0.0268661 0.0546463 0.0514249 0.0673362 -0.00687647 -0.181865 0.106808 0.0217479 -0.16989 -0.0665567 -0.169264 0.0174094 0.100346 -0.0435394 -0.129016 -0.190327 -0.0398011 -0.294457 0.0901741 0.052044 0.190332 -0.181188 0.0579667 -0.080111 -0.336284 0.0240152 0.00189119 -0.320624 -0.0412426 0.01614 -0.199249 0.266082 -0.0765694 0.0559092 -0.0562821 0.0674754 0.0727871 0.004762 -0.172663 -0.0617538 -0.174108 0.0961172 0.181343 0.00702787 -0.071446 0.112441 -0.0172428 0.0855363 0.0781069 -0.109415 -0.073556 0.0222769 0.0406866 0.0733988 -0.0479993 0.046731 -0.0850725 -0.0288702 0.0311042 -0.217518 -0.068105 -0.127807 0.00762878 0.0744575 -0.173747 0.04845 0.269582 -0.172213 -0.0268758 -0.109288 0.302204 0.0607238 0.0517814 -0.0414083 -0.0941041 -0.248985 0.198966 0.246074 0.139662 -0.128638 -0.070541 -0.276364 0.16759 0.080447 -0.192855 0.135607 0.00788215 -0.157646 0.0411483 -0.0749921 -0.101221 -0.0263201 -0.0950346 0.104969 -0.108126 0.0769844 0.0451545 0.231326 -0.0555383 0.114659 0.117924 -0.140495 -0.0372657 -0.232288 0.0500843 -0.00554181 -0.0792306 -0.25235 -0.0456293 0.0492031 0.0783685 -0.418287 0.0959298 0.059642 0.138013 -0.0858149 -0.12826 -0.0699238 0.00538118 -0.0980304 0.0259525 0.0663226 0.0107947 -0.0137197 -0.00706933 0.0947448 -0.00164693 -0.064788 0.172168 0.0813222 -0.0447733 0.0933396 -0.00417684 -0.0475544 -0.0634062 -0.207332 -0.00722785 -0.124617 -0.262796 -0.092925 -0.0245971 0.221232 0.244253 0.000711717 -0.153103 0.0130717 -0.0191051 0.00345526 -0.302102 -0.0136647 0.136877 0.0568569 -0.0486477 -0.099379 -0.213196 -0.132425 -0.208089 -0.168354 -0.0747024 -0.299973 0.116894 0.0725534 -0.101658 0.235001 -0.036441 -0.0844503 -0.101828 0.13371 0.124591 0.123489 0.279341 -0.0414589 0.0256761 0.0188251 -0.17554 -0.0406655 0.0776823 -0.0260084 0.00600873 0.0483331 0.0212273 0.219904 0.0581869 -0.0689861 0.00700948 -0.16385 -0.217012 -0.150434 0.00145614 0.126985 0.100141 0.181055 -0.26257 0.164919 -0.222525 0.045616 0.180224 -0.0823656 0.220518 0.0981682 0.122251 -0.149743 -0.106495 0.0455904 0.0397153 0.0487826 -0.00761628 0.0314692 0.123409 0.00453309 0.170773 -0.114521 0.0797058 0.107548 -0.174639 -0.17266 -0.0713608 0.0300598 0.0865743 0.00280719 0.0943052 -0.0624768 0.0584145 -0.287668 -0.170916 0.131661 0.0608257 0.161086 -0.0894259 -0.117732 -0.202304 0.148416 -0.0585826 -0.0554172 0.0776056 -0.161805 0.060733 -0.0271291 -0.0371317 0.106432 -0.179634 0.244613 0.125232 0.153891 -0.153564 0.0569972 -0.0591298 -0.131242 -0.111428 0.0255786 0.0943231 0.0552542 -0.0975614 0.0926896 0.0456297 0.114497 0.0671701 -0.192083 -0.0276615 0.0276457 0.0816875 0.0693768 0.0226144 0.103367 -0.145577 -0.052461 -0.105942 0.104242 0.135945 -0.159076 0.111464 -0.032654 0.12353 -0.243005 -0.12909 0.230666 0.118092 -0.0351744 0.146906 0.000592891 -0.103422 -0.0786898 0.106251 -0.17868 -0.30549 -0.198691 0.0146617 0.129544 0.0521449 -0.0182369 -0.212952 -0.100559 0.0895876 -0.109341 -0.133068 0.0123227 0.0721967 0.128941 -0.148063 -0.105833 0.233697 0.014063 -0.0279692 0.0822091 0.0447817 -0.329647 0.0626975 0.00530944 -0.00516304 0.0524444 0.0360403 0.149266 0.167079 0.228698 -0.0456842 0.0461903 -0.204248 -0.0812049 0.069605 0.0436436 0.154753 -0.157865 0.101196 -0.0657889 -0.191838 -0.156055 0.0321918 -0.0230252 -0.15096 0.0463523 -0.282362 -0.00436465 -0.0799601 0.141927 -0.094944 0.0391368 -0.0862537 0.0691937 -0.0410581 -0.0805806 -0.0873557 -0.00643884 0.0792599 0.197464 0.0163684 0.11264 0.112417 -0.0581752 0.0481672 0.0383336 0.0758284 0.112433 -0.0373988 0.0437477 -0.164725 -0.124309 -0.241373 -0.084575 0.0129112 0.0969115 0.258935 -0.265944 -0.065872 0.115031 -0.0267201 0.04381 0.0285338 0.156107 0.0211808 -0.0569118 0.194161 -0.0164658 0.017733 -0.0194556 -0.0254979 0.0296016 0.0844989 0.0483115 0.00300114 0.0592764 0.0280915 0.0208113 -0.0155635 0.181688 -0.0217712 -0.189918 0.215016 0.0701164 -0.153098 -0.0597305 -0.133826 0.216948 -0.192076 -0.0500856 -0.0167651 0.111386 0.0324973 0.0150372 -0.122879 -0.136335 0.127747 -0.0833087 0.147745 -0.000365181 0.113019 -0.0301142 0.0207014 0.119755 -0.087526 0.0091626 0.0803054 -0.00191448 -0.0819952 -0.085047 0.0822692 0.162112 -0.0506452 0.185676 0.186896 -0.0330146 -0.0101241 -0.019873 0.153449 -0.0140123 -0.0829767 0.0637288 0.0842764 0.0628934 0.269782 -0.0496573 -0.0758149 -0.151164 0.020285 0.00185997 -0.106541 0.00235546 0.0828453 0.318833 -0.0985205 -0.176099 -0.0362289 0.123871 0.0530707 0.0268279 -0.0244994 -0.0361405 -0.324025 -0.137946 0.192316 -0.10814 0.0490008 0.168742 0.148532 0.110759 -0.0187124 -0.0480284 0.057532 -0.0602126 0.0496024 -0.14144 0.316503 -0.208127 -0.131722 0.0287395 0.0003351 0.115701 -0.0884138 -0.175672 0.107568 0.209678 0.110059 -0.00234414 0.0806787 -0.0265381 -0.0742903 0.0445569 -0.0222186 0.166075 0.0657573 0.0456939 0.105369 0.0440544 -0.0433063 0.00367708 -0.178096 0.139505 -0.000619403 0.137799 -0.0700993 0.234497 0.156111 -0.0234305 -0.0759688 -0.112369 0.2088 -0.0305799 0.0385728 
0.118612 -0.167083 0.00914197 0.177547 0.00381218 -0.0984813 0.246526 -0.00966704 -0.0353292 -0.135864 0.0658104 -0.291861 0.0961797 -0.118715 -0.0286255 -0.241573 -0.00435355 0.0332914 0.0611041 0.163744 -0.014649 0.0984405 0.0719868 -0.253677 -0.0554271 0.0335033 -0.0089713 -0.0419024 0.0199982 -0.0764296 0.323604 0.107861 0.121811 0.0876046 0.0903176 0.0314766 0.0185522 -0.00657014 0.00165907 0.223349 -0.057473 0.033379 -0.0848918 -0.064304 -0.207747 0.0256491 0.0858579 -0.0622556 0.0569148 -0.115107 0.067219 -0.17075 -0.0155737 0.00736445 0.134244 0.112294 -0.140535 -0.0647786 0.0281276 0.0161656 0.120348 0.134398 -0.101868 -0.126614 -0.0909894 -0.0409593 -0.0377841 0.179318 -0.0159889 -0.165586 -0.1485 -0.113774 -0.166021 0.206691 -0.0313483 -0.105758 -0.0799986 -0.0106226 -0.170564 -0.0749826 0.139195 -0.0487223 0.116196 0.121685 -0.110969 -0.197734 -0.140834 0.0435647 0.00743038 0.0566318 0.0520516 -0.0778245 0.0553525 0.20391 0.0317645 0.0554756 -0.217742 -0.0160782 0.181095 0.0961203 -0.0944871 -0.146606 -0.0489124 0.0913213 0.255169 0.240979 0.0631858 0.00166973 -0.0109601 0.0580749 0.0161235 0.0716335 0.0705071 0.116166 -0.16171 -0.249288 0.100646 -0.25677 0.0916829 -0.208331 -0.062957 -0.00323256 -0.0224059 -0.0428227 -0.183625 -0.130339 0.0972743 -0.283836 -0.384087 0.0899196 -0.113669 0.0599058 -0.33637 0.102341 0.211133 -0.263792 0.0530674 -0.193518 -0.21472 0.0502092 0.0468069 -0.0808171 -0.0573212 -0.0675784 0.0387044 0.0131498 -0.179372 -0.0717564 -0.155024 0.0927048 0.0244802 -0.189532 -0.122588 0.131741 -0.00132302 0.136537 -0.0136743 -0.174552 0.224824 0.0174537 -0.231727 0.0238283 -0.0172741 0.0437584 -0.0212843 0.02591 0.0915599 -0.101682 -0.0782322 -0.194397 0.0313879 0.124191 -0.0527621 -0.0396441 0.00861129 0.067981 -0.113514 0.0391017 0.241365 0.0335475 0.0709864 -0.0620072 0.0754481 0.0094656 -0.232589 0.0800291 0.210558 -0.0847261 -0.0152691 0.181996 -0.0550776 0.0405954 0.003173 0.129772 0.241132 0.0403872 -0.0724661 0.00623187 -0.024207 -0.0138955 0.00148048 -0.10918 -0.000626774 0.279731 0.0241788 0.0379565 0.0331851 0.0927956 0.0920489 -0.168234 0.000462268 0.0131111 0.106208 0.345456 0.0786455 -0.169091 -0.0317181 0.0458356 -0.0139411 0.0526453 -0.0948007 -0.104553 -0.0416787 0.0528736 -0.119972 -0.0762504 -0.0827484 0.203075 0.0520442 0.186795 -0.151198 -0.0426079 -0.192324 -0.00689446 -0.0413196 0.0336779 -0.205814 -0.1824 0.0400567 -0.0443498 -0.103491 -0.12357 -0.192343 -0.0592369 0.026427 -0.233104 0.136494 -0.0140187 -0.083789 0.0665667 0.0640089 -0.289158 0.122965 0.0897044 -0.281179 0.0946218 -0.085748 0.018601 0.0264422 0.0408954 -0.0232583 0.0965669 0.0742963 0.0931872 0.032092 -0.199158 0.108199 0.0121325 0.319798 -0.0191492 -0.21555 -0.19541 0.317814 0.26478 0.142616 0.0426917 0.0476666 0.248592 -0.057218 0.0686145 -0.218199 -0.055086 -0.129773 -0.00580977 -0.129726 -0.132271 0.211242 -0.151821 0.316045 0.0458395 -0.0402981 0.0234038 -0.049841 -0.023234 0.132402 0.234105 0.0777895 0.0680061 0.013635 0.165104 0.100072 0.108758 0.114444 -0.122057 -0.0292797 -0.0662094 -0.19625 0.0151263 0.0337549 0.185759 0.0779187 -0.101137 0.182902 0.0297299 -0.157253 0.102219 0.251203 -0.104048 0.019513 0.310155 0.0292945 -0.169676 0.0538683 0.226382 -0.0242044 -0.0177815 -0.0869339 0.172524 0.163275 -0.051081 0.15971 -0.0971591 -0.193726 -0.0315987 0.304227 -0.35087 -0.223679 -0.0282757 -0.108057 0.0198981 -0.0565304 0.0232527 -0.151747 -0.11442 -0.0249599 0.144743 0.112024 0.00110071 0.152762 -0.085863 0.235423 0.0186529 0.126046 -0.019867 -3.57505e-06 -0.0614704 0.202973 -0.0609456 0.151276 0.178573 -0.133235 0.012525 -0.181172 -0.0578651 -0.275047 -0.0181068 0.172937 -0.102399 0.0913007 -0.167112 0.165697 -0.26429 0.0497876 -0.0203353 -0.0757923 0.175224 0.269266 -0.0137968 0.189173 -0.181525 0.0256574 -0.182221 -0.165941 0.0075754 -0.0619826 -0.00926904 -0.0472775 0.306079 0.115905 -0.046691 0.141939 -0.0711265 -0.153912 0.0681989 -0.250335 0.0823365 0.149679 0.0764581 0.131479 0.0903662 0.237324 -0.123202 0.13139 0.0450491 -0.0413473 -0.166324 0.248636 0.0750069 -0.0638086 -0.107348 -0.00628463 0.13055 0.0169791 0.082872 -0.136394 0.104073 0.093218 -0.0194413 -0.10226 -0.0862014 0.0192102 0.0235877 -0.175564 -0.0250728 0.0536277 -0.0252003 -0.165206 0.0288919 0.130792 0.0360259 0.191404 0.219114 0.148588 0.162677 0.0614633 -0.254286 -0.036213 0.12324 -0.0625831 0.0316034 0.120722 -0.0183655 -0.0787429 0.0515093 -0.189558 0.0435637 -0.0521798 0.0311049 0.0718581 0.0569512 0.0943041 -0.0190288 -0.151718 0.0843963 -0.0323988 0.0793323 -0.0584819 -0.011826 -0.0570501 0.0716955 -0.0828498 0.0145503 0.135315 -0.0164143 -0.183619 0.0835326 0.0921551 -0.106571 0.184604 0.0480078 0.0170969 -0.204503 0.0399397 0.113878 0.326365 -0.0129675 -0.156337 -0.240788 -0.000413204 -0.2015 0.25957 -0.188989 -0.133652 -0.231261 -0.0461902 -0.012002 0.0110584 -0.221374 -0.0223515 0.134909 -0.0596591 0.112515 -0.216836 -0.236807 -0.241996 0.224765 -0.0333522 0.189976 -0.129629 -0.160715 -0.128692 0.0917168 -0.154408 -0.166402 0.0203219 0.193246 0.0855139 -0.0413739 -0.119477 -0.169323 0.0641593 -0.0200052 
-0.0583807 0.061851 0.0488307 -0.345344 -0.000176539 -0.0471126 -0.0248151 0.0951547 -0.020443 -0.0956404 -0.142915 0.0938447 -0.0263107 -0.00799031 0.0472104 0.145898 0.0411159 -0.050919 -0.0121802 -0.0711412 0.120062 0.0064539 0.359788 -0.0202025 -0.146549 0.1035 0.044298 0.0686721 -0.00853882 0.0751823 0.0942166 -0.0379972 0.192601 0.00188648 0.109142 -0.0662386 0.0972187 -0.00485787 0.0395377 0.0247669 -0.130163 0.14762 0.151279 0.0654552 -0.156183 0.110002 -0.0804635 -0.0274254 -0.100931 -0.106698 0.140683 0.0972386 0.0647809 -0.252419 -0.159104 -0.0464573 -0.0525155 -0.0129725 0.0302324 -0.0164446 0.197666 -0.0281235 0.0458146 -0.033177 0.128209 -0.0175881 0.0401471 -0.14467 0.078062 0.0794051 -0.0260836 -0.135149 -0.129905 -0.139551 -0.200445 -0.0576564 0.145772 -0.0878153 0.250431 -0.141338 0.0237154 -0.0329829 0.0656115 0.09305 0.0356624 0.117121 0.270367 0.107006 0.00400683 -0.0823256 0.19622 0.0554112 0.250495 -0.0776768 -0.0606331 -0.210887 -0.139811 -0.0799264 -0.0422076 0.0158546 -0.0658614 0.217436 0.168896 0.200726 -0.0229369 0.0322452 -0.0499574 -0.0945041 -0.066327 -0.15127 -0.129348 -0.175663 0.234971 -0.235794 0.313638 0.207099 0.000352932 -0.0640865 0.148546 -0.0590099 0.109408 0.110664 0.0949614 0.0744807 -0.158146 -0.0267063 -0.0480995 -0.185722 0.03059 0.301083 -0.2172 -0.0392216 -0.0228798 0.167746 0.124857 -0.0697124 -0.153909 0.0854675 0.0713079 0.10632 0.0689087 -0.0385118 -0.184913 -0.266725 -0.132348 0.071798 -0.14476 -0.0913076 0.106358 0.184223 0.141999 -0.0484956 -0.148041 0.16932 -0.0384485 -0.067233 -0.161685 -0.0370705 0.00697242 0.0397325 -0.146315 0.081551 0.0974164 0.207107 -0.0604458 0.143398 -0.0256746 -0.146224 0.0650242 0.0266403 -0.00658081 0.209455 -0.386475 -0.200573 -0.101026 0.069662 0.11367 -0.143567 0.0527744 0.107935 -0.0280699 -0.0399464 0.0197227 0.217356 -0.0602632 0.0991004 -0.262804 -0.00569997 -0.0345728 -0.294007 -0.093598 -0.127145 -0.0991804 -0.202996 -0.0992772 0.134342 0.112606 -0.058546 -0.257849 -0.0852385 0.0903999 -0.0229849 -0.116769 0.167111 0.0479237 -0.176884 0.0311814 -0.216104 0.162297 -0.143981 -0.0724604 -0.0974528 -0.0826782 -0.108043 0.0676161 0.103731 0.0390036 0.1479 -0.128847 -0.0831825 0.0613402 -0.0319793 0.0829023 -0.255101 0.234398 0.315297 -0.0787157 0.0744027 -0.0121831 -0.00103056 0.0988371 -0.0558009 -0.100114 -0.0567378 -0.0559625 0.0749584 0.216573 -0.0208821 -0.0426376 0.0675089 0.00854397 -0.127802 0.0590872 0.0571997 -0.284547 0.136358 0.20867 0.0121115 -0.0910501 0.0991741 -0.0799293 0.194113 0.283738 0.0973725 0.0797442 -0.00402208 -0.134147 -0.0664042 0.0148374 0.1543 -0.00119398 0.195377 0.155616 0.0393197 0.08355 0.025673 0.0165474 0.256538 0.11055 -0.219514 -0.0955801 -0.324915 -0.108841 -0.0184397 0.167544 -0.0730576 -0.00677061 0.111844 0.111654 -0.0578795 -0.138457 -0.0113283 0.241735 -0.0011827 0.0473678 -0.0968938 -0.2863 0.022657 0.0367271 -0.0550113 0.199301 -0.101167 -0.0376106 -0.0526049 -0.1022 0.0506001 0.203427 0.0687115 0.00756613 0.268896 -0.0251963 0.098795 0.104364 0.0303386 -0.364601 0.0714993 -0.179449 -0.00128403 0.123895 0.0280116 0.0227318 -0.0285844 -0.111102 0.14698 -0.0954414 0.0468745 -0.000774148 0.0659799 -0.097614 0.0981678 0.28293 -0.154332 0.0503718 0.0490697 -0.190879 -0.0357167 -0.233553 0.123002 -0.0513158 0.253693 0.138216 0.0332517 -0.0316354 0.149591 -0.0522229 -0.226939 -0.111667 0.0818144 -0.0693574 0.0796758 0.0508087 0.0202172 -0.0781514 0.0133004 -0.00182611 0.111627 0.124213 0.139577 -0.0291315 -0.162483 0.00602678 -0.119104 0.00108592 -0.0406441 -0.103194 -0.0209056 0.178178 0.081362 0.0828565 0.00285903 -0.129225 0.0753586 0.04458 -0.0164554 0.170493 0.0462872 0.08379 -0.104175 0.0528583 -0.184965 0.0485003 -0.0790052 0.0224771 0.0469022 -0.0176043 -0.0580087 -0.0370583 0.0372246 0.112078 0.0688198 -0.0083071 -0.0197433 0.158077 0.126886 -0.176998 -0.221981 0.211357 0.0762166 -0.0248343 -0.152833 0.111019 0.172161 -0.194299 0.189636 -0.104516 -0.118644 -0.0209679 -0.0414991 -0.105113 -0.00923044 0.122259 -0.0402873 0.0473256 -0.0686749 -0.0744487 -0.0763928 0.00872018 0.134919 -0.324728 -0.192608 -0.149119 -0.216083 -0.0243282 -0.241411 -0.119154 -0.162424 0.100347 0.118522 0.07763 -0.0357703 -0.0807213 -0.115656 0.0797635 0.00113681 -0.0910235 0.169867 -0.0831387 -0.0545273 -0.0113577 0.447663 -0.15155 -0.0277616 0.0067392 -0.0675255 -0.00438889 -0.0902521 -0.0666791 0.095879 0.0120713 0.117614 -0.03309 -0.135052 0.128675 -0.106214 -0.184943 0.0190731 -0.0332251 -0.00663778 0.0343382 -0.127296 -0.0464038 -0.0541044 -0.127815 -0.193792 0.022995 -0.00492848 0.117261 0.119603 0.0096756 0.252899 -0.0202856 0.332639 -0.099678 0.122167 0.0527068 -0.121162 -0.20831 0.292599 -0.0246344 -0.117107 -0.170049 0.0628464 0.0638593 -0.206442 -0.069314 0.0109016 -0.0380215 0.135006 0.0676119 0.0222112 0.024671 -0.0137329 -0.155781 -0.0851357 -0.0899581 -0.0717397 -0.19119 0.089131 -0.205574 -0.187116 -0.124786 -0.0436879 0.0944344 0.00118594 -0.223141 -0.108145 0.0502857 -0.019481 0.290502 -0.109072 0.0254735 0.0239409 0.180777 -0.00307549 0.118026 0.00733623 0.0397188 -0.0236611 0.0796175 0.137175 0.00481223 -0.168028 
0.116796 0.221801 -0.00398543 0.0517037 -0.111264 0.0914057 0.0871793 -0.14283 -0.181151 -0.131836 -0.0465498 -0.21378 -0.0798746 0.0837699 0.0408991 -0.00396413 -0.015887 0.0604904 -0.0499737 -0.00550851 -0.0509574 0.131742 0.108644 -0.148487 -0.0981716 0.102501 -0.158241 -0.096854 0.163468 0.078715 0.00563021 -0.223712 -0.0557138 -0.23144 0.00865518 -0.0323586 0.00653231 -0.139684 0.0737437 0.0960611 -0.0823337 0.0328433 0.0841699 0.270805 -0.0392969 -0.149905 -0.209684 0.0475775 -0.0147586 -0.111796 -0.0864208 -0.0771427 -0.0338705 -0.20477 -0.00459725 0.199571 0.105094 -0.0647488 0.0745473 0.239105 -0.0249526 0.0443662 0.142064 0.117476 -0.245201 -0.277609 0.00418071 0.0442001 -0.0215963 0.0210706 -0.0896861 -0.0933812 0.259912 -0.178108 0.292786 0.0235545 0.0796615 0.0447447 -0.280332 -0.0403607 0.0655184 -0.128224 -0.0213299 -0.0770399 -0.145036 0.12041 -0.197492 -0.116884 0.231747 -0.109509 0.188914 0.298427 -0.0219847 -0.127059 0.0752937 -0.00200793 0.110687 -0.0195905 -0.222044 -0.142546 -0.0447094 -0.0193587 -0.0669662 -0.0407659 0.215359 0.0966591 -0.0173687 0.00841921 0.0285213 0.108325 0.187911 -0.0923928 -0.129859 -0.19042 -0.064117 0.0397459 0.0902239 -0.0641354 0.0243625 0.013037 -0.283901 -0.0789573 0.0303344 -0.12099 0.068152 -0.0245996 0.00680544 0.0577791 -0.0770756 -0.249221 -0.0585427 -0.101945 -0.187459 -0.112431 0.0865041 -0.0661162 0.0762716 0.116796 0.105764 0.0441022 -0.194091 -0.148443 0.115849 0.107605 -0.0347615 -0.0414023 -0.16829 0.0398852 -0.00685528 -0.013336 0.0225714 0.07932 -0.0402481 0.151667 -0.0123644 0.0115486 -0.131148 -0.146175 0.234542 -0.0600791 0.144316 0.19597 -0.0354079 0.185178 0.18991 0.0749945 0.0918891 0.0933117 0.00648575 -0.0688727 0.0782404 0.0661416 -0.161909 0.249885 0.0548262 0.132002 -0.00624847 -0.241436 -0.056799 -0.152493 0.104282 0.0941631 0.117726 0.18043 -0.0539198 0.11687 -0.114176 -0.00598843 0.0561887 0.0256533 0.115142 0.139749 -0.0588929 0.122627 -0.00360138 0.155265 -0.0180125 0.0764388 -0.0989965 0.0303815 0.104342 -0.00889758 0.173179 -0.172524 -0.0103762 -0.0663969 -0.107936 -0.0743463 -0.056177 0.262089 -0.130232 -0.00236649 -0.161984 0.0229137 0.057693 0.164114 0.0312501 0.0187808 -0.152902 0.113372 -0.228577 0.168909 0.0652306 0.118007 -0.0322729 0.264009 0.091121 0.0831854 0.134448 -0.0965195 0.10045 0.0288789 0.108105 -0.138228 0.00298059 0.0757263 -0.177641 0.0247787 -0.120245 0.0305535 -0.0481625 0.153425 0.0619347 0.0764924 0.000289904 -0.0026733 0.130768 0.140902 -0.00489199 0.132785 0.0416567 -0.194309 0.104375 0.144428 -0.041291 -0.177302 0.103371 -0.106551 -0.205026 -0.0795955 0.00652811 -0.0137576 0.0656217 0.169687 0.0950427 -0.152899 -0.0690014 0.184709 -0.0991108 0.185739 0.170982 0.106775 0.111321 0.165165 0.0746584 0.191749 0.000994872 0.223838 -0.0699722 -0.15332 -0.125905 0.17778 0.17448 0.0204789 -0.11214 0.110449 0.162697 0.108258 0.027631 -0.0517515 0.0210217 -0.0899732 0.0968888 0.0422601 -0.00045582 -0.25922 -0.0118454 0.0433278 -0.414087 0.06799 0.0054198 -0.230037 0.130386 -0.0597449 -0.0303952 0.175709 0.149237 -0.00488099 0.112916 0.132451 -0.040729 0.264677 -0.0181238 -0.109022 0.0925072 0.126347 -0.0872852 0.0289188 -0.0703352 0.208401 -0.0605384 0.124403 -0.0603565 0.0815439 0.305505 -0.102457 -0.0620307 -0.0421786 0.0734014 -0.170334 -0.162796 0.0987224 0.0624502 0.0543829 -0.187379 0.0733072 -0.309696 -0.0770606 0.200779 0.024804 0.0291965 -0.0539107 0.193487 0.117418 -0.0181265 -0.116816 -0.0364846 -0.250331 -0.146247 -0.0405322 -0.134383 0.0847733 -0.139037 0.162491 0.0316728 0.0230998 0.0470987 -0.103615 0.1208 -0.133657 0.110256 0.105486 -0.0425773 -0.0633714 -0.0430363 0.323998 -0.0639305 -0.0731231 0.181444 -0.0552478 0.0656342 -0.0374549 0.0780563 0.039443 0.107303 -0.331297 -0.122465 -0.0260976 -0.309967 -0.130437 -0.358091 0.00688758 -0.130287 -0.0290663 -0.132251 0.0866772 -0.159664 -0.0428547 0.0219733 -0.059661 -0.235115 0.0231337 0.149485 0.0120307 -0.0713168 0.0624546 -0.0709467 0.0620748 -0.0254579 -0.2037 -0.0307605 0.0389543 0.0599277 -0.0452955 -0.106883 -0.0342968 -0.159257 0.100713 -0.0913884 0.0920185 0.156105 -0.00853798 -0.146154 -0.11384 0.0395809 -0.0733327 -0.14544 -0.00714831 -0.042209 -0.290679 -0.163498 0.102937 0.17671 -0.0442101 0.0342222 -0.112038 0.23207 0.0806382 0.0651397 -0.125913 -0.131381 0.146638 -0.0277206 0.149837 0.0785549 0.00719901 0.14765 -0.0634489 -0.0371398 0.103279 -0.284407 -0.043755 -0.0937762 0.154868 0.240863 -0.0553339 -0.0134655 -0.202818 -0.204397 0.125297 -0.0959858 0.0886678 -0.0129489 -0.106707 -0.0754587 -0.0236302 0.0584573 0.0683697 -0.035134 0.149546 -0.11849 0.142867 0.106642 0.246944 0.0941043 0.0900205 0.116356 -0.123164 -0.0270306 0.330307 -0.188765 0.14726 0.00324953 0.26397 -0.0132805 0.0597398 -0.15165 0.115503 0.00306315 0.258702 0.36495 0.150463 -0.015032 -0.00663805 -0.116544 -0.191751 -0.183774 -0.0658189 0.141686 0.234454 0.0506062 -0.0403257 0.0155894 -0.0496586 -0.157267 0.0771349 -0.0787766 0.296914 0.170033 -0.0656609 -0.0634699 -0.150637 0.16758 -0.169201 0.128991 0.00774606 -0.109783 -0.139078 0.234552 -0.0961287 0.136527 0.0322645 
0.098364 -0.0195084 -0.0117881 -0.232684 0.0839269 0.0483765 -0.0472077 0.0349028 -0.00391144 0.0467593 0.0614249 -0.023266 0.158113 -0.166192 0.0717039 -0.0447559 -0.0335748 0.0391415 -0.0453868 0.0467932 -0.171547 0.0108649 -0.0296013 -0.192707 -0.212486 -0.0699231 0.0050084 0.0128661 0.058417 -0.149248 -0.127725 -0.0669917 -0.0230544 -0.139298 0.0176632 -0.173119 -0.237211 0.162872 0.172844 -0.390713 0.0399442 0.0711458 0.0667602 -0.257897 -0.175261 0.0222137 0.0870659 -0.123433 -0.0166587 -0.0672014 0.110185 -0.120106 0.0587508 0.169393 -0.0466417 0.0820242 -0.0667986 -0.396139 0.0738408 -0.0629678 0.0740133 -0.0755067 -0.170259 -0.0296514 -0.0540118 -0.101459 -0.136913 0.0519785 -0.0660725 -0.0549759 -0.193898 -0.000453887 -0.179753 -0.077449 -0.165281 -0.140761 -0.0248948 -0.0556956 0.0861811 -0.0215785 -0.252326 -0.0267233 0.0145407 0.0447544 -0.013929 -0.251418 0.00662476 0.114238 -0.1081 0.0226961 0.020202 0.0761323 -0.0136069 -0.0983773 -0.0760317 0.142942 -0.299217 0.119959 0.0577642 -0.149144 -0.0582537 0.044321 -0.0643687 -0.0932492 -0.011735 -0.0911698 -0.191227 -0.0774223 -0.139427 0.0314191 0.103688 -0.0159081 0.0429242 -0.0177288 -0.161914 -0.0700566 -0.02151 0.0262485 -0.0903435 -0.0379648 0.289939 0.0895327 0.0626291 -0.306399 -0.0649968 -0.0624089 0.0663129 -0.0144154 -0.226129 0.0998798 -0.0830392 0.0198573 -0.00858506 -0.159359 0.079478 0.0340456 -0.267849 -0.170285 0.0301001 0.104047 0.00550783 -0.188661 0.005885 -0.0442824 -0.0719782 0.0422724 -0.243219 0.154675 0.11894 -0.144288 0.170098 0.107296 -0.05055 0.115502 -0.140466 0.0901101 -0.23525 0.063308 0.111463 0.131217 0.136018 0.159367 -0.0758858 -0.0612163 -0.0536106 0.0888704 -0.221665 -0.0378474 -0.0653455 -0.0666333 0.200019 -0.0635524 -0.0842248 -0.0298497 -0.125901 -0.0306935 -0.198849 0.00475307 0.010707 0.220143 -0.00170212 0.0299176 0.194231 -0.116709 -0.104621 0.0692504 0.0839522 0.0834868 0.0459457 0.132184 0.0646941 0.00624731 0.026985 -0.109139 -0.0421386 -0.154557 0.0840011 0.00384921 -0.0151023 0.0810955 0.0407959 -0.094995 0.133503 -0.0661072 0.139819 -0.0682364 -0.267065 -0.0930364 -0.0909061 0.100868 0.0997608 0.0757299 0.0875926 0.0621926 0.209114 0.131662 0.0182289 0.125902 0.0630647 0.14542 -0.063122 0.126041 0.116109 -0.0103734 -0.123436 0.032438 0.132665 0.175498 -0.0613257 0.113331 0.142673 -0.105795 0.0439871 -0.068845 -0.183579 -0.342708 0.0582039 0.0859096 -0.122295 0.0428462 -0.135633 -0.062202 0.112463 0.0809334 0.140483 -0.0713681 -0.134379 0.0136678 0.00962441 0.188366 -0.0970019 -0.024551 -0.00632877 0.0487435 0.106834 0.15259 0.0852153 0.0701328 0.155775 -0.141373 0.0204653 0.0297224 -0.0842531 0.0750466 -0.115888 -0.0125747 0.282068 0.00124968 -0.0460123 -0.198305 -0.0259748 0.0680887 0.290942 0.0590203 0.00526607 0.0246007 0.00613841 -0.0171225 0.106861 0.0525594 0.0944019 0.191152 0.0738879 -0.0626866 -0.110333 -0.0623379 -0.0306358 0.116281 -0.0607476 -0.131394 0.163791 -0.0528401 -0.0125607 0.04266 0.0720834 0.0644125 0.0903682 -0.0592761 -0.0522103 -0.347181 0.111339 0.178847 0.0679693 -0.105932 -0.00177357 -0.16651 -0.155129 0.145864 -0.187851 -0.086958 0.0743559 -0.102044 -0.13924 -0.0532376 -0.126205 -0.101063 0.0993263 0.180671 0.204966 0.00108629 -0.0339974 -0.0750141 0.271375 -0.0973076 0.0391382 0.0297712 0.162322 -0.0699702 0.0682523 -0.0857668 -0.296266 -0.205495 0.0815509 0.220302 0.338713 0.118474 0.155689 0.0997559 -0.0843833 0.248775 -0.137768 0.062549 -0.0628195 0.0133657 0.026469 0.0643079 -0.0129086 0.322329 -0.175976 0.168986 0.0473004 0.0611044 -0.181437 0.180427 -0.0792618 -0.139673 -0.0676739 0.0712777 0.103363 0.0549723 -0.0051749 -0.245864 -0.140542 -0.0331709 0.124803 -0.118453 0.0846637 0.178637 -0.138312 0.0585955 0.114773 -0.240062 -0.177015 0.216036 0.0444182 0.0256813 -0.0343574 0.116518 -0.088138 0.144775 0.0150553 0.0272142 -0.210532 0.1118 -0.201557 -0.158885 -0.160461 -0.130882 0.0362994 0.0427621 0.0328399 -0.0923302 -0.136858 -0.0773901 -0.118947 -0.0761894 0.150955 -0.278565 -0.106033 -0.119461 0.161065 0.326593 0.267261 -0.0129462 -0.124833 -0.102305 -0.00715753 -0.0669766 -0.0418659 0.137406 -0.109434 0.102781 -0.0343403 -0.0980076 0.295804 -0.204794 -0.247065 0.14822 0.0342354 -0.0918257 -0.0273155 0.0814724 -0.0162724 0.0874606 -0.13413 -0.154043 -0.152579 -0.290989 0.0898143 0.111756 0.223812 0.0700909 -0.163834 -0.10444 0.142987 -0.0118175 0.0806338 -0.0130448 -0.0405511 0.0445989 0.0470819 0.0328888 0.251199 -0.0154043 -0.00532702 0.00380743 -0.0617987 0.130227 -0.190802 0.139531 -0.0229882 -0.25207 0.0665692 -0.0486174 0.0138172 -0.0268656 -0.0835672 0.00322695 -0.0740916 -0.0711569 0.165014 -0.0176067 -0.0349327 -0.0949875 0.015373 -0.0213405 0.0265779 -0.352818 -0.119151 -0.207425 0.00782219 -0.0283908 0.00152193 0.00279593 0.0610349 -0.241163 -0.00220582 0.0899073 -0.0146083 -0.0957245 -0.208827 -0.120438 0.24045 -0.158136 0.126156 0.142555 -0.195588 -0.0690788 -0.101418 0.0705835 0.190073 0.0493845 -0.0699607 -0.0834787 0.0676077 0.16884 0.0584583 -0.128709 -0.0209082 0.0780085 -0.00374445 -0.116373 -0.0650023 0.0722008 0.013957 -0.0623533 -0.0630227 0.0466251 0.186603 0.0908177 0.0299451 -0.0534255 
-0.0189859 0.0313334 0.0347739 -0.00497051 -0.00202688 0.0520244 -0.148319 -0.0105877 0.122381 0.0499745 0.191767 -0.0681374 0.0908406 0.0108475 0.180437 -0.0671079 -0.0371823 -0.138381 -0.161093 0.000866895 0.0358768 0.0243098 -0.0759776 -0.182197 0.252142 0.172053 0.233129 0.02427 -0.201972 -0.203823 0.197535 -0.121531 0.146534 -0.242885 -0.205695 -0.179322 0.0580833 -0.016741 -0.0437862 0.240624 0.108367 -0.0133642 -0.0800738 0.129891 0.177363 -0.0583276 -0.0798212 0.176538 0.0154482 -0.00244415 0.143595 -0.0613921 0.170448 -0.139223 -0.200116 0.264962 0.0972602 -0.108178 -0.275269 -0.015684 -0.0448577 0.132177 -0.0180154 0.110157 0.247685 -0.0752172 0.00545301 0.120359 -0.134604 0.0676645 0.0856086 -0.0108625 -0.0316106 0.248618 -0.115738 -0.0424645 0.0944005 0.103408 -0.0109674 -0.0664275 -0.0252233 0.053777 0.10008 0.0848148 0.0910151 -0.055382 0.0799123 0.00236969 0.00320648 -0.0929489 0.00914743 -0.0864663 0.0450048 -0.0492886 -0.0738944 -0.0992988 -0.0832114 -0.0251985 0.201808 -0.0733052 0.0020989 -0.115242 0.0554029 -0.00267825 0.132262 0.00538729 -0.127495 -0.157699 0.0178896 0.179909 0.21243 0.12656 0.152935 -0.0678923 -0.176946 -0.102916 -0.143286 0.0538777 -0.0592778 0.209356 0.109063 -0.0300974 -0.0461415 0.0237912 -0.0128424 0.0431484 -0.0927843 -0.155077 -0.213163 0.151986 -0.0418246 0.0322481 -0.0517807 -0.0214169 -0.000125106 0.00692656 0.0983299 0.0707823 0.162715 0.196166 -0.106854 0.0248717 0.13216 -0.112433 -0.0314745 -0.0515913 0.0790085 -0.268627 0.0462985 0.214436 0.232752 -0.112354 -0.0155923 0.270702 -0.0123974 0.115924 0.0842106 -0.0249909 0.0102535 -0.269862 0.0953265 0.0668491 -0.24582 -0.068436 0.117283 0.0817066 -0.220967 -0.190638 -0.18428 0.192239 -0.0744062 -0.0198767 0.272117 -0.159257 -0.0457022 -0.220655 0.102889 -0.0588842 0.0701503 -0.0276582 0.0355595 -0.0292677 -0.092277 -0.13624 0.153805 -0.187606 -0.101426 0.114655 0.0229079 -0.0959131 -0.22647 -0.180683 -0.0698682 -0.0241028 -0.0282651 -0.0248963 0.0981367 0.220926 -0.163714 -0.0733297 0.1366 0.14685 -0.214594 0.0750936 -0.0225696 0.153544 -0.140479 -0.117032 -0.199298 -0.232276 0.154998 -0.147152 0.0178027 0.0176789 -0.0704203 -0.194039 0.0700144 0.275613 0.067581 -0.00868553 0.0481719 -0.110076 0.0321731 -0.0111224 -0.038715 -0.143444 0.0490135 0.115062 -0.126993 0.0562402 -0.0693916 0.139032 -0.060098 0.0337352 -0.0427759 -0.0558433 0.0350811 -0.0021071 -0.323693 0.33915 0.0708139 0.127575 -0.0016893 0.0737167 -0.197044 0.0424873 0.244913 0.0441855 0.0589122 0.0573272 0.0201474 -0.0530422 0.0772552 -0.0703987 -0.220544 0.0644091 -0.00141459 0.171258 -0.108263 -0.16907 -0.0414948 -0.102716 0.100737 -0.02841 -0.111156 -0.165716 0.135043 -0.255438 0.012334 0.054003 -0.0250695 0.0186356 -0.10822 -0.116081 -0.153982 0.302657 0.0796264 0.0813602 -0.089378 -0.0109364 -0.201345 -0.0791744 -0.0907133 0.00536416 -0.0499153 0.179589 0.00538716 0.0135384 0.037156 0.0456727 0.0474275 -0.0199892 -0.111912 -0.211174 -0.108265 0.0423208 0.00617374 -0.0731167 -0.180045 -0.246392 -0.00601925 -0.141501 -0.0394449 0.170037 0.0913514 -0.0447062 -0.0286884 -0.145824 -0.0456853 0.0686366 -0.0363136 -0.0298823 0.0218831 -0.0217108 0.01524 0.0511582 -0.0614183 -0.103924 -0.0205083 -0.146868 -0.190741 -0.0136848 -0.212405 0.068075 0.0929177 0.123622 -0.0522873 0.0755734 0.0271311 0.103388 -0.0988252 0.224312 -0.0810684 0.104965 0.0233819 0.0616834 0.104695 0.0310351 -0.0469453 -0.0139263 -0.0704025 -0.049519 -0.0786643 0.00836835 -0.087128 0.175378 0.0868895 0.226088 0.0848682 -0.08647 -0.0893567 0.172775 -0.101766 0.118457 0.000163949 0.0800832 0.0860299 -0.205631 0.188142 0.00262608 0.0526263 0.0642528 0.115121 -0.047193 -0.098443 -0.0929372 0.294797 0.0189449 -0.219343 -0.0912961 -0.13465 -0.217629 -0.0160704 -0.174148 0.00953501 0.17359 0.0872338 0.0899304 -0.0836347 0.0976039 -0.122731 -0.0393201 0.0218048 -0.0108499 0.0347434 0.192048 -0.0526173 0.0757452 0.14477 -0.171433 0.244126 -0.131146 0.341018 0.0246576 -0.0698251 -0.000225581 0.200227 -0.0582933 0.11691 0.0854742 0.109675 0.157236 -0.139874 -0.034606 -0.0148468 0.103708 -0.0775216 -0.0761945 0.111919 0.128911 -0.179522 -0.0653415 -0.0545372 0.0544868 -0.0649778 0.0943676 -0.133898 0.102499 0.0661468 0.256286 -0.157043 0.239468 0.0380719 0.109258 0.205951 0.116837 0.0310277 -0.0509803 0.131848 0.036114 0.0727739 0.0856776 0.00564782 0.0689237 -0.113056 -0.258269 0.0639165 -0.0622745 -0.0505066 0.0345038 0.269475 -0.0997465 -0.136932 0.0931197 0.136253 0.178544 0.0942712 -0.0345556 -0.22746 0.0296049 -0.175412 0.132555 -0.181444 0.201641 -0.0549556 0.0129043 -0.060081 0.178962 -0.0559689 -0.207016 0.0658582 -0.232467 -0.00165942 -0.127872 0.248668 0.0736064 0.0314659 -0.114327 0.0193724 0.130771 0.0800968 0.151959 -0.132862 -0.211012 -0.0865614 0.0265022 0.0985433 -0.0122382 -0.0330723 -0.0159944 -0.112272 -0.0658825 -0.0031412 0.0616774 -0.0151061 6.36452e-06 -0.0359525 -0.141156 0.137403 0.209872 0.0267473 0.172666 -0.110612 -0.0357673 -0.0534061 0.127428 0.165273 0.0760817 -0.00644193 -0.0416432 -0.0974186 0.0583999 -0.0569688 0.0772613 0.218501 -0.107262 -0.0935069 -0.0519843 -0.0362459 -0.0555449 -0.22979 0.0158179 
-0.118947 0.0476403 0.0755098 0.023029 0.0634285 -0.111893 0.17467 0.0212679 -0.0486141 0.0989612 -0.0888284 -0.0378942 0.299581 -0.0599031 0.148124 0.00398489 -0.122214 0.132871 -0.146231 0.146445 -0.0694908 0.0445572 -0.138463 0.104537 0.0791865 0.0778172 0.12774 -0.141556 0.248418 -0.166635 -0.134406 -0.050196 -0.14979 0.00527534 0.219187 0.141692 -0.0308557 -0.00178353 0.132669 -0.00640923 0.0619415 -0.0935743 0.0134797 -0.0217248 -0.153629 -0.0137527 -0.0128809 0.0219467 0.0161633 -0.100694 0.0404247 0.0256926 0.0992779 0.0643513 0.0371778 -0.177392 -0.260399 0.0565545 -0.200998 0.0126939 -0.0628259 0.136553 -0.0022637 0.0570638 -0.144629 0.159236 0.00905532 0.171779 -0.0975078 0.0477256 -0.00527964 -0.0645311 0.0786912 -0.181427 -0.0888136 0.20537 0.122654 0.111066 0.184357 0.10963 0.0119473 0.100008 -0.286685 0.0646799 0.123514 0.028166 0.109192 0.0683905 0.0519456 0.0393638 -0.138596 0.0871255 -0.285949 0.0254227 -0.0595336 0.0218641 -0.00621788 0.102066 0.126591 0.120285 0.039279 0.150338 0.132894 0.0246674 -0.095084 -0.0635109 -0.20243 -0.252558 -0.123865 0.161358 0.0109906 0.0123051 -0.147464 -0.360619 -0.0339795 0.0450337 -0.117612 0.0205152 -0.174508 -0.00753256 -0.0496155 0.141089 -0.0259831 -0.0407767 -0.130737 -0.0742282 0.188086 0.0337221 -0.0775671 -0.0493217 -0.160874 0.153355 -0.0120749 -0.0123637 0.0952926 -0.0356391 0.0408007 -0.0713765 -0.00352021 0.112859 0.045803 -0.0728564 0.0459023 -0.235966 0.0705508 0.245916 -0.000518421 0.247034 0.0832092 -0.153658 0.14997 0.218963 0.0500303 0.0650771 0.00311487 0.00221033 -0.23922 0.161307 0.131265 -0.190489 -0.169771 -0.288072 -0.0190493 0.160959 0.0813798 -0.197859 -0.114556 -0.0408339 -0.138075 -0.0571865 0.0126612 -0.0333643 0.193644 -0.0769871 0.139236 0.185583 0.184435 -0.269662 0.0569657 0.0483257 0.0759365 -0.0840019 -0.0824286 -0.0839047 -0.0657919 -0.125611 0.122159 -0.0487578 0.245322 -0.046809 -0.0086461 -0.0876664 0.0266028 -0.0295494 0.00264104 0.040504 -0.0998055 -0.227443 0.0991699 0.207615 -0.0413566 0.378805 -0.00796263 0.166183 -0.0756711 -0.0163507 -0.0752349 -0.0566951 0.240409 0.0234293 0.269902 0.0205069 -0.231148 0.180547 -0.179182 -0.103579 0.216833 -0.0483097 -0.175276 -0.0522553 0.0905593 0.0573735 -0.0530111 0.0935442 0.0749491 0.0541533 0.131241 0.0878415 0.0651087 -0.104135 0.0989352 -0.0924957 -0.0152732 -0.0540661 0.123943 0.193357 0.000115756 0.0817986 -0.258535 -0.109186 -0.0795597 -0.15644 -0.131806 -0.256143 -0.00211833 0.0226132 0.154688 0.0775272 0.0146534 0.124921 -0.0287892 -0.119145 -0.144851 0.0518555 -0.0311724 -0.107425 0.286286 -0.203804 -0.157879 0.0461675 0.0408797 -0.025876 -0.100588 -0.0321568 0.0626499 0.226857 0.152911 0.166634 -0.128566 -0.0973385 0.0708603 0.0663654 -0.0728052 0.0653783 0.386954 0.0518575 0.0693648 -0.109629 -0.0494358 0.147009 0.0567681 -0.0201914 -0.0646173 0.168663 0.0721821 -0.183167 -0.0509289 -0.162636 0.151401 0.0520331 -0.322679 0.0838553 -0.114618 -0.0958737 0.0391241 0.122498 -0.0958575 -0.07508 0.0934659 0.178192 0.0799552 0.0231675 -0.0476038 0.129591 -0.043226 -0.0129082 -0.0235831 -0.000757331 0.144577 0.00392549 -0.0461464 0.197988 0.168497 0.23386 -0.0755424 0.179698 -0.104664 -0.0625253 0.107047 -0.225458 0.24366 -0.368833 -0.14806 -0.057146 -0.23303 0.346145 -0.0750414 -0.0438308 0.0825521 -0.0108758 0.0333597 0.17205 0.0293758 -0.0908513 -0.171868 -0.0832938 -0.0620872 0.0639305 -0.150177 0.0419842 -0.291212 -0.158168 -0.0980578 0.00834909 0.114642 0.0348004 0.0640145 0.292763 0.0221227 -0.150892 -0.0123065 0.204603 -0.106398 -0.0508222 0.116399 -0.286573 0.0808514 0.0942797 -0.132809 0.15783 0.116523 0.0609797 -0.0172176 0.00444782 0.109821 0.0864042 -0.154885 -0.0245012 -0.147818 0.0846311 -0.107284 0.00424087 0.0723455 -0.131387 0.138576 -0.0726013 0.112013 0.0855909 -0.145108 0.101728 -0.0703191 0.00379666 -0.127261 0.0783911 0.0807209 -0.0530781 0.0457631 0.09853 -0.0149817 0.248143 0.0143923 -0.0929436 0.0432664 0.177926 -0.063225 0.0438494 0.054548 0.260181 -0.0603354 -0.134154 0.0334254 0.124077 0.260436 0.152453 -0.117349 0.13429 -0.126167 -0.0230501 -0.090066 -0.123243 -0.0569597 -0.0593855 0.312238 0.0493922 -0.04123 0.134907 -0.0895813 -0.163523 -0.122643 0.0723081 -0.00294307 -0.0788487 0.019547 -0.0300859 -0.131994 -0.00320479 -0.0313294 0.266753 -0.0163174 -0.174689 -0.0790685 -0.0624333 0.182018 0.0478329 -0.229547 0.226402 0.108506 -0.218328 0.309247 -0.0344313 -0.00928902 -0.0678641 0.109901 -0.0981752 0.107141 -0.173837 0.019927 0.10192 0.0138349 0.157765 0.062108 0.115344 0.179336 -0.0639195 0.137006 -0.015529 0.0173484 0.046571 0.0147226 0.0456944 0.0879031 0.0922961 0.102944 0.0337539 0.0275024 -0.0438867 -0.155274 0.240447 -0.0737942 -0.255375 -0.0271208 -0.200893 -0.0737149 -0.0695528 0.0276512 0.131034 -0.0155635 0.139512 -0.157268 -0.00306231 0.0279801 0.0550823 -0.166028 0.182607 0.0474263 -0.174336 0.0986462 0.0696193 -0.0184285 0.0714561 0.189404 0.0620013 -0.119816 -0.233033 0.144252 -0.0701764 -0.0687279 -0.0641771 0.0789211 0.0628067 0.089196 -0.0543433 -0.0718593 -0.175039 0.194071 -0.167458 -0.0138824 -0.0357133 -0.203443 0.0250872 0.149821 -0.00278445 
