2048 
0.00863082
0.00442821
0.0531143
0.0065429
-0.00445734
-0.0221892
0.00858987
-0.0159985
0.0591355
0.0362829
-0.0215836
-0.0204924
0.0249361
0.0598168
-0.00737853
0.0235788
-0.0833361
0.0147897
-0.0229669
-9.52785e-05
-0.0564191
-0.0319677
-0.0136794
-0.0226272
0.0275504
-0.00886705
-0.0164915
-0.0414328
0.0438156
-0.0348046
-0.0136487
-0.0592754
-0.0370599
0.00525722
0.0377815
0.0146566
0.0276965
0.00141593
-0.0225387
0.0332969
-0.0409869
-0.0221764
0.0752417
0.0403933
-0.0317023
-0.0360804
0.0333499
-0.00968987
-0.0147774
0.00978553
-0.0137476
0.0190174
-0.0272818
0.0210503
0.00164002
-0.0297799
-0.0720231
0.0186794
0.011499
0.00257471
0.0740047
-0.00919127
-0.000632583
0.0336426
-0.0485913
0.0122074
-0.00300512
-0.0309119
0.0435582
-0.0386284
0.0125296
-0.0419418
-0.0864987
0.00947295
-0.011721
0.0511619
0.0201469
-0.0219493
0.0346997
-0.0398625
0.0426745
-0.0556972
-0.0305122
-0.0127041
0.00526648
0.0372095
-0.00331669
0.0246824
-0.0615197
0.0133004
0.00892005
-0.00298652
0.00198762
0.00895213
-0.0323732
0.0322321
0.0308088
-0.0206461
0.00466752
0.0357275
-0.0358409
0.0125577
-0.0166935
0.049218
-0.0475532
0.0222258
0.0164219
0.0120799
0.0139406
-0.0354692
-0.00281961
-0.019311
0.00744657
-0.00581815
0.00107163
0.045954
-0.0302807
-0.00279525
0.00365894
-0.0184502
0.0302566
-0.0382869
-0.0494229
-0.0510773
-0.0578648
-0.00511153
-0.00787702
-0.00804035
0.00871845
-0.0121796
0.0176538
0.00501071
0.0263432
0.0226922
0.00754356
-0.030144
-0.0252884
-0.0283794
-0.0495347
0.0234553
0.0182173
-0.00987411
-0.0209272
-0.0024782
-0.0152811
-0.00258374
-0.0341967
0.0767742
0.0266392
0.0126584
-0.0226001
-0.0249451
0.0227237
0.0162325
-0.0373001
-0.0312877
0.00125856
-0.0352958
-0.0293924
-0.0293289
-0.0407045
0.00743614
-0.0050373
0.0227974
-0.0455498
0.00836144
-0.0196963
-0.0230771
-0.00108623
0.014792
0.0201243
0.0523718
0.0138591
0.0449346
0.0134897
-0.041023
-0.00619473
0.0152359
0.00725159
0.0139503
-0.039471
0.0176529
0.0191326
0.013348
0.0343227
0.0250439
0.00976657
0.0135837
-0.0214734
-0.0332601
-0.00622773
-0.0139954
0.0283559
0.0286785
-0.0081863
-0.0404079
-0.0170539
0.00763543
0.0325025
-0.0192122
-0.0129288
-0.0103025
0.00570925
0.0235647
0.0355162
0.0187291
-0.0364858
0.00178154
0.0266207
-0.0238089
-0.0810389
-0.000143806
-0.0254746
0.0529597
0.0570283
-0.0325044
-0.0184293
-0.00498245
-0.0093038
-0.034246
0.0172041
0.028415
-0.00729743
0.00885693
-0.00792239
-8.76398e-05
0.000950134
-0.0114231
-0.0561256
0.0106366
0.0265482
-0.0295078
0.00623377
-0.00393524
0.0277936
0.0128892
0.00455667
0.0603419
0.00371856
0.0252771
-0.0198709
0.00455783
-0.0285404
-0.0421186
-0.0276869
0.0207062
0.0337488
0.0192491
0.0159228
-0.0684871
0.0625411
-0.0145783
0.00135949
-0.0317007
0.0213912
0.0172686
-0.0170143
-0.0181508
0.00680606
0.0180817
-0.00179362
0.0109534
0.0569808
-0.02238
0.0240862
0.0138018
0.0339735
0.000215114
0.0350105
0.0388126
0.0516901
-0.00332323
0.0275783
0.00587468
0.0315033
0.00205825
0.0106275
-0.0821454
-0.0299839
-0.0153241
-0.00912849
0.0205198
0.0268361
0.0155538
0.0355512
-0.000668779
0.0666945
0.0507062
-0.0122293
0.0177852
-0.0187242
-0.0426544
0.0108574
0.0749692
-0.0144319
-0.076695
-0.00722569
-0.0153001
0.0569806
-0.00575453
-0.0230832
0.00752046
-0.014577
0.0302669
-0.0178144
0.00129895
-0.0360583
-0.00397627
-0.0230644
0.0363008
-0.0297394
0.00332783
0.00184474
-0.0321358
0.0280429
0.0253557
0.0215924
0.0360008
-0.0699508
-0.0152733
-0.0178666
-0.0363952
0.0749042
0.0224411
-0.0366058
0.00337745
0.035044
0.0268465
-0.00704987
-0.00262994
-0.032338
0.00296872
-0.0336491
0.006156
0.00248549
-0.0037682
-0.0288285
0.000414143
-0.0088577
0.00212874
0.0530022
0.0445193
0.0428048
0.0327707
-0.0351689
-0.0179873
-0.0175068
0.0189554
-0.0260535
-0.020773
-0.0144151
0.0573789
-0.015863
0.00763212
-0.0409434
0.0238856
-0.026041
0.0106016
0.0768191
0.0320606
0.0508027
-0.0199231
0.0123069
-0.0128296
-0.0146602
-0.0154763
0.0447093
-0.0121288
0.0407389
0.000308779
0.00969515
-0.00360138
-0.0284656
-0.0172393
0.00244672
0.0121115
-0.0372568
-0.0255109
-0.0299923
0.000514471
0.00161289
0.0234014
-0.017751
-0.0356841
-0.00449344
-0.0195564
-0.00516376
0.0262691
-0.0323618
0.000139129
0.000141594
0.0187911
0.0196641
0.0433145
0.0440026
0.00823444
0.00241047
-0.0102795
0.00435793
-0.0275833
-0.0208379
-0.035745
0.00698552
-0.0525268
-0.0153818
-0.0628982
-0.0489414
-0.0181124
0.0143804
0.0342572
0.0135489
0.00542175
0.0275921
-0.00667978
-0.0312152
0.0411777
-0.0306986
0.0121606
-0.0451066
-0.0395579
-0.0265342
0.0157314
-0.0401768
-0.0624496
0.023148
-0.0429268
0.0528813
0.0130323
0.0180062
-0.0615413
-0.051915
-0.00622243
0.0414374
-0.0186784
-0.0271468
0.0296127
-0.00452423
0.0133893
0.0178503
-0.0522524
0.0148194
0.0326081
-0.0454631
0.0164732
0.0339607
0.024522
-0.0630299
-0.054137
-0.0205749
0.0272085
0.0275782
-0.0264984
0.00713018
0.0283997
-0.00633107
0.0195036
-0.0230073
-0.0140549
-0.0261979
-0.0163288
-0.00174791
0.0115884
-0.0304623
0.0606915
-0.00761005
0.000156072
-0.0141658
-0.0120946
0.0320493
0.0158565
-0.0649398
-0.064244
0.0255458
-0.0353859
0.0436757
0.0396291
0.00200069
-0.0098911
0.0308751
-0.085161
0.0166106
0.0124153
0.0236332
-0.0777277
0.0449167
0.025093
0.0165476
0.035321
0.0151302
0.0439243
-0.0196175
0.046096
-0.0389903
0.00437938
-0.0284217
-0.0091362
0.0448452
0.0660817
0.0442814
0.0171644
-0.0406063
0.0844618
-0.00360007
-0.0683614
0.0730816
0.0460896
-0.00194551
-0.0247952
0.0289149
-0.0418206
-0.0147323
-0.0417505
0.0121646
0.0428049
0.0617016
0.0324017
0.0114043
-0.00572346
-0.0230508
0.00369442
-0.0211077
-0.0590204
-0.0234402
-0.00422269
0.0295059
-0.00742945
0.0334413
-0.0174227
0.0380141
0.000943131
0.0054684
-0.000432504
-0.0459684
0.0344515
-0.0328805
0.00984976
-0.0267923
0.0627854
0.0292758
0.0113583
-0.0224327
0.0042073
-0.00525729
0.0610713
-0.051969
-0.0308313
-0.0218398
0.0114784
0.0492782
-0.0151444
-0.00256529
-0.00764894
-0.0592004
-0.0307586
-0.0526944
0.0468707
-0.0374898
-0.0306495
-0.0204975
-0.00792058
-0.0365165
0.0325826
-0.00610845
-0.000657505
-0.00567561
0.0191335
0.0054081
0.0340299
0.0376698
0.0336842
-0.00320565
-0.00402008
0.0706529
0.00885064
-0.0215909
-0.0214764
0.0102069
-0.0178823
-0.0127048
-0.0227842
0.0166403
-0.0114571
0.00716866
-0.00741354
-0.0180963
0.00300973
0.00263081
0.00857362
-0.0420528
-0.00374408
-0.0143315
0.00179494
-0.0171575
-0.0161296
0.060913
-0.01332
0.0497213
-0.0100791
-0.0126095
-0.0297952
-0.0146977
-0.0188655
-0.0176715
0.00956142
0.00825357
0.011969
-0.00072416
-0.0183512
0.0712063
-0.000918666
-0.0167243
0.015965
0.0107175
0.0176978
-0.0363818
0.0407635
-0.0421569
0.0124408
-0.0123051
-0.0173265
-0.00013702
0.0201773
0.0187468
0.0172937
-0.0728646
0.0255551
0.0426285
0.0152077
0.0171187
0.0285728
-0.00300508
0.0487777
-0.0278947
-0.0635438
0.0490093
0.0377988
0.00613037
0.0175124
-0.0146181
0.0246609
-0.01506
-0.068345
-0.0188639
-0.0390222
0.0024632
0.0491058
0.0536331
0.0264088
-0.00310105
0.00244396
-0.00164798
-0.0123115
0.00625835
-0.054439
-0.00615954
-0.0215707
-0.039175
0.00343836
0.0058991
0.0796949
-0.00148357
-0.0409315
0.0682087
-0.0320379
-0.00721409
0.0455189
0.0118696
-0.0174623
0.000606451
0.018573
0.0253817
-0.0255363
-0.0131207
0.0310554
0.0188814
-0.0435559
0.00492107
0.0172159
-0.0241682
-0.00956899
-0.0388041
-0.0245317
-0.0769126
0.0450912
-0.0171927
-0.0346218
-0.00262895
0.0330708
0.033619
0.0184781
-0.0209666
0.00707872
-0.000878937
-0.0131119
0.0323251
0.0113656
-0.0278224
0.0359044
0.0236699
0.0265403
-0.00283658
-0.00436455
0.0486727
-0.0323879
-0.00637623
-0.000343201
-0.0115954
-0.0149309
0.0184482
-0.0231678
6.48649e-05
0.00456317
-0.026361
0.0507981
-0.0244238
-0.0300408
-0.0468468
-0.00807572
0.0126803
0.0171708
-0.0150307
-0.00930961
0.0538344
-0.0305569
-0.0559973
0.0391628
0.0174165
-0.00717955
0.0368258
-0.0382725
-0.029376
0.00174761
0.0539709
0.0162593
0.00801664
-0.0444525
-0.00898107
-0.0251406
0.0545474
0.00203265
-0.0482902
0.0339781
-0.0381905
-0.03126
0.0453407
0.0308758
-0.00479129
-0.0329437
0.0272429
0.0324176
0.0599041
-0.0207852
-0.0489766
0.00922511
0.0741536
0.0584726
0.0243035
-0.0187693
-0.0326145
0.0128489
-0.00884564
-0.0164437
-0.00235745
0.00904995
0.0232195
-0.0717015
-0.0210562
-0.0253922
-0.0341378
-0.0330465
0.0394695
0.0604084
0.0107837
0.000385054
0.0359745
-0.0238781
-0.0170608
-0.0642084
0.0211886
0.0417438
0.00219019
-0.0100458
-0.0227377
0.00968993
-0.0480941
-0.00613773
-0.0271681
-0.0487155
-0.0476925
-0.0564375
0.000182837
-0.00544146
0.00367092
0.00271236
-0.105313
0.0227535
0.0267601
0.00093832
-0.050136
0.0627095
0.0161879
0.027439
-0.0157365
0.075796
-0.0164811
-0.0288008
0.065245
0.0393279
-0.0471734
0.00184133
0.0129063
0.0126077
0.0572522
0.00599443
0.0295301
0.00439388
-0.0222495
0.0322748
0.00363385
0.0377084
-0.00480484
-0.018959
-0.011078
-0.011616
-0.00505199
-0.0279013
-0.0112289
-0.0508836
-0.00586933
0.0342791
0.0412511
-0.040129
0.0363412
0.0582142
-0.0261298
-0.0146974
-0.00463957
-0.0697225
0.0351723
-0.0450238
0.029184
-0.0455001
-0.0118093
-0.0124774
-0.0522731
0.0482773
0.0383352
0.0220721
-0.0364773
-0.0150952
0.0345549
0.01269
-0.0108468
-0.0457888
-0.0273157
0.031801
-0.00220117
0.0394854
-0.0482824
-0.000295956
0.0299392
0.00496996
-0.0372566
0.0363723
0.0144761
-0.00395501
0.0260608
-0.0385794
0.00380249
0.0515423
0.0175115
0.0182452
0.0698524
0.0183967
0.0234235
0.0148349
0.0109475
-0.0177784
0.0336093
0.0493256
-0.0686863
-0.0331248
0.049801
0.0608081
-0.0277665
0.0411386
0.0383151
-0.00496286
-0.0243589
-0.0100524
-0.0502261
0.0676818
0.0218589
-0.0152497
-0.0172248
0.0550945
-0.0226023
0.00287732
-0.0364618
0.00326993
0.065911
0.0216833
-0.00192822
-0.0348026
0.0255741
0.0343297
0.0402365
0.0156102
0.00455359
0.0285762
0.00934568
-0.027091
0.0208118
0.016219
-0.0553545
0.00938778
0.0228151
-0.0521007
0.0297027
-0.0161175
-0.0248957
0.0245826
0.00692733
0.0111742
0.0143219
-0.054086
-0.0158137
0.0238589
0.0218567
-0.0153233
-0.0383702
0.0234742
0.0172957
0.00147062
0.00634631
-0.0700686
-0.0147504
-0.00311794
-0.0145692
0.0115782
0.00681204
0.0558648
0.0388539
-0.0270027
-0.0123603
-0.0122525
0.0190105
-0.050217
-0.0501403
-0.00262386
0.0338889
-0.00170652
0.0266807
0.0478939
0.0114083
0.010101
0.0246885
0.0125979
5.94439e-05
0.0226984
-0.02798
0.0295753
0.0136754
0.0185499
-0.00517193
-0.0300472
0.0340044
-0.000730018
0.0206085
-0.0372687
-0.0128107
-0.111731
0.0387281
0.0144764
0.0479918
0.00271791
0.0246435
-0.0139322
0.0615666
-0.03628
0.050057
0.0385161
-0.00700669
0.0132462
0.0416486
-0.0101343
-0.00845293
-0.0541
0.014984
-0.0101364
-0.0179546
-0.0685579
0.0122595
0.00813044
-0.0132354
-0.015814
-0.0278688
-0.0233202
-5.31904e-05
-0.00994146
-0.0515546
-0.0304248
-0.0439494
-0.0262762
-0.0214155
-0.0072536
-0.0322935
-0.0228229
0.0333655
0.0361432
-0.0341378
0.0122476
-0.0441791
0.0628268
-0.033862
0.0244197
0.00407652
-0.0394277
-0.0141791
-0.0106675
-0.0214469
-0.0365711
-0.0371249
0.00646288
-0.00345588
0.00959016
0.00115636
0.10444
-0.00920224
0.0190684
0.0324804
-0.0094096
0.00318319
0.00715461
0.0296094
-0.0473582
0.0333853
0.0370589
0.0325231
-0.0153267
0.0067625
-0.011347
0.0253466
-0.0424439
0.0673844
-0.00987983
0.0261061
0.0170445
0.0303825
0.0799878
-0.00270008
0.020028
-0.042275
0.014027
-0.0222183
-0.0219938
0.0183009
0.0612928
-0.055716
-0.00791399
0.00632332
0.014461
0.0393815
-0.0571248
0.0147349
0.0493719
-0.0218083
-0.0150319
0.0416103
0.0360819
-0.0217115
-0.00504787
0.0161242
-0.00346775
0.0160597
-0.0237041
0.0398667
0.013602
0.0115529
0.0557263
0.0439166
-0.00787428
-0.016854
0.0120391
0.00491956
-0.0240106
-0.0145968
-0.0460059
-0.0010523
-0.0287675
-0.0257942
0.00919015
0.012498
-0.00295488
-0.00463801
0.0106744
0.00717814
-0.0159096
-0.0381549
0.0179625
0.0276991
0.0125157
0.0452602
-0.0145761
0.0592426
-0.0641894
0.00995573
-0.0427401
-0.0158806
0.0702332
-0.0117824
-0.0198571
-0.034529
0.00621188
0.00118917
0.000654934
0.00869575
-0.0263138
0.000160955
0.037174
-0.00778843
-0.0418553
-0.057715
-0.0223445
0.0132323
-0.0241102
0.000179635
-0.0230963
0.0584502
-0.0277853
0.00292575
0.00119926
0.0393878
-0.00611145
-0.0468075
-0.0281807
-0.00835425
-0.033587
-0.0152694
-0.0291455
-0.0469135
-0.00966106
0.0166988
-0.0178148
0.0178647
-0.0642274
-0.00580146
-0.00314104
0.00210703
-0.0282954
0.0629502
-0.0282156
0.0425667
0.0368764
-0.0700424
-0.0842635
0.010443
0.0484068
-0.00483596
0.0151112
0.0452909
0.00496753
0.0187836
-0.00471128
-0.0238052
0.0247759
-0.0134637
-0.00772617
0.0239158
0.0670079
-0.0102624
0.00393445
-0.0112844
0.0153091
-0.00167561
-0.0266023
0.0438034
0.0170465
0.0292712
-0.00337252
-0.0571006
0.00172257
-0.0330697
-0.00218644
-0.0445523
-0.0363601
0.0254012
-0.0697583
-0.0310986
-0.0158941
0.012765
0.0528293
-0.0321519
-0.0726411
0.00232044
-0.0353798
-0.0233642
-0.0383122
-0.0165688
-0.0357004
-0.0339913
-0.0109674
0.0482708
-0.0029733
-0.000937245
0.0302517
0.0671328
0.0186567
-0.0603516
-0.0292295
0.04272
0.0184442
0.00751469
0.0592225
-0.00490988
0.0124194
-0.0264481
-0.0241186
0.00549734
0.0319561
0.0202253
0.013516
0.0109832
0.0826958
0.00777765
0.00483854
-0.00604985
-0.0265958
-0.0165104
-0.00487258
-0.0470687
-0.0347048
0.00789978
0.00757916
0.026721
-0.0397111
-0.0462719
-0.0336474
0.000852489
0.031652
0.0375886
0.0101392
0.0323483
0.0838662
0.0116667
0.0514404
0.0145378
-0.0157381
-0.0539169
0.0121567
0.0262925
-0.00196305
-0.0105734
-0.0322181
-0.0347246
-0.0169177
0.0614434
-0.0273953
-0.00401022
-0.0546636
0.0124883
-0.054483
-0.035693
-0.0116906
0.0246776
0.0599432
0.0198446
0.00825111
-0.0511458
0.0291438
0.0176934
-0.00947903
-0.0131063
0.0123935
0.0243983
0.0312982
0.00829377
-0.0213507
0.0100871
-0.00955899
-0.0302338
-0.0251617
-0.0109777
-0.0419233
-0.0282133
-0.0202403
0.0031524
0.00367067
0.0265075
0.00193032
-0.0142013
-0.0556437
-0.0367373
0.0200557
-0.0342744
-0.0328485
-0.00840532
0.0166094
0.00626767
-0.0597768
0.0182983
0.0173185
0.0396368
-0.0249687
-0.0377282
-0.0546396
0.0486078
0.012759
0.0560927
0.00736888
-0.0254665
0.0215454
-0.00154516
0.0155711
0.0405318
-0.00869794
0.0134875
0.0207979
-0.00479995
-0.00330694
0.0258614
0.0189505
-0.0213186
0.0598272
-0.00781585
-0.0150043
0.044939
0.0416274
-0.0164355
0.0494508
-0.0144507
0.0300264
0.017784
-0.0262276
0.00391878
-0.00913917
0.033905
0.0154536
0.00866363
-0.00766023
0.04023
0.0129705
0.0567325
0.0510653
-0.0182173
-0.0185174
0.020562
0.0686594
0.0117557
-0.0109281
0.0261646
-0.0105004
-0.015161
-0.01298
-0.0390084
0.0023462
0.0350256
0.0064592
0.00939038
0.00368262
-0.0591679
-0.0283179
0.00733257
0.00780185
0.0349074
-0.0362923
0.00383184
0.00788221
0.0103018
-0.0652443
0.00682177
-0.0436858
-0.0130732
0.016178
0.0460657
0.00743151
-0.0058923
-0.0220079
0.0488564
0.018972
0.0463807
-0.0124562
-0.0176991
-0.00698315
0.0543806
0.0166043
0.0194796
-0.0067951
-0.0372439
0.0258996
0.016755
0.031288
-0.0277813
0.0573491
-0.00589245
-0.00351717
0.0161816
0.0469425
-0.0116131
-0.0061801
0.0563304
0.0411307
-0.0128552
-0.0167164
-0.0267914
0.0440754
0.00931177
0.0167458
0.0409612
0.0106072
-0.000389075
-0.047388
0.0225897
-0.0385681
0.0217322
-0.0482104
0.0286536
-0.0136332
0.00847371
0.0180319
-0.040756
0.0228746
0.0675867
-0.0447998
0.0152511
0.0341516
-0.00318078
-0.00794808
0.0161105
-0.0276164
-0.00961183
0.0603291
0.00820751
0.0348022
-0.0137899
-0.0435801
0.00931059
0.0168481
-0.000476144
0.0665785
-0.0401658
0.0145592
0.0209997
-0.00870717
-0.0324634
0.00116798
-0.00558902
-0.0395509
-0.00141126
-0.0167086
-0.00383953
-0.00239285
-0.034041
0.0297143
0.00204809
-0.0251327
-0.0305505
0.0617728
-0.00867063
0.00429174
-0.019095
-0.0462866
0.0526849
-0.0144815
0.0596615
0.0236568
0.044926
0.0354789
-0.0233787
0.00386051
-0.00100611
0.0248209
0.0067576
-0.0154295
0.0167097
0.0302724
0.0635404
0.0304421
0.051821
-0.0430136
0.00122194
-0.0362668
-0.0243378
0.0344672
-0.00673422
-0.0143815
-0.0551687
-0.010012
-0.0140086
0.0186528
0.00752893
0.0223124
0.00276011
-0.056891
0.00453289
-0.0639946
-0.0153775
-0.0384931
0.024837
0.0352948
0.0250763
-0.0142187
-0.0368193
-0.033062
0.00380099
-0.0113034
-0.0248081
-0.0623818
0.0271604
-0.0315718
0.0109233
-0.0291895
-0.0044065
0.011696
0.0467964
-0.0475157
0.000749835
0.0554541
0.0210085
0.0585154
-0.0225076
-0.0168276
0.0657004
-0.00495473
0.0257896
0.0320659
-0.0124963
-0.0199522
0.0398866
0.0390564
-0.0619248
0.0446508
0.005589
0.0143175
-0.0101791
0.00378651
0.00676406
0.0418611
-0.0290882
-0.0722317
0.083561
0.00479501
-0.00251818
-0.0197923
-0.00801637
-0.0108107
0.00200088
0.0143155
-0.0134015
0.0188056
0.00141584
-0.040791
0.00811971
-0.0315968
-0.00766206
-0.00010929
0.0307629
-0.0149135
0.0306197
-0.0640559
0.0262319
-0.00324078
-0.00617337
0.0184894
-0.0450955
-0.0626331
0.0111654
0.00485966
0.0295299
-0.0220928
-0.02398
-0.00403889
0.00887532
0.0843746
-0.00896922
0.0196172
0.00361435
0.0122546
-0.0502469
-0.0188404
-0.030367
0.0034454
0.00389016
-0.0123949
-0.0226848
-0.00497128
-0.0262009
0.0190193
-0.0502153
0.0158462
-0.00512589
-0.0539077
0.00987008
0.0426326
-0.0310728
-0.0432915
0.021272
-0.00116421
0.0225134
0.000590868
-0.00796181
-0.000799321
-0.0504689
-0.0142995
0.0067411
0.0806579
0.0201887
-0.0288417
-0.0130752
-0.00730155
0.0228642
-0.0162842
-0.0216007
0.0389003
-0.015342
0.0277508
0.0242288
0.00939375
-0.0286211
0.0103844
-0.0160901
-0.00783387
0.019321
0.0151817
0.0323341
-0.0382721
0.0281201
0.0272404
0.0368077
-0.0239356
-0.01234
-0.024416
0.0542216
0.0296902
0.0266531
-0.0746431
-0.0351977
-0.00639724
-0.0333068
-0.0269111
-0.0437042
0.0383623
-0.00696853
0.0422971
0.00244954
0.0177904
-0.0326025
-0.00142607
0.0233772
-0.0325588
0.0310138
0.0471826
0.0444492
0.0327515
-0.00359628
0.0104973
0.0431285
0.0291767
-0.00692549
0.021575
-0.0354052
0.0170944
0.0294487
-0.0408747
-0.0452136
0.0117129
-0.0312348
0.0269607
-0.0141423
-0.0281637
0.023711
-0.00904103
-0.0426213
-0.0239617
-0.0454176
0.0747866
0.0315484
-0.0218725
0.00534091
-0.0137095
-0.0186396
-0.0230199
-0.0491631
-0.0246222
-0.0281825
-0.0509176
-0.0294262
0.0323748
0.0642231
0.0418601
-0.0222401
-0.0445958
-0.0153927
0.00779906
0.0278302
-0.0318099
0.00983622
-0.00409474
-0.0427338
0.0404786
-0.00240245
-0.00770328
-0.0164206
0.00452789
0.00539727
-0.0407015
0.0202157
-0.0197379
0.00757545
0.00914125
-0.00992434
0.0359331
-0.0081552
-0.0188737
0.0701675
0.0247392
-0.046278
-0.0436887
-0.0246305
0.0541048
0.00291767
-0.00972976
0.0462704
0.0116072
-0.0318636
0.0310024
-0.0128459
-0.0311911
0.022667
0.0350218
-0.0269868
0.00126131
0.0486048
-0.0102467
0.0417822
-0.0100597
-0.00141815
-0.00462495
0.00474172
0.0575174
8.78311e-05
0.0353708
-0.0512605
-0.00371078
0.072816
0.00451401
0.0480336
-0.00792182
0.0189373
0.0433606
-0.0414625
0.00198278
-0.00990357
0.0030479
0.0084563
0.0032951
-0.0104164
0.00240222
-0.0167195
0.0239624
0.00676659
0.0165293
0.0166085
0.00032414
-0.00218386
-0.018071
0.00871731
-0.0200551
-0.036398
-0.0956453
-0.0062196
-0.0688372
-0.00144387
0.0142051
0.0110136
-0.0240722
0.0164087
0.0319301
0.00970274
-0.0289955
-0.0327892
-0.0314952
-0.0293076
-0.0237027
-0.0403152
0.000811292
0.00465719
0.0241739
0.0648689
0.0639044
-0.0173238
-0.0456226
0.0383113
-0.0276257
-0.0115819
0.0254323
0.018106
-0.00834777
-0.0206611
0.021184
0.0040277
0.061725
0.0574388
-0.0228886
-0.00955928
0.0261625
-0.0120704
-0.000108551
-0.0237491
0.00729128
-0.0119464
-0.0147176
-0.0332038
0.0348463
0.0163274
-0.0247581
0.0107236
0.0202916
-0.0480079
-0.045434
0.0686399
0.0291971
0.0405836
0.000828782
0.0251869
0.0158951
0.0255956
0.071505
-0.000515763
0.0420066
-0.011142
-0.0488569
-0.0151806
-0.0594534
0.0445726
-0.0105523
0.0201628
-0.00632595
0.00603968
0.0276003
-0.0267222
0.00268726
-0.0321606
0.0376812
-0.0390563
0.0216644
0.000904041
-0.0253423
0.00398531
-0.0524062
0.0438665
-0.0182381
-0.0647677
-0.0403717
-0.00938448
0.00103685
0.0167307
0.0416648
0.0445608
-0.0555111
0.036957
0.0184409
-0.0451736
0.00114375
-0.0160836
0.0492995
0.0260008
0.0246183
-0.0279174
-0.0315179
-0.0278699
0.0358774
-0.0213422
-0.0435386
0.0848122
0.0541788
-0.0335784
-0.0102282
0.0117799
-0.0154683
0.00422125
-0.00829969
-0.0160377
-0.0244822
0.0343324
0.028313
-0.0314433
0.001243
0.0193065
0.0484414
-0.0070403
0.00357577
0.0297373
-0.0646142
-0.0155976
0.0617346
0.00993506
-0.0063437
-0.038694
0.0149945
-0.0468537
0.0508582
0.00726809
0.0337717
-0.0115386
0.0658806
-0.00547685
0.0286764
-0.0285196
-0.0205935
0.0126955
-0.0377086
-0.0399845
0.0282077
-0.000818508
0.0597334
0.0209946
-0.000110193
-0.00980246
0.0454302
0.0318054
-0.0481082
-0.054218
0.0343994
0.0206822
-0.0168878
0.0117158
0.019511
-0.00227794
0.00930185
0.0741437
-0.0485663
-0.021744
0.0259832
0.0335221
0.0537744
-0.0270297
0.0480496
-0.0214628
-0.0635673
0.0342095
0.0155776
0.0255962
0.0192656
0.069433
0.0257757
0.0230623
-0.010682
-0.0138888
0.0167805
0.0115267
0.049663
-0.0375932
0.00765348
-0.014688
0.0345819
0.0473552
0.0166112
-0.0250865
-0.0531847
-0.0405405
0.0310769
0.0138726
0.021328
0.0075643
0.0164867
0.0257455
-0.0080722
-0.0183065
-0.0270141
0.00429056
0.0450014
0.0331043
-0.0297372
0.013854
0.00205293
-0.0341511
0.0361045
0.0200115
-0.0396601
-0.0586765
0.054661
0.0107946
0.0157354
-0.0199942
0.0152763
0.0307368
-0.00641928
-0.0178468
-0.0264225
0.00752883
-0.00518348
-0.0185549
-0.0144806
-0.0400489
-0.00592021
0.0299551
-0.00691066
0.0116333
0.0149617
0.0309512
-0.0491149
0.020703
0.00313771
-0.0276263
0.0535974
-0.00721663
0.0535933
0.00135898
-0.0341042
0.00841288
-0.0116303
0.01171
0.00804371
-0.0190357
0.0213091
0.0420868
-0.0251293
-0.0430105
-0.0585029
0.0239764
0.00978734
0.00781402
0.0343887
0.0505857
-0.0397245
-0.00431332
-0.0335863
-0.00382259
-0.0108552
-0.0745835
-0.0574327
0.0105762
-0.00584995
0.0368665
0.0245701
0.000168563
0.0379539
0.00460345
0.0737912
-0.0170718
-0.0011781
-0.00829301
-0.0122445
0.00343526
-0.0265084
0.0118826
0.0680881
