124 512
0.0273014 0.0620966 -0.0278324 -0.162086 -0.155697 0.0178471 -0.0134427 0.125363 -0.145563 -0.148598 -0.0316889 -0.0426799 -0.0292878 0.0241499 0.136993 -0.112327 -0.195635 0.162441 0.0488699 0.174084 0.0571759 -0.0107676 -0.040365 -0.191103 0.171837 0.035381 0.415528 -0.0138804 -0.0201747 -0.085991 -0.0983806 -0.0327245 0.0143811 -0.0128524 -0.0487677 -0.251518 0.143114 -0.166558 -0.0466782 -0.148154 -0.0831277 0.0264109 -0.00361444 -0.121609 0.178697 0.0257505 -0.11948 -0.159521 -0.145505 0.132888 0.107153 0.0469069 0.0104264 -0.116448 0.261372 0.0111794 -0.0249127 0.216451 0.060295 0.266295 -0.0188034 -0.0816133 -0.416074 -0.0188414 0.128148 0.0818848 -0.103446 0.187971 -0.0547732 0.114585 0.042618 0.0691689 0.101757 -0.0907285 -0.112747 -0.255355 -0.103924 -0.0470457 0.0297466 -0.00188156 0.0353252 0.0127156 -0.215695 0.00540019 0.0103141 0.293549 -0.0816264 0.107216 -0.0413294 -0.109687 0.08924 -0.0565372 0.0229251 0.0412943 -0.0224372 -0.00028566 0.0347112 -0.138065 0.0225446 -0.185458 0.0447377 0.169996 -0.0865122 0.0809037 0.235612 0.118329 -0.0769321 -0.0835323 0.0633345 -0.0391829 0.271681 0.0693558 0.0837874 -0.106093 0.106876 -0.147681 -0.180503 -0.0179727 0.117515 0.262631 0.180442 0.132242 0.338341 -0.0527967 0.130896 0.138905 0.0369244 0.0576825 0.0480491 0.116116 -0.0738355 -0.252595 -0.00561434 -0.0702301 -0.0390009 0.140915 -0.0423497 -0.0547468 0.059572 -0.00626569 -0.00898276 -0.00104931 -0.133601 0.110984 0.0931478 -0.0943011 0.128495 0.125948 -0.179631 0.0789502 -0.196994 -0.185705 0.0192301 0.0554303 0.0531935 0.0032044 0.348627 -0.0773512 0.105222 -0.0326292 -0.128198 0.0259707 0.0134073 -0.197392 -0.0590564 -0.0358246 -0.0496135 0.0520789 0.160394 -0.214158 -0.0666067 -0.0115653 0.034668 -0.0469678 0.205882 0.00450606 0.0704098 0.00268106 0.0509687 0.0504795 0.142178 0.257852 0.259464 -0.246176 0.174664 -0.00295738 0.184143 0.154613 0.119847 0.0296069 -0.186809 -0.0693831 -0.026368 -0.0618233 0.0770952 -0.112195 0.218065 0.0847486 0.0488632 0.0384185 -0.122954 -0.143055 0.00836213 -0.0753594 0.0998182 0.110157 0.000135364 0.107169 -0.0570934 0.114939 -0.0872923 0.184066 -0.157469 0.267467 0.0476861 -0.0640613 0.324666 0.0432808 0.066054 0.207104 0.212352 -0.306661 0.202096 0.0854607 -0.000544113 0.112458 -0.00678275 0.0521444 0.098963 -0.0396241 -0.166427 -0.0496915 0.286175 -0.0734073 -0.0752093 0.229177 0.110359 -0.0282572 -0.0266647 -0.192872 0.103715 -0.252544 -0.153087 0.0497122 0.0256163 0.0671382 -0.106336 0.205386 0.0946603 0.0957678 -0.0986378 0.0380597 0.0389477 0.0587921 -0.100327 -0.035934 0.046743 -0.102019 0.011897 -0.010192 -0.141704 -0.250192 0.150178 -0.181864 0.025286 0.186605 -0.0997962 0.0960685 0.00071544 -0.174805 0.0266949 -0.0240882 -0.016782 0.127067 0.169879 0.0829704 0.0883948 -0.0328713 -0.148454 -0.00996793 -0.0100241 0.182332 0.0132891 -0.020572 0.100398 0.0832553 0.0497109 -0.116683 0.0874177 -0.0765625 -0.0219924 -0.107325 -0.0315964 0.124795 -0.0838916 0.143999 0.00216385 0.101615 -0.0125955 0.0926995 -0.0183554 0.143469 -0.0446127 0.223223 -0.118395 -0.10078 0.215966 0.0852523 -0.0538785 0.134084 -0.203448 -0.0738781 0.0669005 0.063476 -0.178713 0.169048 0.0694524 0.106688 0.105181 0.0954868 -0.021713 -0.0322271 -0.112714 -0.0802382 -0.0795499 -0.0337471 -0.00815261 0.100591 -0.0964246 0.0206311 -0.029802 -0.0521821 -0.0593565 -0.0628463 -0.00687971 0.0289962 -0.135651 0.097487 0.00899649 0.0344876 -0.194393 -0.266351 -0.160338 0.104356 -0.177414 0.164092 0.0421708 0.161305 -0.108793 0.0557468 0.0372424 0.0771559 0.0683523 -0.0557779 0.174074 0.0844585 0.271246 0.105549 0.0264469 -0.256762 -0.00498102 0.0134334 -0.0852942 0.153639 -0.354119 0.197154 -0.0423368 0.285877 0.104547 -0.290424 -0.0400174 -0.210852 0.0178591 0.0110265 -0.200864 -0.0983466 -0.00499385 0.0766862 0.0705248 0.0498769 -0.0792776 -0.0111818 0.00812979 -0.0548291 -0.10257 -0.249305 -0.268648 0.166073 0.0145181 0.0245672 0.216672 -0.0279464 0.177332 -0.287497 -0.0153145 0.146139 0.017257 -0.390113 -0.244034 -0.0174464 -0.0671859 -0.0989009 0.166678 0.0869269 0.130083 -0.278513 -0.00870404 -0.057586 0.0491707 0.0789359 -0.230539 -0.126787 0.201181 -0.0524595 0.0186876 -0.371835 0.143513 -0.0799694 -0.163172 -0.198013 0.0518358 0.0880402 0.117723 0.10187 -0.163647 -0.0138281 -0.197485 0.115177 0.0623096 0.125527 -0.0886731 0.167591 -0.12047 -0.00837373 -0.0442041 0.0348775 0.125275 0.062516 -0.0773102 0.029161 -0.0945977 0.00830013 -0.101626 0.0139473 0.304845 0.194711 -0.084613 -0.042604 -0.111907 -0.0639287 -0.0182359 0.145872 -0.202823 -0.0244231 0.0555434 0.131091 -0.0354447 -0.0392553 -0.00161626 0.024414 0.189296 -0.0294427 -0.250822 -0.165359 -0.121693 -0.0795367 0.0267623 -0.0859254 0.0330813 0.0408474 0.175475 -0.082211 0.0291945 -0.173922 -0.0154537 0.0835599 0.0454851 0.106955 0.222498 0.0418913 0.0927384 -0.00817039 0.100871 0.0823288 -0.0821232 -0.0785233 -0.0521654 0.0646189 0.137574 -0.128412 -0.0209446 -0.0523327 0.0471347 0.0166623 -0.102659 0.135611 -0.0923103 0.0310716 -0.203481 0.090075 0.221084 -0.00810164 0.021103 0.0552805 -0.0313956 0.0399013 0.0577641 0.0540661 -0.0798374 -0.0279421 0.04104 0.0746183 
0.0327186 0.0283393 -0.0597847 0.087668 -0.234905 -0.0459387 -0.0869668 0.0687552 -0.236662 0.213445 -0.0213449 0.0505231 -0.148864 -0.148037 0.202491 0.177086 0.110066 0.0261314 -0.0874762 0.129823 -0.17596 -0.199985 -0.203771 0.19323 0.0270186 0.340802 0.0182175 -0.0703706 0.16783 -0.143983 0.0281968 0.0796676 -0.10502 0.0694501 -0.106588 0.148466 -0.114863 0.00939558 -0.097533 -0.0700171 -0.2289 -0.178086 0.0191043 0.00260986 -0.0399612 0.0259488 -0.0401044 -0.086908 0.0630547 0.0264842 -0.219178 0.0741976 0.0885693 -0.0494806 0.0623724 0.106617 -0.222845 0.00234682 -0.228855 -0.206214 0.0482475 0.100896 0.0830627 0.371365 0.0732346 -0.00234861 -0.226539 0.0273299 -0.0627985 0.0189445 -0.105312 0.0108386 0.132962 0.051087 0.135652 0.221228 -0.0252297 -0.0519699 -0.0163785 0.0292701 -0.253058 0.0422097 0.149567 0.0652409 0.16402 0.107082 0.108645 -0.257127 -0.116025 0.0340524 -0.0204337 -0.0487675 -0.0663937 0.18249 -0.0426005 0.0190607 -0.0497691 0.154531 -0.0185915 -0.04602 -0.0801073 -0.0551071 -0.306286 -0.102367 -0.225026 -0.124929 -0.127926 0.0488691 -0.137522 0.190593 -0.075735 -0.173492 -0.119461 0.0588761 -0.140178 0.157878 -0.0162827 0.052183 -0.135843 -0.106015 -0.0723594 -0.0693386 0.11648 -0.0356246 -0.0885803 -0.314578 -0.381519 -0.0870108 -0.109423 -0.070814 0.152729 0.0959879 -0.00586878 -0.12445 -0.192978 0.0237892 0.0894303 0.115886 0.116678 -0.0319109 0.0551468 0.313824 -0.262132 0.291241 -0.0782023 0.200304 0.109757 0.129312 -0.0899635 0.0498849 0.109106 -0.0334144 0.112341 -0.125446 0.147537 0.262547 0.0133501 0.110138 0.0251349 0.00553584 -0.0844751 -0.152395 0.14099 0.292687 -0.00509409 -0.0820153 -0.0956087 -0.0681972 -0.239941 -0.0353669 -0.102794 0.0241314 -0.209955 0.109847 -0.00737698 -0.146629 0.0532559 0.0393032 0.0606533 -0.0544783 0.194625 -0.0244389 -0.135687 -0.10739 0.0867224 -0.0775518 -0.10986 0.0200178 0.173412 -0.0521323 0.091117 -0.0502824 -0.0613343 0.0146189 0.115121 -0.078916 0.182096 0.138031 0.133965 0.104467 0.0249833 0.0691628 -0.0820812 0.0398646 0.321679 0.0819727 -0.158141 -0.136497 0.00775198 -0.105779 -0.109114 -0.0758644 -0.0084461 -0.277942 -0.0747749 -0.282436 -0.0726145 0.241107 -0.0884291 -0.132609 -0.093827 -0.0866207 0.0975337 -0.0549468 -0.0277195 -0.0430917 0.157353 -0.143791 -0.117525 -0.0711493 0.148614 0.0122417 0.0277766 -0.20203 0.162856 0.0243637 0.0676326 0.21172 -0.00191955 -0.0806916 -0.0690201 0.186377 -0.166809 0.0358612 0.230899 0.101808 -0.116603 -0.109657 -0.0255043 0.149763 -0.18897 -0.0387271 -0.000570811 -0.0510573 0.102164 -0.0103033 0.177601 0.0541598 0.0241926 -0.126602 -0.0763394 -0.0114826 0.0546335 0.0400191 0.00228049 0.0784697 0.013908 -0.239387 -0.0474239 -0.101797 -0.0409265 -0.0227988 -0.0649738 -0.0432412 0.182717 0.0341839 0.0353565 0.0450779 0.257368 0.171022 0.209688 0.138866 0.019424 0.167647 0.0172031 0.16019 0.0133291 -0.0708891 0.106232 0.029842 0.131963 0.107906 -0.02126 0.0207978 -0.0726889 -0.0723213 -0.0973492 0.155143 -0.237169 0.0419603 -0.0957644 0.0412386 0.160785 0.0272561 -0.0231462 -0.0448213 -0.154142 0.0442307 -0.0175546 0.119294 -0.0419597 -0.0377163 0.0909358 0.161851 -0.13848 -0.119852 -0.182444 -0.357858 -0.1616 0.0263711 0.130088 -0.116792 -0.209291 0.0142791 0.0770357 0.0343331 0.166781 0.298437 0.0517054 -0.00216481 -0.0414323 -0.147192 -0.0327637 -0.0454397 0.126188 0.133817 -0.0713275 0.000265974 0.105525 0.0556768 -0.163461 -0.0742987 -0.0673155 -0.037091 -0.0509878 0.117375 0.212245 -0.0800699 -0.206942 -0.232913 -0.0273167 0.016868 0.0724708 -0.0543172 -0.158033 0.105277 -0.205764 -0.0247088 0.0753594 0.0393007 0.0572475 0.15963 0.00433818 0.109398 -0.0850114 0.0285522 0.120074 0.0807489 0.229225 0.0193956 0.171549 -0.0369352 0.194693 -0.0964008 0.0317961 -0.0362082 0.0172374 0.00470347 0.0873401 0.171868 0.0320468 -0.0294062 0.0954723 0.102994 -0.0153238 -0.174872 -0.055809 0.0291205 0.128952 -0.114886 -0.0577249 0.108538 -0.0395174 -0.0111983 0.132126 0.137679 0.0128399 0.0859058 -0.0191781 0.150224 0.296121 -0.0872688 0.0534284 -0.274088 0.172839 0.0370694 -0.0141318 -0.0498397 0.145101 -0.0432489 0.112546 0.243493 -0.0803131 -0.0786105 0.00699616 -0.00874135 -0.013212 -0.02662 -0.442328 -0.0910198 0.0135574 0.0194968 0.051662 0.174554 -0.00625283 -0.0999426 0.191131 0.0134178 0.0103961 -0.0146302 0.0112039 -0.0388253 0.0518939 -0.1915 -0.010663 0.0422008 -0.100751 0.101127 0.0865021 -0.0738347 0.0907083 -0.136817 -0.00426148 -0.0173454 -0.12874 0.151325 0.310102 -0.073711 0.024023 0.0329415 -0.0203649 -0.00529264 -0.0289826 -0.0142347 0.186119 -0.135589 -0.0296747 -0.138738 -0.185333 0.0108581 -0.0380372 -0.0590291 -0.0601586 -0.0623574 -0.00944826 -0.0775769 -0.10867 0.132147 -0.018153 -0.0106503 -0.0180936 -0.239418 -0.0911658 -0.129639 0.00362076 -0.148878 -0.237848 0.14434 0.0194549 -0.0147809 -0.0416184 -0.145822 -0.162103 0.0161828 -0.0971943 -0.139159 -0.0879536 -0.204704 -0.0495041 -0.134041 0.253031 -0.0443945 0.00772672 0.116896 -0.0383341 -0.180645 0.0219977 -0.123937 0.154756 0.130757 -0.253642 0.0895701 0.104534 -0.082464 -0.199805 -0.0166124 -0.142966 -0.0627726 -0.156738 0.0193097 0.0309485 -0.00758717 
-0.0106366 0.026402 -0.00174608 0.0179459 0.0526455 0.015888 0.209414 0.205248 0.0777846 -0.011255 -0.017178 0.0251109 -0.0113406 0.20846 0.0312983 0.0523719 -0.0052825 0.132726 0.125523 0.128836 0.118836 0.0342488 0.142283 0.142251 -0.108736 -0.0526958 0.243876 0.0953829 0.0518056 -0.0379842 -0.0710362 0.0746544 -0.323287 0.0807543 -0.0637985 -0.162026 -0.155254 0.178962 -0.10346 0.0446202 -0.128253 -0.113497 0.0683905 0.146884 -0.00207451 0.1089 0.173352 -0.301406 -0.0918208 -0.0184642 -0.0875927 -0.0884782 0.0024652 -0.13248 -0.124359 0.0125318 0.011125 0.00339999 -0.0904978 0.0845874 0.0962774 -0.117532 0.121058 0.0439631 -0.142488 -0.149583 -0.0184989 0.124736 0.0160776 -0.0314966 -0.0898207 -0.0648029 -0.0133923 -0.000500488 0.0360435 0.094802 -0.033545 0.110257 -0.0493275 -0.0145017 0.117594 0.164441 0.124813 -0.00508124 -0.0555138 0.0714619 0.136808 0.095099 0.0424058 -0.122161 0.126844 -0.0499938 0.0184363 0.115416 0.332608 0.00111485 0.431146 -0.0257366 -0.0416141 -0.0567453 -0.0260361 -0.132107 -0.0679215 -0.283027 -0.118092 0.196619 0.0799386 0.0884001 -0.00949205 0.0132762 -0.132925 0.0133926 -0.148373 0.156768 0.0671397 -0.210972 -0.0207441 -0.235475 -0.211917 0.0600505 0.142278 0.084084 0.285838 0.0452809 -0.162235 -0.0468357 0.236342 0.0475624 0.0378604 0.138679 -0.121994 -0.172754 0.0994444 -0.129659 0.0248653 -0.0421242 -0.00493099 -0.0228026 -0.151795 -0.133995 0.157881 0.107468 0.0309847 0.223342 -0.141746 0.109583 -0.136156 0.042818 0.142279 0.0247858 0.162325 0.0271405 0.151194 0.0725763 -0.33881 0.0930981 0.0280629 0.0623854 -0.136643 0.176318 0.0720849 -0.193282 -0.0884999 -0.108838 -0.0495636 -0.147446 0.089673 -0.00848067 0.0233817 -0.06731 -0.0255952 0.00149345 -0.0791364 0.195147 0.0813525 -0.128207 0.00888995 0.176074 0.0447091 0.185909 -0.122412 -0.170903 0.0142093 0.0756848 0.0457512 -0.0578758 -0.0812736 -0.0245814 0.185148 0.224446 -0.105391 0.0914658 0.0797501 -0.0251172 -0.0818888 -0.0663771 0.0656609 0.0928166 0.248354 -0.0191097 -0.000102975 0.149974 0.107696 0.127154 -0.0319801 -0.135197 0.00412503 -0.0618427 -0.0955043 0.0207538 0.211589 -0.112592 -0.1036 -0.0386824 -0.0483851 -0.0161674 0.0149172 -0.0264297 0.0447771 -0.0769972 -0.144 0.0370568 0.0128506 0.287798 0.313754 0.0883159 -0.100817 0.0883612 -0.0243838 -0.00966547 0.146915 -0.0197256 0.0725056 0.215353 -0.220791 -0.0790953 0.174467 -0.0634475 -0.123722 0.134644 -0.00388956 -0.0551386 0.0804239 0.0440432 0.111302 -0.0230055 -0.00686397 0.121402 0.0829332 0.0113573 -0.143524 0.124868 -0.146095 0.105021 -0.0421712 -0.107735 -0.0310169 -0.183573 -0.0555997 -0.0537063 0.218919 -0.2436 0.265383 0.147944 -0.068724 -0.0694333 -0.0667883 -0.0395566 -0.0535778 -0.191821 -0.0581661 -0.153891 -0.0163397 -0.055359 0.0245207 0.116341 0.135104 0.0695121 -0.0735289 0.00900792 -0.0954019 0.0285079 -0.128621 -0.0304029 -0.0638675 0.0638638 -0.0746358 0.177678 -0.036447 0.151857 0.114323 -0.0309789 0.0483763 -0.134322 0.118748 -0.202659 -0.0754116 0.0187643 -0.143784 -0.0680095 -0.079935 6.45147e-05 0.28205 -0.132959 -0.0301711 0.28884 -0.0211841 -0.117914 -0.104817 0.00936002 0.254393 -0.10071 -0.0264953 0.145863 0.0125085 -0.0927877 -0.153393 -0.0229933 -0.00152915 0.00314556 0.0207613 0.0591838 0.0568643 -0.178134 -0.226348 -0.150515 -0.21208 0.102929 0.0142167 0.0400767 -0.163577 -0.00137869 0.0043546 -0.00913728 0.143703 -0.16147 -0.0839074 0.0244468 0.0701326 0.0550391 0.0180182 -0.0558353 -0.0804337 0.0516841 -0.122907 0.102416 -0.137492 0.00396062 -0.184066 -0.105223 0.13541 0.097332 0.0963974 0.187835 -0.124928 -0.223946 -0.0572803 -0.0807686 0.0597201 -0.0487601 -0.0965665 0.300646 0.0481597 0.224049 0.204354 -0.0421278 -0.0233214 0.0935941 0.0555309 0.027752 -0.179156 0.0637615 0.0197668 0.0531703 -0.00163656 0.101239 0.102962 -0.0742234 -0.0524887 0.0329915 -0.206636 0.304884 -0.144721 -0.11485 0.00307589 0.0285343 0.0511315 -0.0713937 -0.191674 -0.0138299 -0.150772 0.0398134 -0.0893104 -0.114429 -0.0684522 -0.237659 -0.064969 0.0948031 -0.0468469 0.231306 -0.172666 0.139724 0.148782 0.0483854 -0.00684028 0.154235 0.130723 0.0711854 0.172206 0.156902 0.0297586 -0.115378 0.0225256 -0.133035 0.137703 -0.120099 0.0636172 0.106254 -0.0497479 0.00056961 0.0581031 -0.176023 0.00786925 -0.18417 -0.0906545 -0.00628359 0.14143 0.0369784 -0.018808 -0.0140162 -0.0212355 -0.168883 0.220858 -0.0541621 -0.0374777 0.0312332 -0.0350653 0.103051 0.0851083 0.0847582 0.10225 0.0789048 0.0789726 0.0350423 -0.0966159 0.0590049 -0.0720934 -0.157407 -0.0410929 0.226457 0.0802117 0.155798 0.0312359 0.00815335 -0.127307 -0.0131269 -0.0196502 0.170425 0.42201 0.196282 0.140245 -0.192055 0.0617683 -0.00939913 0.174126 -0.186158 0.0282815 -0.190745 -0.142788 0.0917455 0.0869352 -0.11837 0.253317 0.084549 -0.247157 0.101185 -0.195716 0.1033 0.100324 0.0711641 -0.201346 -0.214543 0.00121658 -0.0675499 -0.0746171 0.0931704 0.248791 0.0276082 0.170002 0.0963043 -0.0314159 -0.190033 0.0847279 -0.159737 -0.0276378 -0.103832 -0.215955 0.124506 -0.212422 0.17021 0.0250878 -0.0333399 0.100158 0.093552 -0.226499 0.0592506 -0.0505529 -0.128895 0.127381 0.0945783 -0.161061 0.017563 
-0.0616922 0.0645783 -0.235019 0.0543016 0.0910471 0.19896 -0.136433 -0.118801 -0.193428 -0.06172 0.115052 0.224865 0.144013 0.108612 -0.185934 0.179118 0.029603 0.19456 -0.127521 -0.0399487 0.23766 0.24729 -0.102235 -0.0139461 0.0067642 -0.0808071 -0.00391892 0.114651 0.243869 -0.122895 0.097063 -0.027557 -0.116504 0.0920535 -0.262942 -0.156716 0.0867974 -0.0813601 -0.213252 -0.101961 -0.0309711 -0.136731 -0.144276 0.0605572 0.355087 0.102559 -0.179281 0.125803 -0.0726506 0.0881805 -0.213503 0.159835 0.0459654 0.0118144 0.0610413 -0.029155 0.125878 -0.0697482 -0.042902 -0.0746916 0.00688428 0.0231208 -0.0721449 -0.0596584 0.0477875 -0.227592 0.00884017 0.0864959 0.0956304 0.186453 -0.191402 0.253892 -0.228097 0.131268 0.141026 -0.148934 -0.00180339 0.0248418 -0.105753 -0.0526563 -0.0564715 0.020664 0.0252927 -0.317955 0.00207468 0.133042 -0.0416155 0.211788 -0.0594052 0.14493 0.00216436 0.17256 0.150651 -0.185332 -0.0858251 -0.125108 -0.00923158 0.0234251 0.0649794 0.086954 -0.106474 0.13905 0.00872344 -0.0421887 -0.169277 -0.0350087 0.126602 0.0712453 -0.0467798 -0.0174189 0.023439 0.0276732 -0.18232 0.216116 -0.082036 0.251298 -0.0426303 -0.232203 0.165306 -0.242243 0.12837 -0.0339584 0.0982541 0.0720401 0.111895 -0.0377611 0.166139 0.066992 -0.0251012 -0.0272535 0.152627 0.237683 0.257459 -0.0335169 -0.174314 0.0177947 0.0606947 -0.0580091 0.16641 -0.0312713 0.162109 -0.101006 0.121096 0.0278086 0.156197 0.0343427 -0.0898596 -0.0594218 -0.174259 -0.122387 0.0364523 0.185101 0.175355 -0.0406735 -0.107551 0.0839641 0.102204 0.221817 -0.0173522 0.19543 -0.0487492 -0.222604 0.132605 0.176141 -0.00854802 -0.0357199 -0.0450864 0.0769935 -0.142364 0.200741 -0.0765617 -0.161045 0.0844237 0.0271356 -0.236382 -0.000651734 0.13063 -0.0163287 0.0285271 0.0307398 0.107876 0.0382354 -0.0708363 -0.0442892 -0.14172 -0.0554772 -0.101792 -0.000728843 -0.0815894 0.00029396 -0.0562916 -0.0850414 -0.0601256 -0.0255068 0.117864 0.25182 0.191086 -0.0673459 -0.0096633 -0.0811574 0.103893 0.20645 0.0332574 0.0313373 0.175473 0.0618894 -0.0842177 -0.07561 0.035471 -0.00434742 -0.252528 0.0896863 -0.061567 -0.0421887 -0.0651364 -0.0349101 -0.0971858 -0.0294064 -0.105414 -0.0293735 0.080278 0.00790754 -0.12992 0.195105 0.16925 0.156214 -0.0620282 -0.0391998 -0.0502075 -0.0419224 -0.038798 -0.165049 -0.0138799 -0.0568133 -0.0829422 0.0812738 0.282187 -0.143335 -0.132217 -0.0155497 -0.0129573 -0.0820611 0.115686 -0.0645754 -0.0803245 -0.194761 -0.0234103 0.173853 0.0661338 0.00396972 -0.0150844 -0.0204132 -0.0261779 -0.0609633 0.0115996 -0.195573 0.142773 0.0476335 0.00570051 -0.125349 0.0130738 0.0878688 0.0539085 -0.197189 0.00336808 -0.106207 0.0716447 0.00280527 -0.0881027 -0.0446822 -0.109343 0.0847453 0.197663 0.0703148 -0.0152614 -0.0297443 0.0531751 0.0748939 0.0588513 0.0917216 0.244104 0.0145828 -0.147783 0.126273 0.105722 -0.118617 0.0267704 0.0609848 -0.120608 -0.277387 -0.240728 0.101002 -0.012421 0.129438 -0.135488 0.0865137 -0.0751486 0.0524151 -0.0143726 0.0362588 0.0618231 -0.102961 0.0759188 0.103963 0.114225 -0.0735535 -0.129632 0.000532022 -0.241218 0.0127363 -0.0215655 0.0251091 0.29753 -0.0485013 0.0237722 -0.00982805 0.108529 -0.0105626 -0.0216516 -0.0928367 0.018166 -0.000923542 -0.108281 0.329991 0.0547895 -0.000563845 -0.185492 0.065261 -0.109828 0.0249506 0.062018 0.130388 0.164426 0.0732122 0.235974 0.106423 0.0836781 -0.0667866 0.00947236 0.126443 -0.00510612 -0.00546571 0.0794538 0.30569 -0.0768359 0.106108 0.00970339 0.0192796 0.156986 -0.117764 -0.0816334 0.0837635 -0.15499 -0.0298094 0.0933811 -0.160519 0.0905986 -0.0749051 0.257114 -0.14442 -0.0739954 -0.0512778 0.216809 0.238875 0.0775497 0.0239141 0.139658 -0.0799549 0.193999 0.120983 0.0031532 -0.0638413 0.14931 0.0184456 0.073203 0.0488154 0.0238945 0.0508242 0.0943921 0.175091 -0.133474 -0.160719 -0.0462491 0.107384 0.0818334 0.0896372 0.111433 0.0966485 0.189778 0.0677125 0.225244 0.138614 0.268045 -0.000732934 -0.0673957 0.0612639 0.0613218 0.206332 0.0362014 0.135117 -0.0347185 -0.0436483 0.0112076 0.0777 0.0701597 -0.149776 0.189539 -0.0338281 0.101202 0.059135 0.14299 0.154873 0.0667477 0.0105559 -0.0330592 -0.0450348 -0.138516 0.130723 0.0523333 0.0356205 0.134739 0.00983588 -0.0542885 0.16199 -0.0190731 -0.0124625 -0.121686 0.131144 -0.0037994 0.152653 0.00292921 0.191989 -0.0797797 0.195378 0.123343 0.118716 -0.15763 0.160979 0.352445 -0.0232882 0.0139969 -0.0499765 -0.0801673 -0.278434 0.187239 0.0959357 0.135669 -0.132721 -0.163276 0.0933435 0.0747232 0.00312777 0.0861953 -0.0444121 -0.0861175 -0.0744199 0.170857 0.00393404 0.0340148 0.135501 -0.112475 0.0352909 0.114378 0.0409125 0.0172531 -0.0449688 -0.164098 0.222176 0.09495 -0.154736 0.287932 -0.0056775 0.00196717 -0.0711604 0.0132766 0.244984 0.0505893 -0.0116965 0.0508273 -0.0123748 0.123605 -0.00185954 0.0153199 -0.122879 -0.00298782 0.0652796 0.118033 -0.0535394 0.115208 0.254619 0.116547 0.137019 -0.00146266 -0.133347 -0.0761327 -0.0307819 0.159412 -0.0722749 0.0986061 0.0767317 0.0361615 -0.166118 -0.0431706 0.092357 0.116572 0.265955 -0.0448371 -0.0506559 -0.0393013 0.121073 0.104076 -0.128415 
-0.0523272 0.267168 0.0531783 0.00201648 -0.111836 0.0200439 -0.0465845 -0.0408854 0.0210654 0.195205 -0.0550851 -0.112287 -0.115869 0.326397 -0.0535158 0.000536636 0.242118 -0.0207255 0.0523111 -0.192069 -0.0484022 -0.0761439 -0.241543 0.0328286 0.102766 -0.103342 -0.142933 -0.113389 -0.0589309 0.0680941 0.047048 -0.116721 -0.170419 0.0330499 -0.206152 0.0192248 0.0236969 0.0563489 -0.210859 0.171572 0.153255 -0.119969 0.0903157 -0.159262 0.0682992 -0.117126 0.0529722 -0.014823 -0.0139262 -0.106931 -0.052124 0.120358 0.142124 0.187075 0.0950101 0.0814791 0.0838919 0.211887 0.102133 0.0516749 -0.019443 -0.228253 0.141453 -0.167914 -0.2676 -0.0169379 -0.10224 -0.246687 -0.0298019 0.206681 0.050203 -0.226608 -0.0735846 0.0262196 -0.0108318 0.154773 0.0780227 -0.167013 0.047264 0.0642712 0.000725668 0.00369889 0.0651746 -0.0840622 0.0168727 -0.00777223 0.0742453 -0.0678048 0.0138806 -0.185928 0.0413723 -0.103782 -0.0201578 -0.0300233 0.0432354 -0.222962 0.141679 -0.0986115 -0.0363358 -0.122898 0.068545 -0.156675 0.0661767 0.0807995 0.176247 -0.0890258 -0.116315 0.0875889 0.0489364 0.0965786 0.142637 0.0398193 -0.034396 0.160335 -0.0783405 0.0348986 -0.208786 -0.04512 0.00963173 0.109959 -0.0557847 -0.0504921 0.0209905 -0.049927 0.0179157 0.049036 -0.121401 0.0761545 -0.149602 -0.0998779 0.0242753 0.0655202 -0.00607915 0.0193214 -0.0103834 0.0320533 0.113783 -0.0515487 -0.104345 -0.221997 -0.0948985 0.045966 -0.113406 -0.191526 -0.340822 0.0237042 -0.0626964 -0.00523139 0.0756582 -0.00496671 0.112055 0.209376 -0.0148715 -0.0816839 -0.219238 -0.362314 0.00854976 0.115738 -0.0847883 -0.248105 -0.174218 0.0913576 -0.0538326 0.0952875 -0.178026 0.0566966 0.00739112 -0.0874602 -0.0818417 -0.131046 0.150886 0.012636 -0.0155126 0.0519254 0.0597242 0.0182944 -0.0749765 0.291439 -0.141767 -0.114288 0.0400141 -0.0877822 -0.0640192 -0.0603672 0.0141671 0.235654 0.0711106 -0.0632681 -0.0833014 0.266608 -0.383079 0.151923 0.0833049 0.1813 0.203845 -0.0608898 -0.186204 -0.00720443 -0.016829 0.113073 0.154394 0.316722 -0.0284641 0.116734 -0.0660387 -0.00611023 0.0708193 0.0780537 -0.0119501 0.154507 -0.00043959 -0.175803 0.0118579 -0.145128 -0.0179425 0.0102069 -0.0279626 -0.0229659 -0.00944237 0.00546696 0.0690887 0.00600334 0.172834 0.154531 -0.266468 -0.00637224 0.00962805 0.181825 -0.0670257 -0.017952 -0.158336 0.228518 -0.254892 0.0155487 0.0779431 -0.0419697 -0.0262702 -0.0508065 0.0870915 -0.124437 0.15236 0.104307 0.193139 0.130099 0.00825637 -0.0166308 -0.109063 -0.0902426 0.112919 -0.0600444 0.045824 0.238715 -0.0738143 0.121323 -0.201852 0.0257847 0.10187 -0.0243979 -0.0274706 0.162789 -0.150791 0.0559237 -0.209232 0.173397 -0.0994544 -0.0534412 -0.120662 0.0627836 0.0125075 -0.0703683 -0.209052 0.0351124 0.0943249 0.193961 0.196334 -0.133045 0.0591268 0.080272 0.121222 0.000791451 -0.181069 0.0632078 0.0688487 0.0999224 -0.0308952 -0.0412433 0.172376 -0.0246671 -0.136235 0.0601041 -0.110194 -0.14487 -0.143694 0.173221 -0.153585 -0.162716 0.14593 -0.00925519 -0.335786 -0.155599 0.00750365 -0.0077715 -0.164799 0.136226 0.00388896 0.0279145 -0.18162 0.265436 -0.294834 -0.0994839 -0.065542 0.0291793 -0.0593817 -0.0615406 0.149912 0.160963 0.0405318 -0.0836914 0.161536 -0.248004 -0.0150479 0.0412481 -0.0229106 -0.0385441 0.179758 -0.122335 0.0427955 -0.0935385 0.00984781 -0.0626403 0.0558778 -0.124829 -0.180563 -0.082101 0.203528 -0.164607 0.0146285 -0.0253889 -0.139745 0.199466 0.014392 0.0266503 0.221708 -0.0179754 0.0430773 -0.0232471 -0.160565 0.0485027 0.0211956 0.139826 0.0333068 0.0205755 0.037611 0.0131517 0.020362 -0.302757 -0.00364022 -0.130117 0.0170334 0.0818651 0.0924449 0.116821 0.0894439 -0.0158616 0.0661654 0.140522 0.160342 -0.0288569 0.152387 -0.194434 -0.174313 -0.0563911 -0.140606 -0.0323786 0.0244642 -0.165396 0.242466 -0.126615 -0.191919 -0.167356 0.0398004 -0.0503033 -0.169155 -0.00768531 0.126484 -0.0336424 -0.080729 0.123664 0.228371 -0.0194281 0.206145 -0.115426 -0.00634196 0.139513 -0.200401 -0.0178984 0.0710757 -0.165316 -0.40441 0.070204 0.0145831 0.0915383 0.133232 0.109034 0.285087 -0.148033 -0.0800642 -0.0516193 -0.109429 0.1453 0.0443504 -0.085508 0.0875433 -0.114106 -0.0669444 0.0398053 -0.0287708 -0.0320565 0.144622 0.0555017 0.22879 -0.118028 0.044726 0.0832438 0.178932 -0.0568797 0.00280576 0.310284 -0.126836 0.0178829 -0.140244 -0.204773 0.0967999 -0.0783143 0.21356 0.0868759 -0.0256311 0.0614612 0.0228932 0.175958 0.0886453 0.071194 0.128338 0.0820464 0.207019 0.0270905 -0.0331696 -0.109836 0.0367429 0.0845329 0.0030592 -0.0464532 -0.215893 -0.161757 0.0406554 -0.0102814 0.0679039 0.0690719 0.0413529 -0.108517 0.0814422 0.0890522 -0.118366 0.14845 -0.048374 -0.10132 -0.132823 0.0897852 0.117094 -0.216945 -0.0445745 0.152757 0.205374 -0.160596 -0.0701947 -0.13906 0.0638611 0.0954161 0.169431 -0.124175 -0.105555 0.00494883 0.018708 0.0677221 -0.072137 0.158519 -0.137112 -0.251329 0.131539 0.0483471 -0.142053 0.0250741 0.0847851 0.248968 -0.0692917 -0.089669 -0.168431 0.188272 -0.0389266 0.164552 0.105204 0.201518 0.035314 0.0841834 0.196829 0.0400501 -0.0873628 0.00542751 -0.144287 0.0122084 0.0183177 -0.0131577 
0.0865222 -0.0769797 -0.0368076 0.111087 0.0885304 0.102144 0.185842 -0.0542445 -0.0626651 0.0804803 -0.0403404 0.17152 0.0890261 -0.0353807 -0.0350374 -0.221574 0.0588744 0.217504 0.115879 -0.0545349 0.00787074 0.129565 0.218197 -0.214072 0.0644042 -0.00725235 -0.0207631 0.0907573 0.187701 0.0193679 -0.0452018 -0.101269 -0.14099 0.004017 0.102678 0.086927 -0.0425065 -0.134445 0.103903 0.0168405 0.0842913 0.151728 -0.329237 -0.0204694 -0.0100077 0.11202 0.0366343 0.193235 -0.189971 0.0527447 -0.0802402 0.00246826 -0.0449109 0.000391248 -0.267615 -0.032283 -0.0616654 -0.0608443 -0.115459 0.116276 -0.0833767 0.13095 -0.0220695 0.188077 0.0978883 0.0800275 0.0432989 0.00836866 0.0522074 -0.19001 -0.0532006 0.0640491 0.0448978 0.235234 0.235393 -0.101496 0.00618357 0.0340965 -0.21575 -0.00626714 0.0656681 -0.0183757 0.258495 0.0762977 0.105331 -0.0875251 -0.103256 -0.109354 0.0116357 -0.0368109 0.219576 0.104863 0.0723899 -0.0839991 0.138048 -0.0245332 0.0110598 -0.223655 0.00331052 0.177413 0.0558399 0.0683057 0.0260303 -0.00647764 -0.149823 0.0311854 -0.101359 0.0499382 -0.0455167 -0.0150376 0.0618023 -0.0508043 -0.246089 -0.0216156 -0.017049 -0.0423752 -0.0252948 -0.111009 -0.0970478 -0.161134 -0.0095747 -0.204814 0.212059 -0.270523 0.14621 -0.11558 -0.0330408 -0.0111936 0.101672 0.0182912 -0.0499333 0.0485703 0.0690242 0.190615 -0.0431421 0.254288 -0.0544425 0.108984 0.0497507 0.0391602 0.124232 0.0964238 0.13841 -0.118372 -0.0112908 0.219248 0.256055 0.142229 -0.0653174 0.137768 0.138362 0.0793647 0.00630859 -0.148412 0.130519 -0.0469726 -0.135079 -0.0352286 0.143339 -0.0433401 -0.0390581 0.0193165 0.126326 -0.165149 0.0442797 -0.0534583 0.0507011 0.0864704 -0.119282 0.110979 -0.181526 -0.143377 -0.0749509 -0.0219378 -0.0442199 -0.010127 0.108798 -0.0154994 0.257517 0.0837692 -0.0619952 0.00356075 0.085902 -0.199764 0.0289916 -0.0815102 0.108538 -0.221953 0.142804 -0.0515054 -0.0767397 -0.124218 0.185036 0.243234 -0.0852275 -0.0451553 0.0913012 0.109925 -0.0121525 0.119317 0.0879442 0.0898071 0.221461 -0.0456448 0.156234 -0.101183 0.0876687 -0.0175717 0.113085 0.0346016 0.0705512 -0.243836 0.0484094 -0.281986 -0.287007 0.0311887 0.114959 -0.031057 -0.0492308 0.0258897 -0.168983 0.0407658 -0.198203 -0.275461 0.233114 0.192319 0.0215119 -0.242298 -0.0374529 -0.0726262 -0.200053 0.0876069 0.231887 -0.131176 -0.165727 -0.136241 -0.238845 -0.0744441 0.0610542 -0.0417337 -0.066659 -0.0138867 0.181159 0.0348028 0.0827568 -0.152787 -0.165196 0.020088 -0.0560317 -0.171935 0.155752 -0.0262864 0.130775 0.125574 -0.116818 0.0130359 0.0189472 0.0191492 0.127651 -0.0762587 -0.0289077 -0.420599 -0.0791678 0.153113 -0.0987169 0.071016 -0.10049 0.162368 -0.239887 -0.017699 0.0815823 -0.0244713 0.0893606 0.138033 -0.0114136 0.193945 0.0976404 -0.114958 0.079516 -0.119313 0.17137 0.0780968 0.0568388 -0.0820313 -0.0736202 0.0368331 0.136255 -0.0657891 -0.0321144 0.0210455 -0.263207 -0.0685698 0.127152 0.0208115 -0.157459 -0.0947258 -0.0547221 0.155056 0.0769316 0.0879562 0.212974 -0.178066 -0.213014 0.175979 -0.22485 0.249518 -0.0327515 0.0529979 0.0781114 0.0752597 -0.0112693 0.173269 0.0362573 -0.0446385 -0.179896 -0.0412862 -0.196549 -0.0247892 -0.0894437 -0.207579 -0.228558 0.125337 -0.158649 -0.0707961 0.0496361 0.101208 0.179492 -0.0739288 0.107524 -0.157611 -0.104687 -0.132143 0.0373512 -0.122775 0.284118 -0.0241855 0.0492911 -0.228068 -0.0535504 0.034597 0.0755764 -0.0870389 -0.0839509 0.220081 -0.18956 -0.0479944 -0.0412988 -0.00628098 -0.135352 -0.0664112 -0.0196591 -0.272104 0.0944415 0.0931017 -0.258216 0.119491 0.241858 0.0349974 0.145641 0.0567517 -0.0127465 0.315276 0.0524623 0.0482526 0.0705564 0.211773 -0.157645 -0.00735847 0.114641 0.0643383 0.0642891 -0.019571 -0.305478 -0.00356294 -0.222446 0.119185 0.129548 0.0680907 -0.2143 0.0892129 0.064417 -0.168621 0.120114 0.00490687 -0.282058 0.0118342 -0.145434 0.143808 -0.0627254 0.110399 -0.175837 0.019452 0.0452263 0.0155212 -0.154821 -0.0115258 0.237475 -0.193233 0.0115082 0.0162219 -0.168262 -0.238902 -0.00186474 0.0337151 -0.0659313 -0.168229 0.124882 0.039932 0.155336 -0.0889049 -0.0958954 0.00118483 -0.177561 0.125148 0.14835 -0.00727758 -0.167808 0.0807761 0.142641 -0.0892919 0.039089 0.0692394 -0.183069 0.138387 -0.0908361 -0.0150215 0.0174551 0.0410533 0.151766 -0.0883239 0.0759336 -0.122419 -0.0196199 0.115089 -0.0389191 0.205668 -0.127237 -0.0271667 -0.252059 0.119099 0.0184194 -0.178299 0.00944885 -0.0398059 0.0391387 0.039284 -0.00295692 0.0561653 0.187435 -0.0807242 -0.0186802 -0.000317635 0.0325901 -0.111392 0.270707 0.00219471 0.116352 -0.108794 -0.124299 0.261491 -0.0897638 -0.0172562 0.0836601 -0.00196157 -0.0485984 0.00603976 -0.115043 -0.13525 -0.075465 -0.146374 -0.105035 -0.0959156 0.0938748 0.0130001 -0.0246022 -0.0228117 -0.0999458 -0.0299909 0.00027128 -0.039712 0.052656 -0.247124 -0.0604918 0.010938 -0.195509 0.0784934 -0.0941532 0.0540232 0.242519 -0.066735 -0.100346 0.0309997 0.02521 0.0477573 -0.141277 -0.124657 -0.124053 -0.0835146 -0.119685 -0.0413214 -0.189599 -0.0909431 -0.213584 0.101904 0.179234 0.278015 -0.0388995 -0.269934 0.0648467 0.0338905 0.102503 0.25513 
-0.232742 -0.0571693 0.0325528 0.200636 0.0994105 -0.115012 0.191502 0.0122293 0.130443 0.109075 -0.0331061 0.184902 0.0172745 0.0561452 -0.0490635 -0.0291013 0.253329 0.0284779 -0.0416976 -0.0210981 -0.0888017 -0.10692 -0.17504 -0.122583 0.0517888 -0.190561 -0.039537 0.0315395 0.0402446 -0.00641811 -0.0240022 -0.149785 0.051849 -0.0780134 -0.0758009 -0.0711429 0.029474 -0.0264084 -0.235763 0.0873548 -0.220431 -0.0274881 0.108108 -0.0780512 -0.204968 0.282502 0.163884 0.0337483 0.0626494 -0.00356294 -0.143938 -0.0449024 0.0792919 0.0721016 0.206332 -0.0216168 0.0672051 0.0766164 0.124347 -0.102889 0.211725 0.0278518 -0.190437 0.0939173 0.112849 0.0565998 -0.0591297 0.0166057 0.0283762 0.0369168 0.114799 -0.316749 0.22799 0.281963 0.113618 -0.109518 0.151305 0.0867388 0.132403 0.0290077 -0.069881 -0.0427272 0.123158 0.00730519 -0.0742476 0.0437633 0.0202906 -0.00907295 -0.0621739 -0.0179395 0.114977 -0.000304655 -0.376085 0.0224312 0.0793614 0.130493 0.230066 -0.290004 -0.0696468 -0.0436202 -0.134367 -0.172919 -0.0471243 -0.0244674 -0.126911 0.172103 0.037715 -0.0532428 -0.159264 0.0865155 0.408185 0.312767 -0.110679 0.224793 -0.193579 0.27376 0.0847765 -0.245628 -0.0881514 -0.0245332 0.215895 -0.063957 0.0142746 -0.249944 0.110275 0.0119693 0.111198 -0.192962 0.0412536 -0.000602897 -0.0263856 -0.0590661 -0.153782 -0.149767 0.2499 -0.100564 0.21711 0.0650196 0.0630585 -0.170004 0.201767 -0.0144829 -0.170585 -0.0894394 0.0322603 -0.094393 -0.377646 0.108236 0.139555 -0.00161613 -0.0307321 -0.325368 0.106436 -0.000959842 -0.14165 0.123619 0.0335647 -0.12985 -0.0495722 0.0207383 -0.0979591 0.00925029 -0.0141383 0.0272437 -0.072787 0.0729387 0.14613 0.203991 0.0390247 0.0849783 0.0544644 0.195354 0.0298466 0.128367 -0.00620699 0.23063 -0.0481847 -0.143188 0.28829 0.209576 0.307314 0.00839209 -0.119858 0.0726462 0.0364926 0.0763233 0.162797 0.332704 -0.126419 -0.00874471 -0.0587179 0.0111203 -0.0522947 0.16812 -0.0226923 0.129061 -0.133971 -0.0520801 -0.122247 -0.104421 -0.0506931 -0.0520932 0.0638734 0.148561 0.0778811 0.267335 0.111428 0.120444 -0.19239 0.149291 -0.146582 0.0666541 -0.024595 -0.0708834 -0.040585 0.244956 0.146375 0.0164133 -0.107225 -0.0278319 -0.216088 -0.0124955 -0.0933815 -0.0616106 0.0354071 0.140376 -0.123799 0.0208917 0.181861 0.138373 0.033339 -0.0928584 -0.16827 0.222374 -0.111592 0.24644 -0.135786 -0.0880592 0.0443691 0.134663 -0.0366313 -0.0486031 0.00254353 -0.210547 -0.136874 -0.0577885 -0.216505 -0.112411 -0.02554 -0.0151254 -0.00982669 0.0769603 -0.141857 0.0211364 -0.299117 -0.0108606 -0.106834 -0.037709 0.127553 -0.05224 0.0695029 -0.171503 0.155422 -0.107573 0.0871288 -0.0778406 0.0939644 -0.00260645 0.0123948 -0.069982 -0.0209427 -0.0939886 0.157985 -0.0873817 0.104566 0.144984 0.0482329 -0.0872753 0.0639595 0.100588 0.0430198 -2.17217e-05 0.223461 0.254611 0.0725031 0.128675 -0.00129683 -0.142607 0.130672 0.0818604 0.0385711 0.099446 0.283623 0.130584 0.0141582 0.0255477 -0.073686 0.0358814 0.10114 0.03666 -0.132912 -0.0270956 -0.0490643 -0.0444427 0.00657178 0.197271 0.078282 0.154578 -0.0396586 0.0909874 0.0870963 -0.0218465 -0.0406739 0.183144 -0.0561331 -0.0689527 -0.134258 -0.0401059 -0.127654 0.210104 -0.0565788 0.0146264 -0.194346 0.0255117 -0.0343096 -0.320424 0.0207498 0.116648 -0.114911 0.178684 0.096313 -0.210136 -0.13104 -0.162361 -0.0160564 -0.343403 -0.0449605 0.0901852 -0.144353 0.158607 -0.0675552 0.0441541 0.0283386 -0.00886701 -0.0889689 0.124805 -0.102094 0.117653 0.0780161 -0.245164 -0.116091 0.0798455 -0.251712 -0.325563 -0.151306 -0.00732754 -0.0852872 -0.0413386 0.27203 0.172821 0.0936051 -0.374458 -0.00432897 0.1935 -0.0936804 0.0840762 -0.0728341 -0.0481767 0.153366 -0.138511 0.0733984 -0.254184 0.0866006 -0.00514516 0.257606 0.100842 -0.209609 0.0697735 -0.0104458 -0.0591106 -0.0163532 -0.0145052 0.0586288 -0.145149 0.193793 0.0186032 -0.0758556 0.124701 -0.0948249 -0.015811 -0.255336 0.00153201 0.0552849 0.235066 -0.0256361 0.188024 0.0304868 0.281647 -0.0124519 0.0205587 -0.125849 0.0548591 0.0861069 -0.149369 0.115822 0.246908 -0.00657965 0.177741 -0.030096 0.0580986 -0.262099 0.00119881 -0.00989989 -0.065867 0.0463658 0.038571 -0.119149 0.0599277 0.127095 0.097298 0.118833 0.376637 0.0537217 0.169861 -0.0274611 0.0493273 0.189319 0.190267 0.079711 -0.181676 -0.168956 0.173934 0.0848367 0.193313 -0.0287843 0.041207 -0.0054721 0.133366 0.0398128 0.113624 0.0415588 0.0794031 -0.0446826 -0.00517029 0.0292486 -0.0657488 0.129392 -0.0740888 0.0729855 -0.0821346 -0.080438 -0.0356085 0.0143905 0.260026 -0.176223 0.150315 0.0811407 -0.163835 0.12871 0.0627307 0.129281 0.0582116 0.172307 -0.249194 0.0326667 -0.0539421 -0.187615 -0.140667 -0.0953477 0.0977817 0.00923662 0.0535125 0.0982033 0.029378 -0.213712 -0.00858467 0.240425 0.0754812 -0.21583 0.0655464 0.136733 -0.229822 -0.324189 0.0776182 -0.231551 -0.0120519 -0.0998877 0.00757668 0.107899 0.0385199 -0.0562152 -0.259013 -0.128385 0.1348 -0.124849 -0.166942 -0.151577 -0.169744 0.156392 0.0779772 0.0911205 -0.262189 0.0463259 -0.136092 0.0486546 0.0702353 0.0777876 0.0333388 -0.0874613 -0.101111 0.0830994 0.274167 
0.00175499 -0.185104 0.184766 -0.0607375 0.131067 -0.0434209 -0.0140402 0.149561 -0.224927 0.106269 -0.163612 -0.198438 -0.0807725 -0.258673 -0.041607 -0.107256 0.0729696 -0.207812 -0.0698879 0.168087 0.0150162 -0.340269 -0.128649 0.335411 0.0769011 -0.0868824 0.0276999 0.191119 0.151148 0.00699704 -0.0525668 -0.0254152 0.0823297 -0.0745785 -0.0940975 -0.128407 -0.0755331 0.146393 -0.0789229 -0.25287 -0.0247857 -0.018592 -0.135125 -0.0140282 -0.153832 0.248395 -0.195787 -0.142317 0.127296 0.165416 0.112749 -0.0640795 -0.0380026 -0.10921 0.131552 -0.186186 0.0903151 -0.0354138 0.11472 -0.0588828 -0.0441898 0.0119999 -0.105116 -0.0728863 -0.194482 0.0439324 -0.0859337 0.0274465 0.126961 -0.115007 0.163525 0.0558801 0.0076424 -0.147357 -0.169975 0.221382 -0.153311 0.0823028 0.172375 0.114759 0.164748 -0.0103706 0.204654 -0.0980126 0.127815 -0.216495 -0.00226539 0.0251887 0.0906955 0.178221 0.295679 0.110953 0.103893 0.0957346 -0.108205 -0.0351281 -0.0940336 0.190144 0.240579 0.425152 0.118017 -0.168774 -0.169903 -0.275908 0.0207441 0.148025 -0.0487171 0.0173742 0.0713771 -0.19502 -0.13756 -0.207275 0.000868597 0.132272 -0.062627 0.114954 0.142006 -0.165444 0.150643 -0.0262793 0.0639611 0.217872 0.0454585 0.124641 -0.152604 0.13496 -0.166887 0.142982 0.113721 0.0107821 -0.128841 -0.0408264 0.109615 0.0352541 0.157999 0.00942206 0.0652231 -0.154555 -0.100142 0.00535887 0.188896 0.129672 -0.190423 -0.116778 0.0204857 -0.147165 -0.0420497 0.0914646 -0.0754089 -0.0267064 0.0475845 0.00298467 -0.205544 -0.0587428 0.0654869 0.027216 -0.198283 -0.00447706 -0.171623 -0.0619271 -0.158697 -0.114294 0.0314952 0.0241491 0.121012 0.110126 -0.191653 0.0723538 -0.101245 -0.183614 0.0723818 0.163174 0.23408 -0.020352 0.11837 0.104188 0.106657 0.0405591 0.0540353 0.048761 0.179341 -0.0339484 -0.0492602 0.151735 0.0227658 -0.110828 0.11355 -0.103127 -0.115941 0.0481917 -0.120926 -0.0448177 0.400223 -0.456742 0.0378877 -0.00174605 -0.0758287 0.240202 0.0457867 0.171619 -0.0198391 -0.0241839 -0.0558146 -0.115865 -0.241621 -0.0997833 -0.000110222 -0.0715318 0.0695622 -0.175235 -0.0309426 -0.102928 0.167132 -0.0805588 -0.167271 -0.0447709 -0.0391019 -0.225418 0.054105 -0.00707946 -0.223863 0.0894211 -0.139671 0.0485263 -0.0579943 -0.00723352 0.0956946 -0.0443095 -0.142041 0.259942 0.0726199 -0.0601805 -0.199458 -0.21831 0.0288465 0.0768999 0.0562507 0.0319766 0.286932 -0.00369721 0.0673359 0.129292 0.165117 0.012183 0.00869357 0.0330225 0.00943096 0.131308 -0.000425723 0.165952 0.045873 0.0210245 0.103461 0.123415 -0.312829 -0.0881446 -0.00537007 0.222441 0.0446118 0.0724858 -0.139223 0.00240213 -0.0311363 -0.121291 -0.0578562 0.0904162 -0.0466866 0.120165 -0.175327 -0.0576319 0.0758776 0.111246 -0.12618 0.227 0.0807659 -0.103664 -0.259542 -0.103295 -0.157406 -0.100345 -0.00244655 0.0541326 -0.242319 0.0852168 -0.0645912 0.0468155 0.20427 -0.128896 -0.0991841 0.191847 0.0200384 -0.160559 0.0432551 0.0894889 0.00359556 -0.110792 0.0523176 0.0141386 0.0254973 -0.0596046 -0.110032 -0.0269067 -0.151774 0.0807114 0.157609 0.0866287 0.0882109 0.161641 -0.175321 -0.143208 0.0497573 0.143178 0.0464922 -0.0527851 -0.178006 0.0510467 -0.0123581 0.0375609 -0.0482993 0.0518668 0.0689648 0.0240841 -0.0723413 -0.245674 -0.0538321 0.196744 -0.115854 0.0579692 0.0524879 -0.0952697 -0.0393529 -0.00933928 -0.0559237 0.107709 0.0514133 0.194286 -0.0324026 0.0115257 0.041644 0.114136 0.0198175 0.0273562 -0.0863987 -0.0250748 -0.0274914 0.248531 -0.115569 -0.0760083 0.262367 0.176427 -0.0643959 0.183779 0.187177 -0.0269378 -0.0997048 -0.205223 0.0642884 0.0562033 0.183614 -0.0785062 -0.126053 -0.085148 0.0933171 0.0231514 -0.202528 -0.173606 0.210424 0.0537613 0.0780819 0.246789 0.107856 0.000664732 0.0380381 -0.00812745 -0.217687 0.0715719 0.0460094 -0.0508475 0.0768645 -0.0727726 0.0436388 0.110202 -0.00633552 0.0656182 0.2555 -0.0151362 -0.0775922 -0.185047 0.113414 0.0574151 0.0402332 -0.0410657 0.0303568 0.0433614 0.0969153 -0.129537 0.00850678 -0.0475878 0.0779435 -0.0607613 -0.233907 -0.249236 -0.248312 -0.144031 0.0326419 -0.0770276 0.158208 0.220053 0.201484 -0.18137 0.144975 0.0350525 0.00426665 0.183875 0.283181 -0.213991 -0.030696 -0.0526543 0.0590921 -0.0295958 -0.128829 -0.052946 -0.0294306 0.106908 0.0917749 -0.0127781 0.0564503 0.0126853 0.0970273 -0.0686711 -0.14877 -0.0197632 0.170049 0.0176584 0.0207896 0.0458603 -0.0884197 -0.0487607 -0.0904892 -0.278637 0.000353954 -0.016402 -0.0444703 -0.025409 0.254733 -0.185087 -0.0121302 0.194445 0.0486439 -0.100334 -0.0628739 -0.187791 0.0471428 -0.0370897 -0.299455 0.0501365 0.0706051 0.012847 -0.00305182 0.0258523 -0.0522093 -0.0249515 0.331648 -0.107733 -0.269273 0.0224853 0.256251 -0.0565888 0.112186 -0.19972 0.138837 -0.168159 -0.0590725 -0.126971 -0.145915 0.119421 -0.0976325 0.162201 -0.190141 0.23842 0.0399846 -0.10806 0.0389585 -0.134363 -0.192005 -0.178762 -0.0541069 -0.0773494 0.00204352 -0.1355 -0.127477 0.0392824 -0.0624384 -0.145048 -0.0785423 -0.245492 -0.0854327 0.183065 -0.204659 0.0181392 0.030478 0.133763 0.0609978 -0.0571169 0.00737922 0.0548117 0.0400346 0.164472 -0.283899 -0.0180934 -0.24043 -0.0517816 
-0.0219385 0.12768 0.0816318 0.0639498 0.231108 0.174163 -0.0374514 0.0242803 0.0832662 0.184177 -0.206487 0.031109 0.106669 0.0199321 0.207927 -0.0675134 -0.243589 -0.275676 -0.0804645 -0.0958648 -0.0894292 0.222912 -0.297563 -0.0297245 -0.142847 0.114598 0.0477918 0.157811 -0.0320815 0.152067 -0.0140675 0.0098433 0.182795 -0.105145 0.027363 -0.0891209 -0.106605 -0.194588 0.120093 0.0490725 0.123175 -0.0310155 0.0222077 0.130829 0.0103381 -0.0722548 -0.0957893 -0.238373 -0.0693654 -0.114663 0.189733 0.102393 0.181534 0.0800439 0.0541515 0.0279473 0.0205457 0.0921005 -0.136294 0.133071 0.00200732 0.0931321 -0.101602 0.0120381 -0.0633015 -0.157138 -0.0537161 -0.154702 -0.0752084 -0.0289642 0.0485439 -0.151914 -0.133758 0.0932968 -0.119595 -0.127192 -0.0941356 -0.158112 0.0101214 -0.0411767 0.0867209 0.00366524 0.104891 0.150153 0.0129626 0.202316 0.105134 0.0764821 -0.0564428 0.0268412 0.0345025 0.0929712 -0.13487 0.106228 -0.0471517 0.197807 -0.0686814 0.0272362 -0.0503516 0.27224 -0.127242 0.12121 -0.0923656 -0.163799 0.00183431 0.0629576 -0.0907294 0.0313261 0.0514976 -0.0167838 0.144306 -0.0611145 -0.0417026 -0.0776524 -0.0871082 -0.00940527 -0.157417 0.134584 0.0624527 0.0932179 0.0898671 -0.0257928 0.0127269 0.00370623 -0.124191 0.0606408 0.120551 0.119811 0.149398 -0.10612 0.128754 0.0379371 0.0694131 0.14013 -0.112673 -0.0939975 0.00971629 -0.145684 0.0686587 -0.0980434 0.0892595 0.137056 -0.125015 -0.032329 0.071661 -0.0521649 -0.182542 0.0930447 -0.0336488 0.130775 0.0142244 -0.137363 0.202098 -0.0262255 0.058449 -0.0789683 0.269782 0.0439657 0.0768405 -0.155462 -0.0443465 0.0529439 0.0572191 0.175618 0.167751 0.0895407 -0.22512 0.140128 -0.188391 0.0317888 -0.0177955 0.0865505 0.19182 0.0523778 -0.0278406 -0.0393123 0.0992102 0.0198583 -0.049651 0.0884775 -0.101255 -0.0864104 -0.121209 0.102308 0.209522 0.0596804 -0.118414 0.172018 -0.0933256 -0.154108 -0.0343672 -0.0604549 -0.162823 0.0281398 -0.103691 -0.0415126 -0.0391761 0.133932 0.083757 -0.0161543 0.0497901 0.2863 -0.0566317 0.00963995 -0.151995 0.153993 0.0443596 -0.238611 -0.260295 0.0606805 -0.0307604 -0.00341708 -0.0332515 -0.138777 -0.151275 -0.0512923 -0.265022 0.0237056 -0.190734 -0.0337643 0.369854 0.153499 -0.333481 -0.0979435 0.0885665 0.107402 -0.0408785 -0.0234929 -0.0739387 -0.0675185 -0.0254142 0.13258 -0.074243 0.160255 -0.076511 0.058037 -0.136122 0.214869 0.344625 0.106619 0.0505196 0.0116422 -0.150318 -0.205263 -0.261954 -0.0969422 0.019263 -0.0161075 0.073409 0.0929296 0.0103405 -0.130148 0.0399661 0.0820001 0.0545612 0.0790817 0.0304931 -0.0857172 -0.196612 0.029825 -0.118484 -0.221667 -0.2122 -0.169799 -0.125188 -0.183865 0.0301608 -0.135135 0.0838575 0.00813053 -0.346833 -0.171813 0.00348648 0.0114042 0.0513691 -0.137264 -0.268308 0.0655568 -0.325238 0.0297754 0.151343 -0.133802 0.0629996 0.0920412 0.041654 0.110213 0.320155 -0.0379156 0.0588874 -0.0110966 -0.0211889 0.0554933 -0.0415623 0.0796508 0.0830324 0.101478 -0.069762 0.0299654 -0.161859 0.0960672 0.0929173 -0.120263 0.0218792 0.0570747 0.253611 -0.123822 0.154279 0.43714 -0.0174041 -0.0705517 0.104498 0.125988 0.0783363 -0.155515 -0.0147377 0.0810794 -0.00749914 -0.0454771 -0.0460974 0.0935924 0.192184 0.126722 -0.151444 -0.0307033 -0.0518836 -0.00104126 0.090142 -0.0984882 -0.00172039 0.119523 0.0175837 0.106728 0.090106 0.109478 -0.15295 -0.115341 0.13715 -0.186007 0.0847347 -0.245794 0.246776 0.0860986 0.118736 -0.0714425 0.0263679 0.153997 0.155754 -0.0311836 0.0831671 0.0994867 0.213006 -0.136328 -0.39153 -0.00154147 -0.0823196 -0.11274 -0.185589 -0.0911847 0.0941884 -0.0149146 -0.025251 0.193531 0.0435704 0.238102 -0.194426 -0.110985 0.105437 -0.0540853 0.241594 -0.0341521 0.230557 0.127179 0.193545 -0.0965381 0.218177 0.00710167 0.238785 -0.0843852 -0.0128902 0.0146981 -0.0202413 0.226342 -0.217801 0.0406959 0.0573897 0.177259 0.113322 0.0276003 -0.0491703 0.270811 0.0296082 -0.0919198 0.0241242 0.163518 -0.068672 -0.0647756 0.0262451 -0.0786019 0.114564 -0.00142613 0.111517 -0.148451 0.0824237 0.118277 0.144118 0.036282 -0.0204422 -0.195014 -0.0147114 -0.00995175 -0.0348354 -0.22668 0.0388385 -0.134951 -0.174065 0.1304 -0.0344102 0.132079 0.127898 -0.148363 0.166471 -0.115578 -0.164637 0.256394 -0.00579165 0.00712604 -0.053315 -0.0247854 0.220364 0.127371 0.0273786 0.0838557 -0.0864809 -0.188046 -0.0956931 0.201963 -0.189701 -0.160847 -0.0641404 -0.118679 -0.0163713 0.202707 0.095602 -0.0623192 0.207343 -0.111071 -0.126907 0.155064 -0.0118789 0.0276167 0.124395 -0.0583561 0.094502 0.0472599 -0.0935157 -0.0932232 -0.166612 -0.176288 -0.163195 -0.0802486 -0.19395 -0.0532359 0.145215 0.0523456 0.116852 -0.00652592 0.0555726 -0.211789 0.0167884 -0.0550361 -0.115286 -0.010518 -0.213207 0.0908843 0.0398538 0.0128237 -0.0182708 -0.0604481 0.142973 0.161906 -0.0689762 0.0431233 0.0336418 0.229871 -0.0591642 -0.116149 0.1291 -0.0684181 -0.118403 0.0337023 -0.170338 -0.231214 -0.129478 0.150911 -0.117879 -0.0445624 -0.273053 -0.0954002 0.182777 -0.0698283 -0.121587 -0.0495928 0.100248 0.190094 -0.0332159 0.263449 0.0824559 0.0744852 0.0579365 0.113765 -0.0120714 0.0011835 
-0.100341 0.0515514 0.189847 0.00321243 0.150671 0.1611 -0.0171695 0.0883219 -0.106785 0.00168946 -0.189447 0.116476 0.0428299 -0.144689 0.14242 0.0505196 0.0765803 -0.161861 -0.0352761 0.115929 0.198935 0.107488 0.123201 -0.142502 -0.0836672 -0.254996 -0.220306 0.0538492 -0.174115 -0.0918394 -0.00745822 -0.084645 0.105721 0.0944313 0.0724134 -0.0451526 -0.00916971 0.07014 0.317868 0.036013 -0.0395996 0.0939643 0.103864 0.0515595 0.0928676 0.136845 -0.116176 0.224989 0.0701942 -0.00310477 0.101086 0.127115 -0.133712 0.112718 -0.0664671 0.0118476 -0.0220578 -0.113155 0.0183765 0.281752 0.0865362 0.139252 0.0276884 0.166649 -0.370208 0.034395 -0.129596 -0.0657515 0.126465 0.0452864 -0.0531745 -0.1003 -0.227123 0.0237278 0.0395192 0.103446 -0.075157 -0.0562563 0.197013 0.179598 0.0642072 -0.0256229 0.10028 -0.138443 -0.16542 -0.0270837 0.11198 0.133842 -0.0621527 -0.0600273 0.194416 -0.107594 -0.190974 -0.0890718 0.11974 0.173852 -0.102639 0.0569651 -0.115872 0.110834 0.133472 0.0127713 -0.0297944 -0.0195408 0.302491 0.18225 0.0648026 0.0954416 -0.0409657 0.0378748 0.0732328 0.160666 0.267375 -0.104031 -0.209394 -0.0488714 0.00418601 0.421438 0.131023 0.350004 0.00444481 0.0643423 0.265322 -0.150191 0.0753495 0.127375 0.0631469 0.139658 0.106797 0.265153 0.0110683 -0.148384 -0.0341036 0.00605297 0.0278427 -0.18369 -0.0834839 -0.150654 0.13853 0.0627405 0.104049 -0.0548409 0.0674721 0.111178 0.123634 0.217379 -0.0465347 -0.0145106 0.0303188 0.0880899 0.115539 -0.106477 -0.15105 -0.0231657 0.122609 -0.0468936 0.0814341 -0.0339523 -0.198701 -0.0534973 -0.0822509 0.0987407 0.0534109 -0.123033 0.045493 0.0771519 0.0025789 0.113331 -0.105569 0.124593 0.216737 0.0730701 -0.138856 0.0768526 0.221133 -0.0500819 0.207983 -0.13953 -0.0717092 0.147493 0.212886 -0.176232 -0.0254405 0.112689 -0.00670802 -0.0927161 -0.188027 0.0134409 0.0061173 0.127317 0.0769896 -0.275506 0.0579975 0.0888376 0.0784375 0.0522569 -0.0840533 -0.161446 -0.0264933 0.00631857 -0.0456434 0.07111 -0.0361094 -0.242904 0.121855 0.157094 -0.0258564 -0.0223422 -0.104147 -0.13942 -0.139199 -0.150927 -0.093059 -0.00704739 -0.0293037 0.167874 0.15452 0.0298349 0.240781 -0.0628829 0.00239675 -0.196522 -0.10669 0.15031 0.190718 -0.0963613 -0.10122 0.124178 -0.0190434 -0.111982 -0.17294 -0.18042 -0.0871778 0.179542 0.0712464 0.0412258 -0.047436 -0.194181 0.0434602 0.111097 -0.0472365 0.0454763 0.00747916 -0.00314866 -0.150387 -0.0920983 -0.00264233 0.0817279 0.136318 0.185148 0.0229547 0.0709235 0.198642 0.0811316 0.00928835 0.0987732 0.0912645 -0.0394462 -0.00209543 -0.0643035 -0.140088 -0.0427275 -0.315862 -0.256716 -0.092868 0.0505972 -0.0495999 -0.149195 -0.0597102 0.127821 -0.191441 -0.0315041 -0.159714 0.00155501 -0.151962 0.231164 0.276355 0.0393754 0.0337397 -0.146573 -0.154556 0.0297918 -0.13646 -0.116031 -0.10037 0.0557605 -0.17826 0.0388416 0.0313546 0.231745 -0.0258906 -0.109722 0.0360513 0.0223153 0.0717792 -0.0437622 -0.211948 0.0228694 -0.0709053 -0.180137 0.300785 0.0970104 0.0869283 0.0322458 0.0474612 -0.0522574 0.0586275 -0.223727 -0.041564 -0.0152821 -0.145186 -0.319894 -0.00183107 -0.0480289 0.0263048 -0.00171785 -0.278297 0.419198 0.135256 -0.0181385 0.0495045 0.0588118 -0.168162 -0.00900061 -0.149796 0.0744338 -0.0330323 -0.045363 -0.0473083 0.155685 0.0985342 0.0394287 -0.0858564 0.131572 -0.00457651 0.0952804 0.0872801 -0.0274936 -0.0101157 0.113015 0.0848114 -0.0601937 -0.162998 0.135453 0.303646 -0.106197 -0.113342 0.156596 -0.138573 -0.115525 -0.0355464 0.029858 -0.0497802 -0.363719 0.116341 0.0455152 0.0496366 0.0383916 -0.0480525 0.0106445 0.0252046 -0.135862 0.115513 0.155792 -0.0555963 0.116074 -0.0803543 -0.292584 -0.219116 -0.128193 0.144305 -0.0809207 0.0146352 -0.000198788 0.0139159 -0.0609148 -0.121728 0.133865 0.0166163 0.0221342 -0.113606 0.0589196 -0.0696181 0.0497732 0.039326 0.116168 0.241011 0.0486625 0.013327 0.127034 -0.130609 0.0888725 0.0335724 0.219515 -0.0240162 0.320635 -0.0490776 0.0986351 0.0135749 0.170453 0.14908 0.156025 0.107221 0.119026 0.0870896 0.200608 -0.246223 0.11175 -0.0278736 0.00217232 -0.0749319 -0.228927 0.0511168 0.0660302 0.0175378 0.0811403 -0.0957204 0.0324813 -0.0614462 -0.128501 -0.0665175 -0.013462 -0.0821752 0.130245 -0.0324672 -0.0322599 -0.237357 -0.235943 0.0402085 0.259802 0.0589676 -0.078311 0.0268763 -0.143423 -0.0420794 -0.24174 -0.0854003 0.0273967 0.00882361 -0.291944 0.035052 0.0109222 0.0834087 0.00939549 -0.00745148 -0.0794733 0.0727286 0.0300224 -0.175036 0.025678 0.027373 -0.0202937 -0.0256448 -0.0366536 -0.0121224 0.0658799 0.194074 0.190108 0.207475 0.0403181 0.236085 0.0886148 -0.047044 0.103622 0.210794 -0.0129089 0.174001 -0.0795604 -0.136748 0.0143706 0.0211517 0.153464 -0.153856 -0.0412943 -0.00606248 0.0273102 0.0471749 -0.179492 -0.045505 0.0253526 0.0183661 -0.0833661 0.0501267 0.114508 -0.00547968 -0.15138 0.110978 -0.00723927 0.148849 -0.0710423 -0.275371 -0.0724182 -0.0759509 -0.00833001 0.0707381 0.0839054 0.0577544 0.131979 -0.125332 0.196271 -0.0206189 0.138555 0.0465876 0.222868 0.104144 0.119956 0.0138361 -0.1623 -0.00845966 0.0213374 -0.104221 0.0283474 
0.0292822 -0.0631253 0.0249883 0.0838235 0.0409261 0.172721 0.207568 -0.202289 -0.144223 0.0856843 0.0401675 0.0519748 0.0893702 0.0677083 0.133355 0.0835505 -0.0239982 -0.0211229 0.155551 0.226588 0.127284 -0.0491588 -0.111769 -0.0844457 0.0201736 0.0272512 0.0409747 0.0306577 -0.0601162 0.0966528 -0.0162581 -0.153232 -0.0844144 0.0269111 -0.166242 0.0552191 -0.0550925 -0.142141 -0.201542 -0.00948416 0.0129675 -0.138615 -0.0179802 0.0669972 -0.212461 -0.298116 0.155639 -0.210663 -0.0173989 -0.0901101 -0.144606 -0.0340267 0.00523003 0.0405462 -0.0463674 0.153655 -0.0671124 0.0915115 -0.16774 -0.268568 0.122316 0.110836 0.191502 -0.114083 -0.182998 0.0142466 0.0132295 0.00583367 0.134259 -0.0974939 -0.180487 0.0186722 0.164716 0.0997981 -0.21048 -0.0291616 -0.154648 0.0500267 -0.094808 -0.0267349 0.0141031 -0.133007 -0.116637 0.157815 0.00499539 0.010176 0.0555353 -0.0612532 0.0560401 0.153226 0.00494557 0.0350623 -0.0301733 0.0492385 0.289751 -0.0777682 0.0593872 0.000982335 -0.168032 0.0254204 -0.0340217 -0.0732494 -0.339019 0.0421029 0.0534957 0.244698 -0.131629 0.222935 0.00734691 0.243849 0.0811633 0.0423268 0.14623 -0.376557 -0.032814 0.0946518 -0.0813704 0.0510294 -0.0686724 0.0838845 -0.0550063 0.060641 0.197765 -0.214469 0.0934412 0.273345 0.00221095 0.180494 0.0152412 0.130906 0.310022 0.109443 -0.106538 -0.110917 0.21118 0.10248 -0.00373608 -0.00883049 -0.204808 -0.0537389 -0.283222 -0.166086 -0.105117 -0.221067 -0.186517 -0.0631787 0.203403 -0.0331064 -0.137842 0.050351 -0.11672 0.0494699 -0.135125 -0.0818367 -0.0722875 0.0463759 -0.101306 -0.164553 -0.0938325 0.00072886 0.0322052 0.145865 -0.0119605 0.0781534 0.0432799 -0.0106509 0.0329013 -0.118987 -0.172638 0.126772 -0.134976 -0.0387695 0.260717 -0.046625 -0.19648 -0.0632491 -0.0212882 0.189938 -0.0428778 -0.0122381 0.0870797 -0.106928 -0.251218 0.120524 -0.137255 -0.0413478 0.0642447 0.174465 -0.0667432 -0.0332478 -0.22906 -0.0581931 -0.0378261 0.0482938 0.0606357 0.135688 0.135641 0.352906 0.0825614 -0.208435 0.0747163 -0.281037 -0.1506 0.163542 0.030507 0.0660885 0.206042 0.110901 0.0938142 -0.00739632 -0.0773814 0.027754 -0.0423888 -0.135926 0.204279 -0.0652244 0.146865 -0.0893577 -0.135152 -0.0305441 0.03126 0.037049 0.13602 0.101933 -0.176355 -0.105675 0.00403422 0.0104012 0.164736 -0.0614858 0.17815 0.0112686 -0.0652888 0.187245 -0.144971 0.00664324 -0.0209867 -0.0736823 0.192061 0.205912 0.0957315 -0.00557701 -0.1815 -0.0567264 -0.196251 0.0718872 -0.0592111 0.260564 -0.098624 0.189259 -0.0467077 -0.068634 0.0489385 0.120594 0.0188565 -0.0760437 -0.0436012 0.00887197 -0.00319572 -0.0371115 -0.031051 0.156401 -0.169774 0.00837806 0.137898 0.101499 -0.084676 -0.141872 0.0830585 -0.125682 -0.166125 -0.0438023 -0.0111185 0.138905 0.160814 0.182374 0.12103 0.0240226 0.0468248 -0.147073 -0.164281 0.101932 -0.21646 -0.228786 -0.0830311 0.0454803 0.262125 0.0596344 -0.0166803 0.0734381 -0.22491 -0.0125652 -0.0170593 -0.250752 -0.0744955 -0.160624 0.0490546 0.0176753 -0.0325812 -0.0515198 -0.0260721 0.0243413 0.028058 -0.117532 -0.0552964 0.142744 0.139917 -0.180756 0.080832 -0.289502 -0.0907638 0.0168763 -0.120825 -0.00910895 -0.0225108 -0.0777529 -0.00657752 -0.187368 0.0394142 0.0202525 -0.135581 0.0647292 -0.055559 -0.227394 0.0895669 0.247842 -0.00416107 0.108798 0.21162 0.173166 -0.236146 -0.0340422 0.0428954 0.0184564 -0.0300003 -0.160568 0.0223038 0.00897705 0.00119866 -0.0692737 0.0529801 -0.0803861 -0.274295 -0.156507 -0.0332424 -0.0704026 0.0179326 0.175842 0.0424871 0.118047 0.0576485 -0.138644 -0.00266121 0.107578 -0.00508995 -0.0803902 -0.193812 -0.219224 -0.214 0.122018 -0.142592 -0.0345293 -0.0938131 -0.138075 -0.150608 0.0999852 -0.122059 -0.00406222 -0.296682 0.094476 -0.0423397 0.0571971 -0.197693 -0.0519476 0.0257277 0.100215 -0.309108 0.0968471 0.0223592 0.219535 -0.148098 0.156298 -0.210123 0.174025 -0.103354 0.0246375 -0.152244 -0.206268 -0.0714546 0.183377 -0.0300902 -0.0679953 -0.0627489 -0.0895992 0.134377 -0.336054 0.107948 0.0362301 -0.133144 0.129829 -0.316794 0.172922 -0.0408653 -0.152013 0.0539286 0.238051 0.0611072 -0.0205659 -0.0736576 -0.113996 0.00548253 -0.0689306 -0.157074 -0.0527431 0.0934637 0.0229317 -0.065907 0.123902 0.12075 -0.134064 0.15969 -0.0498211 -0.0759003 0.390333 -0.140944 0.0636124 0.0631007 0.167433 -0.00131158 -0.0450778 0.239056 -0.191521 -0.0128152 0.31105 0.0381752 -0.0233258 0.0295654 -0.106206 -0.0858794 -0.0141539 0.0550114 0.162038 0.0770002 -0.0258783 -0.105482 0.157778 0.0760996 0.0982142 -0.0301398 -0.085687 -0.149228 -0.166479 -0.145474 0.0489446 -0.0563069 -0.0732003 -0.153442 -0.0340138 -0.0618728 -0.124068 -0.0723845 0.115545 -0.108975 0.0593377 -0.105306 -0.16334 -0.180593 -0.0327262 0.0340385 0.0703299 0.112207 -0.0453112 0.159223 -0.0677464 -0.0853785 -0.191416 -0.0679904 0.0511217 -0.0679585 0.0019397 0.0792229 0.104293 0.0305172 0.150508 -0.0537014 -0.22036 -0.299128 -0.254599 0.0441375 -0.106753 -0.0896035 -0.217085 -0.0443961 0.0287583 0.0640193 -0.0159363 0.0204187 0.170444 0.112214 0.153805 -0.0179561 0.121061 0.028594 0.174076 -0.0113943 -0.108202 0.00236784 0.143733 -0.258851 0.170729 -0.0423433 0.0780296 
-0.0202208 -0.226256 0.0738534 -0.0837166 0.1653 -0.00471409 0.113757 -0.0237037 -0.0758304 -0.0191445 -0.0206291 0.0503182 0.106629 -0.00869603 0.0255773 0.122104 -0.201301 0.00416234 -0.116648 0.131623 0.134622 0.168114 -0.0305299 -0.225504 -0.130604 0.200605 0.172305 0.103945 -0.187845 -0.0405905 -0.121772 -0.124613 -0.0554307 -0.0212636 0.0951865 -0.067051 0.0269229 0.012467 -0.116922 0.0882204 0.00322968 -0.123436 0.374439 -0.283901 0.159248 -0.0708889 -0.284602 0.0713461 0.0999396 -0.00823388 -0.0221378 0.121077 0.0700313 -0.254871 0.00215674 -0.0365091 0.133155 -0.0484377 0.0215244 -0.0655302 -0.152052 -0.0662071 0.106233 0.0800335 0.0565543 -0.125067 0.0701822 0.185795 0.0037218 0.0993213 -0.149735 -0.110047 0.0148297 -0.0483963 0.240337 -0.0037408 0.147799 -0.0669548 -0.157096 0.191484 -0.0859362 0.0718827 0.0653385 -0.13338 0.175971 -0.224348 0.0216632 -0.0733047 -0.136353 -0.0130302 0.0911013 -0.384757 0.158453 -0.031402 0.161429 -0.175878 -0.173991 0.260735 -0.0664993 -0.0146809 -0.0862145 0.0380945 0.142355 -0.0963141 -0.137163 0.0551468 -0.0284373 -0.0932187 -0.182714 0.0907667 -0.139189 0.134308 -0.0404523 -0.0105282 0.0683926 -0.0352885 -0.169757 -0.237416 0.0422178 0.0527947 0.136133 0.157203 0.111371 -0.108631 -0.0554481 -0.190368 0.0311988 0.0643603 -0.0652495 0.119236 -0.148563 0.178211 -0.0134681 -0.0675865 -0.125587 0.0397499 0.272451 0.103448 0.155309 -0.162506 -0.169504 0.024055 0.083491 -0.141134 -0.0572394 -0.188848 0.129013 -0.0217939 -0.42445 -0.0178711 -0.140453 0.333475 0.00691469 0.184994 0.0532591 0.0623086 0.0406896 -0.166803 -0.0173371 -0.00399425 0.0594531 0.0808711 0.0205548 -0.0831201 -0.05596 -0.146538 0.152449 -0.0201066 0.00462173 -0.000836604 0.0783478 0.0633931 -0.0641975 -0.0873876 -0.0217247 -0.0225169 0.0500193 -0.0115126 -0.0735606 -0.0161375 -0.17483 -0.0453984 0.0158202 0.00906709 -0.0476179 -0.299149 0.135392 -0.00259874 -0.0364902 0.106699 0.160041 -0.0275173 0.0328921 -0.157848 -0.0359196 0.0386544 0.105563 -0.204463 0.0660866 0.177342 0.159037 0.143614 -0.108744 0.0335168 -0.120642 -0.170662 0.0279021 -0.0987447 -0.141671 -0.187264 -0.0371261 0.0931862 0.137027 0.0237781 0.0249456 -0.313227 -0.0256883 -0.11152 0.143441 -0.0514322 -0.0213912 -0.149478 0.0882863 0.0289686 -0.0516725 0.228916 -0.138382 0.0517988 -0.00624049 -0.138641 0.0376028 0.0196139 -0.00670582 0.0940053 0.200135 0.0709311 0.116717 -0.115457 -0.21228 0.0493095 0.252039 0.00533975 0.0487447 0.160095 -0.07872 0.021611 -0.178725 0.020779 0.0984851 -0.115714 0.0033783 -0.0611837 0.014675 -0.0707016 -0.155435 0.17927 0.0652691 0.015565 -0.215725 0.126791 0.115607 -0.0145407 0.311049 -0.124979 0.0637321 0.135998 0.0219031 -0.0835564 0.217359 0.136087 -0.0311997 -0.19574 -0.00703273 0.0855899 -0.0552441 0.0239177 -0.0989285 -0.00133153 0.0664342 0.184804 -0.0121458 0.243396 -0.106848 -0.127619 0.113682 -0.0762189 0.0406364 -0.185691 0.0660134 0.173831 0.198848 0.0599023 0.0616527 0.00266687 0.0807661 0.153843 0.0353917 0.122738 0.0129883 0.0238529 0.0756726 -0.0557686 -0.0236304 0.152956 -0.0790657 -0.243879 0.174786 0.107396 -0.0519707 -0.0466142 0.142735 0.202342 -0.0872411 -0.146371 0.115689 -0.00955406 -0.0140093 -0.157679 0.193956 -0.0439148 0.0264273 -0.0329123 -0.0154818 -0.151539 -0.00652008 0.0750643 0.121029 -0.151036 -0.0831754 -0.0986188 0.00789902 -0.0353758 -0.0751514 -0.0529299 -0.100571 -0.0430677 -0.0689321 0.157858 0.062566 0.0614125 0.0720505 -0.300878 0.0652653 -0.30037 -0.122869 -0.150847 0.0102151 -0.0739119 -0.0876852 -0.00108662 0.169483 0.0216476 -0.121464 -0.0402764 0.118364 -0.108777 0.0741078 -0.0383278 0.13321 0.294976 -0.249329 -0.119168 0.157092 0.17826 -0.086378 -0.0742892 -0.0256725 -0.269689 0.00908927 0.00226263 -0.0798917 0.00427114 -0.254326 0.121606 -0.255565 -0.0453735 -0.143124 0.234808 -0.00345703 0.0654582 0.0680142 0.137407 -0.170133 -0.187282 -0.132513 0.185712 0.146268 -0.155023 0.0829865 0.0460534 0.113699 -0.0167521 0.0683089 0.0392516 0.0183312 0.0434032 -0.0373423 0.0507754 0.0394459 -0.0979443 -0.171333 0.142393 -0.166508 -0.145136 0.033846 -0.0827593 0.0497849 0.171091 0.045732 0.0609795 0.0454518 0.0232132 0.0642888 0.00890684 -0.0687251 -0.00431827 0.145416 0.156985 -0.0718409 0.128037 0.0982842 0.0958591 -0.0413123 0.0163873 0.0181443 -0.0824931 0.0428485 -0.121866 0.150092 0.092516 0.0073921 -0.152463 0.0978396 -0.143799 -0.049614 0.0617492 0.17891 0.142292 -0.10505 0.0634464 0.0253519 -0.10136 -0.0925458 -0.0396714 0.117872 0.00401672 -0.12728 -0.080787 0.147673 -0.0644186 -0.3344 0.186218 -0.0999401 -0.177298 -0.128246 -0.162897 0.0638703 -0.0202775 0.180319 0.121968 -0.0719661 -0.0982044 -0.169929 -0.114633 -0.0802831 -0.057733 -0.167054 0.30785 0.175039 0.14692 0.0120652 -0.175144 -0.126417 0.00455452 0.0652854 0.022307 -0.0507306 -0.0444759 -0.149834 -0.266055 -0.108426 -0.0140194 0.0813318 0.0295303 -0.0116714 0.136709 0.0758763 0.0476158 -0.277003 0.0189574 -0.11275 -0.153821 0.161925 0.0951821 0.0656829 0.225547 -0.0329943 0.0590732 -0.0294191 -0.0884383 0.062544 0.138907 -0.0443947 -0.144963 -0.128092 0.0676803 -0.00924872 0.0702234 0.0833841 -0.208959 0.020063 0.134547 
0.100288 -0.191864 0.080432 -0.0950565 -0.0482635 -0.0493579 -0.0921061 0.113498 -0.0780207 0.051535 -0.060409 0.0840502 -0.0586485 -0.0652306 0.0961889 0.1065 -0.19697 -0.0217187 -0.37225 -0.28671 0.145357 0.197735 -0.00900943 -0.136382 0.0660854 0.0860314 0.0737111 -0.0828252 -0.20013 -0.0805775 -0.111809 -0.077056 -0.0215998 0.056577 -0.104085 -0.0327892 0.0257994 0.243757 0.00899855 -0.00256863 0.00728869 -0.0114354 0.0229806 -0.0611638 0.0300486 -0.187956 0.0695921 0.250102 0.190569 0.119245 0.0297914 0.0739647 0.14207 -0.148882 0.148163 0.00647873 -0.107874 0.0985785 -0.143789 0.076138 0.0953989 -0.139263 -0.137726 -0.128699 -0.0515897 -0.220944 0.0200198 -0.0779773 -0.0296945 -0.00872698 -0.0477213 -0.150685 -0.0438353 -0.0886326 0.0687948 0.10992 0.175506 0.154583 -0.200304 -0.136709 -0.0165748 -0.0681536 0.20092 -0.183207 0.105895 -0.0410883 -0.0594768 0.131105 -0.0765565 -0.00179805 0.10977 0.236906 -0.0148296 -0.0949527 -0.0177293 0.0466033 0.171325 0.0959702 0.0693525 -0.0258372 0.0286341 -0.0130365 0.125453 -0.24394 0.0932242 0.059884 -0.0646225 -0.0024586 -0.177801 0.150515 0.124426 -0.0930543 0.0388152 -0.0761941 0.00940594 -0.105152 0.185781 0.0967827 -0.190378 0.106366 0.142559 -0.305811 0.0303621 -0.0198254 -0.0872376 0.0772265 -0.0046868 0.0804927 0.0569591 0.187448 -0.138768 0.0918303 0.130966 -0.287132 -0.0460213 -0.0261752 0.0679121 0.110678 0.041237 -0.0814974 -0.0746156 0.0497004 -0.0801902 -0.0757407 -0.12427 0.275871 0.241092 -0.0896509 -0.0889123 0.0954289 -0.0782653 0.0215364 -0.276649 -0.191339 0.240593 0.109035 0.0775586 -0.0529082 -0.104167 0.0913225 -0.141242 -0.163947 0.0859579 0.0304587 -0.0166938 0.0177825 -0.0931151 0.129741 0.206456 -0.0486998 0.129946 -0.0492758 0.18972 0.245809 -0.131685 -0.00560329 0.111579 -0.0485709 -0.0158345 0.00722187 0.0662796 0.0925915 0.0424253 -0.0507704 -0.134087 -0.218642 0.0569778 -0.0300074 0.0840935 0.195242 0.0552949 -0.0196294 0.0191465 -0.0642886 0.255315 -0.13452 -0.0686555 0.0785114 0.0330899 -0.0314174 -0.202867 0.154294 -0.269238 -0.0792201 -0.228348 -0.139504 0.22573 0.182763 -0.0277371 0.0593838 -0.190648 0.0110663 0.066669 0.0658008 -0.252378 0.116595 -0.0808919 -0.122213 0.161983 0.0593947 -0.161757 0.000697906 -0.0132904 0.112018 -0.180478 -0.221921 0.000486058 -0.0340149 0.0213727 -0.11685 0.128853 -0.139233 -0.0392604 0.0754382 -0.0285413 0.185537 0.0402334 0.0870133 -0.164206 -0.146192 0.0467078 0.0346429 -0.137974 -0.0582965 0.00773935 0.103706 -0.128989 -0.0106999 0.0664264 0.0772897 0.0185364 -0.156104 0.144092 0.105171 -0.166457 0.00862693 -0.0255797 0.298427 0.133658 0.154499 -0.0144696 -0.0204676 0.0268486 0.111708 0.028223 0.224132 0.218844 -0.0979365 -0.0628677 0.0872104 -0.0689785 0.131341 0.136507 -0.0798332 -0.0254439 -0.0543758 0.165281 -0.082611 -0.0230887 0.143233 -0.0787203 -0.0651724 -0.158298 -0.078954 -0.101677 0.258738 0.0778584 0.197892 0.0433252 0.0687654 -0.217271 0.119607 0.274154 -0.055596 -0.141177 -0.152214 0.067621 -0.0244181 -0.221495 0.16426 0.0350035 -0.0240549 -0.211176 -0.00138598 0.112434 -0.0772526 0.0515769 -0.122881 0.135893 0.0307236 0.15674 -0.14781 0.0467631 0.0327991 0.16035 0.201836 0.097495 0.103844 0.135618 0.0178152 -0.0326947 0.0331855 -0.00581016 -0.0771987 -0.096801 0.0580102 -0.0674275 -0.00797971 0.0251592 -0.12103 -0.163555 0.220576 -0.159194 0.10182 -0.0484096 0.130746 -0.00495446 0.0445505 0.0242179 0.0660744 -0.328485 0.0355729 0.0732734 0.111959 0.116765 0.108111 0.0735358 0.237793 0.0225679 0.0354338 -0.123598 0.0955539 -0.00894018 -0.00861087 -0.152298 -0.153943 0.0106715 0.116551 0.0616774 -0.14722 -0.0774989 0.238972 -0.233961 0.0786784 0.0701008 0.0839079 -0.242228 -0.00532734 -0.0981978 -0.0324983 0.0299753 0.0828616 0.166545 -0.0462504 0.0255459 -0.176582 -0.109754 -0.215552 0.0631608 0.0346051 -0.047163 -0.1142 0.0231349 -0.0268406 -0.0349604 -0.0639164 -0.0439784 0.145033 -0.148533 0.0133102 0.0755435 -0.0332809 0.038369 0.0368329 0.0565057 0.117164 -0.0586617 0.0949512 0.1319 -0.0262684 -0.241761 -0.0129277 0.195917 -0.0264112 0.0177269 0.0915854 -0.101969 0.195929 -0.0429495 -0.120556 -0.0538515 -0.258651 -0.136656 -0.0287164 0.0331885 0.0622372 0.136212 0.142472 -0.0324266 0.128406 0.195502 -0.0330416 0.0428951 -0.225933 -0.10233 -0.0639318 -0.116098 -0.124733 0.0602971 0.09094 0.137963 0.0253759 -0.00144741 0.0318132 -0.00820251 -0.00755573 -0.096635 0.0721834 0.0322643 -0.00314404 0.0730665 -0.0352592 0.0706224 0.0222805 0.0919909 -0.150686 0.00465876 -0.0488832 -0.0916378 -0.086377 0.168005 0.104092 -0.113235 -0.0189908 0.0557693 0.152401 0.0865506 0.150763 -0.0366586 0.106544 -0.198297 -0.315481 0.0186663 0.0487335 -0.0942262 0.0891175 -0.235782 0.16588 -0.0853915 -0.107415 0.0518283 -0.124915 0.360967 0.0310954 0.127462 0.369759 -0.0384964 -0.0977857 -0.0747452 0.149579 -0.202473 -0.191172 0.278315 -0.00395251 -0.0214545 -0.142631 -0.0462167 0.140177 0.00872067 -0.128751 0.269241 -0.264611 0.0868917 -0.0240768 0.203142 -0.0272384 0.0317436 -0.0624557 0.185537 0.0546741 -0.000390943 -0.14814 0.0315217 -0.0265667 0.0824368 -0.0409399 0.0760284 0.000423458 -0.035184 0.0215385 -0.317964 0.132959 
-0.0224704 0.0378763 0.109034 0.221053 0.0309374 -0.143363 0.10045 -0.0797787 0.268516 -0.091443 -0.0365116 0.267681 -0.0199515 -0.0479611 0.0538015 0.135823 -0.0545358 0.015882 -0.0823749 -0.0925342 0.0777377 0.120509 -0.0211899 0.0564086 0.00867352 0.189343 -0.114785 0.144318 -0.0283177 0.0341872 0.146028 -0.0369889 -0.16242 -0.00447789 -0.125343 0.0707615 0.0150726 0.0712279 0.0846761 -0.00400018 -0.26556 -0.157001 -0.067222 0.0474512 -0.154735 0.116207 -0.0661041 0.0499835 0.243913 -0.0372957 0.00166891 -0.083978 -0.167154 -0.193252 -0.215059 -0.145645 0.179121 0.150342 -0.142885 0.181926 0.147665 0.0658371 -0.0330976 0.26137 -0.267592 -0.146724 0.167533 -0.14451 -0.123485 -0.042207 -0.337801 0.0196439 -0.213504 0.0843966 -0.0671107 -0.0172463 -0.0848133 -0.0480041 0.0448765 -0.271315 -0.0206491 0.0699079 0.110924 0.212553 0.0829864 -0.248197 0.238138 0.0414024 -0.0776537 -0.0839046 0.226497 0.0820999 0.101759 0.0795024 0.216331 0.0679986 0.0411505 0.00445345 -0.286252 0.0951063 -0.135363 0.0805264 -0.151363 0.130469 -0.12762 -0.035656 -0.0794516 0.00308491 -0.0611454 0.192504 -0.132117 -0.109422 0.0325998 0.000541909 0.0137099 -0.0523618 -0.149517 0.0890006 -0.0197525 0.0630773 0.135375 0.160977 -0.0412132 -0.148387 -0.031072 0.0560007 0.154746 0.0572664 0.0816192 -0.170312 0.0799171 0.0546488 -0.161013 0.0272927 -0.0795143 0.0869853 0.157827 -0.0954336 0.121675 -0.0491425 -0.0101005 -0.160472 -0.0229336 -0.0106283 0.222336 -0.0148788 0.0356273 0.056569 0.32425 -0.0186264 0.156478 -0.0933188 -0.018945 -0.0553288 -0.0636283 -0.0361159 -0.0603889 -0.0473803 0.0539389 -0.14986 0.0128667 -0.142594 0.0481725 0.173944 0.0486003 0.0461886 0.349423 0.122193 -0.0916823 0.00281349 0.238052 0.0906805 -0.0168041 -0.0556739 0.165358 0.0707456 -0.129436 0.217459 -0.199111 0.0355563 -0.0611405 0.00829188 -0.0840676 -0.239191 0.0517717 0.0836168 -0.17544 0.207866 -0.0133552 -0.00506477 0.0093114 -0.0746886 -0.0872236 0.106529 0.0420566 0.00736534 -0.152946 -0.146034 -0.142596 0.048605 -0.00369633 0.159816 -0.0631027 -0.0689661 -0.149934 0.141387 0.070745 0.161718 0.131483 -0.132484 -0.0693498 -0.113227 -0.228441 0.160905 -0.0860741 0.11253 0.0115701 0.154659 -0.130784 -0.119173 -0.0553625 0.137278 -0.0993948 -0.114008 0.0744573 -0.0990554 0.172327 -0.134605 -0.142676 0.0769886 0.126637 -0.228145 -0.0586946 -0.107069 -0.118424 0.0546424 0.0029854 -0.231223 0.113824 -0.146203 0.136656 -0.0387819 0.128861 -0.118833 -0.201115 0.239696 0.127356 0.269576 0.117928 -0.051047 0.118594 0.086684 0.0474321 0.204422 0.0209394 0.21722 0.184852 -0.0475072 0.308004 -0.204679 -0.0580751 -0.261734 -0.131166 0.0455852 -0.22006 -0.175765 0.152432 -0.108594 -0.154745 -0.0151457 -0.123151 0.179534 0.0869083 0.114301 0.0111619 0.16059 0.230775 -0.0969251 0.160049 0.0408487 -0.246651 -0.131663 0.15678 -0.126511 -0.144212 0.101227 0.134377 0.0936489 0.00567095 -0.220873 0.21793 0.217794 -0.235303 -0.0501909 -0.101986 -0.122337 -0.035844 -0.236454 0.072756 0.192378 0.137247 0.1463 0.0884511 -0.0602268 0.0387649 -0.0660805 0.198273 -0.127483 -0.16587 0.0822173 0.221109 -0.101868 -0.0898032 0.150692 -0.0230432 -0.0554088 0.0254978 0.138914 -0.0382661 -0.0675184 -0.172159 -0.00849208 -0.1656 0.15492 0.207946 0.255036 -0.135842 0.150938 -0.143696 -0.119188 0.0100901 0.0164788 -0.162982 -0.0587062 -0.0162703 0.143478 0.202011 -0.121133 0.0749387 -0.0726406 0.0448401 -0.0272035 -0.0592167 -0.0691031 0.0617396 -0.0152206 0.0245384 0.0103584 -0.0337529 0.272403 -0.257928 -0.0922389 -0.104635 0.0150686 -0.0109073 -0.273059 0.00565957 0.209516 0.0155335 -0.00631452 0.0898453 -0.343433 0.101783 -0.0529903 -0.0848027 0.139647 -0.200667 -0.123505 -0.0565 0.0632468 -0.0859859 0.0457409 -0.104714 -0.0183626 0.0732687 -0.132881 0.184786 0.157247 0.190156 0.0969173 -0.0296072 0.0838523 -0.0416649 -0.141644 0.20163 -0.00120789 0.105807 -0.0890914 0.000674842 -0.00045647 0.0690759 0.0348786 -0.0418508 -0.0504796 -0.0431971 -0.0723626 -0.109179 0.0569584 0.0607654 -0.03303 -0.0384799 0.108718 -0.112829 0.0160032 0.0713558 -0.158509 -0.110812 0.0984789 0.0221824 0.0230913 -0.0321383 0.118343 0.0586008 -0.0907663 -0.0081192 0.00591259 -0.0294785 0.112392 0.0672063 -0.0172303 -0.170616 -0.150713 0.102679 0.13133 0.253292 -0.05851 -0.249911 -0.0180978 0.0177831 0.117853 0.0953998 0.139863 0.038908 -0.0222426 -0.0828625 0.0579368 -0.203673 -0.197597 0.19756 -0.0385236 0.175183 -0.0472539 -0.00154278 -0.0715711 0.0678304 0.1692 -0.0256045 -0.134884 -0.159622 0.102934 -0.119991 0.214005 0.179585 -0.0146889 -0.107781 0.0319657 -0.0508738 0.0237712 -0.0718366 -0.135636 0.188513 0.301051 -0.302983 -0.0206775 0.535363 -0.0285425 0.0798259 0.155536 -0.0361085 0.102701 0.0996872 -0.230486 0.173088 -0.0377401 -0.0448274 0.0832419 -0.0124335 -0.129897 -0.160851 -0.128373 0.0683509 -0.0446523 -0.0865501 -0.235102 -0.100909 -0.133095 -0.107154 -0.11224 0.041014 -0.120986 -0.10586 -0.0464528 0.144876 0.0384332 -0.179469 0.049787 0.099867 -0.162759 0.174397 -0.262777 0.035074 -0.14842 -0.225894 0.167373 0.134785 0.0681696 -0.238184 0.0685165 -0.181247 -0.0749802 0.0528555 -0.124139 
-0.118926 -0.174537 0.0202664 -0.131265 -0.0892324 -0.0806355 -0.0370013 -0.0579761 -0.22765 -0.0411741 -0.00619399 0.266117 -0.250297 -0.0986454 0.154003 0.057616 -0.00929349 -0.0285749 -0.176291 0.0631495 -0.0524651 0.0141622 0.0175686 -0.0940913 0.161723 0.0669308 0.0729327 -0.0612341 -0.251082 0.12977 -0.0754851 0.0545647 0.0641388 0.0149445 0.0271368 -0.0412238 -0.0136445 0.129444 0.0920635 -0.503273 0.196325 -0.19794 -0.205902 0.0284402 -0.0757219 0.143864 0.00545079 -0.29475 0.0662957 -0.0694875 0.00808305 0.00854469 0.150539 -0.190802 -0.136767 0.359629 0.230334 -0.067411 -0.0110445 0.0906498 0.0214721 -0.115678 -0.0472002 -0.116886 0.00955449 -0.118483 0.241935 -0.354926 -0.201222 -0.0769493 0.0878185 -0.01032 -0.0488713 -0.0176887 -0.0964829 0.102 -0.0595235 -0.0330516 -0.105064 0.194885 0.045173 -0.195013 -0.0299406 0.0283865 -0.00358516 -0.211956 0.121596 0.0189326 0.0250736 0.114648 0.258298 0.00940774 0.0829568 -0.11244 -0.307463 -0.044109 -0.139987 -0.0767413 -0.225581 0.0618397 0.0153478 -0.324055 -0.0587185 0.0876482 -0.0317121 0.128144 -0.109395 -0.00573304 -0.159041 -0.00653486 -0.0013051 0.0179713 0.0867127 -0.00356833 0.0882658 0.308283 0.153682 0.0857982 -0.0259295 -0.111228 -0.0352307 0.240003 0.0954942 0.1005 -0.0962113 0.120866 0.0970341 -0.0205169 0.172186 0.0884527 -0.0127176 -0.00471739 -0.0796775 0.0666444 -0.0220876 -0.000261105 -0.0149405 -0.103725 -0.00201832 0.0243864 0.0804197 0.235506 -0.0120087 -0.0415754 0.182005 0.195103 0.0432807 0.0679609 -0.00733695 0.170403 -0.0275243 -0.0536375 0.174173 0.122902 0.187955 0.0987235 -0.0339225 0.0764051 0.00264718 -0.138768 -0.00029057 -0.00364525 0.160987 -0.048974 0.118951 -0.133888 -0.222028 -0.0969097 -0.0896819 0.123617 0.144853 -0.146592 0.196464 0.18786 -0.0760099 0.0691045 -0.00527371 -0.194943 0.0634556 -0.0971011 0.138051 -0.10587 0.0992116 -0.0691311 -0.12527 0.00573742 0.116095 0.160105 -0.0277136 0.264396 -0.168906 0.0789354 0.0568812 -0.000705185 0.0977563 0.0297468 -0.0481549 -0.000659952 -0.0321576 -0.0350406 0.0767165 0.341558 0.0883987 0.0649781 0.0956134 0.235064 0.140453 0.0783016 0.0615895 0.0203655 0.039129 -0.0259444 0.108804 -0.0946505 -0.132302 0.152668 -0.0755983 -0.130825 0.0892107 -0.141847 -0.0986589 -0.0025568 -0.164355 0.063242 0.130972 -0.156681 0.0882219 0.119715 0.0381393 -0.056474 -0.101934 -0.37831 -0.113831 0.0379154 -0.0168386 -0.0527197 0.0655314 0.00452777 0.165923 -0.0725541 0.0136945 -0.0955528 -0.00488566 0.155117 0.0226829 -0.0819888 0.206432 0.170059 -0.0532832 -0.0353139 -0.00936901 -0.0752262 0.133509 -0.00467798 0.0918526 0.157994 0.174406 -0.0131508 0.187327 0.0134686 0.0715783 -0.208759 0.062527 -0.173721 -0.0107 -0.288749 -0.0454695 -0.047538 0.0216569 0.146914 0.196781 0.0652817 -0.011279 -0.00214817 -0.0172511 -0.0499751 -0.266377 0.0390342 -0.0996046 0.0808139 -0.138234 0.0928812 -0.155911 0.0928221 -0.0131747 -0.0172519 -0.171529 -0.0969694 -0.0733337 0.2307 0.197563 0.0593095 -0.155497 -0.0470158 0.183612 0.0409951 0.188693 -0.0747702 0.147911 -0.390736 0.205322 0.0272836 0.0648388 0.0338903 -0.208863 -0.0400333 0.0580043 -0.214412 -0.0485181 -0.0279668 -0.174902 0.0117677 -0.153417 0.000306603 0.297634 0.188886 -0.0443407 0.0171695 -0.0274167 -0.178057 0.0633388 -0.0946473 -0.130187 0.0378892 -0.0608543 0.11127 -0.265247 0.047765 -0.114367 -0.0799449 0.124959 -0.0400218 0.0824749 0.0370721 -0.0807172 -0.1119 0.14826 -0.0377235 0.375073 -0.222189 -0.0326059 -0.046814 0.150425 -0.0458565 -0.193369 -0.0814101 -0.256803 0.0690426 0.086392 0.0885158 -0.154959 0.154019 0.0207205 -0.00614216 -0.109197 0.25319 0.0591414 -0.20768 -0.171134 -0.116661 0.0490862 -0.0631074 -0.0442879 -0.0515433 0.0700127 -0.16587 -0.00888067 -0.103751 0.101771 -0.0277628 -0.0612665 -0.0673822 -0.0592827 -0.0975537 -0.0179693 0.00307857 -0.0276315 -0.201766 0.0523927 -0.0741232 0.272044 -0.0071783 0.0760554 0.116 -0.0348504 -0.0770567 -0.137817 0.00952962 0.192297 -0.114068 -0.196282 0.209777 0.157304 0.0234618 0.0302348 -0.166178 -0.119007 0.0561667 0.105624 0.092772 0.166516 -0.11151 -0.225724 0.255682 0.0719268 0.177971 0.00992959 0.102003 -0.0266713 0.133821 -0.0597095 0.194607 0.0315048 0.117087 -0.184422 -0.0935956 0.0238974 0.0232503 -0.24082 0.0642511 0.140777 0.0465371 -0.000202264 -0.0888966 0.0452816 0.0464824 0.0915962 0.162779 0.139299 0.139455 0.033743 0.203839 -0.0530075 -0.00442488 -0.108612 -0.173716 -0.171105 0.028182 -0.0621773 0.30516 0.103449 0.119302 -0.171167 -0.169109 0.0707586 0.129171 0.0282526 0.0535903 0.0627952 -0.0214796 0.170378 -0.174708 -0.0997056 -0.199274 0.0598507 0.0378085 -0.0352863 0.0671758 -0.222961 -0.137298 -0.022916 0.116403 0.0685161 -0.112945 0.15689 -0.159795 -0.251947 -0.180886 0.0566111 0.0320724 -0.0536442 -0.00633445 0.0655231 0.10405 -0.0899978 -0.107839 -0.0164198 -0.0120793 0.0179565 0.172782 -0.0308914 -0.158284 0.147876 -0.172716 -0.0135518 0.101228 -0.0607629 -0.00969629 -0.258881 0.0350598 0.153035 -0.13329 -0.0838881 0.139739 -0.0447009 0.132934 0.0901676 -0.0562276 0.0519641 -0.0456054 -0.134177 0.222401 -0.133555 -0.0452787 0.0843561 0.240303 -0.0899037 -0.131246 0.122897 0.107306 -0.0266344 -0.127773 
-0.122609 0.166627 0.000538968 0.120744 -0.127851 -0.0422687 0.0620062 -0.0669469 -0.0713536 0.0657927 0.0902792 -0.115351 -0.111528 -0.0384988 -0.0239513 -0.00383117 -0.075423 -0.305908 0.250565 -0.154476 -0.12138 -0.140932 -0.0113124 0.0757511 0.286857 -0.11471 -0.118186 -0.00661024 0.130588 -0.0259025 -0.115588 -0.0245092 0.104011 0.119884 0.180081 -0.0111404 -0.0629629 -0.227747 0.0949478 -0.018534 -0.102897 -0.0344849 0.125557 0.114076 -0.0338177 -0.0197498 0.138216 0.0740798 0.0400574 0.121559 -0.198862 0.0901477 -0.0473553 -0.0863582 -0.154632 0.0576554 0.0280561 0.280509 -0.00780098 0.184873 -0.196945 -0.0696028 -0.224671 -0.0466956 -0.00254585 -0.00231413 0.0659585 -0.0583012 0.0568345 0.0498679 -0.0986948 -0.183027 -0.114158 0.0647194 -0.0567871 0.127659 -0.345041 0.00274559 0.188905 -0.121879 0.0937119 0.063464 0.157915 0.109268 0.150647 -0.108125 0.00202206 -0.144862 -0.0974066 -0.0340341 0.0965444 0.0853405 0.091875 -0.126643 0.00298439 -0.020311 0.0196289 -0.0621981 -0.00828789 0.0467126 -0.0596935 0.155554 0.0149506 0.192491 0.0835252 -0.17369 0.103835 -0.26136 -0.0156386 0.0885531 -0.130184 -0.0480183 0.134602 0.108519 -0.0535798 0.0847646 0.119702 0.0294402 -0.101055 0.0395827 -0.0641355 0.364058 -0.105345 -0.15394 -0.128992 -0.0602625 0.0915743 0.0312384 -0.00111161 -0.00968837 0.112788 0.18028 0.0511706 -0.11582 0.0943285 0.0688522 -0.0965976 -0.0851317 -0.0838302 0.0469935 -0.136085 0.00838947 0.0633854 -0.186343 -0.145615 0.0107978 0.0634476 -0.00206741 0.0463066 0.105093 -0.0227465 0.148825 0.109947 -0.148626 0.0541963 -0.05094 0.200825 -0.0753156 0.126832 0.149415 -0.0176918 0.0677127 0.103291 0.114393 0.087802 0.0170501 0.0555317 0.209972 -0.103401 0.0102165 0.134771 0.0263731 -0.310155 0.10299 -0.104465 -0.104094 -0.0934408 0.187395 0.0928825 -0.132025 0.204767 -0.0917227 -0.0230059 -0.0436473 -0.00685129 0.0240491 -0.0686412 0.0613592 0.00625477 0.0521982 -0.0893492 0.197397 0.0782904 0.0733532 -0.0431459 0.105041 -0.103049 0.00490783 0.0420602 -0.073429 0.293992 0.0520166 0.0803201 0.17276 -0.0822231 -0.0351655 0.138076 0.0582802 -0.185167 0.128116 0.408721 0.00288162 -0.226867 -0.0531037 -0.0282645 0.0853954 -0.294743 0.0576298 -0.147796 -0.0462044 0.223182 -0.0642795 -0.174816 0.124507 -0.172765 0.04575 0.113609 -0.0444117 -0.0455659 -0.080117 0.109754 -0.0365512 0.0943263 0.203666 0.0657398 -0.0458878 -0.0942827 0.226098 -0.0141595 -0.0565789 0.0700189 0.0800985 0.0501541 0.0199537 -0.154748 0.202745 0.0013855 0.106319 -0.02935 -0.179578 0.199125 -0.0216468 -0.0621021 -0.165696 0.0587452 -0.00588534 -0.0660146 -0.14905 0.0392373 0.0913467 -0.170239 0.18551 0.00160695 -0.200554 0.0590544 0.172855 0.10245 0.00381564 -0.0682094 0.0911637 -0.171174 -0.0770271 0.0647892 -0.0208612 0.133484 -0.227736 -2.74088e-05 0.0297511 -0.0461601 0.0475694 -0.00908804 0.15748 -0.0397177 -0.018892 -0.0639163 0.190002 0.156487 0.114534 -0.157642 -0.0418815 -0.0072705 0.00750478 0.0484293 -0.179864 0.0933842 0.142951 0.210507 -0.104376 -0.0850744 0.180145 -0.152397 0.0943672 0.109571 0.15053 -0.0280759 -0.0927638 -0.160474 -0.108595 -0.0567287 0.0848013 -0.102423 -0.223992 0.00465643 0.128326 -0.0702286 0.0779643 0.0381748 -0.113144 0.0334798 0.0363162 -0.0714958 -0.0466476 0.030124 -0.231022 -0.08717 0.0675797 -0.181637 0.0717223 0.0643311 0.0656689 0.0185794 0.114648 -0.152463 0.00900495 -0.0554038 0.0962718 0.0527044 0.186838 0.0635951 -0.0993148 -0.14966 0.165741 0.253998 0.0936868 0.00826917 0.142585 0.00491105 -0.18025 -0.0846138 -0.242789 -0.0515703 -0.0795183 -0.110038 -0.0937019 0.14338 0.162902 0.065578 -0.0683743 0.0596466 -0.222214 0.122284 0.119226 0.0391266 -0.0444083 0.163183 0.0319219 -0.0631576 -0.142523 0.040054 -0.0189101 -0.0813222 -0.139474 0.0151695 0.033318 0.0974909 0.102795 -0.259392 0.10834 -0.131377 -0.0433147 -0.0693809 -0.0966906 0.235357 -0.0717907 0.0818601 -0.171054 -0.207878 -0.00305047 -0.0060162 -0.0948587 0.0647477 0.0318473 0.0199726 -0.154023 -0.216738 0.146814 0.0455042 0.0845385 0.263303 -0.0723511 -0.308147 0.0280273 -0.0999507 0.151491 0.00459753 -0.0883219 0.124053 0.130972 0.202145 -0.127095 -0.160295 0.159411 -0.0657275 0.0242184 0.130428 -0.0665994 0.139418 0.170243 -0.225272 0.124525 -0.0704758 -0.020129 -0.0218411 0.173336 -0.037986 -0.157667 0.18324 0.00936905 0.175454 -0.104175 0.00655571 -0.146461 0.109943 -0.17286 0.0525628 -0.102388 0.0830834 0.23155 -0.0828995 0.22595 -0.12343 -0.208883 0.0506529 -0.0163331 -0.0753574 -0.227429 0.0606754 0.0338903 0.0339224 -0.0690213 0.0800651 0.0450348 -0.0231549 0.00729222 0.0365044 -0.0824545 0.0780102 0.152907 0.158653 0.208876 -0.0887366 -0.0492327 0.113427 0.219914 0.161467 0.000676608 -0.0514655 0.0366029 0.0486236 0.0405231 0.181234 0.0544734 -0.131521 0.0704456 0.123299 0.181069 0.275096 0.00425943 0.0891419 0.141143 -0.279476 0.11728 0.0589302 -0.30902 -0.20623 0.00341139 -0.0922489 0.241175 -0.025875 -0.144332 -0.153203 0.314903 0.0307495 0.043214 -0.055168 0.0840608 -0.0321937 -0.034071 -0.122746 0.0413023 -0.00654234 -0.0782668 0.0515326 -0.167497 0.261018 -0.0948776 0.0164868 0.0710691 0.155455 0.217942 -0.00477393 -0.00220686 
0.274824 0.165108 0.0123777 0.141769 0.282026 0.0829611 -0.112069 -0.252039 0.146798 0.131114 0.24979 -0.110891 -0.144725 0.132772 -0.112719 -0.0922485 -0.00193135 0.203445 0.0258216 0.0669069 -0.00490973 0.0861642 0.0182143 0.251622 0.0968642 0.0956834 0.119773 0.0910022 0.0130381 -0.0212843 0.278161 0.182942 -0.228913 0.0492008 -0.158613 0.13676 -0.0660384 0.0599203 -0.105657 0.0672018 0.0699107 0.0106564 0.0220699 0.252507 -0.0213532 0.0467776 0.221074 0.0635506 -0.14016 -0.0705899 0.00753172 -0.102862 -0.0267467 0.0316201 0.0890413 0.0923597 -0.129667 -0.116205 -0.230974 -0.106202 -0.0889345 0.0860803 0.131158 0.208045 -0.167428 -0.0673322 -0.176462 0.00733984 0.0387206 0.121345 0.0870486 -0.0339961 -0.197733 -0.15791 0.0517417 -0.145506 -0.132457 -0.0501693 0.0617125 0.120969 0.0683154 0.0351509 0.0725905 -0.235405 0.0554421 0.0397439 -0.0461493 -0.173232 -0.148972 -0.17443 -0.1335 0.0997358 0.284094 -0.0989387 -0.0471638 -0.118048 -0.134894 -0.00782538 0.0413008 0.0551925 0.0415944 0.210284 0.0982768 0.0480381 -0.0247563 -0.138156 -0.151211 -0.0500019 -0.00179502 0.0642684 0.0336051 0.0318689 0.185005 -0.0122454 -0.132971 -0.0457322 -0.0775617 -0.0330084 0.161336 0.188758 -0.143144 -0.0306291 -0.0639245 -0.139659 -0.183259 -0.10104 -0.156591 -0.4029 0.0221766 0.0495468 0.128479 0.0541832 -0.165758 0.14976 -0.0694836 0.020764 -0.151604 -0.089864 0.0453263 0.0821758 -0.00876161 -0.0820233 0.122395 -0.0806669 -0.0824068 0.0718033 -0.0185171 -0.107542 -0.123174 0.0547192 0.0155266 -0.211921 0.0262424 -0.121333 0.0255278 0.122478 -0.0099147 -0.0249052 0.182737 -0.105122 0.0785247 -0.143848 -0.0835647 -0.104357 0.2565 0.0557925 0.0524553 -0.0462319 -0.219446 0.0979036 -0.0235932 -0.0229218 -0.00366953 -0.100519 0.0701764 0.0812543 0.0170236 -0.104856 -0.0238493 0.0455181 0.021791 0.0256543 0.012986 -0.242267 -0.075568 0.0127398 -0.12298 0.00126536 -0.186155 0.00248785 -0.107464 -0.0157627 -0.139724 -0.0102625 0.121403 0.112793 0.0199524 -0.0233469 0.0283406 -0.107351 0.171953 -0.040203 0.0383367 0.114081 -0.0352446 0.14071 -0.0877623 -0.0112393 -0.0696845 -0.056746 0.0023375 -0.0205272 0.0371198 0.102601 0.0297596 -0.105067 -0.066481 0.0849263 -0.117887 0.144161 -0.0747106 -0.0316262 0.081132 0.195533 -0.191959 -0.19507 0.174673 -0.0533711 0.0908581 0.128061 -0.086106 0.108451 0.0927864 0.0683553 0.0725453 0.246086 0.125962 -0.0627498 -0.124434 0.026275 -0.0676489 -0.0960133 -0.00326958 0.145654 -0.0236042 0.0147599 -0.00145532 0.103643 -0.222286 0.126655 -0.188562 0.244332 0.210321 -0.147816 0.385498 0.196129 -0.0506697 0.0281318 -0.202795 -0.0453122 0.117639 0.113749 -0.110405 -0.0820165 -0.0305853 -0.0661615 0.498622 0.186136 0.0475191 0.0725984 0.107647 -0.0403938 0.199262 -0.0340409 0.108369 0.140142 0.187665 0.0768977 0.105029 0.149818 -0.000277088 -0.0375744 -0.100584 0.199504 0.0458552 -0.135906 0.0816124 0.199894 0.393406 0.0732552 0.144532 -0.166766 0.162967 -0.159531 0.0138932 0.225992 0.102703 0.112779 0.124058 -0.0386837 -0.0355289 0.05737 0.0041298 -0.0408018 -0.00977195 0.0754177 0.0648114 -0.152072 -0.154635 0.13433 0.0697089 -0.180499 0.247152 0.0534315 0.0133597 -0.133075 -0.102103 -0.0853741 0.0195749 -0.233071 -0.0137383 0.02941 0.150082 -0.0818064 -0.16601 0.0731677 -0.0229579 0.148131 -0.0120661 -0.0519413 -0.0569232 -0.0532192 0.0222196 0.0587911 -0.102913 -0.0508044 0.0986736 -0.146019 0.0222939 0.0779322 -0.213803 0.0864231 -0.0642128 -0.136595 -0.0155491 0.0280881 -0.00486183 -0.251929 0.0652683 -0.0906462 -0.39192 -0.119157 -0.0331718 -0.0109173 0.0797861 -0.120659 -0.0590978 0.0785115 0.0060476 0.0875533 -0.0893112 -0.170016 0.0464133 -0.00888231 -0.0367325 0.172547 0.0187146 0.17022 0.089716 0.0233604 0.0493013 -0.0785528 0.16335 -0.0357929 -0.163898 -0.088355 0.151707 -0.0334203 0.199524 0.294578 0.0361399 0.226937 -0.0498748 0.195842 -0.160036 0.136087 -0.217525 0.0306241 -0.139194 0.0807075 0.125162 -0.175134 0.192977 -0.211997 0.0866061 -0.0333851 -0.145206 0.0212504 -0.200037 0.159215 0.201214 0.000755092 -0.0381363 0.0485084 0.0288576 -0.290901 0.0582414 0.0603135 -0.211416 -0.0181011 -0.162139 0.0197058 -0.00971407 0.033846 0.0389417 -0.0830235 -0.0869504 -0.184251 0.0272037 -0.0663757 -0.0533094 -0.089785 -0.146215 0.0363923 -0.114384 -0.0142017 0.0588926 0.0448619 -0.0132586 -0.222807 -0.109636 -0.0195992 -0.0253204 0.305883 0.0480311 0.0615753 0.105896 -0.0517375 0.114786 0.0917531 0.356143 0.104569 0.0478601 -0.0360001 -0.0755273 -0.0619919 -0.070813 -0.0830352 0.0237529 0.0324291 -0.101902 0.155614 -0.00450425 -0.192083 -0.0827682 0.145156 -0.123542 -0.0764663 0.277048 0.174977 -0.0983873 -0.0504002 -0.0259419 0.107177 0.0506458 0.294088 -0.0410182 -0.161907 0.0704272 0.218179 0.0189581 0.000856749 -0.00488483 0.139983 0.0510366 0.190641 -0.01433 -0.166703 -0.0623418 0.0983572 0.00868268 -0.0774109 0.145718 0.0669449 -0.0931762 -0.060694 0.19385 -0.243431 -0.0135002 -0.103115 0.107123 0.124251 -0.0620107 0.0657506 -0.218225 0.0426559 0.0185717 0.0455292 -0.0888501 0.0390488 0.112931 0.0144685 -0.0241049 0.261439 -0.0200533 -0.136813 0.0188082 -0.0747351 0.15167 -0.141593 -0.0878821 0.200663 
0.209784 0.0707949 -0.0570517 0.0482529 0.234867 -0.126747 -0.255588 0.106759 -0.0655256 0.0843442 0.147811 -0.0825893 0.0742857 -0.0388918 0.122813 0.258014 0.258278 0.216849 -0.0522285 -0.054606 -0.0474834 -0.176606 0.215657 0.127443 0.0307112 0.12557 0.0406268 0.103836 -0.21712 -0.0857139 0.0686498 -0.137632 -0.0985927 0.16333 0.0176397 -0.16931 0.0746765 0.134095 0.136749 0.0419982 -0.323064 0.0418175 -0.00796781 -0.156087 0.0531165 -0.158794 -0.0695012 -0.114659 -0.104252 -0.168029 -0.075777 0.046926 -0.0124051 -0.0377177 0.243475 -0.0296932 0.0086345 0.235963 0.389059 -0.0587668 -0.30118 -0.0870498 0.00950201 -0.0171072 0.126335 -0.0681111 0.0733352 -0.0821602 -0.0468894 0.215321 -0.319453 0.146902 -0.128823 -0.0888598 0.0723911 0.0287798 -0.0952576 0.155587 0.0338649 0.0734281 0.00254331 0.226127 0.0706684 -0.0304044 -0.210183 -0.0899881 -0.153564 -0.121335 0.112967 0.182642 0.0688047 0.00156212 0.117208 0.0691145 -0.0521443 -0.0892222 0.00297103 -0.00244613 0.0353573 -0.0728274 0.025976 -0.157535 -0.0445233 0.0312912 0.109977 0.02055 0.0884423 0.203249 0.0417606 -0.228824 0.118507 -0.0121864 0.0970775 -0.202762 -0.0191328 0.0394007 -0.0936583 0.0709777 -0.0648708 -0.17132 -0.0684414 -0.00795296 -0.0300097 0.0183861 -0.000389888 -0.0415164 0.0588985 0.045798 -0.166813 0.0852974 -0.0104671 -0.0556449 0.0683523 -0.0457432 0.0631407 -0.277733 0.0316718 -0.177314 0.132316 0.174947 0.02148 0.0503308 0.0846791 -0.00577086 0.00781458 -0.075155 0.115771 0.069043 -0.0735718 0.164288 -0.0345755 -0.243224 -0.0172128 -0.0475067 0.108545 0.124191 -0.269317 0.118028 0.0579634 -0.277298 -0.0638312 -0.0720385 0.228355 -0.125254 0.273412 -0.170151 -0.00405367 0.0220289 -0.00307163 0.172221 -0.108087 -0.150788 0.0526937 -0.227158 -0.0413487 -0.0986632 -0.107667 -0.038534 0.0867288 0.0470061 -0.0151162 0.0457311 -0.13276 0.0304415 -0.267955 -0.0604817 -0.0180357 -0.0331549 0.0260996 0.0130564 0.0702978 -0.160502 -0.0766481 -0.0417851 0.00637544 0.0422332 -0.0322416 -0.138469 0.0433126 -0.189346 0.00037027 0.0321436 -0.180275 0.0410243 -0.0109494 -0.0116605 0.0157763 -0.0689393 -0.365239 0.367202 0.0683079 -0.0891478 -0.052676 -0.0974167 -0.215199 0.156524 -0.249131 0.0796389 -0.0603341 -0.000623582 0.0411461 -0.0371355 0.0240372 -0.0119882 0.180511 0.121325 -0.0239547 -0.243291 -0.175673 0.106377 -0.0786558 -0.0999343 0.125739 -0.0224547 -0.0693454 0.161183 -0.0355617 0.26644 -0.165844 -0.251638 -0.0186815 0.122844 0.0279929 0.0560914 0.143823 -0.040681 -0.225535 0.119851 0.180306 -0.0293426 0.209134 -0.043925 -0.182741 -0.0499104 -0.0206479 0.0608293 -0.302825 -0.0319749 -0.0894316 -0.0583154 -0.0584813 -0.00109082 -0.136245 -0.123449 0.0841453 -0.0283053 -0.0139816 -0.0130147 -0.0606545 -0.0399012 -0.00538512 0.0226084 -0.00360658 -0.0126861 -0.0463718 0.191775 0.186805 0.0805234 0.00654001 -0.103615 -0.0547024 0.0319588 0.0768091 0.0473567 0.165241 -0.0782795 -0.179782 0.00270905 -0.0656131 0.0848759 0.0241468 -0.0754353 0.233777 0.0884276 0.189015 -0.112469 0.0591308 0.0486109 -0.00645765 -0.0389271 -0.181423 -0.0377496 -0.124649 0.115753 -0.312779 0.143297 0.0693544 -0.162284 -0.0928199 -0.0570256 -0.0447851 0.0347759 -0.000914736 0.0247293 -0.0658382 0.209633 0.0867135 0.0334952 -0.0674513 -0.0957804 -0.00445612 0.0966031 0.0382634 0.00840241 -0.0474485 -0.140323 0.00872921 0.0544497 0.137846 -0.268778 0.186165 0.0859627 -0.0881675 0.130389 -0.213664 -0.158569 0.145125 0.140696 -0.0539549 -0.251155 -0.0749149 0.120145 -0.0410335 -0.165038 0.0766654 0.0488957 -0.230007 -0.069262 0.0479853 0.195239 0.12866 0.26252 0.107427 -0.215559 0.00674656 -0.0214162 0.0934449 0.070932 0.209518 0.330723 0.152285 -0.0593317 -0.0336104 0.102222 -0.0215817 0.00193598 -0.271457 0.179984 -0.100853 -0.0602125 -0.077374 -0.0823173 -0.105797 0.0898326 -0.222134 -0.0545483 0.0453934 -0.0143471 0.0110015 -0.0169005 -0.0805022 0.0613827 0.0132324 0.0145475 -0.0141818 -0.0849703 -0.0724413 0.115469 -0.136812 -0.0895041 -0.125257 0.268023 0.249212 -0.148362 -0.0780843 0.158883 0.02733 0.0577041 0.0127763 -0.113573 0.158495 -0.0750168 0.292475 0.023198 -0.166798 0.0560109 -0.0315836 -0.0411743 -0.0403713 -0.125531 -0.193555 -0.155863 -0.109512 0.0535686 0.0488852 -0.0592925 0.0659191 -0.0325974 -0.103581 -0.0645379 0.100662 -0.117742 -0.00875339 -0.00141875 -0.189717 -0.167366 0.0764219 0.0385734 -0.0550334 -0.0821415 0.150633 -0.0769985 -0.105416 0.103511 0.0285585 0.123498 -0.00203311 0.0109534 0.0801817 -0.0113757 0.00627275 0.163248 0.0968191 0.152069 -0.0211777 0.00906025 -0.0829981 -0.0930976 -0.0116384 -0.0563126 0.306144 0.111845 0.0843513 -0.0192122 0.0872465 0.120409 -0.0767021 0.0256786 0.0333434 -0.0253007 -0.0850453 0.0247947 -0.146529 0.108725 -0.0516336 0.0610433 -0.11841 -0.122485 0.163918 0.0589492 -0.0859851 -0.00858161 -0.00286341 -0.192822 0.0222601 0.0555487 0.0592821 0.148243 -0.00440317 0.0559347 0.00656979 -0.0151848 0.0265653 0.139266 -0.0473436 -0.133084 0.264846 -0.048011 0.0409914 -0.0996796 -0.00761755 -0.0290236 0.0738924 -0.220241 0.0392134 -0.048594 -0.0106663 -0.181885 0.0474334 0.0169826 -0.0843246 -0.0649057 0.186591 0.205295 -0.0523769 0.194556 0.114373 0.0606608 -0.101039 0.13083 0.156441 -0.0761507 
0.0181229 -0.121695 -0.0995966 0.227926 0.074921 -0.058963 -0.0342783 -0.0550376 0.0409257 -0.0422475 0.136848 0.000268319 -0.209593 -0.198141 -0.0294378 0.166156 -0.104378 -0.0551391 -0.127798 -0.10017 -0.0436932 0.184698 -0.0676639 -0.115642 -0.236046 0.0674044 -0.066652 -0.160305 0.119828 0.102645 -0.0168644 -0.0962306 0.110244 -0.257101 0.0215465 0.244877 0.0383187 0.0887628 -0.136806 -0.289466 -0.0598635 -0.231846 -0.0245424 -0.0627818 0.068766 -0.212722 -0.0933186 0.0741439 -0.00116173 0.170798 -0.106615 0.100629 -0.136402 -0.125458 -0.0287247 -0.300036 -0.104684 -0.171383 -0.124913 -0.0580849 0.0791064 0.128137 0.0879478 0.0496683 -0.0562855 -0.0281189 -0.141635 0.137581 0.305844 -0.274477 -0.0887074 0.17888 -0.13038 -0.0177835 0.0242073 -0.105654 -0.0274535 0.0200816 -0.133262 0.0597644 -0.00295007 0.0356865 -0.0234231 0.0548504 -0.0336905 -0.0919966 0.131214 -0.0320015 0.0647304 0.0314349 0.142793 -0.0674823 0.047076 0.101167 -0.0173062 0.0536165 0.0493068 -0.0712913 -0.0588499 0.262556 -0.069433 0.144915 0.000318916 0.123963 0.0261687 -0.0532779 -0.155204 0.0905602 0.157943 0.108489 -0.23938 -0.015494 0.173814 -0.0619575 -0.0308229 0.0255736 0.0409022 0.113897 0.112775 0.134175 0.0750754 -0.0014356 0.0583542 -0.300685 -0.131611 0.00557174 0.0675674 -0.00798446 0.122645 -0.0099203 -0.107106 0.0731796 -0.0577324 0.0179844 -0.078734 -0.0598526 -0.0614899 0.0113756 -0.126243 0.0590515 0.129219 0.0289336 0.384425 0.0946946 0.0570151 0.132841 -0.0156537 0.178744 -0.270201 0.0891939 0.0442464 -0.395055 -0.144907 -0.172152 -0.00788182 -0.0240252 -0.205727 -0.226468 -0.0413413 0.072213 0.0424865 0.0389221 -0.252151 0.0830796 0.157398 -0.0722815 -0.0028734 -0.109739 -0.0876796 -0.104585 0.200826 0.0206209 0.00590735 0.0295065 0.112142 0.0572904 -0.314614 0.164592 0.0512977 -0.0129707 0.0883826 -0.187904 0.0504376 -0.104441 -0.238409 -0.227424 0.207498 -0.0146169 -0.0911149 0.0969358 0.0901329 -0.0308515 -0.197995 0.0169524 0.13259 0.063728 -0.0954273 0.251902 0.0359756 -0.0155076 0.308431 -0.0408246 -0.131472 -0.070776 0.162183 0.133967 -0.113226 -0.22224 0.0075018 0.0269349 0.0196341 -0.0325895 0.0462408 0.139176 -0.0460815 0.195662 0.12084 0.0763394 0.0310271 0.138499 0.0616513 0.106911 -0.0294496 0.0142739 0.0223392 -0.0149286 0.268448 0.0757485 -0.0635345 -0.105324 0.079738 -0.134749 0.108094 0.115657 -0.00748744 -0.345175 -0.0272311 0.227572 -0.191093 -0.158305 0.215276 -0.186179 0.199428 0.018782 0.034977 0.15467 0.0209118 0.0529915 -0.0213499 -0.190728 -0.102905 0.00948448 -0.226523 0.283858 -0.0283988 -0.0642893 -0.258341 -0.0285494 -0.136424 -0.30015 0.150006 0.112952 -0.119102 0.0753446 0.0734975 0.228172 0.0361769 -0.0202107 -0.0346842 0.0234727 0.181202 -0.0763531 0.11479 0.213267 -0.0627407 0.164603 0.0817221 0.215976 0.165647 0.0422169 -0.0778087 0.00637058 0.158416 0.239221 -0.10389 -0.160902 0.036703 0.105405 -0.109943 0.0406506 -0.12516 -0.139992 -0.0745804 0.0111111 0.156369 -0.124508 -0.237956 0.33475 0.0742531 0.219599 -0.147009 0.0683667 -0.0799028 0.0258269 -0.069807 -0.0871502 0.13376 -0.0435627 0.130253 0.169456 0.0905709 -0.218926 -0.135543 0.131699 -0.131415 0.0297814 -0.129729 -0.0422281 0.0123761 0.174983 0.15003 -0.0537855 0.245208 0.115355 -0.00279949 0.187204 -0.0903181 -0.110574 -0.00255369 0.036877 -0.211803 -0.0244132 -0.168441 0.0621277 0.24021 -0.0512698 -0.0320739 0.156313 0.164195 -0.0647582 -0.242525 0.0992837 0.0471098 0.102522 0.0618237 -0.118876 0.0735137 -0.130104 0.063584 0.0781567 0.00514336 0.0216288 0.0388857 0.0724273 -0.0413839 0.0186624 -0.184161 0.106483 0.124463 0.0736303 0.0191481 0.000482457 0.230844 0.18478 0.171777 0.0895449 0.0200823 -0.0752327 0.0678866 -0.164464 -0.257355 -0.141673 0.188001 0.0484852 0.242724 0.137023 -0.12632 -0.0142683 -0.0328936 0.0698989 0.0198463 0.12827 0.0213591 0.157641 0.240611 0.148936 -0.153074 0.102834 0.0201775 -0.0749185 -0.113759 0.0718065 0.0460899 0.0800149 -0.0238843 0.260198 0.0775517 0.0194915 -0.120995 -0.0771569 0.0586356 -0.114691 -0.0765255 0.128021 0.104345 0.154956 -0.185098 0.123457 -0.0569089 0.0952715 -0.00956188 0.0233728 0.0609623 -0.0832344 0.239825 0.000382929 0.086029 0.0116277 0.149591 0.0776554 -0.113754 -0.0202704 -0.0314016 -0.0428269 -0.106228 -0.0908975 -0.0569322 -0.00100729 -0.146616 -0.0139448 -0.0429177 -0.0438268 -0.139879 -0.0705441 -0.016712 0.154561 0.0611283 -0.166223 -0.0566249 0.000988071 -0.145515 -0.313793 -0.213077 -0.082586 -0.0788485 -0.00681809 -0.145894 0.00453153 -0.121769 -0.0874281 -0.194666 -0.101441 0.0532535 -0.0867857 -0.0666459 -0.0793525 -0.0229874 -0.177254 0.0763794 0.148201 0.0445309 0.118221 0.252663 0.170224 -0.16296 0.301714 0.0265019 0.14522 0.0674521 0.188856 -0.145638 0.00338155 -0.0604814 0.129029 -0.12438 0.117003 -0.0091828 0.0869188 0.0461452 -0.0615123 -0.11396 0.0700995 0.111743 -0.0121794 0.00237586 0.1395 -0.0954293 0.121733 -0.115996 -0.196558 0.297651 -0.19243 -0.108723 -0.283629 -0.189183 0.0321888 -0.00753464 0.0501137 -0.157887 -0.0344199 0.150633 0.00157251 0.0412729 -0.0289313 -0.124376 -0.160746 0.0886303 0.0613624 0.119562 -0.0268683 0.121167 0.18244 
