124 
-0.0309105
-0.030347
0.00669814
-0.0504563
-0.183771
-0.150737
0.283194
-0.0481386
-0.00570699
-0.102351
-0.0400312
-0.303032
0.0907321
-0.24131
0.178946
-0.190694
-0.118328
0.14357
-0.0623797
-0.0301552
0.111678
-0.0901881
-0.0491815
-0.0176556
-0.0375337
-0.0741139
-0.0523073
0.0589687
-0.0878388
-0.0493583
0.0456814
-0.134757
0.0611458
0.141799
0.00210126
-0.0693735
-0.146945
0.0511348
0.187765
-0.0575566
-0.0954497
-0.108277
-0.0719317
-0.00404586
0.0987052
-0.0167171
0.0962839
0.0794162
-0.284829
0.251616
-0.058116
0.0825455
-0.0811772
0.141474
-0.0766382
0.0186894
0.00853862
0.0815709
-0.106395
0.0769268
0.109653
0.106532
-0.10032
0.0106602
-0.0305581
0.0960401
-0.0555052
-0.122077
0.0881222
0.11041
0.0861063
-0.115732
-0.0845206
0.0645843
0.0817535
0.0442651
0.199154
0.0172269
0.178595
0.14517
-0.0203433
-0.0952123
-0.134879
-0.0595145
0.20464
0.0452771
0.0297278
0.0644733
-0.218852
0.241162
-0.14627
0.0108349
0.0924569
0.063505
0.0452405
-0.144326
0.095042
-0.161262
-0.0427401
0.0395957
-0.158316
-0.0542333
-0.0579575
-0.0166384
-0.219553
-0.0560033
-0.0672174
0.0782564
-0.0878388
-0.0509567
-0.0356306
0.0959972
0.19855
-0.0769452
0.0938312
0.0167591
0.11972
-0.141532
0.0776819
-0.00169902
0.10788
-0.184764
0.0118377
0.0688411
