124 512
-0.155857 0.0594347 0.0574542 0.0997039 0.0478226 -0.061799 -0.133292 0.0830834 0.104143 0.109895 -0.203193 0.0144236 -0.0907177 -0.12617 0.066346 -0.154688 0.0347138 -0.0203094 0.036241 -0.161141 -0.124788 -0.0313002 -0.052243 0.0328187 0.0691372 -0.170138 0.0108471 -0.0599022 -0.0836735 -0.0452791 -0.0871343 -0.0389558 -0.0522556 -0.0729261 0.0408491 -0.154439 0.242724 0.0418723 -0.106498 -0.00840529 0.111134 0.0832193 -0.0429203 -0.0801293 -0.0488419 0.0982076 -0.0764768 0.0305684 0.0309558 0.182803 -0.0416524 -0.0959377 0.231038 0.0106384 0.0618839 -0.0128859 -0.221668 -0.0904385 0.0947648 -0.0955208 0.136335 0.126945 -0.0140081 -0.181217 0.000245293 -0.165517 0.0634724 -0.114436 -0.177699 0.00830625 0.00520804 -0.136385 0.196448 -0.111345 -0.268703 0.00912345 0.0703226 -0.0515393 0.0865042 -0.032893 -0.0959292 0.0214767 0.0340978 0.0763836 0.165852 0.200404 -0.149493 -0.252788 0.0399591 -0.139432 -0.217859 0.0755897 0.0144993 -0.0702452 0.0324784 -0.174149 0.0373589 0.150594 0.247153 0.0633748 -0.103988 -0.36199 0.110008 0.0412899 -0.128596 -0.0782108 0.215568 -0.174778 -0.155847 0.124242 -0.0315972 0.0230012 0.0541618 0.0321659 0.0122735 -0.141453 -0.126421 0.253194 -0.0483198 0.0718349 -0.0119341 -0.168008 -0.0317771 -0.22554 -0.0834901 0.10403 0.0850018 0.124915 -0.0672883 -0.112823 -0.0827577 -0.116133 0.0467438 0.0874671 -0.0878297 0.136557 0.0209623 -0.16321 0.0524481 -0.0915939 -0.176034 -0.093251 -0.0953344 0.143589 -0.12577 0.0206194 -0.127872 0.0350754 0.0343232 -0.0460452 0.0019193 0.0572265 -0.13593 0.16904 -0.0867901 -0.147931 -0.0186816 0.0431328 0.0423397 0.0708266 0.104931 0.029985 0.0656339 -0.156551 -0.0437754 0.174275 0.142634 -0.0283264 0.0666402 -0.0517245 -0.034645 0.133684 0.0137529 -0.127493 0.0192279 0.0974379 -0.0631104 -0.109871 0.0774612 0.0318143 -0.113881 0.274811 -0.121545 0.00289666 -0.0523485 0.0317689 0.00118352 0.027616 -0.211663 -0.124835 -0.0693377 -0.177661 0.101647 -0.151974 -0.0652511 0.107668 -0.137784 0.0808762 0.056091 0.105637 -0.00827101 0.0218308 0.102103 -0.0061523 -0.0451544 -0.00334849 0.0657635 -0.0774518 0.145406 0.0333992 0.0900349 0.0900277 0.0919331 0.0951466 -0.120592 -0.125508 -0.0695583 -0.151178 -0.230541 0.269302 0.129247 0.118478 -0.285511 -0.31141 0.115249 -0.168075 -0.0175516 -0.120116 -0.190993 0.179109 0.0822773 0.146765 0.0562785 0.172022 -0.0428874 0.0210002 0.0601449 -0.247006 -0.103307 -0.0531013 -0.101123 -0.0623 0.0184748 -0.0975576 -0.0386059 0.164754 -0.240814 -0.184128 -0.281773 -0.122824 -0.137245 0.273758 0.0170156 -0.0720113 0.0413433 -0.215295 -0.172409 -0.1215 -0.138869 0.114777 -0.0243343 0.0617321 0.0259144 -0.210078 0.00216643 -0.191652 0.0880953 -0.139358 0.16067 0.134364 0.00240723 -8.15377e-05 -0.0446217 0.0487238 0.0327883 -0.139469 0.0329828 -0.0273006 -0.108009 0.070137 0.287992 0.19556 -0.248068 -0.0701204 0.230359 0.168018 0.0958063 -0.0627787 -0.268295 0.0111439 0.0283707 -0.12641 0.0262982 -0.0937806 0.279283 -0.196925 -0.00384462 0.00803575 -0.0504606 0.228235 -0.146181 0.061623 0.139509 0.154834 -0.19035 -0.0661096 0.0655006 0.141272 -0.0505466 0.314653 -0.22285 0.0997786 -0.276269 -0.0956525 0.0570616 0.121238 -0.0963449 0.199821 -0.0958042 0.176346 0.0433051 -0.0460513 0.186982 -0.167085 0.0377603 -0.107293 -0.0682198 -0.151774 0.0135735 -0.0373737 -0.215432 -0.30313 -0.232819 -0.069685 -0.071147 -0.0694647 -0.0891336 0.114516 -0.0877748 -0.470271 0.246563 -0.0551921 -0.23071 0.0723223 0.0414092 0.0167259 0.214097 -0.142586 -0.0755545 -0.0714027 -0.144975 -0.161113 0.214359 0.0129317 -0.00527238 0.0244758 0.0182519 -0.167739 -0.237584 -0.198069 -0.121472 0.0604464 -0.0871827 0.0572088 -0.0673517 -0.116314 0.0882883 -0.0560805 -0.0558306 0.197768 0.187933 -0.00715023 -0.0974387 0.00796 0.0589912 0.0979699 -0.0932467 -0.0434778 -0.0755345 -0.0632946 0.134248 0.142763 -0.103627 0.189401 0.0616924 -0.0544444 0.0892098 -0.0774755 -0.215104 -0.149742 0.0683208 0.0831362 0.187874 0.105922 0.0269079 0.0928676 0.153568 -0.351417 0.0520728 0.00544342 -0.25792 -0.199357 -0.218699 0.0583977 0.132261 0.14563 -0.0543986 -0.120309 0.0140813 0.0421333 -0.0698591 -0.213712 -0.0905378 -0.00860806 -0.0489268 0.0662618 -0.126722 -0.156479 0.0467685 -0.0236763 -0.0441721 -0.148262 -0.0614917 -0.0553261 -0.142582 -8.75269e-05 -0.182477 0.0412821 0.108634 0.0613177 -0.0584845 0.0122619 -0.0218498 0.0664419 -0.00780345 0.0629159 0.114069 -0.0491271 0.0550562 -0.0171279 -0.114799 0.0438427 0.0125028 -0.298415 0.0512752 -0.0468195 0.0938182 0.0832222 0.091139 0.054603 0.0320648 0.0151057 -0.0843402 0.0830405 0.0146191 0.156205 -0.0221461 0.0103227 0.0989899 0.0476077 0.0998584 0.00214538 0.0305776 0.380401 -0.0565734 0.00976836 0.0109208 0.165466 -0.127681 -0.107508 0.049593 -0.0967784 0.208422 -0.209494 -0.155197 -0.238611 -0.0855621 0.0981285 0.0986065 0.103456 -0.0237897 -0.18766 0.162075 -0.0176506 -0.0245712 0.0992498 0.169568 0.0702085 -0.019562 -0.0121931 0.222551 -0.227878 -0.0791337 -0.0906944 -0.0235098 -0.000167405 0.182977 0.182398 -0.00428261 0.108553 -0.164982 0.0148308 -0.184015 0.112335 0.0295791 -0.0710254 0.136896 0.0698526 -0.199851 -0.0725231 0.0673921 -0.139819 
0.0464326 -0.15231 0.0691158 -0.0189035 0.0708591 0.0496577 0.0649041 -0.0135699 -0.21169 0.146087 -0.0392914 -0.0854156 -0.382086 0.0577022 0.207444 0.0976377 -0.122977 0.0711004 0.243112 0.0533132 0.169473 0.382793 -0.00361375 -0.160688 -0.101562 -0.00947734 0.161759 -0.310077 0.0353758 -0.147685 0.228953 0.0220075 -0.0923689 0.0482282 -0.177062 0.280558 -0.0181978 -0.0857182 0.0284623 -0.0870076 -0.0240041 -0.149373 0.0701358 -0.041383 -0.133473 -0.0674831 0.00849758 0.141565 -0.0676581 0.18054 -0.290194 0.193136 0.0181866 -0.0258076 0.11821 0.187654 -0.261549 -0.0922225 0.114499 0.217229 -0.0965206 -0.0850322 0.0369184 0.164709 0.00266679 -0.049262 -0.150771 0.200296 -0.111974 0.0446629 -0.0756804 0.12141 -0.032661 0.0417544 -0.157181 0.0352009 -0.0418917 -0.00906922 0.145828 -0.131591 -0.1343 0.0709994 0.0510448 -0.00620136 0.0839933 -0.0224751 0.129385 -0.168168 0.0744518 0.0904722 0.122361 -0.222372 0.0892007 -0.122263 -0.0338023 0.118151 -0.0574604 0.243227 -0.00318071 -0.0374382 -0.0492217 0.148308 0.00635087 -0.162322 -0.00915185 -0.0993357 0.000620382 0.0711833 -0.0339043 -0.120663 -0.0279776 0.0877907 -0.153782 -0.00191436 0.136798 -0.119037 0.128627 -0.0225434 0.0816336 0.00726772 -0.013243 -0.183119 -0.0850371 -0.00995697 0.155738 -0.00946233 0.0753418 -0.146787 -0.0345236 -0.0495538 0.182296 0.0876776 0.0479456 0.00305752 -0.290877 -0.162513 0.0565819 -0.0861313 0.29462 0.189048 -0.0231118 -0.070333 -0.0571155 0.0440886 -0.0142509 0.0771685 -0.0185988 0.0212977 0.125356 -0.165153 0.0411599 -0.136981 0.0270263 -0.19332 0.127925 0.239092 0.01402 0.185486 -0.0714628 -0.0141783 -0.0148508 0.00070843 0.0326381 0.156862 0.0963359 0.0115328 0.106943 0.0751292 0.0171064 -0.222006 -0.00139992 0.0800867 0.0685778 0.0271666 -0.0406898 -0.104933 -0.106462 -0.133643 0.0335424 -0.266682 0.169924 -0.101859 0.0159446 -0.00415069 0.0199188 0.130048 -0.0557473 -0.149634 -0.203375 0.0226907 0.0633489 -0.152083 0.0957057 0.102266 0.035255 -0.159697 -0.363003 -0.158844 -0.165679 -0.14924 0.122622 0.0012571 -0.0978998 -0.0357628 -0.111626 -0.0347236 -0.0319495 -0.040719 -0.0132464 -0.0493492 -0.224602 -0.117891 -0.0664103 -0.0234483 0.115387 0.0949733 -0.0230258 -0.130111 0.164679 -0.0150739 0.0821093 0.107968 -0.0173904 0.0181747 0.195114 -0.231213 0.129419 0.125122 -0.0304821 0.139735 0.0229597 -0.0525711 -0.316261 -0.108686 -0.257912 0.0555268 -0.130697 0.0174244 -0.012142 0.00991486 -0.11358 0.0312433 -0.0776 0.00456978 -0.0208748 -0.0437986 0.107378 0.114458 -0.11848 0.124672 0.0148354 -0.02339 -0.0251117 0.226911 -0.153556 0.103868 -0.147475 -0.00996959 -0.0567895 -0.0381565 -0.177731 0.212573 -0.00430205 -0.230328 0.104534 0.0017874 -0.128725 -0.068819 0.134402 -0.225543 -0.257369 -0.0345603 0.00450265 -0.0080517 -0.0562289 -0.0997424 0.0400359 -0.0230067 -0.128919 0.129679 -0.231585 0.00223988 -0.0771109 0.203157 -0.132375 -0.0210783 -0.18226 0.13058 0.177495 0.037183 -0.121583 0.173044 -0.292141 -0.161663 -0.193073 -0.00389959 -0.0328149 -0.0287531 -0.16521 -0.0210951 -0.09047 -0.0114894 0.022511 -0.0808134 0.15581 0.0245323 -0.131314 0.184122 -0.20402 -0.276122 0.0969077 0.33173 -0.0612616 0.10627 -0.105017 0.00462183 -0.0092145 -0.0442154 0.16378 -0.120734 -0.0504368 0.117758 0.052212 0.0452208 -0.0116531 -0.212475 0.121224 -0.0774149 0.124942 0.224306 0.0335799 0.0961117 0.205521 -0.272754 0.0105202 0.132963 0.03618 -0.100446 -0.0743346 -0.00539771 -0.116892 -0.049007 -0.110355 0.0937747 -0.020155 -0.107198 0.00633786 -0.149865 -0.0151219 -0.117418 -0.145012 -0.167049 -0.145694 -0.0390216 -0.0995109 0.0516563 0.159187 0.00944584 -0.18739 -0.0975482 0.044407 0.107156 -0.0860865 0.281821 -0.127542 0.0166422 -0.0862047 0.221815 0.124395 -0.0191748 0.125816 0.0519123 -0.0397509 0.251062 0.00848404 -0.0676907 -0.0222994 0.162683 -0.347357 0.0218688 -0.0864156 0.0673928 -0.17091 0.0218836 -0.182594 0.104694 0.195657 0.011824 0.143014 0.121616 -0.150003 -0.159213 -0.150675 0.184911 -0.158314 0.00898169 -0.116644 0.144942 0.0463321 0.226476 -0.0868384 -0.148383 0.0546542 0.0721568 0.177459 -0.0381787 -0.193567 0.0429309 -0.00940572 0.00749909 -0.0137752 0.139237 -0.0794801 0.0345317 -0.0723225 -0.00206662 -0.00461285 -0.111326 -0.0261952 -0.144727 -0.0872003 -0.0627805 0.0337419 -0.16573 -0.026873 -0.0936838 0.0292597 0.133745 0.0104963 -0.0803566 -0.0379639 0.0790436 -0.0139122 0.0582641 -0.0153427 -0.134144 -0.131234 0.100982 -0.0841362 -0.100785 0.0363846 0.0332658 0.262402 0.101237 0.08567 -0.242534 -0.0157074 -0.155619 0.0257608 0.0722393 -0.331202 -0.151982 -0.0168284 -0.0223275 0.141386 0.12797 0.150547 0.0277875 -0.0306796 -0.0254285 0.0212191 0.183528 -0.096334 0.0401192 -0.0151153 0.00995336 -0.100143 -0.254331 -0.0863774 0.0891317 -0.0795008 -0.181076 -0.114287 -0.313638 0.0410553 0.074408 -0.192184 0.126595 0.113458 -0.178524 -0.0726424 -0.0811502 -0.246722 0.237429 0.00279326 0.00615744 0.0497109 0.157292 -0.0344869 -0.175535 -0.0423299 -0.043152 -0.123084 0.0490914 0.0439038 0.0451812 0.204189 0.247021 0.0628655 0.0710455 -0.15201 -0.0144044 -0.0649465 -0.15249 0.00821064 0.149873 -0.159588 0.189836 -0.171823 0.290101 0.110421 0.0122774 
0.124979 -0.0568568 0.0110395 -0.146117 0.028938 -0.16636 0.182786 -0.0112837 0.0458681 -0.0651972 -0.0226217 0.278423 -0.0756756 0.210083 0.293016 0.132623 0.106422 -0.058827 0.0162001 0.0417464 0.00302246 -0.142031 0.0155226 -0.0454987 -0.0306951 -0.0319506 0.128379 0.0625665 -0.227531 -0.162773 0.0297204 0.0606018 -0.239706 0.0105913 0.222253 0.12257 -0.0755102 -0.12271 0.254678 -0.0471528 -0.196744 0.102721 -0.179747 0.0604742 0.0186419 -0.037127 -0.123896 -0.304545 -0.1798 0.0492766 0.0619228 -0.0213079 -0.00926745 0.0482891 0.0997436 -0.130989 0.0093615 0.0991084 0.0938817 -0.0249128 -0.0982399 0.128662 -0.00434464 -0.0259537 0.231307 -0.120324 0.110563 0.109598 0.0465901 0.272994 -0.155544 0.173801 0.0697824 -0.0618281 0.0798072 0.263888 0.0739734 -0.0318201 0.0323582 -0.0743146 0.176388 0.121656 0.0258806 -0.0311135 -0.144355 -0.102009 -0.164434 0.0343991 -0.202118 0.180342 0.021789 0.139948 0.0621152 0.214224 -0.0233941 -0.0192482 -0.191685 0.107871 -0.127565 0.105466 0.10652 0.0977262 0.205874 0.00588379 0.1045 -0.12981 0.0120784 0.00832656 0.0740322 0.0559928 0.0851222 0.167908 -0.0721072 -0.0326362 -0.136935 0.0696057 0.257461 -0.115574 -0.229103 -0.118846 -0.0559404 0.150073 -0.0445972 -0.27544 0.213117 -0.0820551 0.0306328 0.139754 0.0195507 -0.184892 -0.0154631 -0.0922833 -0.157872 0.0991487 0.242783 -0.046733 -0.0775516 0.100159 0.0421572 -0.167288 0.0608574 0.00569102 0.105373 -0.113625 -0.0878826 0.16078 0.00584272 0.00611802 0.0227539 0.0017627 0.0485264 -0.0721402 -0.189705 0.0764059 -0.138035 -0.271443 0.024205 -0.176741 0.184262 -0.0789733 -0.111129 -0.0468399 0.00230691 -0.0518592 -0.0606368 0.0155984 -0.0672591 -0.242943 0.114836 -0.112798 -0.204587 0.1716 -0.0279133 -0.00599367 -0.0424853 -0.0183471 0.11598 0.0248707 -0.000461465 0.0382167 0.0121091 -0.0846198 -0.0103401 0.0155225 -0.0472111 -0.0617304 0.105871 0.158227 -0.038013 -0.0629984 0.0351562 -0.038528 0.412537 0.220975 0.0881764 -0.107447 -0.120335 0.127298 0.0309431 -0.196183 0.0994022 0.150201 -0.124762 -0.0273606 0.170693 0.0114515 0.104972 -0.136629 0.052572 -0.00349622 -0.0732706 -0.0166644 0.0562923 -0.0387234 0.0367359 -0.00439251 0.12903 -0.138642 -0.00216508 0.119401 0.146802 0.120733 -0.0980917 0.071889 -0.11336 0.0936526 -0.104657 -0.0356692 0.146821 -0.0150481 0.0235959 -0.157617 0.09703 0.180742 0.0292443 0.0591081 -0.0946205 0.123528 -0.0708586 0.294252 0.0747868 -0.112904 0.0176962 0.0718398 0.217362 -0.0411585 0.0173851 -0.0898027 0.0885741 -0.0979713 0.0391672 0.0476678 0.00453524 -0.114355 0.000718063 0.0136332 -0.0338451 0.0279645 0.0528458 0.033577 -0.0457134 0.0361538 -0.0125184 -0.0333968 -0.0609367 0.100904 -0.175664 -0.0526831 0.154869 0.0318344 -0.0846775 -0.0632847 0.160543 0.115504 0.20847 0.0213504 0.0124907 0.194114 0.0811261 0.0584017 -0.199253 0.0716707 0.0139189 0.132504 0.206335 0.123257 0.113519 0.150255 -0.0599848 -0.156103 -0.0299547 0.0708335 -0.352933 0.125077 -0.275328 -0.118093 0.0363507 -0.172257 0.196539 -0.140392 0.201104 -0.0780753 -0.0759531 -0.0744387 -0.128326 0.0464547 0.202968 0.0485987 -0.0534883 0.0919725 0.135737 -0.0321779 0.0147191 0.043169 -0.0420378 -0.0322812 0.209414 -0.125465 0.0508889 -0.0276332 0.0468087 -0.144309 -0.22982 0.0284175 -0.0933598 -0.129589 0.00321741 -0.0520168 0.209857 -0.134864 -0.166896 0.145543 -0.00387723 -0.0655835 -0.115113 -0.0979392 0.012665 0.0390353 -0.0333602 -0.0860724 0.0825245 -0.0594294 0.0592311 -0.0900296 0.111017 -0.108938 0.0327428 -0.122763 -0.0324518 -0.284596 -0.124356 -0.0591744 0.0753388 0.00257714 0.0380686 0.0681724 0.183386 0.0120184 -0.0929296 -0.0687757 0.213689 0.0699562 0.00908611 0.115585 0.0152496 -0.133916 -0.00996836 0.0669891 -0.0258552 0.133965 0.403509 -0.0989081 0.172219 -0.0995163 -0.0444573 -0.0960931 0.244232 -0.00169862 -0.0897185 -0.312788 -0.00145931 -0.180929 0.140727 -0.0517581 -0.0510824 0.0430085 -0.171258 0.0168321 0.107634 0.28724 0.0340819 -0.0971477 0.0198626 0.200747 0.102609 -0.160673 0.119186 0.0321334 0.0758927 -0.124749 -0.0431335 -0.0864736 0.0648926 -0.0597728 -0.0608523 0.0813675 -0.00483627 0.201866 -0.0877904 0.0420268 -0.0835204 0.162525 -0.0377497 0.131455 0.128205 -0.123026 0.202692 -0.0237095 0.0656425 -0.00824503 0.0783586 -0.043772 0.0644446 0.144944 0.235805 -0.149562 0.0383439 0.0276129 0.276213 0.0552165 -0.1527 0.0140198 -0.0366873 0.0369692 -0.301419 0.0808319 0.202166 0.0295924 -0.0598828 0.143633 0.02458 0.050999 0.0368712 0.158382 -0.190419 -0.00527327 0.134941 -0.0640748 0.0174317 -0.082066 -0.0474298 -0.0424283 -0.0423088 0.00102897 0.147251 0.0808414 -0.184926 0.121277 0.0441784 0.0335862 -0.0546386 0.173668 0.0315898 -0.0257072 0.0196378 -0.0334732 0.0371158 0.13917 -0.0358069 -0.342571 0.124637 0.244161 -0.00966858 -0.293345 -0.104064 0.0840726 -0.0477208 0.151068 -0.287446 -0.0897064 0.133769 -0.0776817 -0.277059 -0.206337 -0.181672 -0.0955081 0.0462385 -0.0527244 0.0638564 -0.0188338 0.00816731 -0.0495341 -0.301067 -0.0559786 0.0871518 0.0693068 -0.137042 0.141348 0.148964 0.0122297 0.0666005 -0.198602 -0.0462596 0.0559124 -0.113392 -0.0129971 0.186007 0.170678 -0.0344308 0.026149 -0.21487 -0.20678 
-0.172649 0.181152 -0.105931 -0.0964672 0.128853 -0.0882923 -0.187224 0.0716152 0.104818 0.128883 0.00968842 -0.0666859 0.095631 0.0637052 0.0209505 -0.208781 -0.0603485 -0.0648007 -0.124883 0.0528462 0.0090961 -0.0870704 -0.0912636 0.0752778 -0.0207901 -0.0418639 -0.215112 -0.038254 0.10435 -0.223975 0.212802 -0.0513873 0.0199395 0.0975063 0.0647354 0.00916181 0.140895 0.12824 -0.15249 0.119533 -0.0878297 0.0859534 0.0427402 0.029106 -0.0964625 0.0913806 -0.201959 -0.103055 -0.146651 0.00641434 -0.177748 -0.0941197 0.183278 0.113355 0.0107739 0.0216805 -0.248104 0.131367 0.0118056 -0.128372 0.0150076 0.0427978 0.0267852 0.0466643 -0.046008 -0.155243 0.0996916 -0.0111055 -0.211669 0.00847767 0.0127066 -0.0277811 0.116508 0.0983221 -0.00382152 0.0134396 -0.148247 -0.188256 0.0408768 -0.103484 0.231804 -0.064207 0.0536848 0.283917 -0.0318546 0.0254159 0.049526 -0.270835 0.14421 -0.0817635 0.0736592 0.0991557 0.0436415 -0.0364621 -0.207812 0.11958 0.0712446 -0.0965441 0.101804 -0.107883 -0.0325814 -0.162577 -0.0493269 -0.160025 -0.03631 0.0995031 0.00555979 -0.0680588 -0.0341004 -0.0248007 -0.0781078 -0.152977 -0.16178 0.0951168 -0.0452004 -0.195708 0.0488152 0.0808404 0.0742695 0.0199947 -0.00536793 -0.301046 -0.104076 0.0874791 0.0596642 0.0811935 0.349282 -0.244243 0.142026 -0.247379 -0.104599 0.108415 -0.0728789 0.154505 -0.169841 -0.0578716 0.075915 -0.0259549 -0.0518116 0.0255755 -0.0208974 0.136986 -0.0818196 0.0738855 -0.0805667 -0.0276979 0.11265 -0.173876 0.111917 0.172054 0.0893054 -0.164969 -0.0206602 -0.0341484 0.123347 0.045108 -0.156861 -0.259424 0.0333017 0.184449 -0.0188674 0.0443218 -0.0835769 0.0717366 -0.00583611 0.127508 -0.0373001 0.128153 0.093693 -0.123258 -0.176979 -0.0151738 0.0451067 0.0835817 -0.0287984 -0.0450858 -0.0285227 -0.137894 0.10925 -0.191158 -0.141919 -0.0749683 -0.00234973 -0.0492943 -0.0179642 0.230668 0.0474561 -0.125974 0.219845 0.00471453 0.0735221 -0.0421994 -0.109338 -0.0562623 -0.209624 -0.133431 0.0590138 -0.0637279 -0.0737191 0.0625544 0.00315186 0.138282 0.136761 0.163396 0.153209 -0.12896 -0.221552 0.114141 0.0541295 -0.0127837 -0.0198038 -0.211129 0.323405 -0.155235 -0.085465 0.0545827 -0.0629212 0.06335 0.0562733 0.0159349 -0.0715956 -0.0959184 0.0807498 -0.128019 -0.379738 -0.0274308 0.0985427 -0.0851016 -0.149716 0.0356932 0.308742 0.146167 0.0291546 0.00820851 -0.309457 0.0430681 -0.107462 -0.131533 0.0684847 -0.115511 -0.0140812 -0.0101634 0.0621247 0.048058 0.0470554 0.204327 -0.075064 -0.024305 0.0214325 -0.0690562 -0.0901595 -0.0108006 -0.144978 -0.102654 0.0646905 0.0170295 -0.275466 -0.057507 0.0564943 -0.0787234 -0.23137 0.118852 -0.139829 0.260968 0.123848 0.110474 -0.213903 -0.0495485 -0.0662416 -0.0650742 -0.0681538 0.191769 0.19042 -0.0874816 -0.0267793 -0.138428 0.0887956 0.118863 0.109048 0.0711539 0.010206 0.128662 -0.198202 -0.176524 -0.021584 -0.110843 -0.133263 -0.192131 0.109693 -0.050875 -0.0580591 0.115911 0.0559661 0.0347569 0.0996781 0.168748 -0.129788 -0.144084 -0.0196059 0.0103374 -0.0291683 -0.0505365 0.0439381 0.14654 -0.0897993 0.195444 -0.268496 -0.0529334 0.0455048 -0.0848439 0.130459 0.0232077 0.032656 -0.0858618 0.0530433 0.00369805 -0.0807854 0.0156671 0.0088459 0.138355 -0.0142597 -0.0675712 0.0444747 -0.0506775 -0.10527 -0.196144 0.146932 0.123338 0.0966409 -0.0724322 -0.110646 0.150425 -0.106391 0.0913078 -0.0089337 0.264244 -0.0373561 -0.0504871 0.0455023 -0.139628 -0.180922 -0.0419611 -0.0511549 0.0327593 0.342383 0.0796928 0.0490924 -0.198436 -0.089992 0.00670521 0.0111289 0.068518 -0.00209369 -0.122073 -0.108813 -0.116911 0.0761766 -0.00516434 0.0261372 -0.0140396 -0.221887 0.141616 0.173783 0.153191 0.0634012 0.125353 0.0786896 -0.249489 0.0284456 0.0979137 0.122252 -0.137254 0.121501 0.020703 0.136099 0.18477 -0.161615 0.0246999 -0.0312585 -0.00213604 0.047879 0.0807048 0.112589 -0.0908225 0.087033 0.176284 0.195774 -0.217723 -0.132587 0.161494 -0.20106 0.0429471 0.17182 0.0756508 0.0269358 0.225912 -0.107949 0.151292 -0.021835 0.236884 0.0581132 -0.109194 0.116113 -0.306001 -0.182911 -0.155359 0.068773 0.114114 -0.0397183 0.0290611 0.156752 -0.0367881 -0.0391308 0.220379 0.075791 0.278069 -0.00965523 0.0780084 0.0618985 -0.0175791 0.00820137 -0.012731 -0.0563554 0.0116278 -0.125193 -0.192845 0.113387 0.162243 0.0313297 0.0458412 -0.0877944 -0.0441884 -0.0478167 -0.230294 0.198615 -0.106187 0.0254943 -0.0371862 -0.150016 -0.0655606 -0.0510833 -0.0342484 -0.0221391 0.0530531 -0.0181935 -0.0619302 -0.0407959 -0.00838932 0.179356 -0.0805966 0.105734 0.016711 -0.0458689 0.0391304 -0.203995 0.0642786 0.191553 -0.0935912 -0.000944659 -0.227112 -0.099768 0.221099 -0.0893775 0.118405 -0.087383 -0.335636 0.103221 -0.026661 0.331053 0.0775399 0.150856 0.155265 -0.0118242 -0.0129658 -0.185807 0.0273936 -0.107294 0.0935829 -0.0596525 0.0902991 -0.123732 -0.0666831 0.0961756 0.0321584 -0.096614 0.00246719 -0.127042 0.00239576 -0.0730384 0.0230293 -0.0966373 -0.152436 0.0509622 0.157898 0.258544 0.0248659 -0.0281065 0.061734 -0.101141 -0.211914 -0.0187533 0.0840473 -0.0618841 -0.110202 -0.0376322 -0.108854 0.134951 -0.34259 0.00806761 -0.0365243 0.0857436 -0.259563 
-0.118171 0.149238 0.108736 0.234861 -0.143194 -0.0110748 0.14392 0.131874 -0.039453 -0.11406 0.0571969 -0.030762 -0.134878 -0.0182046 0.0309184 0.0733834 -0.195355 -0.258551 -0.019626 0.139712 0.0822043 -0.0189383 -0.100562 0.0508515 0.0180555 0.00519534 0.062581 0.0599243 0.0675948 0.0271986 -0.0508003 -0.0122932 -0.118805 -0.0606785 -0.141281 -0.052664 0.0586122 -0.00450981 0.118745 0.00269991 -0.00427617 0.152741 -0.0991662 -0.0658138 -0.172371 0.0221535 -0.18616 0.0897373 0.0553181 0.059658 0.379238 -0.0935371 0.0294911 -0.058261 -0.199859 0.0725252 0.0523211 0.11348 0.388739 -0.0024915 -0.0766521 -0.129935 -0.09859 -0.271518 -0.0206713 -0.052598 -0.000638477 -0.0121655 -0.0813561 0.0251976 0.0194505 -0.0422789 -0.0740235 0.266414 0.0992173 0.13467 -0.0148972 0.157026 -0.0184342 -0.141568 0.100181 0.101687 -0.243156 0.0046271 -0.043727 -0.0712499 -0.0838386 -0.00620405 0.149233 0.0116725 0.0385193 0.1031 -0.0257862 -0.220435 0.0352387 0.011354 -0.10997 -0.051252 0.0732656 -0.0853633 0.0673477 0.135994 -0.100944 0.207035 -0.00681804 0.134665 -0.00940726 0.0792043 -0.0283382 -0.106975 -0.048666 0.126505 -0.00927457 0.101709 0.100044 -0.00328311 -0.0374673 -0.037712 0.144477 -0.073656 0.0234726 0.0744131 -0.0149564 0.147486 -0.106765 -0.221366 0.0592043 -0.160232 -0.0520456 0.0266061 -0.156953 0.0110718 0.0859944 -0.0766472 0.25425 -0.0565389 0.0366903 0.0865779 -0.0615911 0.168791 -0.0197748 -0.157189 -0.0280547 0.0722129 0.110057 -0.10044 -0.00885903 0.0248498 0.135084 -0.133917 0.242098 0.0269735 0.103454 0.0606318 -0.0185254 -0.0254641 0.000674511 -0.0481765 0.160426 -0.0220321 0.0666164 0.117154 -0.0136323 0.119346 0.0097523 0.189071 -0.129421 -0.00418141 0.0069687 -0.0518872 -0.00649778 -0.167192 -0.197517 0.179555 -0.077937 -0.177449 -0.0007109 0.0650404 0.0619006 -0.106339 -0.184657 -0.0852097 0.185446 0.0257123 0.220749 -0.0793408 0.0531913 -0.125254 -0.0602858 0.190636 0.19483 0.232645 0.0303442 -0.0895676 -0.053518 0.00899493 0.0931227 0.00335107 0.0636055 -0.102085 0.0416688 0.239906 -0.15147 -0.092276 -0.0670874 0.0296682 -0.148623 -0.143937 -0.270166 0.128814 -0.118297 0.0863652 -0.0477637 0.0537615 -0.0220415 0.0671108 0.023698 0.0300126 0.147594 0.244164 0.113422 -0.125745 -0.108755 0.0271509 -0.104783 0.247789 0.0922701 -0.182729 -0.112691 -0.124717 0.040661 0.0565258 -0.0128892 0.00192644 -0.182824 -0.0277623 -0.189424 0.0806554 -0.107631 0.133154 -0.124746 0.0270117 0.122073 -0.170804 -0.0633558 -0.437734 -0.181018 -0.0808217 0.0921772 0.0620541 -0.150153 -0.00220029 -0.210493 -0.163143 -0.0265557 0.0781965 0.0626465 -0.0486816 0.130724 -0.0217511 0.175841 -0.0962452 -0.275013 -0.0736113 0.0206185 0.225453 0.222748 0.249368 0.191483 -0.165959 0.0874096 -0.107965 0.0162287 -0.0310092 0.0574305 -0.0461033 0.0413575 -0.0792828 -0.105421 -0.0624703 -0.0790244 -0.0548861 0.361005 -0.0317586 -0.188378 0.0642127 -0.0714107 0.122015 -0.119698 -0.0537774 0.111412 0.035754 0.0664685 0.0146219 0.0546434 -0.0704771 0.103395 -0.0278795 -0.159259 -0.0642566 -0.138978 0.187024 -0.0713371 -0.163259 -0.0443663 -0.0637252 -0.143572 0.127742 0.118105 -0.121507 0.0739994 0.112096 -0.0612908 0.0409587 0.152486 -0.0741705 -0.0633122 0.205139 0.101888 -0.00815749 -0.0997231 0.0731165 -0.165974 -0.0634747 0.0701194 0.0844129 -0.0801676 -0.137184 0.019199 0.0192206 -0.110244 -0.0336332 -0.0754785 0.107752 0.256792 -0.154894 0.0514749 0.176008 0.00979413 -0.153881 0.0931535 0.0787888 0.132359 0.0798234 -0.0928315 -0.0314912 0.0415751 0.0682529 0.117812 -0.140659 0.209253 0.106993 -0.0493172 -0.062364 0.135257 -0.0935968 0.198397 0.0546335 0.0521404 0.0637032 -0.103219 0.0619878 0.000672255 -0.0690797 0.207533 -0.0107372 -0.288471 -0.154348 -0.042424 -0.150576 -0.212677 0.126458 -0.0382885 0.0279947 0.164199 0.305792 0.0155448 -0.160426 -0.121218 0.10936 0.111481 -0.0785818 0.0282016 -0.21326 0.106136 -0.0227415 -0.0873322 0.290023 0.242179 0.0982031 -0.155143 -0.151975 0.183666 0.0845502 0.26199 0.0109293 -0.0615472 -0.0521811 0.00553989 0.0332689 -0.0953722 0.0399449 -0.0913262 0.05378 -0.00821212 0.0682634 0.102962 -0.0961867 0.251196 0.0774016 0.0372524 -0.0391697 -0.0588588 -0.0196804 0.298296 0.0669888 0.110423 -0.0175225 -0.236659 -0.0146805 0.0944577 0.164837 0.171967 -0.115208 -0.0852964 0.069309 -0.184958 0.126269 -0.0673251 -0.0970434 0.00285852 0.0930596 0.0472746 0.172311 -0.109863 0.0722306 -0.219567 0.1163 0.287605 0.256219 -0.0544845 0.0156973 0.206675 -0.0781958 -0.204533 0.131518 0.0187215 0.0923762 0.126236 -0.0886561 -0.126935 -0.0446737 0.070573 0.0468916 0.0132187 -0.0204481 0.0178137 0.142561 -0.122879 0.0668091 0.00448005 0.213968 -0.119879 0.00915823 0.0128884 0.171051 -0.025306 0.167419 -0.0381599 0.232522 -0.141887 -0.146746 0.00871436 -0.096225 0.0549434 -0.315243 -0.0197646 0.00797383 0.0490507 0.0393182 -0.262727 -0.152342 -0.0524704 0.115773 0.144878 0.11549 -0.124222 -0.0841743 0.0523545 -0.0128358 -0.140825 -0.0584005 -0.0281459 0.227435 -0.124571 -0.140848 -0.0505495 -0.0307049 0.102751 0.217674 -0.157965 0.178786 0.0488451 -0.182942 -0.057171 0.0677603 0.161046 0.158642 0.0335396 -0.0714899 -0.0874298 -0.237161 
-0.0496094 -0.350371 0.00277349 0.0476233 0.148194 -0.171686 0.0431372 0.030004 0.140974 -0.20606 0.184368 0.237725 0.0584785 0.00607941 0.00419174 -0.146987 -0.0883241 0.168399 -0.0848993 -0.189607 0.0770137 0.0398522 -0.0175118 0.0453022 -0.19635 -0.180643 -0.0331588 -0.0208285 -0.0668318 0.257734 0.178642 -0.0324855 0.393876 -0.0591684 -0.0489689 -0.120954 0.304915 0.040236 -0.182179 0.0858715 0.163692 0.177003 0.139545 0.0446908 -0.0453378 -0.00675154 0.00926664 -0.172838 -0.188093 -0.128286 -0.156696 -0.103105 0.0793589 -0.151046 -0.105032 0.168569 0.0570734 0.0646141 0.0197731 -0.11533 -0.05227 -0.0204146 0.0744726 0.0585826 -0.0243227 -0.149386 -0.188077 0.1199 0.0791567 -0.0306243 -0.0324568 0.107969 -0.273098 -0.134495 0.0968725 -0.0863948 0.0324812 0.149577 0.2492 0.0570274 -0.0502937 -0.0850801 0.044235 0.0843666 0.103711 0.0404124 -0.0989258 0.0730301 0.0775227 -0.155368 0.0330922 -0.229731 -0.0059968 0.120539 0.0305202 -0.036542 0.0379377 -0.0809896 0.0546593 -0.0445756 0.0170265 0.0724166 0.0776785 0.124218 -0.215061 -0.116221 -0.106942 0.300979 -0.145174 -0.105888 0.208321 0.043279 0.224624 -0.147143 -0.136821 -0.183111 -0.000811712 0.132426 -0.306901 -0.167002 -0.032293 0.0802195 -0.144869 0.0988152 0.0341272 -0.250141 0.0875317 0.0259239 0.0947048 0.0530645 0.109467 -0.230036 -0.0896477 -0.0846508 -0.0545569 0.213819 0.196774 0.134374 0.132981 0.0704993 0.0261189 -0.0764684 -0.17145 -0.0660803 -0.0851095 -0.115587 0.112441 -0.0161431 -0.0516513 0.0661268 0.101469 -0.105662 0.0530578 -0.0475407 0.180708 -0.0620632 -0.0834583 0.114318 -0.215587 0.226823 0.235633 0.088036 -0.168769 0.0951426 0.117427 -0.0530313 -0.0259486 -0.00492316 0.0997119 -0.0364432 -0.0930548 -0.0486017 0.0143825 0.0852082 -0.0754465 -0.124034 -0.104284 -0.0184155 -0.0552789 -0.122303 0.0998532 0.165812 0.22122 -0.0720468 -0.16262 0.0281691 -0.0567483 -0.159185 -0.273317 0.0724981 -0.13503 0.0397646 -0.212325 -0.135541 -0.131665 0.044571 -0.182341 -0.107788 0.302765 -0.0733085 0.03794 -0.0121768 0.282206 -0.0675136 0.126714 -0.0922269 0.0847622 -0.0447571 0.0336533 -0.0833182 -0.0434445 0.225918 -0.178803 0.178564 -0.458961 -0.0641463 -0.0945137 0.078865 0.0517704 0.147752 0.14391 0.0380141 -0.0121402 0.0325971 0.0575871 0.0409631 0.0587835 -0.104787 -0.0642144 -0.052375 -0.0887137 0.127754 -0.0495762 0.141068 0.10966 0.174234 0.105165 -0.0267177 -0.0552689 0.32901 0.052426 -0.0170671 -0.096415 0.24301 0.0525987 -0.115998 -0.110548 -0.0572567 0.0678268 0.00858467 0.127016 -0.182987 -0.0841851 0.136441 0.101978 -0.193034 0.0283934 0.143131 -0.0952961 0.0744478 0.0180122 -0.0515885 -0.159485 -0.0265987 -0.152259 0.14584 0.0780119 -0.00590351 -0.217016 0.15728 0.111542 -0.265704 -0.083855 -0.0635193 -0.00603031 0.0300688 -0.199029 0.043195 -0.0837594 -0.104469 0.078274 -0.00640653 0.0790624 0.0831499 -0.0049739 -0.00962835 -0.22268 0.135901 -0.0569347 0.130672 -0.153566 0.0196396 -0.119823 -0.0372516 -0.0998157 -0.131314 -0.101994 0.0433226 -0.0413402 0.132312 -0.124901 -0.0798662 0.185035 -0.133999 -0.0789485 0.0650458 -0.0695176 0.309531 -0.00219801 0.0928747 0.101657 0.145836 -0.0558738 -0.00431129 -0.151622 -0.183161 0.115498 -0.170891 -0.0577052 0.19519 0.0365234 -0.138958 0.0226581 0.00787647 0.0647082 -0.047662 0.00903115 0.135901 -0.107923 0.0254204 0.00365124 0.0117245 0.127447 -0.0771774 0.256484 0.246245 0.102437 -0.035182 -0.289665 0.0313507 0.0412947 -0.00140049 0.0661669 0.00333304 -0.147314 0.0384046 -0.0962488 0.0383132 -0.0267038 0.0215806 -0.0340835 -0.0963104 0.0776798 -0.0180068 -0.0558151 -0.0974395 0.126463 0.15531 0.0700547 -0.0266548 0.0888232 -0.0409351 0.1062 -0.0284241 0.0359288 -0.116946 -0.0349326 0.0305702 -0.125524 0.0197523 0.215589 -0.252141 -0.0971117 -0.02528 0.0916909 -0.0238966 -0.0317558 0.164714 0.0745388 0.0198698 0.0376491 -0.0329277 -0.112349 -0.287482 -0.383271 -0.293034 0.0701856 0.145414 0.0478518 0.0411078 0.0553206 -0.012104 0.147766 0.0664497 0.244859 0.197247 -0.00434768 0.136537 -0.0481783 0.12133 -0.0403733 0.286783 0.142584 -0.0590113 0.0439888 -0.00365101 -0.042648 -0.193598 0.0122347 -0.0215178 0.115278 0.0952212 -0.285328 -0.161057 0.0873262 -0.0295209 -0.141501 -0.0534072 -0.0784189 0.18998 -0.108531 -0.233871 0.049919 -0.00810492 0.041152 -0.0570632 0.196747 -0.0307374 0.321749 0.0635732 0.0311901 0.132249 0.0783466 -0.257542 0.0347286 -0.0323949 0.189682 0.00880144 -0.0469696 -0.0354945 -0.014851 -0.031797 0.00678725 -0.0775991 -0.0640608 -0.100434 -0.10184 -0.161555 0.104569 0.0852363 -0.114258 -0.118274 0.0210012 0.0702724 -0.0215205 -0.0909687 -0.18153 -0.0510978 -0.046438 0.0503713 0.065255 0.0141669 0.11954 0.198629 -0.0866728 0.0412224 -0.117492 0.0798996 -0.0601481 -0.00380879 -0.0835217 -0.155746 0.300845 0.0357614 -0.0472034 0.22295 0.0278085 -0.0662765 0.00584489 -0.0458813 -0.115607 -0.171332 0.043823 -0.135462 -0.100668 -0.0270529 0.0257613 -0.0917856 -0.27084 0.0961791 -0.0410175 -0.186576 0.169028 -0.240287 0.27397 0.0276427 0.00436459 0.0249458 -0.076533 0.157749 -0.135704 -0.220504 0.0671733 0.00522373 -0.0272082 -0.00341721 0.100311 -0.0775427 0.0680799 0.0226607 -0.0824584 -0.0950552 
-0.0579504 -0.0412621 -0.010598 0.119127 0.285788 0.130194 0.0254554 -0.0177701 0.0446903 0.0228578 -0.0705408 0.0495434 0.164363 -0.0481357 0.152638 -0.139566 0.240524 0.091795 -0.0479884 0.023088 -0.0457073 -0.119112 -0.0150944 0.0348566 0.0482273 -0.0147486 0.0290371 0.0903441 -0.0310863 -0.0963369 0.0509402 -0.0306971 0.00217351 -0.14658 0.181842 -0.0624195 -0.139097 -0.00806515 0.0236237 -0.213842 -0.165063 0.0703789 0.248028 0.273185 0.116522 0.133054 -0.075306 -0.342537 0.0441927 0.0409988 0.0209603 -0.138272 -0.00959687 -0.0278976 0.127262 -0.111823 -0.124434 -0.196353 -0.150799 0.261716 0.0755178 -0.0637078 0.00636724 0.108497 -0.0157997 0.168827 -0.0905707 -0.0318678 0.0502626 -0.226777 -0.0311066 -0.10066 -0.0845736 0.174104 0.183309 0.0357054 0.0616591 0.389477 -0.140223 -0.0835965 0.0669574 -0.0267028 0.10041 0.0479156 -0.0170536 -0.202121 -0.00533042 -0.0384913 0.193763 -0.123267 0.0771643 -0.0723952 0.0202252 0.171309 -0.0604995 -0.023934 0.0506073 -0.0460879 -0.16815 0.175775 -0.10132 0.0351957 -0.0550905 0.0797499 -0.119076 0.0820709 0.197981 0.0340309 0.0159606 0.0481686 -0.207643 -0.0168182 0.150748 0.169615 0.0220669 -0.0359174 -0.00710914 0.165566 -0.102849 -0.0124152 0.0337767 -0.0785119 0.0708074 -0.0469332 0.0592922 -0.0876015 -0.0489267 -0.0317261 0.0474042 0.108888 -0.181645 0.242196 -0.151611 0.111809 0.0689065 0.0291813 0.18413 0.0606662 0.058717 -0.103684 0.1502 -0.0651878 -0.104103 -0.0374772 0.0264609 -0.024785 0.0201392 0.055165 -0.136492 -0.00147294 -0.046743 -0.0463709 -0.13413 -0.0359549 -0.0977573 -0.115341 -0.060173 -0.1921 -0.184602 -0.240993 0.00334214 -0.204331 -0.153784 0.162544 -0.152248 0.262117 0.156683 -0.0245823 0.0863054 0.0472694 0.0473515 -0.00262753 -0.0905983 -0.16121 0.0312185 -0.130947 -0.0967948 -0.134943 0.0916538 -0.091641 -0.111365 -0.209339 -0.127464 -0.0491631 0.0925328 0.114968 0.0873181 0.0260737 0.0861339 -0.0696744 -0.125721 -0.0639307 -0.0625211 -0.0912202 -0.0121381 -0.229765 -0.12765 0.318618 -0.0378131 -0.00754766 0.0616351 -0.0162275 0.103454 -0.0286425 -0.151146 -0.0689391 0.154618 0.431341 0.116695 0.0179319 -0.0189358 -0.0533668 -0.253792 -0.167108 0.15346 0.00417426 -0.187097 0.0585703 -0.181755 -0.164086 -0.048363 -0.14742 -0.0195033 -0.0999882 0.102179 0.0878341 -0.135906 0.118427 0.111049 0.0711161 0.042882 0.0121291 -0.122057 -0.0453332 -0.0939597 -0.149645 0.18912 -0.0999103 0.0242296 0.0880518 0.149176 0.129978 0.019601 0.0157357 -0.114268 0.224135 0.134168 0.0568881 0.175608 0.159591 -0.138864 -0.0423087 -0.111542 -0.0125668 -0.0954484 -0.0433492 0.055291 0.0538116 -0.000884235 -0.127439 0.0031349 0.193842 -0.0190112 0.0698567 0.061453 -0.251408 0.297027 -0.199778 0.215008 -0.110151 0.0404985 0.103641 -0.169568 -0.0293341 0.0269065 0.133324 -0.155246 0.106694 -0.0142968 0.0722542 0.228095 -0.045691 0.0644327 -0.200777 0.146769 -0.116603 0.094667 0.0288661 0.126045 0.0629635 0.12078 0.0113557 -0.0961518 -0.144998 0.0519729 -0.0512759 0.104087 -0.0807732 0.105098 0.190516 -0.0102164 -0.0343537 0.283807 -0.221822 -0.0617763 0.0172197 0.153171 -0.31477 -0.0298454 0.150942 0.0336347 -0.170541 -0.0199209 0.162053 -0.146775 -0.281998 0.193985 -0.317184 0.044589 -0.176398 -0.00808501 0.248272 0.00405303 -0.13312 -0.136657 -0.141469 0.0236293 0.0809332 0.13306 -0.21191 -0.276387 0.110144 -0.0290121 -0.117634 -0.00874609 0.00992314 0.062494 0.171447 0.0124662 0.120107 0.00646874 -0.163873 -0.221706 0.253292 -0.180622 0.0860841 0.00933103 0.110921 -0.00486388 -0.120571 -0.180684 -0.173241 -0.100492 0.348416 0.0394833 0.112947 0.176718 -0.142458 0.145329 -0.085393 -0.146398 -0.037548 -0.145371 -0.351497 0.10646 0.00685991 0.169413 -0.179279 0.115332 -0.0844333 -0.187314 -0.125076 -0.189573 0.0518249 -0.0509489 -0.201476 0.0512935 0.0825876 -0.0578967 0.0593637 -0.0361845 0.22686 -0.162217 -0.0383821 -0.12056 -0.0408087 -0.0228735 -0.198579 0.0472672 -0.0128648 -0.156094 -0.0480309 -0.0709744 -0.362983 -0.0706589 0.0362125 -0.145518 0.0363526 0.0999626 0.112861 -0.0639204 0.129762 -0.079069 0.0373674 0.0757042 0.213058 0.47915 0.139377 -0.262986 0.123502 0.043362 -0.0958364 -0.0202403 -0.0839582 -0.258741 -0.0295834 0.0570646 0.0698162 0.0728847 0.243071 -0.063545 0.110467 0.0826087 -0.0336673 -0.0404157 0.0770336 0.131435 -0.0223564 -0.00585691 0.139636 0.196651 -0.231472 0.00701251 0.141913 0.0340845 1.17861e-05 0.27175 0.180348 -0.111698 -0.00490206 -0.0623228 0.161972 -0.0552162 -0.138113 0.0656076 -0.0242152 -0.00027973 -0.171571 -0.130279 0.193493 -0.150922 -0.140859 -0.0736432 0.0259317 -0.103821 0.0082729 -0.102181 0.100485 -0.19913 -0.241343 -0.139783 0.223998 -0.156683 -0.048292 -0.0802723 0.122942 -0.0261929 0.0911507 -0.0396587 -0.18646 -0.077473 0.0179838 -0.11362 0.026632 0.0530457 -0.0514472 0.0550829 -0.0244671 0.000281168 0.110037 -0.137166 0.110792 0.196167 0.00429773 -0.0190825 -0.235446 0.0250646 0.0464483 -0.121493 0.191685 0.124266 -0.215539 -0.0440566 0.239826 0.0486691 -0.302539 -0.0350545 -0.0967695 0.108747 0.0490543 -0.155157 -0.0952011 -0.0573605 -0.0136344 -0.13222 -0.0412796 -0.0865278 -0.0504054 -0.163516 -0.0239933 -0.198096 -0.199419 
0.144867 -0.197476 0.247699 -0.113387 0.0940048 0.137815 -0.135377 -0.121712 0.082371 -0.0774394 0.180265 -0.271626 -0.0228446 -0.0148916 0.123715 -0.099813 0.15742 0.0253523 -0.00160464 0.0869689 -0.0692435 -0.139719 -0.108003 0.151877 -0.101395 -0.117728 -0.0222551 -0.109826 0.272797 -0.0853532 0.111389 0.0414291 -0.217218 -0.276067 -0.0457329 0.160904 -0.120588 -0.100622 -0.0591376 0.191927 0.105051 0.0311415 0.0443529 -0.0311449 -0.0572574 0.0506028 0.0844618 0.0636347 -0.168061 -0.0984388 0.0353842 -0.148141 0.01064 -0.0271201 -0.156879 -0.0874766 0.0542128 0.0422381 -0.0407381 0.0724078 0.287533 -0.00136758 -0.119764 0.0972604 0.075683 0.222978 -0.036317 -0.0981189 -0.0159702 -0.0283521 0.101739 0.00789365 0.154272 -0.0566631 -0.213234 -0.0984814 0.0284803 0.134565 0.00408364 -0.114775 -0.0592474 -0.130886 -0.144685 -0.046015 -0.0930139 -0.0159912 -0.0358872 0.127948 0.00339477 0.04794 -0.260009 0.133254 0.160655 0.181379 0.103917 -0.116419 0.0876472 -0.034051 0.162122 -0.0535132 -0.0459422 -0.169794 0.0311482 0.184242 -0.0908874 0.0925423 0.0755632 0.0503682 0.107509 -0.128661 -0.0964759 -0.0235771 -0.138669 -0.0211716 0.0606097 -0.0195732 0.114757 -0.0763888 0.185171 0.0938221 -0.0706 -0.0444503 -0.129305 0.0289688 0.0440024 -0.00610212 -0.161877 0.00554982 0.2082 0.129777 0.172975 -0.0401024 -0.0276129 -0.0315537 -0.0502221 -0.108604 0.062821 0.200066 0.0714995 0.0202469 0.103897 -0.0950071 -0.0338416 0.0790666 -0.00354862 -0.0483895 0.15563 -0.191568 0.0144592 -0.0560757 0.108925 -0.105084 0.162809 0.354217 -0.10738 0.0362788 0.0346979 -0.00677047 0.0310076 0.0833976 -0.00946548 0.0522424 0.0351903 -0.0544158 0.081232 -0.12344 0.0722115 0.0119602 0.100235 0.242003 -0.223546 0.0358404 0.0659548 -0.0452347 0.0884293 -0.0332312 -0.144244 -0.00775712 0.0636201 0.239832 0.123665 -0.000315244 -0.00883177 0.0231909 -0.072034 -0.106867 0.029679 -0.0527091 0.209539 -0.123015 -0.102637 0.202375 -0.0219057 -0.0434544 -0.0459388 0.0361829 -0.0847877 -0.0351095 0.01553 -0.27728 0.0262489 0.0727459 -0.0927773 0.0363289 0.0713696 0.080482 0.0191147 -0.0638358 0.236676 -0.159174 -0.0036557 0.0909092 -0.148339 -0.0417204 0.0656224 0.151353 -0.0272276 0.122026 -0.0577594 -0.0272705 -0.0888118 -0.0199668 0.178165 0.0466677 0.0499732 -0.012541 -0.050313 0.128232 -0.00799048 0.0245621 -0.0235534 0.0634067 0.127481 0.0117264 -0.0209975 -0.11706 0.0183536 0.0683475 0.250071 -0.323428 0.231058 0.11882 0.0802124 -0.161847 0.163803 -0.227081 0.0687163 0.264921 0.0776457 0.00477021 -0.00113846 0.087284 0.104072 0.0408565 -0.0625206 0.0810976 0.0368387 -0.196658 -0.0476093 0.0466944 -0.0721504 -0.0876205 0.0597438 0.0364771 -0.0988865 0.0981259 -0.154881 -0.0432103 0.0905653 0.00943896 0.0852576 0.105292 0.0866621 -0.0545976 -0.0354904 -0.309443 -0.0209829 -0.00125972 -0.0443898 0.00537427 -0.0496667 -0.171946 -0.070811 0.153584 -0.155729 0.0540433 0.106823 0.0729995 -0.296416 0.0122016 -0.0362812 0.0799533 -0.0220401 -0.183228 0.0295881 0.134863 -0.171861 0.00886903 -0.156726 0.183599 0.0338959 0.0539915 -0.0237873 0.143416 0.0219849 0.0365319 -0.0622869 -0.00924021 -0.0614271 -0.0366516 -0.101966 -0.118477 0.00746085 0.0883913 -0.125102 -0.0282458 0.302831 -0.0191985 -0.256475 0.228345 -0.077035 0.105692 0.0692987 -0.0240535 0.122001 -0.0965494 0.182151 0.108381 -0.0987567 0.229674 0.104899 0.116266 0.0731189 0.00889632 0.308553 -0.155254 -0.0224971 -0.118127 0.0906748 -0.0415922 -0.0529691 -0.229423 -0.0554683 0.0273327 0.00193184 -0.191362 -0.0404546 0.0754544 0.176037 0.182437 0.0646995 -0.119359 0.108076 -0.0533211 -0.0680008 0.0432854 -0.12541 0.0478139 0.0772035 0.166402 0.000659325 -0.0867554 0.0513249 0.200321 0.338246 0.1997 -0.265162 0.107912 0.0367784 -0.0745209 -0.0862915 0.17927 -0.01117 -0.0295619 0.0411808 0.114826 -0.0292622 -0.157192 -0.0518862 -0.0879522 -0.0542688 -0.0540023 0.0185944 -0.0663553 0.260972 0.00309545 -0.128121 -0.238641 0.145039 0.0280095 -0.175021 0.00894415 0.270851 0.00979951 0.09215 -0.0519264 -0.0415225 -0.0995943 -0.0966086 -0.0872667 0.0717201 -0.245225 0.0746094 -0.101288 0.0489859 0.310364 -0.0286314 -0.0916369 0.254327 -0.0839007 0.0707203 -0.00837594 -0.0317612 0.146893 -0.103442 0.205821 0.114665 -0.0176703 0.04168 0.190936 -0.0847098 -0.0317471 -0.0929103 0.248943 0.261533 -0.0052618 0.125732 -0.0754292 -0.0939981 -0.187078 0.00700525 0.161789 -0.0161982 0.00227506 0.0572211 -0.105939 -0.232982 -0.128308 -0.186589 -0.0335397 -0.00532747 -0.302522 -0.049681 0.200478 -0.00880406 0.0530256 0.106185 -0.00734461 -0.0727506 -0.0172647 0.0705412 0.0227389 0.138633 -0.210585 -0.157387 0.284169 -0.0215338 -0.152205 0.012765 0.209543 0.230966 0.097244 -0.178346 0.13338 0.0322772 -0.0393104 0.0313273 0.17022 0.122435 0.208989 -0.241685 -0.147401 -0.148871 -0.00557368 0.143021 -0.0538777 0.111399 -0.250969 -0.0451416 0.19503 -0.177749 -0.0896582 -0.0692905 0.0996645 -0.166182 0.0343038 0.154325 0.0113675 0.0218071 0.165271 -0.0159623 -0.0582107 0.00459679 0.0737465 -0.269103 -0.183235 0.0734427 0.0501426 -0.198301 0.188359 0.0931442 0.0331906 -0.15274 -0.0687716 0.169652 0.172471 0.00812242 -0.0777892 -0.0468093 0.0172668 0.185933 -0.117871 
0.100088 0.0314175 0.0100209 0.0717044 -0.0452073 0.0255179 -0.0116733 -0.0477937 0.0137726 -0.142964 0.188751 -0.277969 -0.126417 -0.0383631 -0.232767 -0.123251 0.223822 -0.0738047 0.243735 0.0116308 -0.0983447 -0.110194 0.0577532 0.285896 -0.00807754 0.0143996 0.0114805 0.0388446 0.0397693 -0.0896643 0.0881374 -0.109787 -0.0221289 -0.0105877 -0.253007 -0.0155438 0.0129454 -0.0412311 -0.00373167 0.0676364 -0.248714 -0.167075 -0.163245 0.212366 0.0883664 0.181606 0.00675369 -0.0234652 0.0100574 -0.289567 -0.0525236 -0.0615832 0.0628869 -0.0682199 -0.00222137 0.157647 -0.00316199 0.0915975 0.00686654 -0.0256081 0.0305103 0.0539414 0.014259 -0.0387809 0.160868 -0.0421664 0.180576 -0.0362278 -0.0473072 -0.176179 0.191908 0.175469 0.114238 -0.166595 -0.0439255 -0.0693206 -0.0668251 -0.107949 0.192175 -0.129187 0.0304394 -0.0621678 0.190439 0.176189 0.036036 -0.0646257 -0.244582 -0.0932225 0.0401053 -0.0102426 0.0143009 0.185628 0.0165319 0.0737249 -0.105936 -0.0380186 0.349258 -0.0122599 -0.163156 0.0484734 0.214371 0.0267079 0.000891928 -0.232886 0.0488752 -0.21601 0.216067 -0.120152 0.103035 -0.00116081 -0.00827553 -0.178669 0.118646 0.00603595 -0.261436 0.0321499 0.206894 0.0582557 -0.0418143 -0.0732324 0.113066 0.0742549 -0.223555 0.0120004 -0.195581 -0.136 0.12599 -0.0811878 0.217873 -0.139702 0.113699 -0.0840623 -0.0735255 -0.142258 0.135466 0.106016 -0.120241 -0.0721458 0.00874543 0.0618944 0.183529 -0.135362 -0.148084 0.00705901 0.200196 -0.141887 -0.0324041 0.0159302 0.0198828 -0.00990399 0.270935 -0.0644997 0.0243243 -0.153499 -0.0377241 -0.220344 0.169344 0.155414 -0.0136522 -0.0438417 0.106102 0.000302412 -0.0400053 -0.0799094 -0.0336978 0.0562677 0.231594 0.0214513 -0.221428 -0.258382 0.000980094 2.19768e-06 -0.149489 -0.0551843 -0.160289 -0.180699 0.0926355 -0.196744 0.037455 -0.0758281 -0.0570064 0.196434 -0.0856954 -0.0527281 0.402827 0.158959 -0.117387 -0.0688328 0.0379871 -0.0148343 0.16812 0.29269 -0.0693081 -0.0205428 -0.177359 0.151474 -0.0230064 -0.102025 0.244991 0.0244076 -0.041122 0.0138524 -0.13025 -0.192989 -0.0186844 0.312604 0.195529 0.054681 0.0804983 0.124626 0.145225 0.00375189 0.106822 -0.0844188 0.0265116 0.0880667 0.0774886 0.0390886 -0.0741294 0.100259 -0.115676 -0.12768 0.00109677 0.0489617 -0.073901 0.034097 0.0784592 0.0366765 -0.000769306 0.013595 0.272296 0.00892794 0.174428 -0.139295 -0.0465085 0.00947934 0.11913 -0.107932 -0.091976 0.112149 -0.0247765 -0.0816357 0.0279592 -0.122011 -0.0620906 -0.0664405 -0.086776 0.21116 -0.0329256 0.053054 0.129349 0.354815 0.043571 0.221613 0.0666301 0.183997 -0.110753 0.0164223 0.213687 -0.106436 -0.0284773 0.0406199 -0.0296297 0.0859676 -0.0735282 -0.116914 -0.139322 -0.0268848 0.164927 -0.214634 0.210328 0.00412618 -0.130209 -0.029166 -0.0335003 -0.0246782 0.115942 -0.110394 0.0199015 -0.0185276 -0.0743693 -0.0119846 0.0297289 -0.0757906 0.296191 0.142296 -0.203402 0.114387 -0.0862824 0.133829 0.147756 -0.0941734 -0.0583776 -0.0338427 0.140301 0.182 -0.0436379 0.0880903 0.0747197 0.0106755 0.0858593 -0.331992 -0.0913849 -0.258228 -0.063479 0.164288 -0.212917 0.0312339 -0.154001 0.0814062 -0.0392919 0.00202471 0.0943347 0.225266 0.0085575 0.157423 -0.0897423 -0.0076189 -0.0789531 -0.125857 -0.331222 0.106386 0.0515849 -0.0390041 -0.227842 0.12021 0.125195 0.0699545 0.0716899 -0.0722205 -0.0632906 0.0344176 0.168315 0.0724733 -0.247988 0.1039 -0.157793 0.143724 0.033541 -0.129598 0.0356643 -0.147066 0.136671 0.0754136 -0.143191 -0.159201 -0.0886092 -0.0544517 0.14324 -0.0667377 0.104657 -0.07163 0.161681 -0.208557 -0.307134 -0.0495887 -0.104198 -0.19625 0.0625964 -0.0311181 -0.123372 0.0603736 0.00443741 -0.0782447 -0.176714 0.0912738 -0.0761804 -0.0304062 -0.154493 0.0217501 0.324241 -0.271687 -0.220316 -0.0799675 0.185687 0.0639435 0.136217 -0.0330698 -0.016041 0.0433561 -0.236237 -0.122236 -0.0856569 0.0768843 -0.0747984 -0.0119087 -0.0692072 0.0278156 0.124554 0.115269 -0.151691 -0.0340052 0.0176168 -0.160116 -0.110073 -0.149154 -0.14488 0.129829 0.00104107 -0.0227047 -0.155606 -0.0982765 0.194179 -0.120415 0.051405 -0.114061 -0.0986954 0.197527 0.315046 0.252594 0.131195 0.118346 -0.0863778 -0.168984 -0.00151772 -0.0951107 0.135418 0.0511228 0.0184193 -0.132802 0.0499926 -0.0834774 -0.0573979 0.156996 0.0686583 -0.0151022 0.0707559 0.0671726 0.0454023 -0.0603558 -0.123453 -0.0204918 -0.0216512 0.219492 -0.117126 0.0135479 -0.0389817 0.194735 0.041435 -0.155061 0.296446 -0.100483 0.135483 -0.0924433 -0.0390539 -0.0372051 -0.0588186 0.110676 -0.0461623 0.0322914 0.241146 0.317278 -0.113189 -0.0979582 -0.129379 0.023439 -0.0900211 -0.0518615 0.0237066 -0.0886701 -0.0921825 -0.0105079 -0.15591 0.0143855 -0.0493158 0.0712406 -0.140488 -0.119609 0.134535 -0.208001 0.0857511 0.278476 -0.0797183 -0.141576 -0.0606787 0.128147 0.288083 -0.0661262 -0.0698363 0.0287136 -0.00680654 0.182335 -0.123892 -0.11849 0.0697401 0.223467 -0.056251 0.0102244 -0.101662 -0.0964298 -0.055568 -0.0376701 -0.0674877 -0.236662 0.142341 -0.212359 0.10689 0.0255694 -0.0751317 0.0217581 0.174992 -0.212072 0.0771672 0.0707193 -0.0424536 0.074656 0.0954108 0.157229 -0.00444804 -0.0750936 0.112558 0.131826 
-0.0338813 -0.0491992 0.0537634 0.125974 2.69411e-05 -0.130329 0.0619655 -0.0180257 -0.145878 0.0801798 -0.10251 -0.0763416 0.134661 -0.00728074 0.0466464 -0.116228 0.265503 -0.0545501 -0.0731888 0.0829068 0.365534 -0.260766 -0.163534 0.0421132 -0.137702 0.0335916 0.00642517 -0.0987376 -0.105362 0.0675378 0.293892 0.0454007 -0.142449 0.111979 -0.0973912 -0.0485692 -0.168581 -0.0409492 -0.0451653 -0.0463204 -0.200973 -0.04487 -0.084507 0.0288231 0.0432221 0.0531125 -0.00230344 -0.0252981 0.0910238 -0.0406132 0.0952174 0.0796761 -0.189877 -0.188877 0.0335514 -0.144405 -0.0622887 0.0055893 0.0360823 0.153632 -0.0699937 0.0156117 -0.0734305 -0.140244 0.0778221 -0.117267 -0.0645989 0.349359 0.0792265 0.0272865 0.053111 -0.0877349 0.0356859 0.18257 0.0609481 -0.248349 -0.0018116 -0.115755 0.0137625 0.0953707 -0.0237311 -0.0590408 0.0437547 -0.014302 -0.10662 0.194487 0.150771 -0.0631166 0.0424691 0.156675 0.107269 -0.133221 -0.248361 -0.152909 -0.264218 -0.181679 0.225376 0.173823 -0.116869 -0.0069388 -0.156058 0.050839 0.0647102 -0.0963376 0.0786016 0.119755 0.0879019 0.0664898 -0.302537 -0.132648 -0.0453705 -0.111789 0.0475478 0.186713 -0.0132949 0.0125322 -0.140469 -0.0388796 0.180857 -0.0518114 0.13543 0.0332218 0.0589692 -0.103038 0.0151507 0.0806592 0.153459 -0.331474 0.0781122 0.118551 -0.030893 0.0789708 0.0462903 -0.0763799 0.160331 -0.0601738 -0.0723376 -0.0544523 -0.0735372 0.131975 -0.0872003 -0.0843471 -0.0383209 0.108021 0.060997 0.129603 0.0584466 -0.0924356 0.241649 -0.267159 0.228872 -0.0472747 -0.123314 -0.106101 -0.0566646 -0.22183 -0.115647 0.14065 -0.0415971 0.0751888 0.108191 -0.107786 -0.118656 -0.0945953 0.139218 -0.00871012 0.0374598 0.0923551 0.031902 0.191914 -0.060331 -0.0645513 0.326524 -0.0834852 0.0566026 -0.0419941 0.106519 0.12419 0.0428513 -0.0644709 0.219795 -0.118483 -0.195822 -0.135176 0.127341 -0.00217788 -0.0539145 0.133641 0.0237884 0.110526 -0.213245 -0.0176236 0.0141493 -0.172852 -0.0399766 0.0127688 -0.023723 0.0356436 0.00598746 0.0134995 -0.0209862 0.123237 -0.150522 0.0201289 -0.239458 -0.026375 -0.194529 -0.0462583 -0.0778903 -0.0315046 0.142347 0.157347 -0.312324 -0.0288111 -0.0434523 -0.078616 -0.0521697 -0.0794359 -0.0667081 -0.107191 0.00560574 -0.116107 0.0596123 -0.120888 -0.114145 -0.0894147 -0.230451 0.221667 0.0337169 -0.110172 0.107744 -0.192054 -0.314262 -0.100597 -0.160625 0.0173533 0.141495 -0.024813 -0.0060737 -0.0588237 -0.229513 -0.102562 0.0389915 0.0889871 0.149775 -0.153629 -0.0718727 -0.257991 0.186056 0.0587505 -0.0120233 0.0274971 -0.0235287 0.0102297 0.0079144 0.0618387 0.00898713 0.0711252 0.17426 -0.222801 -0.209988 0.19128 -0.0481854 -0.0420422 0.108422 0.188145 0.248828 -0.0618807 0.0465785 0.0332421 0.0301515 0.240233 -0.101906 0.0863774 -0.0107451 0.157941 -0.0267967 0.0403631 -0.0442868 0.116214 -0.0299368 0.129035 0.00964198 -0.0107424 -0.166566 0.0462167 0.0487538 -0.063571 0.026901 -0.0959679 -0.0140406 -0.129526 0.0150824 -0.00238373 -0.242635 0.0123799 0.0460632 0.191289 0.032119 0.19061 -0.027083 -0.0500393 -0.0475513 0.100923 0.123168 0.124798 0.0672898 0.138779 0.0996708 0.0321127 0.300787 -0.0915795 0.21857 -0.0262759 -0.0991501 0.102851 0.109158 -0.132253 0.0389964 0.259138 0.0197792 0.119861 0.132111 0.0947991 0.197906 0.0431846 -0.0394164 -0.0243182 -0.0976957 0.0779593 -0.0116421 0.127642 -0.0840318 -0.0570316 0.156075 0.158412 0.00968044 0.0267691 0.336333 0.13757 -0.17423 -0.393071 0.0858274 -0.076294 0.23912 0.123499 0.140532 0.120582 0.0483499 0.0107423 0.0176651 -0.0494371 0.0156057 -0.194126 0.0460276 -0.0293403 0.0201631 0.122692 0.0358808 0.119025 0.0202349 -0.189865 0.0303841 -0.182159 0.0276465 -0.0739996 -0.044104 0.140216 0.0763257 -0.175336 0.0518217 -0.0786735 -0.125774 -0.0798398 0.0402608 0.168191 -0.13777 -0.258081 0.0480884 0.192234 0.042233 0.0124114 0.0396845 0.240842 0.125027 0.227363 0.0407136 -0.129781 0.197869 0.220935 -0.137663 0.00231814 0.202378 0.182868 -0.00803601 0.0738157 0.043959 -0.175747 -0.0411856 -0.0867013 0.0361462 0.10383 0.123989 0.238869 0.0389802 0.00827745 0.0906986 0.245643 -0.153864 -0.135557 0.0466784 -0.125708 0.238531 -0.019136 -0.0985521 -0.170382 -0.0171441 0.0581456 -0.135216 -0.0845922 0.130143 -0.0916166 -0.0516325 0.171994 -0.159562 -0.339512 -0.0289263 0.13311 0.0983214 0.192949 0.0732797 0.144097 0.145315 0.0706126 -0.0696295 -0.0447833 -0.000102512 0.0859553 -0.0113529 -0.0960181 0.171169 -0.2897 0.0522544 -0.104854 0.0483906 -0.082797 0.178932 -0.154856 0.0159361 0.0239423 -0.131395 0.115677 -0.131889 -0.209658 0.226688 0.215165 0.22222 0.0869263 0.0569057 -0.016764 -0.143432 0.0570001 -0.0392095 0.115767 -0.0965987 -0.114018 0.206596 0.0174655 0.0187804 -0.101977 0.0437627 0.0523432 -0.0439475 -0.072698 -0.143151 0.01376 0.0433448 0.0220384 0.0655248 -0.0443712 0.0546125 0.0789642 -0.0526081 0.0802768 0.0912683 -0.0462013 0.0466939 0.0595619 -0.00308899 -0.0408023 -0.0946793 0.193643 -0.0443023 -0.0531442 -0.131824 -0.122008 -0.0991281 -0.0383533 -0.037033 0.0597315 0.203381 0.0178609 0.174421 -0.296606 -0.021179 0.0848391 -0.068368 -0.16124 -0.0914586 0.0906383 -0.128791 -0.144528 
0.0950076 -0.10514 -0.120103 -0.331009 -0.172445 0.0395438 0.0800555 -0.0562816 -0.19808 -0.00588553 0.0709663 0.0601732 0.00412272 0.0329944 -0.0890874 0.0257508 -0.129114 0.0918981 -0.272229 0.0212187 -0.106283 -0.148566 0.0856731 0.0311047 0.0823661 0.0902322 -0.140043 0.111145 -0.157457 -0.0102101 -0.132399 0.0559711 0.223618 -0.0370411 -0.0500465 0.060202 -0.0503513 0.0283943 -0.0246994 -0.0940229 0.176174 -0.18733 0.126164 0.0609824 -0.0133661 -0.119033 -0.121425 0.0438866 -0.103321 0.0919241 0.176848 0.0612948 0.210996 -0.245802 -0.13872 0.151773 0.177698 -0.0868939 -0.023372 -0.164145 -0.0227998 0.0653794 0.021626 -0.0349181 -0.137443 0.217594 -0.276341 -0.0836527 -0.387509 -0.125098 0.0315152 -0.289405 0.041806 -0.0865638 -0.194441 -0.0423202 0.0414149 -0.0263381 -0.0896326 0.29161 -0.0349259 -0.0106309 0.0575593 -0.00476498 -0.213104 0.0362728 -0.0812784 0.122566 0.0641821 -0.0282995 0.0151481 -0.1385 0.0996427 -0.161697 -0.208856 -0.12075 0.0235177 -0.00111162 -0.142836 0.045916 -0.129109 -0.0281639 0.0165848 0.0193306 0.0196191 -0.054115 0.199342 0.0107425 -0.0308599 0.204736 0.250264 -0.0414319 -0.0165277 0.394539 -0.0830564 -0.0562102 0.0454477 -0.106322 -0.0861574 0.0156609 0.121888 0.0379359 0.00210903 -0.175022 -0.055028 0.0734651 -0.100118 0.170637 0.0304355 -0.173911 -0.0776537 0.139748 0.193549 0.0924898 -0.0823445 0.0510596 -0.0446692 -0.0923342 0.0525849 0.160981 -0.266526 0.0498584 0.191052 -0.0764813 -0.231727 -0.0792231 -0.285545 0.058289 0.0354745 0.000528095 0.140206 -0.0119954 0.0747459 0.0745804 0.106002 -0.0399205 -0.0773862 -0.175304 0.0208241 -0.0208845 0.0100481 0.162873 0.106445 -0.215369 0.133677 0.0354253 0.199855 -0.321795 -0.0414303 -0.0203736 -0.101986 -0.077268 0.248748 0.0605358 -0.196865 0.274163 -0.213463 -0.0434464 -0.0835817 -0.130174 0.0246117 -0.0344722 0.0431639 -0.0371011 0.0174325 -0.0942571 -0.0050558 -0.280761 0.150372 -0.258136 0.0218424 -0.128589 -0.0593451 -0.0592446 -0.0271911 0.00545632 0.078872 0.0857801 -0.115384 -0.166896 -0.128314 -0.133336 0.122839 -0.00737655 -0.0344931 -0.172254 0.0603749 0.198664 -0.11953 0.0482083 -0.00647105 -0.129539 0.124504 0.145714 -0.0536572 0.0612188 0.0746541 0.152925 0.096887 -0.269878 -0.0917208 0.118032 0.156962 -0.0625669 -0.28373 -0.0261418 0.0186477 0.161292 -0.156442 0.120879 -0.103377 0.0132037 -0.16398 0.145956 0.0680112 -0.0684627 -0.174953 0.0437225 0.060907 0.101039 -0.0302078 0.146616 0.138967 0.0446524 0.0568541 0.138534 -0.00453922 0.0618949 0.101993 0.0680043 0.085877 -0.000356621 -0.0567057 -0.0107317 0.0102248 -0.0226857 -0.165419 0.0866186 0.188769 -0.0844482 -0.0958028 -0.251133 0.221276 -0.0146973 -0.163099 0.171458 0.310017 0.0593188 0.315094 0.05637 -0.188672 -0.0567476 -0.00528835 0.113421 -0.142676 0.0736647 0.155269 -0.160881 -0.0157153 0.155257 -0.0903658 0.123229 0.0254462 0.165731 -0.0779513 0.157436 0.0421273 -0.0977606 0.0960202 0.0697266 -0.241293 -0.00581158 0.140374 -0.0511434 -0.0391864 0.081138 0.284982 0.0879449 0.0225505 0.152248 0.0071301 -0.140374 0.219257 0.00851641 0.157551 -0.0552633 -0.0886896 0.0554018 0.165096 -0.045235 -0.24056 -0.0262718 -0.069646 -0.230843 -0.0216122 -0.0459196 0.0229755 0.0680415 -0.132156 -0.013238 -0.104202 0.0246338 0.291281 0.14841 0.0373119 -0.0300048 0.139991 0.0258523 0.105395 -0.0304215 0.140967 -0.0358664 -0.137682 -0.254949 -0.200578 0.0268077 0.0757926 0.0192117 0.0908202 -0.000261362 0.195777 -0.0793742 0.319729 0.0448682 -0.0285676 0.105047 -0.109728 -0.014211 -0.067805 0.0011603 -0.075298 -0.0118782 0.0209516 -0.115472 0.285869 0.106229 0.0335951 0.0210719 -0.0925111 0.053317 0.264969 0.248911 -0.23485 0.207385 -0.0929954 0.0510367 -0.0140379 -0.145166 -0.293985 0.0987261 0.00185665 0.0134618 0.324558 -0.188034 -0.244646 0.101539 -0.156012 0.126834 -0.149835 0.0348008 -0.110703 -0.263798 0.0865752 -0.197462 0.0749236 0.276495 -0.0891462 0.131211 0.0583543 0.0764935 0.00931701 0.195591 -0.18857 -0.120797 0.0890279 0.0767825 0.0485534 0.233132 0.117487 -0.0194201 0.0655574 -0.0204033 -0.0811086 -0.162267 -0.0777151 -0.147788 -0.116407 -0.188624 -0.334541 0.0651205 -0.156086 0.168119 -0.253962 0.0477276 -0.129121 0.291858 0.00754659 0.217041 -0.1695 -0.0985039 0.014255 -0.0391861 0.0928934 -0.0789357 0.00679803 -0.0263343 0.332265 -0.114845 -0.0100418 0.0820358 -0.142988 -0.151512 -0.296895 0.0644057 0.199536 0.185468 0.00833689 0.0419921 -0.281011 -0.0817275 0.0787171 0.127471 0.1422 -0.00871589 0.10685 0.0187511 0.0301052 -0.0639585 0.0360189 0.172601 -0.0906305 -0.0353366 0.0847572 -0.0362593 -0.152514 0.0402728 -0.103459 -0.305061 0.00722798 0.286995 -0.0720312 0.132153 -0.095892 0.129191 -0.00200629 0.00274225 0.216256 -0.112569 0.0716896 0.0593229 -0.0310873 0.132118 -0.0572515 -0.0407819 -0.14709 -0.0221943 -0.00018524 0.0226937 -0.0395355 -0.0882459 -0.052269 -0.132143 -0.122181 0.0199293 0.0874914 -0.128197 0.210733 -0.0819305 -0.144952 0.140053 -0.300071 0.280142 0.00559363 -0.0651531 0.26469 0.0378128 0.0483779 -0.102655 0.0338524 -0.130037 0.229586 0.0157216 0.181857 0.248956 -0.0584865 0.106812 0.213734 -0.188447 -0.193043 0.168907 -0.0764427 -0.0979896 
0.0891201 0.0709548 -0.121695 0.0642422 0.178179 -0.0680012 -0.178753 0.095308 -0.115945 0.0154117 0.160969 0.0252504 -0.147884 0.0807582 0.0309439 -0.0521622 -0.0824641 0.131233 0.00432498 0.121193 -0.0274658 -0.00375626 -0.0459395 -0.0741895 0.0529417 0.182562 0.0342077 0.0252825 -0.0316753 -0.0529245 0.0786378 0.0318523 -0.121583 0.0644978 -0.070153 0.0532165 -0.0363493 -0.075849 -0.0738757 0.00535542 0.0634556 0.135579 0.228583 0.150566 -0.0777777 -0.10814 -0.0192298 -0.191794 -0.0570631 -0.0152763 -0.132192 -0.0202731 -0.125937 -0.142595 0.0736194 0.118907 -0.157844 -0.0206888 0.0304655 -0.0576353 0.134854 -0.114558 -0.107811 -0.104881 -0.0561185 -0.0517259 0.0702743 0.0886357 0.145348 -0.0171596 -0.0787264 -0.0844176 -0.123596 0.0422446 -0.171953 -0.102547 -0.0974719 0.0553421 0.0974677 0.0078634 0.0569704 -0.0075044 0.0623459 -0.0958992 0.0496846 0.127625 -0.186758 0.0885388 0.116468 -0.0691737 -0.117062 -0.106961 -0.166528 -0.0843939 -0.0223197 0.0767876 0.00393453 -0.148965 0.253428 -0.0414221 -0.260525 -0.0117916 0.156404 0.156799 0.179908 -0.19514 0.130709 0.131523 0.112219 0.000328114 0.179469 -0.113882 -0.0665542 -0.118326 0.190326 0.120662 -0.013671 -0.0907323 -0.354053 0.0816536 -0.158326 -0.0105575 -0.189697 -0.162582 -0.114307 -0.108445 0.122046 -0.195174 0.0130474 0.0400342 -0.0718371 0.135889 -0.234432 -0.0160207 0.229412 -0.0837453 0.199216 -0.159986 0.150287 -0.341763 0.0458372 -0.148739 0.00107012 -0.129907 0.055502 0.233481 -0.134629 -0.270991 0.133799 0.0783792 -0.135085 0.0865595 -0.191816 -0.267078 -0.0412401 -0.0506626 0.10457 -0.0197338 -0.0445985 0.0344731 0.121713 -0.377243 0.21474 -0.0815445 0.112066 -0.0065644 -8.59422e-05 -0.0211098 -0.2018 -0.133366 0.0283388 0.0565256 -0.105528 -0.0404054 -0.129009 -0.0760015 0.129523 -0.00943031 -0.0761407 -0.109166 -0.10356 -0.0443738 -0.0266082 -0.0401472 -0.102236 -0.136938 -0.033197 0.0690745 -0.152484 0.0631245 -0.205649 -0.134296 -0.0189371 0.100021 -0.0421484 -0.18893 0.25719 -0.0901441 -0.244401 0.162611 -0.147225 -0.173374 0.0381066 -0.106499 0.0449801 0.100259 0.0559435 0.0388919 0.00025518 0.0817774 0.162729 -0.134698 0.106868 -0.145155 0.0733439 0.0265118 0.15808 0.0296346 -0.0848145 -0.107466 -0.104478 -0.0675775 0.0844748 0.208793 0.0231348 0.140255 0.00790369 0.176956 0.00872787 -0.218415 -0.245175 -0.107826 -0.0977125 0.0789936 -0.121702 0.220525 -0.0232432 0.0880982 -0.132387 0.187107 0.023701 0.286276 0.0532795 0.0395917 0.11916 -0.0582755 -0.188855 -0.0505875 -0.0108809 0.0249901 -0.0461765 -0.0139496 0.269914 0.245661 0.0324358 0.106205 -0.00529632 0.0219616 0.0767564 0.0703463 -0.0400485 -0.206066 0.100285 -0.0245055 0.00395221 -0.00982485 -0.208854 0.145244 0.112435 0.122342 0.00760307 -0.157937 -0.209766 -0.0616968 -0.00663427 -0.0772913 -0.044661 0.058203 -0.0679746 0.126764 0.0439088 0.0499321 0.203882 -0.199005 0.0691609 -0.0143611 0.0990688 0.136704 0.173491 0.0652018 0.20958 0.210858 0.0614967 -0.317244 0.193607 -0.0652035 0.106322 0.00916559 0.0987193 -0.0959469 -0.0492149 0.0376661 0.0110971 -0.0402563 -0.0374629 0.0173066 -0.00422 0.137008 -0.216835 -0.0179188 0.0550253 0.173028 0.0345328 0.0385828 -0.00533951 0.039643 0.237286 -0.196696 -0.0656086 -0.0583876 -0.0177928 0.0614164 -0.0836394 0.02324 0.243564 0.0839385 0.277906 0.0349191 0.163599 -0.0894729 0.058853 -0.117809 -0.11814 -0.0153517 0.110365 0.0474555 -0.0457021 -0.0226866 -0.0561303 -0.214735 -0.236263 -0.291275 -0.152979 -0.207596 -0.194102 -0.0542032 -0.0015667 -0.128937 -0.00232954 -0.010345 0.0300161 -0.168453 0.0769767 -0.126494 -0.13737 0.228575 -0.133968 0.0635959 -0.127596 0.00660514 0.100854 -0.00343973 0.18317 0.199799 0.102503 0.120257 0.277593 0.0169195 0.0367768 0.0392283 -0.0490206 -0.0478639 -0.232924 -0.0727958 -0.104086 0.223274 -0.108881 0.0861346 0.0079018 0.156911 0.127522 0.0143091 0.0537329 0.148392 0.0297309 0.208129 -0.170411 -0.0440907 0.0614609 -0.198018 0.2145 -0.203925 0.0256847 -0.0207005 -0.0313795 -0.0603177 0.0164937 0.221251 0.0307248 -0.0682333 0.0383396 0.082624 -0.0848636 -0.10905 -0.0125921 0.168545 -0.0702412 0.156117 -0.0191905 0.0543847 -0.262881 -0.0619198 -0.0428308 -0.0652033 0.14466 0.185125 -0.153118 0.133178 0.116123 -0.173243 0.00645718 0.167162 0.246098 0.11792 0.0932426 0.0772209 -0.0294314 0.0224337 -0.167912 -0.082669 -0.00803788 0.154293 -0.0422734 -0.115663 0.0834594 -0.0129544 0.122049 -0.345211 0.0202796 -0.0620729 0.128305 0.110518 0.0803703 -0.160249 -0.101006 -0.20509 -0.215163 0.0326578 0.0371453 -0.069212 0.0479766 0.0117658 -0.156137 0.16445 -0.0686046 0.204266 -0.073254 0.0549474 -0.203318 -0.0387976 0.0936654 -0.0116657 -0.149062 0.0299098 -0.0226658 -0.0498289 0.0211077 0.00851927 -0.134858 0.0793116 0.24655 0.00596526 0.022458 0.0726276 0.0417598 0.216777 0.0439074 0.0253795 -0.00820201 0.118559 -0.0957774 -0.112526 -0.23336 -0.00556851 -0.26525 -0.0494114 -0.0115069 0.0900713 0.0159508 0.110909 0.00351589 -0.165104 0.136006 -0.11478 -0.00888822 -0.0662537 0.00646323 0.152335 -0.0818445 0.0810059 -0.287228 0.215613 -0.0240125 -0.0928368 0.209411 -0.0410091 -0.138111 -0.159699 -0.212202 -0.110874 -0.00472 -0.0100204 
0.330834 0.0512475 -0.0134231 0.205074 0.174588 -0.0523141 -0.0445096 -0.0617523 -0.0367178 -0.157092 0.0674291 0.128702 -0.233469 -0.154167 -0.00817375 -0.028788 0.0129479 0.188101 -0.140219 0.0668526 0.191137 0.0545616 0.0587548 0.199957 -0.0310084 -0.0636918 0.172717 -0.163104 0.169129 -0.154751 0.31496 0.0835313 0.0489283 -0.173268 0.0856689 -0.114776 -0.125258 0.119187 0.117743 0.0812623 -0.0794942 0.0440383 0.295428 -0.188084 0.162494 0.0412507 0.179461 -0.00424388 0.0638073 0.111184 -0.0325716 0.133434 -0.0277696 -0.213456 0.0229614 0.238099 0.19126 0.152394 0.0268899 -0.0465795 0.00453373 0.143004 0.166976 -0.183971 -0.0184005 -0.216182 -0.233343 0.0149672 -0.0844793 0.0230572 -0.0265729 0.251356 -0.107979 0.0921894 0.0243203 -0.08643 0.0276534 0.27314 -0.101882 -0.210892 0.125005 0.125104 0.162395 -0.00791785 -0.0772345 0.135903 0.166595 0.055133 0.170502 0.130961 0.0445282 0.035788 0.0301272 -0.0588573 0.167341 0.208289 0.142606 0.0903076 -0.0425441 0.0890053 -0.0843296 0.0713614 0.117633 -0.0568533 -0.196323 -0.00783957 -0.125628 0.182169 -0.00439965 0.0789614 0.0635824 -0.0730325 -0.129557 -0.0898097 0.154538 0.0627124 -0.134675 0.0103105 -0.115585 0.292221 -0.124952 0.0422547 0.0920795 -0.0692451 0.0866312 0.15015 -0.0948505 0.0100709 0.0260791 -0.120381 0.33535 0.113733 -0.103715 -0.312203 -0.255068 -0.141386 -0.0991814 -0.134651 -0.0880204 0.0750025 0.203612 -0.102335 0.0498798 0.179896 -0.186749 -0.0403626 -0.125454 0.0455577 -0.0700914 -0.112721 0.116348 -0.119623 4.71667e-05 0.0575963 -0.143651 -0.0452804 -0.0416865 0.0227091 0.214373 0.0524575 -0.0871702 0.125808 -0.101802 -0.086355 -0.0568025 -0.0632871 -0.116802 0.0162561 0.104163 0.0406515 -0.206253 0.130475 -0.0894151 -0.0626854 0.203251 0.0371402 0.00303761 0.0115312 0.00642675 0.092214 -0.019345 0.00669284 0.110882 -0.0354742 0.238268 0.0806154 0.10737 -0.00791718 0.297888 0.0944996 -0.154733 0.0760102 -0.155063 0.0281106 0.12216 -0.141659 -0.0119544 0.024046 -0.190494 -0.0672807 -0.0434183 0.0995508 0.0464363 -0.046528 0.123264 -0.273266 -0.196156 -0.0525314 -0.0609131 0.0534204 -0.287889 -0.0612633 0.20649 -0.0148292 0.214736 0.0163229 0.0035314 -0.111784 0.00417461 -0.169766 0.0502547 0.0186313 0.0559038 -0.1109 -0.00376635 0.00953567 0.0382776 -0.00327892 -0.119124 -0.208374 -0.132585 0.025581 -0.0435882 -0.0849503 -0.114558 0.108921 -0.0551939 -0.0804116 0.0885032 0.128894 0.0871798 -0.205083 -0.0179318 -0.071129 -0.0955841 0.219789 -0.245424 -0.113419 0.44443 -0.00644158 -0.173959 -0.139797 -0.0192822 0.129418 0.0529101 0.366152 -0.0587195 -0.0838314 0.0365583 -0.184021 -0.138106 0.18248 -0.122251 0.019375 0.0364248 0.233193 -0.103705 0.0515457 -0.20841 0.110818 0.0914624 0.0402355 -0.193668 0.295119 -0.132244 0.0369248 0.0235829 -0.165754 -0.0286149 0.136954 -0.139215 0.0042797 -0.0440113 -0.179247 0.0775079 -0.104155 -0.151464 0.0783904 0.12243 0.0362804 -0.000936416 0.0369047 -0.0186337 0.125003 0.0541179 0.0859598 0.142484 0.0157027 0.0134596 -0.0038016 -0.093093 0.0761112 -0.0348852 -0.148673 -0.0585911 0.16954 0.0197899 0.00589503 -0.103609 0.0781014 0.190558 -0.0319297 -0.135234 -0.210357 -0.160241 0.241916 0.000482627 -0.106504 -0.161053 -0.0566033 -0.115995 0.0191421 -0.139553 -0.0774699 -0.160855 -0.0303346 -0.162809 -0.0090526 0.039343 0.137244 -0.220044 -0.0647884 0.0636849 -0.0627097 -0.142713 0.0229354 0.0863015 0.0821157 -0.0354977 0.0896859 0.073833 0.0389739 0.0883697 0.118466 0.0242941 -0.0202365 0.0463977 -0.0904711 0.0654408 -0.0286494 0.132078 0.022153 -0.0120112 0.266399 0.0640965 0.00667804 -0.0440984 -0.111658 -0.0992883 -0.132443 0.0702965 0.152706 -0.191282 -0.19864 -0.224127 0.130051 -0.0809432 0.0171575 -0.194692 -0.0219641 -0.137978 -0.079921 -0.0136299 0.190611 0.0764468 -0.0329623 0.00518252 0.179217 -0.13587 -0.20317 0.0641157 0.0564851 0.0260701 -0.0197943 -0.329634 -0.130725 -0.257606 -0.298025 0.0208082 -0.11762 -0.194223 -0.0520817 0.0536819 0.002668 -0.0572012 0.056393 -0.106115 -0.129241 -0.308673 0.144499 0.109674 0.115166 -0.0583749 0.100148 -0.0505828 -0.00238336 0.0709645 0.209322 -0.195508 -0.205535 0.132803 -0.0462796 0.0368479 0.057811 -0.01874 0.152944 -0.376124 -0.0595187 0.130821 0.0906636 0.380518 0.100054 -0.0631714 -0.000133191 0.189064 0.0823975 0.0666852 -0.320348 -0.0081146 -0.144645 0.0698795 0.153099 0.133814 0.0767794 -0.203584 0.0799765 0.0837066 0.0318344 0.304535 -0.238325 -0.192776 -0.0249881 -0.179541 -0.173076 -0.185821 -0.207406 -0.0863683 0.0466716 0.119827 0.0199403 -0.0440874 0.0131757 0.028151 0.0533624 0.101579 -0.211443 0.0218448 -0.0687366 -0.012079 -0.067943 0.0956158 0.0904373 0.189426 0.202519 0.121677 -0.0451574 -0.0197359 0.129021 -0.0246682 0.289605 0.11288 0.00145262 0.108259 -0.0984955 0.102143 -0.197786 0.107281 -0.00325561 0.0299756 0.10728 -0.053668 -0.107963 -0.126814 0.00822261 -0.105831 0.132805 -0.123711 -0.0379467 -0.115405 -0.0374919 -0.0481716 -0.197344 0.0336433 -0.00777094 -0.0532453 0.0396537 -0.0245114 0.139555 0.126722 -0.0429709 0.170652 0.0608315 -0.0406319 -0.0343886 -0.143493 0.174213 0.114521 0.101622 0.148869 0.0869378 0.0955136 -0.028662 
-0.0250939 -0.085469 -0.102681 -0.360494 -0.135784 -0.21877 -0.243832 -0.11044 0.00103855 0.0177532 -0.032435 0.0546417 0.0395722 -0.0687751 -0.0443387 -0.0716799 -0.290308 -0.0177752 -0.0647981 -0.0166051 0.0195944 0.0413206 0.040544 -0.108583 -0.00088908 0.0125497 -0.198554 -0.114014 -0.070507 -0.131766 0.147394 0.0348604 -0.0776131 0.0647952 0.0308819 0.0921903 -0.0230151 0.105783 -0.235469 0.00908245 0.213667 0.0883128 -0.060577 0.0847633 0.251573 0.0707791 0.17675 0.199698 0.0536295 0.0581815 0.010061 -0.16629 0.0718986 -0.191403 -0.119159 -0.0531063 -0.159043 0.00707417 -0.00977412 0.0978304 -0.00959987 0.13661 0.129063 -0.000594797 -0.248878 0.0279302 0.0905104 -0.128011 0.0781067 0.0146951 0.0421689 -0.160076 -0.00592857 0.169344 0.236266 -0.0874971 0.0114562 -0.0160605 -0.152729 -0.114964 0.0993128 0.0257601 -0.244166 0.153915 -0.224397 0.224009 -0.0938619 0.0521766 0.0771524 0.200126 -0.0201194 0.102575 -7.03663e-05 -0.00462864 -0.0849873 -0.11949 0.0807734 0.238321 0.00747498 0.0264021 0.0232227 -0.130443 0.102934 0.00695903 0.196108 -0.220751 -0.0210126 0.0959706 -0.0290792 -0.145732 0.229914 0.0355071 -0.166458 -0.0302517 0.0436616 -0.0220817 -0.152441 -0.0710251 -0.059901 0.15563 0.104645 0.0262513 -0.195629 -0.149064 0.287006 -0.209091 -0.0983692 0.12667 0.151624 0.225294 -0.177687 0.061837 0.0763837 -0.112559 -0.200177 -0.169618 -0.0368747 -0.0370733 -0.233895 -0.156993 -0.0522826 -0.248512 -0.0500887 -0.0229743 0.112236 -0.16767 0.11634 0.156138 -0.152883 -0.228113 -0.132558 0.0216521 0.304633 0.0769435 -0.113801 -0.0165941 -0.0367344 -0.0555834 0.15047 -0.0242503 0.00732315 0.022025 -0.11533 -0.229352 -0.0576328 -0.199929 0.112158 -0.119128 -0.0510947 -0.0502385 -0.0558681 0.0685139 -0.0649648 -0.183126 -0.17041 0.052043 -0.155602 -0.0966351 -0.184341 0.149354 0.0343764 -0.165712 0.134049 -0.0116996 -0.130248 0.059187 -0.0187045 -0.156339 0.0489384 -0.0123431 0.191091 -0.171131 0.113875 0.0390044 -0.00891952 0.158313 -0.218193 -0.034635 0.0797991 0.149118 0.198013 -0.0395421 -0.174139 0.374864 0.140933 -0.13107 -0.0995944 0.0979931 -0.0843575 0.0746301 0.00064241 0.244644 -0.0432044 -0.124692 0.0617044 -0.126135 -0.109339 0.0459666 -0.166853 -0.166956 -0.227009 -0.11047 0.0182318 0.318023 0.189707 -0.247517 0.0829524 0.214618 -0.0700674 0.126245 0.0423958 0.0609197 0.0248902 -0.0078612 -0.218632 -0.107436 -0.188041 -0.0969236 0.0994322 0.0107276 0.0143143 -0.0385607 -0.163707 0.0319809 0.0615626 0.0355343 -0.0314687 -0.0244524 -0.188032 -0.112063 0.207687 -0.106178 0.145344 0.0792381 0.265073 -0.0894332 -0.0494802 -0.0623794 0.140677 0.22291 -0.0760976 -0.171389 -0.00354005 0.153563 -0.153043 0.0503214 0.0129511 0.0541932 -0.148438 -0.0908196 0.0973707 0.0932335 0.221223 -0.00545528 0.0229844 -0.191059 -0.110149 -0.180038 -0.0709934 0.200966 0.0899519 0.317816 -0.071136 -0.380348 -0.00418827 0.0119679 -0.125505 0.0616748 -0.0564511 0.0430854 -0.0602112 -0.0690122 -0.0393626 0.113581 -0.0575969 -0.0136108 0.154604 -0.134374 -0.0455682 -0.00523267 -0.0597164 0.0622742 0.0502895 0.146774 -0.102887 -0.0575101 -0.0954831 0.256316 0.0193851 0.0577301 0.141322 0.199659 -0.0758928 -0.125937 -0.0793667 -0.0300647 0.0305116 -0.00421579 -0.134512 0.0991427 -0.0749492 0.221987 0.0994035 -0.00441515 0.149905 -0.135109 -0.120594 -0.151352 0.132022 0.155054 -0.0317694 -0.171778 0.102973 -0.0894002 -0.0562496 0.184941 0.248004 0.191675 0.143969 -0.01754 -0.211011 0.0038411 -0.0446143 0.0189175 0.172427 0.0483354 -0.10494 0.0468054 -0.057738 0.119723 0.0936077 0.0489772 -0.0568468 -0.137326 -0.058553 0.186886 0.249943 0.177365 -0.0953102 -0.0351421 -0.0681396 -0.0172987 0.0113169 -0.0483521 0.0951397 -0.0973217 -0.0120098 0.173098 0.168112 0.216461 0.0814431 -0.0279173 -0.0967107 0.00693113 0.0225508 -0.161221 0.0801378 -0.193125 -0.0781551 -0.148236 0.114396 -0.0442202 -0.160828 -0.00392488 0.137474 0.0474785 -0.00702459 -0.100884 -0.103175 -0.000131776 -0.0663142 -0.100024 -0.145227 -0.0838389 -0.0104776 0.0475101 -0.108916 -0.216478 0.0347647 0.243799 -0.148919 0.0154005 -0.215104 0.0188918 -0.173682 0.243912 -0.103115 -0.0934735 0.052796 0.177169 -0.149866 0.101296 0.201249 -0.171715 -0.200868 0.187065 -0.0955075 0.145877 0.31642 -0.0325673 -0.0311301 -0.182969 -0.143945 -0.250447 -0.0250154 0.117417 0.014172 -0.323071 -0.152402 0.116666 0.256779 -0.0066566 -0.166164 0.00917495 0.0847994 -0.164891 -0.206984 -0.0798249 -0.0416289 0.0591875 -0.085192 -0.0387857 -0.151207 0.167808 0.0284851 0.098913 0.0305495 -0.0603737 -0.232782 -0.00506075 -0.181366 0.228706 0.274668 -0.0829918 -0.0902639 0.0603347 -0.10163 0.0699519 0.20872 0.0607358 -0.158592 -0.205149 -0.112382 -0.0753143 0.0170273 0.186831 0.038389 0.0827152 -0.0888744 0.141523 -0.0306742 -0.0504771 0.161434 -0.278402 -0.11336 -0.555472 0.0918997 -0.0522116 0.0602519 -0.00362595 -0.11409 -0.0561941 -0.0206635 0.0950274 -0.141706 -0.150418 0.133517 -0.182533 -0.196684 0.0610806 -0.140226 -0.072312 -0.18236 0.161855 0.0202686 -0.0442919 0.0623816 -0.193054 -0.0154852 0.0430837 0.0818986 -0.00327354 0.102625 0.0158106 -0.041949 -0.154358 0.136864 -0.0842942 -0.0792412 0.0244444 -0.258414 0.0750732 
0.00915253 0.00928285 -0.143016 0.122477 -0.12077 0.0107609 -0.0139385 -0.0405037 -0.169788 0.0129618 -0.0907723 -0.0445913 0.237059 0.0235896 -0.120951 -0.23623 -0.110096 -0.213899 -0.0568138 0.167469 -0.210289 -0.0889313 0.0299764 -0.0392362 0.0455277 0.122068 -0.0754127 -0.00920603 -0.0631265 -0.243231 -0.107637 0.0747282 -0.0340496 -0.0267119 -0.075165 -0.146945 0.296902 0.131805 -0.0706505 -0.0299699 0.0714022 0.0498103 -0.0150551 0.0266941 0.289994 -0.0372621 -0.0338641 -0.0844614 -0.0369839 0.120561 0.0118685 -0.121075 -0.0223267 -0.0841744 -0.114564 0.140957 0.0540057 -0.115116 0.0181844 -0.0238766 0.0715565 -0.0636787 0.139325 0.273526 -0.161163 -0.117872 -0.152716 0.0975082 -0.140292 0.190557 -0.0662584 -0.0233801 0.155867 0.0278622 0.00865886 -0.017522 -0.0526542 -0.11639 0.0211899 -0.142214 -0.196197 -0.296853 0.0972781 0.0498295 0.0440457 -0.0138581 0.0247637 0.237245 0.0492863 0.0384299 0.100301 -0.0391084 -0.0582561 -0.0527836 -0.161935 -0.208035 -0.0544437 0.0456315 -0.0906249 0.0193486 -0.0179597 -0.151929 0.171339 -0.166223 0.219606 0.173325 0.0869829 -0.0328874 -0.178204 -0.0447805 -0.0205553 -0.0720858 0.0497248 0.0114468 -0.128366 0.1371 0.0824612 0.224833 0.212169 0.187102 -0.00033259 -0.0337102 0.0495448 0.130629 -0.121015 0.0419923 -0.108811 -0.197734 0.0895375 0.0686373 -0.108307 -0.0191239 0.0223416 -0.0534501 -0.287669 0.121308 0.205701 -0.141476 -0.109217 -0.154723 -0.11722 0.136077 -0.0917537 0.0931665 0.120518 0.0816981 0.067322 0.151778 -0.071861 0.0841621 -0.0201986 -0.0408726 0.370989 0.123115 -0.0241542 0.185739 0.288615 -0.038017 -0.0630265 0.135578 0.111087 -0.181744 0.0522825 -0.020801 0.0840725 0.0593141 0.0490116 -0.0740798 0.0301056 -0.154828 0.234866 0.241801 -0.0911681 -0.0756842 0.0213292 -0.107578 -0.0255749 0.239915 0.0374076 0.116324 -0.00194892 -0.117885 -0.0368539 0.0574467 0.048761 0.0672964 0.0786793 -0.0640802 0.0150495 -0.195431 0.0865459 -0.205445 -0.192912 0.015386 -0.0208326 0.332915 0.0937953 -0.0319176 -0.10112 -0.00492191 0.112191 0.0122038 0.0421534 -0.143495 -0.146752 0.0652971 0.0391425 0.153042 0.318797 -0.217037 0.00424714 0.101491 0.0667643 -0.0961951 -0.03603 0.119952 -0.0327957 0.21767 0.0159738 0.152013 0.301828 0.188805 -0.0244844 -0.00249944 -0.0674404 0.050879 -0.0997996 -0.0486957 0.043428 0.011396 0.198448 -0.257543 -0.0287051 0.0548598 0.131695 0.152179 0.0147714 0.0204099 0.042052 -0.108865 -0.212612 0.196376 -0.127098 0.12668 0.058652 -0.114184 -0.0266144 0.150494 -0.0415782 0.109499 -0.141134 0.0815483 -0.0126899 0.218919 -0.0233568 -0.0468833 -0.0858729 0.0529836 -0.103305 0.0667441 0.0578093 0.129842 -0.0464594 -0.10879 -0.0825561 0.093353 -0.0271126 -0.0705102 0.112693 -0.113397 -0.332371 -0.0536029 -0.0599033 -0.0832878 0.00125564 0.102794 0.119762 -0.026149 -0.0258245 -0.0810102 0.163943 0.0202008 0.146459 0.0239413 -0.0382309 0.162473 0.0913936 0.109128 0.10306 0.271239 0.00806315 0.0625753 -0.111652 -0.00881053 0.146623 -0.0812046 0.0414353 -0.0484131 0.073949 0.0234291 0.0220892 0.0225351 -0.191814 0.175037 0.143239 -0.161657 -0.185405 0.0402831 -0.213031 0.232243 -0.217755 -0.0858492 0.148898 -0.132746 0.128295 -0.0703697 -0.142986 0.109062 0.0590019 0.134241 -0.15973 0.0649956 0.100938 -0.16962 -0.113225 -0.210668 0.0328025 -0.0555036 0.126958 -0.0109178 0.16619 0.0211605 -0.00130112 -0.0211095 0.0428267 -0.112813 0.0118775 0.110246 -0.00881225 0.0760781 0.0666798 -0.0739206 0.0371367 0.243564 -0.00864098 -0.168269 0.0700125 0.25026 -0.000212219 -0.117002 0.0303444 0.193586 -0.023478 0.170426 -0.0477643 -0.254068 0.0492654 0.123496 -0.00550049 -0.147662 0.145861 -0.0683137 -0.156468 0.0296133 0.178346 -0.0951701 0.0489614 0.00720001 -0.00521621 0.0512918 -0.159911 -0.0864856 -0.119315 0.0115924 -0.0733081 -0.0159426 0.118145 0.101012 0.161014 0.105042 0.02048 0.00024188 -0.00715569 0.00484897 -0.0791298 -0.0588792 0.0370682 -0.125708 0.0355938 0.0231282 0.00748723 -0.1134 0.0504933 -0.0870628 0.14552 0.0818318 0.132029 -0.132113 -0.184817 0.0443036 0.061321 -0.168673 0.225789 -0.0338689 0.118937 -0.218667 0.204372 0.188143 0.011265 0.200426 0.0102501 -0.156656 0.174129 0.0607773 0.075705 0.105464 -0.216331 0.12263 -0.0871924 0.0384852 0.00613479 0.126913 -0.0689203 -0.176326 -0.0614216 -0.0906167 -0.229797 0.0939642 0.200235 -0.159741 0.321679 0.182783 0.198875 -0.140177 -0.0850814 0.0970145 -0.00919251 0.274794 0.101716 0.000426545 0.20022 -0.0105273 0.171194 0.062232 -0.100721 0.0703252 -0.158415 -0.171495 0.097929 0.0874949 -0.0873472 0.089983 0.0417202 0.276513 -0.260085 0.198498 0.112798 0.054032 0.0939987 -0.154042 0.135122 0.211599 -0.000126942 -0.0664181 -0.192948 0.165001 0.143451 -0.173135 -0.131717 0.00605352 -0.075597 -0.00119056 0.167534 -0.115578 -0.0381487 0.0217888 0.0824267 0.0262175 0.0495259 0.100035 -0.10072 0.0527247 -0.0738103 -0.032866 0.186228 -0.0604787 0.0221129 0.210094 0.0649971 0.056814 -0.192724 0.080794 0.101891 -0.0348731 0.0489432 0.0142913 0.102436 -0.00470187 -0.106963 0.23078 -0.0127809 0.116601 0.149315 -0.0500782 0.230981 0.0772748 -0.185591 -0.0823977 -0.191664 0.0523963 -0.234639 -0.0374092 
-0.163512 -0.13225 0.0570111 -0.119052 0.0729019 0.117699 0.0527427 -0.261588 -0.0529764 0.159361 0.0191605 -0.210517 -0.111002 0.0453897 0.0261679 -0.0715394 0.0498563 0.108527 -0.130382 -0.0229366 0.104085 -0.191187 -0.00689125 0.101258 -0.0824137 -0.0648178 -0.0279978 -0.0420687 -0.18975 -0.0750702 -0.0313627 -0.0976305 0.353277 0.195049 0.00808527 0.203603 0.0887375 0.163166 -0.191472 0.0442173 -0.187715 0.195208 0.0232782 0.270712 0.0778868 0.144853 0.144147 0.184679 -0.0420358 -0.155895 -0.2273 -0.0752992 -0.0189363 -0.171928 -0.201345 0.0835328 0.164085 0.0296209 0.0219435 0.123211 -0.0162409 -0.0229848 -0.0784224 0.144182 -0.0283388 0.218387 0.0867651 -0.0391715 -0.077123 -0.0905754 -0.0919136 0.150851 -0.122802 0.180541 0.0798368 -0.0860386 -0.000851659 -0.0624017 0.0704797 0.0230116 -0.0262084 0.0750503 0.0724953 0.0398979 -0.00840461 -0.0186964 -0.30433 -0.163658 0.032232 0.213978 -0.0178278 -0.0221416 0.00431692 -0.192342 0.0132225 -0.0249744 -0.0684396 -0.0747336 -0.0935263 7.60214e-05 -0.0550659 0.0628285 -0.00742353 -0.146825 -0.264341 -0.0058945 0.263232 -0.145886 -0.0445809 -0.0638961 -0.259628 -0.327081 -0.161537 -0.0221339 0.0128263 -0.00605851 -0.116076 0.0462912 -0.0510385 -0.139063 0.109944 0.200749 -0.092899 0.00419986 0.111435 0.124429 0.0153127 0.122289 -0.097846 -0.0488599 0.0487747 -0.0164235 -0.000583415 -0.153361 -0.139134 -0.0790768 -0.262478 -0.155403 -0.0148559 0.139172 -0.0822357 0.201249 0.135484 0.0975658 0.149659 -0.069075 -0.0188275 0.057501 -0.0457451 0.16003 -0.198261 -0.130584 0.0959135 0.0457137 -0.0789576 -0.15969 -0.00134311 0.17546 0.0615812 -0.0712765 0.117124 -0.146316 0.0833696 0.017588 -0.0963666 0.0993019 -0.132854 0.0212954 0.156415 -0.091738 0.184633 -0.26084 0.0382998 -0.0809983 0.00892003 0.181204 -0.0245944 0.187388 0.372434 0.132085 0.0954672 -0.00823275 -0.0386245 -0.111459 -0.16523 -0.0737781 -0.152665 0.00567557 -0.228399 0.00181023 -0.105597 0.110403 0.0284456 0.194419 -0.0248646 -0.085305 0.0648861 0.174106 0.0461005 -0.129853 0.11914 0.0634805 -0.0719756 0.122238 0.137199 -0.0841257 0.21221 0.182946 0.0712254 0.0640491 0.0594957 0.0393581 0.165985 0.182424 -0.153779 0.0699759 0.259432 0.0749081 -0.279661 0.0688644 -0.0802711 0.139973 -0.187589 -0.187448 0.0264518 0.0134986 -0.0995437 -0.0944087 -0.1624 -0.17901 -0.0162926 -0.10471 -0.223442 0.0809053 -0.122675 0.0172081 -0.186501 -0.0538426 0.0715425 -0.0200229 0.150917 -0.150421 0.19861 -0.0532671 0.117649 0.0157736 0.0471161 -0.202819 0.242256 0.248058 0.000743299 0.0815376 0.00682738 0.133791 0.0114246 -0.0784229 -0.123371 -0.15343 -0.0777756 -0.0646182 -0.113423 0.254724 0.102977 -0.08497 0.0479449 -0.0565408 0.11507 0.0192284 0.245094 0.135144 -0.191714 -0.018856 -0.179971 -0.115414 -0.0443458 -0.186893 0.128171 0.242375 0.0853725 -0.204891 0.138055 0.0703927 -0.0977143 0.0790256 -0.0500957 -0.0215098 -0.0725514 0.074523 0.159108 -0.129683 0.0521012 0.211945 -0.0767011 -0.0442016 0.0958273 -0.172973 -0.0539357 0.0889587 0.379543 0.161461 -0.0199648 -0.0716333 -0.100903 -0.213632 -0.071313 0.207251 -0.020636 -0.226667 -0.0791687 0.0775689 0.243431 -0.0724484 0.325131 0.207854 0.0536702 0.0324763 0.038073 -0.226488 0.2462 -0.140824 0.0524742 -0.189761 -0.0174159 0.0438404 -0.0227392 -0.155842 -0.0370503 0.20492 -0.107975 0.0436979 -0.138823 -0.00491014 0.0366838 -0.129693 0.0924263 0.225846 -0.0455237 -0.0760288 0.0436944 -0.112588 0.0945215 -0.00296475 0.139446 0.12662 -0.0502489 -0.0104012 0.100852 0.00325072 0.109139 0.0552328 0.147528 0.133998 -0.0121784 0.186896 0.181456 -0.047669 0.0844303 0.0325283 -0.20012 0.134267 -0.0653506 -0.151603 -0.0132871 -0.114731 -0.0158217 0.0653037 -0.00746235 -0.0313358 -0.0681246 -0.066017 -0.0600616 -0.202182 -0.0574635 -0.0309693 -0.140269 0.0717906 -0.15262 -0.0959585 -0.0793988 0.0305744 0.0842775 0.161482 0.0264358 0.37959 -0.323729 -0.186772 0.0825538 0.0051558 -0.00669179 -0.13047 -0.0189155 -0.177763 0.0537432 0.130481 -0.00474828 0.205868 -0.0535984 0.145156 -0.171323 -0.0388518 0.083678 0.0860308 -0.130388 0.101488 -0.0932619 0.113359 0.0323373 0.0848288 -0.0718601 0.220973 -0.181204 -0.221428 -0.0172514 0.120566 -0.238174 0.206159 -0.0579829 0.0719408 0.0189808 -0.096804 -0.253288 0.00370429 -0.115282 -0.0521393 -0.12284 0.0196944 -0.121328 0.161383 -0.180183 0.0934966 0.135853 0.0991736 -0.239504 -0.168801 0.111202 -0.06294 -0.125199 0.130578 -0.0109672 -0.0414455 -0.0193811 -0.0316109 -0.244484 0.147936 0.0738636 -0.126099 -0.0240801 -0.121583 -0.0764207 0.0883698 -0.0785823 0.0475537 -0.0358575 0.0575247 -0.0731339 0.0825003 -0.100834 -0.0493983 -0.128787 -0.262826 -0.118109 -0.090615 0.0234868 -0.0764477 -0.105063 -0.126228 -0.105374 0.167815 -0.0439262 -0.0933759 -0.0984037 0.0110827 -0.0294953 -0.0498164 0.0872141 0.0241382 0.0929989 -0.138044 -0.150136 -0.0445573 -0.0382128 -0.0522665 -0.0800179 -0.120102 0.0879286 0.237649 -0.188984 0.0705616 0.0492941 -0.0589213 0.0337098 -0.293595 0.101131 -0.0558707 -0.00800833 0.0519234 0.06299 -0.102357 -0.0135332 0.0320612 0.134146 -0.0220492 0.147881 -0.16508 0.0919966 -0.136482 0.0735212 -0.175655 0.0337997 -0.111919 0.314104 -0.0710217 
-0.0749826 -0.1046 0.0295749 -0.0841997 0.123853 0.0654836 0.119872 0.124838 0.0430593 0.0413122 -0.161398 0.0345914 -0.129904 0.0676328 -0.158414 0.113711 -0.080673 -0.181725 -0.0133604 0.134414 0.0336178 -0.00846437 -0.006635 -0.0199298 -0.141126 -0.0865338 0.174261 0.0205218 -0.276534 0.0835392 0.0261772 -0.189299 -0.101128 -0.14132 0.221129 -0.0947856 -6.42205e-05 0.0239166 -0.17005 0.285297 0.186346 -0.087575 -0.162454 -0.153709 -0.139623 0.0386392 -0.1706 -0.0888313 0.177169 -0.228386 -0.170692 -0.0902425 -0.124319 -0.0630229 0.334879 0.0638061 0.039606 0.118038 -0.0413382 -0.0427009 -0.0697759 0.126213 -0.0645422 0.0910921 -0.0265349 0.057967 0.0582269 -0.0831386 -0.13096 -0.223465 0.0274306 -0.110951 -0.206143 0.240165 -0.0845755 0.0992898 0.000134974 -0.0510516 0.0847707 0.0966685 0.0245831 -0.00798652 0.0300073 -0.0693688 0.0619427 -0.103404 -0.0636602 0.00939169 -0.0724393 -0.0677268 -0.0465813 -0.158907 0.0556846 -0.160468 0.26363 -0.0139409 -0.0452328 0.143547 -0.0610019 0.273075 0.10354 -0.0909699 -0.140294 -0.0101866 0.0628494 -0.0470467 -0.148851 -0.0358656 0.315677 -0.338823 -0.0942448 -0.0752643 0.126984 0.0436675 0.220098 -0.125292 -0.156542 -0.0140798 -0.105221 -0.114189 -0.0490032 -0.0649804 0.0621788 -0.18513 0.0863021 0.0516157 -0.00748244 -0.028284 0.0909318 0.0229121 0.0498662 0.105453 -0.00655149 0.0276477 0.0770406 -0.157033 -0.0100852 0.016839 0.0294507 -0.0627102 0.0429839 -0.224058 -0.024481 0.0546458 -0.0455609 0.150161 0.118666 -0.0112802 -0.160144 0.0154399 -0.00726921 0.0209727 0.156812 0.0561271 0.173079 -0.00057338 -0.0333494 -0.0265837 0.0448101 0.243782 0.0592561 -0.091613 0.186449 0.205801 -0.0595743 0.0592451 -0.178614 0.0648591 0.0468145 0.211106 -0.0837694 0.112297 0.0235981 -0.211143 0.104602 -0.209476 -0.00549299 0.105263 -0.121519 -0.236326 0.0923081 0.125306 0.0207384 0.103822 -0.00501606 0.0182511 -0.159114 -0.00940378 -0.0599934 -0.145873 -0.139413 -0.308216 -0.021803 -0.238128 -0.0856182 -0.00960762 0.067196 0.0300896 0.11034 0.110947 -0.154167 -0.079116 0.0492581 -0.0549056 -0.31365 0.0913049 -0.163004 0.0517988 -0.0274972 -0.15216 -0.129321 0.0181077 0.284697 -0.195607 0.027493 -0.0594486 0.182943 0.102816 -0.167441 -0.10975 0.0876358 -0.301441 0.12486 -0.0870351 -0.0188148 0.134991 -0.0714072 -0.381099 -0.259226 -0.195112 -0.0100134 0.170271 -0.116709 -3.07166e-05 0.012339 0.0463447 0.105125 -0.0787094 0.0897101 -0.223812 -0.221461 0.193365 -0.0814263 -0.083296 -0.19172 -0.0332977 -0.0195003 -0.11762 -0.259951 0.158251 -0.0555106 0.0590709 -0.0708712 0.364743 0.00129555 -0.156701 -0.153028 -0.160011 -0.109024 0.0616262 0.201739 -0.0136242 0.0261509 0.022993 -0.175561 0.103765 0.125325 0.101958 0.0758319 0.0522251 -0.0620822 0.264136 -0.115955 0.0815376 -0.0530367 -0.0937129 0.00149218 -0.100146 0.0855745 -0.0778177 -0.206465 -0.193988 -0.185505 0.140328 -0.0415061 0.107186 0.0658766 0.00136331 -0.0361422 0.161865 -0.0717553 -0.0676793 0.345819 -0.0795225 -0.0437336 0.0324251 -0.135113 -0.00621868 0.219401 -0.0588957 0.0943039 0.203987 -0.0742901 -0.0475233 0.00723077 0.100794 -0.200867 -0.0324763 -0.146752 -0.00216661 -0.208898 0.084333 -0.111511 0.237882 -0.107966 -0.0311165 0.0102885 0.0559751 0.0971002 -0.0960098 -0.227816 -0.0598292 -0.111676 0.149617 -0.0354811 0.0203046 -0.0726909 -0.0240134 0.0484589 -0.180697 -0.173123 -0.177718 -0.0713049 -0.199509 -0.0578122 0.265147 0.00506712 0.13033 0.164054 -0.129347 -0.164523 -0.0536574 -0.13239 0.172104 -0.0606601 -0.117003 0.0468928 0.139274 0.088732 0.209814 -0.0953886 0.139742 -0.0922735 0.000473013 -0.0265522 -0.0346077 -0.00436159 0.0816746 -0.206917 -0.265058 0.0587846 -0.0630686 -0.0541614 0.203347 -0.143298 -0.17496 -0.0589188 -0.181514 -0.0427011 -0.0311156 0.0613424 -0.0404703 0.086108 0.0942582 -0.0950406 -0.275908 0.0795397 0.121714 -0.126875 0.0479292 -0.150855 -0.00896201 0.151031 -0.07883 0.0672483 -0.0936122 0.304602 0.0929802 -0.190775 -0.0334527 -0.192206 -0.100302 -0.0201712 0.262851 -0.160273 -0.030116 0.0647316 0.16832 0.0731815 -0.0841939 -0.0516117 0.120378 -0.0442424 0.111043 0.283017 0.0536685 0.0844397 -0.0608959 -0.0849064 0.123869 -0.0244697 0.00576317 -0.137861 -0.0186463 0.115307 0.157605 -0.0580531 0.174682 0.0258773 -0.0683089 -0.105595 -0.0443794 -0.114927 -0.0733792 -0.0540983 0.238099 0.123355 -0.0425743 -0.00358341 0.129936 -0.432223 0.212235 -0.00376351 -0.0143143 0.130946 -0.172261 -0.154148 0.238701 0.0299471 0.0539115 0.169632 0.0265553 0.00430203 0.16332 -0.109393 0.137152 0.115299 0.0182806 -0.013621 0.0884957 0.0512651 -0.00462311 -0.225864 0.0932699 -0.0879094 0.129449 -0.0793174 0.149698 -0.217313 -0.083973 0.0785502 0.0939463 0.127776 0.0818926 -0.00269162 0.201248 -0.0665031 -0.0827596 -0.247232 -0.281104 -0.161302 -0.154024 0.021628 -0.0491724 0.0982891 -0.125339 -0.230662 -0.229223 -0.0186058 -0.154598 0.0245337 -0.187475 -0.136862 -0.0127011 0.00422441 0.0274466 -0.211851 0.176769 -0.155334 -0.229054 -0.239478 -0.0807256 -0.0569654 -0.0575306 0.0852562 -0.275552 0.183315 -0.0357904 0.0394428 -0.0498749 0.0256369 0.0493729 0.0448607 -0.0268333 0.251568 0.218742 -0.123286 0.170865 -0.311845 -0.340417 0.0377169 -0.187889 
-0.0552567 0.00292492 -0.0770885 -0.161391 0.027223 -0.115451 0.00427417 0.210291 -0.096182 -0.0168645 0.00886221 -0.0022177 -0.212573 0.0383135 -0.0887189 -0.186769 0.121016 -0.0986855 -0.235529 -0.138511 -0.0107738 0.0693589 -0.102643 -0.0674813 -0.00626224 -0.0614546 0.0509631 0.116996 0.0389866 0.0291769 -0.155699 0.342497 0.0691028 0.142408 0.249112 -0.0312786 0.231825 -0.199175 -0.288412 -0.0401693 -0.191252 0.00146551 -0.00682435 0.0293721 0.0749217 0.159393 0.0518475 0.171075 -0.0991005 -0.121669 0.209505 0.06539 0.00475318 0.0816099 -0.0411159 0.0918705 0.0507487 0.0418092 0.0165109 -0.0161311 -0.0642999 -0.0462177 -0.17142 -0.163868 -0.0864572 -0.21318 -0.0593292 0.0600952 -0.0762995 0.146136 -0.0919165 -0.0743016 0.179914 0.161682 0.0230272 -0.0862691 0.108298 0.0806028 0.0253567 -0.0431612 0.196615 -0.070308 0.0576308 -0.0113848 0.0970813 -0.128767 -0.0900057 0.0606423 0.22262 -0.0092193 0.0547948 0.0025286 0.237646 -0.0785724 -0.13067 0.100254 -0.323329 0.0417355 -0.0803596 0.233921 0.196377 -0.0881631 0.0190268 0.181118 0.00455009 0.019568 0.0973487 -0.164128 0.024163 0.0441068 0.114979 0.0569854 0.040635 0.0909446 0.0985916 0.0370093 0.0238548 0.301541 -0.0361167 0.047499 -0.0438659 -0.122373 -0.0347861 -0.160986 -0.0854302 0.0570953 0.0498948 0.0333751 0.217151 0.0334803 0.210221 0.0168108 -0.039547 -0.0338227 -0.00464881 0.0252771 -0.17804 -0.0632395 -0.0543126 0.0383213 0.176407 -0.0838413 -0.178832 -0.134264 0.14421 0.235418 0.0182581 -0.137479 -0.0899036 0.283124 -0.0380412 -0.0445408 0.0446845 0.0373766 0.048402 0.316832 0.0159757 -0.0459159 0.047473 -0.14529 -0.0301617 -0.11981 -0.105826 -0.0268034 0.0703692 -0.0557211 -0.0273442 0.0334428 0.155914 -0.0855508 0.136097 -0.0620681 0.0606093 -0.0616477 -0.14137 0.223753 0.0496857 0.0457625 -0.0183857 0.0675488 -0.149541 0.0017592 0.0559028 -0.0973305 0.0606614 -0.0989147 0.0523445 -0.3788 -0.0892713 -0.00434593 -0.121209 -0.0390906 -0.150785 -0.0901135 0.0209071 -0.0423549 -0.122805 -0.186838 0.0533397 -0.181591 0.0644605 -0.0425277 0.140629 0.0652324 -0.0789128 0.00223122 -0.0726636 0.114244 0.060693 -0.15334 0.0232731 -0.168855 -0.103538 -0.0130917 -0.139884 0.056754 -0.0279133 -0.291633 -0.0776826 0.190271 -0.0881691 0.261536 -0.242078 -0.0906549 0.0528928 -0.193692 -0.002167 0.0382703 -0.141625 -0.0434264 -0.0998023 0.00395197 -0.158772 -0.296531 -0.030581 -0.0749312 0.129504 0.201935 0.218084 -0.0538296 0.0621022 0.0168293 -0.200248 -0.0939524 -0.0152869 -0.0120564 0.0836287 0.222488 -0.0466257 -0.0311238 0.0254576 0.00900094 0.308399 0.200747 0.140511 -0.121518 0.0586427 0.117239 0.183685 -0.167522 -0.02972 0.0504287 0.0461352 0.182678 0.20909 0.0471233 -0.110304 0.0544754 -0.057123 -0.148031 -0.015641 -0.0141796 0.108523 0.046989 -0.0378705 -0.0464979 0.154042 0.0135295 0.13704 -0.0470032 0.0353845 0.0301986 0.350924 0.100792 0.0893065 -0.13142 -0.141113 -0.0779643 -0.172051 0.120959 -0.0495728 -0.0245027 -0.0628585 -0.293477 -0.160316 -0.117337 0.135056 -0.197102 -0.098375 0.284043 -0.149709 -0.0361013 -0.161462 0.0146921 -0.00163814 0.00429205 -0.079391 0.0132193 0.0930965 -0.226471 -0.110515 -0.294566 0.0182103 0.141843 -0.0683948 -0.0599376 0.123361 -0.166105 -0.0250231 0.0665172 -0.165278 -0.271106 -0.221133 0.119275 -0.0947988 -0.0507724 -0.115255 -0.231313 -0.0311999 0.0392093 0.0362058 -0.00797539 0.0777337 0.036404 -0.143561 -0.176054 0.269606 -0.0435295 -0.103136 -0.0166051 0.0438583 0.000853171 0.256731 0.0396274 -0.0207997 -0.120046 -0.0459657 0.167171 0.104754 0.0535116 -0.0688061 0.174077 0.242521 -0.0169785 0.0213839 0.0711629 0.16728 0.069324 0.103558 0.042334 -0.0564787 -0.00270826 0.0788132 0.156526 -0.0655131 0.0646141 0.0168075 -0.148865 -0.245802 0.142495 -0.180912 0.0220954 -0.0433294 -0.0976247 -0.128263 -0.0465227 0.0894043 0.172773 0.00882926 -0.181307 0.180868 -0.0707474 -0.0482404 -0.0475054 -0.061131 -0.0891535 -0.0303579 0.000658974 0.150976 0.0520837 -0.0588244 -0.121632 -0.185174 0.205966 -0.0293596 -0.298647 0.172055 0.199195 -0.0328141 -0.117426 -0.0455989 0.0863273 0.0461039 -0.162295 0.0501596 -0.124931 0.195581 0.0685382 -0.0211577 -0.0634484 -0.0367612 0.0152684 0.000519291 -0.0834186 -0.00882113 -0.16488 0.173985 0.09531 0.0206346 0.101773 0.197515 0.082915 0.0567621 0.0756685 -0.243689 -0.120731 -0.0189944 -0.0828816 0.122183 0.0908851 0.185411 0.0560431 0.0412387 -0.117996 0.279021 0.10449 0.151382 0.0509926 0.0320765 0.173523 -0.148553 0.0508894 -0.0418434 -0.00623507 0.0881227 -0.386707 0.0233634 0.10788 0.106712 -0.00824723 -0.0701182 -0.172628 -0.0643291 0.102056 0.0434313 0.0275002 0.0515563 0.129347 -0.132262 0.00994213 0.154503 0.0425775 -0.223214 0.0171717 -0.0853574 -0.0411283 0.0351734 -0.109586 -0.0517526 -0.0424386 -0.107986 0.00924464 0.0408557 -0.0824992 0.17432 -0.0287105 -0.0370467 -0.147904 0.0645391 -0.0818193 0.0948208 0.191934 0.186276 0.311676 0.0504144 0.0805697 -0.0977845 0.178281 0.164659 -0.230439 0.051471 0.174931 0.2308 -0.141842 -0.00962913 -0.203704 0.0422032 0.136909 -0.00247214 -0.035724 -0.334446 -0.0149295 -0.130085 0.0228435 -0.0791299 0.121142 0.0265174 0.0616281 0.0204988 0.189675 0.0552462 0.103255 
-0.142308 -0.145834 0.139916 0.0699473 0.0469031 0.11198 0.0318842 -0.0111943 0.0992166 -0.177517 -0.141499 -0.106473 0.0660254 0.225413 -0.141821 0.0304905 0.0112491 0.129841 0.095071 0.0223481 -0.0336108 -0.17155 0.10665 -0.129365 0.0543334 0.220462 0.135811 0.0508293 0.0583833 0.191458 -0.146028 -0.047027 0.00944047 -0.244651 0.00570195 -0.0799135 0.0648152 -0.0289073 -0.319822 -0.040595 -0.120601 -0.224163 -0.0674621 0.0441164 0.0534169 0.134988 0.141894 0.200695 0.0119666 0.0663584 -0.0899709 -0.219988 -0.134594 -0.151377 -0.0741079 0.0580493 -0.0638461 0.0159167 -0.0555795 0.0894122 -0.0498036 -0.129553 -0.0460172 -0.0647404 -0.158749 -0.160651 -0.134346 0.025 -0.185349 0.370333 0.157954 0.121534 -0.113699 -0.0495078 -0.283481 -0.0666572 -0.16027 0.0228352 0.145958 0.139645 -0.121483 -0.17121 0.0342928 0.140993 0.0257045 0.12238 0.189416 -0.0234049 0.168849 0.0866527 -0.141227 -0.156144 0.0169673 -0.0273168 -0.0721735 0.0707589 0.0469243 -0.0370231 0.111955 0.0252538 -0.193058 -0.104404 0.17586 0.0352935 -0.0486926 -0.057603 -0.0159993 -0.014826 -0.0637594 0.0484301 -0.123638 0.02976 -0.102329 0.145775 -0.313639 0.0425582 -0.15596 -0.0438175 -0.096919 -0.0656537 0.104401 -0.178753 0.148133 0.0402805 -0.0393358 -0.0679635 -0.089861 -0.0742252 -0.013473 -0.139149 -0.039073 -0.212439 0.149891 -0.262362 -0.033882 -0.0308417 0.0628871 -0.145888 0.0450553 0.0194838 0.0818876 0.0892584 0.165464 -0.101475 0.0213164 -0.0639808 0.0692382 0.0671904 -0.126529 0.117067 0.168028 0.00151696 0.0860467 0.171276 0.00274396 0.0733245 -0.0579946 0.0726789 -0.163337 -0.175569 0.133095 0.126604 -0.0495877 -0.035594 -0.172047 0.0108351 -0.138481 0.340638 -0.0679046 -0.0452801 0.108313 0.066882 0.168868 0.0601915 -0.044118 -0.172535 0.00220534 0.0768476 0.0409166 -0.123758 -0.283381 -0.0993372 -0.0437101 -0.0442566 -0.176211 -0.0453914 0.250805 0.00173001 -0.159024 -0.00470572 -0.0428127 -0.0488428 0.0736364 -0.00620901 0.156684 -0.117527 -0.06244 -0.170855 -0.107544 0.0407724 -0.00750772 -0.0240538 0.228247 -0.0834134 -0.227736 -0.0728088 -0.175178 0.120794 -0.117864 0.26865 0.191453 0.0773254 0.0693193 -0.129187 0.0139311 -0.0616836 -0.0157326 0.441204 -0.114382 0.0173261 0.144094 0.0902345 -0.154943 0.0723029 0.127231 -0.00682616 -0.0821066 0.00507765 0.196762 0.039714 0.00442361 0.0806947 0.203054 0.15178 0.019229 -0.236478 0.216331 -0.115215 -0.0322321 0.179372 -0.142321 -0.0159762 0.0174808 0.125556 0.143583 0.00283077 0.0205354 0.0277038 -0.0165932 0.23332 0.023583 -0.0869794 -0.0895234 -0.0731643 0.0927985 -0.106469 -0.165366 0.132953 0.107508 -0.171119 -0.121087 -0.00144464 0.0423198 -0.0135284 0.0767535 -0.0543713 0.0412032 0.0615909 -0.0316062 -0.00426675 -0.162367 -0.168183 -0.0957485 0.0552789 0.0211945 -0.109506 0.0376736 -0.0641797 -0.263439 0.0933178 -0.173403 -0.0639054 -0.0732088 -0.297944 -0.10431 0.164142 0.0478321 -0.146086 -0.0201236 -0.252432 -0.241724 0.0266667 -0.00826482 0.0380858 -0.219472 -0.122888 -0.0106402 0.124837 0.130746 0.27456 0.174997 0.106877 0.235338 -0.131776 -0.0509347 -0.0930475 0.109902 -0.234868 -0.0387918 0.0385807 -0.0517644 0.110148 0.107878 -0.0244328 0.156751 0.0212859 0.0660595 -0.24554 0.0534144 -0.282444 -0.00222129 0.169354 0.00230709 -0.173889 0.0868069 0.10153 0.201406 0.219288 0.153729 0.0917907 -0.134741 -0.0226625 0.13158 -0.120388 0.210695 0.165842 -0.000343161 0.16348 -0.138803 0.0839727 -0.138379 0.126608 -0.172324 0.281172 0.0197883 -0.161147 -0.103471 -0.159251 0.0661986 0.169476 -0.163462 -0.0272985 0.00213937 0.0025372 0.215215 -0.151878 0.0279404 0.0143161 -0.0707826 -0.0150757 -0.121816 -0.0657686 0.0104984 -0.198682 -0.0532706 -0.0745318 -0.0963813 -0.0390974 0.132794 -0.114293 0.0310407 0.0523794 0.0370781 0.071918 0.144175 -0.0144113 -0.0806515 -0.243243 0.0345158 -0.212496 0.144801 0.0137147 -0.0625589 0.0655881 0.0971086 0.0427441 0.222241 0.0424491 -0.0631318 0.008548 -0.0674703 -0.338052 -0.328092 0.0804677 0.0814241 -0.162685 -0.0690291 -0.155348 0.152031 -0.0416852 -0.105561 0.186592 0.171794 -0.185847 -0.130601 0.0914647 -0.247796 -0.0500127 0.176105 0.0202589 -0.00811179 -0.0291457 0.0610997 -0.0901709 -0.0538494 -0.283875 0.418241 -0.408013 -0.27355 -0.053786 -0.184653 0.03545 -0.109268 -0.0562684 0.155027 0.147208 0.00775963 -0.121202 0.201549 0.119816 -0.107538 -0.150942 0.012897 -0.106499 -0.0679465 0.129053 0.167062 0.000719997 0.119843 0.265045 0.011614 -0.154967 -0.0665268 0.00852803 -0.175856 -0.186634 0.150497 -0.0584558 -0.111732 -0.0769284 -0.176013 -0.151471 0.130598 -0.0904127 0.0812211 0.0854981 -0.0721765 -0.118108 -0.0386842 -0.0696058 -0.00603102 0.0234671 0.0850972 -0.148434 0.0553803 0.178151 -0.0741389 0.13618 -0.14455 0.0637325 0.0513777 -0.155237 0.136014 0.0159836 0.0876922 -0.192254 -0.229736 0.0090114 -0.0330762 0.036692 0.205648 -0.0318127 0.147699 0.261258 -0.106373 -0.183502 0.0511528 -0.118136 -0.0908961 0.260061 0.118833 -0.14512 -0.199242 0.179329 -0.094657 -0.157016 -0.136933 -0.126279 0.230638 0.150836 -0.00948088 -0.0852224 0.135451 0.0398912 -0.0926562 -0.0744856 -0.121596 0.134391 -0.196389 0.0726321 0.166396 -0.0374432 
