124 512
-0.136551 0.230699 0.0187847 -0.130374 -0.0357499 -0.00321311 0.112726 0.0365426 0.160528 0.094358 0.112446 0.0213624 -0.0410988 0.0636731 -0.0207053 -0.205172 -0.0868837 -0.0394901 -0.126953 0.0494516 0.145329 -0.003881 -0.235361 -0.025901 -0.0946686 -0.114161 -0.014746 0.151377 -0.150826 0.200277 0.0542817 0.162463 -0.0177883 0.00349637 0.123943 -0.149812 0.0781343 0.152195 0.135958 -0.12791 -0.00396823 0.0242329 -0.0161881 -0.0264056 0.086551 -0.137257 -0.111234 -0.0258168 0.138139 -0.084006 0.0427318 0.0208487 -0.117048 0.234933 0.274271 -0.134238 0.162565 -0.251661 0.2607 -0.0246411 -0.08005 0.0637861 0.0722148 0.130537 -0.0127136 -0.0117658 0.18148 -0.210067 -0.0926445 0.0963845 -0.102673 -0.0423039 -0.086256 -0.0332569 -0.0775838 -0.0363021 -0.151394 0.0178479 0.189776 0.274852 -0.0751191 0.0184253 0.0395796 0.0541364 -0.298307 0.105021 0.0543414 -0.00676791 -0.302218 0.15401 0.0756048 0.0713538 -0.032694 0.0895162 -0.0101432 0.253193 -0.212439 -0.0388477 -0.0889776 0.381604 -0.000927453 -0.127594 0.0221035 -0.187498 0.170983 -0.18056 -0.111652 -0.00703897 -0.0349389 0.204259 0.0732413 -0.18712 0.0964327 0.00679371 0.0234781 -0.0715877 0.181509 -0.13649 -0.15673 0.00565905 -0.207629 -0.12257 -0.158469 0.161673 0.0752091 -0.0492611 0.148844 0.0338808 0.0254349 0.0764424 0.0539046 0.0264613 0.112283 -0.0392587 0.186067 0.244431 -0.0445116 -0.0702576 0.0648005 0.0775386 -0.0441773 -0.11738 -0.04194 -0.168813 0.0848596 -0.0685725 0.0346446 -0.137064 0.107578 -0.173218 0.111283 -0.230087 -0.0682346 0.101621 -0.0216592 0.0553281 -0.0102027 -0.186654 0.185168 0.0188332 0.117995 -0.097518 -0.0249276 0.00665644 -0.0184807 -0.0217593 0.112754 -0.0797777 0.0317404 0.0710987 -0.0640354 -0.245041 -0.0685053 0.0736922 -0.0112364 -0.0420067 -0.0744023 0.26704 0.200821 -0.102573 0.0204453 -0.158727 0.0415901 -0.00796712 -0.137911 0.047819 -0.103302 -0.0594964 -0.194001 0.116143 -0.00641796 -0.098816 -0.162312 -0.0992776 0.111757 0.0496041 0.0953969 0.207594 0.0876656 -0.00836789 -0.000567034 0.107633 0.0858787 -0.0556509 -0.108677 -0.109414 -0.193124 0.246388 0.13496 0.0988999 -0.00377471 -0.131936 -0.192596 -0.0863027 -0.0246074 0.111117 0.0807676 -0.170722 0.118213 -0.267317 0.157842 0.0640847 -0.000973225 -0.36029 -0.239303 0.133232 0.0777426 0.160972 -0.149689 -0.224027 -0.0845302 -0.207323 -0.256041 -0.0118831 0.0766372 0.0750274 -0.295284 -0.0871475 0.0711741 -0.200963 0.0879475 -0.129224 -0.225379 -0.0323315 0.0774315 0.129733 0.0915994 -0.163094 0.146713 0.0883744 -0.124692 -0.0925692 -0.107605 0.0594669 -0.0226589 0.0228777 0.103888 0.0641617 -0.177946 0.0355444 0.0968197 -0.0810307 0.173478 -0.0388556 0.312583 -0.0158266 -0.0470621 -0.00384004 0.0227514 -0.136796 0.281618 0.133231 -0.0892918 -0.0304553 -0.13532 -0.0972495 -0.084608 -0.026653 0.124794 0.0294001 0.202197 0.0726635 -0.0591683 -0.0991946 0.0289097 0.11306 -0.0838607 0.102296 -0.22237 -0.169073 0.00956838 -0.0722093 -0.0307556 -0.128479 -0.0314539 0.0436265 -0.0451571 0.156867 -0.260612 0.0803659 -0.0133394 0.0334343 0.269789 0.216817 0.200247 0.0397602 -0.0548002 0.0676695 0.208135 -0.172462 -0.0448919 0.250257 0.211267 0.327643 -0.24413 -0.190379 -0.0034698 0.0424043 0.0468823 0.102872 -0.259941 -0.10305 0.083914 -0.0549464 -0.124608 0.164884 -0.038721 0.100951 0.184469 -0.0683753 -0.00102925 0.149494 0.132721 0.158256 0.00509839 -0.167361 0.162902 -0.206553 0.14295 -0.0517612 -0.113675 -0.124445 0.167281 0.0952888 -0.121745 0.13348 0.122814 0.0363465 -0.0417916 -0.0956844 0.102184 -0.144301 -0.256891 0.0185676 0.18308 0.0249915 0.0581827 -0.0548878 0.29584 0.0920666 -0.147666 0.105044 0.0130781 0.147103 -0.183501 0.384712 -0.0800182 -0.23061 -0.133129 -0.1555 -0.0886073 -0.209775 -0.072332 -0.170905 -0.0393061 0.0139736 -0.0468504 0.0636998 -0.0455427 -0.164095 -0.0369278 -0.039308 0.187733 0.00280866 -0.210138 -0.319446 -0.254788 0.0496662 0.00620542 -0.279758 0.176027 0.117 0.0432842 0.0624314 0.0434578 -0.0123978 -0.0045475 -0.0314363 -0.0292709 0.10436 -0.0128985 0.186187 0.0704029 -0.0287265 -0.0626241 0.160979 0.210843 -0.266786 -0.0632764 0.118886 -0.0502364 -0.14974 -0.0050373 0.166519 -0.02229 -0.064266 0.244472 0.2247 -0.0554392 0.109074 -0.0767133 0.140942 -0.0307232 -0.0105053 0.00707434 0.0359413 0.350526 0.0221759 0.016743 -0.121793 0.102614 0.0471297 -0.0294187 0.0333953 -0.0877136 -0.0171961 -0.11236 0.121869 -0.0192367 0.0098167 -0.213274 -0.060609 -0.272455 0.118026 0.0511925 -0.32024 -0.0203169 -0.0179792 -0.0142839 -0.136415 -0.236546 -0.0784679 -0.0144092 -0.175403 0.0617336 -0.0767385 0.0405823 -0.0684041 0.0721199 0.262126 -0.0794984 0.0489719 -0.0174884 0.0745683 0.395327 0.109992 -0.150085 0.0525115 0.080715 -0.294313 -0.169344 -0.046735 -0.0537597 0.145159 0.222359 0.0575262 0.0139358 0.115236 0.173557 -0.0668814 0.0121759 0.00239614 0.0442335 0.0831522 -0.279018 0.00605871 -0.301625 0.016402 -0.0938692 0.0797887 0.0611711 0.0901588 0.0003094 0.178742 -0.0859777 -0.188206 -0.188139 -0.137533 -0.0932264 -0.0547733 0.141123 -0.0012507 -0.274016 0.171613 -0.317794 0.181293 -0.0552645 0.0413223 0.116283 -0.0152664 0.0630267 -0.0224215 
0.0462541 -0.300876 0.206493 0.109115 -0.206527 0.297659 -0.0143566 -0.0433483 -0.12059 0.0324573 -0.0251445 0.173127 0.0575642 0.206479 0.0576458 -0.116024 -0.042756 0.0574233 -0.0293943 -0.185491 0.0180311 0.112171 -0.0306342 0.114353 0.0473362 0.0314163 -0.0875942 0.132706 -0.0786035 0.0549616 0.0914478 0.181286 0.0830292 -0.103161 -0.0381759 0.217207 -0.115002 -0.0542169 0.00456976 -0.138992 -0.045023 -0.0963135 -0.0311179 0.018233 0.135804 -0.158138 -0.0195799 -0.135071 0.0721781 0.217858 0.0103148 0.0767632 0.00589136 0.13746 -0.133484 -0.067952 0.226234 -0.20409 -0.0572553 0.00364363 0.0347057 0.0490505 -0.0574895 -0.0501319 0.132794 0.170735 0.100509 -0.0420022 0.0719163 0.163822 -0.020803 -0.0952131 0.013905 -0.246982 0.158419 0.14172 0.0584788 -0.0968186 0.00100736 -0.220212 -0.0582691 -0.00437513 0.08194 -0.0512033 0.161926 -0.15887 0.0683489 -0.121698 0.208343 -0.142636 0.101603 -0.0775405 0.156605 0.0489304 -0.137608 0.0666644 0.0651186 -0.0486668 0.0330054 -0.144636 -0.269207 -0.189484 0.0574723 -0.0966795 -0.0837782 0.177129 0.272436 -0.192048 0.0911356 0.217059 -0.012598 -0.218763 -0.11647 -0.0831878 -0.00611318 -0.245953 -0.263461 0.0763667 0.0241297 0.151268 -0.152378 -0.133193 0.139398 -0.144221 -0.0396257 0.00397597 0.0982163 0.226309 -0.250589 0.0280566 -0.0148965 0.0329657 -0.0549373 0.11643 -0.0348461 0.19049 0.116374 0.00897034 -0.0956449 -0.226003 -0.132128 -0.137243 -0.0431196 -0.0316841 0.129805 0.042751 -0.125732 0.110152 -0.0812447 0.237323 -0.0530942 -0.0740194 -0.089589 0.0229626 0.051188 0.148706 -0.0923085 -0.0775158 -0.13731 0.169113 0.00990904 -0.0348273 0.123721 -0.146513 -0.238531 -0.189104 -0.00496777 -0.00867844 0.115331 -0.0501401 -0.0884481 0.0188711 -0.0225257 -0.143909 -0.139383 0.138756 -0.0135244 -0.0561907 0.000358901 -0.0522789 0.0519367 -0.0826982 -0.0505047 -0.111787 0.00102934 -0.148682 0.0865192 0.0570809 0.0512737 -0.102292 -0.0970564 -0.0783765 -0.055668 0.00273358 -0.141259 -0.0205973 0.0300782 -0.114513 0.141295 0.128948 -0.109453 -0.0812968 -0.0262673 -0.190364 0.0875711 0.0420388 0.135777 0.191369 -0.12891 0.16833 -0.0190951 -0.0751617 0.0960664 -0.0346309 0.0135209 -0.0472126 -0.158556 -0.228262 0.0282078 0.287876 -0.0555889 -0.00200789 -0.133283 0.0324426 0.0144207 0.115534 0.030383 0.0848973 -0.183358 -0.0517209 0.104534 -0.055683 0.0460994 -0.122965 0.0440241 -0.111932 0.108296 -0.304294 -0.0827944 0.256072 -0.0443992 -0.00126473 -0.162629 -0.114543 -0.0353605 -0.0203121 -0.158538 0.0744694 -0.157489 -0.0465307 0.0417014 -0.0952562 0.000267604 -0.153376 0.20636 -0.0607348 -0.0553732 -0.0697015 -0.100545 -0.309905 -0.0816589 0.0132983 -0.0563115 0.188788 0.0828587 -0.234721 -0.0860218 -0.0512374 0.180592 -0.0823479 -0.0246512 -0.0560872 -0.0164735 -0.0670431 0.0143813 0.298185 -0.109503 0.0489525 -0.00882383 0.176794 0.0987843 0.0579335 0.00929958 0.128133 -0.0582612 0.0221773 -4.52261e-06 -0.0966833 0.164319 0.0983963 -0.130015 -0.124161 0.01725 -0.229545 -0.187003 -0.0533632 -0.0764193 0.0524558 0.0540408 0.227498 -0.163902 -0.0653594 -0.0872371 0.169638 0.0195835 -0.0298681 0.262032 0.19005 0.115773 0.0416943 -0.255309 -0.00812661 -0.100655 0.13417 0.0857759 -0.0593841 -0.156781 0.00206659 -0.0758743 0.161473 0.0630507 -0.284466 0.0115467 0.202388 -0.086581 0.0924746 0.031685 0.0443932 -0.20557 -0.108947 -0.0664124 -0.061137 0.0587206 -0.116659 -0.242312 0.257518 -0.0775474 -0.0369571 0.187915 0.0500501 0.180861 -0.0144623 -0.219717 -0.0644803 0.106037 -0.180694 -0.213881 0.212553 0.145047 0.165431 0.265145 -0.109454 -0.0576019 -0.111911 0.084487 0.0677559 0.016435 0.0303111 0.0640161 -0.126899 0.0432596 -0.154612 0.388779 0.0346111 0.00244802 0.104232 0.0308113 -0.108809 0.174665 -0.0641589 -0.0653963 -0.0530135 0.006968 -0.0240901 0.046363 0.134678 0.179433 -0.0878908 0.0983043 0.0141402 -0.0864912 -0.108989 0.14442 0.0924635 0.0436193 -0.130533 0.15912 0.157819 -0.0286351 0.200948 -0.017864 -0.090142 -0.0367969 0.171965 0.121067 0.00172375 0.260018 -0.135823 0.0525002 -0.0268306 -0.270876 0.0690077 0.0906055 0.285642 -0.206149 0.0763634 -0.03514 0.222319 -0.026675 -0.0413783 -0.0701821 -0.0339464 0.0358742 0.006695 -0.113408 0.00632869 0.0944782 -0.235332 -0.0968537 -0.106681 -0.142555 -0.107225 -0.0861664 -0.189012 -0.0368613 -0.0745661 0.0219075 -0.0602555 -0.160654 -0.0128914 0.0616304 0.0336935 -0.0332484 0.0624621 0.0510327 -0.157552 -0.102982 -0.090458 -0.0803493 0.0562696 -0.15752 -0.107615 -0.0145885 0.0288802 0.032138 -0.193226 -0.0686172 0.232925 -0.163984 0.0313718 0.16943 -0.0217799 0.0830685 0.12641 -0.066728 -0.206755 -0.00261328 0.0387159 -0.120688 -0.0642636 -0.0508718 0.0589304 -0.0632295 -0.0274996 -0.10193 -0.0522033 0.233692 -0.0448156 -0.0827456 -0.050478 -0.0602556 0.0133136 -0.123201 0.123695 0.0855319 0.081193 -0.0669762 0.113863 -0.0575081 0.047351 0.239417 0.147536 -0.176495 0.0431822 -0.0918101 -0.138836 0.31817 0.0117557 -0.150047 0.214879 -0.110908 -0.193224 0.0122298 -0.0419717 -0.0908653 0.0786948 -0.0554355 0.0837369 -0.0347933 -0.0136846 0.168116 0.109087 -0.198124 0.095821 -0.120276 0.114943 -0.114092 0.00202069 0.0966221 0.0844884 -0.0417075 -0.229443 
-0.0450426 -0.238376 0.0391572 -0.0461469 -0.0287864 0.054916 0.0426971 0.0375468 0.329994 -0.140478 0.154067 0.0224516 -0.00703315 -0.00344802 -0.186605 0.0714965 0.0524078 -0.0830906 0.0272404 -0.0994635 -0.0343789 0.057547 -0.0452548 0.16632 0.0690444 0.0926457 -0.0669038 -0.173483 0.232206 -0.0387661 -0.202895 -0.21697 -0.0471395 -0.108926 -0.157445 0.0815818 -0.081427 0.0915374 -0.165163 0.0359297 -0.056402 -0.114213 0.147711 0.0237884 -0.155855 -0.0404402 0.135553 -0.21047 0.144435 0.27162 0.181067 0.0412871 -0.160968 0.0994602 -0.114843 0.262121 0.106636 -0.0560251 0.185334 0.0514637 -0.208773 -0.172358 0.0442266 0.0119388 0.0397069 -0.0359729 0.0401156 0.0893824 0.0533521 -0.12614 -0.13752 0.0891717 -0.19419 0.0439599 0.0883592 -0.119637 -0.193269 0.273437 -0.0106393 0.0632602 -0.0599311 0.0303523 0.141916 0.188037 -0.329075 0.276309 0.164804 -0.00281912 -0.137822 -0.271845 0.0671591 -0.0952798 0.0546331 -0.128528 -0.0401475 -0.126545 -0.071168 0.107897 0.0102264 0.0792829 -0.0965813 0.0386648 -0.245273 0.0562351 -0.0260075 -0.0964921 -0.0181153 -0.0718576 0.075116 0.0624706 0.111158 -0.00752501 -0.0392125 0.0315757 0.197236 0.0620637 0.0963847 0.124711 -0.12737 -0.0681792 0.0853736 0.100362 -0.0879465 -0.00742927 -0.0112373 0.0883307 -0.103312 0.078796 -0.00180108 0.057412 0.0670964 -0.0730521 0.0347254 -0.232542 -0.0948943 -0.00798171 0.0637062 -0.259615 0.134896 0.115068 -0.0910906 0.00302842 -0.0533271 0.0419162 0.16575 0.050405 0.0148808 0.088859 0.178375 -0.0234347 -0.224921 0.0365742 -0.0874675 -0.120572 0.0471158 -0.204538 -0.0529051 -0.104216 -0.0106445 0.0868334 0.0344165 0.0284267 -0.0896362 0.265552 0.125027 -0.142359 0.153848 -2.57296e-05 0.136371 0.106311 -0.357757 -0.0849435 0.0869069 0.202631 0.0232257 0.0879434 0.0620091 -0.124285 0.111506 0.0680733 -0.154275 -0.0632553 0.118359 0.00863708 0.314941 0.236321 -0.308188 0.160495 0.166508 0.0554072 -0.0327708 -0.0799798 -0.0149666 -0.0696764 -0.112793 -0.0306433 0.240623 0.0541483 0.0447833 0.126923 0.212146 -0.0536395 0.0592796 -0.0458948 0.303792 -0.0523453 0.180084 -0.00672763 0.107825 -0.0686539 -0.110363 0.135476 -0.0558755 -0.0439217 0.0383387 0.128731 -0.265166 -0.169043 0.0297159 0.105241 -0.027296 0.0695 -0.152957 -0.0493873 0.010633 0.0794882 -0.0839725 0.0412759 0.0562667 -0.0598493 0.0374836 -0.0653894 0.0130551 -0.0474218 -0.108182 -0.09731 0.0427704 0.195331 0.0351788 -0.100894 -0.359977 -0.0371581 -0.188245 0.187445 0.310018 0.0800308 -0.207869 0.25482 -0.216111 -0.127341 0.0100296 0.0587161 -0.0115773 -0.110153 -0.145859 -0.0669312 -0.0090755 0.0271038 -0.0242743 0.124321 -0.00360077 -0.127062 -0.0755736 -0.0346808 -0.112379 0.273456 0.11226 -0.141442 0.302067 -0.170597 0.0685666 0.283629 -0.217259 0.131596 -0.00507734 -0.0773679 -0.185206 0.180986 0.0741915 0.100762 -0.107062 -0.0666323 -0.00999226 0.259363 -0.148951 -0.153261 0.00522294 -0.0821067 -0.0249111 0.213596 0.00991717 -0.0964238 0.110633 -0.015586 -0.000732046 -0.125889 -0.109861 -0.282633 -0.246694 0.0127376 -0.0199666 0.00518706 -0.054018 0.0267824 -0.0309947 0.147039 -0.137901 0.183404 0.0213784 0.199296 0.0470271 0.30102 -0.255009 -0.0925019 0.0634202 0.122998 -0.155369 -0.0108972 0.0654699 -0.075702 -0.136867 0.145861 0.0208674 0.164488 -0.268714 0.0876156 0.140119 -0.141067 -0.167399 0.0897136 -0.0535104 -0.078439 -0.0740989 -0.000588003 0.0462205 -0.117509 -0.295575 -0.0172521 -0.215754 0.283108 0.203825 0.100872 0.132797 -0.178399 0.270282 0.199742 0.174502 -0.0842339 0.0478636 -0.127722 0.0239747 0.0675288 -0.0500533 -0.246587 -0.260158 0.0130082 -0.0702043 0.0306564 -0.0689009 0.0682664 -0.0986434 -0.133134 -0.0779618 0.111588 -0.0786946 0.266369 0.172459 0.057936 -0.107391 0.114201 -0.0107242 0.283214 -0.0129237 -0.0281885 -0.121409 0.356384 0.139644 0.27982 0.0258737 -0.0298508 0.0918326 0.0385035 -0.0761087 0.209463 -0.0204396 0.00706708 0.155726 -0.343102 0.0685654 -0.08589 0.211767 0.146559 -0.144212 -0.0707599 0.159986 -0.154069 -0.173111 0.134961 -0.0517531 -0.032024 -0.0343334 -0.162712 0.0625999 0.0109358 -0.318029 0.0619872 -0.068733 0.0901534 -0.206454 -0.0231333 -0.0246737 -0.0055091 0.109884 -0.0990124 0.149621 0.0750285 0.0782858 -0.0657538 -0.0465369 -0.0704111 0.123227 0.221194 -0.0275377 -0.111488 0.0500852 0.106882 0.0774562 0.0882083 0.0807551 -0.287771 0.275028 -0.139241 -0.0246728 0.0101896 0.0393 0.012986 0.0471045 0.0117499 0.0530449 0.042885 0.0155534 0.118332 -0.042692 -0.0363696 -0.219241 -0.153327 0.0464049 -0.220753 0.141226 0.0285811 -0.0936026 -0.148121 0.171908 -0.117822 -0.0546669 0.0651614 0.21161 -0.11422 -0.305769 0.0573508 -0.137377 -0.0736469 -0.0540764 0.309369 0.0892126 0.0483272 0.13967 0.281871 -0.143242 -0.0286049 -0.0106778 0.00359232 0.0935684 0.118383 0.0896032 -0.089413 0.153857 -0.00862708 0.0487031 0.164184 0.122277 -0.0182142 0.0561749 -0.0794322 -0.107165 0.144087 -0.0354937 -0.183856 0.010601 -0.0737058 0.100019 -0.0729568 -0.182412 -0.0770048 -0.0430273 0.0282201 -0.170036 -0.0183889 0.0467681 -0.169128 -0.0380108 0.126462 0.0649293 0.249264 0.120534 0.00378563 0.250485 0.109175 -0.159601 -0.0105579 0.12134 -0.150856 
-0.0267397 -0.366736 -0.0472791 -0.0247453 -0.105189 0.184937 -0.12488 -0.129067 -0.172878 -0.186497 -0.137665 0.0815621 -0.0538945 -0.0484966 -0.0654208 -0.0317756 -0.133159 0.185284 0.0675327 0.0327178 0.0547621 -0.256609 -0.149032 0.0943462 0.395605 0.202267 0.152599 0.041639 -0.0371828 -0.0922826 -0.278102 -0.0363788 -0.109082 -0.0252953 -0.188581 0.200937 0.119889 -0.218966 0.0155391 -0.0618841 0.0138595 0.0332599 0.131531 -0.0605799 -0.0220123 0.0666907 -0.065052 0.0853656 0.000288335 -0.0751814 -0.104713 -0.0602647 -0.1121 -0.140108 0.0495872 -0.000689273 -0.076495 -0.0471133 0.1755 -0.204609 -0.129613 -0.0108235 -0.0511502 0.222201 0.209596 0.125387 0.00318841 0.0613505 0.0126362 0.0170781 0.116601 -0.232734 -0.00021826 0.0830349 0.091233 -0.0818999 -0.158288 -0.130703 0.000386445 0.0433043 0.162498 -0.0817126 -0.0777025 0.0580686 -0.0467073 0.146224 0.132376 0.0762416 0.0351072 -0.0397474 -0.134012 0.0318292 0.0861991 -0.258543 -0.21669 0.310513 0.190374 0.125987 -0.147326 0.0594036 -0.0223308 -0.30411 -0.0514777 0.00222915 0.0569969 -0.104594 0.0818217 -0.148915 -0.00657825 0.156731 -0.0550254 -0.124817 -0.221137 -0.011177 -0.149026 -0.0963601 0.151286 -0.112138 -0.213041 0.0753253 0.10402 -0.0241219 -0.145906 -0.0445007 -0.219715 0.240142 -0.197356 0.136165 0.0557059 -0.134569 -0.0376024 -0.0387839 -0.116363 0.0087822 -0.186613 -0.140233 -0.0705415 -0.0655471 -0.241557 -0.0285795 -0.1345 -0.0138862 -0.301495 0.0673855 0.0340986 0.0282627 0.102813 0.127807 -0.00623766 0.0644207 0.0658993 -0.228951 -0.0919386 -0.0080501 -0.0887791 0.0743375 -0.0252795 -0.0780921 0.0684017 -0.0540292 -0.00165064 -0.0989997 -0.171964 0.0270249 -0.0411918 0.206249 -0.0933061 0.0382821 0.00279525 0.0668436 0.0466785 -0.157502 -0.0310375 -0.31796 0.108445 0.0262544 0.097142 -0.0401089 -0.0620939 0.163277 0.0419217 -0.172551 -0.0735403 -0.0548536 0.0398156 0.123929 -0.0776759 -0.0869647 -0.137301 0.0257016 -0.156322 -0.00600908 0.0476697 -0.145753 -0.249076 -0.284223 -0.106373 0.155316 -0.192511 -0.124886 -0.0582434 -0.155844 0.0201664 -0.114837 0.0336258 -0.0564499 -0.263326 -0.00130092 0.0915842 0.136673 -0.0483492 0.0252486 0.0237805 0.261171 0.0767204 -0.06806 0.237333 -0.0216202 0.188966 0.0695685 -0.0929559 0.0403429 -0.0717079 0.0854618 0.0260271 -0.180404 0.0426803 0.0557327 -0.0635255 -0.0482458 -0.022004 -0.143471 -0.108986 -0.0652734 -0.287725 -0.101851 -0.136676 -0.00504694 -0.0202394 0.00359222 -0.0834173 -0.237994 -0.110686 -0.0708479 0.0656025 0.0754921 0.21174 0.0124956 -0.299191 0.103358 0.132367 0.11426 0.302394 -0.120515 -0.00271354 -0.202855 -0.149313 0.0391093 0.124426 0.0238272 0.0830417 0.0628826 -0.105672 0.127461 -0.0634407 0.0424214 -0.024101 -0.126935 -0.1023 -0.00545516 -0.101879 0.00753723 0.000279417 0.0366758 0.0142843 -0.359776 -0.108313 -0.1099 0.00524118 0.0267636 -0.0463666 0.228711 -0.0209762 -0.0956321 -0.0478247 0.142454 -0.308147 -0.156253 0.0283084 0.140746 0.0989957 -0.00709652 -0.0850804 0.178563 -0.149333 -0.039502 -0.0468234 0.185265 0.213808 0.0207107 -0.255454 0.123521 0.157561 0.0705723 0.0687511 0.161904 -0.089172 0.137598 0.444085 0.0589986 0.008511 0.135057 0.0822854 0.189661 -0.0467553 0.0882531 -0.0650242 0.0225112 0.0364139 -0.0519191 0.102734 -0.078141 -0.123092 -0.128761 -0.140236 -0.0937752 0.183232 0.243308 0.128112 0.055489 -0.214904 0.0530391 -0.0967343 -0.16875 0.132882 0.0281182 0.127375 0.0498151 0.373842 0.263923 0.0567724 0.00874841 -0.10183 0.0549547 -0.0600578 0.0234835 -0.0936635 -0.151307 0.0471294 -0.0269244 -0.180933 -0.200519 0.144326 0.153426 0.195463 0.0263372 0.25341 0.219334 0.077613 -0.0751695 -0.0128919 -0.10276 -0.164232 -0.0287132 -0.0424395 0.155318 -0.159941 -0.0342201 0.0752677 0.216486 -0.0197679 0.0304062 -0.146655 -0.0977871 0.186835 0.0915737 0.0605699 0.11165 0.0671906 -0.218927 0.0506786 0.198611 0.0522459 -0.0644424 -0.191959 -0.122212 0.010921 0.0330695 0.0313709 0.0500056 -0.094292 0.0735141 0.13227 0.113657 -0.0820178 -0.198004 -0.0115004 -0.0231423 0.110112 0.130058 0.103609 -0.231165 0.139176 0.0432628 -0.35835 -0.339853 0.0254688 -0.0900165 -0.355023 -0.285754 0.00976705 -0.0815486 -0.0840748 0.244501 0.0482246 0.0790187 0.0917296 -0.0665087 -0.156457 -0.0250994 0.135919 0.0184937 0.0187544 0.116222 0.191415 -0.00541672 0.080026 -0.0406363 0.000552138 -0.0192349 -0.124471 -0.122764 -0.118812 0.0640906 0.0799325 -0.106762 -0.141762 -0.109863 -0.0889978 0.0836773 0.0843717 0.0690233 0.193977 0.0325124 -0.0076927 0.0425636 0.104488 0.0366978 -0.242423 0.02306 -0.133489 -0.26563 0.138004 -0.116104 0.0313574 0.0221881 0.0339514 -0.172398 0.0380705 -0.186051 0.0652444 -0.354669 0.00159724 0.0728568 -0.144931 0.0605305 0.130869 0.0327736 0.087822 -0.1438 0.0842938 -0.0710451 -0.230484 0.219995 0.0739107 0.0824382 0.0273746 -0.0407658 0.231896 0.154184 -0.0358206 0.100053 -0.108496 0.168884 0.0628085 0.173501 -0.00254466 -0.0492703 -0.258873 -0.180902 -0.106179 0.0165614 0.2671 -0.0529768 0.0702904 -0.153219 -0.116536 0.113946 0.0448775 -0.0893638 0.307551 0.00766439 0.0201179 -0.137798 0.155287 0.0485841 -0.0675378 0.0310174 0.155993 -0.16272 -0.11521 0.018378 
-0.0447752 -0.205114 -0.0393846 -0.0377514 0.0058356 -0.0122709 -0.180881 0.198085 -0.131496 -0.00497767 -0.254439 0.0370475 -0.0688793 -0.0613808 -0.339958 -0.055338 0.20459 0.170734 -0.47485 0.101905 -0.0390708 0.118941 0.0200139 -0.187958 -0.0871095 0.0735886 0.145226 -0.00828768 -0.0348045 -0.170005 -0.196472 0.00263048 0.269565 0.0115165 -0.0579659 -0.000595031 -0.0542517 -0.0543864 -0.0648521 0.123198 -0.00194719 0.0928742 0.0941374 -0.1638 0.0606024 -0.0383911 -0.0146722 0.166499 -0.0509723 -0.121506 0.0368955 -0.227956 0.0199538 0.10773 -0.144458 -0.154394 0.0285237 0.0318938 -0.146014 -0.0821203 0.0371357 -0.0411658 0.0689227 -0.0729004 -0.00993314 0.00917904 0.104912 -0.036226 -0.0427387 -0.0623986 0.102572 -0.148325 -0.282262 0.319938 -0.0570636 0.0280521 -0.114945 0.070404 0.148624 -0.0344691 -0.101614 0.0245781 0.065556 0.00015786 0.126093 -0.0108967 -0.0262693 -0.1387 -0.22846 0.165094 -0.124921 -0.100113 0.0439036 -0.0112347 -0.154061 0.0300821 0.138061 -0.0878797 -0.0626456 0.0205532 0.133853 -0.090418 0.20077 0.236563 0.0282114 0.0124768 -0.0251586 0.0451136 0.158234 -0.0767585 0.101829 0.0738044 -0.0593986 0.062398 0.106972 0.0884783 -0.028297 0.246466 0.0781833 -0.0251308 0.00494985 0.0455836 0.0168927 0.0561717 0.143377 -0.141161 -0.233199 -0.0819868 -0.101623 -0.0574533 0.0210174 -0.0190317 0.174127 -0.1123 -0.0945155 -0.0117615 0.271261 0.0158693 -0.0645986 0.072652 0.144255 0.0618198 0.0773516 -0.16241 -0.0638992 -0.0981739 0.0123697 -0.238734 -0.0279606 -0.0631785 -0.0841606 -0.0586886 0.216637 0.0718656 0.0881987 0.0553072 -0.0384718 -0.190237 0.040993 -0.238931 -0.102572 0.104035 0.0772332 0.159389 0.0164748 -0.381446 0.0646243 0.110639 -0.194668 0.135491 -0.0246567 0.0796093 0.286366 -0.00224772 -0.16648 -0.0612871 0.110592 0.0245602 -0.0433174 0.0513818 -0.236353 0.0879017 0.013448 -0.214616 0.0667563 -0.0631908 0.0828928 -0.185067 -0.142854 -0.0917359 -0.112395 0.107534 0.086553 -0.183119 0.0810206 0.0797066 -0.0507417 0.106401 -0.153426 -0.180722 -0.0669792 0.199635 0.0824899 -0.149796 0.0446218 0.118921 -0.104585 -0.0608145 0.130461 -0.0564179 -0.190054 -0.0700959 0.0885574 -0.0182203 -3.161e-05 0.193304 0.192318 0.0697656 0.118743 0.182636 -0.0842126 -0.0503047 -0.141431 0.115978 -0.102459 -0.0346438 -0.0948145 0.0237947 0.0683707 -0.162215 -0.0307458 -0.0171807 -0.0442151 -0.050157 0.12642 -0.177706 -0.106876 0.0354541 -0.15335 -0.134801 -0.0253379 0.108743 0.059358 0.0248788 -0.0168124 0.159398 0.17 -0.0125227 0.185718 0.143599 0.0866839 -0.275256 -0.108583 -0.0576708 0.0775009 -0.0944237 0.164126 0.140178 0.179798 0.164755 0.0804432 0.0579911 -0.0568628 0.146852 -0.159377 -0.0940308 -0.10677 0.00318055 -0.0915473 -0.11219 -0.0390513 0.0806562 0.0378048 0.0213649 0.047369 0.0401701 0.0950173 0.155418 -0.0062972 -0.079985 -0.175396 0.0395544 -0.109172 0.249281 0.0370573 -0.00733583 0.0138641 0.00684176 0.235027 -0.227182 -0.186779 -0.0304172 -0.0216834 -0.0440487 -0.228608 -0.036632 -0.0808327 0.142713 -0.189172 -0.0724057 -0.219164 0.217091 -0.0558909 -0.113715 0.198861 0.078364 -0.13508 0.0709768 0.185048 -0.164918 0.0899232 -0.0114925 0.0379307 0.161718 -0.0184098 -0.0201845 -0.0359487 0.0440152 0.00904202 -0.0390421 -0.0388098 -0.154076 0.175747 0.00413091 0.0541203 0.296651 -0.0039115 0.085231 -0.0989623 0.376707 -0.0862001 0.00377102 0.0289656 -0.00471164 0.0276252 -0.29758 -0.00879612 -0.274391 -0.105114 -0.088255 -0.165861 0.0786309 0.178544 0.140248 -0.149021 -0.107294 0.0751091 -0.0540778 -0.060619 -0.030071 0.253294 0.160411 0.277655 -0.0157208 0.00802117 -0.0587289 0.0392709 -0.160993 -0.0085775 0.0637241 -0.172645 -0.111101 0.0554884 -0.120556 0.039709 0.0327492 0.00419598 -0.0119858 0.198627 -0.13747 -0.157981 0.0502119 0.171518 -0.200512 -0.113358 -0.190745 0.0266194 -0.0556715 0.234792 -0.0899959 0.108128 0.278504 -0.188344 -0.0357328 0.171832 -0.00858345 0.0489662 -0.0684442 -0.018031 0.057225 -0.0240237 0.0301597 0.0154304 -0.0418225 0.135357 0.185899 0.166027 -0.0716017 -0.0750468 -0.0962447 0.063106 0.131057 -0.0670321 0.036737 -0.149561 0.132032 -0.0930936 0.167568 -0.00369886 -0.21459 0.00771776 -0.232755 -0.0182346 0.114936 -0.0180715 0.0983691 0.165732 -0.11662 0.022923 -0.0169997 0.021201 0.236352 0.143983 0.038193 -0.0130786 0.0203228 -0.0283868 -0.00529893 -0.14861 -0.0917351 0.0434936 0.0179433 -0.0147905 -0.0128864 0.0758804 -0.118846 0.0345073 -0.166756 0.195305 -0.1115 -0.100739 0.149673 -0.0120248 0.0596741 -0.0451772 0.267742 0.0536673 -0.0424631 -0.0128885 -0.00353622 -0.0612721 -0.098719 0.0681073 -0.0797738 0.261518 -0.108186 0.178827 0.102661 0.0946423 -0.012659 0.203934 -0.03763 -0.0539102 -0.0497498 0.169654 -0.122579 0.126955 -0.2484 -0.0397041 -0.00282046 -0.08717 -0.0771401 0.433617 0.246034 0.0549156 -0.248544 -0.135227 -0.199962 0.0575876 -0.228338 -0.100497 -0.162124 -0.0337382 -0.0534746 0.0992357 0.0765354 -0.0680661 0.130457 -0.0223498 0.238085 -0.201694 -0.274599 -0.0740758 -0.116631 0.073997 -0.127134 0.0968186 -0.131853 0.0712911 -0.0887116 0.0709881 -0.0124619 -0.218199 0.00873644 0.0290964 0.000732047 0.0346975 0.14926 0.219841 -0.0382195 0.0710582 0.109081 
-0.230407 -0.0611489 -0.151114 0.20586 -0.0881327 0.112954 0.23167 0.0980116 -0.0122165 0.091517 0.0494881 -0.178479 0.0719524 -0.108273 -0.217374 0.0325962 0.191697 0.131269 0.293336 0.0274017 -0.172858 -0.0758525 0.031599 0.0814324 -0.100153 0.202262 -0.104173 0.0119065 0.130238 -0.243293 -0.185222 0.0999909 -0.0505551 -0.0282075 0.113575 0.0304065 0.0177981 0.0863969 -0.157996 -0.0127573 0.0373964 -0.0369122 -0.126752 -0.181459 0.0405885 0.267415 -0.0216967 0.0338227 0.169419 0.0700323 0.0393722 0.0564735 0.0806346 0.085761 0.0933279 -0.00506306 0.085047 -0.245193 -0.243113 -0.0450706 0.0785355 -0.14142 -0.000333641 -0.26269 -0.110058 0.197811 -0.129274 -0.0937498 -0.0952212 0.0301076 -0.137298 -0.080225 -0.00451679 -0.245576 -0.124625 -0.0953028 0.103901 -0.0176804 0.143548 -0.0450169 0.2121 0.0310208 -0.38852 -0.150609 0.0665033 -0.186081 0.0512849 -0.074443 -0.121222 -0.0586343 0.0102178 -0.00266357 -0.305979 0.179664 -0.0914968 0.0941786 0.0387652 -0.0724584 -0.121804 -0.0873021 -0.0719299 -0.257452 0.149134 0.00218615 -0.133398 -0.0600325 0.00630218 0.0804602 0.124987 -0.0821467 -0.0664358 0.0351087 -0.165297 -0.027281 -0.0424202 0.107071 0.209898 -0.00672679 0.120875 -0.0147881 -0.218922 -0.0512425 0.349762 0.0514054 0.0327993 -0.0549857 -0.207311 0.06126 -0.0440236 -0.165552 -0.0979709 -0.0901509 0.301809 0.16514 0.0837475 0.0907414 0.0981776 -0.147809 -0.123554 -0.14554 0.188148 -0.102368 -0.0710679 0.0188307 -0.0311519 0.0831821 0.265946 0.0492904 -0.0993409 0.0704872 -0.0799626 0.00720994 -0.189514 -0.118677 -0.0066967 0.318905 0.163765 -0.14308 0.0426923 0.0812645 0.112039 -0.111949 -0.0883052 -0.220759 -0.0107796 -0.22382 0.0580207 -0.153081 0.2448 -0.103329 0.0100654 -0.316869 0.0610668 -0.154294 -0.0589943 0.0388236 -0.0103781 -0.116548 0.0788222 0.0358617 0.105667 0.109361 0.207405 -0.0879178 -0.0372276 -0.00952172 -0.20809 -0.0682995 -0.134453 0.120645 0.0955685 0.108762 -0.043295 0.297279 0.116534 0.027172 0.173306 -0.0658819 0.0310079 0.134365 0.0611004 0.0121375 -0.102411 0.0996126 -0.231022 -0.286434 0.0453188 -0.0855355 -0.00279887 -0.061181 0.250324 -0.033708 0.0472434 0.0226516 -0.27537 -0.053911 -0.189993 -0.126669 -0.0584807 0.253923 0.0308033 -0.0629636 0.00884072 -0.0752667 0.0975909 -0.0990013 -0.130235 -0.160898 0.0872986 -0.0229569 0.0618175 0.0674369 0.0999834 -0.110533 -0.0140095 -0.0346896 -0.340408 -0.168767 -0.10325 0.0785814 -0.000329614 0.113094 0.129044 0.108299 0.24957 -0.222707 -0.0585605 0.0379555 -0.0917875 0.137267 0.0152352 0.0266059 -0.0664395 -0.0331393 0.116711 0.0954788 -0.0411467 0.0422739 -0.139163 0.1108 -0.183931 -0.0563553 0.100985 -0.0571159 0.104676 0.0912047 -0.187307 -0.120302 0.326916 -0.0654128 -0.00608692 -0.151411 -0.0479501 0.0212542 -0.104068 0.121953 -0.0151397 0.0368828 -0.0987861 0.0415834 -0.0532022 -0.0816265 0.0561052 -0.150454 -0.116518 -0.0584178 0.136506 0.0610587 -0.137481 0.10546 0.196582 -0.00178105 -0.0720451 -0.152364 -0.102555 -0.155675 -0.0383241 0.22392 0.226143 -0.0402841 -0.181071 0.0642869 -0.0310681 -0.131971 0.137756 0.0944215 -0.0769515 0.228998 -0.197239 0.147349 0.0118547 -0.240474 0.170139 0.028429 0.0285875 0.0491492 -0.103435 0.10385 -0.0956855 0.113786 -0.179737 0.0893569 -0.00670803 -0.175811 -0.139468 -0.0035387 -0.125152 -0.274926 0.0715769 0.0363141 -0.168997 0.0754881 0.0595772 -0.155388 -0.0601659 -0.0677784 -0.0264531 0.320164 0.169213 -0.151415 -0.0930106 -0.208565 -0.132823 0.159263 0.0172875 0.137151 0.148489 -0.231111 0.0771692 -0.0549274 0.0192843 0.0199086 -0.142531 -0.049432 -0.156535 -0.101906 -0.0271297 -0.115246 -0.06591 0.0697122 0.0663492 0.1551 0.0992261 -0.0122462 0.0224882 -0.0725277 -0.10327 -0.0133469 -0.0408226 0.00659701 0.145109 -0.00643632 0.0511217 -0.00984477 0.0848491 0.101131 -0.172456 -0.0443188 0.0661737 -0.0475024 0.167382 0.0596876 -0.0880849 -0.0825572 -0.165835 0.151526 0.0162849 -0.204203 0.179429 -0.216697 0.06123 0.158875 -0.016695 -0.078883 0.0699302 -0.105795 0.11574 -0.041718 0.15566 0.0823099 0.0256208 0.121877 0.00518167 -0.101517 0.0593767 -0.0742261 -0.143839 0.0403403 0.081617 -0.132961 -0.112301 0.0744058 0.270435 -0.000470698 -0.0161933 -0.0654821 -0.169526 -0.0641156 0.0510743 0.164182 -0.0216233 0.230745 0.131451 0.336032 0.116598 -0.0323416 0.142943 -0.0194747 -0.0532601 0.133139 0.186997 0.00162652 0.1805 0.0862455 -0.0422341 -0.095213 0.0888575 -0.216495 -0.0567749 -0.0728385 -0.081168 -0.0771114 -0.0463242 0.048294 -0.00597867 0.0428144 0.0250645 -0.00662182 0.0374014 0.176713 -0.0642353 -0.088233 0.202806 -0.0682881 -0.118755 -0.151217 0.269226 -0.0456671 -0.130331 0.185496 0.170372 0.0448323 -0.0911861 -0.110174 0.118515 0.0172015 -0.158795 -0.207426 0.012492 -0.11822 -0.162786 -0.0627758 0.16681 -0.0289954 -0.160005 0.371233 -0.0304401 -0.233625 0.198832 0.122961 0.249776 0.0981997 0.173414 -0.144405 -0.163855 -0.0719341 -0.208194 -0.147309 -0.0218042 0.144854 0.0353498 0.0242768 -0.064776 -0.0174797 0.0350563 -0.0311315 -0.100757 0.29219 -0.0703048 0.15166 0.116158 0.055868 -0.0353517 -0.00554634 -0.189664 0.140554 0.0126706 0.0521564 -0.00308689 0.0847804 0.0654006 0.285421 
-0.00850138 -0.211492 0.0346774 0.0171655 0.000818842 -0.0427103 -0.0158186 0.13181 -0.07557 0.21526 -0.0642211 0.0335884 -0.0934701 -0.181007 0.0517973 0.0939762 0.0583963 -0.0804676 -0.0623637 0.0939325 -0.105571 0.0401031 -0.262105 0.0190031 -0.131193 -0.0736611 0.0657379 0.21373 -0.0215409 0.0385796 0.013274 -0.0327567 -0.040245 0.103522 -0.0496933 0.177212 0.109029 -0.00038193 0.0114244 0.0875026 -0.0855126 0.24712 0.0979159 -0.057874 0.136304 -0.080353 0.0725697 0.129868 -0.0984095 -0.0964652 0.0416508 -0.0966491 0.133026 -0.0326252 -0.0660044 0.0324512 -0.0558052 -0.0853006 0.0198012 -0.0460756 -0.0932379 -0.157816 0.269697 0.269895 -0.0629041 -0.110185 -0.261201 0.138717 0.106112 -0.0718142 -0.00724381 0.220354 -0.176957 -0.0702346 0.180822 0.0869306 0.0407992 0.0867002 0.0456663 0.101919 0.0704357 0.0634473 0.0304404 0.088555 -0.0550366 -0.104715 0.234064 0.0497049 0.143467 -0.256031 -0.077612 0.0497065 -0.00709356 0.0778534 -0.168128 -0.0382178 0.0507499 0.0756418 -0.187936 -0.0837524 0.323492 0.00548196 0.0931609 0.0816578 0.140188 0.103201 0.163907 -0.205975 0.172006 0.143716 0.0793022 -0.323206 0.124138 -0.158941 0.114338 0.115275 -0.206737 -0.0282435 -0.130364 0.0823492 -0.191404 0.225392 0.125428 -0.00299874 -0.0686498 -0.14923 -0.151927 -0.0133611 -0.0716416 0.0526279 -0.120639 -0.088887 0.127075 0.0845911 0.0126961 0.0177833 -0.00107812 -0.0775393 -0.0816673 0.25143 0.216306 0.0843916 -0.0461903 -0.0422469 0.00215653 -0.0513023 -0.0016926 -0.206721 0.15069 0.126271 -0.310329 0.0626382 0.122606 -0.127536 -0.0114205 0.015914 -0.164972 -0.00942807 0.0900423 0.163943 -0.0655948 0.0738181 0.056762 0.171452 -0.0339892 -0.0607178 0.0116923 0.313814 0.195221 -0.158609 0.0234424 -0.215494 -0.0309799 0.0709258 -0.0671059 -0.0196606 -0.0623725 -0.0364283 -0.163891 -0.049878 -0.122734 -0.037613 -0.0408628 -0.108645 0.143375 0.226019 -0.060905 -0.0983644 -0.142686 0.00914921 0.0589933 -0.0754706 -0.0817367 -0.0712012 0.164731 -0.21525 0.0819977 -0.0577875 0.0259675 0.00895526 -0.0472602 0.00987268 -0.101193 -0.142103 -0.169934 0.00387479 0.209698 -0.0122629 -0.339781 0.187064 -0.0906973 -0.14413 -0.0774295 0.00217867 -0.232461 -0.00287378 -0.0468503 0.00708204 -0.102252 -0.103964 0.0889249 -0.262255 -0.0367429 -0.0124102 0.108207 0.150939 0.0147605 0.0041488 0.00856485 -0.104834 -0.0680554 0.066203 0.0179776 -0.0190825 0.169315 -0.0105402 -0.173603 -0.0104727 0.0743013 -0.0973317 0.283975 0.30365 -0.0108938 0.143241 -0.0625033 0.0933379 -0.145828 0.0425664 0.0203502 -0.0182941 -0.211555 -0.0917578 0.126777 -0.0282942 -0.0349126 -0.0142646 0.0205257 -0.0571502 -0.0312015 0.00611577 -0.0460025 -0.158228 0.0992359 -0.193203 -0.107371 0.108074 -0.115949 0.10547 -0.0860808 0.0876319 0.158822 -0.0349779 0.0614957 0.028266 -0.00947249 0.292563 0.164667 0.0535992 -0.0764174 -0.204114 -0.110675 0.0330728 -0.0442777 -0.222749 -0.175987 0.0744493 -0.0403276 0.0551698 -0.087346 0.301106 0.044097 -0.115655 0.0270835 0.0230203 -0.368774 0.119243 0.13688 0.259361 -0.0165238 -0.0618276 0.201464 0.0710721 0.135721 -0.202457 -0.10214 -0.00307377 -0.169771 -0.0212067 0.327298 -0.188805 -0.0659094 0.0417685 0.0355488 -0.215765 -0.0957552 0.095823 0.137417 0.019111 0.0678318 -0.102818 0.0142664 -0.0749681 -0.0160186 0.0104599 0.0962868 -0.111362 -0.144293 -0.0530371 0.281139 0.00147806 -0.0439706 -0.0818449 -0.0336696 0.080231 0.0509798 0.107782 0.152397 -0.119465 -0.105112 0.126367 -0.0636724 0.145067 0.0890339 -0.304753 -0.102645 0.334554 0.0256902 0.01601 -0.154433 0.131746 -0.0600502 -0.224512 -0.0722544 -0.110337 -0.065572 -0.145232 -0.0981565 0.00519039 -0.0485107 0.0917166 -0.0962985 0.116642 0.130431 0.00496255 -0.111607 -0.0118888 0.17094 -0.0801815 0.325831 -0.199012 -0.0845699 -0.0926737 0.148323 0.186274 -0.0427378 -0.176568 -0.0653301 -0.103165 -0.106481 0.0502008 -0.0149588 0.190116 0.0467542 -0.00115328 -0.0289007 0.0994832 -0.300726 -0.0405791 -0.0311478 0.110391 0.0586253 0.231484 -0.104558 -0.0326481 0.125616 -0.102318 0.0939183 0.245061 0.147538 -0.142707 0.0372395 0.0697849 0.117573 0.028255 -0.296385 0.146229 -0.0335867 0.0726941 -0.0720707 -0.177027 -0.0041666 -0.0316579 0.246777 0.064088 0.0223218 0.159924 -0.0401543 -0.169191 -0.131733 0.0335409 0.0376664 0.0524298 0.107914 0.281413 -0.0445618 -0.133934 0.169703 -0.279156 -0.17611 0.13015 -0.0373263 -0.00804633 0.116721 0.213922 0.154211 -0.0270156 -0.0133381 -0.0333257 0.0230002 -0.149083 -0.119638 0.204918 -0.205961 0.245828 0.0787877 0.258518 0.0976088 -0.0221818 -0.11432 -0.252051 -0.179241 -0.0207884 -0.183034 0.102072 -0.0791118 -0.385424 0.161029 -0.0933818 0.0132619 0.0919321 0.136772 -0.166806 -0.182574 -0.0947026 0.220788 -0.0112163 -0.0137634 0.261086 -0.0402401 -0.249765 0.064579 -0.131744 0.290964 0.146571 -0.0814233 0.070348 -0.110421 0.0701467 0.149839 -0.00838856 0.00968149 -0.0359492 -0.200889 -0.0975986 -0.0793001 -0.132559 0.0283814 0.11938 -0.206209 -0.19354 -0.134194 -0.0154716 -0.127259 0.124021 0.0884619 0.0593124 -0.017601 -0.0302571 0.251204 0.0562212 -0.104625 -0.0886352 -0.141887 0.180535 -0.0110654 -0.133029 -0.0924677 -0.0273065 -0.0918846 0.0224359 0.0420416 -0.0479994 
0.121633 -0.0466212 -0.160584 -0.137142 -0.111924 0.00125687 0.0478245 -0.14791 0.340452 -0.108368 0.0303071 0.0372082 0.236162 0.0753843 0.0417175 0.00595833 0.260652 0.193161 -0.167397 0.00132901 0.165983 0.358804 -0.228093 -0.157843 -0.0995313 -0.105165 -0.232684 -0.0384047 0.155653 -0.0183574 -0.0663189 0.0339606 -0.072189 -0.146078 0.0641821 -0.038598 0.232147 -0.109172 -0.177978 -0.110185 0.106457 -0.065927 0.100074 0.0696687 -0.0351657 0.104475 0.0226061 -0.00771946 0.0113707 0.132688 -0.0839473 -0.115784 0.0773624 0.279113 0.0172212 -0.0601708 0.0430068 -0.0684576 -0.0214484 0.190004 -0.146903 -0.036899 -0.181543 0.144987 -0.00592994 0.043119 -0.0274227 -0.0265997 -0.112861 -0.122055 -0.127288 0.000693822 -0.136887 -0.108608 0.140396 0.207434 0.0343883 -0.153655 0.188624 0.129786 0.0362364 -0.294376 0.11597 0.00216342 -0.0112479 0.0814969 0.252371 0.0812915 -0.22768 -0.017579 -0.122326 -0.216055 -0.00693755 -0.0530078 0.0496522 -0.116619 -0.0215253 0.152575 -0.177569 -0.0105326 0.172207 -0.11468 0.0885429 -0.0336689 0.0942552 0.000825629 0.0492514 0.0451152 -0.0790018 -0.0412689 0.0414578 0.00450208 -0.089464 -0.0500118 0.221076 0.136541 0.144279 0.223151 0.154052 0.0228837 -0.0771691 0.0230492 -0.0968168 -0.00718357 0.0912432 0.0958568 -0.12064 0.0660232 0.0745897 0.0141006 -0.0961136 -0.0684778 0.121652 0.0336064 0.279587 -0.0448802 0.260198 -0.0513579 -0.0784786 -0.190861 0.206687 -0.0740199 0.114311 -0.000785142 0.0549179 0.208148 -0.0465592 -0.00735931 0.143967 0.118587 -0.0120553 -0.181965 0.0264242 -0.032683 -0.107222 -0.0567239 -0.125479 -0.0380319 -0.208815 0.022555 -0.0412113 -0.00136273 0.167886 -0.131849 0.0228526 -0.0816551 0.15319 -0.0746111 -0.112598 0.144011 0.0431133 0.0504476 -0.211395 -0.0516333 -0.309528 -0.0178918 0.186648 -0.170746 0.0907537 -0.0804709 0.00615846 0.00641041 0.0393132 -0.119983 0.123327 0.106728 0.174753 0.207065 -0.139573 -0.205896 0.0719545 -0.19698 0.240037 0.188056 -6.77216e-05 0.133148 -0.0169871 -0.00595499 0.144508 0.00993164 0.0509779 -0.171635 0.146811 0.0876756 -0.116307 -0.0574422 -0.156362 0.171999 0.197842 0.0752726 0.0171255 0.0969055 -0.125817 -0.0484001 -0.10539 0.101664 -0.191916 0.0600154 -0.0833249 -0.0653892 0.127345 0.0314147 -0.132505 0.0879007 0.162978 0.0453689 0.0225346 -0.0612291 0.0763585 -0.0201944 -0.021873 0.197803 -0.153492 0.192214 0.00300377 0.0864815 0.211652 -0.0503505 0.0194923 -0.0359342 0.000747514 0.0610989 -0.086604 -0.0284168 -0.0249916 -0.087382 -0.205082 -0.0293842 0.0220423 -0.0693057 0.0106325 0.0752371 -0.153102 0.00600986 0.0624716 0.358605 0.167172 0.00670174 -0.001565 0.145107 -0.0209888 0.0267161 0.0701657 -0.0112253 0.0148358 0.0475293 -0.131058 -0.039931 0.124664 0.129193 0.0503534 0.104826 -0.0642772 0.107423 -0.0198941 -0.139076 0.0475087 -0.0155038 -0.0231015 -0.0574679 -0.136736 -0.169215 0.0290446 0.12925 0.0103817 0.08351 0.270566 0.0260416 -0.117063 -0.155593 0.0779928 0.0206547 0.0252781 -0.0346317 0.00422839 0.0989874 -0.05915 -0.140761 -0.329769 -0.0902042 0.0890044 0.0214986 0.130002 -0.0272929 0.0714494 0.133303 0.0289619 -0.196603 -0.130476 0.033365 -0.0863587 -0.0780033 0.101499 -0.0339135 -0.0931305 -0.0681258 -0.0253154 0.138434 -0.105139 -0.182343 0.085359 0.0312832 0.0310235 0.0268016 -0.0395271 -0.0673733 0.0479431 -0.165003 -0.0267911 -0.145532 0.0006088 0.129412 -0.0644863 0.0205058 0.194588 0.0899419 0.102639 -0.0223566 0.0338078 0.00349689 -0.0502176 -0.142263 0.219643 -0.13826 0.173683 -0.119127 0.057398 0.243893 0.243136 -0.000974561 -0.0337816 -0.118726 0.174667 0.168628 0.0443323 -0.185331 -0.0421708 0.111172 -0.0346609 -0.0581624 -0.0384005 0.0992758 0.0643706 -0.00783086 0.159194 -0.212681 -0.0214696 0.07422 0.00848495 -0.117325 0.152178 -0.0499444 -0.0360547 -0.10562 -0.024654 -0.205771 -0.11483 -0.105925 -0.0573236 -0.12316 0.0119358 0.00225976 -0.0180762 0.00475806 -0.123921 0.0967398 -0.0143781 -0.0528358 0.0151924 0.127639 -0.179482 0.0394678 0.194714 -0.075903 -0.203508 0.0314224 -0.0993238 0.00171907 -0.0168134 0.0409577 0.0696937 -0.150058 0.194028 -0.0162865 -0.205507 -0.0450209 -0.144246 -0.323877 -0.238711 0.0707311 0.121147 0.0452367 0.017132 0.00455282 -0.147326 -0.15273 -0.0852243 0.145209 0.0255131 -0.141405 0.143025 0.0586613 -0.139733 -0.119226 -0.00433944 0.31705 0.174582 -0.00115338 -0.0324127 0.0422455 -0.0336569 0.27477 -0.126941 0.0825179 -0.147646 0.136148 0.158211 -0.0751248 -0.0236637 0.0374017 -0.190175 0.0340611 0.0310062 0.194332 -0.0468261 0.179346 0.067131 0.0426627 -0.140355 0.203506 -0.293233 -0.0950707 -0.138111 -0.167122 0.177642 0.0470136 0.0931562 0.0906752 -0.0621212 -0.0670206 -0.160719 0.0398823 -0.0953159 -0.00730786 0.0193469 -0.0379495 -0.096686 -0.0847061 -0.113365 -0.0598232 0.189281 -0.254688 0.074233 0.00092839 0.0894775 -0.0620094 0.0139802 0.0045048 0.002925 -0.20571 0.0142601 0.404953 -0.0406188 0.177122 0.108011 -0.00749296 0.112474 0.045213 0.0959293 -0.15509 0.0620425 -0.232761 -0.0385391 -0.1369 0.278814 -0.158792 0.122338 0.0430287 0.0817268 0.0525079 -0.113999 -0.273707 0.0765613 -0.0689903 0.10242 -0.0995387 -0.0332138 0.0533807 0.150558 0.0529919 -0.148319 0.0823564 
-0.0491606 -0.0464815 0.0989562 0.063061 0.232453 -0.139977 0.133124 0.169529 -0.173499 -0.161675 0.291283 -0.0174242 0.0989548 -0.17447 -0.115325 0.0338868 0.0906971 -0.13311 -0.249335 -0.218945 0.117882 0.163767 0.0157587 -0.0804595 -0.132991 0.0570717 -0.0768159 -0.140649 0.0994229 0.052191 0.0401229 0.365352 -0.0828851 0.0702312 -0.256482 -0.0596971 -0.192903 0.134409 -0.0563609 0.0596025 -0.144727 0.0643195 0.0673171 0.0756447 0.184196 -0.0855484 0.218589 0.184675 0.0601183 0.080563 0.107708 0.108983 -0.154265 -0.126239 -0.0531514 0.00310923 0.0299141 -0.105347 0.0429972 0.0144579 -0.286557 0.057828 -0.00807059 0.0507345 0.0908367 0.254133 -0.0410019 -0.0563673 0.019597 -0.168618 0.192986 0.077911 -0.0144057 0.179042 0.0271672 -0.0592529 0.225758 0.207897 -0.0996159 0.111876 0.138017 0.0677206 0.0042623 -0.102005 -0.159542 -0.0484335 0.197638 -0.0523628 0.175017 -0.0742956 -0.183566 -0.15197 -0.196173 0.145668 -0.155979 0.110136 -0.1565 0.129209 -0.105128 0.00463132 -0.0762469 0.107154 -0.0303157 0.0310798 0.0623217 0.131772 -0.119622 0.131223 0.116348 0.0459382 0.0817851 -0.0314027 0.0316597 0.306858 0.215533 -0.0165302 -0.113409 -0.022271 0.119852 -0.0653522 -0.087701 0.088875 0.180699 -0.1116 0.0892815 0.0084467 0.0732224 -0.0725437 0.0115754 -0.158789 -0.0746726 0.0842307 -0.191385 -0.15325 0.0691723 -0.151582 0.208516 -0.03802 0.131986 0.0439166 0.0112511 0.00690413 -0.335275 0.0409445 -0.0463703 0.0380323 0.0655636 -0.30463 -0.0227543 -0.0545354 0.0572044 0.107254 -0.0291965 -0.0860281 -0.0870174 0.0580921 -0.0147126 -0.0646682 -0.0906393 0.0276947 -0.148592 0.124687 0.0726593 -0.091408 0.230014 0.0678518 0.0726737 0.0309015 -0.272524 0.0384836 -0.0152953 0.105755 -0.115891 0.13067 -0.038439 0.00118901 0.0596844 0.19453 0.228034 0.13702 0.318073 -0.00516899 -0.0164277 0.0884691 0.00547722 0.231393 -0.122833 0.0407223 -0.0185978 0.118024 0.209951 0.351497 -0.0202057 0.0813549 0.285469 0.0270114 0.0847902 -0.0532324 -0.237759 -0.0962109 0.0817951 0.0115627 -0.0134793 -0.126849 0.107776 0.115436 -0.0737882 -0.0773039 0.084591 0.111729 -0.0811484 -0.24784 -0.0560202 0.0868841 0.0398364 -0.35603 0.220529 -0.321835 -0.219649 0.201852 0.118792 -0.136535 -0.182197 -0.0709827 0.114156 0.0551843 0.119244 0.0860154 0.0412811 -0.125411 0.308675 -0.0455013 -0.185775 0.0441526 -0.250739 -0.0988849 -0.0894924 0.153874 0.0600556 0.0613815 -0.0765054 0.109693 -0.126434 -0.146979 -0.0127696 -0.0593873 -0.0589693 0.180707 -0.0287363 0.00491885 0.270638 -0.257094 -0.0414366 -0.0316304 -0.0817594 0.0729795 -0.110526 0.0866647 -0.119347 -0.213758 -0.195328 -0.0558509 0.00557236 -0.0580641 -0.111571 -0.0719324 0.0567291 0.160712 -0.0968627 -0.0378975 0.114394 0.09146 -0.0622257 0.161368 -0.218021 0.143606 0.133028 -0.104799 0.0422278 0.160685 -0.0657191 0.0575151 -0.223329 -0.104375 0.059097 -0.0183066 0.168773 -0.0547289 -0.0233734 0.0463693 0.116745 -0.110896 -0.161151 -0.199605 -0.00486635 -0.0211464 0.122727 0.176454 0.0560292 0.00659327 -0.0690997 0.00588459 0.00488522 0.161103 -0.104508 -0.195045 -0.0932159 -0.0883744 -0.0718676 0.096421 -0.11534 -0.000549403 -0.0421614 0.319444 0.0283826 0.0285457 0.15246 -0.0481201 -0.228684 0.0947447 0.0861444 0.0153004 0.171163 0.00273763 -0.177906 -0.063415 0.054702 0.111672 0.0561484 0.2925 -0.131007 -0.0459017 0.0655809 0.266075 -0.212515 -0.0455994 -0.13879 -0.0234902 0.00208147 0.180619 0.0255319 0.305735 -0.125341 -0.0800099 0.0077611 -0.0143765 0.0881928 0.0618429 0.0849298 0.210148 -0.166474 0.0507498 0.132001 0.0377179 0.159933 -0.105295 -0.193314 0.0402138 0.224547 0.0740789 0.00879588 -0.00674132 -0.0291876 0.0474806 0.14549 -0.145861 0.0983867 -0.0767961 -0.0265491 -0.0454686 -0.212156 -0.234644 0.108544 0.16126 0.0869051 0.03566 0.0630891 0.0980636 0.0226582 0.285949 0.0789758 -0.131469 0.145239 0.175797 0.045817 0.0913261 0.0028461 0.0698502 -0.0332857 -0.187406 -0.236828 -0.0563352 -0.168153 0.0367774 0.0127207 -0.162993 -0.0675049 -0.274362 0.112604 -0.0442552 0.0906735 -0.136049 -0.0184724 -0.0690822 -0.0268163 -0.0395821 -0.0296825 -0.185195 -0.000567706 0.105081 -0.171234 -0.0119936 -0.00521492 0.0661848 0.0273577 0.0515608 0.250793 0.00945655 0.165683 -0.0584511 -0.0105793 -0.0926976 0.103597 -0.0763736 -0.187414 0.100847 -0.162964 -0.0614808 0.078752 0.023616 -0.184747 0.0442948 0.0780616 -0.147381 0.00764839 -0.0525293 -0.00851083 -0.116369 0.183591 0.145379 0.0724761 -0.0322759 0.146628 0.178533 0.0295393 -0.0677494 0.0176303 0.0286242 -0.113491 0.163026 0.0990643 0.111535 0.10377 0.069151 -0.113187 -0.00946043 -0.21583 0.203923 -0.171921 -0.11388 0.145159 -0.106455 -0.180205 -0.00207917 0.128628 0.0192988 -0.155116 0.160072 0.167515 -0.174594 -0.016429 0.0827023 -0.176925 0.0748792 0.0485601 0.00400913 0.0798152 -0.13411 -0.155131 0.117265 -0.0795403 0.0383322 0.0483217 0.396675 -0.100489 -0.0336891 -0.0450838 -0.0104038 0.0242217 0.0419134 0.0895299 -0.200538 -0.201182 -0.0709185 0.0506135 0.266439 0.092934 -0.00401343 -0.125392 -0.00922045 -0.0254111 -0.0650634 0.006505 0.033489 0.22584 -0.272095 -0.00976414 0.0311448 0.202998 -0.194353 0.00584355 0.00964443 
-0.00189713 -0.0210014 -0.125496 0.110461 -0.132922 -0.00675992 0.100841 -0.06489 0.21291 0.240194 0.0927307 0.0874496 -0.283863 -0.0480769 0.169316 -0.0469102 -0.233089 -0.0126891 0.109452 0.0427629 -0.101396 0.022304 -0.128335 -0.225967 0.276233 -0.0323257 -0.169767 -0.125411 -0.0749795 -0.0473324 0.167616 -0.00486613 0.305771 -0.0639466 0.0571936 0.0951886 0.0664658 -0.115502 -0.0892993 -0.0832081 -0.0757406 -0.03935 0.226665 -0.0349822 0.00388048 0.132454 -0.109387 -0.0614537 0.139348 -0.265816 -0.0774116 0.0260239 0.180692 -0.00863307 0.184205 -0.173959 0.0754223 -0.075731 -0.0797913 -0.0220454 0.111196 0.0605307 0.0420407 -0.0472865 -0.0397296 -0.0895461 -0.0572777 -0.0810723 -0.0817609 -0.0309788 -0.0590906 -0.12759 -0.010878 -0.124429 0.207481 -0.0144936 -0.0878129 -0.0656528 0.166885 0.0130505 0.146516 0.0166549 0.14391 -0.112042 0.14571 0.0272921 -0.162088 0.0292685 -0.159718 -0.103551 -0.135276 0.0824607 0.052654 -0.176684 0.0199747 -0.125576 0.122155 -0.106894 -0.0137658 -0.0241095 -0.151329 0.270631 -0.225723 0.00250427 0.224217 -0.0776602 -0.095668 0.0576693 0.201377 -0.0895215 0.144279 -0.0716918 0.0978109 0.0124233 -0.122491 -0.158285 0.0584635 0.10976 0.19248 0.138412 0.0482648 -0.0407755 0.109101 0.135108 -0.21027 -0.0850801 0.23888 -0.105946 0.00214149 -0.223686 -0.052858 -0.205715 -0.180239 -0.0493808 -0.0226094 0.0933917 0.0202042 0.245936 -0.0681229 -0.234283 -0.0597672 -0.0704413 0.153853 0.232073 0.144378 -0.136823 0.109934 0.107907 0.0203518 0.22586 -0.213755 -0.0868582 0.0143005 -0.177193 -0.066697 -0.0504746 -0.0150143 0.0378128 -0.0999259 -0.222253 0.0687532 -0.018418 -0.0896036 0.180227 0.00742307 -0.0921722 -0.152209 0.116251 -0.115918 -0.222158 -0.0499734 -0.0302104 0.0109755 -0.0100616 -0.0555674 0.236324 -0.0147558 0.2644 -0.0179556 -0.16674 -0.0198174 0.00708303 -0.0133269 -0.0228734 0.0850978 -0.215805 0.0311094 -0.0330694 0.0691819 0.111312 -0.14046 0.00739121 0.144435 -0.058575 0.0913803 -0.0635051 0.229224 0.070327 0.340173 0.00517934 0.125856 -0.130764 0.15738 -0.28266 0.00815971 0.0706637 0.150969 0.131373 -0.0298022 0.116508 -0.264171 -0.0586362 -0.131357 0.0534147 0.157273 -0.0189524 -0.0941619 0.0333938 -0.207345 0.100193 0.203258 -0.157558 0.015123 0.0319709 0.14143 -0.156339 -0.00754181 -0.148501 -0.0198377 -0.033778 -0.071515 -0.0128111 -0.135 -0.0788362 -0.0252333 -0.00232801 0.0378232 -0.164295 0.0667665 -0.171836 0.0516752 -0.0223436 0.220031 0.095167 -0.0827894 0.14478 0.0297548 -0.0680949 0.101497 -0.024837 0.0505758 0.133294 0.0313664 -0.246807 0.211766 -0.385004 0.0638872 0.194028 -0.0339669 -0.0957853 0.170098 -0.0278099 -0.0244742 -0.318337 -0.175653 -0.00109363 -0.267963 0.0808742 0.141316 -0.219894 0.0605872 -0.0747942 0.0100446 0.206696 -0.0915187 0.197053 0.245705 0.123501 -0.134817 0.217378 0.0749782 -0.189316 0.103587 -0.0636548 -0.0282817 0.196591 0.084111 -0.0369048 0.116664 0.0348552 0.0476435 0.022027 0.144708 0.0801632 0.145512 0.0850634 -0.0685723 0.166595 0.225226 -0.0814532 0.0280193 0.232693 -0.0169945 0.239791 -0.031983 0.202371 -0.00848619 -0.128995 -0.073478 0.173715 0.0848456 -0.0159496 -0.0118185 -0.0516653 0.136909 -0.156351 -0.276283 -0.0211694 0.104004 0.299718 -0.00283086 0.09273 -0.0554858 -0.0260173 -0.135245 -0.148044 0.186803 0.0366285 -0.0747856 0.351481 0.0448059 -0.111218 -0.18431 0.116895 0.0344842 -0.0617081 0.0167699 -0.172205 -0.253452 -0.13525 0.144516 0.102374 -0.103038 0.074544 0.0022285 -0.142786 0.179359 0.00249438 0.192856 -0.04019 -0.0342023 0.0503854 0.0611311 -0.0481565 -0.16645 -0.0284489 -0.0755504 0.0691232 0.246333 0.121812 0.086588 0.0140998 -0.183433 -0.128457 0.113036 -0.0789413 -0.0176444 0.131839 -0.140673 -0.0499257 0.0873308 0.0557675 -0.0642523 -0.151397 -0.199528 0.130304 0.142112 -0.0129429 -0.0880043 0.0724108 0.0370156 0.0514195 -0.0572414 0.0810045 -0.021608 -0.107028 -0.0572067 -0.000532478 -0.0727496 0.189389 0.170366 -0.0119565 0.0968979 -0.0270279 -0.0729929 -0.1463 -0.323054 0.192721 0.0194271 -0.199051 -0.0820983 -0.105123 -0.0542392 0.0752195 0.140745 -0.206942 -0.0655457 -0.125778 0.0541666 0.023824 0.138186 0.0612046 -0.120056 0.0363884 -0.296657 -0.0685041 0.283773 -0.147199 0.188297 -0.190958 -0.0509254 -0.149591 0.0291041 0.011946 0.109363 -0.137457 0.0480569 -0.00642392 0.0973118 0.182484 -0.257841 0.0950869 0.156303 -0.00461709 -0.0935231 -0.102492 -0.0562254 -0.099168 0.116678 0.0342371 0.120324 -0.030907 -0.111182 0.0123501 0.191621 0.0269638 -0.014991 -0.105087 -0.0240834 -0.0733252 0.0446576 -0.189198 -0.214321 0.0958094 0.0252543 -0.341646 0.141172 0.00140099 -0.0472366 -0.47306 -0.180945 0.051606 0.067731 0.0640551 -0.19834 -0.0145641 -0.101715 -0.0852039 -0.0938062 0.0395432 0.0331748 0.0809423 -0.256237 -0.184627 0.0337416 0.0369468 -0.107729 0.0904391 -0.0927532 -0.0381979 0.0522737 -0.242238 -0.056893 -0.0457048 -0.0613664 0.0396541 0.212122 0.0301653 -0.0449667 -0.0219007 -0.147257 0.211117 0.212575 0.0658908 0.10482 0.00291444 0.0509921 0.14924 0.024254 -0.0898243 0.0884655 0.147136 0.0167703 0.0555431 -0.252445 -0.158357 0.11356 0.106284 -0.0726182 0.0845472 0.061288 -0.123724 
-0.0664856 0.216297 0.0550146 -0.00336 0.209658 0.0931472 0.0637771 -0.234073 0.0612057 0.0870489 -0.132907 0.128241 -0.20865 -0.0398195 0.151883 -0.0337504 -0.218839 -0.0964797 -0.143853 0.053083 -0.00304391 -0.0762203 0.210836 -0.0517468 -0.225646 -0.0738858 -0.0568457 -0.0354051 0.0814877 -0.108458 -0.0725796 0.108327 -0.183559 0.143857 -0.00241007 0.0922615 0.0738234 -0.00246434 -0.196024 0.0950463 -0.0647168 -0.255116 0.00902967 0.0757901 -0.175057 -0.107725 0.00328787 0.0713335 -0.112241 -0.0996531 0.00566031 0.154818 -0.192656 0.00510816 -0.0425686 0.0736016 0.0583785 0.231684 0.0191051 -0.0380249 0.0552414 0.0627261 0.00883281 0.134046 -0.0134788 -0.00848699 -0.318394 0.0287627 -0.103718 0.317016 0.112591 -0.0745832 -0.0803387 -0.0971793 -0.179816 -0.0337973 0.140263 0.00394023 0.104351 -0.289246 -0.153069 0.252712 -0.0365426 0.0436306 0.180281 0.047408 -0.333241 0.0890397 -0.145238 -0.0900483 0.017241 -0.0424199 0.0410413 -0.139334 0.169818 0.176322 -0.124935 0.104116 -0.174159 0.166098 0.199049 0.164889 -0.0429378 0.0708474 0.153996 -0.0611734 -0.15357 -0.175799 0.158031 -0.262786 -0.112364 0.0818155 -0.034911 -0.0197999 -0.069295 -0.00698222 -0.0902919 -0.120176 -0.166209 -0.0166946 0.172025 -0.0494442 0.092221 0.0638183 0.201455 0.0588045 -0.0641246 0.0747465 0.0671799 0.217371 -0.132382 -0.075984 -0.204586 -0.0446374 -0.090373 0.145046 -0.0960827 0.112777 0.121666 -0.0759029 -0.0514606 -0.112618 -0.0666335 0.240679 0.184788 -0.227182 0.0713955 0.0124301 0.068441 0.06856 -0.115102 -0.083215 -0.168701 0.0270623 -0.154204 0.021522 0.126055 0.0397254 -0.16222 -0.0431585 0.160699 0.0419408 0.107345 0.319283 0.167791 0.117414 0.12511 -0.131342 0.020798 0.0510959 -0.149947 0.050304 0.163943 0.0780722 -0.0154053 -0.0938613 0.123276 -0.119859 0.13919 0.0339843 0.134086 -0.107062 0.025446 0.0730822 -0.0814023 0.115009 -0.0764892 0.241012 -0.0346378 0.229506 -0.138804 0.225611 0.0823077 0.0822079 -0.141596 0.337071 0.00478731 -0.0193698 -0.170262 0.0946566 -0.123168 0.291259 -0.0264256 -0.0666578 -0.0670248 -0.0472333 -0.22562 -0.0256235 -0.115798 -0.106281 0.159167 -0.0896842 0.0987696 -0.00157404 -0.00719123 -0.126864 -0.110609 -0.0935099 0.0491839 -0.134704 -0.062637 0.00136184 0.0637933 0.0859403 -0.054113 0.188001 -0.0558946 -0.104843 0.173531 -0.0326595 0.0802319 -0.0040454 0.0322387 -0.0940127 0.119851 -0.157839 0.0326706 -0.113176 0.0935531 -0.184125 0.0305763 0.077935 0.0817577 -0.138674 -0.132882 0.0490804 0.0191715 0.0976273 0.0587917 0.020832 0.056431 -0.140848 0.0539174 -0.0945031 -0.358081 -0.0826274 -0.0431486 0.079542 0.0181279 -0.175955 0.0263189 -0.0151028 -0.0850071 0.0463516 0.00829272 0.0662795 -0.0824089 -0.0568161 0.040217 -0.0852207 0.15681 -0.207458 0.0244755 -0.167713 0.0691479 0.055847 0.052957 -0.0822869 0.0939844 -0.0669045 0.160469 0.00923802 0.13244 -0.0481413 0.232472 -0.112408 0.139682 0.0508369 -0.0808386 0.075173 -0.095836 -0.0813864 -0.136025 0.264648 -0.00762286 0.248725 0.117937 0.14678 -0.0337448 -0.140194 0.155477 0.077192 -0.00977693 -0.0329961 -0.0177826 0.137076 -0.097774 -0.109166 -0.0587286 -0.16802 -0.0347292 -0.154333 -0.150586 0.0285412 0.221698 -0.032444 0.0309285 -0.0893341 0.0278385 0.0238737 -0.175855 0.00569949 0.00514132 0.161126 0.0328736 0.0486583 0.15772 -0.134572 0.0969614 0.0623056 -0.113682 0.117008 0.197352 0.105283 0.0572783 -0.0399674 0.0379891 0.246997 -0.0895253 0.0221618 0.111988 0.0398473 -0.026397 -0.117393 -0.270671 0.0643932 -0.00941691 0.143682 0.175035 0.0418259 0.025844 -0.0197597 -0.0214676 -0.0849218 0.127934 -0.0202604 -0.108682 -0.179113 -0.0884519 -0.180443 0.0885588 -0.025185 -0.0366684 -0.168009 -0.147233 -0.22855 -0.200552 -0.0688732 -0.227481 -0.229073 0.0634198 0.108227 -0.111218 -0.0994857 -0.235415 -0.181767 0.0542151 0.024886 -0.138427 0.0986649 0.0710703 0.00366584 -0.158022 0.159669 -0.220713 -0.132106 -0.0784078 0.0442023 -0.127415 -0.258842 0.271205 0.0684158 0.172113 -0.018599 -0.021217 0.14186 0.24655 -0.146913 0.0262565 0.10708 -0.137974 0.0290513 -0.0601239 -0.248438 -0.137117 -0.205045 0.0393321 0.0491287 -0.0137788 0.0637081 -0.0654942 0.19262 0.0714089 0.177676 0.0983934 -0.155429 0.108664 -0.0389199 -0.133527 0.0503372 0.0194669 0.0350186 -0.0454307 -0.0983256 0.110899 -0.0285918 0.106292 0.194628 -0.0275723 0.0199781 0.0730808 -0.0371102 -0.0820585 0.137786 -0.0725863 -0.0239995 0.122048 -0.221449 -0.020861 0.0377982 -0.0838325 -0.161392 -0.051096 -0.00957121 0.048745 0.187334 -0.128461 -0.0425383 -0.10248 -0.0594623 0.101619 0.0171182 -0.0694015 0.0860315 0.107462 0.065996 0.0905945 0.250044 0.0995751 0.319202 0.114175 -0.00898893 0.254409 0.19007 0.0517704 0.0971055 0.0330595 0.164057 0.0398121 0.116293 0.249226 -0.00359721 -0.0910434 0.0846111 -0.0950795 -0.216308 0.0359498 0.0955841 0.175697 -0.177481 0.146257 -0.175047 -0.0399892 -0.233279 -0.169759 -0.128904 -0.00513438 -0.122028 -0.0801422 0.0634981 -0.102518 0.0298367 0.0440493 0.201928 -0.0920574 0.0545353 0.0808247 0.126895 -0.080012 0.0273098 0.0075678 0.0665283 0.0658526 0.00157379 0.110339 0.300618 0.0920672 -0.149863 -0.0729131 -0.127728 -0.0531598 -0.134598 
-0.00343963 0.110684 0.150696 0.139669 -0.167245 0.21402 -0.203472 -0.0148243 0.233134 -0.203723 0.00727237 0.202282 0.00566363 -0.0429027 0.0481219 -0.144831 -0.0865067 -0.167508 -0.0544304 0.0753121 0.209653 0.0601301 -0.0194658 -0.0998464 0.0335304 0.244445 0.0538025 -0.163169 0.0534905 0.0130688 0.0698264 0.0459025 -0.0401592 -0.00106234 0.11431 -0.0175491 0.125759 -0.159609 -0.0170318 0.164408 0.0290871 -0.0299392 0.187304 -0.151333 0.0918389 -0.0885662 -0.304648 -0.0973057 -0.20723 0.0809533 0.0129112 -0.168718 0.000230337 -0.0855819 0.0925785 -0.155113 0.0369471 0.0409812 0.1264 0.0247941 -0.206207 0.126449 0.0013286 -0.0771645 -0.0198856 -0.164952 0.125148 -0.00777234 -0.111466 0.148364 0.0115287 -0.171496 -0.237765 0.100308 -0.14569 0.0940023 0.0942357 0.121589 -0.202269 -0.0954863 -0.0107873 0.0249567 -0.0251283 0.0437083 0.300283 -0.0665281 0.0471717 -0.0146611 -0.149759 -0.0194594 -0.19632 0.0852135 -0.158099 -0.0837464 -0.167154 -0.125371 0.0938051 -0.0103563 -0.00900692 -0.259546 -0.139896 0.0373589 -0.0445497 0.0407214 0.0353162 0.0308615 -0.237181 0.0766513 -0.0886817 0.11382 -0.0967739 -0.00231796 -0.0291475 -0.0138137 -0.123226 -0.110243 -0.147005 0.0204754 0.155116 0.0717396 -0.0641664 -0.164558 0.0572513 0.0333235 -0.0908468 -0.0852347 -0.013964 -0.177518 -0.00548875 -0.116813 0.113205 0.0186652 0.00328148 0.116158 0.0646151 0.263912 0.306235 0.0359499 -0.0199821 0.25954 0.0218841 -0.163356 -0.0980431 0.0946921 0.0448506 -0.00401952 -0.03035 -0.0837982 -0.132882 0.169688 -0.273477 0.121572 -0.180619 -0.173189 -0.0521888 0.0792011 0.0701015 -0.0203322 -0.0208509 0.0186935 0.198195 0.0507925 -0.0428051 -0.0605318 0.0894526 -0.063661 0.0656778 0.124613 -0.0743302 -0.0888627 0.0802217 -0.114071 -0.0148552 0.183782 -0.189494 -0.196819 0.0314669 -0.0826274 -0.148579 -0.0127781 0.0312871 0.142584 0.0873593 -0.0295049 0.141459 0.0581659 0.179345 -0.0562654 -0.0193409 -0.157117 -0.119095 0.0805275 -0.0170484 -0.0475215 0.0927021 0.0755231 0.225633 0.122172 -0.089648 -0.0654226 0.139913 -0.227139 -0.012613 -0.0201847 -0.197543 0.232997 0.0275004 -0.0944159 0.1163 0.159777 0.0702926 -0.00177051 -0.0144001 0.109187 0.0407538 -0.322289 -0.110029 -0.0263634 0.058452 -0.0759069 0.267815 -0.240686 -0.049328 -0.238617 -0.0372373 -0.225692 -0.0494394 -0.0565352 -0.0644067 -0.264169 0.126803 0.00798155 -0.167547 -0.108647 0.174529 0.0494847 -0.135136 0.0599629 0.0468634 0.130115 -0.109977 0.0630363 0.00233511 -0.101496 0.0523799 0.0137949 0.0983932 -0.19619 -0.0315194 -0.134771 -0.0917519 -0.0028009 0.173568 -0.0798218 0.0290409 -0.0200545 0.00105605 0.235138 -0.0653845 -0.0499883 0.0217336 0.119096 -0.168278 0.0311209 0.0335536 0.00160265 -0.130364 0.0022989 0.0659239 -0.0263355 -0.0464114 0.0576079 0.0312132 0.0630345 0.0745768 -0.0748696 -0.182149 -0.0648164 -0.0233813 -0.0633592 0.249321 -0.248983 -0.0436266 0.248821 -0.0151704 0.213125 0.0122993 0.153488 0.0399972 0.0739273 0.157203 -0.0811051 0.127483 -0.200754 0.0530628 0.131843 0.087038 0.0144766 -0.0397231 -0.0254542 0.203829 -0.0328727 0.143882 0.0450438 0.200952 0.261639 -0.186235 -0.0927564 0.20928 0.0171908 0.0929939 -0.217221 -0.0746408 -0.116054 -0.136776 -0.144783 0.163769 -0.169957 0.02191 0.0195174 -0.150533 -0.00265315 -0.158692 0.0190157 -0.0727015 0.0635705 0.133002 -0.170442 0.10273 0.229339 0.105659 -0.161718 0.0808865 0.00351137 -0.0150079 -0.0787348 0.216129 0.0896242 0.0779697 -0.101809 0.112633 -0.0826139 -0.138062 0.0770876 0.0443302 0.233095 -0.0171975 -0.25006 -0.0722041 -0.01694 -0.000227839 -0.0686414 -0.105632 0.038841 0.0366169 0.294738 -0.0895942 -0.0351343 -0.074281 -0.0281314 0.0866519 -0.00914468 0.284654 0.211207 0.0206985 -0.106101 -0.0579847 -0.0958647 -0.0764953 -0.188985 0.0716559 0.0405581 -0.0871043 0.0552967 -0.0364175 -0.0787171 -0.0943134 0.066828 0.0659093 0.164136 -0.148821 -0.0485746 0.0729287 -0.0929362 0.0287244 0.393141 0.0907765 0.0600868 0.0625556 -0.016115 0.0384746 0.102346 -0.111265 -0.204112 -0.022577 0.208359 0.181399 -0.0171139 -0.112258 0.127467 -0.0976887 -0.0474817 -0.122088 0.154626 -0.105231 -0.132336 0.237726 -0.0124983 0.120339 -0.213895 -0.114729 -0.0487525 0.0537994 0.0292464 -0.0906607 0.0318504 -0.0546133 -0.00957519 -0.123742 0.0873691 -0.0338654 0.177159 -0.156752 -0.05089 -0.0777016 -0.071342 -0.0347751 -0.0805177 0.20296 0.241688 0.343631 0.0224842 -0.189904 0.150367 -0.210391 -0.140213 0.0903158 0.117597 0.0321277 0.166351 -0.280926 -0.094891 0.210967 -0.123764 0.092866 -0.108862 0.115005 -0.201555 -0.122614 0.0891929 -0.203309 -0.112378 -0.00743004 0.116452 0.00985496 0.113997 0.0699756 0.0756872 -0.132878 0.00444789 0.185203 -0.0382472 -0.0435364 -0.0225701 0.123882 -0.142234 -0.0792747 0.195318 -0.212163 -0.000555395 -0.143546 0.0116504 0.116951 -0.129359 -0.16148 0.0118067 0.03176 -0.102557 -0.0073741 0.0251774 0.0489971 0.159864 0.143357 0.14093 -0.245465 0.223625 -0.160338 0.133591 0.0195977 -0.193984 -0.0754127 -0.18603 -0.0851148 -0.130323 0.0460428 -0.0398173 0.0903824 -0.0249516 0.0265233 0.0523448 -0.0481652 -0.149355 0.0429031 0.0598735 -0.112221 0.0585571 0.0534494 0.0896111 -0.0338594 0.0751398 -0.0226794 -0.191002 
-0.143708 -0.0866626 -0.130328 -0.17479 0.129597 0.073209 -0.134587 -0.0620911 -0.108628 0.165764 0.06681 -0.0198909 -0.374772 0.232678 -0.31573 0.213307 0.205285 -0.0417114 -0.017129 -0.0259933 -0.215815 -0.105403 0.146957 -0.30482 -0.0560087 -0.0783866 0.137726 0.171869 -0.230404 -0.0634045 -0.0438381 0.0239198 -0.158825 0.132877 -0.206689 0.117405 -0.0738603 -0.0855056 0.28493 0.0214032 0.0495672 -0.301409 0.0368614 -0.0123483 -0.0757845 -0.1177 -0.0856903 0.0217114 0.0532708 0.0839061 0.162609 0.127465 -0.108428 -0.0453295 -0.132525 -0.00227679 -0.112166 -0.0247404 -0.0124439 -0.0735759 0.164769 -0.0176048 0.00117743 -0.252382 -0.0838217 0.0709743 0.0539475 -0.0645377 -0.175817 0.0517547 0.0898409 0.0559664 -0.0498966 0.175499 0.0531932 0.0751422 0.0652293 0.186367 -0.0715818 0.000876854 -0.0431933 0.216348 -0.0935908 0.064882 -0.140191 0.0783057 0.0706095 -0.0887538 0.0958085 0.0276858 0.0487217 -0.246804 -0.106402 -0.202948 0.143388 0.112221 -0.0531329 -0.0493785 -0.0270702 -0.124461 -0.0447791 0.0615008 -0.166133 0.139691 -0.176625 -0.0236635 -0.08547 0.191394 -0.13683 -0.0703118 -0.0623333 -0.056134 -0.19866 0.0681893 -0.0442594 -0.114486 -0.0599227 -0.017732 0.0677873 0.0858999 0.228327 0.0221884 0.0562955 0.187672 -0.070119 -0.0208307 -0.130962 -0.108685 0.0206648 -0.0173248 -0.119133 -0.0344063 0.133153 -0.0654033 -0.0787306 0.10515 -0.208682 0.232437 0.150189 0.305778 0.0288095 -0.00833861 0.247329 -0.0595551 -0.0461838 -0.057367 0.390303 0.0118574 -0.313468 -0.022942 0.11855 0.150841 -0.0702406 -0.159241 -0.159855 0.00485438 0.169526 0.110236 -0.125577 -0.024003 -0.0481842 -0.0542495 0.181482 -0.0844658 -0.0593308 -0.204354 -0.200384 -0.106876 0.0114211 -0.0508639 -0.101793 -0.0990974 -0.221679 -0.105064 -0.0176209 0.0893762 0.194617 -0.258981 -0.133102 -0.0194923 -0.117194 0.0246246 -0.174594 0.110443 -0.150632 0.203682 -0.0375815 0.110773 0.0199889 0.0980742 0.0139372 -0.0862056 -0.000788168 0.176613 -0.158118 0.0960801 0.0986106 0.109304 -0.129247 0.0950535 -0.0116848 -0.276683 -0.248068 -0.0770987 -0.216885 0.127704 -0.056279 0.199127 -0.133934 0.0309454 0.0175275 -0.0241477 -0.111608 0.0906839 0.079173 0.12229 -0.0620191 -0.119022 0.0443942 -0.148603 -0.0686476 -0.154602 0.0679768 0.032944 0.0736449 0.102758 -0.233507 0.107233 0.355032 0.103106 0.12291 -0.112193 0.0461645 -0.186942 0.0761234 0.0579483 0.128767 0.0333876 -0.022163 -0.024058 0.000439801 -0.0345303 -0.0766055 0.0120822 0.0492257 0.059936 -0.175237 -0.243377 -0.0131939 -0.112799 -0.0378873 0.12985 0.19768 0.0359325 -0.140823 0.00130387 -0.0437311 0.0164027 -0.0322285 -0.0139426 0.0595889 -0.112993 0.158516 0.0718127 0.0144719 -0.0415016 0.0352408 0.0632375 0.0384104 0.23892 0.0963271 0.0862212 -0.00969395 0.00400742 0.125007 -0.171899 0.0173735 -0.0444966 0.0718314 0.031333 -0.134105 -0.0658187 -0.21279 0.0581755 0.117259 -0.00101715 0.0136291 -0.119985 -0.25533 0.00246288 -0.00262262 0.0122585 -0.0870452 0.177638 0.00831496 0.116145 0.00144615 -0.0110621 -0.0236097 0.0829607 -0.0686244 0.072202 0.148234 0.137721 0.023781 0.199605 0.153161 0.0462351 0.0268686 0.000473918 0.127798 0.307214 -0.0662272 -0.132137 0.0641157 -0.096835 -0.00846475 -0.0111583 -0.197269 0.224327 -0.0157365 0.0515082 -0.112266 0.0243166 0.0095506 0.13275 0.246595 0.190525 -0.10592 0.0803617 0.107527 0.157664 -0.124622 0.214903 0.0636628 -0.118861 0.330662 0.105885 0.0583428 0.0960641 -0.126156 -0.0735214 -0.0223829 0.247643 -0.284119 -0.162431 -0.0699922 0.111013 0.0278711 -0.172582 -0.0933297 -0.197661 -0.175113 0.00939246 -0.133492 0.0838096 -0.0803486 -0.0321415 0.139892 -0.224679 0.176502 -0.114736 -0.0260885 0.0133375 -0.156188 -0.166528 0.17041 0.181329 0.00816941 0.0465883 -0.207096 -0.0740769 0.12444 -0.0786715 0.144222 0.117378 -0.00257213 0.0406208 0.0363924 0.0198673 -0.0622876 0.105498 0.110627 -0.00600668 -0.0248374 -0.34651 -0.131578 -0.16716 -0.00783328 0.0767893 0.116912 -0.0405836 0.294014 0.11567 0.102752 -0.0268169 -0.303476 0.232694 -0.0241603 0.0762779 -0.0841708 0.016299 0.0634598 -0.00949894 -0.0535209 -0.0122806 0.184316 0.00395122 0.135171 -0.0128335 0.127345 0.191461 -0.140597 0.200566 0.0669764 -0.179405 0.00788655 0.176018 0.172095 0.14928 0.154963 0.119937 0.171962 -0.057623 -0.032926 0.0705213 -0.021448 -0.0856746 0.171246 0.288187 -0.0935276 0.00609438 -0.137438 0.221997 -0.138384 0.0152752 0.0467677 -0.117677 0.0535976 -0.144883 -0.172799 -0.156579 -0.0916343 0.175815 0.189932 0.157047 0.118246 -0.0517036 -0.0407722 -0.0201311 -0.169188 0.0450378 0.117959 0.307337 0.0470864 -0.173315 -0.0854001 -0.0353233 -0.00342289 -0.0135532 0.0298922 0.30559 -0.144569 0.0484645 -0.0622384 -0.0482637 0.0795682 -0.170429 0.100136 -0.0499994 0.0382756 0.161754 0.0814466 0.0925689 -0.0511267 -0.185747 0.0214081 0.194345 0.152087 -0.146757 0.0875806 -0.0773332 0.200596 -0.0876468 0.0204019 0.0338846 0.0651838 0.336038 -0.0676794 0.0153395 0.0764809 -0.0291125 -0.0426601 -0.0410462 0.0574561 -0.0115495 0.111394 0.130756 0.144447 -0.136639 0.0513834 -0.234158 -0.0739313 -0.277769 -0.144488 -0.152574 0.0918509 -0.0211653 -0.00915684 -0.0219248 0.161839 0.00557146 
0.0296558 -0.178277 -0.00703783 -0.0746272 0.0374617 0.0219999 -0.284218 -0.217503 -0.142734 0.0886332 -0.166096 0.0531877 -0.0718304 -0.0572584 -0.0732516 -0.00719963 0.0642023 -0.0895832 0.132066 -0.22354 -0.00369216 -0.00206484 0.0324134 -0.0213483 0.11765 -0.161778 0.140896 0.0763753 0.02761 0.115033 -0.107146 0.250148 -0.196824 0.17409 0.104228 0.411528 -0.00344245 -0.0890512 0.199047 0.0263647 -0.0614441 0.08195 -0.083775 0.246688 -0.116454 0.0759788 -0.171369 0.0231011 0.0390107 -0.11326 -0.0928668 -0.189968 -0.141097 0.084331 -0.227155 0.0252807 0.027786 0.0804734 -0.0390984 0.0833943 0.0337463 0.0450283 0.0558196 0.0398753 0.00917839 -0.220709 0.304113 -0.0339595 -0.0355572 0.0891963 -0.0702727 0.0796903 0.00340713 -0.0784997 -0.0838501 -0.0727452 0.0784225 0.0667256 -0.0608511 0.174389 -0.0980753 -0.101122 0.105856 -0.0997254 0.04713 0.0500931 0.0337795 0.0458172 0.0463056 0.00942226 -0.0760786 0.0605764 0.0475496 -0.080322 0.173449 0.00379655 -0.0130074 -0.0969603 -0.0149614 -0.127562 -0.0158492 0.00865069 -0.0222311 -0.126013 0.0915002 0.104901 0.0827842 -0.0225474 -0.0317344 0.181147 0.00904664 -0.192536 0.235776 0.048501 -0.128664 -0.0530228 -0.028108 0.213107 0.186995 0.0363552 0.0434456 -0.104816 -0.189919 0.0165689 -0.121777 0.166181 0.163423 0.197309 0.0171328 0.163098 0.0254497 0.218011 -0.0305901 -0.193332 -0.118269 0.186788 0.209465 -0.181927 0.0632715 0.0257674 -0.186981 -0.123814 -0.189966 0.230917 -0.0504258 -0.206457 -0.045041 0.212171 -0.166376 -0.210968 0.0222418 -0.186319 0.10179 0.0533706 0.0869415 -0.0263381 -0.116205 0.007866 0.0118162 -0.100241 -0.0830343 0.0109566 -0.174935 -0.0521519 -0.222381 0.0415281 -0.0238555 -0.0683876 0.164781 -0.0950971 -0.147828 0.185618 -0.0691785 0.0381437 -0.120047 -0.106883 -0.0353757 -0.0811155 -0.0430756 0.0917565 -0.163624 -0.0590594 -0.0701265 0.23175 0.00724935 0.122959 -0.142447 -0.0500373 -0.122833 0.232425 0.199896 0.25442 -0.00228389 0.150925 -0.0596424 0.105919 0.105989 -0.0165495 -0.00220324 -0.0999077 -0.0388716 0.0427172 -0.0589647 0.0669139 0.0714956 -0.196758 0.0114093 -0.118853 0.0640999 -0.0743522 -0.00442171 -0.0884968 -0.0021559 0.0521438 0.124431 0.336452 0.0951095 -0.0740732 -0.0819802 0.00406928 0.00713724 0.258911 -0.0775605 -0.0115901 0.106594 -0.0165966 -0.0664014 -0.0648632 0.262369 0.162039 -0.190308 0.104722 0.0846363 -0.0590851 0.0303323 0.119511 -0.0205205 0.136641 -0.111633 0.1592 -0.0859812 -0.0597794 -0.0783615 0.107476 0.000958744 0.10609 -0.0605462 0.126307 -0.0385919 -0.108528 -0.0426177 -0.12567 0.0962101 0.0289812 0.117939 0.0631438 0.218007 0.0638207 0.000965758 -0.141434 -0.0741501 0.111631 0.148443 -0.0570455 0.00659132 0.191588 0.0843758 -0.111476 -0.029064 -0.078473 -0.341223 -0.000719851 -0.0447106 0.122453 -0.100114 0.0606603 0.036187 0.146879 -0.0454191 0.154737 0.0914646 -0.0936641 -0.0311377 0.0482483 0.068584 -0.068314 0.438948 0.188464 0.0598585 -0.0597699 -0.090114 0.071653 0.00666532 0.174172 0.0928442 -0.146862 0.0188445 0.0306742 -0.0244141 0.0244682 -0.155793 -0.00499751 -0.0541044 -0.28271 -0.0312743 -0.042374 -0.0967243 -0.159786 0.0241471 0.0797495 0.223115 0.186695 0.0771077 0.156916 -0.00692646 -0.0228689 0.164016 0.0926514 0.229001 -0.244441 -0.168976 -0.229856 0.028209 -0.0640599 -0.00930479 -0.049193 -0.0885664 -0.113901 0.0587682 0.166141 0.0806491 0.0036062 -0.0504646 0.126673 -0.216546 -0.0783036 0.0934075 -0.284588 -0.0540666 -0.122303 -0.20046 -0.366288 -0.18292 0.142744 0.0470641 0.0054296 0.0742496 0.0310434 0.20489 0.133223 -0.0201415 -0.0729695 0.0798947 -0.121555 -0.117467 -0.0704299 0.0704327 0.288722 0.0043037 -0.0600242 0.0532377 -0.0836824 -0.106465 -0.182539 0.0734578 -0.0160175 -0.105365 -0.0503322 -0.227613 -0.0800999 0.186768 0.276897 0.0579619 0.141456 -0.120471 -0.00752705 -0.222724 0.102467 -0.185636 0.0326849 -0.0911147 0.0232088 -0.116207 0.0871346 0.0558491 0.0190837 0.131252 0.188088 -0.129397 -0.10806 0.13226 0.0199324 -0.253717 -0.142467 -0.0898087 -0.148111 0.118362 0.0803104 0.126763 0.0121221 0.057617 0.0142529 -0.152214 0.115819 -0.0983621 -0.100251 -0.114361 -0.28189 0.245541 -0.0523374 -0.0368086 0.0545706 -0.0285485 -0.137123 -0.0917137 0.0618864 -0.080042 0.00292202 0.154281 -0.0812294 0.137512 0.00287021 0.160435 0.0568082 0.119689 0.124553 -0.084145 -0.0191947 -0.114035 -0.0613197 -0.320709 0.219824 0.118805 -0.0841335 -0.0603026 -0.158143 -0.0130776 -0.272987 0.00865788 -0.170818 -0.0147239 0.158638 0.0486714 0.0714565 0.0537601 -0.0353579 -0.00722334 -0.221297 0.286194 0.0917699 0.0938867 -0.0426907 -0.0575425 0.136428 -0.239319 0.0294027 0.164886 0.137887 -0.00555189 -0.0314455 -0.0846988 -0.0457101 0.331467 -0.119261 -0.00953639 -0.200399 -0.285314 0.132685 -0.122913 -0.00021558 -0.148012 -0.0636046 -0.00948015 0.0410275 0.021088 -0.139272 0.022511 0.0450892 -0.161203 -0.0371089 -0.100008 -0.0888171 0.191625 0.112274 -0.00346233 0.12681 0.181566 0.0138884 -0.0899527 -0.0430693 0.0479559 0.116003 -0.0649895 0.186656 0.117949 -0.0567508 -0.225917 -0.020774 -0.0602262 0.21167 -0.0207064 -0.303304 -0.0547282 -0.0846025 0.105138 -0.15851 0.0446492 0.0461092 0.104245 0.137501 0.105687 0.114967 
-0.285088 0.16236 -0.130885 0.190618 -0.0162553 -0.441007 0.1849 0.00783161 -0.101718 -0.0505433 -0.106292 0.000677099 0.200064 -0.090335 0.0961754 -0.0155754 -0.173067 -0.189614 0.0553826 0.0755481 0.0469033 0.0888594 0.208373 0.0679464 -0.162843 0.0727888 -0.132395 -0.0316738 -0.0707433 -0.148713 -0.0656952 0.10639 -0.079123 0.166333 0.0523272 0.125396 0.203802 0.101929 -0.0842074 -0.028142 -0.122098 0.102036 0.171548 0.0422231 0.132999 -0.156998 -0.203786 0.07266 0.191113 0.398587 -0.0298876 0.130625 -0.40808 0.0164283 0.02298 -0.00192206 0.0892959 -0.0302858 0.00832956 0.0480487 -0.0804682 0.18807 0.0344277 0.0209055 -0.0570286 -0.260957 0.0181473 -0.0390723 -0.167602 0.0422105 0.279729 -0.20562 0.127434 0.0542009 -0.133047 0.0221748 0.0286902 0.145711 0.0271215 0.107232 -0.0493718 0.300655 0.198117 -0.0243381 -0.0255999 -0.267676 0.168024 -0.0458331 -0.0298916 -0.0569431 0.0165432 0.15541 -0.137762 0.00871548 -0.100544 -0.0241779 -0.0522016 0.0635629 0.0774517 -0.0214384 0.0321837 -0.083856 -0.086103 -0.133531 0.0556119 0.0080598 -0.0943825 0.201814 0.109636 0.100109 0.0203133 0.0282397 -0.00987138 0.0315522 0.145066 0.0462394 0.254394 0.074797 -0.00854915 0.185047 0.448197 -0.17563 -0.0544727 0.24201 -0.0353461 -0.113222 -0.130773 -0.102439 -0.172124 0.00991038 -0.250784 0.0208092 0.220424 0.200492 0.0862006 -0.140171 0.239511 -0.121717 0.169456 0.126483 0.0859698 -0.093947 0.0181791 0.0293077 -0.0964222 0.0136803 -0.20806 0.0982344 -0.141305 0.125105 0.0808758 0.0822809 0.0140087 -0.178448 0.127199 -0.162459 0.269161 0.0810725 -0.0226159 -0.0533904 0.239556 -0.0912389 -0.111556 -0.00972865 -0.0677604 -0.130316 -0.111763 0.116348 0.12324 -0.0502559 0.0480733 0.130811 -0.170229 -0.118554 0.227785 -0.0896842 0.0212506 -0.040238 -0.0458156 -0.0273854 0.175375 -0.122747 -0.0389498 -0.00927246 0.0120119 0.0941495 -0.0461739 0.0259456 -0.0210468 0.00766653 0.071292 0.225261 -0.206763 -0.0103153 -0.0663886 -0.033628 0.0571692 0.0670443 0.0588965 -0.0406743 -0.018271 0.039945 -0.0796798 0.208606 0.163844 0.0724131 0.0106606 0.0729741 -0.0301745 0.101758 0.052922 0.336632 0.0757321 0.142849 -0.150828 -0.12972 -0.103558 -0.130192 0.209982 0.0707374 0.155913 -0.204332 -0.00270344 0.0655049 -0.171574 0.0498785 -0.0227145 -0.0448252 -0.124235 -0.184417 -0.164832 -0.077352 0.0907285 -0.0391065 -0.182564 -0.0121482 0.0309399 -0.0789549 -0.00155905 0.106754 -0.123193 0.130329 -0.0750978 -0.131993 0.201347 -0.140502 0.0558049 -0.110943 0.0195199 0.0361267 0.107325 -0.14333 0.0024239 -0.00365617 0.153499 -0.058989 0.0368039 0.192238 -0.0802888 -0.0749631 0.0976184 0.115021 -0.0329993 0.0603922 -0.124144 -0.0336123 -0.13257 -0.0150049 -0.163326 -0.10277 0.0484257 0.211988 -0.0189581 -0.18455 0.105434 -0.208575 0.158334 -0.0454932 0.217886 0.122476 0.0148159 -0.0171244 -0.214362 0.181424 0.173652 0.0403692 0.203108 -0.127555 0.0712743 0.0153166 -0.0610897 0.0286042 -0.0663693 0.056724 -0.00499518 -0.15928 -0.0620957 0.0877609 -0.0303929 -0.0796669 -0.102033 0.0932961 0.0143812 0.0456904 -0.246239 0.0501746 0.0637413 -0.0711773 0.0410855 0.168513 0.180679 -0.109939 -0.15153 0.066167 0.0901829 -0.118827 0.16023 -0.0928404 -0.0270535 -0.017115 0.153062 -0.0110186 0.0619674 -0.159415 -0.172725 -0.1303 -0.128057 0.169918 0.0785949 -0.0267204 -0.143481 0.0704986 0.131917 -0.135699 0.0145701 0.0397369 0.0430119 -0.0430985 0.00322713 -0.0718602 -0.0969875 -0.261903 -0.0878241 0.012751 0.109582 0.000522311 0.0955103 0.0197895 -0.00580045 -0.118212 -0.0170359 0.0441378 0.0344718 -0.149169 0.0597768 0.127792 0.092931 -0.0739809 -0.00831599 0.0848633 0.252557 -0.202364 0.174515 0.0507714 -0.222182 -0.171263 0.108188 0.0896997 0.0519091 -0.151707 0.000335381 -0.201192 0.205276 -0.102401 0.0543671 -0.22702 0.0452503 0.0437319 0.0426406 -0.0381875 0.0298612 -0.0705085 0.0455224 -0.0251522 -0.189208 0.0233313 -0.0915651 -0.0214481 -0.016741 0.0945284 0.149831 0.010058 0.0248269 -0.244523 -0.0144147 0.0862859 -0.0726292 0.00205474 0.0450459 -0.0359736 -0.258586 -0.0786526 0.0252894 -0.0555504 0.053283 0.0271774 -0.144136 -0.112183 -0.0104937 0.00899299 -0.0322042 -0.0176349 -0.077581 -0.00414422 0.061222 -0.301733 0.051871 0.108728 -0.196157 0.0635255 -0.135355 0.257017 -0.0574694 -0.0200183 -0.103065 -0.0785587 -0.0577821 0.0667434 0.113623 0.0685492 0.0166184 -0.138956 0.0813913 -0.164324 0.0263532 -0.00947452 -0.126312 -0.0307144 -0.00549419 0.0974175 0.126783 -0.0981291 -0.156999 -0.0219619 -0.187575 0.0484549 0.131608 -0.00873816 -0.0647272 -0.0665174 -0.204557 0.150802 -0.143919 -0.0272279 0.144792 0.207252 -0.198535 0.0421343 0.314418 -0.159598 -0.0312366 -0.00326117 0.301739 0.0846808 0.102917 0.0617144 0.0917814 -0.21714 0.123505 -0.122709 0.0955795 0.214195 0.0121432 -0.162949 -0.0180653 -0.0717426 0.254407 -0.084253 -0.105133 -0.0182405 -0.0862299 0.0880664 0.0370532 -0.0829278 0.0151918 -0.157858 0.0716712 -0.209458 0.0849334 -0.161803 0.000147417 0.0327087 0.265316 -0.0749049 0.221807 -0.193763 0.05334 -0.245492 0.127019 -0.139073 0.077421 0.0679082 0.244062 0.0932268 0.241649 -0.164295 -0.0707387 0.0104492 0.0194777 -0.239969 -0.324975 -0.299644 
-0.081452 0.189048 -0.186399 -0.0543759 -0.260583 0.19827 -0.198254 0.186594 0.132209 0.0419022 -0.0568067 0.10128 0.324712 0.146759 0.0704353 -0.0529796 -0.120631 -0.169223 0.0597213 0.0219288 -0.245365 -0.0433661 -0.0759938 0.110804 0.074963 -0.12777 0.0378696 0.231317 -0.0263803 0.164164 0.13503 -0.184787 -0.0176955 0.0775739 0.126264 0.217686 -0.18787 0.011462 0.0663125 -0.0242926 -0.0653016 -0.0639479 -0.0947525 -0.279087 -0.0333527 -0.0168066 0.0112495 -0.150257 0.147104 0.0596212 -0.278369 0.0814039 -0.0591394 0.09467 0.0764581 -0.0241476 -0.0911566 -0.0726843 0.0295592 -0.210535 0.0689428 -0.0780823 -0.207143 0.0917914 -0.189658 0.0265677 0.133683 -0.13912 -0.00872659 0.130858 0.0290658 -0.000732191 -0.024676 -0.042857 -0.0655415 0.0891307 0.0870697 -0.0707686 0.0471097 -0.0538511 -0.277452 -0.0227191 0.133275 -0.289704 -0.0424352 0.103979 0.0547342 -0.322617 -0.159549 -0.0391113 0.195135 -0.125188 -0.111488 -0.230308 0.109751 -0.0998894 -0.00331573 0.222018 0.167666 0.00990061 -0.0451424 0.0989927 -0.097341 0.0480759 0.0920263 -0.0095509 -0.0757684 -0.117036 -0.0271568 0.144483 -0.122893 -0.0522506 0.0192518 0.0384368 -0.00547082 0.0992655 -0.245697 0.137223 -0.152576 -0.000651033 0.195955 -0.0675784 0.207993 -0.0127907 -0.00578097 -0.157801 -0.140934 -0.0763523 -0.0498549 0.119129 -0.13676 0.0185239 0.0979766 0.263935 -0.232445 0.0488653 -0.0166558 0.0709814 -0.218021 -0.0796616 0.140499 -0.0108122 -0.169992 0.178823 -8.2138e-05 0.0808085 -0.03721 -0.0707494 0.31488 0.0940843 0.0218226 0.0828127 0.059913 0.057553 0.0207063 0.0837645 -0.0323001 0.0235156 -0.0606311 0.0665947 0.0382804 0.00918719 -0.0432809 -0.0263107 0.00773988 0.0523832 -0.0582226 0.0505866 0.0478246 0.147783 -0.151905 0.0921202 -0.168531 -0.157111 -0.00321114 0.131155 0.00989334 -0.00557604 0.247799 0.0350743 -0.00589032 -0.0186895 0.11905 -0.211617 0.0558857 0.0836447 -0.104589 0.020319 -0.102916 0.0173877 0.00211787 -0.0531973 0.113445 -0.00237758 -0.0500395 0.0717283 -0.105899 -0.253963 -0.0124658 0.143573 -0.108183 -0.218803 -0.0219125 0.225426 0.0457911 -0.120015 -0.204196 0.0699714 0.0871545 -0.159505 0.092943 -0.142925 -0.161841 -0.100302 -0.0301076 -0.054027 0.184726 0.0332481 0.0772562 -0.120528 -0.0124458 0.0602391 0.133792 -0.0371261 0.033872 0.177651 -0.269222 0.0387312 0.0927462 0.0102449 0.165603 -0.0750574 -0.075413 -0.0392583 -0.188204 -0.147563 -0.0667809 0.0496851 0.101306 0.110228 0.0221488 0.198879 -0.150599 0.0307757 0.200658 -0.172594 0.174895 -0.108929 -0.226171 0.0688965 -0.217684 -0.197753 -0.280486 0.0738766 -0.202602 0.0928451 -0.0315791 0.136337 -0.0740907 -0.00319522 0.158199 -0.376923 -0.145393 0.0146191 0.0433468 0.0150831 -0.0413899 -0.0677688 0.111219 0.129432 -0.210445 0.159401 -0.151024 0.0307131 0.000276158 -0.256729 -0.0200218 0.172819 -0.0828922 -0.0243025 -0.0223706 0.186317 -0.00552995 0.1994 -0.0578687 0.0712735 0.12988 -0.164421 -0.172748 0.00500795 -0.0201298 0.0578557 0.143815 0.101644 0.242205 0.170945 0.108657 -0.0125513 0.0801025 0.128916 0.140359 -0.289337 0.0309672 0.0971356 -0.0153654 0.0187643 -0.0444109 -0.173994 0.178557 0.00257481 0.0177392 -0.261353 0.153947 0.045094 -0.000385589 -0.0403986 -0.115202 0.073331 0.0927415 -0.00969245 -0.00421309 0.00219636 0.0177727 0.0354737 0.170809 0.0184664 0.0760687 -0.0701034 0.274779 -0.102026 -0.137048 -0.129313 0.123982 -0.21956 0.00838829 0.0149514 -0.0793791 0.159224 -0.249315 0.158641 -0.162951 0.128703 -0.151468 -0.128092 0.246773 -0.0206641 0.0967548 0.0334417 -0.00506677 -0.0169734 0.0897964 -0.213101 0.0287568 0.00118059 0.0918926 -0.223445 0.0892152 -0.0821828 0.0102204 -0.0129278 -0.0742636 0.0390772 0.254397 -0.00341928 0.178768 0.0596505 -0.207811 0.0541115 0.00164947 -0.0545909 0.129448 -0.0457865 0.0407641 0.0116038 -0.128255 0.0251334 0.0741643 -0.0374216 -0.162069 0.0799855 -0.164803 0.178501 -0.0190686 0.131758 0.17063 -0.0792444 0.129769 -0.0705375 0.0996352 -0.0709382 0.0246119 0.00364481 -0.162353 0.0213507 0.0902524 0.00337954 0.0452709 -0.102863 -0.0360272 0.080754 0.090687 0.109848 0.00106176 -0.110114 -0.082694 -0.0959496 -0.0199297 -0.0838828 0.101848 0.0805205 -0.087643 0.0554049 -0.278194 0.268556 -0.0775621 0.0566091 0.0527219 -0.0481023 0.0801719 0.0913486 -0.0768869 0.141324 0.138272 -0.157185 -0.0369396 0.0042388 0.188286 -0.337922 -0.232158 -0.0325073 0.0153156 0.0233235 -0.0300079 -0.119946 -0.155702 -0.130522 -0.0229349 0.159249 -0.100942 -0.0899509 -0.0984756 -0.0957499 0.045314 0.218571 -0.0829721 0.0548203 0.18159 0.0532636 -0.106173 0.108021 -0.0153362 0.121451 0.0164098 -0.0271236 0.0906364 -0.0680243 0.218502 0.0967896 -0.190483 0.094236 0.0840603 -0.0722219 0.392105 0.0350743 -0.0417463 -0.235392 -0.0575241 -0.12985 -0.112751 0.207395 -0.192239 0.0853298 0.0436607 -0.0365455 -0.0311027 0.048397 0.0391684 -0.0296383 0.0212764 0.152275 -0.10994 -0.0809106 0.1432 -0.0452558 -0.0450692 -0.0443932 0.142984 0.220083 -0.322988 -0.195337 0.223026 -0.0280264 0.0370777 -0.111188 -0.106954 -0.0135193 -0.00971649 -0.301738 0.0336243 0.0346866 -0.0337046 0.0517104 0.362683 -0.146068 0.152201 -0.111642 -0.145205 0.13709 -0.128948 0.0238207 0.101645 -0.0365645 
0.110571 -0.101262 -0.00110107 0.0682059 -0.0293961 0.220131 -0.0268514 -0.177886 0.212082 0.153237 0.14824 -0.143018 -0.127323 0.0985589 -0.0527387 -0.0106624 0.14863 0.094646 -0.00372144 0.0440283 -0.0277758 0.0371569 0.115556 0.104111 -0.151505 0.0409913 0.154774 -0.0749704 0.16743 0.0523646 0.0470923 0.183308 0.0965316 -0.128799 -0.0707772 0.125583 0.125696 -0.12986 0.0640534 0.201444 0.0408945 -0.0625786 0.218208 0.207279 0.0227973 0.299841 0.0931795 -0.0723427 -0.0127943 0.0174011 -0.0740946 -0.045188 0.134094 0.0201466 -0.0516958 -0.120299 -0.0901592 0.00438035 0.041096 -0.0813883 0.228629 -0.229771 0.0334819 -0.0847857 -0.235912 0.0203022 -0.238944 -0.115808 -0.331108 0.169223 -0.132018 -0.0154175 0.0151477 -0.0379014 0.0690142 -0.0160902 -0.0352419 0.155125 -0.020149 0.0315096 0.0863331 0.00542901 0.313708 0.0164629 -0.115968 -0.0289246 -0.0567177 -0.205288 -0.0908798 0.157242 -0.0256811 -0.141858 -0.0811287 -0.039293 0.125218 0.107023 0.216527 0.37486 -0.0352284 -0.138299 -0.01402 -0.00472715 -0.165819 0.129964 -0.189852 0.100444 -0.143209 -0.120262 -0.0225037 0.100371 0.122705 -0.0578528 -0.126624 0.103456 0.0809061 0.03035 0.174987 -0.180163 0.0905427 0.0950827 -0.0484086 0.0375864 -0.0825951 -0.104413 -0.276455 0.166467 0.0361231 -0.168706 -0.138784 -0.0780063 -0.0647981 -0.00754666 -0.0224632 -0.0696384 -0.0635268 0.188408 0.154805 -0.0965038 0.203141 -0.048237 -0.0149924 0.0451652 -0.0301624 0.16503 0.105038 -0.024921 -0.154622 -0.102944 -0.0569979 0.104477 0.106674 0.045454 0.287125 -0.0274846 -0.155167 0.116477 -0.00650379 -0.0783902 -0.0815453 -0.0401143 0.00239779 0.0341858 -0.116752 0.158791 -0.0408463 -0.0260077 -0.0183145 0.0169028 0.196174 -0.0141059 -0.000398265 0.0572859 0.256976 0.0153271 0.135103 -0.076507 0.0219409 0.0604053 -0.230775 -0.020344 -0.152414 -0.0394078 0.104192 -0.112912 -0.0522878 0.0852999 0.147365 0.0423165 -0.0329269 0.0600435 0.123823 0.0489393 -0.051287 0.0462045 -0.126412 0.140269 -0.213859 -0.157313 -0.0532253 -0.0535707 0.138036 -0.21881 0.0967451 0.055185 -0.0497696 0.0689534 -0.164518 -0.301213 0.240797 0.0388496 -0.0474458 0.127721 -0.103689 0.0502418 0.194618 -0.11972 0.153856 -0.0336121 0.208981 -0.226507 0.0504598 -0.107992 -0.0617791 0.292468 -0.0558955 0.222077 0.0599415 0.196063 0.0434992 -0.116333 -0.190226 0.0463025 -0.329695 -0.0470651 0.124688 0.00352216 -0.0614322 -0.101754 0.0270713 -0.126968 -0.036682 0.0363724 -0.138262 0.182556 -0.268307 -0.160698 0.11066 0.0658958 -0.160323 -0.0691442 -0.0963443 -0.0472887 0.0509174 0.0455104 -0.159319 -0.13915 -0.196588 -0.0303587 -0.182359 0.0537371 0.166798 -0.0644381 0.175156 0.0827539 -0.0451533 0.150673 -0.0964875 -0.159923 -0.131324 0.182308 0.0312539 0.13759 -0.195391 0.0482729 0.136349 0.156665 -0.213379 0.243495 0.027536 -0.163765 -0.237256 0.369668 -0.0937269 -0.0565927 -0.247547 0.0544712 0.00321947 0.0736055 -0.190587 -0.0108406 0.161336 0.147489 -0.0105979 -0.0425738 -0.203465 -0.0730037 0.151475 0.146587 0.21246 -0.0294226 0.131281 0.138977 -0.181297 0.191397 -0.127768 -0.141198 -0.19474 0.129541 -0.0722338 -0.21731 -0.00469857 0.00427497 0.0796 -0.0736892 0.0206321 -0.0514344 0.149975 0.0553922 -0.0138912 -0.143508 0.114664 -0.111513 0.174424 0.124337 -0.196486 -0.0472566 -0.0131559 0.00226763 0.171473 0.0606834 -0.0400989 -0.144686 -0.0684046 0.0109108 0.180474 -0.114478 0.06113 0.0504963 -0.0751924 0.105653 0.00257267 0.134638 -0.0899349 0.255219 -0.00253226 0.100062 -0.0931278 0.0466363 -0.0518971 -0.163572 -0.040007 -0.0687393 0.140746 -0.0872919 0.224551 -0.137572 -0.133078 -0.0774217 0.0629564 -0.0594485 -0.194958 0.154694 0.0525222 0.0330462 0.0787124 -0.0162648 0.0629382 0.173415 -0.109479 -0.201439 0.0758534 -0.0493572 -0.0874985 -0.34197 0.0413399 0.135253 0.0826655 -0.189201 0.277889 -0.0555484 -0.125017 -0.256186 -0.0210249 0.0981818 0.142967 -0.0611021 0.0889912 -0.256933 -0.044368 -0.290671 -0.00227959 -0.0684879 0.0919698 0.0623351 -0.0293656 0.0831387 -0.154202 -0.0326511 -0.0831271 0.11837 -0.289048 -0.243084 0.020958 0.108902 0.147403 0.125601 -0.13936 0.119825 0.097129 0.0588454 0.0547075 -0.0520812 -0.0166192 0.0684433 -0.0889982 -0.0939779 -0.128466 0.00880446 0.0829361 0.0150995 -0.0378915 -0.123611 -0.0498119 -0.168792 0.0545339 -0.14618 0.0543764 0.218031 0.0143396 -0.0284944 0.176377 -0.114767 0.144567 -0.240425 0.129951 -0.0272829 0.104831 -0.306384 0.071991 0.0932889 0.0770805 0.167724 0.00896021 -0.141403 -0.22234 0.16411 0.0799648 -0.033612 -0.130292 0.0133443 -0.084989 -0.040886 -0.077605 -0.011743 0.128358 0.0270696 -0.0143662 -0.0463717 -0.137439 -0.0832155 0.0134039 -0.191442 -0.0264995 -0.00593158 0.0258116 0.24257 0.0318061 0.00979885 0.148122 0.0208817 -0.0738194 -0.00580424 -0.0531468 0.0776818 0.117615 -0.0841169 -0.217043 0.170479 0.21272 -0.102689 0.0823787 0.0964301 -0.0672804 0.323071 -0.0580729 0.28071 0.0936084 -0.147675 0.116882 0.0337248 0.153698 0.145323 0.242062 -0.0416601 -0.0246812 -0.0580004 -0.0780358 -0.283011 -0.0959134 -0.0208307 -0.0334565 -0.0523446 -0.0529393 0.0149771 0.11304 -0.128141 -0.188184 0.0978348 0.186147 0.0396663 -0.0894651 0.154119 
-0.0559397 -0.00498717 -0.155456 -0.0327099 -0.0309001 0.0724648 0.241038 -0.0457508 0.00989833 -0.0462581 0.0363023 -0.0322112 -0.118745 -0.0973577 -0.0465011 -0.166798 0.243246 0.0282175 0.0677704 -0.264313 -0.188885 -0.109529 0.0348444 -0.0330237 -0.0821916 0.0809836 -0.0881363 -0.202822 0.226507 -0.0621487 0.13812 0.154459 -0.0781634 0.0476035 0.0403735 -0.027683 0.0952108 -0.039568 0.282095 -0.131473 -0.0384253 0.0246814 0.00535422 -0.26172 -0.129142 -0.0946766 -0.0162942 -0.0241814 -0.120191 -0.00858066 0.301914 -0.0723746 0.00123905 0.100124 -0.113792 -0.0293316 -0.106306 0.0835657 0.0486214 0.0390052 0.00893336 -0.0327008 -0.164544 -0.019517 0.0330841 -0.164917 0.022877 -0.0347943 0.122348 0.172214 -0.238572 -0.0539491 -0.133185 0.0583801 -0.12101 0.0822549 0.0625997 0.100407 0.133661 -0.224618 -0.123387 0.150187 -0.200439 -0.159879 0.0207857 -0.129068 -0.239781 -0.11727 0.047925 -0.0064181 -0.0845794 -0.228102 0.0553567 -0.19018 0.0355526 -0.190101 0.0563436 -0.119496 -0.0496764 0.0568435 -0.0155881 0.0698548 -0.144301 0.0571959 -0.0144616 -0.105666 0.0172979 0.0313285 -0.220745 0.143809 -0.0359887 -0.163353 -0.248621 0.0203217 0.145174 0.107772 0.131907 -0.0453179 -0.0490392 0.198668 0.0719948 -0.033775 -0.240714 0.146849 0.219214 0.0957059 0.102924 0.0321812 -0.0293484 0.0193486 -0.0332982 -0.150236 0.018443 -0.105137 -0.0852464 0.190878 0.0604257 0.102874 -0.010582 0.405229 -0.0528939 -0.113938 -0.144716 0.144225 -0.110122 0.17198 0.065829 0.100981 0.0988965 -0.20269 -0.268167 -0.0564638 0.0966753 -0.1487 -0.217145 -0.0833901 0.131248 0.102431 -0.0110259 0.104392 0.123847 -0.101024 -0.0226536 0.0695886 -0.0231616 0.129171 0.0372572 0.0832091 0.056612 0.0871188 -0.0148917 -0.0885935 0.096829 -0.131388 -0.0892054 0.213374 -0.055334 -0.257299 0.00510426 -0.155074 -0.0393276 -0.160545 0.0136613 -0.152242 -0.0658708 -0.0373678 0.147316 0.134368 0.079389 -0.110185 0.0919347 -0.0782141 0.0339455 -0.228649 -0.231256 0.154683 0.0333927 -0.0594779 0.248256 0.157743 0.0503167 0.0117861 -0.0442722 0.0891581 -0.0179333 0.126189 -0.175495 0.0281996 -0.0260249 -0.131992 0.147144 -0.0968273 0.0841719 -0.124746 -0.100448 0.103289 0.00353735 -0.050325 0.0180792 0.105715 0.0430324 -0.0555162 0.0185033 -0.0879841 -0.0514757 0.124742 -0.171673 0.0321567 0.00880868 -0.211778 -0.0697045 0.0104304 0.0887867 0.113109 -0.0925257 -0.0683949 0.0468151 0.0698578 -0.0907987 0.0665847 -0.017061 0.0196851 0.0127241 -0.264525 -0.096191 -0.109826 -0.126559 0.0038421 -0.0280452 0.142014 0.0709183 0.0391877 0.00677556 0.0229091 0.130135 0.0839026 0.240944 0.127027 0.191701 -0.327822 -0.0572217 0.224137 0.0135161 -0.078789 -0.115739 -0.048168 0.0142565 0.118272 -0.0889535 -0.0167238 0.16135 -0.105043 0.228307 0.0219578 -0.0208445 0.0983256 0.0810997 -0.105182 0.149441 0.0650474 0.1743 0.0698226 -0.024294 0.148176 -0.0304919 -0.1054 0.0141996 -0.0474805 -0.382557 -0.0586431 -0.177428 -0.133741 0.317999 -0.0332876 0.200964 0.0798967 -0.0756018 -0.069414 -0.0985294 0.0898152 -0.0147018 -0.101649 0.151465 0.102669 0.146288 0.0494926 0.0917134 0.0925863 -0.0247444 0.0470247 0.0317186 -0.128689 -0.159577 -0.0810057 -0.0416937 -0.0201026 0.0666904 0.108744 0.108953 -0.173183 0.146353 -0.021076 -0.219802 -0.164846 -0.0542084 0.031146 -0.165835 -0.249195 0.0698927 0.0829857 -0.00158907 0.0892719 0.0741695 -0.200779 -0.0674657 -0.240595 -0.0017125 -0.0198611 -0.102224 0.0125415 0.148289 0.0264958 0.00325657 0.0385384 0.248111 -0.0390055 0.0179374 0.0210074 -0.0441948 0.211893 -0.14399 0.0487514 -0.256833 0.0163963 -0.140119 -0.0431936 0.18959 0.177476 0.134117 0.20836 0.00368411 0.0183187 0.070147 -0.0933902 0.00801858 -0.0505235 0.222919 -0.0286421 -0.178227 0.131161 0.148003 -0.0308747 0.0605959 -0.0797224 0.0341112 -0.138754 -0.0904618 -0.0293337 -0.162749 0.0488104 -0.0881379 -0.0282973 0.0503888 -0.334293 -0.0467587 0.00552761 -0.102748 -0.128277 0.060364 0.177892 -0.0937751 0.0797301 0.0249646 0.0359101 -0.217323 -0.0469483 -0.0812798 0.0867554 -0.0912328 -0.0927293 -0.168808 -0.0321746 0.0182066 0.0440319 0.188519 0.217837 0.0526025 -0.0113288 0.0313234 0.0531703 0.214601 -0.106546 -0.0640093 -0.118704 0.182625 -0.0931348 0.113072 0.0346552 -0.26807 0.132662 0.276311 -0.116266 0.102486 -0.0306412 -0.0813937 0.287048 -0.00813499 -0.0977694 0.148044 -0.194513 -0.0654021 0.013032 -0.0835219 -0.15773 0.0474319 0.0222594 -0.187075 -0.0977593 -0.290957 -0.173971 0.0734813 -0.12318 -0.0590222 0.0468364 0.0883928 -0.0955278 0.00263188 0.0508758 0.132514 0.0105536 -0.037894 -0.115353 0.110027 -0.29705 -0.153487 0.149399 -0.0998332 -0.0211751 0.181737 0.0676927 0.0401132 0.144186 0.0153329 -0.235866 0.0769739 0.0628497 -0.123511 -0.0403446 -0.0997361 -0.0293168 -0.0780441 0.0982996 -0.246019 0.186814 0.242802 0.0111135 0.0315648 -0.0187446 -0.123038 0.161725 0.111641 0.0969786 -0.166857 -0.0336948 -0.141929 -0.0773082 -0.189569 -0.139137 0.0275187 -0.00525499 0.26597 0.0746826 0.101495 -0.0783659 -0.0655209 -0.0264634 0.0361247 0.102267 0.0447387 -0.066853 0.211707 0.0864179 0.000556982 -0.0733382 0.23533 0.0220859 0.174119 -0.0398567 0.104907 0.112195 0.0231711 -0.0782375 
0.136817 0.206729 -0.18654 -0.163023 -0.0529668 -0.179187 0.199837 -0.127074 -0.0916127 -0.0862334 -0.117677 0.303814 0.0832309 -0.0707795 0.11672 0.0226529 -0.0194935 -0.279076 0.0564789 0.113127 0.182479 -0.0312386 -0.0611669 0.187361 -0.224995 -0.165991 0.21229 0.116434 0.0315966 0.0815899 -0.0694496 0.0109792 0.189974 -0.0838998 -0.103801 -0.0351783 0.0438779 -0.0876935 -0.0670921 0.0242853 0.260127 0.193003 0.0934806 0.152085 0.0554413 -0.0900998 -0.104847 -0.232951 -0.0294371 -0.0687884 0.0522494 -0.0593291 -0.0546775 -0.177301 -0.172118 0.0515158 -0.0350571 -0.101357 0.0902911 0.0892317 -0.126905 0.128691 -0.336246 -0.115897 -0.120644 0.0121702 -0.0329653 -0.0957006 0.187479 -0.3462 -0.0270648 -0.0167129 0.0823844 0.16783 -0.0111448 0.116218 -0.157761 -0.0819996 0.155071 0.271522 -0.0332169 -0.0917176 0.13465 -0.0388577 -0.073759 0.0148039 -0.159241 0.101808 0.0530825 -0.181743 0.224329 0.108958 0.0208854 0.1959 -0.0243011 -0.00317212 -0.191583 0.0123976 -0.192283 -0.270153 -0.0643418 -0.0506781 0.106396 0.0585547 0.201615 0.121475 0.190016 0.0537307 0.088101 -0.267862 0.105208 -0.0440893 0.0237157 -0.0999574 -0.0730084 0.0557362 0.218978 0.11058 0.10699 -0.0373176 -0.00282832 0.112223 0.31413 0.00150449 0.0748158 -0.183929 -0.0559695 -0.273006 -0.0568723 0.060457 0.148186 -0.0532106 -0.0419049 -0.105155 0.00207342 0.130234 0.0358653 0.204824 -0.0334157 -0.0664876 0.207817 -0.0280549 0.0671107 0.152674 -0.0103481 0.000969072 0.1274 0.106237 0.00171703 0.139467 0.02826 0.149434 0.208059 -0.06746 -0.00221324 -0.0867102 -0.0249735 -0.00673225 -0.134321 -0.0708488 0.123778 0.0228059 -0.128065 0.0992991 0.0401852 -0.105696 0.130695 -0.0824063 -0.129062 -0.0332051 -0.154795 0.378466 -0.0985575 0.120885 0.221263 0.0626977 -0.00439173 -0.00576415 0.273637 0.104229 -0.192512 -0.185703 -0.176287 -0.0524005 0.0190306 0.0100979 0.0219273 -0.079292 -0.204124 0.0415898 -0.103468 -0.264141 0.078773 0.0558047 -0.188332 0.112424 0.0058735 0.135365 -0.0372476 -0.0309646 -0.128289 -0.014534 -0.0185822 -0.00850113 0.0884548 -0.0315057 -0.238532 0.0886672 -0.00186219 -0.155728 -0.0742318 -0.0389747 0.087658 0.0443754 -0.0992052 -0.0539564 0.0331992 -0.166328 -0.0895135 -0.0723186 0.169659 0.0862587 -0.239846 -0.0821654 -0.185498 -0.127232 -0.0699708 -0.0453442 -0.00130509 -0.0756376 -0.00658262 0.078189 0.0491517 -0.0508917 -0.136001 0.113862 0.0731771 -0.0330176 -0.10477 -0.0319347 0.104371 0.0506773 0.0595913 -0.0323282 -0.201362 -0.134422 -0.146406 0.132987 -0.035862 0.0768031 0.119899 0.110889 0.0435149 -0.127996 -0.0773346 0.0985164 0.132431 0.165134 -0.207561 0.00399768 0.0519322 0.0525888 -0.127707 0.0130753 0.0143452 -0.348339 0.0531544 0.123135 -0.0135056 0.126099 0.156825 -0.087772 -0.05402 0.101517 0.227086 -0.155858 -0.0695655 -0.0683019 0.198542 -0.0958858 0.0916224 -0.0632853 -0.0882115 -0.174357 0.0390124 -0.00582247 -0.18951 0.0195656 -0.133392 -0.0140838 0.00469467 -0.0195173 -0.0584957 -0.0103365 0.0542335 0.0877329 0.153413 0.108955 0.0501768 0.256476 -0.11766 0.0850618 0.0982726 -0.0626224 0.0840644 -0.0623782 0.0327113 -0.0414819 -0.168745 0.0196756 0.106185 -0.0769099 0.0454827 0.12374 0.00680482 0.166751 0.0755384 0.0204121 0.269011 0.125445 0.198664 -0.0230736 0.216566 0.131284 -0.1922 -0.0776607 -0.0355679 0.0518471 0.0480149 0.0116106 -0.0753684 0.181677 0.317342 -0.0473364 0.16733 0.0537228 0.00527306 0.13989 0.12738 -0.35702 0.0550942 0.0147368 0.0893629 0.109764 0.258746 -0.238795 0.14846 -0.0408797 0.0178221 0.149773 -0.0696431 -0.0669337 0.159878 -0.216013 0.0482551 -0.102351 -0.229266 0.0028358 -0.0163185 -0.226443 0.0391539 -0.0665055 -0.198542 -0.229498 0.0991077 -0.0317198 0.145578 -0.129416 -0.0139891 -0.162185 0.0154229 -0.072562 0.00032155 -0.0254009 0.14603 -0.130479 0.248521 0.00669141 -0.166325 0.17333 0.0419526 0.115972 -0.0574164 0.00964944 0.0868365 -0.038208 -0.109283 0.173929 0.0160217 0.261164 -0.0448154 -0.287322 -0.088767 -0.354541 -0.0914838 -0.139516 0.118761 -0.09468 -0.174679 -0.000299236 0.00110831 -0.236594 -0.0148112 -0.0184888 0.00962516 0.179232 0.109047 0.0530065 0.121604 -0.0118718 -0.0246832 0.151102 0.149181 0.0211772 -0.00566371 0.00554495 0.0173446 0.0854281 -0.275161 -0.166857 0.0654524 0.0382353 -0.137072 -0.226445 0.109473 0.0896231 0.140214 0.0813083 0.120051 -0.333777 0.00938838 0.015301 -0.00646187 0.0901964 -0.113247 -0.115366 -0.18124 0.0879439 0.174863 0.0168068 0.134094 -0.05857 0.0464486 0.153953 -0.17015 -0.0163842 0.212106 -0.218774 -0.144259 -0.0257214 -0.0432115 0.161293 -0.0323639 0.0738406 -0.0346125 -0.226526 0.111535 -0.0191168 -0.152679 -0.123156 -0.141565 -0.0992028 -0.192271 0.0907259 0.0393832 0.00538393 0.0303907 0.0957598 0.29742 0.0862945 -0.0276682 -0.0806444 -0.169025 -0.112707 -0.0730675 -0.240931 0.246514 -0.0706926 -0.00697328 0.0935645 0.0607452 -0.185436 0.184927 -0.393362 -0.0968325 0.0345024 0.0571681 0.136127 0.0843438 -0.0355265 -0.108808 0.183223 0.201422 -0.052112 0.118486 0.112873 -0.195125 0.0367158 -0.186951 -0.266322 0.133577 -0.14042 -0.172686 0.0605235 -0.00816879 0.016324 -0.00764878 0.186024 0.134906 -0.0100565 0.0589505 -0.137179 
