124 512
0.151288 -0.00709564 0.0265268 -0.151265 -0.052406 -0.133555 0.0426419 0.237679 -0.259346 0.126145 0.173346 0.0147316 0.0557068 0.0723278 0.00218703 -0.0211195 -0.0558286 0.242266 -0.0372292 -0.0568929 -0.0955062 0.127965 0.192344 0.0485873 -0.0699809 -0.0256232 0.20775 -0.311616 -0.0148571 -0.017177 -0.0466597 -0.00290212 0.106383 0.171944 -0.0420876 0.138807 -0.00467365 0.0958116 -0.098637 -0.0890701 0.0807101 -0.102287 -0.253889 0.017443 0.0186612 0.0750877 -0.091723 -0.0191935 -0.115963 -0.0313275 -0.0789812 -0.039484 -0.11407 0.148469 -0.155461 0.0576384 -0.0556684 0.0966106 0.118418 -0.0176927 -0.0830477 0.0732693 0.0195595 -0.106207 0.00523228 0.145387 -0.130965 -0.153409 0.129836 -0.141745 0.0500667 -0.139039 0.00278112 0.0876755 0.244439 -0.108957 -0.166923 0.0216671 -0.0221322 0.0527724 0.0333433 -0.22167 0.0214404 0.0575405 0.0228577 0.0818107 -0.0181241 0.0593622 -0.0192824 0.133685 0.13995 0.126353 -0.0517004 -0.035289 0.121692 -0.0433528 0.0999917 0.00220589 0.161794 0.136888 -0.150262 0.186228 -0.146028 0.0717575 -0.179931 0.0797953 0.0544984 0.148933 -0.00986998 -0.108978 -0.223477 -0.079426 0.110969 -0.016587 -0.0712104 0.0904593 0.0040296 -0.033235 0.12245 0.104399 -0.0668569 0.166771 0.000348028 0.212395 0.00945565 -0.164348 0.0140357 0.0267984 -0.0438726 -0.0810427 0.0371665 0.133397 -0.122997 0.156664 0.0447536 0.16186 0.144783 0.237755 0.010207 -0.167281 -0.0343689 -0.0260528 0.0220068 0.108314 0.0219616 -0.120557 0.211575 -0.0867609 -0.0833598 -0.0149323 -0.127946 -0.262563 -0.0108317 -0.0367333 -0.0735414 -0.110651 0.00627204 -0.0398873 -0.210459 -0.104272 0.18543 0.146485 0.0810118 0.0399427 -0.0524494 -0.184031 -0.17748 -0.112203 -0.0545698 0.255747 0.266859 0.0148689 -0.0864552 -0.0372277 0.144429 -0.210151 0.105316 -0.183325 -0.0383427 0.226155 -0.0446358 0.00403551 -0.0225101 0.138587 -0.146278 0.0946707 0.038662 -0.21329 -0.051821 -0.0751705 0.0487177 0.0230861 0.132368 -0.145685 -0.0203158 0.235852 -0.0310535 -0.0991627 0.0023084 -0.225918 -0.121678 0.112047 -0.00383059 0.10197 0.249951 -0.013806 0.0420176 -0.154287 -0.0219687 0.143396 -0.00421361 -0.0742296 -0.0265639 -0.0982203 -0.170938 -0.0300258 0.14264 -0.1264 0.127612 0.00384066 0.102413 0.225527 -0.12298 -0.0322264 -0.0583072 -0.0194909 -0.120153 -0.0380947 0.00562274 0.0135271 0.148526 0.048159 0.0124364 -0.0707815 0.0262094 0.0719726 -0.21859 -0.0186077 0.10167 -0.0466336 0.00224302 -0.0534172 0.0306571 0.0682803 0.219522 0.0293967 0.16462 0.220648 0.176278 -0.184011 0.0192517 0.0865018 0.139888 -0.102582 0.0847463 0.00176746 -0.157553 -0.164238 -0.0684635 -0.0288008 0.202054 0.0909637 0.0846429 -0.0404172 -0.0143507 -0.0863301 0.127337 0.0109645 0.0365391 0.041859 0.0652082 0.237934 0.146418 0.100704 -0.0878328 0.162992 -0.118033 -0.0173816 -0.0475483 -0.000346599 0.0600471 0.174607 0.0301484 0.0928087 0.0325559 0.159765 -0.0663446 0.232702 -0.0460687 -0.161632 0.0156539 0.164999 -0.0953107 -0.078123 -0.0161074 -0.179191 0.134922 0.0458402 -0.219005 -0.181881 0.0266258 -0.189869 0.0770897 0.115802 0.112068 0.215714 -0.147594 0.0968631 0.155169 0.199016 -0.0162239 0.0134678 0.234455 -0.163575 -0.149426 -0.0325676 -0.162227 0.0079431 -0.156216 0.0872949 0.144885 -0.182751 -0.2228 -0.112879 -0.173715 0.0338084 -0.00722837 -0.0117754 -0.100204 -0.107114 -0.122455 -0.106988 0.0286878 -0.374337 0.175013 -0.198547 -0.107115 0.103012 0.0443994 0.0759123 0.145703 0.0877371 0.0483792 -0.0600778 0.0420252 0.125834 -0.0907714 -0.0495166 -0.234013 -0.00927765 -0.0503587 -0.2717 -0.123935 0.15789 -0.071606 0.025059 -0.0226241 -0.320401 -0.19838 -0.114812 -0.117478 -0.00388626 0.0966651 -0.0141233 -0.369946 -0.0781455 -0.0593427 -0.0466896 0.159591 0.101477 0.0171675 -0.185741 0.2055 0.0307689 -0.170809 0.214869 0.0713815 -0.113261 -0.0749057 -0.12761 -0.0322182 0.121956 0.0410535 0.145626 -0.0900235 0.0777565 0.0651806 0.131452 0.123861 -0.262384 -0.0794487 0.161873 -0.0415552 0.0313176 -0.0142577 -0.133953 -0.156633 -0.115739 -0.217439 0.00196551 0.175089 -0.0678618 -0.0118841 0.0741163 -0.00961205 -0.0999749 -0.00352424 0.103663 0.0328746 -0.0547362 -0.0153898 0.13837 -0.143757 -0.165402 -0.105367 0.183021 -0.185045 0.0428828 -0.0647201 -0.131983 -0.125738 -0.180576 0.0127018 -0.164491 0.0979036 0.159298 -0.075437 -0.0318566 0.101645 0.170991 -0.103225 0.139685 0.0316995 0.147866 -0.133882 0.0235607 0.116024 0.0472549 -0.0451873 0.0974664 -0.136322 0.195858 0.0218793 0.00012086 0.0402904 0.0618808 -0.165369 -0.074226 0.152134 0.138242 0.105125 -0.0862463 0.0371631 0.195591 0.0254069 -0.00740671 0.112921 0.058628 -0.164402 -0.257157 -0.0311795 -0.0130342 0.0940319 -0.406278 0.217963 -0.124744 -0.0853715 0.0397825 -0.107397 -0.174703 0.225222 -0.0185089 -0.0481798 -0.0979426 0.182422 0.00872239 0.0514368 -0.0605254 -0.393742 0.161689 0.0131432 0.167925 0.0609126 0.105099 -0.0195824 0.00868648 0.132912 -0.00513861 -0.124534 -0.0876715 0.180391 -0.026164 0.0616657 -0.1585 -0.0280155 0.169166 -0.11129 0.192816 -0.0256114 0.0990118 0.00715313 0.0283275 -0.0863491 -0.271413 0.0202508 0.122522 0.199983 -0.0148007 -0.0150074 0.0584737 0.12624 -0.0488669 
-0.319588 0.0093116 -0.0223579 0.0776723 0.136223 0.26697 0.0920293 -0.176874 -0.311355 0.151528 0.0533433 0.33014 -0.0721813 -0.116228 -0.00426736 -0.0713077 -0.0918613 0.125453 0.12451 0.0471901 0.129135 0.0245868 -0.0182757 0.0142395 0.0293084 0.0492926 0.0225348 0.182543 -0.104478 0.0815895 0.0547675 0.0697749 0.0644139 -0.0790174 -0.0147825 0.0592627 -0.184535 -0.0731167 0.117405 -0.0161662 0.0282994 -0.15408 -0.0760026 -0.212807 0.0428943 -0.0445561 -0.173401 0.175849 -0.0781609 0.081979 0.0369072 0.0325979 -0.0353577 -0.0825471 -0.0518487 0.09856 -0.0412567 -0.100846 0.150734 -0.207955 -0.164657 -0.0183654 0.209856 0.0905349 -0.119276 -0.0201984 -0.0480397 0.0149386 0.0900027 -0.0929306 -0.0376254 0.309658 0.0160231 0.413103 0.174923 0.000216998 0.0841409 0.0330206 0.191217 0.135805 0.0696861 0.257252 -0.0643542 0.000153383 -0.0259983 -0.119174 0.20132 -0.0316874 0.0641414 -0.108925 -0.177376 0.258364 -0.0149799 -0.0974848 0.111705 0.0313891 0.150128 -0.052709 0.0948428 -0.0369467 0.189373 -0.019707 -0.0534561 0.00466834 0.08001 -0.0986006 -0.0586127 0.085181 0.270889 0.0524779 0.0118474 0.143969 0.0617784 -0.00163185 -0.0590187 0.0228047 0.0888753 0.164856 0.091926 -0.31902 -0.140243 -0.138015 0.0234922 0.180931 0.0336428 -0.0657597 -0.151944 0.198712 0.00688711 -0.0293548 -0.156266 0.0138579 0.0907115 0.215317 -0.0283711 -0.110365 0.099593 0.277867 -0.138831 0.109461 0.134221 0.0610814 -0.142264 -0.0627645 -0.0229077 0.0176219 -0.195268 -0.106642 -0.0316896 -0.149046 0.190018 -0.0445033 0.0253955 0.0596217 -0.0380619 -0.0418589 0.155665 -0.196867 -0.084299 -0.122985 0.107492 -0.102084 -0.151372 0.00612059 -0.0684031 -0.0822173 0.111655 -0.0760157 -0.0342668 -0.0480997 0.0191423 -0.14819 0.170976 0.0411996 -0.135483 0.0725157 -0.0344077 -0.00526842 0.00420282 0.17184 0.0443112 -0.0385162 -0.186891 0.239542 0.271008 0.00905568 0.172315 -0.0885748 -0.255035 0.156653 -0.108362 0.126723 0.0902186 0.064243 0.0399002 -0.0353396 0.0515713 -0.0245709 0.119243 0.0632896 -0.0293645 -0.0299746 -0.303166 -0.115097 -0.141649 -0.061659 -0.0934903 0.0153797 -0.0637067 0.0833787 0.136422 -0.0712166 -0.00164936 0.129201 -0.10192 -0.138363 -0.102369 -0.0493856 -0.0060263 -0.189397 0.143054 0.0210806 0.132072 0.152543 0.0563317 -0.252372 0.0671792 -0.141915 0.081156 0.0084226 0.16778 -0.0364019 0.177784 -0.00947185 -0.0411394 -0.2322 -0.0412043 -0.028625 -0.0493953 -0.00580283 -0.17016 0.122236 0.122428 -0.157228 -0.214613 0.0344099 -0.0772344 -0.0325555 -0.0616684 0.0216948 -0.214077 0.211096 -0.319402 -0.207289 0.0250142 0.0870381 0.0992627 0.130392 -0.28074 -0.023566 0.0632031 -0.0366192 -0.182401 -0.0228389 -0.0642085 0.183587 -0.155843 -0.105785 -0.284889 0.206811 0.183518 0.00715296 -0.13809 -0.0839824 -0.0492622 -0.170113 0.0472626 0.0904252 -0.207854 0.103201 -0.0499049 0.131395 -0.122258 -0.0206352 -0.177923 -0.0362125 0.0690555 0.205948 -0.134119 0.157155 -0.0380581 0.228755 -0.0773166 0.0236038 -0.229477 -0.283054 0.163157 0.25872 -0.145723 -0.196591 -0.142998 0.102024 0.200288 -0.0663086 0.0868252 0.14474 0.0235364 -0.234372 -0.0147816 -0.0400295 -0.12688 0.229897 0.0764558 -0.0302112 -0.120194 0.0879416 0.0892441 -0.228888 -0.0406365 0.128236 0.106025 0.0304355 -0.0416405 0.121077 -0.0863863 0.0255781 0.0380723 -0.190815 -0.239688 0.232483 -0.0147779 -0.094751 -0.161341 -0.134565 -0.0806746 0.0066911 -0.0695164 -0.0262404 0.0382194 0.202691 0.0219048 -0.0435847 0.0443345 -0.098192 0.119996 -0.114768 -0.083551 -0.227662 0.0964174 0.194298 -0.0463535 -0.172057 -0.00615143 -0.0640749 -0.0834879 0.0558863 -0.0568649 -0.19532 0.022949 -0.0685864 0.0423808 0.00213408 -0.107795 -0.112047 0.0400338 -0.111842 -0.299297 -0.108277 0.155971 -0.195345 -0.150941 -0.161652 -0.280024 0.0724593 -0.147304 0.157802 -0.0899394 -0.117634 0.114282 -0.0399577 0.153304 -0.163616 0.0491964 0.188826 0.0272533 -0.301975 0.0250412 0.0359261 -0.108075 -0.266151 0.0502295 -0.0816456 -0.155982 0.0454788 -0.0233971 -0.242579 -0.15018 0.191754 0.113025 -0.144721 -0.01506 0.243268 0.0107507 -0.00874801 -0.101614 0.112087 -0.120494 -0.156982 -0.0911668 -0.0400407 0.0287501 0.0709598 0.0153055 0.189065 0.0795094 -0.13423 -0.0367812 0.072103 -0.0159045 -0.0680627 -0.00217755 -0.0257636 -0.192923 -0.0948007 -0.141661 -0.086494 -0.0834234 -0.313518 -0.137643 0.06152 0.0455461 -0.0172931 -0.163159 0.0102002 -0.0960094 0.099305 -0.0308985 -0.0230063 0.0310988 -0.106744 0.0800044 0.0538928 0.0696919 -0.0110332 -0.0319697 0.161021 -0.0445953 -0.0515055 -0.306743 -0.0232981 -0.0643514 0.0539835 0.0283402 0.145845 -0.178963 -0.0814344 -0.182529 0.0660164 -0.213947 -0.402528 0.0780719 0.124056 -0.184515 0.114522 0.0869459 -0.216602 -0.025538 0.0242315 -0.115311 0.0423366 -0.180428 -0.0653959 0.112044 -0.126538 0.0427421 0.042422 -0.036879 0.170218 -0.0146353 0.128305 -0.0537464 -0.0667803 0.175635 0.124136 0.0260705 0.0111434 0.206944 0.0241896 -0.0512295 -0.0575755 0.0833418 0.204765 -0.178241 0.131534 -0.0883598 -0.221321 0.0913267 0.18022 0.0442112 -0.114774 -0.00887491 0.0139813 -0.291507 -0.0907911 -0.0269129 0.141244 -0.0879834 0.0366916 -0.115619 0.144593 -0.0396716 0.0909968 
0.0557099 0.248413 0.217531 0.0174504 -0.1732 0.231738 -0.315603 -0.0859166 0.0143808 0.0479018 0.0366104 -0.00101743 -0.127064 -0.0201162 -0.0533087 0.145962 0.0400581 -0.0140264 -0.144056 0.154532 -0.152988 -0.0632305 0.0909766 -0.0595971 0.0613962 0.0984312 -0.0291692 -0.146818 0.0736079 -0.209066 -0.0361452 -0.119053 0.00849511 0.263033 -0.0241012 0.0918102 0.0899186 -0.13609 -0.097476 0.175279 0.164409 0.0502886 0.0231729 -0.0265419 0.0734066 0.0963343 0.0904323 0.0529446 0.0222232 0.110303 -0.0255342 -0.10464 0.0280282 -0.121342 0.0335516 -0.0671565 -0.127946 0.146237 0.0389645 -0.125994 -0.019697 -0.0849918 0.0109989 -0.130534 -0.0112238 -0.0692303 -0.24448 -0.0849786 -0.0367206 -0.29275 -0.032257 0.00940726 0.0218177 -0.0776334 -0.0122647 0.121508 0.0950471 -0.090077 -0.0832271 0.0831944 0.121072 0.0943703 -0.0813438 0.405078 -0.13267 0.224984 0.00237837 0.304145 0.0594972 -0.0493639 0.223399 0.0592744 0.0860641 0.0526765 -0.0314529 -0.0775961 0.0355912 -0.140073 -0.0383999 0.286009 -0.0514494 0.0856307 -0.0472942 -0.244432 0.0448246 -0.16659 0.0420376 -0.0333401 0.0379093 0.192469 -0.159145 0.0335475 0.0893603 0.106381 -0.251047 -0.101211 -0.00621762 0.139155 -0.0516154 0.0436272 -0.0134572 -0.151711 0.0546259 -0.141322 0.169804 -0.0482548 -0.0867719 -0.285631 0.0317764 -0.00246428 0.325026 0.0325473 0.064182 0.141466 0.000332226 0.166361 0.158458 -0.115494 -0.0976955 0.428731 -0.113024 -0.0360535 -0.177585 -0.194355 0.091811 0.153233 -0.113528 -0.0113964 -0.151694 0.0122243 -0.140166 0.0291225 0.00255141 -0.0788445 -0.158393 0.163918 0.0557636 -0.0352837 -0.093189 -0.0176381 0.021094 -0.000552575 0.224764 0.0567866 0.173186 -0.220785 -0.119575 0.162009 0.0560233 -0.109713 -0.0469774 0.0993935 0.0510547 0.0957505 -0.187697 -0.144217 -0.0223032 -0.0414143 0.0407159 -0.121791 -0.0822434 0.121294 0.11717 0.0549464 0.00547091 -0.0280577 -0.118803 -0.007196 -0.051667 0.0894028 -0.0624502 0.191645 -0.138022 -0.0339747 0.0536667 0.00644468 0.000143654 0.043205 0.0722386 0.166202 -0.123841 -0.215535 0.136564 0.0382675 -0.169649 -0.133124 0.0582663 -0.167614 -0.196844 0.0827986 0.114506 -0.0165153 0.0695879 -0.142397 0.0612763 -0.179726 0.14405 -0.114023 -0.0771557 -0.0167155 0.0835344 0.0689226 -0.0207611 -0.0309312 0.024667 0.0331981 -0.0823892 0.129505 0.0912432 0.0840225 0.0822621 0.0848433 -0.0630886 0.0107284 0.00583746 -0.0136302 -0.112128 -0.115142 0.121825 -0.0829471 -0.0827971 0.100109 -0.00344726 -0.0101299 0.161721 -0.0502885 -0.114678 0.188729 -0.310214 0.244435 0.0091883 -0.0124233 -0.111525 0.381252 0.0732652 0.129565 -0.0877825 0.088839 -0.0310228 -0.123393 -0.13489 -0.12968 -0.107643 0.102615 -0.203946 -0.164904 -0.150105 0.259112 0.0236858 -0.137134 -0.102632 -0.152358 -0.0269577 0.0396915 0.097518 -0.175384 0.125325 -0.0204938 0.0869939 -0.082934 -0.118807 0.0813611 -0.128849 -0.1585 -0.0999201 -0.232804 0.0662842 -0.0432652 0.0508597 -0.00306711 0.302608 0.0112366 -0.129773 -0.0796065 0.13892 -0.214678 0.0189514 -0.152545 -0.262176 -0.219968 -0.112133 -0.175055 0.193844 -0.00376267 0.0142002 0.0774266 -0.201201 -0.147239 0.0561459 -0.16162 -0.184447 0.0367298 -0.152326 0.0406788 0.0523634 0.0948219 0.144718 -0.0489822 -0.0136571 0.0332769 0.168264 -0.0736435 0.0328917 0.0444565 -0.0235226 -0.269048 0.146181 -0.0283667 -0.0824678 0.219265 -0.00579718 -0.149714 -0.0307499 0.141919 0.00741293 -0.223189 0.164016 -0.10497 0.0439359 -0.00218513 0.0162924 0.058658 -0.00856494 0.0029937 -0.070004 0.167466 -0.0165548 -0.00280406 -0.102656 -0.02593 0.114214 0.130046 -0.121863 -0.0900019 -0.103444 0.0808679 0.0899485 -0.110432 0.39062 -0.0274348 0.0274488 0.0775612 0.00937884 -0.0182654 0.0989202 0.0378957 0.0700712 -0.166639 -0.172514 0.0181156 0.149429 0.0692889 0.0778827 -0.121568 0.0148735 -0.0497959 0.00634604 -0.0729448 -0.102757 -0.0350044 -0.023726 -0.0567266 -0.059244 -0.112903 0.236888 -0.0714108 -0.119798 -0.137038 0.0541125 0.0686354 -0.254171 -0.102184 0.170352 -0.017706 -0.188728 -0.136088 0.0859588 -0.157464 -0.0792996 -0.0558313 -0.0978198 0.143377 -0.0775201 0.157223 -0.295251 0.354098 -0.115852 -0.115943 -0.0402152 -0.0218385 -0.0762624 -0.167604 0.16903 0.110077 0.0202222 0.000665437 -0.0393616 0.0391109 0.252302 0.0789847 -0.158008 -0.0692146 -0.0522717 -0.156777 0.0306063 -0.134499 -0.113975 -0.232597 -0.0402057 -0.000354833 0.0799706 -0.108436 0.0385686 0.260424 0.332662 -0.0771425 0.149949 -0.210255 0.0683065 0.115022 0.0892684 0.0850583 -0.0688935 -0.166981 0.0242987 -0.241647 -0.170004 0.0819447 -0.0211565 -0.127566 0.0372536 0.158138 0.26153 -0.329061 -0.0806013 0.401375 -0.0226269 -0.154944 0.133592 -0.204421 0.0280437 0.0536085 -0.105824 0.0262304 -0.0191305 -0.0204267 -0.076213 -0.0678614 -0.0242827 0.09598 -0.050264 0.000387034 -0.282144 -0.0163956 0.0166312 0.0301006 0.0611408 -0.0752415 0.0211408 -0.0268856 0.164808 -0.198836 -0.0354642 0.0223139 -0.039129 -0.265123 -0.230709 0.245015 0.0530358 0.0397824 -0.00849734 -0.134506 0.055544 0.00123674 -0.141811 -0.0320955 -0.276027 -0.0389112 -0.0391092 0.131588 0.0460047 0.197121 0.0992401 -0.30179 -0.00954822 0.0363516 -0.0226676 -0.0333447 -0.0550562 -0.0169209 0.0391063 -0.14149 
0.0261371 0.153668 -0.0765468 0.185982 -0.0598305 -0.0887504 -0.0400951 -0.174711 0.156966 0.120962 0.0128056 -0.0224551 -0.0352322 0.102112 0.159062 -0.0972996 -0.028696 -0.147761 0.0866714 0.0561603 -0.0619233 -0.169749 -0.120641 -0.076516 -0.104577 -0.113497 0.119784 0.280134 0.023936 0.0524018 0.0134764 -0.0418969 0.0866691 0.173305 -0.0321238 0.00468737 -0.130116 -0.164222 -0.061311 -0.0784613 -0.304492 0.0249862 -0.0217187 0.133917 0.109113 -0.037164 -0.0969754 0.00990535 -0.13204 -0.0740453 -0.0781041 0.165324 0.0562851 0.0236293 -0.22405 0.260949 0.225934 0.274102 -0.170406 -0.0523925 -0.00254007 0.0695277 0.0376784 -0.0414605 0.189463 -0.205786 0.0148106 -0.179911 -0.174404 0.0270049 -0.0575794 -0.28193 -0.160147 0.217094 0.0819351 0.0492416 0.14714 0.0904369 0.0232933 0.0157077 0.00679712 -0.0275959 -0.035977 0.00143195 -0.0217953 0.175079 -0.0281945 -0.0354749 -9.95916e-05 -0.0699925 0.0279511 -0.0312696 0.0737254 0.036473 0.0815683 0.1393 0.00293001 -0.217094 -0.059382 0.143151 0.156057 0.00073651 -0.0787757 -0.00930104 0.034086 0.236718 -0.0599213 -0.00301963 0.044571 -0.0145763 0.016311 0.14941 0.0839522 -0.0899648 -0.0722503 -0.0487971 0.0728308 0.0975341 0.0502863 -0.213201 -0.052127 0.310565 0.0571542 0.00152326 0.229925 -0.288578 0.218404 -0.0981731 -0.139445 0.00346974 0.0978422 0.0581678 0.17111 -0.099017 -0.162953 -0.0284007 0.0115221 0.177252 0.226129 -0.00243987 -0.0264972 0.136937 0.0514367 0.0591401 -0.0342323 -0.213319 -0.179758 -0.166437 0.0475184 -0.199086 -0.142604 -0.296449 0.0726619 -0.170122 0.12745 -0.16187 -0.126784 -0.0404265 0.0397167 -0.141438 0.0313879 0.243224 -0.0645571 -0.0467901 0.0497758 -0.0133464 -0.105528 -0.0709831 0.0233628 -0.0779676 -0.0749344 0.100511 -0.0194688 -0.0254546 0.135662 -0.022899 -0.0827059 -0.0443857 0.0061899 -0.0225407 -0.020521 -0.0625443 0.158268 0.166523 0.0521364 -0.0453678 0.154254 -0.0650825 -0.170619 0.0274799 0.043378 -0.0543974 -0.0769722 0.154184 -0.0638531 0.212603 0.0554289 -0.0517454 -0.0225318 -0.0981455 0.113823 0.0121152 0.215268 -0.15928 0.141206 0.00701917 0.0287774 0.0384386 0.157743 -0.155844 -0.154823 -0.0634127 0.103811 -0.00844632 0.0431824 0.0973532 0.0250122 -0.056781 -0.0136627 -0.114096 0.0612097 -0.106856 -0.110784 0.364239 -0.159093 0.142834 0.0684261 0.000403257 0.0901113 -0.0768394 -0.266919 0.0748345 0.0149575 -0.0352934 0.101267 -0.00128966 0.0649804 -0.0275921 0.177902 -0.129406 -0.151826 0.190616 -0.0324741 0.245999 0.0820718 -0.0241911 -0.114597 -0.0848504 0.0885177 0.0368415 -0.192307 0.142173 -0.226257 0.102498 0.0521191 -0.0138278 -0.112516 0.243878 -0.128689 -0.0877137 -0.0900453 0.104899 -0.0397813 -0.0538058 -0.291355 0.135494 -0.0421667 -0.0938725 0.141781 -0.0364131 0.274349 0.0328478 0.0633709 0.313393 0.150003 -0.106219 0.087276 -0.0195368 0.00360957 -0.106386 0.203204 -0.217424 -0.0776749 -0.153755 0.141804 0.204725 -0.003799 -0.0763748 0.0066716 -0.0318714 0.00651277 -0.00633394 -0.131207 -0.170092 -0.0833098 -0.0812855 0.0514718 -0.0736462 0.0984318 -3.88072e-05 -0.155028 0.272864 -0.32798 -0.0503472 0.157129 -0.0058639 -0.010766 -0.0980734 0.010604 0.122195 0.0833013 0.167059 -0.112775 0.0507651 -0.119746 -0.176269 -0.0638787 -0.228122 -0.283852 -0.0695209 -0.259568 0.0527614 0.0866776 0.175726 0.00797181 0.029901 0.194308 0.111894 -0.0285052 -0.093925 -0.0289076 0.0557855 -0.0861883 -0.08595 0.180069 -0.041411 -0.210527 -0.0970758 0.00275892 0.0830566 -0.154104 -0.0526858 -0.0848634 0.122726 0.0412256 0.0660286 -0.0166491 -0.271042 0.0898331 0.172545 0.0390482 -0.130699 0.192457 -0.0410206 0.0880301 0.201906 -0.083808 -0.414086 0.106284 0.219937 -0.116767 0.08364 -0.0803109 -0.0841233 0.104469 -0.148525 -0.0404951 0.045446 0.0572292 -0.083442 0.105103 0.144479 0.0700496 -0.0328988 0.095868 0.0178969 0.237935 0.0853107 -0.0303965 -0.0579099 -0.171148 0.242219 0.0497115 0.27006 -0.142117 -0.218727 -0.154868 0.335348 0.119466 0.105267 -0.0402632 -0.146556 -0.0469761 0.0274925 -0.232628 -0.203797 -0.00924414 0.112403 0.146141 -0.0514264 0.114279 -0.023669 -0.0415325 0.133986 -0.118406 0.0116582 -0.0372345 -0.122795 -0.0751466 0.034115 0.266292 -0.148714 0.184042 -0.0245371 -0.0992787 0.133156 0.217716 -0.128116 0.0181299 -0.110527 -0.244316 -0.0250496 0.271419 0.0309388 -0.119844 -0.0431819 -0.145536 -0.15353 0.0775959 0.00691267 -0.280839 -0.289111 -0.251887 0.145307 -0.257023 -0.234806 -0.0703374 -0.0104884 0.181437 0.00418805 -0.130663 -0.0188637 0.0764086 0.0766734 -0.242845 -0.0516998 -0.0277871 -0.15724 -0.0604169 -0.0423762 0.0919281 0.0197531 0.0473291 -0.0657985 0.156605 -0.151825 -0.0511548 -0.00806483 0.23638 0.0901789 -0.0997748 0.162086 -0.174961 -0.0190694 -0.0140199 0.0524417 0.0651527 -0.0403239 -0.0860856 0.0386625 -0.00322171 -0.260743 0.0809966 0.12168 -0.0330414 0.144789 -0.0739807 0.00579066 0.179416 -0.107157 0.183589 -0.154062 0.19868 -0.124328 -0.0955582 0.194285 0.0795648 -0.12688 0.0982182 0.0283409 -0.289723 -0.078763 0.0133196 -0.00899313 -0.0971433 -0.142662 -0.187918 -0.0902168 0.0150579 -0.150608 0.145265 0.0156691 -0.029325 -0.302678 0.120721 -0.120462 0.0405155 -0.116809 0.146892 -0.114902 -0.0430163 0.0150527 
-0.0626776 -0.0449821 0.0163919 0.281126 0.0509134 -0.0271893 0.0978703 0.126289 0.0494007 0.0205551 -0.020206 0.132234 0.0999449 -0.0110756 0.0902963 0.162577 0.147402 -0.0671383 -0.0268583 0.0690524 0.0310152 0.011838 0.0838798 -0.0479292 -0.0161464 -0.196477 -0.165107 -0.180266 0.038614 0.212902 -0.11218 0.218446 0.0730959 -0.209179 0.0772915 -0.104945 -0.151047 -0.0664297 0.262107 -0.0446169 -0.0879133 -0.11593 0.142941 -0.0397109 0.0929189 -0.100176 -0.00200544 -0.0506021 -0.246875 0.059786 -0.100216 0.078949 0.314693 0.271363 -0.0122833 -0.0859853 -0.198433 0.0563686 0.00749967 -0.0523686 0.0716422 0.082815 0.0870567 0.126103 0.107753 -0.0785366 -0.0588997 -0.185559 -0.0645145 0.10162 0.0024122 0.219067 0.152954 0.00487586 0.167906 0.0887176 -0.160903 -0.0873864 0.0536935 0.101556 -0.0431271 0.137039 0.168532 0.136086 -0.146678 -0.16427 0.0100235 0.0862934 0.0116676 0.244754 -0.121228 -0.178022 -0.133556 0.0236845 -0.0487368 0.0765868 -0.0958231 -0.0964716 -0.142584 -0.0935355 0.0622273 -0.290891 0.147098 0.18536 -0.0978243 0.105351 0.00747788 -0.032129 -0.0191432 0.0558974 -0.0803573 -0.0470634 0.00423355 0.069061 -0.00305941 -0.199118 0.04172 -0.0313772 0.119807 -0.0488205 0.00737826 0.0514304 0.0329182 0.0249066 -0.185655 0.171651 -0.00521972 -0.0826112 -0.16026 -0.186202 -0.107876 0.0321076 0.144082 0.0507798 0.00872931 -0.0963658 0.0931749 0.127293 0.221451 0.19649 -0.168118 0.197697 -0.0692143 -0.117837 0.0945801 -0.0271324 0.107438 -0.157199 0.0107876 0.0103335 -0.0766345 -0.0517815 -0.0303482 -0.109719 -0.0198552 0.0921012 -0.182735 -0.156336 0.133271 -0.0600288 0.0984141 -0.194465 0.0706896 -0.0440549 0.168426 -0.00835657 0.143725 -0.138048 -0.0416404 -0.0211652 0.13298 -0.121582 -0.093208 0.131605 0.0474467 -0.0767215 -0.129769 0.0574848 -0.12498 -0.234043 -0.123804 -0.095579 -0.0120111 -0.0369374 -0.186672 -0.0227982 -0.121402 -0.0224537 0.0608576 -0.063735 -0.203366 0.0827426 -0.248933 -0.0949144 0.0839686 -0.0790885 0.0544813 0.119183 0.190245 -0.0489335 0.0557199 0.104308 -0.135351 -0.020285 0.00062662 -0.104739 0.2313 -0.00897782 0.117951 0.109113 0.00213368 0.207934 -0.0332328 0.0523937 0.0446692 -0.0878076 -0.0722124 0.0720889 -0.00721732 0.0110506 0.0658668 0.151965 0.00933488 -0.0351597 0.00436634 0.0944916 0.0216477 -0.0721198 0.161972 -0.0907737 -0.114198 0.278795 0.303576 -0.142103 0.120008 -0.123302 -0.0307753 0.00283391 -0.281381 -0.192361 0.156345 -0.0659895 -0.0906197 -0.0199711 0.0151935 -0.000815616 0.0568124 0.0889535 0.0660536 0.0092266 0.221107 -0.0144945 0.132581 -0.0780899 -0.115426 0.00213969 -0.0127247 0.253724 -0.0481452 0.00585376 0.0798631 0.0355414 -0.136418 0.123803 -0.0374452 -0.0111 -0.0327093 -0.141105 -0.270308 0.00671472 -0.223922 0.0226935 0.0623676 0.0560319 0.0480461 0.110527 0.0933064 -0.0454805 -0.103469 -0.158264 -0.127085 -0.138838 0.16017 0.0274328 -0.178722 -0.144853 -0.0534108 -0.212811 -0.0263541 -0.206362 -0.0429013 -0.198384 -0.0312098 -0.0198376 -0.122496 -0.062195 0.050119 0.211295 -0.13693 0.00667867 0.326659 -0.0990725 0.0646402 0.0679592 0.125738 -0.0330947 -0.0794648 -0.210848 0.0796178 -0.0318392 0.139485 -0.0313027 0.110473 0.106412 0.2173 -0.122474 -0.242766 -0.0482369 -0.105614 0.0554174 0.118401 0.0534818 0.125625 -0.0558929 0.029773 0.116175 0.00764052 -0.0976873 -0.00182441 0.113728 -0.0555297 -0.10549 0.0381728 0.101363 -0.109188 0.0381006 0.241711 0.128381 -0.0578915 0.0898842 -0.0895286 -0.0370448 -0.0929968 -0.168727 -0.0154251 0.108213 0.0665703 -0.128997 -0.0716637 -0.0887731 0.13852 0.272885 -0.000338547 0.00135142 0.020456 -0.189595 0.0780241 0.0744257 -0.0369645 -0.0655872 -0.168233 -0.0929857 0.105001 -0.0557089 0.286265 0.0951453 0.0566222 -0.210198 -0.251245 0.33256 0.322313 0.0278739 0.0648061 -0.0822589 0.0334068 0.129853 -0.0960958 0.0243653 0.0858128 -0.130164 0.124413 0.00269507 0.0994807 0.0327051 -0.125408 0.00850007 0.0909303 -0.0750441 -0.0837734 0.037105 -0.0323164 0.100852 -0.164054 -0.147243 -0.0537239 0.0627392 0.196156 -0.0975926 0.0436863 -0.147829 0.0140989 -0.0809202 -0.186688 0.269616 0.0320099 0.050748 -0.188229 -0.0450116 0.0320287 0.136472 0.205801 -0.0172637 -0.162868 -0.137094 -0.0622629 0.0761287 0.183778 0.299554 -0.136112 0.173124 0.0926188 0.353343 0.181551 0.0896063 0.0247939 0.0611806 -0.0516147 -0.153981 -0.00685182 0.190568 -0.0276256 0.0194005 -0.0198589 0.0789498 -0.0213266 -0.0933366 -0.123879 -0.0482206 0.0657588 -0.0703982 0.0605479 0.0867573 -0.106503 -0.108425 0.0312987 0.136181 -0.203803 0.276041 0.228969 0.0335989 0.0886005 -0.0618044 -0.00836523 -0.150188 0.0997745 0.0574436 -0.0462934 -0.0372993 0.00960844 -0.0152926 -0.0467558 0.235558 0.164074 -0.0287028 -0.0453692 -0.0860293 -0.158869 0.202967 -0.0242625 -0.0606682 0.0999108 -0.040313 0.0304442 -0.0083015 -0.16284 0.0746305 -0.152542 -0.0501593 0.209903 -0.122639 -0.259056 0.0852632 -0.0865437 0.0772349 -0.00422041 0.0239049 -0.119173 0.0917754 0.0947756 -0.074961 0.160581 -0.100299 -0.184195 -0.134339 0.325188 -0.0383625 -0.0986832 -0.133835 -0.0832536 0.0446056 0.216225 -0.149559 -0.00148084 0.0668631 -0.0737189 0.185135 -0.0469781 0.105422 -0.0723499 0.0631563 -0.0163513 -0.182905 
0.110739 0.149236 -0.00897078 -0.25948 -0.183275 0.166535 -0.0545737 0.0277952 0.039726 -0.112267 -0.0277328 0.106333 0.132845 0.0422674 0.177329 -0.0254806 0.0289539 0.0462895 -0.027011 -0.0732741 0.0195584 -0.0131231 0.183313 0.022254 0.0615181 -0.160229 -0.0349339 0.125086 -0.0381323 -0.060137 -0.113262 0.0229195 0.103876 -0.213967 -0.176603 0.0317606 0.107959 0.0542951 -0.126908 0.0708706 -0.141544 -0.185194 -0.0190988 -0.0152596 0.0334255 0.0870499 0.119936 -0.135259 -0.0122616 -0.0140336 0.065944 0.182395 0.0371001 0.0277797 0.0155646 0.236569 -0.116455 0.0355988 0.113714 0.127265 -0.0477859 0.298098 0.0980012 0.050531 -0.0360342 0.178235 0.0744193 0.0705981 0.100653 0.0846514 0.0505322 0.0616671 0.132485 0.0550457 0.00133321 -0.0612334 -0.098746 0.0802328 -0.0372284 -0.0634124 -0.0377894 -0.0358783 -0.0512235 -0.0347299 -0.0384271 0.198464 0.463102 0.0937004 0.105921 -0.0951344 0.107574 -0.0516693 -0.045755 -0.112427 0.178045 -0.231162 0.0675836 -0.0597111 0.158625 0.100911 0.0901464 0.0208983 0.0422702 -0.0592244 -0.142265 -0.106143 0.158599 -0.0464371 -9.88345e-05 0.0383739 0.276889 0.148319 -0.0626257 -0.00206749 -0.0666695 0.0973188 -0.0269445 0.0271006 -0.360747 0.280106 0.0590696 -0.301858 -0.133763 0.00469917 -0.144872 -0.00404702 0.132117 -0.0535327 0.248284 -0.0609176 0.18426 0.0996772 -0.00106579 0.243622 0.162746 0.0498612 -0.0721124 0.07079 -0.188038 0.0679224 0.0106286 0.0522555 -0.0368614 -0.198556 0.191282 0.192944 -0.0621457 0.00304821 0.0165265 0.0686833 -0.175026 -0.0593394 0.0173195 0.198211 0.249608 -0.142791 -0.186528 -0.0549534 -0.00241159 0.0328801 -0.127103 -0.143415 0.0686241 0.166892 -0.0101908 0.120599 0.0466065 -0.0459704 -0.361885 0.0229064 -0.059293 0.127626 -0.138823 -0.00508033 6.94693e-05 -0.165856 -0.0511625 -0.22912 -0.151102 -0.134111 -0.0304604 0.0697346 0.0215974 -0.0365066 0.243329 0.10679 -0.146587 0.0911903 0.0370499 0.0609875 -0.0897789 -0.127036 -0.0656433 -0.0351733 0.123056 -0.198217 -0.0530706 -0.071083 0.104448 -0.0502141 -0.190384 -0.0226642 0.117413 0.137419 0.00852581 -0.0695809 0.00293789 0.0960162 0.152902 -0.162443 -0.118165 0.0822562 0.0493817 0.14412 -0.226079 -0.000317468 0.031302 -0.29296 0.0756663 -0.0149251 0.0212287 0.105748 0.0575702 0.110563 -0.00782352 -0.334343 0.11203 0.186059 -0.105487 0.137129 0.0103631 0.0562287 -0.0840747 0.094223 -0.0625965 0.23351 -0.220334 0.122061 0.200344 -0.264103 -0.182575 0.00936293 0.084289 -0.0762995 -0.166806 -0.135972 0.0131179 -0.0783527 -0.132235 0.201417 0.144389 0.0945931 -0.0235109 -0.107959 0.109917 0.0427457 -0.121355 0.149949 -0.000772234 0.066928 0.230632 0.0778804 -0.000181103 -0.0777843 0.147854 -0.139764 -0.182539 -0.0111793 -0.135625 0.159001 0.167835 0.0399417 -0.0913186 -0.12807 -0.0277069 0.135744 -0.0439502 -0.25913 -0.188474 0.247043 0.061488 0.0265619 -0.176425 0.0617231 0.0293941 0.124901 -0.255939 0.0128946 -0.0746856 0.168926 0.0673859 0.028096 0.0541438 0.271944 -0.104582 0.120162 0.153635 0.204146 0.0387623 -0.0950155 -0.106474 0.142707 -0.0147495 -0.0195061 0.0258748 0.170778 -0.0542167 0.0374253 -0.0356938 -0.0950148 -0.184567 -0.0122678 -0.154629 -0.0113303 0.0023417 0.0883015 -0.0493178 -0.0444786 0.00534621 0.213733 0.124935 0.0492368 -0.177697 -0.0128989 0.254165 0.0477225 -0.00785603 -0.201568 -0.0741276 0.0441319 0.194609 0.176697 0.0735488 -0.126471 -0.00779565 -0.151105 -0.0127165 -0.102952 0.0232965 0.0963018 0.0582807 0.06238 0.0315641 -0.0162276 -0.140829 -0.139087 0.0469111 0.0840543 -0.0288569 -0.106554 -0.0295686 -0.0689052 -0.0656913 0.0572859 0.125325 0.218786 -0.0487119 0.0532351 -0.205104 0.0508123 0.153272 -0.0328004 -0.0176681 0.0254008 0.0278922 0.018906 0.195113 -0.144714 -0.0777211 -0.0084908 -0.230656 -0.0397212 -0.163605 0.0307609 0.185164 0.0162726 0.0433465 0.0620723 -0.462521 0.0497036 -0.329612 0.0847886 0.070223 -0.149221 -0.0879398 0.0840214 -0.0672898 -0.129122 0.0409017 0.0513091 -0.106007 0.00231887 -0.303887 0.01765 -0.154497 0.00120336 -0.0511572 0.0660875 -0.0536815 0.0225362 0.0548709 -0.0755896 -0.0350018 -0.0991626 -0.186416 -0.0503888 -0.0988691 0.0592369 0.213113 0.00110154 0.0328085 -0.0998052 0.00218937 0.0731769 -0.128718 0.148679 -0.197938 -0.0120164 -0.128235 0.037672 -0.0292565 -0.106655 0.0609132 0.0925735 -0.202846 0.312635 -0.193339 0.0629741 0.158448 0.00253348 0.0161241 0.0907889 -0.0928325 0.128107 -0.20158 0.117277 0.14786 0.0743479 -0.241482 -0.100307 0.157651 0.132342 -0.0485584 -0.108763 0.273315 0.0706571 -0.101899 0.00700504 -0.0135094 -0.147377 -0.011761 0.0197393 0.0303484 0.326253 0.0251965 0.0995678 -0.154231 0.129785 0.211731 0.0231993 -0.0694507 0.0384628 0.025192 -0.224172 -0.0095917 0.0166716 0.0805219 0.0299049 -0.00189054 -0.0958725 -0.080144 -0.0585531 -0.217924 0.0818281 -0.0272688 0.210348 0.00579914 0.0352786 -0.141508 -0.167345 -0.0151317 -0.18979 -0.00896646 -0.0229312 0.2024 0.0323891 0.00683514 0.0571612 0.19813 -0.212611 0.0720838 -0.140572 -0.0153214 -0.285092 0.0485563 -0.0738635 0.0463818 0.158284 -0.16778 0.129258 -0.0614162 -0.0231387 0.175094 -0.155449 0.13391 -0.0392566 -0.0617406 0.314986 -0.00765894 -0.192526 0.0636458 0.169089 
-0.241664 0.0582843 -0.121563 0.267963 -0.215952 -0.319228 0.0821346 -0.0543111 0.105037 -0.0712205 0.0579743 0.00600354 0.105006 0.0799766 -0.145542 -0.164546 0.067645 -0.10593 -0.0922804 -0.0555611 -0.220838 0.149763 -0.0925139 0.129207 0.0939769 0.00959481 0.118808 0.17419 -0.141349 0.0950399 -0.119598 0.07119 0.245354 -0.0309763 -0.0203228 0.119503 -0.165063 -0.0569794 -0.168292 -0.0476723 0.0158508 0.165255 -0.348124 0.00272029 0.016259 -0.0748643 0.0795067 0.147313 -0.0146828 -0.0525814 0.0760431 -0.100133 0.0035779 0.201318 -0.104684 -0.0960884 -0.126158 0.0477563 0.0850772 0.00671347 0.11568 -0.069301 0.19052 0.0765504 -0.148842 0.106314 -0.211928 -0.217331 0.0607728 -0.0599095 0.0331399 -0.0865382 0.308108 -0.146483 -0.186843 -0.194166 -0.105903 0.0464279 0.085766 -0.0659171 0.106692 -0.0229842 0.0123475 0.0187462 -0.176868 -0.0304846 0.166178 0.22841 0.0965097 -0.122068 -0.0157502 -0.0872154 -0.0919239 0.141178 -0.190287 0.15703 0.00176924 0.0968685 0.165431 0.0379319 0.0186433 0.0314115 0.203677 -0.0411492 -0.262897 -0.0765492 -0.123083 0.10707 0.184453 0.215934 -0.0527855 -0.0627476 -0.141626 0.226032 0.0390237 0.16611 -0.177929 -0.111176 -0.0893766 0.0383896 0.201061 0.0659675 -0.00698482 0.153621 0.153809 -0.103455 -0.0027489 -0.0120912 0.0460718 -0.00763729 -0.107473 0.125492 -0.0840206 0.130301 -0.021672 0.0848851 0.293585 0.0451578 -0.022562 -0.0272606 -0.133231 0.0438368 0.119761 -0.10824 0.0267478 -0.133631 0.18852 -0.347149 0.0578922 -0.0130899 -0.01356 0.105261 -0.0267403 0.0879347 -0.0324209 0.107385 0.066433 0.0774944 0.0325815 -0.162086 0.184654 -0.145763 0.0564227 0.0683739 -0.0775083 0.0966341 -0.0911365 0.00525813 0.04544 -0.128181 -0.140548 -0.335942 -0.17693 0.103139 0.00484218 0.069221 0.172335 0.127834 -0.018719 -0.0960926 -0.179105 0.0937952 -0.00399122 0.118591 -0.00642897 -0.0722103 0.00699757 0.103719 -0.0676012 0.00313413 -0.000663195 -0.118195 -0.0930114 -0.053749 -0.071643 -0.0565022 -0.0200399 -0.0772761 0.0264534 -0.0720501 -0.0859327 -0.132271 -0.116499 -0.0364635 0.017093 0.111722 0.172424 -0.0226947 -0.0965866 0.100017 -0.0492587 -0.226836 0.126934 -0.0448139 0.077262 0.0680602 -0.364487 0.0192511 -0.0092024 -0.0768907 0.211015 -0.115437 -0.0354305 0.0959429 0.0105781 0.0551311 -0.0689233 -0.056416 0.0719269 0.00068788 -0.00210453 0.0355311 -0.0176656 -0.0654367 0.0866497 0.114918 -0.00381468 0.00333459 -0.0247867 0.213625 -0.122189 0.0768733 0.0462555 -0.172536 -0.103614 0.262632 -0.0813266 0.00464935 0.185358 -0.05489 0.0151554 0.15784 -0.0434446 -0.0614285 0.143431 -0.0916032 0.0285556 -0.0218245 -0.0400949 0.0579789 0.0606285 -0.258363 -0.109056 0.0197196 -0.0121426 0.005089 -0.0885343 0.0430956 -0.12894 -0.0798076 -0.122026 -0.0227279 -0.0284914 0.075988 0.139553 -0.0412271 0.124028 0.132441 0.181676 -0.111432 0.0174728 0.139602 0.25228 -0.280388 0.032551 0.105801 -0.402607 0.25304 -0.123255 0.140938 -0.0432581 0.0697234 0.0921636 0.138945 -0.0551449 0.0195064 -0.0538256 0.250697 0.215538 0.0173171 -0.0489473 -0.0581262 0.0215364 -0.00517091 -0.0134062 0.0181633 -0.0840763 -0.0491308 0.190661 -0.103009 0.0442569 0.0440035 -0.108275 0.0292215 0.127283 0.0125353 -0.095155 0.176562 0.209092 0.222247 -0.073623 -0.146189 -0.0622933 -0.125294 -0.0285622 0.0548721 -0.254954 0.146545 0.0243168 -0.0303792 0.0669099 -0.0802647 0.0280841 0.0650047 -0.101174 0.0926042 0.212907 -0.219034 0.273558 0.19189 -0.143206 0.0665203 0.075347 0.0305524 0.0084778 0.0821852 0.0333982 -0.0245052 -0.0246936 0.131031 0.125978 -0.0465113 -0.236833 -0.174515 0.0297842 -0.0099667 -0.143798 0.0128785 -0.105067 -0.0638256 -0.327056 -0.0889378 -0.047153 0.0130774 0.270324 0.251186 -0.0280048 -0.00402898 0.0603377 0.0331854 -0.119183 -0.0278528 0.0782113 0.140298 -0.104838 0.0745512 -0.0842452 -0.0639482 -0.0509284 0.0444703 0.143088 0.226519 0.101632 0.15548 -0.163115 -0.0401226 -0.0884923 -0.00476342 0.00312884 -0.0578891 -0.0320579 0.0126146 0.194641 0.150723 0.0840232 0.100475 0.204068 -0.168393 -0.207007 0.00623708 -0.340796 -0.0898816 0.017028 0.232846 -0.23131 -0.0281015 0.0295373 0.0171098 0.249008 0.0841095 -0.0266154 0.127672 -0.0311057 -0.118853 0.193019 0.0018093 0.108167 0.106491 -0.127123 -0.228059 0.0703066 0.0801207 0.107657 -0.109194 -0.0347921 -0.390733 -0.0797591 0.122194 0.132543 0.0239923 0.00669894 0.0583745 0.142549 0.0265914 -0.168673 -0.100591 0.0888843 -0.215008 0.0269356 0.119932 -0.0446476 -0.0628217 -0.0266536 -0.10122 -0.0293063 -0.0216178 0.154846 0.0932377 -0.105456 -0.148422 -0.0834845 0.0242475 0.0316563 0.164482 -0.0163092 -0.0758976 0.0143135 -0.222349 0.172729 -0.131145 0.110407 -0.0886365 -0.0600647 0.0566358 -0.0604971 0.126831 0.0588705 0.175801 -0.108136 -0.0566146 -0.0748837 -0.146976 0.0441556 0.160542 0.179524 0.153682 -0.209762 -0.0921652 -0.0304945 0.174505 -0.121351 -0.111849 0.150422 0.0487242 0.000297101 -0.0794744 -0.0966895 0.28468 -0.133518 -0.0182901 -0.139162 -0.00532319 -0.0960714 0.167738 -0.0396052 0.143242 0.127698 -0.057798 -0.165886 -0.334204 0.18725 -0.0782825 -0.15785 -0.068808 0.0154943 0.112751 -0.109781 -0.118158 0.0927206 -0.207681 -0.136429 -0.0259753 
0.107934 0.0298579 -0.0547227 0.106189 -0.21201 0.122834 -0.0390062 0.252221 -0.0219645 0.119301 0.0595573 -0.113998 -0.145757 -0.0327527 -0.0136594 -0.0438804 -0.0428287 0.209086 -0.0520741 -0.0225499 -0.0361977 0.051117 0.184864 0.250263 -0.112049 -0.344542 -0.0361382 0.18966 -0.0026532 0.0791671 0.00303928 0.099065 -0.111495 -0.12742 0.0719699 0.223814 0.171933 -0.0588224 0.112982 0.15573 -0.100539 0.0311502 0.0336789 0.256041 -0.0636706 0.173015 0.1002 -0.188574 -0.0348241 -0.156932 0.0245401 0.0305363 0.169033 -0.0190017 -0.104928 0.331004 -0.179468 0.0587062 0.00112251 0.123397 -0.165393 0.105946 0.13524 -0.0610806 -0.148061 0.0464924 -0.0323663 -0.0301139 0.00436541 0.0542842 0.0105265 0.0455175 -0.129416 -0.0402253 -0.163133 0.0208053 0.033792 -0.0217259 0.108101 -0.0966872 0.034239 -0.0509058 0.160079 -0.0780329 -0.117194 0.0639738 0.257187 0.029867 0.00968274 -0.133459 -0.12472 -0.0530902 -0.167582 0.00633162 0.020623 0.0601103 -0.0869481 -0.0700269 -0.0193388 0.100363 0.237243 0.108552 0.0654599 0.0562573 0.061864 0.0498487 -0.0188765 0.222614 -0.273233 -0.167652 -0.0474074 -0.0900405 0.0921182 -0.0698996 -0.128041 0.0701922 0.174311 -0.117569 0.0944504 0.142258 -0.0114564 -0.0251859 0.0779953 -0.0128998 -0.0632755 -0.0195216 -0.149342 0.0667376 -0.0180057 0.0794998 0.0399665 0.168601 -0.0599813 -0.0408803 -0.10109 0.0780177 -0.0246256 -0.040804 -0.00864052 -0.177855 -0.198938 -0.0404335 0.368024 -0.0831176 0.0799696 0.0295926 -0.00974243 -0.179803 0.0887336 -0.128561 0.084645 0.08978 -0.0700952 -0.171498 0.0566841 -0.0893304 0.0886875 -0.280905 -0.0790532 -0.19781 -0.0598155 0.286922 -0.0505015 -0.238872 0.173365 -0.118375 -0.115506 -0.0452152 -0.0386986 -0.0768169 0.0558558 -0.0154325 0.222689 -0.179555 -0.0985832 0.0896571 -0.306578 -0.135109 0.266454 -0.119627 0.015265 0.0867674 0.060661 0.107639 -0.0593538 -0.0470742 -0.133297 -0.20043 0.134223 0.305307 0.000993682 0.184884 0.0543973 0.0121163 0.0520287 0.222571 -0.0642717 0.207261 -0.0554421 -0.0315957 -0.0970462 0.0904044 0.144701 0.227474 -0.141229 -0.0585983 0.167794 0.198463 -0.110644 -0.170684 -0.00957156 0.0794059 -0.114414 0.0239962 -0.0551528 0.0495436 -0.136887 -0.0160817 0.0821127 -0.0763049 -0.0782741 -0.1092 0.14378 -0.0248302 0.116602 0.126693 -0.238856 0.00937157 -0.111053 -0.0765695 0.136705 0.122875 0.064866 -0.18671 0.0554287 -0.0379041 -0.255387 -0.0177084 -0.00575082 0.0729678 -0.0484229 0.13655 -0.106593 0.0286913 0.157952 -0.126069 -0.214203 -0.25911 -0.0591249 -0.0501758 -0.143959 -0.211412 0.250561 -0.122152 -0.219702 -0.104984 -0.264876 0.0710599 -0.119622 -0.147919 0.0383657 0.086129 -0.0268385 0.0710837 0.0340384 0.035852 0.0117038 -0.0279116 -0.115621 0.216566 -0.0611242 0.116694 -0.205917 0.0318509 -0.0805646 0.0640346 0.00292885 0.00329004 0.00655036 0.179646 -0.193141 -0.0392742 -0.0187019 0.104385 -0.217636 0.110346 -0.0809224 -0.0203862 0.0531473 -0.0602996 -0.0252763 0.0448421 -0.0499224 -0.0608684 -0.0667103 0.0422761 0.0485731 0.226299 -0.174453 0.0796455 -0.0740005 0.189916 0.0649693 0.103793 -0.0592846 -0.213438 0.0466641 0.194263 0.0595032 -0.0647727 -0.0409 -0.12062 -0.197305 -0.00654589 -0.0593189 -0.0170783 -0.0919679 -0.130904 -0.27758 -0.211036 0.129776 -0.0207168 0.0916959 0.0455836 0.0545297 -0.308158 -0.076541 0.0561738 0.0543677 0.116975 -0.117342 -0.0864357 -0.179381 0.158727 -0.102966 -0.0739592 0.0307145 0.217717 -0.118291 0.0310004 0.0890341 0.131295 -0.0938197 -0.0390353 -0.154602 0.0382007 0.304632 0.214123 0.0569854 -0.0610086 -0.202153 0.0139983 0.088733 0.0729445 0.169822 0.0236474 -0.107858 0.0178772 -0.112946 0.0153111 -0.0114483 -0.0578882 0.112221 -0.08054 -0.0183075 -0.242513 0.0844076 0.222291 0.0605854 0.148922 -0.137646 0.00156605 0.0321039 -0.16595 0.0127232 0.0215746 0.0617834 -0.00300764 -0.0269921 -0.0841566 0.304124 -0.158189 -0.0296564 0.202999 -0.0575934 0.167679 -0.126067 -0.0736964 0.141772 0.13083 0.0248875 0.166809 -0.0108285 0.0640972 -0.146762 0.0484697 0.0862192 -0.0520295 0.195707 0.0435137 -0.0471747 0.190125 -0.1935 0.00298562 -0.0929682 -0.10988 -0.206664 -0.0713267 0.0316346 -0.00153252 -0.173618 -0.206465 0.123368 0.162353 -0.101561 0.146337 -0.0553556 -0.0790055 0.214603 0.274265 0.0969124 -0.221847 0.102281 0.10032 -0.111949 0.12412 0.0175733 -0.0337142 -0.120304 0.0888014 0.0505098 -0.0482017 -0.0525485 -0.0433076 -0.125502 0.0968494 0.0384283 -0.169915 0.0960667 0.132568 0.233946 0.14808 -0.00499105 -0.0831808 0.123519 0.255753 0.0918513 0.150307 0.136433 0.286924 0.196007 -0.0664661 0.049008 0.049249 -0.199772 -0.00300299 0.149724 -0.10713 -0.00275357 0.185623 0.18987 -0.14882 0.138152 -0.212211 0.0686557 0.15904 -0.0944873 0.0362197 0.0815107 -0.164417 0.247536 -0.0261177 0.0803513 0.0075292 -0.0693202 0.154263 -0.0200918 0.0402658 0.00448792 -0.169956 0.0105015 -0.131554 0.135651 -0.0687823 -0.0685336 0.100718 0.172521 0.0662397 0.0966228 -0.253687 0.0801279 0.0454616 -0.114127 -0.12532 -0.0133405 0.0704731 0.0351598 -0.149293 0.0953654 -0.0601329 0.0970693 -0.0585023 0.0258684 -0.0134244 -0.268719 0.0387034 -0.0509261 -0.0272616 -0.0255712 0.145851 -0.0148515 0.0529593 
0.136307 0.0360524 0.00174158 0.0484778 0.0942021 0.0787357 -0.16098 -0.0177792 -0.184105 0.0157036 -0.196053 -0.118488 0.233488 0.284391 0.109294 -0.0908389 0.0598152 -0.0967105 -0.0923274 -0.0851379 -0.0574242 -0.237795 -0.045519 -0.0669834 0.271259 0.269806 0.0474894 -0.11342 -0.0699039 -0.0624098 -0.0249852 -0.0526215 0.013068 -0.170809 -0.0492777 -0.0991798 0.267057 0.051067 -0.057426 0.0766829 -0.040848 -0.0572619 -0.225458 -0.123741 -0.196393 0.317678 -0.00361643 -0.118209 -0.0922394 -0.0930156 0.175453 0.181458 0.182743 -0.100432 0.0840026 -0.0283905 0.281144 0.0341913 -0.107308 0.151407 0.0590276 -0.0836771 -0.123431 -0.0464247 0.301603 0.0526688 -0.0957072 -0.0115924 -0.142981 0.116461 0.00418111 0.0101189 -0.139862 0.101945 0.169067 -0.0194401 -0.0371994 0.0702973 0.0704539 -0.194601 -0.188537 -0.00997217 0.113345 0.012659 0.0266303 -0.0421434 0.181423 0.190804 -0.061209 -0.203401 -0.146712 0.000812902 0.19337 0.00415968 0.0711659 0.25571 -0.215143 0.0463921 0.131418 0.278972 0.065852 0.0672263 0.0326669 0.00434579 0.214292 -0.120292 0.0146878 -0.0212587 -0.288056 0.0196349 0.00991424 -0.167114 0.0936564 -0.0590195 -0.0245614 0.0662805 0.0759639 0.0327362 -0.0135892 -0.173158 0.012693 0.0200863 -0.0994656 0.018225 0.224083 0.236398 0.0196204 0.0477599 0.166849 -0.110796 0.0412061 0.215989 0.124929 -0.0598121 0.152016 0.0771408 -0.0615224 -0.0832127 0.379511 0.161028 -0.0428888 -0.042127 0.110883 -0.0176712 -0.00641893 -0.229679 -0.0281125 0.132144 -0.242462 0.221233 0.18217 -0.00315525 0.0557986 -0.0561075 -0.111485 0.0243372 -0.120622 -0.197149 -0.287383 0.223084 0.172101 0.13481 -0.163886 0.254527 -0.0368954 0.227769 -0.156361 -0.18152 -0.00717151 0.0819593 0.00696372 0.246563 -0.0744492 0.0537456 0.01664 0.02194 0.0341868 -0.132189 0.179604 -0.253537 0.0769843 -0.0876471 0.118928 -0.0262408 0.0798246 0.0104778 -0.0770356 -0.0366091 0.165614 0.103613 0.13205 -0.0705177 -0.0652637 -0.0454898 0.0341753 -0.241675 0.175232 0.0557685 -0.035757 0.200406 0.175035 0.0263226 -0.060502 0.149889 -0.157278 -0.00477581 0.00273064 0.122331 0.0743992 -0.0777977 0.0972305 0.128509 -0.0428775 0.0816933 -0.0425418 -0.114504 -0.082075 -0.0271769 0.0430441 -0.00603504 -0.121003 0.0446327 0.0319128 0.100764 0.0441362 0.00283926 -0.153668 -0.0728477 0.122687 -0.0811065 -0.391068 -0.0769524 0.0680282 -0.09227 -0.120959 -0.182344 0.0502216 0.166301 0.224154 0.0358945 -0.0901392 0.0571677 0.00283849 -0.074154 -0.0865292 -0.0456344 0.0298234 0.047078 0.125373 0.135364 -0.00877036 0.0702713 0.184956 -0.0429561 -0.00817746 -0.0460132 0.0141248 -0.207559 0.0556459 0.128685 -0.0960927 -0.0241128 -0.0968444 -0.0313238 0.0520806 -0.132829 -0.0102612 -0.0669096 0.0412467 0.0723542 -0.211771 0.102461 -0.037859 -0.120844 0.0754938 0.049145 -0.213513 0.0221055 -0.0141467 0.0207273 0.0802146 -0.103243 -0.0730043 0.00784196 0.0225624 0.203991 -0.0924447 -0.274754 0.115514 -0.050598 -0.113351 0.00698869 -0.188767 -0.197854 0.0647751 -0.242087 -0.0690339 -0.135886 0.313201 -0.0414827 -0.345515 -0.118593 0.0564579 -0.0197949 0.182795 -0.138504 -0.203953 0.0255788 -0.0529812 0.219332 -0.0488829 -0.195197 0.0501293 0.131976 -0.0293307 0.17686 0.0275854 0.0224238 0.135486 0.235655 0.197588 0.247134 0.06005 -0.202223 0.0580816 0.196563 -0.0579575 0.00951207 0.266728 -0.101993 0.110087 -0.00381782 -0.012533 -0.0911113 0.124148 0.0238748 -0.0516211 -0.047706 0.179278 0.125846 0.0161857 0.185632 -0.0478106 -0.200159 0.215683 0.0505105 -0.276727 -0.124744 0.101331 0.0793356 -0.0981366 0.174127 -0.182361 -0.192634 0.0808055 0.143688 -0.102178 0.0654458 0.159365 0.162776 0.0528655 0.138245 -0.250388 -0.0524259 0.138755 -0.167284 0.0263404 -0.112951 0.00133707 -0.23167 0.205113 -0.261254 0.133522 -0.0611514 -0.214046 -0.0797072 -0.107787 -0.29385 0.130545 0.168421 -0.0833662 0.0894948 -0.0838133 -0.181802 -0.104447 -0.111364 0.0307802 -0.206043 -0.0642627 0.0670701 -0.0331725 -0.00464644 0.074485 0.163258 -0.0194646 0.130951 0.0608468 0.072261 -0.21891 -0.0278308 -0.0927788 -0.0877253 0.0136777 -0.116805 0.0285328 -0.00452364 -0.0841154 0.106791 0.0619773 -0.0419319 0.00550689 0.147486 -0.186758 -0.122166 -0.199882 -0.0185408 -0.15319 -0.221303 0.13675 -0.123445 -0.378464 0.143535 -0.349501 0.0788206 -0.109035 -0.203882 0.159058 -0.0688704 0.152114 -0.102388 0.0627516 -0.0162459 0.116138 -0.106343 -0.0806856 -0.0189924 -0.0621506 0.179766 -0.058804 0.0327818 0.0263787 0.0335619 -0.191304 -0.211693 0.0775455 0.0855674 0.086852 0.0562565 -0.251038 0.0543345 -0.0101319 -0.160231 0.0883283 0.0515158 0.0175218 -0.0640731 0.106909 0.139496 0.0767706 -0.147376 0.0875351 0.0841446 0.0191182 0.111662 -0.375754 -0.0431791 0.219555 -0.173776 0.276705 -0.10558 -0.0341596 -0.032814 -0.121493 0.00608417 -0.118354 0.0214078 -0.00441189 -0.0980597 0.0334856 0.190283 -0.260665 0.0879017 -0.174748 -0.245014 0.081919 -0.0111491 -0.268885 0.0154684 0.00678609 -0.0910725 -0.0936455 -0.138395 0.0751147 -0.0719892 -0.0997846 -0.221009 0.171787 0.102344 -0.111868 0.122775 0.0363616 0.0420812 -0.182078 -0.135991 -0.158957 -0.0233796 0.108976 -0.0552237 0.129955 -0.194474 -0.0679907 -0.0133951 
-0.201593 -0.131802 -0.0736015 0.275684 -0.0813504 -0.0520692 0.0337887 -0.0637283 -0.0193791 0.0780454 0.065082 0.0943416 -0.2705 0.0871482 0.268015 0.0395513 0.0556914 -0.033374 0.0792371 0.0511171 -0.169373 -0.173246 -0.0245862 0.2399 0.173539 -0.065459 -0.321625 -0.170666 0.272623 0.102257 0.0551812 0.236473 0.0407222 -0.130671 -0.0952105 -0.0354897 0.0405076 -0.115761 -0.0112275 -0.183397 -0.0543308 -0.0228185 -0.0726607 -0.0592013 0.191235 0.0978434 -0.0843162 -0.0786343 0.116153 0.198727 0.0821493 0.115409 -0.0865048 -0.145731 0.0861481 0.104952 -0.0957551 -0.198545 -0.106868 0.0351128 0.00693361 0.0208359 0.0251715 -0.00783066 -0.174892 0.0342237 0.179158 -0.178163 0.0815927 -0.13122 0.0400884 0.0511671 -0.0645009 0.0527157 0.0800668 -0.0371793 0.0742309 -0.00173187 -0.121183 -0.0829878 0.11864 0.0640368 -0.0375103 0.0125625 -0.158807 -0.000443941 -0.238748 0.029278 -0.00409708 -0.0261621 0.0703615 -0.0395195 0.068516 0.109969 -0.0930936 0.0536579 -0.0737485 0.0834389 -0.102934 0.0119102 -0.148692 -0.0450809 -0.0321291 -0.235905 0.230617 -0.0159136 -0.105276 -0.180253 0.206208 0.0709511 -0.00565181 0.0487112 0.151806 -0.23249 -0.139852 0.0844876 0.0736254 0.0307028 -0.0924598 -0.129558 -0.359903 -0.0266344 0.0792373 0.108228 0.105831 0.120695 -0.0423542 0.114826 -0.00538459 -0.00125912 -0.130356 0.0108067 -0.0531208 -0.0650834 -0.0224346 0.123192 -0.0817836 -0.0279605 -0.199469 -0.0615319 -0.124844 0.0238219 -0.142091 -0.173138 -0.0500836 -0.133138 -0.113239 0.151258 -0.0425952 0.0731654 -0.0211041 0.0119889 0.370486 0.0625787 0.0989487 0.0720895 0.0312166 0.0205526 0.225564 0.000691747 -0.0310705 -0.0794056 0.0984593 -0.000631144 -0.197745 0.103421 0.0177773 -0.117731 0.15961 -0.161037 0.215629 0.0694057 -0.235521 -0.102285 -0.221366 -0.0563347 0.117818 -0.0603665 -0.0157198 -0.00910905 0.043225 -0.0625331 -0.0679606 -0.168001 -0.161524 -0.13474 0.169048 0.196822 0.22146 -0.138668 -0.159854 -0.0929609 -0.0290525 0.0146407 -0.162404 0.0221061 -0.0740999 -0.115351 0.0244418 -0.0142421 0.045317 0.118485 -0.0307474 -0.0476277 0.101255 -0.193717 0.0700952 0.158351 -0.0849627 0.0489924 -0.115469 -0.059568 -0.100601 0.157281 0.0816092 -0.091192 -0.25812 -0.258524 0.104672 0.0718058 0.209877 0.0831483 -0.114348 -0.0834571 0.19738 -0.0213189 0.241405 0.0294909 -0.0336601 -0.124492 -0.0337952 0.278749 -0.0707015 0.31087 -0.0138986 0.259031 -0.326888 -0.0579496 0.0575596 -0.0291586 0.0761118 -0.0717476 0.0020666 -0.0371435 0.0920124 -0.030776 -0.172009 0.0922686 -0.201382 0.128893 -0.0710063 0.181136 -0.0151845 0.0193328 -0.232147 0.0405821 0.158085 -0.00512349 -0.0417164 0.101872 -0.15622 0.172539 -0.103837 0.125264 0.144367 -0.112042 -0.154174 -0.0038717 0.200891 -0.025639 0.0481576 0.222318 -0.0492142 0.0324633 0.0164146 0.123579 -0.0257321 -0.0626443 0.164316 0.0204854 -0.0848981 -0.237167 -0.0286022 0.00599694 0.0136041 0.00102817 0.137622 -0.0664727 -0.198913 0.100319 -0.187052 -0.247419 0.291354 -0.219519 -0.153235 0.0458748 0.00899366 0.0754541 0.0194442 -0.173329 -0.0918612 -0.131511 0.239709 -0.0819954 0.029567 -0.031376 0.0384249 0.0536475 -0.0113321 0.0335718 -0.0559209 0.00532208 0.0891207 0.1244 -0.0225071 -0.113978 0.0199314 -0.0446109 -0.0631132 0.143125 -0.0300855 -0.173254 -0.00766639 0.00400069 -0.0574484 0.0139232 -0.139587 -0.0414641 -0.0519491 -0.0118601 -0.149333 -0.0253128 -0.17869 -0.157125 -0.023111 -0.0371782 0.222525 -0.0316069 -0.0876988 0.132502 0.119346 -0.0490634 -0.028871 -0.0501752 0.0635612 0.0812855 -0.0931327 0.00810526 -0.156052 -0.304079 -0.0498884 -0.0685093 0.0577493 0.0473452 0.220749 -0.226604 0.129514 0.156096 0.0713054 0.0664995 -0.0146216 0.339377 -0.0724235 0.103877 0.0500776 0.184392 -0.0307222 0.0748739 0.145287 -0.0412935 0.126196 0.0231727 -0.0133268 0.0113136 0.270145 -0.110741 0.0870822 -0.0369355 -0.239782 0.0366728 -0.0346953 -0.0732654 0.1125 0.266464 -0.0389692 0.15344 -0.32885 -0.00820435 0.250588 0.0722005 0.0408529 -0.0174698 0.168371 0.135475 0.132652 0.0418494 -0.291933 -0.132847 0.0390564 -0.0327799 -0.0219125 0.0938862 0.03129 -0.145905 0.0660776 0.0967546 -0.206115 -0.0220032 -0.033459 0.0578288 0.167347 0.0363705 0.132427 0.0727497 -0.143064 0.0104568 -0.182751 0.00352297 -0.000168513 0.183497 0.0254538 -0.234285 0.0512098 -0.141151 -0.267323 0.0109347 0.0972516 0.11846 0.340504 0.106478 -0.332413 -0.0180479 0.167387 -0.12372 -0.197415 -0.0643394 0.156623 -0.115416 0.152169 -0.0104528 -0.025901 -0.0681669 -0.0541669 -0.138633 -0.121714 0.0699376 0.100898 0.0441873 -0.239113 -0.0418956 -0.334128 -0.0598829 -0.196078 -0.0178914 0.00770475 0.106401 -0.0198165 0.293669 0.038349 -0.111805 0.0301096 0.193221 -0.109942 0.0540987 0.134395 0.0898095 -0.0821618 0.321465 -0.0736942 -0.0768307 -0.020581 -0.033569 0.0600711 -0.0283646 0.270554 -0.116442 0.156865 0.0156711 -0.100551 0.0319836 -0.0103546 0.0345571 0.194887 -0.005762 -0.0958789 -0.171811 -0.127354 0.0108779 0.0616256 0.0483507 -0.156979 0.0569516 0.117985 0.0222805 -0.179126 0.0379041 -0.031942 -0.0736412 -0.146061 -0.225528 -0.119652 -0.20016 -0.12621 -0.31153 -0.0884775 -0.17625 0.366609 -0.000153681 -0.0966842 0.0371126 0.162864 -0.113089 
0.117886 -0.0564054 -0.233907 0.14065 0.0428082 0.22166 0.29522 0.21866 0.081078 0.0390352 0.00430871 -0.189073 0.222569 -0.0762104 -0.04086 0.14767 -0.011183 -0.0709463 -0.0389342 0.0151896 0.07117 -0.200068 0.00619696 0.0463854 0.12796 -0.0704563 -0.155296 -0.111394 -0.0987376 0.0423225 -0.00252397 0.143915 0.366475 -0.158455 -0.208626 0.0920017 -0.0847516 -0.201067 -0.0128362 0.0459911 -0.145878 0.268662 -0.165868 0.133878 -0.161705 -0.0620506 -0.0154908 0.110717 -0.0719585 -0.159968 -0.0883709 -0.0910591 -0.0562821 -0.0123956 -0.0759493 0.116161 0.0194967 -0.0751352 0.231186 0.0598018 0.12742 0.0863048 -0.157315 0.0441057 -0.222404 0.317613 -0.0763134 -0.193878 -0.0807473 -0.132216 0.133221 0.0172726 0.1675 0.191788 0.170918 -0.0557138 0.105881 0.181258 0.0816524 -0.130322 -0.0994077 0.0730624 0.0158154 0.036219 0.249598 0.0344108 -0.00609298 0.018556 -0.0121866 -0.0823823 0.0558773 -0.140478 -0.0474404 -0.0612241 0.149294 -0.175741 0.0134804 -0.241128 -0.17842 0.0357637 -0.0872485 -0.126561 -0.112005 -0.0434037 0.0340063 -0.0558354 -0.278787 -0.171427 -0.0288202 0.0603797 0.139775 -0.0460148 0.0593009 -0.0344947 -0.00757482 -0.0188373 0.0808069 -0.043469 0.161194 -0.0636511 -0.0686644 0.0956759 -0.112779 -0.0788971 -0.0679019 -0.0654969 0.113919 0.00645809 -0.0526346 0.0252647 0.012778 0.0060358 0.131599 -0.223232 -0.153309 -0.147248 -0.165767 0.129603 0.188363 -0.126082 -0.0478174 -0.132537 0.10377 -0.0929654 -0.21148 -0.0488764 -0.0785047 0.0969665 0.0599165 -0.252452 -0.00313005 -0.0716162 -0.0888893 0.0371886 -0.23393 0.00116916 0.20267 0.0322317 -0.180625 -0.109481 0.199352 -0.0652371 0.138077 -0.144588 -0.000743965 0.0492052 0.102505 0.0682346 -0.0232925 -0.123945 0.0977252 -0.099194 -0.0140377 0.249774 0.042144 0.192272 -0.0252385 -0.0873228 -0.0249787 0.126648 -0.2601 -0.21004 0.0282488 0.0543869 -0.12526 0.0667801 -0.0634596 0.0600024 0.0536248 0.0340747 0.0903896 -0.0526905 0.244843 0.282396 -0.070807 0.00463432 0.238259 -0.273257 0.0588982 -0.133346 0.0430416 -0.00803826 0.064481 -0.0106876 -0.0498868 0.164797 0.180437 0.295888 -0.224076 -0.199301 -0.128945 -0.0557728 0.19517 0.127758 0.0808415 0.0782985 -0.0529913 -0.255466 0.0244759 -0.200951 -0.00165513 0.0429026 0.0849432 -0.154294 -0.0897411 -0.0183369 0.0239044 0.0325303 0.00341681 -0.121092 -0.145166 -0.145252 0.198212 -0.0286065 0.0802445 0.0410267 0.252727 0.169383 0.0239152 0.0626912 0.0418751 0.0947167 -0.163723 0.0271491 0.0237203 0.250744 0.277458 -0.213064 -0.152244 0.0374284 0.0267171 0.079292 0.110503 -0.14149 0.0791617 -0.317563 -0.139476 0.0270796 -0.0603669 0.0246722 -0.206399 -0.247321 -0.110907 -0.13454 -0.00617309 -0.0270156 -0.145975 -0.0277261 -0.174636 -0.120322 -0.0497359 -0.0996832 -0.00778348 -0.035892 -0.0732974 0.0795636 -0.146162 0.0866857 0.055877 -0.119484 0.0452267 -0.138255 0.0680201 0.113027 0.142199 0.222226 -0.124728 0.0135655 -0.0496885 -0.183299 0.126278 0.00451563 -0.17745 -0.123481 0.0758465 -0.00474401 0.0750284 -0.0266061 -0.0319055 -0.0675697 0.0222375 -0.133912 -0.0206746 0.329348 0.154595 -0.0352453 0.0538591 0.158778 -0.121715 0.0321225 0.0575689 0.0432544 -0.104521 -0.115241 -0.237711 0.192178 0.0321512 0.0423864 -0.0685806 -0.117954 -0.200168 -0.0120196 0.175225 -0.161016 -0.211313 0.142034 -0.0195864 0.0573096 -0.16049 0.133366 0.176146 0.0524451 -0.0255554 -0.0135252 -0.00632351 -0.210585 0.285945 0.0380971 0.14528 0.140749 -0.188551 -0.0802959 0.0170951 0.185648 0.099339 -0.0643928 -0.0974109 -0.0384842 -0.0788869 0.170843 -0.0749572 -0.112451 0.0718224 -0.0406719 0.0237404 0.286773 -0.325197 0.160209 -0.359566 -0.0267759 0.0522454 -0.124615 0.0831896 0.119721 0.0654823 -0.072127 0.0570362 0.121258 -0.0145064 0.0324007 -0.0792975 -0.0954019 -0.108122 0.050694 0.0396675 -0.14345 0.265773 -0.0232359 -0.0732672 0.092946 -0.234127 0.121741 -0.0388573 0.144636 -0.0256953 0.0760828 0.133248 -0.12726 -0.106611 0.0211863 -0.154509 -0.0235467 0.0348917 -0.169889 0.0283198 -0.0398543 -0.0696289 0.0614918 0.120429 -0.0396069 -0.0487713 -0.0496097 -0.192276 -0.0292378 -0.0213221 0.237726 -0.0255953 0.00560306 0.158184 0.00563569 -0.115764 -0.0685321 -0.0153602 -0.0995151 -0.0480481 -0.0636359 0.0993927 -0.105349 0.0646743 0.00402272 0.0115205 -0.09067 0.212587 0.0207767 0.0714108 -0.254968 -0.0946458 0.0578486 0.179831 -0.148347 -0.0440831 0.0740122 0.00637871 0.124028 -0.35075 -0.18385 0.0827214 -0.134983 -0.0220294 -0.248705 0.0397229 0.21952 0.202266 -0.15261 -0.0795721 0.0486872 -0.205796 -0.0172804 0.0154097 0.0783041 0.141 -0.273518 0.15424 -0.0320117 -0.022341 -0.062274 0.129983 0.0436122 0.0909243 -0.184478 -0.0202266 -0.00991214 -0.0737965 -0.0690507 0.155958 0.0188347 0.108214 -0.0769305 0.320686 0.167295 0.000942066 -0.110565 0.00638382 -0.00621799 -0.0191875 0.0670984 0.0125966 0.0351918 -0.0650551 0.152776 -0.0521345 0.072547 0.157188 0.00196778 -0.0371208 -0.237178 -0.111853 0.226124 -0.134853 0.176898 -0.0202051 -0.121073 -0.0473628 -0.124685 -0.0337665 -0.0678487 0.206537 0.0837754 0.176219 0.160214 0.0758652 -0.214734 0.181104 -0.0302117 -0.0202873 -0.00850224 0.0325257 -0.00766213 0.122999 -0.071608 0.00699553 0.118036 
-0.130641 -0.0119333 -0.0867209 -0.0509504 -0.00218848 0.0339334 0.282658 0.12135 -0.117032 0.020954 -0.101837 0.0580033 0.0533284 0.291721 -0.153025 0.0375076 -0.0499402 -0.180735 0.0590792 -0.25556 -0.155808 0.0729443 -0.0980191 0.00858114 0.214552 0.0621409 0.071187 0.0906845 0.167352 0.346863 -0.200632 0.0787961 -0.181899 0.0758184 -0.111878 -0.149523 0.127337 -0.0281213 -0.0387966 0.134719 -0.128244 0.0478457 0.00531187 -0.18301 0.0734605 -0.0345014 -0.150914 -0.159799 -0.0354324 -0.0718831 0.0581565 -0.0323253 0.107133 -0.0293972 0.0676044 -0.209699 -0.0747076 -0.105326 -0.0604438 -0.134862 0.0561962 0.0190005 -0.0216098 0.0668079 -0.076539 -0.016316 0.0533721 0.269314 0.212951 0.0238134 0.0251622 0.0537122 0.0268951 -0.162681 -0.0508451 0.113431 -0.0676959 -0.196178 0.0161943 0.0817645 0.151831 -0.188946 -0.0546981 0.122699 0.0432328 0.0977031 0.105998 -0.207712 0.0478281 0.158277 -0.0166346 -0.107127 -0.226889 -0.120471 0.147853 0.0983751 -0.132483 0.0484044 0.0717365 -0.148939 0.0699427 -0.100548 0.028917 -0.125085 -0.147664 -0.0773747 0.00152532 0.254497 0.0849286 0.138022 0.101249 0.145008 -0.0895319 0.0776869 -0.0504322 -0.077521 -0.272133 -0.021318 -0.0608519 0.00555409 0.0695857 0.0558146 -0.27798 0.247194 -0.0656164 0.0476001 0.0164523 0.0414393 0.295614 0.0111748 0.054574 -0.0176597 0.125801 0.14799 -0.0680936 -0.0942696 0.097578 -0.0688492 0.0251178 0.0363223 -0.0576414 0.220602 -0.0976284 0.162212 -0.183593 0.18393 0.111042 -0.0577718 0.0914312 0.0474688 -0.157786 0.278744 -0.168712 -0.0172504 -0.0606077 0.251015 -0.147277 -0.0743964 -0.237281 0.00291268 -0.0561308 0.00450082 -0.0490818 0.100344 0.317638 0.217628 -0.0471247 0.154858 -0.0751159 -0.336644 -0.0164573 0.133464 -0.189896 0.01209 0.369914 -0.0881324 -0.162946 -0.105528 0.138788 0.149006 -0.0108729 -0.0437096 0.194313 -0.121065 0.157528 -0.0638458 0.211757 0.0573296 0.0667051 0.0448254 0.143676 0.041647 0.105489 -0.00619267 0.0774628 -0.0719303 0.0619873 -0.0592672 -0.204576 -0.202703 -0.291515 -0.0131458 -0.039221 0.140831 0.00267639 -0.259679 -0.103573 0.0411149 -0.0459698 -0.0972258 -0.108394 0.041668 0.0142032 -0.139434 -0.0374033 -0.289263 -0.0179155 -0.05041 -0.00050152 -0.0704774 -0.0360573 0.124063 -0.0629776 -0.280442 0.10705 -0.0033458 0.126436 0.0606714 -0.254595 -0.0687606 0.112084 0.0574016 0.0327514 0.0308843 0.249636 -0.174612 0.0593901 -0.0202007 0.0988985 -0.01121 -0.14722 -0.0614888 -0.0229703 -0.0834838 0.221274 0.00804181 0.0115553 0.0607467 0.0850019 0.0181333 -0.218385 -0.0121574 0.136851 -0.0915752 -0.115191 0.285583 -0.155804 0.18809 0.13481 0.038083 -0.0515045 -0.0661923 0.182344 -0.129612 -0.0518293 0.0544786 0.0108158 0.149401 -0.163876 0.0650044 -0.028527 -0.205689 0.0050867 0.0361624 0.240139 -0.134264 0.0400566 -0.00355825 -0.031283 0.148905 -0.000600768 -0.0351798 -0.12649 0.0414434 0.223662 -0.02472 -0.0385306 0.203274 0.0467835 -0.24227 -0.00260497 -0.182044 0.138046 0.0580393 0.0184427 0.0924001 0.169992 -0.0839086 -0.0358171 -0.00672753 -0.0353631 0.101481 -0.127016 -0.0552639 0.109866 0.0835286 0.157373 0.0918803 0.0162036 -0.0659752 0.0206878 -0.187965 -0.010911 -0.177366 0.0966443 -0.0598981 -0.0641935 -0.148957 0.102018 0.0151645 -0.30619 -0.219042 -0.0596639 0.0076791 0.0412851 0.161452 -0.0857164 0.104072 0.0771322 -0.0452335 -0.24029 -0.0654589 -0.0598568 0.18092 -0.207409 0.0368782 0.0555106 0.0543104 0.118205 -0.0270969 0.0221945 0.15751 -0.0503638 0.189635 -0.116037 0.0688578 -0.0672869 -0.145569 -0.155412 -0.00447867 -0.395767 0.0182086 -0.284421 -0.144551 -0.0319027 0.119559 0.107878 0.00418727 -0.209834 0.0662618 -0.0682217 0.233579 0.052993 0.185921 -0.0293582 -0.0421458 0.154735 0.101185 0.244172 -0.0796267 -0.141433 -0.115704 -0.141568 0.117491 -0.0345033 0.111168 -0.04189 -0.133836 0.0605889 -0.038314 -0.0241821 0.106669 0.0844274 0.00256127 -0.13271 0.0457596 0.0935487 -0.0510017 0.154402 0.12447 0.142405 0.0742482 -0.122785 -0.0763626 -0.26531 -0.00855479 0.0941449 -0.00322877 -0.206208 -0.0395895 0.0259878 0.0955246 -0.136205 0.0483115 0.0535003 0.113422 0.127337 0.316546 -0.00422999 0.0238166 0.00782606 -0.105802 -0.088633 -0.0362649 0.114104 0.0206424 0.0181418 -0.126409 0.0873123 0.00418454 0.175853 -0.216713 -0.0612066 -0.0502618 0.000259543 -0.005365 -0.301629 0.105451 0.143176 -0.0168694 0.271494 0.0238572 0.13771 0.0323674 0.0742988 0.209501 -0.0496059 -0.0983673 0.0138272 -0.0902512 0.193284 0.123447 0.183078 -0.142334 0.0656432 -0.0721221 0.0993446 0.152442 -0.0319403 0.114439 0.0205127 -0.00566941 -0.135577 -0.111623 0.116484 -0.0337831 0.215071 -0.144057 -0.123659 -0.179448 0.101615 0.00996236 0.26376 -0.0494248 0.117593 -0.281623 -0.271629 -0.008184 0.0613393 0.0403359 -0.00455179 0.120198 -0.271718 -0.123014 0.0321355 0.036385 -0.180652 -0.264391 -0.0520029 -0.0378137 -0.190236 -0.101859 -0.060242 -0.219704 -0.113803 -0.0177963 -0.0821632 -0.0802996 0.0174919 0.0391714 0.0498079 0.244139 -0.0218276 0.139252 0.0175008 0.170051 -0.0195873 -0.0800644 0.115666 0.133384 0.0611187 -0.0518643 -0.0437534 -0.0807425 0.0192204 0.148027 -0.0999421 -0.0505329 0.0936663 -0.0214534 -0.103308 -0.0622835 
-0.402114 0.0068394 0.136475 -0.0079317 -0.0345748 0.107469 0.153152 -0.0975805 -0.199685 0.102225 -0.0225743 -0.331661 -0.30816 0.00991129 -0.031718 0.105897 0.0804053 0.0869275 0.119782 -0.00262018 0.131109 0.0336791 -0.209459 0.247241 0.039085 -0.0747805 -0.085506 -0.109963 0.00797361 -0.0196164 -0.0221619 -0.156674 -0.0907542 -0.100775 0.00875177 -0.0705335 -0.0672756 -0.113109 -0.112804 -0.135632 -0.241222 -0.0876321 0.247486 0.191363 0.0975395 0.0878679 -0.00764937 0.0905126 0.14802 -0.26951 -0.0538178 -0.0222497 0.076049 -0.0618536 -0.133088 -0.107583 -0.066765 -0.0247122 0.109187 -0.186613 0.126353 -0.102129 0.0424859 0.0133691 -0.089706 -0.261208 -0.108355 -0.100265 -0.312536 0.0489383 -0.218567 0.199624 0.0176138 -0.00486054 0.0855508 0.0821069 0.190394 -0.119972 0.0328128 0.0637921 0.0403587 0.313534 0.00328189 0.176848 -0.0640213 0.24997 -0.0492473 0.17463 -0.0282584 -0.0112238 0.0946972 0.20176 -0.103291 0.184859 -0.108571 0.201576 0.174268 -0.02289 -0.070505 0.0304462 -0.103907 0.106086 0.0373295 -0.0672165 0.109151 -0.0174058 -0.358015 0.0577054 0.047499 -0.0708879 -0.0366179 -0.227517 -0.0582927 0.113109 0.150702 0.0333666 0.104827 -0.056476 0.0800944 -0.09951 0.0678301 0.0661965 -0.036424 -0.138945 -0.0837449 -0.204321 0.0790666 0.0356174 -0.0980165 0.0998935 -0.172364 -0.151898 -0.00639889 -0.0701967 -0.215099 -0.328719 0.170594 -0.029042 -0.0219797 -0.0535873 0.059522 -0.133007 0.0570007 -0.282113 -0.0114474 0.287019 -0.0819618 0.0253548 -0.0247717 -0.0389042 0.0561064 -0.150004 0.0137822 0.085692 -0.0115742 -0.117029 -0.044362 0.135055 -0.142978 0.0173464 -0.0014302 0.0156146 0.115528 0.0422193 -0.0268408 0.00679482 0.0856495 0.196017 0.115506 0.107849 0.0261755 -0.121579 0.0545937 0.12334 0.168379 -0.0149559 -0.0807331 -0.0998531 0.0843331 -0.151357 -0.267234 0.0187803 0.169786 -0.0191938 -0.182058 0.0991432 0.366869 -0.0216334 0.143432 0.227977 0.165134 -0.00969853 0.12096 0.187834 0.114844 -0.0642943 0.152421 -0.0174647 -0.00921307 -0.0102503 0.0810478 -0.0736515 -0.0764794 0.0517811 -0.0824741 0.148065 0.0511291 -0.0341714 0.185034 -0.0411609 0.15001 0.0444528 -0.20091 0.0560803 0.0585726 -0.146146 -0.0249797 0.178541 -0.128028 0.0566521 0.190732 -0.0908903 0.147529 0.204675 -0.0223534 0.0981994 0.0137473 0.0284887 -0.0461265 -0.0954746 -0.0847056 -0.106692 -0.0469785 0.327281 0.12711 -0.094623 0.164961 0.0699519 0.0695736 0.141882 0.030023 0.19657 -0.0408563 -0.106791 -0.0654674 0.158586 0.0658654 0.181368 -0.154485 0.236368 -0.0968183 0.137929 -0.0660686 -0.0616027 0.0638628 0.064424 -0.146666 -0.0923047 0.0841139 -0.167924 -0.215904 -0.029581 0.118458 0.0112414 0.0359047 0.11311 0.139809 -0.051125 0.0877608 0.00222627 0.0190057 -0.159428 -0.121939 -0.205154 0.226399 -0.197739 -0.0378614 -0.0512394 0.136343 -0.0255981 -0.0542164 0.00578893 -0.0362271 -0.109824 -0.00415616 0.0111367 -0.0409057 0.0106183 -0.00387207 -0.0923128 0.141765 -0.156746 0.334704 -0.0928876 -0.217718 -0.162618 -0.187332 0.0288493 0.107333 0.10236 -0.105694 0.0736656 -0.0372352 -0.0338567 0.17142 0.136539 -0.164127 -0.050904 0.00428779 0.148389 0.120062 0.176062 0.21753 0.234095 -0.0543365 -0.181996 0.111175 -0.0494909 0.0258753 -0.132972 0.00463368 -0.123764 -0.22549 -0.0618987 0.228186 -0.0880266 -0.133042 -0.241092 -0.0745125 0.148836 -0.147125 0.238569 -0.113784 0.183475 0.237566 -0.0596148 0.131693 0.157688 0.159647 -0.0125154 -0.110567 0.0740568 0.0539863 -0.107465 -0.127706 0.11383 -0.0770413 -0.0355501 0.0262926 -0.0824019 -0.267493 0.303501 -0.265924 -0.0209337 -0.13549 -0.231253 -0.0970263 -0.146567 0.09597 0.0324788 0.0789395 0.0110064 -0.318962 0.230017 -0.0929417 0.174475 -0.00646622 0.211391 0.159551 -0.105357 -0.177212 -0.00180129 -0.0451464 -0.223349 -0.0651731 -0.128277 -0.0388534 0.00566404 -0.185602 0.0552455 -0.0475211 0.0619717 -0.0167162 0.230461 0.0641752 -0.0482886 0.0170298 0.246934 -0.0681759 -0.0867315 -0.107581 -0.00310816 -0.0309133 -0.0325367 -0.190428 -0.095232 -0.00260016 0.0209214 0.1306 0.142556 -0.122205 0.017815 0.130189 -0.160239 0.163078 -0.101416 0.17508 0.0366682 -0.0825768 -0.0965032 -0.0794411 0.226675 -0.014383 0.156605 -0.0993085 0.0439649 -0.145569 0.0797008 0.179866 0.0784837 0.0352822 -0.205502 0.0122652 -0.0796204 0.0125338 -0.133513 -0.0556305 0.00923463 0.0533589 -0.0885831 -0.0530306 -0.0875521 0.302813 -0.100453 -0.204117 -0.0618973 0.0378925 0.248672 0.213752 0.0362595 -0.0215467 0.00948148 -0.037699 0.110336 0.145536 0.104472 -0.0935385 -0.181522 0.0950103 0.0817904 -0.242808 -0.00458297 -0.0565838 0.105517 0.205509 0.0871649 0.00923221 -0.222003 0.0113757 0.176781 0.144695 -0.0458484 -0.0407612 0.0569782 0.199959 -0.117359 -0.0142116 0.085551 -0.0113106 0.0777393 -0.193336 -0.0349024 0.0135177 0.0759907 -0.0070358 -0.312584 -0.0219526 0.0750945 -0.00985339 -0.0167663 0.0319594 -0.126857 -0.0875216 0.158479 -0.136881 0.0517888 0.0689462 -0.07897 0.00033416 0.329512 -0.1556 0.0333938 0.146134 0.140451 0.000314409 0.021342 0.00917633 0.104296 0.0637271 -0.0871142 0.228943 0.122288 0.0560053 -0.015042 -0.0453905 0.172967 -0.195513 0.0519395 0.0819806 0.133913 -0.145674 -0.0618505 
0.0127657 0.0450976 0.111306 -0.145842 -0.179668 0.0971463 -0.062399 -0.215522 -0.152983 -0.0482517 0.0231303 0.00793835 -0.0547321 -0.361422 -0.0309492 -0.0983132 -0.0774442 -0.24544 0.0266326 -0.180988 -0.23185 -0.111433 -0.121721 -0.0713123 -0.0678436 -0.104818 -0.188082 -0.071694 -0.020713 -0.103122 0.0144113 0.092802 0.0519704 -0.0375282 -0.202276 0.0843511 0.19446 -0.0800428 -0.10628 0.0400024 -0.0706208 0.198134 -0.0492797 -0.143739 0.0318744 0.0504948 -0.049619 0.0381815 -0.0440718 -0.212845 -0.13232 0.0459925 -0.160745 -0.0948692 0.0928863 0.010411 0.0823334 0.0902869 -0.026534 0.125211 0.0138496 0.12779 0.0939198 -0.269153 0.140842 0.165593 -0.103422 -0.215626 -0.0267115 -0.0387687 -0.228408 0.105271 0.0398379 0.335007 0.0599036 -0.119055 -0.0897101 0.152568 -0.306584 0.0602224 -0.0184904 -0.0526237 0.00686035 -0.145362 -0.0593702 0.00843061 0.0552715 0.0293713 -0.147997 -0.204153 0.123716 0.0575238 -0.0863888 0.441227 0.0539835 -0.0136101 -0.0640916 0.0699923 0.123288 -0.0313205 -0.0417126 0.0392243 -0.3004 -0.0799394 -0.171074 0.0814069 -0.195809 0.0359655 0.366117 -0.140034 0.139617 0.150791 -0.255805 -0.118986 0.0684129 -0.0133338 -0.0357861 -0.00967094 -0.0593886 -0.105634 0.0924308 0.039321 -0.146076 -0.148352 0.283982 0.0949313 -0.103608 -0.0558807 -0.119882 0.0146014 -0.0752508 0.0397935 -0.0731439 -0.172814 0.262564 -0.0650112 0.124491 -0.0509878 0.0313194 0.0569721 0.195812 0.0732428 0.0224118 0.0191668 0.154491 0.176564 0.109221 0.041019 0.0998491 -0.0124093 -0.00748258 -0.12008 0.13191 -0.0178933 -0.050484 0.117678 0.0219649 0.0640392 -0.0824255 0.0624263 -0.258922 0.0573724 -0.00823483 -0.131995 0.155968 0.115973 0.0833881 0.0319703 0.0180486 0.108718 -0.115108 0.137901 0.0357353 -0.137452 -0.135816 -0.110596 0.16042 0.0505462 0.258434 -0.135717 -0.0191328 -0.0554403 -0.265528 -0.251146 0.0609857 -0.0373615 -0.15995 -0.0101652 -0.134869 0.0843914 -0.0580054 -0.0986373 -0.221561 -0.0707906 0.0565654 -0.111419 0.108234 0.0772397 0.151011 -0.0802691 -0.114406 -0.0286002 0.0259481 -0.0331069 -0.0576988 0.00184022 -0.118534 0.0685211 -0.115814 -0.160894 -0.0220309 0.0641603 -0.0249899 0.171688 -0.163353 -0.0313707 -0.0282083 0.203806 0.0461705 -0.0386269 -0.153662 0.0549689 0.0744186 -0.116049 -0.0488645 0.0594135 0.13603 -0.0236135 0.0379759 0.155741 0.0539443 -0.279733 -0.0526009 -0.0198779 0.303327 0.0274076 0.0327126 0.00857933 -0.0657139 0.0462153 0.0419109 0.228891 -0.0822854 -0.130644 -0.208178 -0.180578 0.0972707 0.134168 0.0851462 0.287987 0.249199 0.0831437 0.0473066 -0.0995388 -0.0283518 -0.0341223 0.217871 -0.1518 0.00420381 -0.0361152 -0.120114 -0.09383 -0.178784 0.045353 -0.01623 0.0558036 0.0497139 0.134168 -0.192624 0.135505 0.0279443 0.0848624 0.114601 -0.0390079 0.314095 -0.225668 0.00596291 -0.253131 0.0234491 0.0933009 0.327076 -0.245607 0.00615654 -0.12198 -0.149429 -0.0161482 0.0437582 0.154556 0.143138 -0.0372995 -0.245302 -0.192168 0.0632021 -0.0381484 -0.122292 0.271269 0.14696 0.0116664 0.0812536 -0.0982935 0.239532 -0.0937648 0.138995 -0.077598 0.152016 -0.134528 0.0373112 -0.116866 0.0568494 -0.216121 -0.0707042 -0.0384026 -0.100691 -0.0137653 -0.298406 -0.00899221 0.126285 0.347061 -0.0606052 0.0890302 -0.0860677 -0.026165 -0.0501832 -0.0220811 0.0435791 -0.0666726 0.144433 0.140039 0.128768 -0.178773 -0.00219964 0.219926 -0.163245 0.145311 0.187609 -0.214466 0.0825328 0.00821733 0.114715 0.138166 0.049399 0.0178325 -0.088869 0.0537998 0.321306 -0.0506363 0.199002 0.0770552 0.0347569 0.00151862 -0.172077 0.00891662 -0.155415 -0.175844 0.00606225 -0.145042 -0.0242207 -0.15101 0.0742319 -0.0969126 0.196185 -0.0319459 -0.202172 -0.057111 0.0959826 0.0853601 -0.209557 0.276292 -0.176841 -0.0247046 0.0503116 0.0280723 -0.155795 -0.211966 -0.163198 0.179441 0.254036 -0.147352 -0.0111681 0.0358793 0.0567103 0.0901898 -0.153729 -0.0967221 -0.0938454 -0.128 -0.184697 -0.0427223 0.290943 0.16724 -0.100394 0.108619 -0.019407 -0.0463666 0.0741153 -0.0929442 -0.0203996 -0.0675685 -0.0574044 -0.131867 -0.0308029 0.0585809 -0.00683858 -0.205129 0.00491599 -0.139919 0.0767699 0.20978 -0.0708279 -0.00258213 0.0695717 0.00223028 0.0256759 0.221985 0.0899749 0.0232062 0.110133 0.127532 -0.0250677 -0.0649043 0.0642401 0.182133 -0.0123618 0.0465794 -0.112253 -0.184656 -0.0338819 -0.15937 -0.0182991 -0.0346135 -0.1654 0.209517 -0.0107666 -0.20168 -0.355227 0.0105725 -0.0242644 -0.0862719 0.131 -0.159363 -0.160476 -0.12469 -0.057859 -0.109462 0.109559 -0.189077 -0.135585 -0.125746 -0.0993359 -0.038369 0.0146743 -0.0305132 -0.0477668 -0.103391 -0.00184635 -0.146494 0.183517 0.00469893 0.150638 0.15866 0.126152 -0.12458 0.0488307 0.15709 0.0282399 -0.0363516 0.00613162 -0.11066 -0.088938 0.0475247 0.0260178 0.116856 0.150468 -0.168062 -0.0040705 0.0765868 0.0577367 0.223322 0.0826656 -0.149544 0.0492569 -0.208798 0.257295 -0.0834604 -0.0661049 -0.0255781 0.153793 0.212817 0.174376 -0.0717994 0.181795 -0.047207 -0.0612507 -0.147419 -0.0743048 -0.0307344 -0.155054 -0.0692296 0.142074 -0.125484 0.0662768 -0.0886213 -0.0127777 -0.158246 0.0466224 -0.115644 -0.03215 -0.357053 0.0449908 -0.156659 0.03756 0.0336157 
-0.112354 -0.00648035 -0.0770657 0.0133623 -0.0481917 -0.0578469 -0.0068906 0.0275987 0.180328 -0.0176463 -0.08769 -0.0772111 -0.122884 0.193042 0.215165 -0.0551339 0.00200073 0.00174457 0.323571 -0.151944 0.139149 -0.10489 -0.0145932 -0.0669965 -0.0461098 0.0490583 -0.111803 -0.156871 -0.0909431 -0.074998 -0.157249 0.199027 -0.125292 0.146789 0.131033 -0.0220368 0.0793291 -0.0697145 -0.00297126 -0.115863 0.0311909 -0.0135316 -0.0212782 0.0648245 -0.0536596 -0.161155 0.0243941 0.014106 0.143765 0.0507209 0.0429659 -0.0808381 0.187176 -0.0815238 -0.0280643 -0.135381 -0.0551451 -0.0279448 0.0731953 0.0433264 0.234866 0.430464 -0.217541 -0.149805 -0.0631837 -0.0983107 0.0428206 0.276191 -0.0815281 0.253694 -0.0416135 -0.081968 -0.101401 -0.00620965 -0.177162 0.0936667 0.131185 -0.110571 0.102302 0.0419584 -0.036881 -0.145521 -0.149792 -0.0979775 -0.0165031 0.103123 0.0359637 -0.0553133 -0.00864161 -0.177612 0.039269 0.0346166 0.104172 0.065831 -0.119894 -0.0762243 -0.0250196 -0.0424673 -0.255737 -0.00204264 0.333381 0.03295 -0.113042 0.0111126 0.152056 -0.238552 0.00956901 -0.0346767 -0.064408 -0.255998 0.156534 -0.134981 0.124714 -0.00712082 -0.0240091 0.0903476 -0.0784483 0.131 -0.0186613 -0.0349783 0.103794 0.148488 0.0213402 -0.129653 0.229869 -0.022681 -0.0140827 0.187907 0.263693 -0.0642392 -0.117475 0.133169 -0.00264831 -0.00352376 0.214333 0.0228304 -0.0940116 0.0628275 0.190464 0.0831787 0.0964951 0.302385 -0.393214 0.183579 0.160049 -0.0523481 0.301334 -0.060795 -0.0927603 0.0729325 -0.155621 -0.179355 0.00191169 -0.0667633 -0.133914 -0.192025 -0.157399 -0.107377 0.0206306 0.0565841 -0.27398 -0.117722 -0.0579315 0.055248 -0.0534141 0.0780629 -0.110503 -0.111924 -0.0923241 0.247852 -0.167293 0.0300673 0.103203 0.228554 -0.0498154 -0.0796631 0.12979 0.0645809 0.0389889 -0.0976317 -0.0459511 -0.101702 -0.00448114 0.0511694 -0.0254318 0.0533441 -0.0248838 0.0535364 0.188088 0.260117 -0.0877415 0.250104 0.029496 0.100699 0.0112734 -0.195946 -0.10253 -0.0284472 -0.195376 -0.188543 0.0644403 -0.289424 -0.0768972 0.161634 -0.0655102 0.0496963 -0.00324118 -0.0345976 -0.308035 0.00967662 -0.104306 0.289171 -0.275702 0.0795271 0.0124623 0.10812 -0.0123704 -0.165139 0.144799 -0.15893 0.16638 -0.0422234 0.0473157 0.031703 -0.067504 -0.082791 0.204298 0.105931 -0.0126212 -0.00188849 0.226443 -0.251337 -0.23095 -0.104987 0.0696095 0.0871694 -0.0832637 -0.23923 -0.000551394 -0.0824218 0.1848 -0.0445215 0.0855155 0.0163523 -0.254665 -0.108164 -0.0685975 -0.0881211 0.0617417 -0.252687 -0.0810985 0.213079 0.12346 -0.143341 0.109698 -0.0999964 0.177602 0.12572 -0.137644 0.228183 -0.228086 0.090115 0.121518 -0.242838 -0.124725 -0.0977278 -0.149453 0.0731584 0.0784876 -0.037606 -0.049633 0.250276 0.154733 0.0721938 0.0280892 -0.22267 -0.0553105 0.35968 -0.0309323 -0.139482 0.00913552 -0.0241823 0.00201426 -0.0394663 0.145169 0.014615 0.144555 0.147651 0.126368 0.257752 -0.101201 -0.263379 0.110034 0.0632786 0.138745 0.0977594 0.221487 -0.114264 -0.171171 0.0244446 -0.143057 0.183 -0.0732183 0.0759065 -0.0711004 0.0850256 0.103568 0.0242862 0.00763613 -0.0922585 -0.0384123 0.0315599 0.11588 0.0311924 0.135448 -0.042208 0.0109944 0.00122284 0.0547517 -0.0321962 0.0065877 0.0920807 -0.15552 -0.0691067 -0.0141575 -0.230842 0.106501 0.125776 -0.0789994 0.0628354 -0.0768187 -0.067992 -0.0801118 -0.100092 0.162483 0.0163248 0.0793834 0.245738 -0.138785 0.0375277 -0.347349 -0.0768948 0.0266219 -0.204295 -0.0751078 0.0891337 0.139619 0.139251 -0.162003 -0.0577422 -0.0335033 -0.0529599 -0.0808715 -0.278111 0.0518125 -0.42498 0.169152 0.0338091 -0.0131538 0.233829 0.137397 -0.0754057 0.0408687 0.021826 -0.0325909 -0.0769087 0.158868 0.000500254 0.0127784 0.108573 0.0642585 -0.0677346 0.0465012 -0.0469792 -0.0301167 0.345831 -0.149189 0.136982 0.248688 -0.0449484 0.109908 0.0338364 -0.00332638 -0.163456 0.205426 0.206412 -0.0865549 -0.0297305 -0.0926175 -0.091951 -0.014867 -0.12633 0.0843125 -0.255744 -0.154485 -0.0227592 0.263203 -0.169974 -0.188871 0.0125653 0.064456 0.227574 0.0905423 0.122997 -0.175147 0.124217 -0.110697 0.258161 -0.16442 -0.137622 0.0378177 0.118249 0.0665307 0.221327 0.0206208 -0.0691302 -0.0951189 0.138534 0.110501 0.0305077 0.170081 -0.00378205 -0.240578 0.00934839 0.0445762 0.100803 0.120647 -0.0720649 -0.135739 0.0508749 0.0801442 -0.0838715 -0.0321503 -0.191761 -0.292032 -0.208112 -0.159321 0.127399 0.00563922 -0.10682 -0.0186017 -0.0618911 0.013099 -0.0220762 0.0648123 -0.0221587 -0.00689244 0.0920073 -0.0156555 0.0568209 -0.0209581 -0.154329 0.0718979 0.0641857 0.0219889 0.144007 0.112932 -0.114979 -0.0331432 -0.151093 -0.121639 0.0341972 -0.155948 -0.00583126 0.0347241 0.20077 -0.107673 -0.00630111 -0.215553 0.0120208 0.133038 -0.0300397 -0.0158758 -0.039834 0.0407264 0.0335284 0.1906 0.10762 0.0201328 -0.190027 0.201808 -0.167859 -0.0311081 0.132248 0.0497072 -0.0854393 -0.0734858 0.0284235 0.0256786 -0.170515 0.0437661 0.0418756 -0.0957707 0.0375232 -0.00736512 -0.180125 0.0667054 -0.033412 -0.211203 -0.092725 -0.167769 0.052276 -0.194065 0.0593991 -0.0466637 0.00519003 0.295936 -0.104911 -0.0813617 0.143059 0.207531 -0.284325 
0.122781 -0.232919 0.0674103 -0.101907 -0.0569321 0.0982453 -0.108532 -0.191042 -0.0822191 -0.101303 0.0304428 -0.0708614 0.0600997 0.0544749 -0.0813196 -0.0808097 0.0698143 0.0600842 -0.197599 -0.114348 -0.0297952 -0.000679813 0.064681 -0.0955492 0.187796 -0.00342247 -0.00877067 0.110332 0.0172001 0.0241986 -0.0426859 -0.0203223 0.0563067 -0.0805237 -0.212788 -0.164484 -0.0483687 -0.190619 -0.00236394 0.173679 0.0629091 -0.0254208 0.215024 -0.000387042 0.168287 0.0133348 0.00388636 0.0623105 -0.0985254 -0.28885 -0.291503 0.314018 0.0676007 0.0205435 0.147451 0.0687434 -0.0940906 -0.218057 0.116957 0.048254 -0.0850986 -0.083587 -0.164694 0.116725 0.0401647 0.0691039 -0.146714 0.163411 0.0285565 0.0278504 0.078341 -0.239225 -0.130213 -0.00439314 0.0276655 -0.0657775 0.0815141 0.120977 -0.266035 -0.209323 -0.0659331 -0.086157 0.14085 0.15941 -0.0943465 0.0328041 0.134289 -0.0603763 -0.0242636 0.0337403 0.057873 -0.12815 -0.0071305 -0.0145911 -0.181023 0.12277 0.180137 -0.123432 -0.209428 0.114362 -0.29201 -0.0321717 -0.14784 -0.137342 0.0521398 0.0495649 -0.0439134 -0.100159 0.0316931 0.0403026 0.0734943 -0.121068 0.0845874 0.0450983 -0.0827848 0.134535 0.099325 -0.13859 -0.0883631 0.185482 -0.0175564 0.115458 -0.124047 -0.132119 -0.0783119 0.370832 -0.156764 -0.0131534 0.0511363 0.174193 0.0342025 -0.0203288 0.0294007 -0.0307354 -0.177296 0.130779 -0.0736507 -0.0103193 -0.03588 -0.0509368 -0.0507754 0.0989465 0.116268 0.12667 0.0537229 -0.109357 -0.223613 -0.113486 -0.135399 -0.117937 -0.0414607 0.210486 -0.0461532 -0.154571 0.259294 -0.293359 -0.101298 -0.160444 0.215103 -0.000939028 -0.0838888 -0.0574093 0.15573 -0.044546 -0.0328023 0.190104 -0.350677 -0.110481 -0.019932 0.18117 -0.113474 0.0726663 0.0144689 0.159938 0.0469068 -0.254992 0.0330251 -0.276456 -0.363474 -0.116661 0.140078 0.034932 -0.270516 0.0408728 -0.113743 -0.00351223 0.199044 -0.216792 -0.057954 0.0430507 -0.0768463 0.0996938 -0.0559451 -0.120069 -0.187746 0.152301 -0.0902252 -0.229179 0.0297738 0.00405973 0.222308 0.198379 0.0692986 -0.0753287 0.105164 0.0638022 -0.0144154 -0.0132508 0.0618121 -0.0150277 -0.175256 -0.00105782 0.123162 0.0167837 -0.0331836 0.0919679 -0.0399872 0.224068 -0.0447433 -0.0529881 0.0244785 -0.161292 -0.0945882 0.0415374 -0.117303 -0.0697867 -0.296445 -0.0266036 0.162291 -0.0879371 -0.0237534 0.0946909 0.112103 -0.0251401 0.193868 -0.217514 0.125566 0.0127959 0.0672429 -0.0606225 0.0352382 -0.191904 0.00123591 -0.104474 0.0803713 -0.0466251 0.00177466 -0.098845 0.0483892 0.0339319 -0.0244158 -0.0572554 0.0972025 0.228523 -0.0447683 0.130341 -0.0823037 0.0339478 0.0196435 -0.180448 0.13322 -0.21432 -0.0820005 -0.165488 0.17162 0.182089 -0.106022 -0.123205 -0.10807 0.0883915 -0.148249 0.00503266 0.0351323 0.157995 0.201836 0.0807032 0.0640378 -0.14112 0.0211113 -0.234348 -0.0516835 -0.140145 -0.151194 0.00101033 -0.0294029 0.0753535 -0.0591648 -0.00892081 -0.141361 0.0124672 0.130953 -0.162655 0.0685282 -0.0346324 -0.0955746 0.102467 -0.139748 -0.0525828 0.0613351 0.0661218 -0.107841 -0.250006 -0.141056 -0.0988228 -0.239539 -0.0767816 0.0286268 0.109822 0.0686847 -0.206375 -0.0285903 0.0835906 0.02036 0.108549 0.211916 -0.00512593 0.172404 -0.180068 -0.272202 -0.171986 -0.0219824 0.0142842 0.149243 0.0286545 0.0327131 0.077572 0.204268 -0.1135 -0.0145576 0.0311615 -0.177867 -0.0501903 -0.157829 0.204143 -0.0159555 -0.0282139 -0.112357 -0.201356 -0.0157357 0.109114 0.136676 -0.0545247 -0.244205 -0.232124 -0.0404118 0.329301 0.038865 0.157541 -0.0400078 -0.0642571 -0.17881 0.0367587 -0.0113851 0.0721384 -0.0912418 0.147492 -0.0533109 0.147762 -0.00450397 0.00904456 -0.0110592 0.00606126 0.00108796 -0.125225 -0.0652051 0.0290866 -0.342217 -0.0333493 0.154617 0.0372253 -0.0570828 0.105653 0.316775 -0.179373 -0.0525547 -0.107625 -0.119418 -0.104388 0.033161 0.130225 0.0140602 -0.0143041 0.180503 -0.0342758 -0.0918752 0.0739549 0.0788743 0.106139 0.0499842 -0.146878 0.0445313 0.155349 -0.110048 -0.0720395 -0.124524 -0.0468015 -0.00890172 -0.0308042 0.116875 -0.0210275 0.064793 0.30263 -0.0864547 -0.00882031 -0.0182395 -0.0198361 -0.159706 -0.175033 0.122119 -0.0736101 -0.0815441 0.0704898 0.00563545 0.118292 0.143325 -0.252232 0.0342625 -0.00590919 -0.090433 -0.133589 -0.0425682 0.0549954 -0.174163 0.139899 0.125512 0.146304 -0.207562 0.0120235 -0.0856927 -0.0571371 0.176606 -0.0203049 0.189961 0.0764672 0.0979035 -0.236819 0.0863926 -0.213092 -0.0662755 -0.120165 -0.0521777 0.116666 0.00316072 0.0511694 0.159148 0.133533 -0.0526132 -0.0447196 0.0173385 0.0416033 -6.29065e-05 0.0984429 -0.145804 -0.0234878 -0.030704 0.13493 0.0545338 0.0769219 -0.182648 0.0846888 0.282159 -0.055499 -0.33495 -0.0789124 0.279224 0.296845 -0.117309 -0.00732068 -0.0245232 0.00852574 0.115643 -0.0661203 -0.0823052 -0.116877 0.0424649 0.134918 0.0245399 -0.130752 -0.297555 -0.06932 -0.126382 0.00494281 -0.0281663 0.11051 0.0198363 0.069978 -0.0821097 -0.27562 0.0317315 0.151644 0.104068 0.0962055 -0.0510586 0.0721641 0.0665699 -0.238008 0.0885156 -0.0560216 -0.0276227 0.122587 -0.147676 -0.0493039 -0.0705453 -0.0279231 -0.0919303 -0.105269 -0.145448 -0.00543597 0.083201 0.0782125 0.140194 0.183482 
-0.171522 -0.168547 0.133232 0.179979 -0.00749826 0.185754 -0.0579546 -0.0991302 -0.0330314 -0.137925 -0.191966 0.0129806 5.48831e-05 0.0776524 0.00653529 0.110147 -0.143307 -0.0524373 0.0138936 -0.127751 -0.227964 -0.156324 0.014818 -0.0104815 -0.110683 -0.00199432 -0.0321895 0.141245 0.0980489 -0.0949002 -0.173992 -0.147235 0.031005 -0.0866258 -0.118487 -0.0692781 -0.00777477 -0.0879712 -0.0324253 0.201816 -0.0955298 0.0182294 0.132109 -0.333112 -0.130563 0.176461 -0.0632768 -0.0985765 0.0413905 0.0504642 -0.159557 0.143026 -0.0346714 0.123747 -0.0181468 0.00876891 -0.119836 -0.160905 -0.233473 -0.0309609 -0.0683646 -0.144719 -0.171613 -0.0591376 -0.0124675 -0.0364259 -0.0767678 -0.0740564 -0.12767 -0.210011 -0.183661 0.00792223 0.171666 0.000910521 0.0631609 -0.0966766 -0.0566108 0.227062 -0.113601 0.0450867 0.0326461 -0.27932 0.0913716 0.0885078 0.187411 0.0639841 0.151038 -0.0344906 -0.00343609 -0.18675 0.12978 -0.0431427 0.0248313 -0.174282 0.108898 -0.106718 0.105433 0.15491 0.0572612 0.0115005 -0.0846418 0.0945438 -0.0450275 0.0898734 0.0264767 0.0610108 -0.248943 -0.149748 0.0591381 -0.00960951 -0.0353387 0.127154 -0.059613 0.109002 0.0386628 -0.0389676 0.0224957 0.188154 -0.0134809 -0.150365 0.0416365 -0.0501778 -0.0189088 0.0101476 0.143499 0.0325373 -0.0773994 -0.0839006 0.176678 -0.0549699 0.41026 0.0731363 0.00126707 0.024448 -0.0408877 -0.00814902 -0.236618 -0.0686045 0.0866968 -0.237388 -0.0334586 -0.0943533 0.152416 -0.017514 0.0776196 -0.0327121 -0.104378 -0.0588686 0.0854852 -0.0405864 0.130508 0.0636773 -0.12742 -0.014057 -0.0578923 -0.20241 -0.0468651 0.168669 0.0483446 0.0457809 0.248939 0.00903361 0.000838999 -0.191157 0.0138014 -0.0487516 -0.0295073 0.254878 0.105691 0.0173749 0.3246 -0.0923194 0.0885808 -0.0284101 0.135884 0.165042 0.0556621 -0.139328 0.0276918 0.155426 0.03103 -0.0433384 0.0401941 -0.0911106 0.0730155 0.014297 0.0438996 -0.159314 0.0110648 -0.105144 -0.0104363 -0.00299892 0.0766899 -0.155844 0.0670234 -0.153818 0.149623 0.00112529 0.00204523 -0.145239 0.10708 -0.125318 0.141587 -0.145881 0.0234388 0.0519964 -0.0552549 0.0391371 -0.121307 -0.0383867 0.215099 0.085896 -0.0883678 0.211079 -0.0752845 -0.0232494 -0.132305 0.207474 -0.177087 0.160617 -0.0236856 0.241805 0.0376291 -0.284954 0.307319 0.0393146 -0.175264 0.179292 -0.0422017 0.120301 -0.110964 0.0294157 -0.170993 -0.049173 0.269085 0.0756344 0.0225369 -0.0554257 0.104111 0.0786184 -0.175806 -0.0112325 0.153505 0.146401 -0.0142651 -0.10713 -0.0075325 0.0282602 0.151778 -0.0349623 0.0159869 -0.0292522 -0.0568322 -0.128051 -0.13696 0.186014 -0.259578 -0.0214076 -0.260276 0.0931822 0.0256482 0.101506 0.0522614 0.208841 -0.115045 0.0221487 0.122229 -0.062415 0.120292 -0.0296575 -0.0986273 0.0774427 -0.0570644 0.0596397 0.0131414 0.0406815 0.0130025 -0.133173 0.0926433 -0.00250184 -0.11388 -0.187413 -0.0790399 0.0768499 0.132074 -0.138161 0.202995 -0.0723831 -0.033598 0.0220658 -0.0873296 0.151178 0.102641 -0.0884524 0.156593 -0.0152568 -0.0959812 0.229908 -0.0224317 0.0274659 -0.107916 -0.123791 0.0644907 0.210645 -0.15094 0.238907 -0.0860436 -0.187195 -0.0276178 0.153593 -0.0695933 -0.12664 -0.105066 -0.163186 0.242361 -0.0406737 -0.0331458 0.096403 0.142133 0.124867 -0.00596708 0.112334 0.00571536 0.134776 0.00797556 0.00860539 0.0132654 0.00801385 -0.0736075 -0.177972 -0.261167 -0.136331 0.122447 -0.0375291 -0.104253 0.00785962 0.0900689 0.165537 0.00589696 0.145775 -0.0427086 0.0811158 0.132266 -0.121567 0.202764 -0.053507 -0.0185154 -0.006733 -0.0842561 -0.154612 -0.0170073 -0.295442 -0.0431413 -0.175277 -0.0421715 -0.0285393 0.165218 -0.0807463 0.059795 -0.0179562 -0.185416 0.0664145 0.0373747 -0.183902 -0.160298 -0.20931 -0.238471 0.169119 -0.0252775 -0.147061 0.00746822 0.0108043 -0.085557 -0.101316 -0.0119118 0.104422 -0.0159674 0.0682543 -0.087093 0.066627 -0.0606623 0.150569 -0.173618 0.26538 -0.205126 0.230357 -0.206716 -0.164888 0.19899 -0.0745166 0.214909 0.0035389 0.119892 -0.156364 0.153867 0.121475 0.079124 0.162991 0.0400499 0.1755 -0.112626 0.139364 -0.050974 0.102507 -0.249874 -0.135021 0.108988 0.0347541 0.220883 0.2237 -0.0158684 0.113493 -0.23279 -0.108881 -0.17217 -0.106433 -0.188782 0.16049 0.161635 -0.0512408 -0.303816 -0.187445 0.0830261 -0.00223127 0.145073 -0.082227 -0.0736222 -0.15096 -0.204791 0.0196497 0.0283711 -0.0341417 0.203958 0.101024 0.07257 0.0545701 -0.064605 0.227449 -0.162256 -0.165366 0.00882123 -0.0512855 -0.0194963 -0.120481 -0.195406 0.0742272 -0.0239827 -0.0357009 0.0526443 0.224732 0.194402 0.161849 0.0185086 -0.164311 0.144987 0.252874 0.13454 -0.0517703 -0.195276 -0.0979801 -0.0587564 -0.0142079 -0.0897978 -0.0986353 0.0722846 -0.0946234 -0.0439253 0.0996841 0.19941 -0.0851025 -0.0550629 -0.137097 -0.249188 0.146633 0.157155 0.103222 -0.0798782 0.0683059 -0.211706 0.108562 -0.108251 0.105913 -0.0747006 -0.137606 -0.0290525 0.0321598 -0.164492 0.0387697 0.0988696 -0.0913788 0.0769993 0.0450429 -0.190159 0.187611 0.222924 -0.138461 0.126828 -0.135366 -0.163306 -0.00164373 -0.168251 -0.191695 0.139123 -0.0806703 0.294545 -0.0934015 -0.0773027 -0.0901153 0.180935 -0.173631 0.00131339 -0.0290568 
0.0178506 0.21899 -0.177668 -0.0785573 -0.038233 -0.126929 -0.0374952 0.0983172 -0.00824739 -0.0245442 0.0504312 -0.107936 0.0624921 0.0460212 -0.0271709 -0.15793 -0.0707612 0.104176 -0.237048 -0.0103262 0.00536248 0.144186 -0.0160573 0.224481 0.211703 0.0266205 0.242796 -0.0389702 -0.185332 -0.0367595 -0.0015768 0.00739507 0.0986919 0.0961113 -0.00553315 0.0655643 0.126573 0.140733 0.0938152 0.0239583 0.116259 0.122143 -0.127947 0.156777 -0.0244226 0.0392999 0.0453196 -0.308796 0.113728 0.0667548 0.128818 -0.110042 -0.00541254 -0.0653845 0.110484 0.120811 0.171137 0.00280174 0.185945 -0.0858826 0.0914682 0.00212001 -0.0335927 -0.176488 -0.0180249 -0.0194734 -0.054389 -0.125832 0.10311 0.119542 0.0456501 -0.0942665 0.284033 -0.0879415 0.120078 -0.0194889 0.178362 0.0167325 -0.242379 0.101871 -0.163266 0.00393901 0.00180047 -0.223565 0.0467677 -0.177903 0.0410509 0.35017 0.123532 -0.105698 0.199554 0.0777248 0.128112 -0.0691074 0.175478 0.102649 -0.0978779 -0.0451395 0.0965548 0.0425321 -0.127599 -0.177979 -0.164614 -0.061932 0.271963 -0.0655343 0.00154295 0.12661 0.265654 -0.304091 0.103383 0.133782 0.241458 -0.125268 0.131809 0.121833 -0.0172013 -0.0549551 -0.0634172 0.0122587 0.0712877 -0.0691101 -0.00985595 -0.0328826 -0.303849 -0.0237845 -0.130452 0.166577 -0.0558142 0.0384673 0.061655 0.0910588 0.126481 0.170891 0.222978 0.093731 -0.0182426 -0.0758596 -0.013226 0.0948206 -0.0943463 0.293248 -0.0295909 -0.0432181 0.105733 0.184789 0.256414 0.130003 0.034684 -0.206954 -0.0427161 -0.222793 -0.125428 -0.0986274 -0.0169773 0.0339125 0.169286 0.00617931 -0.227073 -0.00494868 0.131496 0.110714 0.0439743 0.0606028 -0.223266 0.204199 -0.000269718 0.141554 -0.227181 0.137787 0.0530531 -0.00307196 -0.204739 0.11132 0.0193011 -0.0316244 0.190495 -0.153017 0.0674798 0.244147 0.0333065 0.155362 -0.0442351 -0.0677126 -0.0412095 0.126926 -0.0328292 0.161859 -0.139578 -0.108981 0.168541 -0.12275 0.0963963 -0.00790988 0.0705686 -0.183853 0.0363305 -0.20751 -0.0619634 -0.260252 -0.222301 0.277018 0.026283 -0.0587503 -0.0906795 -0.0913741 -0.288991 -0.408925 -0.189924 -0.218216 -0.135655 0.261072 -0.0963471 0.0982992 -0.113248 -0.0268752 0.018153 0.21198 0.285645 -0.0454574 0.101833 -0.224646 -0.0468336 -0.0374754 -0.101285 0.00633964 0.180478 -0.185021 -0.081457 -0.0988551 -0.265176 -0.110366 0.0360799 -0.0195526 -0.0309343 0.0110046 -0.117833 0.161599 0.00480536 0.109695 -0.250246 -0.0403659 0.0181794 -0.0358968 0.13884 0.0402272 -0.0673266 0.0334626 0.192688 -6.87891e-05 -0.166245 -0.0489036 -0.0645716 -0.0785477 0.158506 0.233291 0.117867 0.0816914 0.0263346 0.115375 -0.114833 0.066654 -0.180951 0.0138225 0.0551082 0.0831944 -0.082608 -0.0313356 0.147388 -0.104891 0.0819968 0.045662 -0.0428579 -0.0982284 -0.00486625 -0.140064 -0.0758551 -0.00776135 0.181209 -0.250832 0.154314 0.156141 -0.269135 -0.224424 0.0909084 0.0225852 0.407267 0.0373852 -0.0277372 -0.098766 0.0566697 -0.196972 -0.0205308 0.017645 -0.0465589 0.351131 0.145533 0.018552 -0.0457036 0.0634155 -0.0802977 -0.269483 -0.0161211 0.0376358 -0.0247692 -0.0740244 0.0502525 -0.105217 -0.057698 0.159225 0.0206558 0.219234 -0.0134709 0.0706008 0.0891352 -0.0224656 0.00233519 -0.0466882 0.0803924 -0.00332328 0.0147953 0.0838741 -0.0185362 0.103913 0.265996 0.0668975 0.0469317 0.162927 0.11012 0.0682039 0.0630632 0.0544297 -0.256296 0.0498125 0.0753179 -0.125567 0.0297362 -0.0691477 0.00121572 -0.0244551 0.0679919 0.0180315 0.14302 0.151783 -0.259794 0.0434312 -0.330103 -0.144122 0.336798 0.0237594 0.0631423 0.0167917 -0.0364612 0.0622169 0.134892 -0.185429 -0.144617 -0.0599408 -0.0302373 0.0157134 0.160787 0.10879 -0.0774536 0.123 0.077828 -0.106207 -0.150821 -0.128814 0.156492 -0.0205965 0.0469377 -0.14395 -0.196195 -0.160571 -0.150846 -0.262897 -0.0552218 0.166255 -0.00811476 0.0760779 0.0652969 0.257538 0.16848 0.000412433 -0.131307 -0.0118604 -0.0164971 0.0538571 -0.0605608 -0.00122833 0.0822436 0.309951 -0.0959822 0.173043 -0.0138926 0.102959 -0.170057 -0.0654758 0.109618 -0.000136988 0.0995194 0.083319 -0.092664 -0.0613044 0.221253 -0.085637 0.0987708 0.104985 0.0657777 -0.0389126 -0.146487 -0.0289046 0.0288687 0.102647 -0.0639945 -0.277069 -0.037715 0.13721 0.0989208 -0.0195841 0.0617645 -0.109883 0.049953 -0.010885 -0.0269855 -0.101163 -0.00792525 -0.0544329 0.0509678 0.241758 0.125675 0.0449335 0.124951 -0.00915478 0.209922 0.0697038 -0.101918 -0.0545235 0.13984 -0.0590111 -0.112653 0.0517061 -0.157849 0.0169633 -0.10008 0.127935 -0.0345121 0.21817 -0.224836 0.0432165 -0.163228 -0.102401 -0.20841 -0.200756 0.336691 -0.219672 0.000290842 0.0830438 0.00993819 -0.169903 0.048925 -0.136821 -0.146881 0.0684778 0.09849 -0.095984 0.0455625 0.0420308 -0.00101928 -0.0562395 0.116162 -0.225559 0.0207612 0.157864 -0.101718 -0.0152201 -0.0830506 0.0295867 -0.315022 0.231477 -0.00864416 0.0518947 -0.083758 -0.127193 0.131367 -0.097766 0.0556563 0.113977 -0.072808 -0.158154 0.0715313 0.0158723 -0.00771384 -0.0264729 0.00737898 0.140934 0.0142657 -0.1266 -0.066044 -0.00111814 -0.190968 0.131636 0.0150797 0.25908 -0.0294455 0.162701 0.206739 -0.0610869 -0.19296 0.0369561 -0.0274656 0.0252832 
-0.0244243 -0.0492341 0.162177 0.0856348 0.123035 0.209624 -0.10801 -0.180058 0.0152437 0.0995864 0.140944 0.0350667 -0.166395 -0.0829323 0.0991147 -0.325124 0.133029 -0.146256 -0.0479931 -0.00445211 0.0251123 0.0371411 -0.0790708 -0.12262 -0.149445 0.068295 0.0274212 -0.0701839 0.197153 -0.0475185 0.250212 -0.0443059 -0.00110936 -0.0394114 0.0920532 -0.109833 -0.0586311 0.00283117 -0.0927055 0.0477184 0.101393 -0.0721506 -0.0813839 -0.0368706 -0.0852129 -0.0752706 -0.104788 0.101655 0.0882877 -0.106162 -0.286521 -0.147656 0.0867772 -0.0166185 -0.0874361 -0.104056 -0.00329439 0.174575 0.162894 -0.0928338 0.0904483 -0.00543997 -0.0788255 -0.00514815 -0.0595905 0.0897123 0.1208 -0.0192963 -0.113969 -0.00233076 -0.0647831 0.0781629 -0.0674028 -0.00837884 0.0397145 -0.0145309 0.170134 -0.173033 -0.0812923 0.0854541 0.0881582 0.040459 0.163564 -0.0897467 -0.00459306 0.132642 -0.292449 -0.250326 0.0136853 0.22328 -0.0770077 0.142285 0.0360037 -0.164066 0.0409465 -0.0692828 0.122856 -0.00761647 0.0845709 0.10624 0.143269 0.0287773 -0.0519138 -0.261965 -0.171938 0.075453 0.0922736 -0.150966 -0.212066 0.0749607 0.0587054 0.0685904 -0.156649 -0.0647636 0.0489849 0.0158791 -0.0705234 0.0817699 0.0113406 -0.0682103 0.237363 -0.0964954 -0.00428494 -0.0119781 -0.111216 0.00203857 -0.140442 -0.099824 -0.0492587 0.00735018 0.032519 0.0934115 -0.236111 0.00767558 -0.0143769 -0.125789 0.236952 -0.197857 -0.119836 -0.0436058 0.005017 0.128119 0.0209354 -0.172265 0.109464 0.0599702 -0.0736426 -0.0465067 -0.182337 0.109701 0.061336 0.0620979 -0.143149 -0.0869853 -0.0358583 -0.0618966 -0.198926 -0.0507579 0.20317 -0.0377457 -0.0740959 -0.0315434 0.223272 0.149065 -0.240422 -0.057841 0.117445 0.122563 -0.190673 0.27912 -0.163639 0.0627026 0.0456543 0.064954 0.0919037 -0.224816 -0.0910619 -0.150884 0.272471 -0.109609 -0.0198252 0.0845903 0.0284499 0.0258153 0.0437005 0.0448433 0.0593919 0.0168209 -0.144421 -0.154693 0.0765643 0.0778274 0.0408219 -0.0902887 -0.018542 0.0146169 0.269675 0.24239 0.0199091 -0.13484 -0.0267526 -0.0840324 -0.0195617 0.127493 0.205167 0.109999 -0.229714 0.0566176 -0.0244066 -0.141941 0.155495 0.184141 -0.0352921 -0.0502054 0.0682339 0.132151 0.0720843 0.0891027 -0.205995 0.147984 -0.0229518 0.0760038 -0.0803623 -0.134458 -0.223762 -0.0729827 -0.207096 0.18431 0.0831616 -0.148305 -0.00911429 -0.201039 0.0656647 -0.102149 -0.135497 -0.207391 -0.0684271 0.0585973 -0.0561638 -0.0218063 0.0194032 0.0402506 -0.254095 0.114399 -0.00722682 -0.175952 -0.137887 0.268973 -0.142038 -0.23601 0.176478 0.118692 0.0783026 0.128544 -0.0501574 0.0179677 0.0840054 -0.140649 0.331464 -0.154546 -0.0616704 0.138626 0.235604 0.0523667 0.0307536 0.0684389 -0.178183 -0.0688046 0.104067 -0.0212948 -0.104884 -0.0911136 -0.0568195 0.0713711 -0.00024624 -0.0628355 0.0555499 -0.222133 -0.0373519 -0.0463174 -0.0593426 -0.00386955 0.131974 0.0475272 -0.244485 0.00672682 -0.108054 0.343596 -0.0482556 0.111651 0.0489825 -0.0675221 -0.0652643 -0.0722068 0.208087 -0.0514298 0.039774 -0.0767301 -0.0381801 0.0431922 0.141371 -0.0804344 -0.0565094 0.138347 0.122924 -0.0776619 -0.108655 -0.103534 -0.0484104 0.0844687 -0.11474 0.049378 0.106522 0.000508707 -0.0360746 0.0774233 -0.108159 -0.264526 -0.231223 0.228703 0.048213 0.254157 0.245029 0.352832 0.118925 -0.0216947 0.087534 0.00460787 -0.054487 0.213955 -0.0322087 -0.114405 -0.0387694 -0.0494353 -0.115119 0.120829 0.0678491 -0.0742564 -0.0518012 0.124752 0.050944 0.0557493 0.0109134 -0.261201 0.00227507 0.105194 0.113578 0.23439 0.0140108 0.0388912 -0.0775566 -0.0559139 -0.344553 -0.0275003 0.203542 0.136966 0.029978 -0.272667 -0.129841 -0.0589375 0.00772636 0.090738 0.119953 0.330385 0.118123 -0.0527746 -0.209217 0.0416603 0.01469 -0.0383542 -0.00717405 0.142675 0.056107 -0.284127 0.0410414 0.050553 -0.0598853 -0.0901847 0.0828659 -0.046108 0.267504 0.0923569 0.197982 -0.0475734 0.0678054 -0.174007 0.0689711 -0.00348321 0.106207 -0.0557531 0.0238336 0.227699 0.112211 -0.114446 0.227247 0.0615224 0.0934105 -0.049262 -0.0195569 0.0900441 -0.078895 0.0984148 -0.13789 0.0838538 -0.162934 -0.116203 -0.116978 0.14327 0.0260073 0.00616543 -0.153862 0.119318 0.280228 -0.0294891 -0.0974006 -0.0511266 -0.048096 0.178115 -0.185473 -0.00202186 -0.0340916 -0.0991868 -0.010779 -0.0755336 0.13531 -0.011998 0.0188315 -0.0267045 -0.0305692 -0.169502 -0.0421902 0.0844344 -0.0853872 0.268001 -0.114326 0.0157436 -0.0604574 -0.11266 -0.121553 0.0446844 -0.152998 0.0904652 0.0187285 -0.08844 -0.27819 0.0986187 -0.0887845 0.0147615 0.138756 0.13083 0.0292441 -0.16537 0.0561114 -0.0343286 -0.128754 0.22791 0.0550154 -0.0495614 0.0735029 -0.188131 -0.214715 -0.0407728 0.059129 0.135885 0.197395 -0.309112 0.111862 -0.115811 -0.23033 -0.0419423 0.231254 -0.103858 0.0598506 -0.0771524 -0.0583834 0.143362 0.0316562 -0.208122 0.236524 -0.00821804 -0.00787497 0.0235609 0.056815 -0.388765 -0.167099 -0.0107059 0.0067834 -0.0766693 -0.187377 0.274812 0.0508899 -0.0530627 -0.0963973 -0.0431157 0.124508 -0.110313 0.00629765 -0.128349 0.150623 -0.00245407 -0.0294892 0.111038 0.0948066 0.217918 -0.0158019 -0.00482525 -0.0686574 -0.0537938 -0.0278064 -0.0522553 0.0687361 0.0496467 
