10 1024
0.359932 -0.267692 0.298077 0.17243 0.17434 -0.214478 0.357067 0.698481 -0.607068 0.0281591 0.012975 -0.739024 -0.579475 0.114281 0.416199 0.0758116 -0.155808 0.140572 -0.164679 0.0629053 -0.314628 0.535222 -0.433849 0.670335 -0.912709 -0.204224 0.133521 -0.150469 0.453239 -0.425152 0.626331 -0.179863 -0.645711 0.472244 -0.14866 -0.15835 -0.0804794 0.877097 -0.302685 -0.66002 0.433955 0.158323 0.340151 0.156726 -0.266485 0.0661451 0.596 -0.35421 -0.521183 -0.379152 -0.479915 0.324397 -0.0336646 0.0456048 -0.232228 -0.363845 0.101894 -0.182987 -1.43269 -1.31721 0.142147 0.270972 0.554889 0.192078 0.092819 -0.369929 -0.352504 0.142619 0.167821 -1.13305 0.129836 0.435009 0.182738 0.416939 -0.040709 -0.139765 -0.076491 0.587298 -0.0987349 -1.06927 0.115953 0.171875 -1.0764 -0.00856944 0.432274 -0.261759 -0.636136 -0.354215 -0.0860497 -0.125737 0.0227241 -0.396299 -0.411848 0.189563 -0.459554 0.00537042 -0.170045 0.281591 0.692941 0.446682 0.175364 -0.0647707 -0.584526 -0.268265 0.0209952 0.28419 0.095463 -0.450773 0.0598488 -0.00707735 0.00228033 0.0760131 -0.330441 0.200549 0.111469 -0.0263554 0.296987 0.267567 -0.201 -0.0535276 0.0753716 0.301281 -0.873807 0.350541 0.376495 0.146001 0.237372 -0.327725 0.312716 0.850594 -0.674982 -0.221699 0.208389 -0.541906 -0.138387 0.250128 0.628409 0.038908 -0.122389 0.539959 0.840347 0.753848 -0.280959 -0.0242754 0.32274 -0.0774456 -0.173918 0.383655 -0.882935 -0.327716 0.437355 0.746112 0.171295 -0.26909 -0.489837 0.304617 0.56548 0.274469 -0.61478 -0.159406 0.178128 0.056347 -1.03452 0.396327 0.497071 0.0212103 -0.100475 -0.29 -0.381462 -0.225859 0.396408 0.0119399 -0.435427 0.333069 -0.276817 0.311903 0.301023 0.0334352 0.592936 0.499573 0.120042 0.541602 0.41271 0.161841 -0.0550166 0.00835302 0.0608854 -0.136536 -0.333672 -0.51237 -0.280382 -0.0964521 0.061418 -0.381745 -0.218512 -0.149566 0.130969 -0.0574081 -0.323196 0.168608 0.263465 -0.0296998 -0.395347 -0.592255 0.158455 0.497042 -0.791696 0.0107567 -0.0047763 -0.352801 -0.352122 -0.279929 0.0279589 -0.314191 -0.199413 0.332658 0.920107 -0.0150029 -0.478686 -0.569539 0.329201 -0.186356 0.257201 0.0857816 0.0618721 0.351075 -0.397068 -0.410148 -0.651717 0.210701 0.49494 0.454411 -0.511146 -0.737398 -0.843989 0.749688 0.903096 0.168903 -0.152066 0.266809 -0.229719 -0.00682227 -0.473582 -0.4411 0.00776596 -0.128147 0.0340391 0.570735 -0.248873 0.401299 0.309215 -0.172579 -0.594073 -0.0427189 0.206879 0.010083 -0.204821 0.949974 -0.543934 0.313028 0.505362 1.0132 -0.11074 0.61693 0.310537 0.379329 -0.315964 0.0168053 -0.0864849 0.418109 -0.104635 0.418109 -0.707134 1.00977 0.224658 0.0188617 0.150804 0.347632 0.905304 0.118883 -1.0072 0.0832192 0.578909 -0.324728 -0.742966 -0.566397 -0.00246432 1.2604 -0.366918 -0.0946467 0.0398028 0.270666 -0.159004 -0.238133 0.0813978 0.139968 0.565589 -0.375294 0.671835 -0.478912 0.854627 -0.0207372 -0.210384 0.473369 1.03442 -0.271595 -0.0354644 -0.208995 -0.0670076 -0.567299 -0.74098 -0.123026 -1.65943 0.225614 0.31582 -0.172874 -0.514096 -0.449787 -0.296813 -0.0577112 -0.0603479 -0.572525 -0.696479 -0.649581 0.171446 0.371567 0.13389 -0.252554 -0.355509 0.851161 -0.357411 -0.0185554 0.01298 -0.836334 -0.157381 -0.376707 -0.642084 -0.475452 -0.691075 -0.0092302 -0.466543 -0.0524449 -0.0518848 -1.03225 0.294119 -0.0690825 0.111002 -0.231407 0.265712 -0.0211494 0.411648 0.364763 0.0865563 0.154063 -0.173129 -0.128048 0.931309 -0.606949 -0.14668 -0.648478 -0.0210698 -0.83887 -0.634502 0.612936 -0.179852 0.0145949 -0.580928 -0.580614 -0.884546 -0.218461 -0.629188 0.457028 -0.144247 -0.471561 -0.713208 -0.222068 -1.39494 -0.256516 0.47354 -0.020164 -0.0147478 -0.166415 0.46489 -0.305742 -0.414025 0.1439 -0.0191737 -0.192102 -0.533624 -0.0427966 0.648211 -0.251768 0.278281 0.478434 -0.103708 -0.694462 -0.118099 0.428089 0.322143 0.73808 -1.01593 -0.0222043 -0.262105 -0.132628 0.410605 -0.0302592 0.225325 -0.382227 0.19564 1.07878 -0.0301805 0.352432 0.365262 -0.0339043 -0.535696 0.606219 -0.561282 0.228709 -0.0332029 0.440642 -0.482535 0.202765 -0.262717 -0.737994 1.05074 0.0490308 0.388835 0.0967687 0.0573348 0.177217 0.544788 0.270909 -0.292665 -0.572179 0.777013 0.135702 -0.628834 0.0389208 0.103816 -0.0497531 0.453093 0.0763122 0.708874 0.392621 0.15357 0.260005 0.214584 -0.359439 0.634327 0.0948123 0.393307 -0.42226 -0.324278 0.18452 -0.273837 0.0774184 0.405523 0.36734 0.0262301 0.058273 -0.498229 -0.0274071 -0.349782 0.420451 -0.718434 -0.264745 0.408558 -0.321277 0.0229473 0.7069 0.0772684 0.18043 0.201211 0.101778 0.330393 -0.0461007 -0.276369 -0.04442 -0.279106 0.743241 -0.0604996 0.752359 -0.176721 0.572116 -0.117421 0.412331 0.469818 -0.0917757 0.462736 -0.294674 -0.0559852 -0.338692 0.87764 -0.0218516 -0.177715 -0.71365 0.121461 -0.0597461 -0.232494 0.318105 -0.505118 0.427531 -0.796252 0.750047 0.469681 -0.997124 0.644043 -0.361231 1.01087 -0.0475499 -0.997867 -0.333 0.397376 -0.251282 -0.23362 0.535558 0.146421 -0.600593 0.321076 0.036199 0.0403955 0.15886 -0.108424 -0.940138 -0.214103 -0.112657 -0.0318469 0.614598 -0.49476 0.26075 -0.0686472 0.113588 1.19641 -0.220396 0.194821 -0.304639 0.723153 0.121536 -0.315078 0.358539 0.307312 0.0147174 0.0836927 0.629532 -0.169387 -0.873621 -0.645395 0.945001 -0.538917 -0.231356 0.43983 -0.821444 0.78772 0.404845 -0.217047 1.00827 0.316549 -0.426373 -0.651299 -0.0580066 0.454163 0.0708961 0.0534745 0.120304 0.403885 -0.122922 -0.453505 -0.604524 0.504184 -0.503773 -0.486073 0.239373 -0.136573 -0.0288293 -0.591096 0.489236 0.401372 -0.244786 0.877507 -0.357074 0.0893888 -0.140053 -0.123365 1.2109 -0.338701 -0.0303607 0.283678 -0.432588 -0.271471 -0.165917 -0.410652 -0.492387 -0.854499 1.15163 -0.193259 -0.614722 -0.995622 0.0449193 -0.457741 -0.39136 -0.00403983 0.576986 -1.01795 0.635997 -0.239278 1.13359 0.843719 -0.241536 -0.0500207 -0.110885 -0.0127978 -0.537053 -0.21834 0.212882 -0.00977561 0.379793 -0.0128145 -0.13205 0.361001 -0.307138 -0.132012 -0.0771974 0.0248939 -0.27673 -0.276588 0.228791 -0.258953 0.207146 0.867919 0.496307 -0.0212232 0.512399 -0.0784388 0.3772 0.232085 -0.809567 -0.696412 0.691991 0.332669 0.313843 -0.692488 -0.97249 0.369559 0.447642 0.126145 -0.306445 -0.0313177 -0.216377 0.510607 -0.588977 0.516605 -0.593526 0.530958 -0.562095 0.715997 -0.0465889 0.703951 0.643381 0.45985 -0.691116 -0.70992 0.713501 0.399883 0.0641445 0.0462956 -0.615857 0.063579 0.232891 -0.277975 0.197291 -0.267464 -0.518775 0.123043 0.143376 -0.618023 -0.153926 0.341521 0.521241 0.335894 0.45158 -0.114852 1.0546 -0.00978797 0.374989 -0.56028 -0.564248 0.130098 -1.07009 -0.2609 -0.440311 0.0306213 -0.0677182 -0.384219 0.095496 0.289656 -0.793706 0.00229953 -0.288798 0.0269693 0.0804073 0.60817 -0.955284 0.156073 -0.0878808 -0.176703 0.309167 0.029404 -0.69795 0.232597 0.121421 0.0362925 0.306008 -0.215944 0.347438 1.03326 -0.194317 -0.0887781 -0.144493 -0.253496 -0.0478459 0.141834 0.563108 -0.246848 -0.463914 0.166334 -0.864115 -0.321269 -0.400954 0.102722 0.552126 -0.0354603 0.214946 -0.0766857 0.649091 0.17694 0.464395 -0.374242 -0.227656 0.156119 -0.404609 -0.765744 -0.0402093 -0.0180129 -0.133797 -0.263552 -0.627947 -0.19749 -0.240161 0.122512 -0.779262 -0.0250598 0.104539 0.1903 0.568429 -0.524551 -0.273842 -0.32057 -0.574799 0.150521 0.255109 -0.639858 0.1142 0.59433 0.865044 -0.237133 -0.47645 0.785619 -0.00813141 -0.218077 0.447902 0.30812 -0.435782 1.18682 0.0475612 -0.0450691 0.46942 0.0759598 -0.652187 0.819425 -0.525406 -0.237644 -0.923801 0.680813 -0.656112 0.0325802 -0.666618 -0.509476 0.967554 0.109812 -0.420601 0.359876 -0.879086 0.0746609 0.446088 -0.0603784 0.0950398 -0.180788 0.431436 0.0500613 0.477512 0.264009 0.186069 0.646364 0.162418 0.566522 -0.433783 -0.317966 0.980536 0.857368 -0.27714 -0.153908 -1.00281 0.153985 0.493443 0.0109622 0.0663685 0.630537 -0.386988 0.0594494 -0.293332 0.00361793 -0.282035 0.265155 0.571687 -0.319918 -0.434444 0.529235 0.495475 -0.296264 -0.249246 0.574697 -0.613488 0.803455 0.0724679 0.662289 0.44618 0.763818 -0.125884 0.297138 -0.137918 -0.343899 -0.187126 0.197766 -0.0412684 0.229984 -0.767289 -0.292355 -0.231878 -0.268253 0.196416 0.209588 0.963766 0.131277 0.548041 -0.22016 -0.0875514 -0.108479 -0.44485 0.0544609 -0.302353 0.739067 -0.504802 0.250665 -0.317639 -0.314447 -0.665334 0.317087 -1.08028 -0.528354 0.227096 0.0787126 -0.423334 0.62756 -0.2847 -0.587679 0.22792 -0.358485 0.023476 -0.00402947 0.247755 -0.0907639 -0.050663 -1.42851 -0.297243 -0.880522 -0.695855 0.0573482 -0.670415 -0.732635 0.379759 0.0740554 0.242513 0.68421 -0.463647 -0.177932 -0.00537225 0.0727672 -0.0142551 0.58797 -0.395816 0.635182 0.525704 -0.44791 0.0580857 0.113578 0.610901 0.00644164 -0.607279 -0.134673 -0.145146 0.138895 -0.197105 0.161573 0.135478 0.314329 0.336451 -0.221081 -0.175939 0.174998 0.452807 0.14494 0.0210961 -0.270667 -0.0874468 -0.171222 0.284171 -0.201886 0.422041 0.23769 0.142599 -0.657029 0.0846043 -0.707929 0.713517 0.140055 -0.132978 -0.0845033 -0.505214 -0.320199 -0.541745 0.246991 -0.133133 -0.618028 0.197535 -0.534682 -0.276645 0.452414 -0.0129517 -0.359878 0.0581779 -0.465332 -0.0947196 -0.744807 -0.266547 0.631942 0.152923 0.334755 -0.0771598 0.126793 -0.53549 -0.197489 0.180386 -0.0140242 -0.139449 -0.11067 -1.29395 -0.293105 -0.0707759 -0.448538 0.520563 -0.143034 1.13057 0.0531195 0.677856 -0.519598 0.60432 -0.0393909 0.0864016 0.637917 -0.0582222 0.249389 -1.12438 0.724968 0.606754 0.900762 -0.0466323 0.329251 0.555193 0.269876 0.345778 -0.911658 -0.284703 -0.682115 0.191448 -0.55011 -0.716994 -0.19357 0.692854 -0.33054 0.210989 0.109972 -0.0503749 0.485781 0.550915 0.0979934 0.0721778 0.2853 0.0497769 -0.333654 0.344776 0.0935924 0.639316 -0.184586 -0.33748 0.0591251 0.323794 0.802278 0.860091 0.940926 -0.0970871 0.339337 -0.298732 -0.415038 -0.0910646 
-0.124831 -0.0940451 -0.228902 0.302773 -1.00924 -0.495688 -0.00272074 -0.417776 -0.0563735 0.917582 -0.409568 -0.653 -0.259859 -0.0623839 -0.293035 -0.562972 -0.112134 0.474088 -0.485092 -0.497499 -0.610938 -0.859243 0.388578 0.18496 -0.994752 -0.00341158 0.940002 -0.115536 0.663569 0.188008 0.214812 -0.200528 -0.236078 0.403671 -0.482453 -0.105029 0.436331 -0.5969 0.439006 -0.119706 0.853792 0.485826 0.248292 -0.090032 0.907723 0.477287 0.147575 -0.326685 0.399667 0.548424 -1.00015 0.0103311 -0.170919 0.271209 -1.0724 0.945697 0.184717 0.431285 0.582625 -1.14779 0.858867 1.18672 0.0714976 -0.00543891 -0.440182 0.457109 -0.218751 0.1377 0.268834 0.047024 -0.251181 0.0748915 0.0526535 -0.144563 -0.143866 0.537301 0.1744 -0.36041 0.131334 -0.435009 -0.101255 0.530385 -0.0518083 -0.0204473 0.492484 0.173135 -0.560139 -0.674114 -0.0838087 0.759924 0.59392 0.885497 0.456704 -0.104392 0.0666281 -0.300993 -0.287214 0.897125 0.389522 -0.236337 0.435139 -0.417309 -0.345568 -0.69601 0.115322 0.255912 0.704443 0.233303 -0.615392 0.4314 -0.198289 0.274415 0.187797 0.431535 0.292142 -0.455964 -0.428233 -0.306147 -0.265778 0.235286 0.25426 -0.935239 -0.048824 -0.00422475 -0.725571 -1.3774 -0.320942 -0.128802 -0.50023 0.464445 -1.13546 -0.0618551 -0.000316266 0.155391 -0.327555 -0.00862827 -0.186997 -0.980167 -0.387961 -0.602805 -0.202502 -0.18087 -0.258377 -0.0403881 0.542654 -0.437413 -0.821727 -0.0231194 -0.335537 -0.56279 -0.0572413 -0.478764 -0.565058 0.147267 0.136625 0.864392 -0.0128941 0.121542 0.642794 0.126614 0.335996 0.355961 -0.802453 -0.103819 0.913547 -0.526297 -0.199649 -0.624295 0.0280657 0.336551 0.960259 0.268556 -0.120938 -0.137369 0.687208 0.764889 -0.135234 -0.588345 0.188389 0.329651 -0.445514 -0.70529 0.145455 0.172973 0.604711 -0.196666 0.407118 0.781633 0.152859 0.283243 -0.104561 -0.539348 0.05563 -0.344145 0.325452 0.470512 -0.233078 -0.421781 0.61094 0.148571 -0.41313 -0.542231 0.317655 0.284407 -0.28529 1.10403 -0.179057 -0.489813 0.262256 0.294255 0.407614 -0.0921986 -0.231406 0.157559 0.83293 -0.46831 0.517107 -0.344919 0.155311 -0.173673 0.525286 -0.462657 0.371426 -0.389074 -0.58457 0.0430638 -0.461845 0.103093 -0.518878 -0.00911161 -0.416704 1.24776 -0.355749 0.12404 -0.0887467 -0.206074 0.30638 -0.140971 -0.433528 0.495678 -0.190183 -0.413915 0.858918 -0.244587 1.16654 -0.424241 -0.0805624 0.0690631 -0.156767 -0.428149 0.0606991 1.39053 -0.297369 0.378259 0.242517 -0.0892439 -0.220624 -0.846498 -0.413369 -0.315076 0.481064 0.718809 0.156329 -0.605936 0.0187109 -0.370782 0.553369 0.181788 0.378439 0.0759265 -0.26841 0.37967 -0.66132 -0.00402243 0.513081 0.333113 0.31516 0.201847 0.0241957 -0.122745 0.0968139 -0.404233 0.253212 0.00980315 -0.6996 -0.476857 0.758184 0.280926 0.359469 0.164973 0.216143 0.631372 -0.478882 0.335321 -0.443305 -0.210763 -0.443956 0.545522 0.00379412 -0.633004 -0.124869 0.43391 0.646751 -0.329725 0.283822 -0.196082 -0.101173 0.278995 0.153394 -0.543806 0.161137 0.084464 -1.20364 0.172347 0.211767 0.249044 0.55764 -0.130487 -0.178242 0.934793 0.281331 0.710445 0.238396 0.225788 -0.305224 -0.646728 0.494418 -0.210438 0.365758 -0.171623 0.189394 0.362713 -0.460699 -0.783945 -0.96736 -0.32364 -0.306376 0.663575 0.220293 -0.171949 -0.09974 -0.195659 -0.0627444 -0.192023 -0.211668 0.709227 0.0848176 -0.320411 0.278228 0.238274 0.705911 0.482123 -0.172842 0.546327 0.439649 0.481849 0.642593 0.0453387 0.251794 0.00764522 -0.281186 0.298123 0.0484466 0.0546622 0.518966 -0.253661 -0.444659 -0.472246 -0.711322 0.500373 0.430577 -0.537485 -0.797857 -0.410591 0.25689 -0.135883 0.335991 0.123748 -0.219542 0.2322 0.0772086 -0.18839 0.0946604 -0.0749349 0.1975 0.226917 0.386129 -0.376495 -0.187101 0.489201 -0.35594 -0.903753 -0.727097 0.271393 -0.335681 -0.696065 0.232437 0.360447 0.810041 -0.0666981 0.181691 -0.209059 0.607015 0.860758 -0.0168975 0.0561953 -0.434907 0.220894 0.160391 -0.211917 -0.477972 -0.340763 -0.113228 0.453888 -0.316735 0.433801 0.359007 -0.542698 -0.390569 0.380884 0.0349465 0.812715 0.605486 0.905798 0.0391839 0.150302 0.284318 0.187718 0.768101 -0.271071 0.982153 -0.354759 -0.322506 0.162687 -0.517559 -0.20507 -0.0142148 -0.271301 -0.699444 0.149631 -0.918027 0.517665 -0.180562 -0.605085 -0.416765 0.213235 0.455872 0.51469 -0.608223 0.388456 -0.363593 -0.501702 -0.0425164 0.348601 0.0355454 0.323531 -0.0419051 -0.0675519 0.470473 0.56668 0.691194 -0.231536 -0.424717 -0.188895 0.476736 0.292011 0.44209 0.671183 0.117754 -0.104037 -0.279705 0.00457669 0.213445 0.382522 -0.817915 -0.824514 0.411371 0.194515 0.678466 -0.813239 0.022141 -0.0282365 -0.470384 -0.129546 0.434024 -0.299178 0.141407 -0.598764 0.251829 0.604126 0.191701 0.124973 1.1134 -0.00362512 -0.500414 0.271241 -0.20539 0.376141 0.122827 0.41036 0.0264102 -0.735826 -0.305798 0.190992 0.404275 0.89019 -0.227337 0.236993 -0.447228 -0.842355 0.37978 -0.360285 -0.0273234 0.556874 -0.508638 -0.355123 0.0838387 0.206324 -0.145303 0.475245 -0.0528478 -0.245546 -0.411768 0.192572 0.338034 0.363954 -0.589855 0.84536 0.293265 0.299748 -0.702631 -0.338221 0.223816 -0.39424 -0.566281 0.0027173 0.371599 0.238645 0.234268 -0.265814 0.0224561 0.175317 0.0994246 -0.273523 0.0332263 -0.804295 0.234851 0.082407 -0.986922 -0.246708 -0.244079 -0.110687 -0.5 0.732613 0.660046 0.264331 -0.825784 0.251977 -0.176719 -0.472647 -0.117052 0.998072 -0.107772 0.623442 -0.181703 -0.705268 0.270871 -0.684031 0.814841 0.0144947 -0.450676 0.452669 -0.324067 0.0141142 0.106707 0.913184 0.384764 0.311137 0.175486 0.924442 0.413193 -0.111031 -0.0333041 -0.178067 -0.63871 -0.0606478 0.799867 0.56763 -0.218486 0.916537 -0.262133 0.291075 -0.269008 0.377869 0.466464 0.13952 0.101293 0.440726 -0.598811 0.301156 0.0739813 0.0437728 0.0686422 -0.309771 -0.680065 0.0103722 -0.273641 0.422004 -0.263284 0.228076 0.62776 -0.0129387 -0.33462 0.174788 -0.403377 0.299925 -0.155995 -0.516369 0.238357 0.192644 0.0854352 -0.0239944 0.0615439 0.444122 0.293088 0.298241 0.353168 -0.613387 0.0823326 -0.311855 -0.579144 0.387942 -0.12742 0.140626 -0.515628 -0.490324 0.0847692 0.316147 -0.0901507 -0.0152809 0.69027 -0.92601 0.273292 -0.840369 0.607768 -0.6019 -0.317497 -0.363819 0.289823 -0.304428 -0.365926 0.0910151 0.138606 0.190708 0.275202 -0.129485 -0.623465 0.333463 -0.124425 -0.283356 -0.605208 0.239156 -0.155079 -0.164859 -0.303539 -0.236709 0.991141 -0.850362 -0.067856 0.0958301 -0.130175 -0.768319 -0.0333863 -1.02156 -0.600707 -0.475944 -0.395003 -0.130944 0.410487 -0.318304 -0.0964205 -0.274254 0.171436 -0.0406597 -0.309179 0.0788719 -0.2554 -0.467361 -0.18875 -0.175049 0.254344 -0.468424 0.700181 -0.408826 0.0761304 0.351748 0.44727 0.281577 0.561612 0.366025 -0.218471 -0.241003 -0.390631 0.0529319 0.295552 0.289453 -0.768111 -0.211461 0.147639 0.542128 0.02337 0.402955 0.46153 0.459805 0.139481 0.323067 -0.139595 -0.344767 0.911264 -0.590451 0.848775 0.5097 -0.0637297 0.038618 -0.917468 0.401301 0.248992 -0.221204 0.057623 -0.148038 -0.418179 -0.617247 -0.0303518 0.867877 0.503891 0.28752 0.0352594 -0.364552 -0.195223 -0.194381 0.278695 1.11257 0.417188 -0.0768242 -0.80435 -0.147847 0.322395 0.527357 -0.409252 0.711782 -0.23635 0.200622 -0.746932 -0.33087 -0.29398 -0.300885 -0.0565657 -0.160152 -0.205267 0.0773404 -0.178929 0.349527 -0.770812 0.699282 -0.869227 -0.375714 -0.836555 0.293303 0.98656 -0.289253 1.03139 -0.629558 0.142039 -0.316002 0.38956 -0.0383009 0.359822 -0.127339 0.18754 0.0478696 -0.550312 0.0351146 -0.08857 0.180713 -0.802826 -0.614738 0.263986 0.0453198 -0.496048 0.124653 -0.186713 -0.0516933 -0.128593 -0.559299 0.128266 0.264301 0.373826 -0.354233 -0.612981 0.555441 -0.472534 0.655674 0.221499 -0.092168 0.329239 0.161473 0.240962 -0.622434 0.440784 0.488027 -0.305156 -0.333942 -0.994895 -0.570337 -0.768532 -0.0514565 -0.30534 0.13749 0.174881 0.310813 0.241584 -0.151629 -0.0243896 -1.46903 0.142072 -0.101184 -0.0955032 -0.448655 0.719982 -0.536713 0.404976 0.626377 -0.152736 0.180378 0.192055 -0.035294 0.87041 -0.0759866 0.65573 0.152117 -0.0147931 -0.00300744 -0.448271 -0.12802 0.308739 -0.505974 0.706884 -0.282861 0.801859 -0.0394089 -1.22174 0.121272 -0.00362085 0.0735257 -0.235584 -0.408813 -0.556211 0.17117 -0.549796 -0.318193 -0.376181 -0.0406736 0.0895241 -0.0283981 -0.711002 0.688812 0.278291 -0.19447 0.244664 -0.620033 -0.290473 -0.260894 -0.84371 -0.342526 -0.614202 -0.352333 0.122864 -0.399327 -0.277187 -0.394376 0.0776699 0.637253 -0.137623 -0.0779161 -0.618224 0.926859 0.119795 -0.57642 -0.371942 0.155606 -0.16387 0.25477 -0.301765 0.08316 0.608747 0.682876 0.47394 -0.148226 -0.0819307 0.286559 0.820813 0.436967 0.293003 -0.453961 -0.118162 -0.000410629 0.0967593 0.0609205 -0.595953 -0.325438 -0.240697 0.232551 0.0116183 0.528657 -0.329004 0.303644 0.0822524 0.327513 0.450894 -0.0938476 0.0766387 -0.135324 0.190205 -0.0688593 -0.247344 -0.253772 0.525315 0.899775 -0.658906 0.237418 -0.152761 -0.320725 -0.437244 0.371331 -0.468326 0.268439 0.129486 0.166798 0.337356 0.0684535 -0.355064 0.567415 0.076991 -0.633732 0.348663 0.715945 0.237902 0.469534 -0.655529 -0.297982 0.198344 0.3029 -0.00382932 0.0104687 0.516028 0.379898 0.337813 0.572569 -0.754053 0.647018 0.294872 -0.554607 0.342727 0.428601 0.252048 -0.00837698 -0.543087 0.621639 -0.615529 0.504781 0.195092 -0.542305 0.287941 -0.124157 -0.595838 0.386198 -0.295432 0.394509 -0.479532 -0.123979 0.460967 0.565475 0.65174 -0.711539 -0.132779 -0.376974 -0.336173 0.0476417 -0.608343 0.349402 -0.395094 -0.102673 0.232165 -0.352558 0.139114 0.514743 -0.0351974 0.382811 -0.48419 0.118873 -1.03851 -0.118798 -0.536961 0.708299 -0.704004 0.596525 -0.223658 0.248619 -0.191424 -0.0936554 0.920742 0.225822 -0.157234 -0.0812432 0.459518 0.12253 -0.438108 -0.0372965 0.18735 0.366227 -0.148523 -0.374492 0.985546 -0.504814 
0.582325 -0.806124 -0.245017 0.106026 0.00150409 0.108438 -0.139297 0.361983 -0.272601 -0.918806 0.0908005 -0.138632 -0.532091 -0.204546 0.436584 0.245926 0.295176 0.634587 -0.103061 -0.153033 0.0059934 0.463829 -0.118993 -0.0326125 0.0653554 -0.116563 0.418972 0.394212 0.235599 -0.514266 0.634083 -0.490576 0.234612 0.289957 -0.719343 0.0865317 0.487079 0.0848064 -0.371387 -0.486078 0.567319 0.176529 -0.520204 -0.143945 0.291032 0.103012 -0.529778 1.0024 -0.179509 0.144629 0.566206 -0.585456 0.0232973 -0.0298131 -0.60114 0.0272678 -0.555526 -0.431088 0.257447 -0.0957318 -0.0456566 0.671819 -0.376349 -0.687648 0.472559 0.0442297 -0.219459 0.113753 0.0742572 -0.0107553 -0.235146 -0.223224 -0.308133 0.331081 -0.702641 -0.200579 -0.940866 0.076095 -0.3583 -0.590038 0.191134 -0.564608 0.493105 -0.332344 -0.0790927 0.444513 0.199538 0.334464 0.0452157 -0.199151 0.0685752 -0.109307 -0.138172 -0.362078 -0.135219 -0.459695 0.0366416 -0.314113 0.527662 -0.0213464 -0.162722 0.617546 -0.0135369 0.0226632 0.454808 -0.0469997 -0.828664 0.257398 -0.032291 -0.357867 -0.291352 0.542482 0.487807 -0.259829 0.402457 -1.08166 -0.30445 0.353241 -0.505553 -0.169348 0.431482 -0.348101 0.213461 -0.023233 -0.203494 0.256627 -0.24652 0.416761 0.602045 -0.186553 -0.0696951 -0.148885 -0.217617 -0.214537 0.567586 0.0376896 0.0814908 -0.121331 -0.0184254 0.499713 0.565246 -0.762992 0.155503 -0.0618843 0.199637 -0.133273 -0.22446 0.628581 0.544181 -0.209155 -0.14621 0.401918 0.0421893 -0.0606215 0.334348 0.559502 0.11932 0.739558 -0.359523 0.75111 -0.0290098 0.892586 -0.125821 -0.241868 -0.129176 0.146957 -0.208141 0.208103 -0.167145 -0.044184 -0.49841 0.950744 0.573203 -0.962022 0.646412 -0.239035 0.92925 -0.107593 0.277256 0.516973 0.627705 -0.291082 -0.807061 0.0719766 0.0395483 0.879354 -0.106427 0.449815 0.0989828 0.492383 -0.0123555 0.141778 0.0961216 0.661236 -0.0289777 0.735133 0.176076 0.0855317 0.654437 -0.4404 0.153162 -1.32147 0.0830398 -0.340114 0.444265 1.04293 0.382675 -0.694464 -0.153163 0.412959 0.00315711 0.206198 -0.230759 0.857557 -0.585642 0.744021 0.132824 0.336034 0.309613 0.0751601 -0.210793 0.540546 -0.800625 -0.839201 -0.962954 0.267108 -0.858368 0.304877 -0.274155 0.2666 -0.320549 0.686783 0.194926 0.0404537 0.196188 0.406384 0.112484 0.241272 0.439842 0.200226 0.0682884 0.727662 0.429498 0.260124 -0.301144 -0.214361 -0.171389 -0.632064 -0.194337 -0.643337 -0.591846 0.508644 0.270694 0.600893 0.273308 0.549247 -0.297575 0.629322 0.818003 -0.30373 -0.458291 -1.09495 -0.316591 0.336435 0.659851 -0.326488 -0.451727 -0.0199969 0.10804 -0.632981 -0.250653 0.24558 0.0231601 0.553767 -0.0457195 -0.547736 -0.00111064 -0.370437 0.308126 -0.15986 0.121695 -0.215616 -0.0473833 -0.73725 -0.231919 0.0816189 -0.73016 0.00664546 -0.0497839 -0.39766 0.172629 0.260691 0.693667 -0.00941367 -0.0825303 0.535879 0.507456 -0.506326 -0.524685 -0.0364382 0.0826013 -0.166485 0.126808 -0.176661 0.708868 0.738645 -0.311722 0.167517 0.401848 0.132769 0.313964 0.785681 0.128277 0.353329 -0.268855 0.25409 0.122299 -0.472479 -0.211556 0.306339 0.117858 -0.145524 0.365704 -0.808613 -0.0795056 -0.903391 -0.25442 -0.331989 -0.344583 -0.497348 -0.698737 -1.02645 0.532585 1.11301 0.440264 -0.509916 -0.310564 0.372493 0.822892 0.0437955 0.328454 0.722892 -0.288212 -0.380093 0.179978 -0.560246 -0.898355 0.852318 -0.453628 -0.293994 -0.541489 0.197322 -0.939412 -0.718779 0.382274 0.439099 0.29662 0.771284 0.113121 -0.187011 -0.314908 0.173243 0.417912 0.0408681 -0.148739 0.0825316 0.105487 0.735803 -0.560628 0.723936 0.272405 0.408768 -0.0128157 -0.571415 -0.308741 -0.339538 -0.592112 -0.699629 0.0257805 0.47003 0.15613 0.469125 -0.0493667 0.35237 0.655645 0.0845236 -0.756482 -0.44038 -0.166548 -0.809242 0.0179925 -0.428714 0.60547 -0.411573 0.0218857 0.366912 0.292441 0.477639 -0.286038 -0.478531 -0.0457834 0.513916 0.629686 -0.580352 -0.214454 -0.106606 -0.157353 -0.13841 -0.661589 1.1127 -0.378673 0.347929 0.270235 -0.0394867 0.0912151 0.0161263 0.22256 0.543512 -0.483755 0.267937 0.0448195 -0.649901 0.494716 0.33498 -0.762777 -0.0624222 0.0248479 0.405823 0.00315466 -0.129174 0.109773 0.286012 0.409199 0.405539 0.0602756 0.216353 0.330626 0.125658 0.072023 -0.389198 -0.745271 0.529015 -0.239994 0.0414061 0.715318 -0.221376 0.235198 -0.039103 -0.452892 0.353423 0.37233 -0.923643 0.107073 -0.273353 0.317447 -1.06008 -0.0452318 -0.0314134 0.102888 0.408308 0.131588 0.224992 0.00672153 -0.131979 -0.0722739 0.28265 -0.353235 0.123224 -0.10115 -0.546147 -0.640391 0.305145 -0.737733 0.404594 0.453304 0.0697477 -0.689691 0.113484 0.00877365 -0.542258 0.539176 -0.0271885 -0.792551 1.36213 0.372104 0.11539 -0.00492633 -0.0878423 -0.515217 0.223226 0.12883 0.426934 0.335216 -0.0821296 -0.574053 0.106203 -0.584438 -0.334645 -0.441788 -0.0108639 0.300989 0.0440819 0.699139 0.235288 0.0234699 0.292808 0.322189 0.569751 0.112845 0.30142 -0.161551 -0.173529 -0.504428 0.582244 -0.394869 0.399127 -0.139612 0.118494 -0.211105 -0.856846 -0.617216 -0.056127 0.219563 -0.834049 0.565338 -0.474434 -0.0785056 0.0711722 0.834184 -0.0122007 -0.744251 0.262946 0.166689 -0.221669 0.454576 0.461468 0.797429 0.0568229 -0.767947 0.580655 -0.752208 -0.317603 0.817251 0.285413 1.24247 -0.488891 0.456587 -0.479925 -0.244034 -0.22501 -0.469189 -0.229643 0.140953 -0.162239 0.264735 0.210039 0.842922 0.204505 -0.536532 -0.293483 0.154468 -0.0143879 0.44316 -1.11525 -0.306517 0.321088 0.53547 0.171816 -0.160402 -0.838241 0.16586 0.0220152 0.0361342 0.480126 -0.583772 0.176373 0.100336 -0.25354 0.533023 -0.413235 -0.385736 -0.0608314 -0.11025 -0.261394 -0.172865 -0.43081 -0.201966 0.0264292 -0.150092 0.0106443 -0.514706 0.380734 -0.881269 0.633749 -0.229047 -0.222499 -0.378712 -0.335986 0.0234857 -0.184247 0.0681619 0.31203 0.496962 -0.082835 0.350926 0.427295 -0.59864 0.529286 0.307518 0.242085 -0.37497 -0.193455 -0.36784 1.18745 0.158464 -0.268736 0.554811 -0.190521 -0.111129 -0.10365 -0.107356 0.161788 -0.165693 -0.351818 -0.30689 0.129184 0.272703 -0.725763 0.585893 -0.000176371 0.268043 -0.579534 -0.0177109 -0.51805 -0.274653 0.926396 -0.0125955 0.0350267 -0.40958 0.589325 -0.038692 0.166847 -1.20991 0.110415 -0.0954265 0.663266 -0.149766 -0.059446 -0.314594 0.244885 -0.523689 0.676925 -0.796609 -0.285402 -0.488915 0.166324 0.0491617 -0.126132 0.072342 0.259673 0.218792 -0.3359 0.522179 -0.122609 0.0203309 -0.120257 -0.0159351 -0.43541 0.77863 0.222646 0.403762 -0.141157 -0.0491087 -0.0415309 0.199162 0.535993 0.201094 -0.282163 0.151961 -0.74647 -0.0211348 0.110571 0.401384 -0.155375 0.150981 0.541906 0.415705 -0.00711396 0.166921 -0.145073 -0.754119 -0.0534849 -0.314102 0.362168 -0.316086 1.00675 -0.441491 0.0944603 0.00347891 0.702 -0.51894 -0.661813 0.779472 0.664478 -0.50432 -0.989402 0.221625 -0.553829 -0.556272 0.620848 -0.523094 -0.116612 -0.0704546 0.38063 0.299295 -0.22211 -0.61381 0.372428 0.119173 -1.09867 0.618656 -0.0228019 -0.392563 0.192698 0.161802 0.301496 0.331354 -0.922333 0.1998 0.220879 -0.0285115 1.00579 -0.0622595 -0.325581 -0.20523 -0.628914 -0.250625 -0.408011 0.0154462 -0.234587 0.345522 0.172242 0.0536688 -0.0861666 -0.130785 -0.0142978 0.00446391 -0.13089 0.140184 -0.415516 0.69157 0.324797 0.467888 -0.650942 -0.487079 -0.366279 0.520834 -0.452777 -0.49855 0.283104 -0.368366 0.00542012 0.624089 0.324176 0.0829008 0.216448 -0.28527 0.244373 0.0668264 0.300908 -0.160146 0.740864 -0.613457 0.0672857 -0.114208 -0.125253 0.342429 -0.33296 0.199013 0.641827 -0.325046 -0.918626 0.359672 -0.407557 0.102417 -0.41555 0.269145 -0.171425 0.684555 -0.302442 -0.45587 0.258811 -0.28947 -0.085173 -0.0274059 0.934654 -0.229626 -0.150436 -0.0593003 0.0676418 0.0483739 -0.525995 0.223213 0.150288 0.59438 0.667472 -0.242112 0.677734 0.367061 -0.508411 0.212674 0.371537 0.737642 0.208384 0.00772186 0.0592844 1.08916 -0.0763849 0.657962 0.062664 0.0870906 0.576302 -0.201229 -0.0668959 -0.274297 -0.431649 -0.664945 -0.821387 -0.844859 -0.0216668 0.624122 -0.279656 -0.3081 -0.0653603 0.542701 0.0398328 0.11004 0.442749 -0.775853 -0.112182 -0.873454 -0.258129 -0.485794 0.0380872 0.167658 0.0585929 0.180564 -0.0934129 -0.554554 0.311006 -0.179822 -0.906564 -0.500142 -0.569772 -0.0214029 0.303617 0.543165 -0.0698123 -0.12086 0.582186 0.12323 0.104954 0.750406 0.012573 0.862323 -0.0393891 0.235508 0.783434 -0.233358 -0.277572 0.0689539 0.287794 0.00168188 0.740699 0.52366 -0.0571011 -0.047201 0.965429 0.805898 0.0827697 0.939035 -0.335742 -0.985802 -0.372897 0.275534 -0.360675 0.702837 -0.240422 0.0339285 0.772379 0.522418 -0.19415 -0.584695 -0.583288 0.526664 0.126462 0.158178 -0.287625 -0.464602 -0.242296 -0.240028 -0.00939152 -0.518452 -0.539547 0.147895 -0.701958 -0.199418 0.31347 0.179492 0.145309 0.0912776 0.636943 -0.176234 0.217355 -0.181274 0.459055 0.103736 0.526346 -0.168517 0.0962406 -0.0671097 0.304677 -0.418535 0.165316 0.193273 -0.474325 0.317976 -0.398355 -0.156974 -0.213174 -0.0998302 0.102941 0.140764 -0.151591 -0.109153 0.0649034 -1.41072 -0.0110725 0.26574 0.324615 0.232212 0.189677 -0.0727208 0.0852771 -0.469994 0.0765258 -0.615596 -0.531816 0.134224 -0.302253 1.10353 0.120796 0.301724 0.187945 -0.454418 -0.55525 -0.8119 -0.130706 0.0293507 0.0128235 -0.0268081 -0.357447 -0.162641 -0.162341 -0.607893 -1.08116 0.477464 -0.625052 0.389306 0.0403826 -1.10602 0.654317 1.15328 -0.167426 -0.659039 0.486466 0.265555 0.0367428 -0.406418 -0.117851 0.121406 0.0136494 -0.54647 0.208046 0.0306664 0.627551 0.189319 0.282601 -0.33702 0.146659 0.447376 0.544408 -0.183693 -0.303286 -0.600854 -0.26225 -0.516011 0.127093 -0.070973 0.39604 1.24978 -0.307634 -0.195392 -0.31272 -1.24838 0.227731 0.11907 -0.266015 -0.570886 -0.12292 0.0713211 -0.14949 1.09049 0.224381 -0.0745684 0.186858 0.712978 0.346703 0.24617 0.165602 0.723169 -0.566863 0.908049 0.415265 
0.251587 0.824724 0.119291 0.0280222 -0.342776 0.126216 -0.145861 0.328279 -0.449837 -0.0191991 0.0850532 -0.142425 0.536569 -0.123452 0.582713 -0.514677 -0.74 0.137747 0.257127 0.228592 -0.518675 -0.200664 0.40821 -0.564631 -0.661176 -0.33557 0.672947 0.118769 -0.0972669 0.105125 -0.0767819 -0.277829 -0.538626 0.443282 -0.111122 0.25037 -0.309114 -0.14553 0.0290235 0.0638022 -0.745055 0.189732 0.965762 -0.124918 -0.457069 0.86196 0.51149 -0.172868 0.0379508 -0.293051 0.32092 0.232478 -0.454433 0.173367 -0.332498 0.291682 -0.018197 0.300009 0.175208 0.0762543 0.0214744 0.113951 0.351403 -0.232219 -0.0482175 -0.23364 0.00175547 0.261859 0.998655 -0.113948 0.0822246 0.497267 -0.596925 0.454302 0.039043 0.667269 -0.497035 0.584766 -0.113664 0.957577 -0.022044 0.455761 -0.184347 0.461039 0.392861 0.235127 0.335665 -0.27462 0.495521 -0.271676 0.316736 -0.745103 -0.49846 0.131957 0.0732391 0.326436 -0.358012 0.638202 0.0755646 0.184707 -0.159325 -0.105196 0.235575 -0.276607 0.181793 0.128258 -0.218475 0.189968 0.095821 0.0933282 0.112201 0.037095 0.143783 0.447484 -0.231427 -0.554088 0.333178 0.162947 0.598625 0.21883 -0.648486 0.341635 -0.952879 0.225641 -1.22716 -0.0994677 0.60676 -1.23249 -0.437143 -0.342285 0.00146008 -0.373536 0.230536 -0.741998 0.423199 0.245041 0.509689 -0.257494 -0.243482 -0.590129 0.391323 -0.100175 0.119451 0.518554 0.181118 0.340641 -0.433967 -0.364947 -0.0131347 -0.0092478 0.0565143 0.00277441 0.413602 0.223861 0.36293 0.22324 -0.687986 0.490232 0.141965 -0.13213 0.261643 0.64703 0.128465 -0.16842 0.0355095 0.241728 -0.169936 0.198568 -0.494403 0.0860582 -0.876174 -0.14888 0.0621574 -0.37948 1.43281 -1.00062 -0.027367 0.434825 -0.791814 -0.215132 0.0446876 -0.123708 -0.297197 0.142117 -0.123898 0.382277 0.0615439 0.0676692 -0.119136 -0.476746 -0.306622 0.456652 -0.0582324 0.0836319 0.293774 0.0215002 0.410123 -0.191907 0.117532 -0.692079 -0.132596 -0.0625716 0.864835 -0.227549 -0.154842 0.726965 -0.752029 0.249509 -0.3891 -0.451092 0.0719416 -0.459205 0.00127425 0.435091 -0.0387611 0.578015 -0.451432 -0.203148 0.338705 -0.590535 -0.935987 -0.283606 1.00491 0.884615 0.00534827 0.258104 -0.474536 -0.242843 -0.471459 -0.394982 -1.58062 -0.81348 0.604369 0.418819 0.335945 -0.191368 -0.451102 -0.164615 0.461704 -0.331354 0.507856 0.314017 -0.0413319 -0.456223 -0.128826 -0.221136 0.48641 -0.30086 -0.53883 0.366977 0.502553 -0.343664 0.535148 0.255704 0.364026 -0.0642159 -0.326819 0.233345 0.488725 0.56385 0.431465 0.137919 0.88896 -0.330533 -0.376703 1.02305 -0.608365 -0.0117873 0.615133 -0.0163683 -0.0727249 0.231811 0.145723 0.63304 -0.23886 -0.610829 0.767073 0.787586 0.873345 -0.47334 0.60521 0.456662 -0.103803 0.351485 0.397221 0.526551 0.119164 0.128801 0.251495 -0.2198 -0.00104639 0.273414 0.0902891 -0.0516499 -0.342285 0.0235851 -0.404304 -0.0626301 0.363926 0.599162 0.069194 0.728368 -0.282987 -0.580478 0.0607035 -0.266321 -0.0839725 0.128654 0.672348 -0.432765 0.0515406 0.308453 0.528005 -0.185583 0.077287 0.222693 -0.206115 -0.767004 0.254103 0.930532 0.0667445 -0.654134 0.129883 -0.369536 0.0458198 -0.338592 -0.0774607 0.445383 0.820303 0.0843661 -0.0411808 -0.60105 0.270819 0.0201116 0.386621 0.121737 -0.0636105 0.156242 -0.0446904 -0.0072099 -0.134967 0.0922326 0.156839 0.678293 -0.24784 0.119668 0.392236 -0.126445 0.370957 0.114499 0.206087 -0.0716893 0.311958 0.205346 0.140858 -0.664034 0.699093 -0.251406 -0.204761 -0.298025 0.0595296 0.497714 -0.397849 0.0573684 -0.819474 -0.394394 -0.126423 -0.0996101 0.432246 -0.602065 0.0881336 0.0331207 -0.584038 0.965202 -0.0331016 -0.0524788 -0.346548 -0.330205 0.712264 -0.197008 0.329291 -0.415599 -0.00257065 -0.591551 0.223889 0.0687823 0.407693 -0.405321 0.780634 -0.290855 0.890359 -0.726507 0.02609 0.965589 -0.657561 -0.268149 8.63251e-05 -0.747882 0.74137 -0.312769 0.202315 -0.465668 0.612044 -0.25148 0.260306 0.419484 0.91833 0.0459732 -0.482966 0.392017 0.83114 0.335239 0.473063 0.257041 0.949098 -0.146866 -0.657241 -0.163191 0.0584301 -0.849106 -0.134958 0.0675597 -0.587371 0.0943649 -0.584112 -0.0301568 0.265845 -0.00980971 -0.785037 -0.644259 -1.38682 -0.683744 -0.0106994 0.520422 0.255943 -0.0632103 -0.936409 -0.4425 -1.12013 -0.472309 -0.0592548 0.441323 0.0945997 0.22621 0.114398 0.100644 0.452393 -0.0322018 -0.55843 0.351319 0.735537 0.0645418 0.539877 0.475713 -0.37652 -0.645604 0.218452 -0.28427 -0.0905979 0.427461 -0.718556 0.254769 -0.500963 -0.756342 -0.581082 0.31197 -0.425469 0.0930935 0.584445 -0.26941 0.582165 -0.109168 0.714312 0.197617 -0.608019 -0.593535 0.132414 0.918199 0.526946 0.340252 0.0247218 0.0634337 0.852523 -0.00692534 -0.205088 -0.38643 0.19689 0.313874 0.781451 0.0619314 -0.874717 -0.592824 0.0368661 -0.213825 0.686716 -0.249231 -0.71171 -0.151596 0.741574 -0.408702 -0.0397951 0.0781851 0.0650509 0.905337 0.393829 0.176927 -0.326296 0.0264848 -0.112248 0.230657 0.00871156 -0.0607695 0.491444 -0.0598887 -0.150265 0.15002 -0.330098 -0.436966 -0.299348 0.596413 -0.0514785 0.40768 -0.816667 -0.951225 -0.353337 0.486396 0.265904 0.245478 -1.22455 -0.0106819 -0.227378 -0.162415 -0.054712 -0.512118 -0.0018925 -0.336262 -0.0417606 -0.187102 -0.0611172 -0.0108417 -0.99508 -0.570733 -0.0877471 0.212157 -0.234549 -0.294836 0.274203 0.56374 -0.583792 0.0760979 -0.0657538 -1.01976 0.973677 0.177728 0.823294 0.386409 -0.459368 0.115686 0.1877 0.275233 -0.303696 -0.0402776 0.146782 0.311826 0.212775 0.371491 -0.799386 -0.131155 0.0195005 0.0948116 0.568151 0.052014 0.799753 -0.120449 -0.140746 -0.172968 -0.571918 -0.107858 0.107823 0.554436 -0.597168 -0.45624 0.46414 0.366384 -0.448623 -0.503555 0.121292 -0.0978994 -0.379854 -0.210594 -0.526763 -0.393618 -0.631572 0.219384 0.50014 0.54497 0.151278 -1.01342 -0.312141 0.177463 -0.256284 -0.329273 -0.630656 0.629286 -0.324491 -0.390467 0.222507 -0.510552 -0.837998 -0.125794 -0.716623 0.828627 0.297751 -0.304963 -0.0483137 0.154102 0.759442 0.630224 -0.614271 -0.443807 0.796521 0.307419 -0.154713 0.526022 -0.167256 -0.482536 0.886806 -0.13624 -0.0924365 0.319809 0.413454 -0.186889 -0.151891 0.838439 -0.448335 -0.168956 -0.360037 -0.536113 0.346966 -0.197042 -0.262297 -0.0579169 0.150368 -0.867089 -0.00798653 0.46354 0.423356 0.603494 -0.147761 -0.273818 -0.548985 -0.559444 0.0880424 -0.0913237 -0.664139 0.132666 0.567232 -0.467425 0.714721 0.5422 0.902981 0.225771 -0.00490564 -0.447285 0.0975108 0.418637 0.503038 -0.100774 -0.914582 0.00318706 0.36658 0.145019 -0.480226 -0.252145 -0.0769486 -0.244334 -0.422113 -0.347532 -0.558068 0.383196 -0.0287422 0.415148 -1.40803 0.0559776 -0.955024 -0.0314644 -0.351476 -0.570885 -0.0970766 -0.235604 0.638704 -0.0531055 -0.0163575 -0.0857479 -0.568491 -0.32912 -0.456806 0.0748492 0.116063 -0.163097 -0.21933 0.230509 0.218956 -0.486685 -0.348954 -0.250607 -0.0813021 0.227938 -0.0598465 -0.864006 -0.262865 0.346698 -0.177597 -0.265355 -0.399751 -0.292728 0.18296 0.53174 0.0318734 -0.158495 -0.0514853 -0.069718 0.507264 0.30689 -0.5759 -0.706148 -0.511992 0.0416815 0.252132 -0.103884 0.013069 -0.412441 0.0169508 0.866078 -0.516825 0.103169 0.874288 -0.719721 -0.15048 -0.11382 0.410125 -0.401234 -0.538821 -0.0671975 0.229111 -0.867843 0.51944 0.0829108 0.457006 0.114246 0.239351 -0.388074 0.048225 -0.0167431 0.536878 0.0327384 0.389011 1.25476 0.0988965 0.0747132 -0.48533 0.178088 0.393638 0.394781 -0.457796 0.123413 0.386292 0.741218 -0.0477755 0.350788 -0.120634 0.0401241 0.36181 -0.323923 -0.414876 -0.19271 0.406007 -0.909779 0.0477749 0.205235 -0.261567 -0.420374 -0.176094 0.0823042 -0.857851 -0.523383 -0.423803 0.306411 -0.318872 -0.285237 0.419993 0.17551 -0.96855 0.539975 -0.120173 -0.0106035 -0.306966 0.222967 -0.534853 -0.400914 0.172452 0.0387057 -0.215439 0.240853 0.105509 0.281816 0.521598 -0.286679 0.506021 0.126935 -0.0410007 -0.132457 -0.0130109 -0.428697 0.533927 0.217478 1.07868 -0.104732 0.378139 0.0809774 1.38348e-05 0.270555 -0.484728 0.0292977 0.212094 0.733111 0.560085 -0.0991689 -0.423015 -0.807888 -0.409121 -0.175525 0.510001 -0.157101 0.260824 -0.150357 -0.302174 -0.818564 0.119909 -0.284671 0.447381 0.137228 0.337803 0.261109 0.411042 0.849123 0.0576982 -0.0641633 0.226368 0.509798 -0.774944 -0.571339 -0.00418533 -0.0186244 -0.0584993 0.23244 -0.44964 -0.0969796 -0.252538 -0.159388 -0.102988 0.239116 0.720068 0.442419 0.0892659 -0.0392371 -0.397579 -0.127629 -0.043132 -0.32408 0.30542 -0.0946979 -0.709002 0.708812 0.018892 0.271266 0.323197 -0.0194978 0.65778 0.543415 0.334994 0.107604 0.174587 -0.464433 -0.341709 0.329664 -0.121531 -0.0909266 -0.475857 0.103197 -0.239941 0.36627 -0.0249523 0.444828 -0.678973 -0.330098 -0.286732 -0.0255162 -0.449153 0.316984 -0.411271 -0.00855803 -0.420189 -0.66979 0.855839 0.107958 0.886325 0.190951 -0.534748 0.433529 -0.0954236 -0.145026 0.188014 -0.0231457 -0.360708 0.130465 -0.0706123 0.167021 0.531804 -0.269255 0.0722789 -0.11139 -0.212296 0.155514 1.17349 -0.102161 0.283935 0.154599 0.71088 -0.0528617 -0.106786 -0.0888499 -0.0303995 0.337622 -0.132519 -0.330299 -0.802786 -0.0196508 0.165319 -0.253672 0.507565 0.206838 0.0531797 -0.996945 0.111325 0.3128 -0.705531 1.17664 -0.385922 -0.00560719 0.13586 -0.38877 -0.109767 -0.31174 -0.0131357 -0.0304071 -0.365163 -0.0959819 0.0307923 -0.41427 0.265955 0.0631833 -0.0813099 -1.21489 -0.582448 0.66834 0.182273 0.0516547 0.551809 -0.591197 -0.416285 -0.689728 0.161552 0.0743731 -0.540451 0.110111 0.716157 -1.09067 0.413664 -0.0427656 -0.0654096 -0.179386 -0.733646 0.101042 -0.0735257 -0.289938 -0.447897 0.397931 -0.218417 0.345028 0.287447 -0.281172 0.158198 -0.0224263 0.0720158 0.400122 -0.215384 -0.0779983 0.419086 0.46606 0.9108 -0.112274 0.489959 0.464648 -0.403102 0.302689 0.240812 -0.115444 -0.631049 -0.227269 0.458792 -0.773946 -0.016636 -0.385447 -0.267459 -0.301369 -0.796078 0.344597 -0.666748 0.626691 0.274226 0.0819459 -0.662452 0.108928 
0.103119 -0.1965 -0.87046 -0.00889736 -0.144837 -0.410184 0.453911 0.146502 -0.478057 -0.434151 -0.545646 0.199709 0.241626 0.156036 0.250123 0.431611 0.688175 -0.060986 -0.124167 0.148104 -0.335713 0.27186 1.14656 0.771561 -0.554554 0.153746 0.0974783 0.211317 -0.539849 -0.507325 -0.18696 0.0459144 0.39988 0.628633 0.204571 -0.276222 -0.491535 0.00984366 -0.0276617 -0.360855 0.235133 -0.164987 -0.579062 0.348222 -0.481899 -0.0643791 1.42652 -0.301042 -0.540271 -0.197381 -0.21524 -0.172002 0.341555 0.553038 -0.166857 0.319202 -0.576196 -0.878761 -0.0264439 -0.284934 0.495719 -0.0281866 -0.334249 -0.000617492 -0.831945 -0.491911 0.0540591 -0.0265073 0.0551403 0.0827071 -0.0567165 0.00757311 0.408743 -0.197095 -0.130127 -0.183327 0.321847 -0.868183 0.74643 -0.0306282 0.310938 0.0591777 0.609008 0.17244 -0.715444 0.66797 -0.613954 -1.1652 0.353129 0.100192 0.0561633 -0.291561 -0.0413455 0.233108 -0.15526 0.0225796 0.505178 0.258264 -0.622674 0.712409 0.284703 -0.184381 -0.424142 -0.342171 0.0546985 0.182489 0.017907 -1.06773 -0.281836 0.353508 0.318099 0.68725 0.169676 -0.110817 0.0321819 -0.145647 -1.24956 0.272482 -0.48116 -0.113039 0.385426 0.202977 -0.102529 -0.651667 0.932626 0.360788 1.01702 0.498763 -0.574317 0.37725 -0.185307 0.128397 -0.277232 -0.186145 0.940547 -0.25114 -0.256518 -0.219897 -0.957669 -0.558729 -0.132681 -0.817644 0.1391 0.206664 0.322374 -0.0758694 -0.920767 -0.0885648 0.22324 -0.260259 -0.3454 -0.374376 -0.0190272 0.479151 0.212417 0.28087 0.00889499 -0.0318953 -0.183143 0.19049 0.66578 0.641735 -0.707046 0.0462118 -0.0882196 -0.668109 0.109691 -0.125928 0.487095 0.320576 0.15805 -0.086229 0.396612 -0.0937267 0.246437 0.286077 0.0982343 -0.324851 0.492661 1.28008 0.251772 0.24132 -0.215436 -0.751256 0.306313 -0.711846 -0.193909 -0.455934 0.514759 0.0920686 0.107111 0.0551832 -0.27387 0.082748 -0.766422 -0.00347161 0.054097 0.166001 0.0811654 -0.197804 -0.818829 0.923652 -0.14238 0.409021 0.0920819 0.0161009 0.559608 0.200038 0.648106 0.107717 0.0585482 0.457328 -0.14026 0.546867 0.307693 -0.155482 1.03384 -0.221581 -0.295351 -0.28278 -0.20213 -0.450155 0.549396 -0.24425 -0.156224 0.111645 -0.362336 0.472026 -1.11633 -0.695402 -0.145988 -0.00546464 0.46524 -0.281935 -0.143531 0.56523 0.203719 0.0362969 0.261275 -0.209966 -0.383158 -0.0813654 -0.742613 0.172198 -0.0525434 0.389853 -0.287929 -0.681224 -0.450879 0.484701 -0.365595 -0.215675 -0.218864 0.302682 -0.548428 0.44904 0.374666 -0.366065 0.24174 -0.227303 0.218705 0.666651 -0.267241 0.635428 0.247406 -0.254279 0.686212 0.452163 0.655199 -0.0970346 -0.246217 -0.508017 0.135058 -0.0375278 -0.16709 0.303525 0.143554 0.685534 -0.612064 0.127961 0.259529 1.23972 -0.464437 -0.0485808 0.828049 0.36367 0.319246 0.635891 0.287814 -0.000533197 -0.611251 -0.429652 0.354505 -0.495582 -0.594511 0.626615 -0.617108 -0.589953 0.17534 -0.00987402 -0.696088 0.641023 -0.333083 0.381021 0.590254 -0.0718969 -0.718384 0.304611 0.0499159 0.83947 0.131274 0.415604 -0.972513 -0.176962 -0.154329 0.0364228 -0.601069 -0.271058 -0.183108 0.0919028 -0.0894798 -0.852908 0.288858 0.24731 0.146361 0.149438 -0.154223 -0.195422 -0.911023 -0.156666 -0.0626698 -0.22589 0.332851 -0.1754 -0.159661 -0.309446 -0.713615 -0.304411 -0.0322245 -0.28337 0.141187 0.0692304 -0.163199 -0.684589 0.182906 -0.624154 0.276238 0.0282672 -0.0627338 0.452457 -0.0581002 -0.175463 0.502944 -0.0703301 -0.501079 0.199452 -0.571163 0.373782 -0.21859 -0.303434 0.163434 -0.541915 -0.228433 -0.442581 0.824053 0.172275 0.113793 0.189222 -0.298768 -0.170504 0.500344 0.920681 -0.533883 -0.206493 -0.0252339 0.197352 -0.18854 -0.310711 -0.236292 -0.483745 -0.201639 0.033013 -0.041732 0.0605958 -0.134635 0.0377081 0.0118728 0.00238459 -0.620631 -0.241087 0.0279254 0.247559 0.126884 0.129633 0.769236 -0.129054 -0.56831 0.749918 -0.531349 -0.339079 -0.303791 0.460516 -0.472396 0.174792 0.211231 -0.164293 0.161417 0.266297 0.409196 -0.215198 -0.868204 0.488286 -0.501867 0.0889035 0.121103 0.0800335 0.415004 -0.0775406 0.682885 -0.348928 0.714738 0.481799 -0.13052 -0.311904 -0.599245 0.172949 -0.939579 0.184611 0.835905 -0.161057 0.281114 0.304475 0.169161 -0.00171294 0.058617 -0.0882398 -0.0287709 -0.225989 0.0607042 -0.0334212 0.280162 0.650353 0.295813 0.599295 -0.0780744 -0.0394083 -0.110063 0.219029 -0.313381 0.797085 0.0690154 -0.450544 0.149559 -0.119572 -0.00257755 0.399638 0.274542 0.115041 -0.200863 0.302255 0.454064 0.0599429 0.449039 -0.0794846 0.242533 -0.0420151 0.650476 0.497374 -0.0142288 -0.285331 -0.478718 0.136844 -0.251307 -0.420575 -0.464663 -0.304951 0.0203416 0.338251 -0.257519 -0.0599043 -0.606769 0.808908 -0.0589531 0.268255 -0.364165 -0.300636 -0.527923 0.598392 -0.0982726 -0.218074 0.127859 -0.396803 -0.11996 0.187179 -0.315299 0.521112 -0.117292 -0.0569854 -0.764463 0.271612 -0.766956 -0.814073 -0.612304 -0.278072 -0.392918 -0.214484 0.285106 0.125816 0.534638 0.233915 -0.222136 -0.0161662 0.799818 -0.303926 0.175729 -0.290469 -0.151692 0.23159 0.191695 0.263511 -0.498554 0.441321 0.251879 -0.167971 0.457659 0.0896457 0.0923311 -0.178981 -0.0988833 -0.228362 0.401872 0.272716 0.0396639 -0.0294599 -0.338118 -0.628711 0.24396 0.229002 0.0792646 -0.381838 -0.991957 0.0744824 0.300394 0.517106 0.60456 0.291556 0.0339987 -0.251151 0.0210057 -0.510293 0.0663879 0.326482 0.354718 0.0997432 -0.0649131 -0.54819 0.215909 0.356371 -0.64007 0.10706 -0.143066 -0.112315 -0.547546 -0.72619 0.585985 0.107871 0.330918 -0.260872 0.271959 -0.0215835 -0.611189 -0.147873 0.015894 -0.453822 0.228072 0.0754386 -0.065986 0.577381 0.0830575 -0.528221 -0.438585 -0.388267 0.29466 -0.869784 0.0179884 -0.37878 0.403072 0.372259 0.0608786 -0.237323 0.913749 0.355279 0.168168 -0.783885 -0.225454 0.947253 0.0417485 0.20916 0.914288 -0.00276937 0.00871751 -0.229854 0.102021 0.658228 -0.0877943 -0.329823 -0.075524 0.102521 -0.062667 0.105802 0.199183 0.0939012 0.617344 -0.855053 -0.688546 0.396694 -1.13227 -0.240992 0.391574 -0.643396 0.132923 0.835851 -0.940367 -0.830969 -0.748582 -0.186208 0.626228 -0.311797 0.15817 0.257926 0.0465588 0.768456 0.161715 0.35397 0.124092 -0.0475084 -0.57722 -0.120671 -0.330375 0.127768 0.025455 0.123984 0.299082 -0.0290887 0.365589 0.356906 0.057323 -0.358934 -0.848503 0.71464 -0.222698 -0.0907723 -0.3974 -0.228528 -0.228016 0.275714 -0.143898 -0.244336 -0.291841 -0.231938 -0.0494079 -0.833729 0.387561 -0.302787 -0.25411 0.108799 -0.43863 0.246783 -0.211221 0.286786 0.168414 -0.21559 -0.410152 0.515503 0.0308556 -0.854969 0.550134 0.665119 0.0663026 0.32121 -0.0741167 0.417969 -0.625698 0.0552607 0.118575 0.270737 0.0354702 -0.0933027 -0.066979 0.324733 -0.0472336 -0.185614 0.16416 -0.46267 0.401225 -1.04576 0.351147 0.920889 -0.136558 -0.0544232 0.778131 -0.324762 -0.302736 -0.274549 -0.191112 -0.187546 0.378191 0.22226 1.00071 0.0715424 -0.0208909 0.723202 0.244115 0.245732 -0.177675 -0.526214 0.301758 0.528178 0.456902 0.05097 0.748002 -0.185294 -0.425146 -0.252408 0.346073 -0.652411 -0.117436 -0.485823 0.725106 0.444675 0.0233424 0.280576 -0.144531 0.228446 0.221196 0.0709988 0.212825 0.00784916 0.0125409 0.0628971 -0.0973665 0.107819 -0.354193 -0.594882 -0.0591688 -0.0752031 0.0541796 0.518945 0.0230695 0.182225 -0.599075 0.165926 0.412294 0.272149 -0.0932591 -0.672685 -0.525058 0.227392 0.553363 0.149239 0.345251 0.716837 0.385764 0.744227 0.0148445 0.360943 0.441052 0.473039 -0.450905 -0.387377 0.161543 0.17935 -0.437906 -0.0982496 0.432122 0.124268 0.22559 -0.0675103 -0.0927271 -0.0256736 -0.117047 -0.598627 0.419197 0.501313 -0.295903 0.272733 -0.636266 -0.952273 -0.441528 0.224952 -0.66561 0.704644 0.0572467 -0.488174 -0.100633 -0.266232 0.388925 -0.254647 -0.226531 -1.07849 0.213249 0.77546 -0.0349742 0.152005 -0.0938352 -0.218201 -0.719233 -0.272116 -0.00688207 0.401918 0.86235 0.126128 -0.259469 0.161486 0.110426 -0.387755 0.343782 -0.279164 -0.0501492 0.223076 -0.110477 -0.689142 0.376829 0.467973 0.105499 0.00542901 0.700444 0.602913 -0.460611 -0.596386 0.0681347 0.100932 -0.454964 -0.763171 0.758165 0.677128 0.0920219 -0.0906559 -0.0415398 -0.398827 -0.337608 -0.221927 0.363197 -0.419176 -0.0313611 -0.646037 0.066531 0.607341 -0.279738 0.187943 0.492027 -0.34135 -0.160291 -0.0330658 0.252716 0.192171 0.231807 -0.304287 -0.279194 0.218138 0.130359 -0.204211 0.135053 0.251518 0.92754 -0.338781 0.558276 -0.380692 0.402076 0.699962 0.794292 0.122362 -0.29455 -0.361919 -0.255058 -0.871926 0.105066 -0.339262 0.417347 -0.331416 0.50533 -0.0305904 0.0453329 0.367198 0.0658603 0.228215 0.568025 0.352328 -0.129541 -0.255966 0.0198052 0.0135655 -0.724237 -0.844593 -0.19772 0.344026 1.03636 0.642752 -0.0202611 0.369589 -0.447759 0.218185 0.271218 -0.12074 0.0284362 -0.409201 0.615671 1.16956 -0.12332 -0.317366 -0.225631 0.0709192 0.174794 0.165251 -0.158169 -0.0539557 0.7916 -0.351804 0.0060512 -0.255339 -0.0511118 -0.404786 0.755917 0.359662 -0.3862 -0.00874329 0.719596 -0.289635 0.228792 -0.522473 0.633296 0.827526 -0.450622 0.490525 0.142282 0.509349 -0.441143 0.804172 0.125715 -0.323682 -0.0330244 -0.161572 0.366672 -0.81067 -0.041622 0.525651 -0.240055 -0.58755 -0.151943 -0.271853 0.103086 -0.0502487 0.349153 -0.159577 0.325474 -0.691707 -0.319457 -0.0323627 -0.26107 0.469277 0.628709 -0.279132 -0.30919 0.618059 0.0211794 0.86656 0.281842 -0.483545 0.226704 0.761678 0.0858092 0.609083 -0.317435 -0.0416119 0.331754 -0.0846686 0.100362 -0.233123 0.436474 -0.3208 0.508604 0.267635 -0.233531 0.374599 0.346973 0.128441 0.572572 -0.0236249 -0.614179 -0.1963 -0.281713 0.365363 1.39991 -0.159752 0.37947 0.658157 0.0818138 0.360427 -0.28017 0.909442 -0.237335 -0.313315 -0.231918 0.284447 0.440442 0.500028 -0.646943 0.0491453 -0.215081 -0.45586 -0.399974 0.0462619 0.688124 0.256316 0.00594136 -0.0447171 0.394797 -0.146578 -0.436545 -0.0740642 -0.660965 -0.232444 0.325774 -0.155146 
0.222022 0.780475 -0.720784 0.0591519 0.420771 -0.271578 -0.462184 -0.295424 0.629959 0.234147 0.655726 -0.792719 -0.0615287 0.249018 -0.620074 -0.198016 -0.234517 -0.198673 0.19516 -0.158808 -0.123871 -0.900784 -0.163475 0.47958 0.89686 -0.38555 -0.286002 0.10614 0.32702 -0.642912 -0.735844 -0.352083 0.561612 0.0927318 0.295954 -0.393578 -0.469091 -0.180842 -0.276558 -0.418394 0.0277587 0.533781 -0.119544 -0.0752189 -0.0606381 -0.104699 -1.06861 -0.41415 -1.00493 0.269484 -1.00808 -0.0951695 0.39672 -0.184224 -0.00502623 -0.0744936 0.267074 -0.0596612 0.669885 -0.0716024 0.15623 -0.828512 0.095765 -0.480141 0.563508 -0.219341 -0.0913652 0.367413 0.0272625 -0.133356 0.812769 0.313398 0.31884 -0.529685 0.601425 -0.612894 0.555329 0.652217 0.291206 0.144868 -0.0833759 -0.224521 -0.234039 -0.217424 -0.181879 0.20973 -0.184926 -0.586547 0.758119 -0.806071 -0.0488888 -0.356869 -0.788711 0.527376 -0.193184 0.0026103 0.0439781 0.375358 0.517604 0.270104 -0.639601 -0.384091 0.0938902 -0.535838 -0.820461 0.253457 0.0247968 0.473122 0.572777 -0.22232 0.364338 -0.173256 -0.624008 -0.109403 -0.670823 -0.317579 0.887375 0.379128 -0.111753 -0.0878811 -0.150417 -0.0702174 0.376525 -0.221165 0.140636 0.0937787 0.403847 0.666902 0.0466147 0.794318 -0.354884 0.45047 -0.334746 0.118795 0.700744 -0.0605663 -0.436894 0.125586 0.149399 -0.0761179 -0.212027 0.582854 -0.125778 -0.348506 -0.0912296 0.152308 0.261796 -0.446433 0.172662 0.579453 -0.946546 0.066786 -0.534446 -0.789611 0.397257 0.533182 0.197343 0.463178 -0.139594 0.334216 -0.717782 0.100825 0.317962 0.335814 -0.423694 0.418893 -0.359688 -0.660602 -0.762522 0.210271 0.0603219 0.0793348 -0.126799 0.320083 0.362444 0.279143 0.156372 -0.249096 -0.278827 -0.489394 1.04953 -0.269698 -0.272687 -0.299702 0.654072 -0.193428 -0.226167 -0.728554 -0.345188 1.18323 -0.283999 0.0871024 0.494801 0.151011 -0.297293 -0.608615 -0.242957 -0.0825038 0.327022 0.211683 0.667767 0.479998 -0.120996 -0.101404 0.198854 0.286649 0.348471 -0.945577 0.370532 -0.17638 -0.0711043 -0.323759 0.281216 0.30099 0.240496 -0.534095 -0.598678 -0.469324 0.745337 -0.159374 0.185536 -0.499597 0.0812114 -0.497578 0.159765 -0.371211 0.644378 0.0132862 -0.185671 0.153183 -0.249019 0.0100597 0.231728 -0.0851716 -0.109868 -1.03817 -0.493168 -0.239872 -0.794877 0.227444 -0.0469647 -0.0354458 0.210647 -0.439721 0.170542 -0.476734 -0.0680319 -0.0189356 0.341792 0.49084 0.585226 -0.656267 -0.250238 0.243875 -0.501317 0.628223 -0.382722 -0.182414 0.766986 -0.46658 -0.919097 -0.341261 -0.0146871 0.545954 -1.00024 -0.201356 -0.541079 0.10465 0.0957106 0.214677 -0.447819 0.0245028 0.409446 -0.244635 0.414153 -0.127382 0.152512 -0.309744 0.0821881 -0.440261 -0.223856 -0.167355 0.00792007 0.560775 -0.160538 -0.593282 0.760407 0.712653 -0.525297 -0.239588 0.321137 0.128594 -0.59025 -0.37565 -0.166588 -0.0924558 -0.545089 -0.910722 -0.530627 -0.396399 0.153641 0.076552 0.462376 0.0595589 0.0189654 0.0652701 -0.0520017 0.0131212 0.498788 0.464611 -0.33565 -0.438386 -0.306918 -0.247168 0.64689 0.098557 -0.794085 0.148311 0.488518 -0.148831 -0.11991 0.34715 -0.549339 -0.803539 -0.908938 0.15533 0.0334096 0.04032 -0.211902 -0.367975 0.204936 -1.17282 -0.133067 0.314911 0.389874 -0.132853 -0.0624154 0.299995 0.0925822 0.00914202 -0.609605 -0.211318 -0.661497 -0.956129 -0.239107 -0.380254 0.224424 0.218425 0.0356901 -0.664435 -0.279701 -0.540515 0.14818 -0.463702 -0.363608 1.27444 0.216223 -0.247906 -0.277366 0.520594 -0.299474 -1.05431 0.693211 -0.0215461 -0.0849057 0.976297 0.88475 -0.0502478 0.265001 0.411625 0.335407 -0.918286 -0.225402 -0.795738 -0.158387 -0.0577301 -0.788237 0.387838 0.763886 -0.756716 -0.0920658 -0.0386791 0.118554 0.678722 -0.470194 -0.123582 0.575791 -0.0933505 -0.383004 0.224611 0.278897 -0.301061 -0.600106 -0.11761 -0.0927956 -0.119531 -0.221349 -0.10043 -0.55095 -0.0164187 -0.0587872 -0.0858604 -1.05757 -0.0726876 0.429816 0.157326 0.0231088 -0.400707 1.00269 0.0411081 0.11912 0.158458 -0.0966728 -0.226009 -0.42796 -0.00189287 0.797664 0.187666 -0.391935 0.227594 0.15091 -0.40576 -0.0181095 -0.199716 0.746191 0.0802421 0.531368 -0.0104807 -0.83574 -0.675446 -0.409886 0.64175 0.784785 -0.551504 -0.490339 -0.204063 0.0609832 -0.11613 -0.240045 -0.487173 -0.819958 0.700775 0.320716 -0.0452351 -0.0501881 0.333926 0.287882 -0.359959 -0.259691 -0.0806009 0.170911 -0.426083 -0.547854 0.118067 -0.0957927 -0.369685 0.664712 -0.127618 1.48335 0.549218 0.801307 -0.506279 -0.0326759 -0.502269 0.236069 0.580276 -0.323211 0.222188 0.0872011 0.0100897 -0.358097 0.483712 -0.397341 -0.817477 -0.0596181 -0.0216326 0.324171 -0.39743 0.368223 0.227309 -0.140006 0.28876 0.023002 -0.564395 0.720541 0.416012 0.146017 0.467902 -0.217839 0.00631997 0.394866 0.0019094 1.28764 -0.438882 0.695527 -0.0885236 -0.683872 -0.0750315 0.863643 -0.65581 -0.00861517 -0.329261 -0.701057 -0.378295 0.188107 1.28649 0.266081 -0.602505 -0.32541 -0.0364435 0.481219 -0.463627 0.422961 0.77128 -0.1391 -0.322281 -0.124957 0.35372 0.643373 -0.836762 -0.0918009 -0.324889 0.0285782 0.0644734 0.380412 -0.00399267 0.242484 -0.254102 -0.257338 -0.32905 0.371043 0.188278 -0.512482 -0.24399 -0.217092 0.241503 -0.647766 -0.216303 -0.506579 0.27359 0.603548 -0.0360371 -0.276916 -0.653796 0.341882 -0.0933058 0.0427791 -0.0961709 0.243133 0.0444709 0.320169 0.327189 -0.587849 -0.104632 -0.393915 -0.498215 0.0680385 -0.452385 -0.183965 0.277394 -0.673446 -0.270961 -0.104709 -0.614489 -0.68103 0.109109 0.307394 0.0718325 -0.185632 -0.386058 0.357146 0.0965298 -0.564746 0.016106 0.493946 0.165034 0.144208 -0.179213 0.0734807 0.871903 -0.259239 -0.486668 0.11768 -0.356615 -0.363236 0.584773 0.675473 0.63576 0.417489 -0.169995 0.00698103 0.485301 0.412111 0.632331 0.731736 0.413809 -0.0318953 0.124669 -0.502372 0.372401 0.225613 0.526525 0.258005 -0.215164 -0.657696 0.9554 0.448522 0.350707 -0.309999 -0.536438 0.150514 -0.0284255 -0.600778 -0.347053 0.690211 -0.080446 -0.122712 -0.811924 -0.171297 0.0841484 0.395834 -0.217655 -0.38628 -0.420677 -0.0582333 -0.792388 -0.240148 0.45789 0.726376 -0.0334328 0.122197 -0.430691 -0.0958968 -0.392924 -0.208329 0.487691 -0.178043 0.0585589 -0.407674 -0.805591 -0.0868808 0.207524 -0.175937 -0.605639 -0.50328 0.80408 -0.15814 0.115015 0.300496 0.0110375 -0.998318 -0.0121489 -0.0836551 -0.0240705 -0.133007 -0.218552 -0.0120443 -0.358641 0.186351 -0.136401 0.367528 -0.224534 -0.166094 -0.153091 -0.258844 -0.0741424 0.925371 0.810262 0.0417997 1.01198 -0.0405796 0.25419 -0.201448 0.585806 0.219744 0.0663651 -0.038516 0.295373 0.849376 -0.0376818 -1.11858 0.260193 -0.410104 -1.1813 0.53116 0.385595 -0.349375 -0.54466 -0.521368 -0.494511 -0.444226 0.0141033 -0.0159541 -0.470813 0.722824 0.087044 -0.138784 -0.774954 0.371586 0.140657 0.0103498 -0.170231 0.129755 0.151159 -0.0468082 -0.490907 -0.279181 0.0309566 -0.220061 0.592796 -0.172176 0.604945 0.202253 0.554399 0.403603 0.427176 0.444464 0.115819 0.298155 0.110682 0.40072 -0.260099 0.0449228 0.182297 0.265089 0.0379041 0.10766 0.260785 -0.229609 0.100483 -0.123689 0.164708 0.35444 -0.14671 -0.422093 -0.751758 0.86611 -0.465947 -0.379257 0.048539 0.520835 -0.478434 0.381799 -0.269498 0.152518 0.0796626 -0.440847 0.0940103 0.993052 -0.171465 0.407166 0.231618 0.0970564 -0.0960879 0.782407 -0.192301 0.350082 0.193967 -0.0137505 -1.15063 0.649011 -0.358525 -0.325927 -0.127459 -0.000265875 -0.304336 -0.116373 -0.215261 0.390406 0.354929 -0.0595547 -0.325427 0.643039 -0.528436 -0.272867 0.17016 0.175095 -0.110104 -0.115409 -0.375501 0.284807 0.188557 0.360807 -0.0731777 -0.00602295 0.0234097 0.337672 -0.302557 0.704731 0.483993 0.548864 0.21957 0.0680937 0.0345345 -0.156759 -0.521544 -0.450724 -0.0514124 -0.0311287 -0.658352 0.189468 -0.0397487 -0.749709 -0.00595488 0.630968 0.713071 -0.145076 0.829779 -0.116851 0.371073 -0.28952 -0.075401 -0.419498 0.187584 -0.422637 -0.814042 -0.289981 -0.450021 0.096497 -0.476104 -0.402908 0.195522 0.314586 -0.00447049 0.382017 0.400367 0.37138 -0.711509 0.231502 0.350834 0.606645 -0.0934383 -0.402499 -0.0233822 0.942539 0.041986 -0.805427 0.460911 -0.800602 -0.824511 -0.632287 0.849314 0.204072 -0.0539478 -0.247765 -0.224659 -0.226551 -0.634907 0.286766 0.0227933 -0.111785 -0.0784934 -0.57379 0.516374 -0.143199 0.073978 0.261152 -0.142034 0.462215 -0.0843096 0.40033 0.17225 -0.000522848 0.350277 0.230397 0.360268 -0.0838889 0.689387 0.140805 0.348394 0.334021 0.377982 0.634713 -0.501991 -0.171615 0.835647 0.708922 -0.417235 -0.399197 -0.0571933 -0.252993 0.45729 0.0558989 -0.600151 -0.705381 0.982821 0.408708 0.417437 0.0445156 -0.270982 -0.37296 0.150331 0.284279 0.849932 -0.172487 0.282732 0.523582 0.510236 -0.320577 0.1226 -0.564761 -0.00370758 0.29858 0.612831 0.146989 0.81451 0.798359 0.0192318 -0.539517 -0.207559 -0.829065 -0.594129 -0.203083 -0.302902 -0.808419 0.701674 0.12506 0.579164 0.29316 0.231063 0.748647 -0.369765 0.575057 -0.3732 0.609688 0.251637 0.45293 0.79543 0.310582 -0.0354701 -0.0813357 -0.448621 -0.38746 -0.672482 0.180177 0.397405 0.431632 -0.679325 -0.185775 -0.448674 0.962683 0.795057 -0.268491 0.659351 -0.413898 -0.411863 0.418762 0.474399 -0.44234 0.149381 -0.464568 -0.422821 0.275662 0.298938 -0.518177 0.460401 0.422294 0.0106008 -0.0369885 0.00379803 0.473558 -0.051156 0.11185 0.456934 -0.531782 0.0228575 0.151295 -0.171383 0.0995105 -0.0638567 0.208803 0.515468 -0.213005 -0.048946 -0.555977 -0.555234 -0.36989 0.919665 0.111352 0.0494124 0.182661 0.303972 -0.47641 -0.16121 0.332771 -0.170709 -0.570633 -0.386611 -0.664089 -0.299733 -0.576095 -0.353518 0.47615 -0.202403 0.377198 0.242154 0.203804 -0.182213 -0.246693 0.114657 -0.104524 0.410726 -0.0520808 -0.420873 0.206559 0.0702707 0.349707 -0.959995 -0.788821 -0.247602 0.133597 -0.166584 -0.13081 -0.388136 0.354238 0.164196 0.158922 -0.339678 -0.57798 0.5636 0.501424 -0.52876 -0.327887 -0.600091 
-0.12264 -0.0335932 0.291487 -0.359534 -0.02164 -0.202651 0.00084097 0.62279 0.133557 -0.00520827 -0.208404 -0.259752 0.453552 -0.77356 -0.322495 0.295223 -0.163685 -0.131686 -0.0853588 0.167032 -0.615053 -0.231606 -0.37656 -0.0196361 -1.20801 0.135695 0.166615 -0.0948871 0.328672 -0.246185 0.607363 0.100547 0.930466 0.532603 -0.897559 0.0527831 -0.573507 0.551227 -0.183688 -0.0444127 -0.179326 0.411493 0.460354 0.432041 0.0986167 0.381235 -0.375906 -0.0445124 0.133229 -0.254389 0.536014 -0.342085 0.307589 0.0194205 -0.310797 -0.185066 -0.15291 0.204927 -0.503428 -0.062089 -0.0706157 0.45192 0.38021 0.103913 0.0553547 -0.215696 0.777632 -0.141246 0.0159828 -0.738487 -0.451929 0.010953 0.301413 -0.00176572 -0.998662 0.00281471 0.331821 0.442665 0.699079 -0.226739 -0.225288 -0.35909 0.189821 -0.00316116 -0.451744 -0.609375 0.637812 1.07568 0.297754 0.253267 0.0832792 -0.0755199 0.681529 -0.944479 -0.137715 0.357208 0.560448 -0.465566 -0.293967 -0.097179 -0.253429 -0.653619 0.397941 -0.901764 -0.257088 -0.00287495 0.136484 0.275865 0.00458371 0.769248 0.615737 -0.414716 -0.500861 0.189098 -1.10231 0.179612 0.382211 0.0226823 0.0612705 -0.158816 0.409336 -0.212931 -0.275566 0.368186 -0.516405 -0.146652 0.808075 0.385396 -0.780759 -0.287919 0.265344 -0.188421 0.861117 0.168479 0.486671 0.172037 0.586723 0.549088 0.102665 0.127566 -0.230696 0.262472 0.504088 -0.214371 -0.412133 0.629574 -0.742882 -0.00321352 -0.697653 0.262312 -0.186708 -0.269955 0.296855 0.870422 -0.0286321 -0.619699 1.22046 0.191374 -1.14492 0.67219 0.489943 0.247425 -0.031817 -0.169318 0.0399523 -0.393584 -0.54599 0.591474 -0.0444287 -0.198338 -0.176196 0.724594 0.0748832 0.0499515 0.219725 -0.0994846 -0.358799 -0.0884431 -0.103749 -0.211703 -0.0236878 0.759166 -0.486853 -0.310876 -0.105999 0.381594 -0.0166742 -0.0528099 0.792875 0.362481 -0.259462 0.19853 0.256759 0.1827 0.274764 0.250559 -0.829181 0.232779 -0.650426 -0.284561 -0.182586 -0.318405 -0.210552 -0.622739 0.0610965 0.296763 -0.0389768 -0.0194009 -0.946226 0.405221 -0.337915 0.144216 -0.820197 0.519364 0.12947 0.0539793 1.03461 0.597652 -0.265647 -0.446577 0.118148 -0.111132 -0.466111 0.34003 0.555737 0.0161658 0.55837 -0.0658305 0.335694 -0.0511158 0.0601915 0.00433156 -0.351456 0.323696 -0.829239 -0.40277 -0.534947 0.255601 -0.293655 0.0728092 -0.447781 0.108347 0.419425 0.0478176 0.263415 0.0454927 0.225816 0.249572 -0.54964 0.353302 -0.0523852 -0.275366 0.885277 -0.227401 -0.222564 0.192608 -0.386055 -0.610572 -0.222865 -0.00891269 -0.214299 -1.26163 0.0401664 -0.71377 -0.0683681 0.272895 0.264291 0.224798 -0.487879 -0.0954306 -0.0996053 -0.0679487 -0.0193807 -0.322589 0.617205 0.568748 -0.957999 0.468056 -1.29073 0.845043 -0.0857237 0.560714 -0.653457 -0.0898887 0.0392472 0.151534 0.217695 0.688959 1.11685 -0.313298 0.16042 0.00424519 -0.0937864 0.212956 -0.162933 0.372339 0.0767938 0.0210182 0.0715649 0.206077 -0.650284 0.133589 -0.835927 0.0997248 -0.375013 0.036501 0.495781 -0.377796 -0.853738 0.307901 0.212619 -0.745456 0.211522 -0.236592 -0.144711 -0.621529 -0.643686 -0.312009 0.426474 0.224538 0.347512 -0.113335 0.0555587 0.206428 -0.812114 -0.0787213 0.27274 -0.448751 -0.189922 0.574775 0.230135 -0.710895 0.396616 0.384699 -0.236058 0.309744 -0.27272 0.192811 0.7794 0.523523 -0.54961 0.222111 0.12521 0.219615 0.169508 -0.116161 -0.356227 0.0119549 -0.43161 -0.177978 0.129949 0.687665 0.60241 1.1049 0.178172 -0.315718 -0.511321 0.183796 -0.413957 1.52627 -0.0330591 -0.0224212 -0.220618 -0.631946 -0.861081 0.0509604 -0.22629 -0.565114 0.40841 -0.103245 -0.0485035 -0.281415 -0.713902 -0.195809 0.258733 -0.237792 0.165241 -0.0462613 -0.316869 0.948554 0.309334 -0.582595 0.651988 -0.285472 -0.954807 0.111012 0.61307 0.429479 0.407384 -0.194137 0.12947 0.21503 0.133446 -0.388708 0.151316 0.152079 0.439545 0.511214 1.01689 -0.226588 -0.591406 -0.488267 -0.269104 0.116492 -0.370819 0.0520428 0.0122233 0.942667 0.0351594 0.27736 0.179959 0.60417 0.324839 0.271026 0.137006 -0.0485294 0.0668684 -0.353529 -0.00751343 -0.55098 -0.277605 0.412826 -0.0239395 0.46256 0.598547 -0.614438 -0.717552 -0.0365026 0.470957 -0.606578 0.784355 0.555387 0.247312 0.0609685 0.495679 -0.93938 -0.655121 -0.406143 0.67175 -0.280342 0.740564 0.405315 -0.466883 0.0237569 0.103466 0.27405 0.657511 0.1507 0.113848 -0.301568 -0.360367 0.601807 -0.0865115 0.638011 0.480444 -0.0075392 0.634386 0.057009 -0.324927 -0.485222 0.78744 -0.720015 -0.562946 -0.598514 0.0274144 -0.202826 0.3216 -0.0592797 0.646653 0.156084 -0.682237 -0.00397728 0.133012 0.495454 0.471216 0.393282 0.172137 -0.495234 0.991657 -0.991071 0.0852133 0.0824209 -0.571253 -0.114196 -0.0478871 -0.637478 -0.149478 0.110556 0.224575 0.377068 -0.782352 -0.406797 -0.136579 -0.50223 -0.363138 -0.215274 0.332986 -0.254507 -0.209056 -0.643839 0.525871 0.558739 -0.265321 -0.0505456 -0.0893647 -0.0340905 0.410701 -0.287387 -0.0815563 0.694761 0.508056 0.258383 0.702711 0.287646 0.458938 0.360743 -0.199897 0.132698 -0.647891 0.560166 0.683305 -0.150703 -0.800853 -0.686991 -0.337555 0.656002 0.277725 0.24449 -0.510931 -0.204029 0.586277 0.146699 1.03857 0.689963 0.73416 0.360582 0.0694018 0.0534832 0.0173563 0.331141 -0.521344 0.466307 0.39279 0.0443238 0.55391 -0.638908 -0.560163 -0.105118 -0.102249 0.324555 -0.569751 -0.688751 -0.0439918 -0.515827 0.00406177 0.420838 0.0110138 0.0168157 0.330689 0.0167586 -0.205425 -0.113619 0.361266 -0.227776 -0.167201 -0.452869 0.207409 -0.398371 -0.0700415 -0.632304 -0.546531 -0.0969096 -0.382433 -0.64908 -0.387348 0.206228 0.0758206 -0.705393 -0.370672 -0.0665362 0.457594 -0.557368 -0.745331 0.641719 0.320767 -0.750975 -0.845628 0.0831222 -0.536875 0.0513136 -0.251439 0.0449406 0.16886 -0.490593 -0.0244383 -0.108385 -0.597147 0.214506 0.779291 -0.425272 0.264264 0.171959 0.52638 0.979388 0.0653653 -0.243512 -0.290863 0.562243 -0.0209686 -0.0710983 -0.150723 -0.660483 -0.701047 -1.12258 -0.268668 -0.11992 0.459569 -0.256299 -0.24742 0.42422 0.222697 -0.527178 -0.38499 -0.719735 -0.355906 0.133794 0.438747 -0.344331 -0.0407072 -0.784416 0.204436 -0.43881 -0.0478231 0.718398 0.104468 0.361058 0.32527 -0.428511 0.14441 -0.58829 0.292347 0.250325 0.719473 0.443276 0.112065 0.39234 -0.486908 -0.20277 0.545647 0.183455 0.888552 -0.179433 0.286263 0.1749 0.17218 0.100295 0.172881 0.277974 -0.484917 0.0266201 0.722319 0.869016 -0.18364 -0.553038 0.356219 -0.695347 -0.535292 -0.219412 0.440788 -0.121792 0.77364 0.483972 -0.229284 0.289065 0.506918 -0.443605 0.279294 -0.274953 -0.584025 0.257227 -0.142816 0.631241 0.858988 0.44268 0.00558658 0.40773 0.166364 -0.0269158 0.457952 0.532576 -0.463488 -0.503673 0.328325 0.398155 0.399197 0.0257679 -0.22654 0.537064 0.23163 -0.00915358 0.3576 0.0433111 -0.0475461 -0.051748 0.181967 -0.319034 0.688572 -1.02898 -0.14734 0.881691 -0.515435 -0.942645 0.248405 0.270297 0.300401 0.0617925 -0.371979 0.643557 0.0600523 0.0432001 -0.655465 0.274642 -0.755209 0.103767 0.229355 -0.797675 0.358983 -0.0336094 0.886968 0.209703 0.0296156 0.278742 -1.10873 0.343313 -0.15594 -0.163653 -0.820586 -0.0415636 -0.196466 -0.781886 -0.31167 0.829878 0.174745 -0.231964 -0.0346171 -0.355486 0.00721413 0.387438 0.10374 0.125798 -0.777738 -0.514102 0.0310633 0.209127 -0.0964783 0.903015 0.175185 0.602946 -0.142748 0.118604 -0.29653 -0.196642 0.0906916 0.819475 0.277091 0.336671 0.287325 -0.366137 0.17999 0.105925 -0.0628353 0.572415 0.53902 -0.534788 -0.179802 0.23087 -0.0648616 0.0963414 -0.238829 0.194382 0.0352221 -0.150658 -0.378225 -0.622625 0.481887 -0.0363008 0.0214315 0.632357 0.0755206 0.682966 0.0657713 0.0102815 0.114657 -0.69415 0.752083 -0.28396 -0.873211 0.46633 -0.043498 -0.471812 -0.842957 0.0297283 0.386118 0.478862 -0.334318 0.243921 0.400576 -0.398125 -0.271136 -0.012535 0.235392 0.0458436 0.238454 -0.922291 -0.26984 -0.338947 -0.0151625 0.328301 0.0808304 0.319558 0.00314728 0.665663 0.106413 0.140688 -0.640198 0.475315 -0.962052 -0.417475 -0.584679 -0.568001 -0.0642674 0.604227 -0.504161 1.08032 -0.0876832 -0.137716 -0.394026 0.444221 0.388521 -0.227288 -0.213462 -0.381889 0.593213 -0.0981754 0.558383 -0.535026 0.217057 0.0083553 0.130639 -0.533295 -1.01637 -0.663159 -0.55299 -0.481103 0.0584416 0.19441 0.751467 -0.335785 -0.324338 0.0197373 0.499953 0.175209 -0.457644 -0.304208 0.302895 -0.356825 -0.00265137 0.556453 1.04979 -0.161598 -0.524293 0.477212 0.301821 0.770697 -0.124059 0.00744829 -0.132265 0.197221 0.0423957 -0.237577 -0.644792 0.0235199 0.0586495 0.0180225 -1.28875 0.329083 -0.0451264 -0.536295 0.512351 -0.627117 -0.194554 0.964819 0.279103 0.00402194 1.15295 -0.30093 0.173243 0.0857682 0.0799896 0.0945774 -0.446168 0.167591 0.242989 -0.510414 -0.374444 -0.488242 -0.561769 0.204497 -0.116825 -0.590376 0.479744 0.223891 0.300261 0.115786 -0.0658057 0.366608 -0.430659 0.0667842 0.208322 -0.72342 0.226664 -0.581132 -0.0731706 -0.759435 -0.0761927 -0.183319 0.182379 0.131951 -0.624163 -0.0961094 -0.269156 -0.660171 0.51391 0.0610491 -0.335537 -0.379054 -0.183315 0.101934 0.586399 -0.381148 -0.950395 0.742992 -0.171174 0.0271067 0.304754 -0.307641 0.721098 0.308932 -0.137869 -0.508681 -0.229136 0.226379 -0.175439 0.680047 -0.471478 -0.137366 0.33404 0.129845 -0.00613471 -0.701552 -0.487656 0.622153 0.106913 0.269967 0.223427 -0.196252 0.601416 -0.302296 -0.189894 0.404521 0.975125 -0.446821 -0.185922 -0.535821 -0.606643 -0.219549 -0.636254 0.736241 -0.208399 -0.163135 -0.236249 0.350197 -0.718903 -0.364826 0.550419 -0.952515 -0.208288 -0.474086 0.607033 -0.219823 -1.13539 0.247447 -0.327027 0.00396483 -0.0524346 -0.498824 0.667135 -0.069613 0.0215601 0.0727687 0.45153 0.357876 0.0886787 0.286653 0.065763 -0.193797 -0.533686 0.331225 -0.0721825 0.591476 -0.604727 -0.0161747 -0.515788 -0.912431 -0.299441 -0.0810189 0.101511 -0.353656 -0.773581 -0.0343628 0.814813 0.0991824 -0.0763998 -0.0509071 
-0.547184 0.329364 0.146205 0.398587 -0.0980068 0.138985 -0.187697 -0.462316 -0.463507 -0.452059 0.719248 -0.234626 -0.115958 -0.758782 -0.0841321 0.24109 1.04771 0.431973 -0.0522517 0.0418383 -0.31179 -0.0416982 -0.451652 0.377183 0.298552 -0.481219 -0.173694 0.223578 -0.662016 0.0343075 0.019238 -0.352944 -0.305049 -0.313622 0.838683 0.0823179 0.237979 -0.131776 -0.0341345 0.310563 -0.666476 0.141586 0.80973 -0.279362 -0.299084 -0.0469136 0.178255 -0.507386 0.0909586 0.201858 -0.414288 0.475762 0.402068 0.346623 -0.102549 -1.45225 -0.656039 0.00230501 -1.06825 -0.461789 -0.511035 0.177967 -0.410311 0.00603894 -0.0635955 0.427679 0.995882 0.202003 -0.133489 0.398444 -0.461269 0.852551 0.697331 0.371222 0.0932417 -0.141335 0.115984 0.424039 -0.0975027 -0.669716 0.173589 -0.317991 0.177595 0.0953242 0.235707 0.205235 0.554253 -0.0388146 -0.253733 -0.28246 0.542313 0.561077 0.115821 0.039761 0.513032 0.406402 0.0569984 0.242068 0.290488 -0.578427 0.322754 0.302755 0.0398208 0.179005 -0.190557 -0.0636106 0.846173 -0.103055 0.480076 -0.144628 -0.454396 -0.141215 0.407818 0.815547 -0.528931 0.271492 0.283107 0.0390371 -0.118903 -0.352008 -0.77251 -0.668025 -0.547402 0.232471 0.893364 0.241965 0.126295 -0.270265 -0.344801 0.719351 -0.232976 0.765295 -0.366004 -1.12096 0.102137 0.202746 -0.4574 -0.528488 -0.306781 -0.474063 0.284402 0.372659 0.445311 0.263154 0.510752 -0.151058 0.275767 -1.25608 0.610683 0.459768 0.545663 0.333454 -0.267422 -0.61881 -0.0981871 -0.205124 0.232387 -0.287902 0.0460665 -0.159433 0.507732 0.393083 0.116369 -0.249389 -0.640241 -0.209625 -0.341541 0.553871 0.158193 -0.247864 0.855911 -0.0237595 -1.17371 0.55955 0.406592 -0.52491 -0.507516 0.631058 0.3035 -0.0869565 -0.552869 -0.436691 -0.058238 -0.0734408 0.0502181 0.732785 0.280404 -0.768808 0.0337238 -0.414794 -0.484729 0.0230375 0.610358 -0.514977 0.160609 -0.174608 -0.163869 -0.799849 0.812977 -0.0788236 0.584765 0.314858 -0.477089 0.0271265 -0.0872657 -0.937749 -0.422476 -0.471973 -0.0879882 -0.280428 -0.193122 0.267376 -0.466497 0.108335 0.273363 0.535294 -0.506911 0.13411 0.145246 -0.348176 0.0262295 -0.757272 0.201606 -0.212774 0.474269 -0.258001 -0.20069 0.799851 0.816464 0.283602 0.626777 0.275336 -0.439017 -0.629047 -0.232374 0.270038 0.34823 0.252767 -0.336641 -0.337534 -0.319845 -0.348847 -0.022588 -0.660197 0.163113 0.0681995 0.350589 -0.203285 -0.462981 0.265858 -0.127806 -0.172831 -1.30341 0.337294 -0.352728 0.114174 -0.93385 -0.20868 0.759146 0.247372 -0.393235 0.132468 0.309696 -0.347827 -0.349876 0.161612 0.0293847 0.107283 -0.568621 -0.167194 -0.440319 -0.203768 -0.453115 0.261101 -0.445403 -0.465527 -0.0647249 0.117735 0.656814 -0.470465 -0.545793 -0.543126 -0.446984 0.531637 0.257912 0.224066 0.889082 -0.645334 0.341148 -0.076889 -0.124924 -0.648222 0.0623975 -0.0916976 -0.5485 -0.371149 0.140615 0.179364 0.736538 -0.258733 -0.284158 -0.140825 -0.188556 0.295474 0.207962 0.631755 0.0981629 -0.338445 -0.598022 0.665906 0.16554 -0.445901 0.10891 -0.355307 -1.11734 0.385041 0.300878 -0.0862187 -0.248801 -0.912008 0.645681 0.538572 -0.50149 0.73245 -0.941291 0.366523 0.533211 0.674214 0.0365774 -0.885936 0.495989 0.160723 0.693392 0.426731 1.14382 -0.597712 -0.131443 0.0235881 0.210895 0.46973 -0.131077 0.665402 0.458936 -0.201022 0.170963 0.0275843 0.313969 0.11151 0.596714 0.0420462 -0.0577028 0.295914 0.178588 0.644061 -0.225319 -0.324598 -0.9964 0.422118 -0.181894 0.209109 0.285587 0.559065 0.157584 -0.0368449 0.838121 -0.33689 -0.0164473 0.863619 -0.24045 -0.428731 -0.369936 -0.530222 0.147241 0.0415652 0.636493 0.632411 -0.204612 0.639088 -0.290408 0.196458 0.172551 0.0582121 0.0788292 0.356143 -0.68859 -0.0760374 -0.926687 -1.09525 -0.387431 1.04269 -0.187198 -0.343901 -0.338035 0.47685 0.019857 -0.215285 0.0620438 -0.399829 -0.060872 0.108521 -0.585476 0.0999921 -0.00571003 -0.21306 0.905723 0.232894 -0.356073 -0.300974 -0.708833 -0.504529 0.111284 -0.396061 -0.0865151 -0.0461996 -0.25655 -0.114606 -0.417852 -0.377863 0.0722718 0.426412 0.0783893 -0.236472 -0.521383 0.360144 0.244867 0.262344 0.946667 0.0122778 -0.321771 0.734825 -0.692254 0.454946 -0.449378 -0.207748 0.419827 0.368051 -0.0328051 0.577473 1.33109 -0.0705614 0.715677 -0.0346048 -0.667603 0.249597 -0.963568 -0.780529 -0.0343813 -0.304136 0.563293 0.0907863 0.655496 -0.337925 0.079944 -0.500656 -0.413727 -0.0607524 0.0837022 0.472562 -0.568813 -0.166111 -0.562358 -0.256205 -0.0897169 -0.353561 0.443214 0.415573 -0.56646 0.362407 -0.0276281 0.664327 -0.482433 -0.232147 0.435969 -0.0393707 -0.279683 -0.0314476 0.619588 -0.897148 -0.52552 -0.0175549 -0.127425 0.476346 0.0959802 -0.709781 0.120944 -0.220191 -0.328691 0.610418 0.176979 -0.096074 -0.23038 0.76447 0.30036 -0.233765 -0.1186 0.574625 0.0442176 0.256623 -0.339632 -0.24909 -0.245157 0.145603 -0.38727 -0.738315 0.515093 0.295311 0.23505 0.138463 -0.307547 0.423689 0.0982903 -0.354118 -0.15789 -0.0547406 -0.595298 -0.25581 0.458498 -0.94283 -0.913035 -0.280598 -1.09767 0.000260039 0.487875 0.306684 0.260758 0.391536 -0.109363 0.0962122 -0.374628 0.458657 0.513727 0.135363 -0.135169 -0.464185 -0.841446 0.496646 0.319417 1.03464 0.109617 -0.659293 0.897262 -0.184321 0.374648 0.601526 -0.27253 -0.18258 0.116337 0.523492 -0.144297 0.740245 0.0262072 -0.570716 1.69883 -0.274688 0.704851 -0.642047 -0.599624 0.308807 0.604758 0.673007 0.281973 0.00390417 0.282267 0.377544 -0.521458 0.353787 -0.333215 0.621755 0.0135537 -0.230628 0.107898 0.632506 0.410547 -0.181487 0.106992 -0.0757633 0.162995 0.659803 -0.21748 0.355946 -0.350177 0.0669848 -0.312866 -0.121821 -0.623873 -0.603482 -0.302428 0.351646 0.0898832 -0.436431 0.113669 -0.0281716 -0.672595 0.761117 0.14065 -0.206355 0.164495 -0.00643491 -0.152518 -0.942912 0.14246 -0.37779 -0.14415 -0.358408 -0.00253869 -0.562667 -0.667358 0.11585 0.518191 0.121614 -0.374794 -0.426182 -0.877862 -0.68737 -0.234485 -0.0609133 -0.89763 0.260882 -0.0486191 -0.275466 0.573717 -0.0681134 -0.442743 -0.181627 -0.489159 -0.634696 -0.1255 -0.16836 -0.963722 0.701487 -0.499865 0.893712 -0.0948618 0.816477 0.0587708 0.44014 0.0449127 -0.448476 -0.925916 -0.243969 0.272915 0.678542 0.0965722 0.19166 0.140655 0.0681634 -0.0840244 0.624472 0.310432 0.63482 -0.595506 0.0253577 0.77302 0.0891132 -0.381394 0.222116 0.825894 0.285125 -0.459026 -0.385948 -0.527846 0.24728 0.828204 0.40158 -0.217977 0.174432 0.49944 0.613073 -0.320554 -0.0583167 -0.548963 0.377565 -0.696423 -0.139703 0.253947 0.182446 -0.0574915 0.43909 -0.484617 0.15262 0.175109 0.133043 0.0530603 0.136846 0.651922 -0.040693 -0.0597123 -0.123003 0.28012 0.542281 -0.4219 -0.839263 0.403809 0.393253 0.0643147 0.399577 0.609509 -0.0943201 -0.0581619 0.151303 -0.476978 -0.150365 -0.265222 0.201911 0.0333025 -0.544094 -0.158851 0.192664 -0.0341643 -0.821085 -0.0653284 1.06471 -0.196451 0.395731 0.0814651 0.0767034 0.0721543 -0.251361 0.600732 -0.744697 -0.00630643 -0.505977 0.625753 0.0732011 -0.56616 0.210081 0.247587 0.738742 0.233244 -0.144142 0.0867205 0.170976 -0.366687 0.757447 0.751877 0.221573 -0.222825 0.506778 -0.181 0.209779 -0.370146 0.0823682 0.00691378 0.523151 -0.254396 0.989567 0.28997 -0.135053 0.877079 0.270675 -0.333125 0.351867 0.563986 -0.479402 0.172758 -0.573665 -0.42752 -0.491828 -0.629891 -0.828473 0.292229 0.329645 0.25111 0.12634 0.26183 0.528508 0.311236 -0.497155 0.887055 0.0767612 -1.20741 -0.45184 -0.243454 0.214317 0.803848 -0.306793 0.190136 -1.1965 0.910032 -0.162775 0.28065 -0.0686014 -0.300599 0.978998 0.366412 0.521181 -0.311225 0.49005 -0.342308 0.0735424 0.0168226 0.227183 0.0241181 0.641234 -0.302921 -0.110268 0.295336 0.538218 0.014145 0.396058 -0.274298 -1.04839 0.528066 -0.448293 0.480766 -0.300114 0.806266 0.308249 0.381376 0.693722 0.757664 -0.428003 -0.00450299 -0.945163 0.18022 -0.312635 -0.619946 -0.780846 0.37834 -0.127912 0.114441 0.539063 -0.140262 0.702353 0.0658335 -0.0381413 0.567938 0.112194 -0.494898 0.0754222 -0.0101904 0.0176731 -0.0392729 -0.357907 -0.225067 -0.276121 -0.198956 0.46301 -0.281845 -0.360868 -0.0789293 0.458057 0.244053 0.101924 -0.225673 0.597581 -0.136112 -0.00829569 -0.0515051 0.0978349 0.330698 -0.546813 -0.20874 -1.38072 0.1925 0.382392 -0.767713 0.0208321 -0.535525 0.741185 -0.40464 0.150107 -0.432447 -0.0888224 -0.0844814 -0.159988 0.086592 0.362275 -0.137415 0.4222 0.272856 0.515085 0.101019 -0.0393788 0.431458 0.267316 -0.586186 -0.0538272 0.70118 -0.268048 0.159915 -0.395053 -0.131268 -0.0822363 -0.056443 -0.252624 -0.475893 -0.0139468 -0.0726953 0.674073 -0.608979 0.190679 -0.199783 -0.745265 -0.1883 -0.106974 -0.00630287 0.799605 -0.998527 -0.0642182 0.25728 -0.0594495 0.33279 -0.219855 -0.166903 0.879303 0.845065 0.243361 -0.312522 -0.193639 0.329948 -0.621316 0.0273523 0.294345 0.652048 -0.312554 -0.0478923 0.00407696 -0.187863 -0.119534 -0.317805 0.244135 -0.243436 0.806491 -0.115934 0.0710423 1.16449 -0.743046 0.328601 -0.497626 0.105505 0.309011 -0.0247955 -0.145119 -0.273922 0.928096 -0.490586 0.132966 0.0651467 -0.14922 0.0495727 -0.0859216 0.196571 -0.0244586 0.130864 0.491597 0.0950503 0.418646 -0.446755 0.0369905 -0.402602 0.538086 -0.102848 -0.254644 -0.360652 0.286022 0.223011 0.176664 -0.398989 -0.786928 -0.105251 -0.390134 0.665236 0.530368 -0.000672717 -0.251998 -0.51194 0.396984 0.516926 0.630012 -0.643338 -0.383965 0.0466903 -0.543123 0.398753 -0.0161299 -0.144266 -0.308066 -0.118597 -0.314779 0.0811396 -0.651413 -0.0178709 0.273501 0.11095 0.4081 -0.236652 -0.477224 -0.225362 -0.252856 0.898433 -0.281322 0.739304 -0.0126136 0.127445 0.433832 0.418081 -0.17655 -0.0244738 0.745015 0.241024 -0.496063 -1.03457 0.914509 0.828272 0.0661931 -0.293182 -0.443755 -0.412196 -0.0456195 0.32216 0.131465 0.489937 0.164046 0.379318 0.750398 0.501933 0.208024 0.343304 -0.107013 -0.0307769 -0.453 0.166245 0.352415 
-0.0498453 0.117663 0.346789 1.46857 0.147562 -0.548801 -0.245843 0.225384 0.459839 0.645871 0.295666 -0.174197 0.0833196 -0.511398 0.389689 -0.0155354 0.0452812 0.720596 0.781963 -0.550058 0.970339 -0.78828 0.369509 0.241778 0.168212 0.3134 -0.49075 -0.123067 -0.433447 0.478737 -0.0772271 -0.0582959 0.509249 0.620192 -0.304947 -0.239133 0.303584 0.336524 0.125782 0.186786 0.479634 -0.68309 -0.229841 -0.129016 -0.0319155 -0.593585 1.03735 -0.0451549 0.247587 0.26086 -0.803923 -0.358612 -0.270417 -0.130584 0.706954 0.506734 0.588978 -0.0840035 -0.351652 -0.5641 -0.360466 -0.252348 -0.543801 0.134595 0.315156 -0.890743 -0.52321 -0.287281 -0.105877 -0.728787 -0.894615 -0.0601401 0.319259 -0.87633 -0.432298 0.436613 -1.29963 -0.18337 0.22417 -0.332228 0.165239 -0.795376 -0.786508 -0.167106 0.0802373 0.459233 1.13013 0.0575474 -0.747307 0.0511118 0.470823 -0.125101 -0.0134091 0.307776 0.403672 0.373683 -0.760334 -0.132962 0.201547 -0.370874 0.49689 -0.0426515 0.321619 -0.360025 -0.268092 0.401323 0.153209 0.226881 0.407841 -0.263507 0.129235 -0.967847 0.124493 0.737549 0.53657 0.695634 0.36919 -0.531042 0.0666101 0.0961112 0.200543 0.701745 1.04265 0.17219 -0.45711 -0.212365 -0.730471 0.189822 0.0208112 -0.222391 0.450778 -0.181779 -0.220202 0.615168 -0.246825 -0.0928807 -0.517983 0.394615 -0.306291 0.775085 0.0153555 -0.687072 0.513747 -0.0954771 -0.00115285 0.268304 0.947957 -0.0184172 0.135397 0.589688 0.435936 -0.149092 0.726304 0.503978 0.401498 -0.768677 0.0789047 0.251255 0.431041 -0.111434 0.163287 -0.189469 0.0529836 0.368495 -0.429002 0.00500067 -0.0429589 -0.111689 0.17127 -0.0785678 0.338158 -0.509764 -0.392032 -0.0516766 0.182976 -0.5545 0.222571 -0.0173567 -0.625588 -0.00402859 -0.440283 -0.378633 0.02338 -0.0554469 0.242588 -0.757633 0.160556 0.180488 -0.427752 -0.105668 0.395408 -1.02516 -0.422839 0.0827314 -0.552887 0.130222 -0.533885 -0.0985756 0.248627 -0.115402 -0.536413 0.230974 0.0025219 -0.397178 -0.128584 -0.540379 1.28381 0.864627 0.0802439 -1.0278 0.706491 -0.370969 -0.796471 -0.585929 0.372581 -0.188359 -0.183711 0.0824615 -0.375383 -0.0830272 -0.548016 -0.640929 0.222916 0.657107 0.0145803 0.248022 -0.412152 0.446091 -0.267997 0.784053 -0.386953 0.405775 -0.356875 0.24123 0.11764 0.575033 -0.593024 -0.211423 0.289634 -0.236153 0.221013 -0.663867 -0.700593 -0.673307 0.606937 -0.173333 0.132541 0.341853 -0.302941 0.0488571 0.479862 -0.0102532 -0.182766 0.269841 -0.105961 -0.276532 0.880748 -0.60407 0.639881 0.0695736 -0.0965393 0.0170392 0.219595 -0.632538 -0.0702389 0.0370855 0.221716 0.237374 -0.124851 -1.23412 0.129954 -0.0127293 -0.586428 0.414987 0.465327 -0.456018 0.0749092 -0.409126 0.515835 -0.435777 0.601942 -0.122124 -0.498192 0.408026 -0.0487835 -0.58914 -0.491018 0.0192673 -0.759954 0.641471 -0.202695 0.145976 0.363324 -0.0511252 0.758593 -0.367915 -0.195466 0.405103 -0.225507 -1.28848 0.22342 -0.297908 0.0916694 -0.313788 -0.461158 -0.354163 -0.0546781 0.0243244 0.0400157 0.590564 -0.904134 -0.288539 -0.0992491 -0.0715599 0.116778 -0.337976 0.130123 0.163718 -0.0953093 -0.268075 -0.193998 -0.03784 -0.0518049 0.00993632 -0.055149 0.399178 0.357555 0.401359 0.0856816 0.393033 0.0769156 -0.647675 -0.252017 0.30062 0.366214 -0.220897 0.0029721 0.521228 0.0561652 0.0438171 -0.208798 -0.299711 -0.727901 0.463834 -0.908986 -0.270502 0.0160864 -0.450722 -0.399573 0.538092 0.346156 -0.374249 -0.0161799 0.167203 -0.109514 0.12167 -0.0253015 -0.203325 -0.493942 -0.0762628 0.19181 0.299539 0.329103 -0.58122 -0.124853 1.0185 0.319256 0.373196 1.19313 -0.71039 0.216808 -0.195999 -0.124845 -0.205112 1.22185 -0.383289 -0.349502 0.30189 -0.253259 -0.0242746 0.372338 -0.173908 -0.137918 0.00969329 -0.160934 0.172792 -0.489808 -0.533117 0.606959 -0.0408512 -0.596337 0.103238 -0.540303 -0.344296 -0.104072 0.457258 -0.0771255 0.00940788 -0.137976 -0.111677 -0.888557 -0.251366 0.321053 0.987006 -0.429679 0.217258 -0.299456 -0.29665 0.246124 0.0904253 -0.474295 -0.2921 -0.025259 -0.368583 0.337555 -0.603195 0.0618162 -0.473208 -0.110591 -0.255617 -0.284042 -0.0272328 -0.0209622 -0.0759605 0.410105 -0.0636937 -0.365511 0.291213 -0.666605 -0.279079 0.397383 0.0628345 0.0251203 -0.407119 -0.0491929 0.136164 0.223505 -0.59511 0.361993 -0.823012 -0.677388 -0.439065 0.317144 -0.244807 0.49179 -0.317077 0.00139521 -0.0983437 0.132316 0.208823 -0.0499248 0.0555621 0.285952 -0.497183 -0.999502 0.649342 -0.116083 -0.22116 -0.732709 0.0438994 -0.943784 -0.843058 -0.235957 -0.0736473 0.0624551 -0.611371 -0.0387138 0.555644 0.133709 0.372588 0.69033 -0.642304 -0.314448 -0.150534 -0.440418 0.305647 0.116703 -0.624928 0.0207717 -0.327588 -0.722569 0.00785872 0.29613 -0.471447 0.550212 0.553846 -0.223936 0.528062 0.675198 0.0849866 0.184489 -0.0821434 -0.837806 -0.247781 0.362666 0.200502 -0.335826 -0.230671 0.48446 -0.449806 0.801831 0.0377563 -0.304204 0.9388 0.357268 -0.132195 -0.344357 0.506589 0.752696 0.395713 0.311675 -0.380989 0.489369 -1.09056 0.336998 0.547237 0.630073 -0.263197 -0.284936 0.0578669 0.0828196 -0.211699 -0.272267 0.168555 -0.0618092 0.00393294 -0.211538 0.334731 0.174935 0.497875 -0.388193 -0.175962 -0.254619 0.0809817 1.05733 -0.32053 0.820447 -0.742488 -0.055632 0.0355566 -0.309696 -0.438434 0.239511 -0.200391 -0.876256 0.339067 -0.742725 -0.281398 0.525189 0.04313 -0.327836 0.406802 1.26249 0.815435 0.436814 -0.119406 -0.13904 -0.359237 -0.170693 -0.29351 -0.354532 -0.128155 -0.035646 -0.0876408 0.263086 -0.608694 -0.196501 0.0650499 -0.0946084 0.0653789 -0.380897 0.160687 -0.355917 0.595293 0.279553 -0.281988 -0.147458 -0.167403 0.00260186 0.0778002 -0.116554 -0.477766 -0.113647 -0.455881 -0.973696 -0.140007 0.250539 -0.249993 0.497921 -0.229371 -0.195938 0.311875 0.699204 0.31838 0.0634904 0.0428643 -0.509223 0.35429 0.0521842 0.314275 1.08888 0.19716 0.259164 -0.380621 -0.32719 0.469274 1.22881 0.274927 0.451733 -0.10458 0.680526 0.172567 -0.321426 -0.141701 -0.404111 -0.309519 -0.40454 0.0657913 -0.128716 0.068947 -0.276586 -0.328054 0.550899 0.10821 0.0087425 -0.415003 -0.396961 -0.377934 0.394003 0.452877 -0.53303 -0.365785 -0.593792 0.561949 -0.157743 -0.771554 -0.15707 -0.478681 -0.0614218 1.07215 -0.276054 -0.0870716 0.295682 0.0622516 -0.639355 0.373874 0.529102 -0.196655 -0.0918277 -0.373266 0.53769 -0.761627 0.297363 -0.291178 -0.0641878 0.354812 0.00534013 0.0872747 -0.169976 -0.959361 0.605739 -0.235736 0.112539 0.0769651 -0.889573 0.0315322 -0.160252 0.350281 0.52432 0.322758 -0.161905 0.281613 0.695222 0.279053 1.27654 -0.667873 0.669873 -0.482052 0.628719 -0.580161 0.177804 -0.188241 -0.178942 0.162517 -0.155535 0.115269 0.749512 -0.31407 0.423615 0.301143 0.0753501 0.812955 0.278265 0.685258 -0.295504 -0.159866 0.285386 -0.0708319 0.195147 0.434226 -0.239306 -0.393835 -0.151073 -0.0289375 0.292668 0.296043 0.186361 -0.349526 0.275596 -1.15983 0.303639 0.364626 -0.334228 -0.258763 0.261124 -0.589607 0.567922 0.0720219 0.493737 0.810919 -0.181681 -0.260187 -0.368772 -0.583609 0.422598 -0.205115 -0.50911 -0.118943 0.0299753 -0.665851 -0.661329 0.71196 -0.332527 1.07879 0.507648 -0.244794 0.49583 0.154061 0.0139263 0.0121811 -0.990678 0.88225 0.169585 0.35082 -0.127629 -0.407673 0.0505139 -0.37965 -0.387981 0.0400689 -0.59693 0.231627 0.319438 0.203705 -0.0347099 0.775993 -0.560286 0.213494 -0.27055 0.115112 -0.198609 -0.285175 0.106564 0.392256 -0.117936 0.391521 0.33075 -0.482815 -0.245823 0.192063 0.119609 0.582834 -0.570513 0.144806 -0.27956 -0.0237062 -0.97715 0.436777 -0.410771 -0.361869 0.4864 0.279 0.247325 0.150081 -0.194766 -0.371654 0.220801 -0.77915 -0.0975739 0.363349 -0.234567 0.441104 0.218859 -0.451622 -0.504456 -0.505531 0.354789 -0.335428 0.741789 0.186612 -0.0334611 -1.08592 -0.417704 -0.340532 -0.337367 0.246546 -0.139696 0.64481 0.303621 -0.486277 -0.575016 -0.496482 0.15437 0.539066 -0.648736 0.516229 -0.320783 -0.162357 -0.257137 -0.119037 -0.573288 -0.284328 0.131155 0.720584 0.52501 0.144311 0.493184 0.0820702 0.379873 -0.160412 0.373218 0.447951 0.013851 0.161749 -0.872339 -0.461839 -0.490145 0.0502095 0.22207 0.132113 0.100383 0.645842 -0.71173 0.797501 -0.409136 -0.380877 -0.0790247 -0.179777 -0.221202 -0.269206 0.236115 0.124632 -0.109373 -0.221465 -1.03672 -0.20443 0.0587829 0.129365 0.47256 -0.28421 -0.192234 -0.100989 0.776547 0.177667 0.408579 -0.145118 -0.0257925 0.147919 -0.168411 -0.268281 -0.223836 0.192531 0.491585 0.139741 0.0609017 -0.0572441 0.581524 -0.0108589 0.320359 -0.0359077 0.0278344 0.0568147 -0.168449 -0.215747 0.270971 -0.0676665 0.492045 -0.00389825 -0.212211 -0.202864 0.250758 0.348042 -0.140754 0.399282 0.821752 0.336854 0.282566 -0.598346 -0.485991 0.337361 -0.531753 0.077067 -0.470168 -0.169809 0.730084 0.325674 -0.0516907 0.565074 -0.258651 -0.390873 -0.281113 0.273132 -0.670638 0.0144835 0.27815 -0.0958301 0.0536942 0.248809 -0.264392 0.219699 0.586038 0.0131651 0.0477671 0.482817 -0.103842 -0.309723 -0.223848 -0.213376 -0.585276 -0.688983 0.732894 -0.334081 -0.577931 -0.434138 0.48302 0.384688 -0.0559699 -0.0870733 -0.410958 0.789802 -0.537998 -0.198197 0.397318 0.133738 0.13066 0.046776 0.169885 -0.0373677 -0.379358 0.678899 -0.0372168 -0.491689 0.471183 0.189195 -1.02576 0.497145 0.638364 0.0450768 -0.115795 0.887237 -0.416352 -0.577536 -0.117719 -0.162346 -0.284124 0.101046 0.278593 -0.0304835 -0.616729 -0.551824 0.441553 0.0194757 0.202132 -0.785248 0.0533102 0.0299574 -0.618471 -0.175505 0.588741 -0.255442 -0.166898 -0.148519 0.206786 0.288509 0.454782 0.671233 -0.337336 -0.184331 0.247599 0.395651 -0.241058 -0.511949 -0.791527 0.612197 -0.319313 0.601777 -0.230261 0.107615 -0.157799 -0.482631 0.0711161 -0.397813 0.37981 0.0395233 0.566093 -0.746514 -0.69325 0.577558 0.521947 -0.345053 0.83974 0.812155 -0.431234 0.720493 0.303159 0.0305811 0.0511016 0.333079 -0.169417 -0.633622 -0.282565 0.0772209 -0.10966 -0.44151 
-0.535802 -0.0231126 0.264431 -0.211835 -0.380581 -0.240404 -0.281337 0.742022 0.0712918 -0.00360009 -0.439605 0.521439 -0.325328 -0.151702 0.205338 -0.0653106 0.496643 -0.277536 0.410903 -0.409875 0.403885 0.341087 -0.199457 0.174813 0.0183077 0.620995 -0.229793 0.661008 -0.283179 0.512131 0.54077 0.254147 -0.457708 0.422895 -0.0728439 0.0798454 0.135737 -0.118229 0.320829 0.203187 0.578099 0.290304 -0.129162 0.220887 -0.686365 -0.0214406 -0.198381 0.11416 -0.310658 0.163297 -0.655261 0.00612382 -0.426101 -0.0530702 0.17322 0.135499 0.244101 -0.17253 0.0814327 0.550715 0.202426 0.142109 -0.164611 -0.264555 -0.316195 -0.764575 -0.22792 0.591724 -0.0230789 0.288849 0.45825 0.705032 -0.926461 -0.551455 -0.99802 -0.420303 1.04264 -0.507482 0.0443367 0.111566 0.0829893 -0.588145 0.751016 -0.347116 0.427038 0.0182386 0.218888 0.161281 -0.475126 0.267668 0.0781463 0.00330896 -0.326949 0.656423 -0.166174 -0.383885 0.363037 -0.727751 -0.342531 -0.315371 -0.656217 -0.199297 -0.43693 0.237677 -0.253245 -0.307428 0.148274 0.573751 -0.130148 -1.20064 -0.366367 0.0773967 -0.13202 0.119998 0.675845 -1.28533 -0.71721 -0.781455 -0.169399 -0.374912 -0.0169575 -0.488227 -0.449505 -0.110788 -0.344009 0.755595 -0.856577 -0.073776 -0.621223 0.122181 0.449823 -0.132422 0.159927 -0.257608 0.570528 0.27526 0.3798 -0.081793 0.646222 0.0440486 0.68001 0.46428 -0.500831 -0.231279 -0.58936 0.120143 -0.301895 0.28954 -0.737739 -1.0942 -0.185581 -0.345018 0.57639 0.423512 -0.770173 0.369965 -0.150494 -0.221265 0.0898179 -0.266131 -0.600602 0.0429914 0.203111 0.358041 -0.282227 0.242502 -0.668359 0.205647 -0.0733934 0.591005 -0.0286216 0.254709 0.410392 -0.186848 -0.102265 -0.0509925 -0.0168009 -0.214484 -0.122611 -0.355513 0.712058 -0.134079 -0.516147 -0.173731 -0.215547 0.447177 0.437934 -0.384476 -0.271271 0.0746325 0.912933 0.43258 -0.0650639 -0.196843 -0.409959 0.384019 -0.129664 0.491679 0.125353 -0.200506 -0.00649272 0.447925 0.292776 -0.858887 0.623445 -1.29321 0.234911 -0.308117 -0.0374996 0.26657 -0.344266 0.689822 -0.0575786 -0.107706 -0.113998 -0.443166 0.0671792 -0.22802 -0.73824 -0.276981 -0.344303 -0.00536968 -0.735281 0.40762 -0.369967 0.332314 -0.0121279 -0.333125 0.121875 0.013177 0.590182 -0.143177 0.443791 -0.535726 -0.415686 0.017399 -0.110454 -0.313333 -0.437311 -0.0448695 0.0899921 0.486002 1.2285 -0.541238 0.59143 0.0499607 -0.0178443 -0.702634 -0.256781 0.105837 -0.00468583 0.16551 -0.407045 -0.0947386 -0.27495 -0.194581 0.0748931 0.125054 0.213182 1.01622 -0.227324 0.232657 0.537259 0.100836 -0.400334 -0.224132 -0.54323 0.0195647 -0.0375985 -0.662252 -0.417006 -0.29573 0.561871 0.408075 -0.155583 -0.0143374 -0.0749503 0.788217 -0.167037 -0.297651 -0.627404 -0.125372 0.276525 0.0381087 -0.0716871 0.323954 0.622908 -0.502253 0.107802 0.267715 0.700353 -0.146728 -0.509441 -0.770754 0.45717 -0.0123006 -0.953065 -0.149914 0.00549719 -0.454169 0.231339 -0.170351 -0.164496 0.506923 -0.164801 0.147171 -0.274821 0.0475316 -0.00206453 -0.698612 0.533062 -1.02419 0.372163 -0.11744 0.37526 0.0238284 -0.0253112 -0.991101 0.225391 0.131499 -0.46988 -0.191856 -0.446614 -0.0858846 0.756065 -0.690156 0.207002 0.283917 0.133654 0.0993226 -0.256151 0.100907 -0.259394 -0.493001 -0.341257 -0.200435 -0.0514079 -0.76203 1.05387 0.113011 -0.423777 -0.506654 0.663476 -0.0139788 -0.561006 -0.0766811 0.320145 -0.761545 -0.300574 0.230276 -0.112109 0.645308 0.224307 0.857067 0.7188 -0.656332 0.134809 -0.501556 0.874875 0.472618 0.191713 -0.119373 0.244375 0.375335 0.542123 -0.0134871 0.123242 0.617726 0.661214 0.142102 -1.06309 -0.582261 -0.923049 0.00845101 0.422062 -0.755712 0.109544 0.26078 -0.179489 0.217755 -0.463876 -0.195792 0.222229 -1.01254 0.0484594 0.143017 0.109498 0.189559 0.207262 -0.249544 -0.32725 -0.453684 -0.366237 0.0682062 -0.698463 -0.302269 0.174875 0.200251 0.685721 0.0253596 -0.423321 0.187257 -0.165872 -0.0576515 0.656307 0.53429 0.132429 -0.859951 0.5531 -0.0193283 0.488578 -0.000194673 0.346594 0.167128 0.44314 0.600359 0.0318344 0.123732 0.393945 0.847609 0.0285274 0.0182805 -0.346123 -0.866767 0.468948 -0.401337 0.325566 -0.464551 -0.737042 -0.479286 0.349061 0.494453 0.444486 -0.661441 0.305514 0.272254 -0.334707 0.557369 0.341921 -0.00636828 -0.134224 0.499837 0.0166371 -0.0816175 -0.564311 -0.768374 0.458199 -0.178229 0.306529 -0.485092 -0.605517 -0.394859 0.59274 -0.241104 -0.0103236 0.113389 0.283716 -0.922753 0.225899 -0.18941 0.163397 -0.0880444 -0.386121 0.610195 0.16288 -0.41154 -0.610441 -0.0045867 0.25595 -0.176941 0.770935 -0.634816 0.0820398 0.733109 -0.175502 0.268892 -0.138332 0.632815 -0.116739 -0.383434 0.175275 0.217692 0.266696 0.190666 0.650126 0.237208 0.273338 0.582968 0.653679 -0.22165 0.668933 0.084128 -0.0636921 -0.178142 0.383818 0.114317 0.545455 0.139238 -0.605653 -0.669803 -0.312398 -0.349918 -0.0197846 0.284965 0.118114 -0.460924 0.256392 0.0469591 0.481669 0.0550537 0.495692 0.307002 0.819507 -0.434032 -0.455787 -0.15955 1.27026 0.0656604 -0.360464 -0.603804 0.235429 0.186369 0.0367818 -0.351965 0.405566 0.274707 0.342581 1.0414 -0.513137 0.489308 0.474767 -0.139907 -0.26122 -0.201477 -0.176716 0.665381 0.136775 -0.111439 -0.41791 -0.438494 0.164721 0.175514 0.277138 0.699741 -0.258734 -0.166689 -0.242548 -0.120404 -0.173933 0.0204471 0.16943 0.942539 -0.385531 0.325435 -0.112093 0.235718 -0.147833 -0.165013 0.648949 -0.39536 -0.405041 -0.388772 0.412505 -0.188203 -0.149905 -0.167519 0.33638 -0.207187 0.425829 0.326165 0.377859 0.0840732 0.30967 0.0690908 -0.031211 0.213347 -0.729856 -0.0542524 0.033861 -0.201166 -0.392451 -0.454781 0.0144709 0.0657615 -0.32195 0.136775 0.371446 -0.197923 -0.530973 -0.180291 -0.0309334 0.444919 0.416723 -0.146205 -0.636999 0.489529 -0.00825369 -0.43994 -0.214306 0.0164523 -0.29735 -0.0829821 -0.189467 -0.123822 0.0786365 0.168914 0.131884 0.267304 -0.499682 -0.773421 0.428228 -0.142038 0.292461 0.559327 -0.181137 -0.937461 -0.399156 0.0662824 -0.506043 0.621113 0.183495 0.127716 0.768894 0.410716 0.231205 -0.229678 -0.127995 -0.478406 -1.2554 0.19811 -0.547995 0.0105931 -0.0893791 -0.0527721 0.597232 0.497927 -0.749132 -0.368312 0.119174 -0.477983 0.0195234 -0.183483 0.218621 -0.368154 -0.0591987 0.323605 -0.122975 0.185301 -0.551694 0.0629235 0.536 0.774636 -0.00707111 0.604854 0.104607 -1.4037 0.257734 -0.133818 0.200921 0.34442 -0.221855 -0.273609 0.527982 0.127637 0.412501 -0.31798 -0.355466 0.222508 0.0672112 -0.145706 0.464224 -0.0274829 -0.47589 -0.166592 -0.568305 0.579687 -0.167215 0.0616945 0.170568 0.516467 0.176342 0.27206 0.233442 0.0637743 0.128193 -0.180118 -0.35534 0.0452464 0.0511236 0.258377 0.397996 0.193552 -0.145215 -0.191313 -0.600175 -0.132381 -0.0987246 0.0585823 0.106625 -0.422384 0.791904 0.331079 -0.0741731 0.143066 0.910404 0.465323 -1.00673 0.127081 0.578157 0.322322 -0.643429 -0.338819 0.0726353 0.110557 0.432531 -0.616206 -0.150065 0.334048 0.211555 -0.282585 0.301723 0.204736 0.0325654 0.0451341 0.505297 0.120884 1.00797 -0.151744 0.697869 -0.151608 0.388703 0.18594 -0.441523 -0.637904 -0.339652 0.362166 0.0383222 0.418927 0.40505 0.71615 0.564786 0.373585 -0.184644 -0.689247 0.130993 -0.204744 0.526704 -1.48119 0.0214349 0.30204 -0.915368 -0.453041 0.670524 -0.0630043 0.157851 -0.317008 0.20373 0.599922 0.193604 -0.796078 0.125575 -0.412058 -0.233963 -0.499485 -0.838885 0.0169199 -0.870091 0.217905 -0.212974 0.465705 0.19513 -0.391983 0.16912 0.567689 -0.638181 0.336271 0.987128 -0.0697126 0.175486 0.177303 -0.37258 0.318182 -0.275504 0.781926 -0.372047 0.0578414 -1.03851 0.667612 0.0554456 0.753779 0.561402 0.57576 -0.604156 0.0494944 -0.668316 0.0973249 -0.0845278 -0.532567 0.00612027 -1.06088 0.154301 0.439541 -0.101897 -0.190781 0.3561 0.16084 -0.138736 0.582585 0.128093 -0.23869 0.347835 0.491194 0.0948098 0.183054 -0.0511595 1.14871 -0.449476 -0.0126757 -0.77207 0.75479 0.13982 -0.203659 -0.457251 -0.43212 0.433171 0.849409 -0.0740554 -0.786409 -0.275438 -0.912929 0.292882 0.678536 -0.307826 -0.0475336 0.269498 0.472531 0.965825 0.0107583 0.106848 -0.394558 0.796408 0.0103548 0.297865 -0.298842 -0.561738 0.269204 0.334346 0.0862519 -0.28819 0.0323356 -0.0760987 -0.222191 -0.335642 0.221873 -0.0733961 0.276381 -0.287721 0.134152 -0.0698046 0.483074 0.280564 -0.281526 -0.930352 -0.54784 0.25596 -0.262345 -0.0232359 0.154784 0.0522906 -0.7878 -0.216863 0.0314442 0.700531 0.0158758 -0.194873 -0.242222 -0.326372 -0.465965 0.494989 -0.650492 -0.432397 0.472871 0.271651 -0.206494 -0.207112 -0.0494653 0.951859 0.374311 -0.396634 0.191184 1.02061 -0.0872804 0.198311 0.62132 0.550786 0.0201355 0.133395 1.12861 0.0208467 -0.31007 0.0141951 0.397556 0.471164 -0.563536 0.27689 -0.16238 -0.705887 -0.344744 -0.312105 -0.0325904 -0.194914 -0.218355 0.106092 0.101553 -0.240316 0.0301443 0.464296 -0.0599739 0.138014 -0.243507 -0.494284 -0.484801 0.492151 -0.380291 -0.620106 -0.452676 -0.58547 0.266069 -0.341094 -0.0712069 -0.075603 -0.374096 -0.194295 -0.216988 0.122457 -0.0573018 0.0797609 -0.596218 0.358251 -0.28608 0.298183 -0.0908661 -0.423374 -0.188729 -0.043576 0.663954 -0.386485 0.158042 -0.642691 0.385588 -0.382008 0.16902 -0.327982 0.23985 -0.0544139 0.507687 0.393594 -0.714432 0.0216025 0.565174 0.221476 0.341916 0.423224 0.350927 -0.262435 -0.662636 -0.355295 0.0942187 -0.271601 -0.0347896 0.995649 0.102386 0.410626 0.388528 0.615073 1.08654 0.0459315 0.322867 0.505315 -0.0420434 -0.340209 -0.388718 -0.173339 0.426955 0.112718 0.132843 -0.738548 -0.852262 -0.231764 0.366182 0.161454 -0.263918 -0.463541 0.105092 0.165649 0.729623 0.33826 0.127262 0.657763 -0.315191 -0.369234 0.616265 0.185923 0.205558 0.478356 -0.112148 0.0400737 0.182426 0.490138 -0.650582 0.568718 -0.169803 -0.0898933 0.122113 -0.347212 0.320893 -0.751335 0.711722 0.315826 0.536893 0.808382 -0.306028 0.639455 0.576486 
