10 2048
0.0874909 -0.314522 -0.285536 0.71562 0.0800466 -0.247206 -0.192496 -0.251426 -0.410294 0.284015 -0.52158 1.01962 0.322072 0.879578 0.494737 -0.130953 -0.422386 0.430448 -0.247185 0.614315 0.0609861 0.0591015 -0.169718 0.786475 -0.822075 0.28958 -0.297432 -0.402326 -0.243715 -0.160678 0.287012 -0.513644 -0.56099 -0.0940977 0.169087 0.493973 0.333317 0.0743308 0.122333 0.493614 0.467151 0.274456 -0.0453269 0.0583091 -0.127581 0.319631 0.184792 0.610288 0.422015 -0.577778 -0.752735 -1.1256 -0.521233 0.00958268 -0.00514741 0.186585 0.0048258 -0.523381 0.685224 -0.731088 -0.420669 0.162265 0.136943 -0.518108 0.331285 -0.76728 -0.418724 -0.353257 0.252868 0.333141 -0.372749 -0.223579 -1.01986 -0.14563 -0.640228 0.521382 0.828835 0.298481 -0.597338 -0.700211 -0.175778 -0.505532 0.596425 -0.49582 0.0128969 0.886694 -0.4293 0.375494 0.525576 -0.173633 0.435175 0.0297433 -0.261143 -0.606768 -1.15248 -0.816629 0.208978 -0.432481 1.04058 -0.0352595 0.0782796 0.0743127 -0.78567 0.693368 -0.498911 -0.122896 -0.100807 0.427292 -0.397522 0.194712 0.580901 -0.0837369 -0.143717 0.700213 -0.574723 0.233988 -0.516186 -1.13198 -0.781578 -0.278983 0.724372 0.847963 -0.391498 -0.823546 0.308591 -0.51304 0.145112 -0.473008 0.618702 -0.33852 0.367521 0.0345399 0.729832 -0.245998 -0.294694 -1.02936 -0.186545 -0.564884 0.400865 0.0371257 -0.196582 -0.296288 0.193853 -0.167551 0.541214 0.205181 -0.616594 -0.390361 -0.714502 0.459002 0.550633 -0.114958 -0.222504 -0.0591546 1.18704 -0.132211 -0.270869 0.430413 1.11044 -0.451414 0.611454 -0.622955 0.0808586 -0.369189 -0.768587 0.757683 -0.680556 -0.605981 0.000392408 -0.141525 0.496126 0.539257 0.814823 0.151755 -0.843337 -0.120884 -0.297604 0.339387 0.437544 -0.00313964 0.320475 0.698027 -0.519128 -0.178104 -0.239372 0.00849121 0.0878068 0.0480397 0.919014 -0.491601 -0.147731 -0.232898 1.01786 -0.418452 -0.116349 0.242323 -0.238027 -0.14188 0.224811 -0.277263 0.0122335 0.2771 -0.352 -0.691288 0.600575 -0.323118 -0.267688 -0.899094 -0.277565 -0.383363 -0.661542 -0.792282 -0.490051 0.301444 -1.16303 0.195925 0.813877 0.228894 0.739457 0.118038 -0.0114455 1.07207 -0.348465 0.444476 0.0585869 0.56181 0.211426 -0.284505 -0.328692 -0.482783 0.476065 0.383521 0.470561 0.438687 -0.104884 -0.564903 -0.863108 0.879005 0.640145 -0.0560857 0.169491 -0.583993 -0.245972 0.0140035 0.0653936 -0.391936 -0.303546 0.208048 -0.336178 0.243347 0.472217 -0.189884 0.555996 0.217005 0.0751033 -0.608384 -0.16673 0.209447 0.360541 0.190413 0.903302 0.198703 -0.267076 -0.26093 0.0685763 0.687723 -0.392274 -0.157404 -0.208152 0.134811 0.178703 0.407766 0.648034 0.525709 0.245755 1.2712 -0.1869 0.00104804 0.39096 0.586064 0.0736823 -0.266357 0.472176 0.402347 -0.0105794 0.0772735 0.0848161 -0.527426 0.0602393 0.514328 -0.556591 -1.12945 0.336081 -0.148399 -0.227841 0.138462 -0.0227373 -0.0944683 -0.0177066 0.088625 -0.444405 -0.0800142 -0.441195 0.375864 0.55107 -0.475652 0.0565617 0.347978 -0.657345 0.0945326 -0.55132 -0.582078 0.774223 -0.571015 0.158964 0.438866 -0.394243 0.250411 0.00139909 -0.529305 0.383203 0.0132587 0.157195 -0.331958 0.208811 1.00882 0.0592392 -0.564394 0.811806 -0.00998727 -0.530478 0.278249 0.144251 -0.471027 0.342041 -0.0853471 0.586069 0.355258 0.189385 0.214524 -0.131674 0.155855 -0.22051 -0.0229081 -0.229549 -0.107747 0.634934 -0.395917 -0.589769 0.361998 -0.0367818 -0.440676 -0.0427869 -0.221379 1.06432 0.121388 0.761112 0.181843 0.390241 0.147617 0.412939 0.834883 -1.04824 -0.123317 -0.246189 -0.40349 -0.387036 -0.329403 0.109367 -0.782156 0.176502 0.777735 -0.159443 0.48208 0.717156 -0.557544 0.393783 0.288144 0.0296615 -0.0699759 -0.156241 -0.17062 1.08663 0.076719 0.159617 -0.0785729 0.315717 0.542496 -0.0704522 -0.0695064 0.297251 -0.403389 -0.395337 0.0512413 -0.235355 -0.282738 -0.204736 -0.287909 0.0911633 0.317297 0.14926 0.541544 -0.496076 -0.609902 1.06191 -0.137791 -0.141809 -0.283162 -0.395451 -0.427026 0.310256 0.438705 0.425344 0.739488 0.755573 -0.0500708 -0.0649145 -0.248133 -0.0245486 -0.116558 0.512189 0.316548 -0.422826 0.0476825 0.463086 0.0639712 -0.900218 0.111206 0.222587 0.237543 -0.428612 -0.333645 0.115399 0.248088 -0.209255 -1.07484 0.352621 -0.782687 -0.334883 -0.11634 -0.483315 0.23804 -0.0612605 0.160777 0.119205 0.21932 0.0434669 -0.306533 -0.477891 0.110513 0.123112 0.256066 -0.836135 0.127464 0.271766 -1.02445 -0.226837 0.0534172 0.41737 -0.0975319 0.801713 0.274214 -0.359332 0.483976 -0.09276 -0.231934 0.496651 0.361273 -0.592972 0.174328 -0.178229 0.132439 0.431129 -0.0871126 -0.479084 0.077708 -0.273981 0.120235 -1.11082 0.613029 -0.103372 0.336512 -0.265503 -0.195628 -0.0286863 0.898615 -0.548642 -0.331558 0.170621 0.592215 0.416358 0.325978 -0.288753 0.0121692 0.297391 -1.02161 0.314106 0.384389 0.470257 0.182706 -0.0746948 0.492454 0.205003 0.0494308 -0.0160516 0.325132 -0.0837244 0.164014 0.144745 0.0826359 -0.264748 -0.488082 0.0500427 0.462397 0.869091 -0.173373 0.330848 -0.0991707 -0.204574 1.01734 0.260562 0.144621 -0.0216909 -0.626274 -0.00978473 -1.21359 -0.0722926 0.188081 0.0599255 0.361021 -0.563243 -0.583928 -0.361928 0.0437973 -0.562952 0.787017 -0.484577 -0.250874 0.0119437 0.00848507 -0.841184 -0.400792 0.231725 0.831874 0.384371 0.124199 0.482558 0.357709 -0.158305 -0.598997 -0.170733 -0.679115 -0.4929 -0.094834 0.827982 0.00757595 -0.806211 -0.229861 0.0633492 0.604185 0.157168 0.638394 -0.254308 -1.22067 -0.0538785 -0.230791 0.141357 0.24985 0.0839124 0.92651 0.156375 0.239329 -0.348787 0.456732 -0.0467758 0.324331 -0.365445 -0.244816 0.061316 -0.134458 0.0639523 0.244896 0.216646 -0.69233 -0.147288 0.847112 -0.919985 0.370788 0.274218 -0.506208 -0.789952 -0.274756 -0.0480997 0.32613 -0.671933 0.169154 -0.0905527 -0.202456 0.293883 -0.15497 0.0443079 -0.0746819 0.196716 0.419511 0.296723 -0.261991 -0.491258 0.094393 -0.320832 0.278508 -0.157118 -0.59377 -0.0555984 0.778991 0.420208 -0.0668372 0.173779 -0.0830942 0.0617242 -0.0310704 0.104528 -0.300102 -0.159332 0.356812 -0.399808 0.151696 0.181154 0.103839 -0.1504 0.1411 0.3103 0.249656 -0.0825402 -0.259129 -0.279523 0.0237282 -0.578224 -0.203491 -0.340662 -0.0892145 0.0183459 0.070712 0.0372231 0.224455 -0.552582 -0.348932 -0.0215194 -0.463943 -0.190868 -0.421579 0.398168 0.218493 -0.888327 0.317237 -0.923478 0.333525 -0.173929 -0.295451 0.269424 -0.470132 -0.298663 -0.0252972 0.31724 1.11763 0.761559 0.423603 -0.37057 -0.555235 1.23881 -0.396722 0.505706 -0.35766 0.367426 0.881619 0.534012 -0.948624 0.208931 -0.0415158 0.0297572 -0.683735 0.456002 -0.358425 0.244941 0.0529054 -0.14168 0.183316 0.161435 0.123528 0.0996234 -0.338487 -0.429145 0.556586 0.137491 0.362192 -0.456362 -0.168502 -0.503868 0.176288 0.399586 0.0554297 -0.338154 0.119613 -0.019244 -0.745009 -0.4059 -0.221741 -0.28588 -0.742954 0.150692 0.454916 0.036957 0.188963 -0.724534 0.762649 0.408509 -0.160644 0.118977 0.114171 0.238242 0.256979 0.00866097 -0.622861 0.00139282 -0.261139 0.0489187 -0.0137167 0.0112505 -0.0757005 -0.209108 -0.625823 0.0983584 0.102697 -0.612124 0.584128 0.140781 -0.265511 -0.218091 -0.251164 -0.0606556 -0.754175 -0.0180489 -0.683967 0.602391 -0.116369 -0.504326 -0.0203441 -0.448477 1.40406 0.613964 -0.0219997 -0.107705 -0.246732 1.10213 0.22719 -0.123888 -0.0195498 -0.2884 0.567713 -0.191011 -0.322623 0.562746 0.0309865 -1.29704 -0.415913 -0.910831 -0.474889 -0.840711 -0.137134 -0.120814 0.167614 0.161569 -0.266279 -0.194354 0.403384 -0.231537 0.197162 -0.425574 -0.202899 -0.649995 -1.13579 -0.0465455 0.204521 0.375844 -0.240706 -0.138462 0.162585 0.70204 0.181617 0.0314463 0.106198 0.0136176 0.376051 0.0354701 -0.605013 0.337859 0.453602 -0.49305 -0.409169 0.793467 -0.751327 -0.144613 0.0473544 -0.267684 -0.117047 0.51246 0.0910198 0.312822 -0.933585 -0.039826 0.232011 0.1275 0.0962638 -0.394151 0.377218 -0.357639 0.65899 -0.0568136 0.422224 0.265028 0.632306 0.0670649 0.101883 -0.425182 0.170681 0.395244 -0.150183 -0.0151262 0.15318 0.460835 0.0464724 -0.0814109 -0.654619 -0.88231 -0.500549 0.151648 -0.521532 -0.235384 -0.755923 -0.101541 -0.750239 -0.617232 -0.0473421 0.0446618 0.624039 0.360237 -0.74211 0.175733 0.39487 -0.623827 0.211273 0.358098 -0.3401 0.438772 0.191946 0.276925 0.168588 0.251745 -0.43832 -0.114565 0.226872 -0.138132 0.0450367 0.344857 -0.406195 -0.163441 0.683594 1.13619 0.660853 0.127495 0.599012 0.0906255 0.0178393 -0.889829 -0.518399 -0.0102497 -0.477344 0.352694 -0.0877415 0.350219 0.475586 -0.425357 0.189507 0.176187 -0.570748 0.310479 0.817459 0.0983261 0.399371 0.117118 0.059434 0.409013 0.0585962 -0.0642911 -0.530617 1.2815 0.170274 0.183442 0.371135 0.545837 -0.639298 0.464605 -0.515483 -0.222466 0.779371 0.479153 -0.196238 0.112456 -0.555345 -0.0724687 0.407483 -0.0726913 -0.578503 -0.80413 0.286943 0.0786554 0.185439 0.190138 -0.480009 0.22287 0.279532 0.319094 -0.0857144 -0.315722 -0.632856 -0.0702566 0.687276 -0.0228697 0.20679 0.640129 0.210782 0.0897601 0.146528 0.177802 -0.483686 -0.221623 0.898746 0.391018 -0.0674776 0.00850189 -0.438494 -0.100607 0.955221 0.612831 0.137026 -0.284449 -0.104722 0.0154086 -0.641016 1.0543 0.129163 0.893669 0.738568 0.152753 -0.581351 1.03694 -0.724415 0.568751 0.151638 -0.416674 -0.184392 0.0609771 -0.0411228 0.178658 0.297131 -0.210598 -0.423527 -0.0248204 -0.737568 -1.08438 0.34076 0.0936649 -0.313961 0.146515 -0.601677 -0.325793 -0.9298 0.0095042 0.0973791 0.481023 0.0599681 -0.30666 0.756619 0.475395 -0.338404 -0.0387333 -0.82199 0.737673 0.127007 -0.429152 -0.68787 0.342938 -0.201687 0.00961597 0.00983458 0.788494 0.00493118 -0.10922 0.155278 -0.256108 0.297194 -0.208309 -0.0754651 0.486648 -0.337731 0.620837 0.065629 0.816619 -0.384254 -0.698947 0.29821 0.724078 0.0444123 -0.106725 -0.267823 -0.114531 -0.228818 -0.025812 -0.416577 -0.0385413 0.353393 -0.0868476 -0.388154 0.506936 0.375844 -0.232801 -0.350517 0.141387 0.154318 1.02886 -0.44692 0.364234 0.371572 0.245543 0.0387028 0.125051 0.0369394 -0.514099 0.593731 -0.00700598 -0.0254303 0.636441 -0.581692 0.779265 -0.183658 -0.922001 0.255477 0.708628 0.68137 -0.356464 -0.30779 0.066256 -0.0554803 -0.348239 0.414517 -0.102113 -0.179387 -0.0424447 0.343615 0.85113 -0.249382 -0.120099 -0.293803 0.603198 0.0152627 0.0120524 0.0554982 0.355586 -0.122018 -0.28834 -0.40411 1.04748 -0.608696 -0.359529 -0.0936299 0.753018 -0.0685009 0.59362 -0.654062 -0.201729 -0.0224234 -0.306617 0.486636 0.17569 0.215315 -0.505166 -0.00598199 -0.0262351 -0.449877 0.873558 1.09103 -0.604481 0.197426 -0.731853 0.152087 0.018918 0.477486 0.286206 -0.321542 0.13444 -0.732027 -0.467349 -0.310974 -0.0367146 0.377302 -0.393214 -0.327832 -0.344855 -0.266797 0.842478 0.382966 -0.0221365 -0.369534 0.357424 0.0827891 0.344422 0.493075 -0.469205 -0.122144 -0.540342 -0.51933 0.0394536 1.28218 0.773679 0.853368 -0.0640242 -0.38148 0.555042 -0.308234 0.239766 -0.109875 0.621527 0.341615 -0.20585 0.625703 0.524707 -0.315215 -0.0363398 -0.480624 -0.326902 -0.592673 0.193709 -0.320788 -0.289402 0.192577 -0.451301 -0.274856 -0.290881 -0.158146 0.10933 0.538399 -0.815421 -0.060186 -0.0316835 -0.131232 -1.1385 -0.625718 0.470945 0.253336 -0.666083 0.142188 -0.210641 0.547585 0.292252 0.101078 0.39922 -0.0955782 0.118335 -0.305603 -0.451715 -0.560955 0.802308 -0.0778621 0.0998238 0.287966 0.256408 0.157174 0.181735 -0.456778 -0.694696 0.19558 0.11315 -0.100209 1.19235 0.75704 -0.172061 0.278594 0.0509606 0.069003 -0.501152 0.614364 0.52758 -0.352897 0.637826 0.307404 0.463028 -0.370518 0.669555 0.42442 0.0407087 0.143001 0.137439 -0.581509 -0.0381591 0.715426 -0.0424832 -0.415471 0.0842579 -0.792551 0.683997 -0.0887366 0.923314 0.190254 0.548985 -0.231698 0.38971 -0.022524 0.583651 0.234211 0.194486 -0.0929146 0.0795219 -0.309482 -0.664267 0.0221099 -1.22859 -0.369228 1.21768 -0.709615 0.06069 -0.0560664 -0.0487152 -0.538239 -0.353383 0.0591264 -0.377109 -0.553015 -0.35161 -0.210942 0.509925 -0.370941 0.0569763 -0.135959 -0.480039 -0.459612 0.180565 -0.163292 0.342142 -0.252273 0.200086 -0.0317966 0.482475 -0.813713 -0.897555 0.96175 0.0345757 0.110598 -0.0518751 -0.361894 0.832214 0.334322 -0.370675 -0.286926 -0.122078 0.147554 -0.369038 0.0482469 0.409837 -0.345275 -0.359005 -0.291008 0.317978 0.628241 -0.0126982 -0.387003 -0.0320831 0.366464 0.0203404 0.642591 -0.775506 0.428506 0.155179 -0.574485 0.0393533 0.811408 -0.445514 -0.719214 -0.282768 -0.130454 0.0801017 1.35892 -0.208566 -0.481799 -0.407548 0.53127 -0.190708 0.760891 0.035487 -0.209492 -0.583402 0.379673 0.595529 0.501539 0.618586 -0.270996 0.206971 1.12396 0.076005 -0.38558 0.105613 0.922039 0.525022 0.157673 -0.488006 0.102581 -0.143662 0.45298 0.494566 -0.0201588 0.79776 0.783909 0.407444 0.00247915 0.314239 -0.858861 0.762289 -0.0215645 0.442778 0.253934 -0.346686 0.164895 0.204604 0.128726 -0.191149 -0.0681102 0.501035 -0.390091 0.229042 -1.10136 0.112766 -0.309248 0.0193374 -0.3222 -0.0349527 -0.275134 -0.603973 0.537577 0.0681904 -0.831928 -0.322021 0.114195 -0.711678 0.524484 -0.121211 0.354903 0.0803234 0.0982895 0.112211 -0.402035 0.624584 -0.179476 0.239888 0.0531888 -0.438371 -0.244492 0.114497 -0.1127 0.104801 0.0211278 -0.254891 -0.814331 0.164044 -0.405645 0.112461 0.000731235 -0.0444722 -0.0603006 -0.138648 0.371253 0.267694 0.0571516 0.747742 0.451947 0.300036 0.0406309 0.422957 -0.195683 -0.243228 -0.090448 -0.604285 0.750449 0.561184 -0.392248 -0.239942 0.31757 -0.0173293 -0.271892 0.0450995 0.0124968 0.139644 0.29685 0.041906 -0.640783 -0.022337 -0.160978 -0.209023 -0.311667 0.2065 0.264322 -0.0880768 -0.0585299 -0.0129439 0.475279 -0.137409 0.122692 -0.170333 -0.493053 0.093124 -0.3674 0.217469 0.444816 0.116951 0.341373 -0.535385 -0.734338 0.799343 -0.0356823 -0.310572 -0.360306 -0.0985227 1.14122 0.382661 0.27394 0.671641 -0.13794 0.16306 -0.209335 -0.607978 -0.0801601 -0.308531 0.476985 0.46863 -0.670059 0.239311 -0.659891 -0.168471 1.1069 0.245965 0.908313 0.44641 -0.503469 0.288535 0.155057 0.18733 -0.200814 0.625723 0.773789 -1.00636 0.272027 -0.314418 -0.111148 -0.235276 -0.404116 -0.24021 -0.83338 0.0722867 -0.155557 0.404519 0.113421 -0.1297 0.625218 -0.650866 0.473422 -0.863928 0.337237 0.683408 -0.303952 0.492236 0.0161183 -0.458828 0.120173 0.357359 0.0188305 -0.553961 0.100681 0.317559 -0.667897 0.011108 -0.148948 0.519744 -0.0370566 -0.161601 -0.0796489 0.106724 -0.34056 -0.506708 -0.171758 0.0732968 0.443333 0.493589 0.405863 0.439039 0.0405045 0.155591 0.975362 0.191389 -0.166996 0.131585 -0.17022 0.0778292 0.28162 0.267013 -0.332488 -1.04533 -0.172862 0.035199 0.661974 0.0544657 0.338704 0.272945 0.489761 -0.248144 0.495136 0.0663491 -0.0182965 -0.253393 0.73376 0.222708 0.201497 -0.115771 -0.245492 -0.0487204 0.937455 0.262559 0.331475 0.254504 -0.1303 0.69556 0.464148 -0.3334 -0.320005 -0.0738813 -0.150306 -0.429534 0.698922 -0.206444 -0.328852 -0.694204 -0.658518 0.561032 -0.160419 -0.56103 -0.0369324 -0.23614 0.187063 0.385663 -0.549235 -0.701794 0.843144 0.0529167 0.0869144 0.172707 1.19433 0.190219 -0.774659 -0.566592 0.300602 0.339137 -0.169056 0.287187 -0.450325 0.361572 -0.517296 0.397308 -0.181533 0.43234 -0.126251 0.52954 0.059311 -0.279337 0.274556 0.0269351 0.0348768 0.198554 -0.189568 0.460233 -0.30844 -0.0746873 0.161107 0.0274883 1.28217 0.353826 -0.347773 0.138852 -1.00188 -0.299138 -0.272477 -0.115057 0.0374609 -0.148473 -0.71336 -0.0151988 0.263606 0.724317 0.376435 0.275915 -0.0504321 0.225818 -0.934028 -0.524344 -0.81906 0.226018 -0.408586 0.0333038 0.707498 -0.223293 -0.0737649 0.154432 -0.37782 0.454764 -0.222158 -0.43454 0.298334 -0.718755 0.662963 -0.427127 -0.974019 0.297698 -0.0637352 -0.206895 0.030948 -0.675591 -0.233043 0.281363 0.301987 -0.551044 -1.28824 -0.454379 -0.0102571 -0.296765 0.146723 0.667105 -0.350675 0.396809 1.05499 -0.62348 0.122328 -0.125926 0.657911 -0.18748 -0.233139 0.0296577 -0.0138902 -0.653899 -0.173919 0.112228 -0.621935 -0.115195 0.331646 -0.346852 0.860945 -0.000644271 0.0299609 -0.154234 -0.0741948 0.048998 0.116962 0.141953 -0.101149 -0.34204 0.569421 -0.406103 0.0468075 -0.673978 0.367656 -0.69834 -0.74722 0.270558 -0.263935 0.369175 0.511692 1.53486 0.223431 -0.491422 0.462521 0.248583 -0.300438 0.439228 -0.140847 0.0106937 -0.418308 0.698052 -0.133523 0.355058 -0.566826 -0.0258785 0.298963 -0.195584 0.814211 -0.257641 0.313766 0.721743 0.737047 -0.35099 0.646649 0.0896586 0.00312357 -0.130758 -0.665084 0.539275 0.884245 -0.221178 0.588735 -0.277558 0.0382674 -0.863098 -0.857638 0.224896 -0.382442 -0.117908 -0.17957 -0.200263 0.306172 -0.288348 -0.399804 0.229255 0.722146 0.036161 0.207684 0.350015 -0.103334 -0.683927 0.223185 -0.234852 1.09758 -1.22909 0.631468 0.254173 0.28793 0.333517 0.147211 0.877249 -1.13018 -0.163469 -0.382834 0.117233 0.822392 0.409723 -0.0805508 0.5203 0.292214 -0.481181 -0.201648 0.180874 0.0103852 0.213397 0.388968 0.11149 0.18965 -0.121484 -0.305262 -0.392652 -0.265373 0.0169209 -0.741033 -0.483579 0.826305 -0.216636 0.202679 0.169338 -0.00739779 -0.0588662 0.343287 0.195662 0.240539 -0.0517401 0.444349 -0.0708574 0.571196 -0.828175 -0.155113 0.745964 0.335639 0.950335 -0.169807 -0.861264 0.550525 -1.21224 0.170542 -0.0989907 0.759917 0.298217 0.446035 0.574497 0.181539 0.373088 -0.0568147 -0.926677 -0.112921 0.426013 0.418228 0.0192921 -0.486298 -0.191531 0.66879 0.226679 -0.0855707 -0.189811 0.207367 -0.377525 -0.690848 -0.286387 0.0476079 -0.177852 0.174439 -0.411948 -0.0507495 0.853149 0.167124 0.17104 0.0202659 0.263936 -0.965567 0.548967 -0.226376 -0.141131 -0.330599 -1.53891 0.430725 -0.165064 0.243688 -1.01793 0.149632 0.190679 0.0587664 -0.339465 0.234783 -0.792197 -0.143639 -0.506278 -1.14101 -0.0725509 -0.029676 -1.12413 0.427909 -0.323366 0.188031 0.290956 -0.312138 -0.785404 0.346132 0.238346 -0.333033 0.803912 -0.011661 0.202135 0.588902 0.0285106 0.258689 -0.122479 -0.364828 -0.164622 -0.0503127 0.025324 -0.537464 0.146015 0.0150656 0.347025 0.0667352 -0.20047 -0.232834 -0.34601 -0.445446 0.815816 -0.340415 0.0661012 0.399244 -0.23132 -0.474988 -0.177493 0.275327 0.148876 0.355596 1.18689 0.863137 1.53753 -0.572947 0.765171 -0.426283 -0.044731 0.204437 0.47932 0.287902 -0.896861 -0.325326 0.351518 0.281166 0.797108 0.347536 -0.29641 -0.147993 -0.351958 -0.782308 0.418498 -0.532144 0.29905 0.725848 0.763642 0.0910685 0.776807 0.347492 -0.424492 -0.17389 -0.0256512 -0.066219 0.418911 0.0332993 -0.175892 0.121418 -0.154469 0.750037 -0.367616 0.557553 -0.563716 -0.267044 -0.274502 0.0253164 0.246213 -0.483468 -0.0188486 0.340908 0.318389 0.224111 0.50597 -0.892267 -0.63842 0.109298 -0.435526 0.355837 0.454345 -0.315258 -0.581576 0.0471003 0.168829 0.969235 0.569025 0.496115 -0.388712 -0.250332 -0.183769 0.648879 0.251828 -0.527102 0.255543 -0.951207 0.112181 0.210941 0.476213 0.186145 0.534769 0.0296967 0.33289 -0.434961 -0.376266 -0.252741 0.0453589 -0.480023 -0.663424 -0.203363 -0.0251219 -0.400386 -0.837437 -0.625543 -0.384461 0.327452 0.0566966 0.100901 -0.276354 0.308399 0.0657076 0.154205 0.00353601 -0.0278722 -0.32885 -0.475133 -0.312305 0.690675 -0.492119 -0.693783 0.669439 0.35758 -0.0473357 -0.186056 0.508039 -0.703858 -0.415422 0.518622 0.204172 0.0543096 0.343339 -0.202686 -0.306711 -0.363826 0.0858728 0.134873 0.271281 -0.771413 -0.37626 -0.0378988 -0.676629 -0.281265 -0.882442 -0.0932621 0.125736 0.048552 -0.787858 -0.759571 0.161801 -0.0926364 -0.283994 -0.363758 -0.273145 -0.435441 0.0705584 -0.367152 -0.242815 0.0738429 -0.0191996 0.032942 0.584938 0.593778 -0.205171 0.338867 0.215638 0.626564 0.312304 0.606078 0.36593 0.398206 0.272331 0.619906 -0.111663 1.04417 0.310663 -0.205059 0.290208 -0.323159 0.577497 -0.0314303 
0.852963 0.496648 0.0500957 0.178182 -0.80109 -0.242696 -1.00289 0.199335 0.0892894 -0.0388039 -0.134041 0.513414 0.595312 -0.118141 1.20689 0.183948 -0.294124 0.310067 -0.474335 -0.0100589 -0.620785 -0.127857 0.682892 0.383874 -0.383891 0.380937 -0.180344 -0.131191 -0.312927 -0.434148 0.0688889 -0.378014 0.846624 -0.680953 0.297902 -0.0941134 0.0920748 0.292872 -0.128059 0.824034 -0.428566 0.247994 0.724204 0.819201 0.305337 0.00831879 0.283886 -0.199275 -0.255547 -0.926462 0.249985 -0.0621526 -0.00460643 -0.461119 0.0949266 0.102046 -0.0918315 -0.189351 0.0739563 0.206783 -0.691733 0.0144201 0.0815662 0.5978 -0.159051 -0.184501 -0.0209098 1.23987 -0.124469 -0.471887 0.206374 -0.49106 0.132413 0.393807 0.0500618 -0.323084 -0.479242 0.56217 -0.11278 0.0786269 -0.630897 0.413119 0.0307533 -0.137853 0.452875 0.0487462 -0.038212 0.307865 -0.321616 0.172837 0.42827 -0.32533 -0.644483 -0.0522789 0.113007 -0.38316 0.313209 -0.947162 0.643881 -0.0504361 0.325326 0.81948 -0.554558 -0.60583 -0.716164 -0.75248 -0.0588561 0.429537 -0.229275 0.468034 0.633861 -0.151637 0.0715476 -0.164254 -0.414947 -0.0764956 -0.310522 0.0444499 0.483018 -0.185242 -0.382136 -0.518855 0.214653 -0.0508951 0.675206 0.0359248 -0.306362 -1.04053 -0.263561 0.566092 -0.509421 -0.839669 -0.207682 0.415891 0.489816 0.370628 -0.233197 0.252877 -0.0948965 0.186224 1.79322 -0.265698 0.776965 -0.786362 0.248837 0.0196397 -0.696375 -0.171743 0.369276 0.54086 -0.534875 0.756108 0.168223 0.485926 -0.127745 -0.144769 -0.240526 0.0873531 -0.0178019 -0.303297 0.0367344 0.0857563 -0.259895 0.371887 -0.00895804 0.215841 -1.04417 0.242694 0.46854 -0.289473 -0.904622 -0.249727 -0.6168 0.189647 0.275699 -0.17124 -0.169622 -0.128515 0.247859 -0.0446765 -1.10176 -1.26268 0.877657 1.01928 -0.725546 0.469035 -0.283457 0.344891 0.830907 -0.300314 -0.110567 -0.0412048 0.023348 -0.334566 0.22189 0.750348 0.320337 0.469955 -0.280383 0.149064 -0.307921 0.179979 0.959643 -0.313488 0.266829 -0.364874 0.19231 0.482152 -0.318383 -0.802975 0.243646 0.144413 -0.225944 0.231366 -1.00446 -0.418236 -0.185003 -0.0147129 -0.255195 -0.600318 0.757195 0.467504 0.697528 0.706775 0.0711994 -0.342602 0.68931 0.022064 -0.0160094 0.907087 0.386542 -0.232503 0.335251 0.243228 -0.474993 -0.0330087 -0.194931 -0.114704 -0.272735 -0.625094 0.600599 -0.188197 0.303829 -0.60816 0.973247 -0.536058 -0.400794 0.266384 0.118222 0.841578 0.451441 -0.79383 0.506771 -0.063094 0.349098 -0.247497 0.131954 0.181894 0.0225031 0.582358 -0.500845 -0.000617713 -0.124024 0.25424 -0.121229 0.316212 0.00773376 0.167309 0.581339 -0.539858 0.192489 -0.315543 -0.442948 -0.0163109 -0.0446948 -0.0438799 -0.330475 -0.404032 -1.19285 0.536524 -0.236427 -0.132954 -0.0837643 -0.376345 -0.357489 0.383864 0.0009 -0.143374 -0.437036 -0.14882 0.365441 0.0315387 -0.445142 -0.502773 -0.515901 -0.0788493 0.618953 0.256731 0.378417 -0.359153 0.327002 -0.252955 0.793298 -0.435606 0.012364 -0.163354 0.00157067 0.510762 0.0841254 0.239291 -0.349926 0.290283 -0.0117524 -0.55938 0.551518 -0.30954 0.291874 0.0401561 -0.199201 -0.704737 -0.606644 0.154944 -0.615647 0.312478 0.147449 -0.476892 -0.0976812 0.673402 -0.171695 -0.567114 0.0364689 0.107257 0.289828 0.152313 -0.46588 0.159238 -0.285347 -0.458948 0.050354 -0.109532 0.912193 -0.278417 -0.0908476 -0.233762 -0.137333 0.0480145 -0.637844 0.355409 -0.226471 -0.170125 -0.341602 0.719956 -0.347346 0.760072 -0.816217 0.380746 -0.874401 -0.691191 0.669732 -0.125696 0.121433 -0.0787448 0.0846158 0.102995 0.214152 -0.166845 0.207819 -0.690162 -0.60439 0.484704 -0.562162 0.51422 -0.192663 -0.339895 0.589302 -0.459005 0.250268 0.806621 0.155401 -0.494113 -0.119971 0.118402 -0.330226 -0.175328 0.167261 -0.267206 -0.638842 0.0444489 -0.107214 -0.472333 -0.248492 -0.462206 0.11837 -0.0149284 0.0156344 -0.524026 -0.582954 0.139172 0.000392158 -0.304901 0.139801 -0.0634591 -0.773963 0.459208 0.0777664 -0.601891 -0.675931 -0.356423 -0.112665 -0.466279 -0.992382 -0.0481918 -0.000441201 0.364871 -0.144682 1.14757 0.116909 -0.3556 0.19486 -0.3265 -0.0497018 -0.544556 -0.206091 -0.119064 0.715154 -0.0311077 -0.44139 -0.308564 0.309652 0.0653697 -0.580374 0.466585 -0.0123594 0.447083 -0.149215 -0.415635 0.0833993 0.0812303 -0.517675 0.569665 -0.468266 -0.960104 -0.0202009 0.421277 -0.248655 -0.331135 -0.644615 0.538046 -0.344622 -0.119166 -0.0471207 -0.530413 -0.506703 -0.258401 -0.205291 0.0828801 0.150579 0.374394 0.329276 0.431723 -0.163702 0.0297948 1.04966 -0.460751 -0.0626196 -0.536641 -0.893413 -0.769548 -0.143199 -0.144716 -0.438801 0.617577 -0.277453 -0.491739 0.144899 0.078509 -0.0320545 -0.168249 -0.733544 0.150884 0.166295 0.294206 0.689605 -0.236685 0.113333 0.171349 1.26953 -0.673558 0.500106 -0.181472 -0.153139 0.438733 -0.136188 0.250123 0.332568 0.558488 -0.150952 -0.0469976 -0.363625 0.263854 0.127666 -0.320195 0.540454 -0.018034 -0.536577 -0.479906 -0.108447 0.367521 0.258437 -0.596306 -0.0782818 0.824842 0.254101 -0.129316 -0.0114872 0.652012 -0.169174 -0.60895 0.343731 0.0346351 -0.461165 0.508774 0.835476 0.192802 0.583605 0.472902 -0.558992 0.319484 0.354644 0.694483 -0.114 -0.144614 0.281258 0.308446 0.25384 -0.213327 -0.233555 0.0615136 0.788101 0.579709 0.279002 -0.163004 -0.255221 -0.0660147 -0.402343 -0.876309 -0.375936 0.570459 0.136394 -0.0545617 -0.262064 -0.244662 0.0522805 0.414438 -0.161799 -0.556374 1.06022 0.33389 -0.415157 0.0115865 -0.453627 -0.0251326 1.10817 -0.905712 0.242864 0.641308 0.476111 -0.650807 0.735124 -0.278533 0.103206 0.104382 0.702435 0.474058 0.349732 0.218296 0.233858 0.160041 -0.0867437 -0.531724 -0.329394 0.286437 0.0770227 -0.00127401 -0.00155822 0.146996 0.420711 0.0408522 -0.000952792 1.18425 -0.0984044 0.207759 0.406814 0.234886 -0.711883 -0.551089 -0.205563 0.366152 0.0511447 0.362048 -0.342154 -0.723512 -0.084882 0.980313 -0.369476 -0.848996 0.0769111 -0.49288 -0.647167 -0.465586 -0.38181 0.491358 0.659818 0.417872 -0.199119 0.427863 -0.302779 0.218285 -0.217389 -0.0303598 -0.396056 0.255 0.320323 0.262942 0.536817 0.267304 -0.0401391 -0.251124 -0.415097 -0.00280705 0.108671 0.271464 0.494562 -0.289813 -0.0831351 0.227849 -0.0517644 0.0422428 -0.534659 0.13253 -0.155179 -0.180116 -0.322722 0.55317 -0.591826 -0.286686 -0.607007 0.0228117 1.06502 -0.115827 1.01879 -0.188644 -0.0924155 0.258685 -0.245151 -0.299263 0.604484 -0.207641 -0.367995 -0.0247333 -0.156957 1.19773 -0.0850887 0.383103 0.459873 -0.0101178 0.45774 0.0679453 0.358765 0.0858745 0.290878 -0.372008 -0.427177 -0.489118 -0.588516 -0.0524202 -0.54525 0.667991 -0.2003 -0.024218 0.176619 0.373662 -0.0831003 -0.237168 0.903539 0.549657 -0.240082 0.902132 -0.211536 -0.101814 0.46125 0.363698 -0.633727 0.136199 0.0799874 0.0569497 -0.685917 0.413745 -0.227965 -0.662729 -0.486475 0.0149501 0.178956 0.0109026 0.451206 -0.267383 -0.556698 0.504812 0.23214 0.532632 0.367391 0.499376 -0.0523764 0.340376 -0.212668 -0.517328 -0.152925 0.729899 0.320793 -0.117615 0.471294 -0.0700429 -0.37126 -0.159572 -0.433041 0.877797 0.2239 0.303978 -0.230614 0.739193 -0.304951 0.258331 0.415066 -0.742503 0.227045 0.0715708 -0.120792 -0.0593982 -1.00623 -0.722424 -0.321976 0.119821 0.404771 -0.0112051 -0.281392 0.163358 -0.208743 0.103561 -0.709313 -0.463465 0.243578 -0.348964 0.0833846 -0.612421 -0.419246 0.544782 0.326286 0.365168 0.0512691 -0.902482 -0.165219 -0.348364 -0.890868 -0.508315 -0.557091 0.43389 0.21344 -0.941925 -0.447442 -0.605726 -0.334812 0.0325229 0.660657 -0.606286 -0.596363 -0.0380598 -0.0230169 0.464217 -0.394304 0.0368949 0.53076 0.18911 0.0410292 -0.535124 -0.112556 -0.467568 -0.446816 -0.224746 -0.154127 0.27046 -0.0394696 -0.0182068 0.0921591 -0.0572037 -0.113066 0.0143973 0.347311 0.591352 0.418308 -0.629245 0.122226 -0.0339327 0.841856 -0.137187 0.00803909 0.0877693 -0.976726 0.245052 -0.497918 0.501326 0.161069 -0.436048 0.61921 0.30377 -0.499987 0.280074 0.0541349 0.22336 0.279096 0.0448957 -0.216725 -0.528379 -0.604257 0.605615 0.203196 0.0436407 0.0430827 -0.189504 0.198967 -0.230609 -0.393493 0.184267 -0.973718 0.220723 -0.21442 0.342517 -0.0747914 0.143471 0.687044 -0.0694311 -0.298436 -0.466478 0.46492 0.251197 -0.0637491 0.0240212 0.517065 -0.448945 -0.526477 -0.0249138 0.530213 -0.385178 0.280346 -0.299377 -0.0664551 -0.111527 -0.224757 -0.544498 -0.549341 0.579943 -0.523371 -0.0433319 -0.560329 0.59128 -0.237227 0.144658 0.022083 0.668567 0.278637 0.873447 -0.566318 -0.264059 0.468625 0.24308 0.0384442 0.0294093 -0.363957 -0.125806 0.272229 0.571366 -0.0276528 0.231916 -0.662875 0.397792 -0.253546 0.622162 -0.0878972 0.244904 0.208637 -0.00947883 -0.268292 -0.514257 -0.116078 0.55162 0.559245 0.167367 0.416245 -0.261104 -0.575122 0.460566 -0.257847 0.171398 0.254002 -0.122646 -0.113004 -0.0774684 -0.0158397 -0.125091 -0.0105644 0.0737759 -0.68378 0.793516 -0.764727 0.164692 0.11701 -0.233887 0.0174389 -0.470271 -0.533016 0.49802 0.610675 -0.253741 -0.0655347 -0.181163 0.0469648 -0.0497313 0.296954 0.206149 -0.280917 -0.136317 -0.350356 0.0067664 0.484563 -0.161136 0.0592803 0.623999 0.17703 -0.207935 0.75349 0.391689 0.384771 0.193412 0.469141 0.0453419 0.266623 0.549538 0.365027 -0.75233 0.967601 -0.323865 1.15502 -0.140387 -0.512433 -0.332121 -0.227427 -0.232497 0.103812 -0.0829883 -0.332939 0.0928897 0.360359 0.197791 0.593418 0.278721 0.0947676 0.111247 0.257861 -0.192462 -0.622772 -0.672398 -0.564631 0.309179 0.271735 0.107965 0.172592 0.405266 0.132344 -0.771993 -0.422628 0.00546492 -0.677228 -0.458368 0.658618 0.0745718 -0.144672 -0.167851 0.735733 0.481321 -0.397637 -0.593875 -0.00401988 0.168467 0.0625568 -0.509329 0.0622046 -0.231175 -0.118906 0.805663 0.618764 0.119113 -0.511836 0.0395295 0.473952 0.573163 -0.0201378 -0.335528 -0.43538 0.449675 -0.507646 0.350352 -0.797516 -0.426106 0.505128 0.00597961 0.15274 -0.537837 -0.123611 0.265017 0.24222 -0.207585 -0.0415893 0.476741 0.65849 -0.000974338 0.917591 -0.152124 0.775639 -0.180467 0.745185 -0.74385 -0.16444 0.555418 -0.124136 0.949933 0.0341785 0.412055 0.287369 0.181622 0.304525 0.64163 0.314415 0.149349 -0.507574 -0.0687508 -0.547554 0.112059 0.1363 0.235135 0.186386 -0.20694 -0.342517 0.177002 0.0864432 -0.603102 -0.239371 0.0467103 0.733464 0.272761 0.310114 -0.0588983 0.0375143 -0.0159903 0.408712 -0.608009 0.200529 -0.000241301 0.176171 -0.328388 0.126595 0.244152 -0.814722 -0.117113 -0.458086 -0.214464 0.258251 0.830334 0.543818 0.14584 -0.891008 0.0740937 0.103694 0.611512 0.688217 -0.69906 0.12201 -1.1009 0.40768 -0.595266 -0.0458113 0.350773 0.4308 -0.308041 -0.0616334 0.608726 -0.73553 0.12495 -0.0222377 0.479408 0.666658 -0.0506703 -0.0948482 0.41543 -0.3166 0.111611 0.645426 0.334603 0.757244 -0.861059 0.18607 0.00374305 0.763665 -1.08716 -0.0697914 -0.531078 -0.436474 -0.395175 -0.300839 0.954858 0.230005 -0.151935 0.11944 0.858252 -0.773078 0.0536016 -0.510813 0.224527 -0.798853 0.0899539 0.175128 -0.694611 0.249395 -0.218457 -1.4068 -0.427957 0.276771 0.2233 -0.376272 -0.210762 0.158388 0.328327 0.129039 -0.921042 -0.843303 -0.386908 0.513792 -0.52521 -0.505824 0.0704748 -0.813451 0.169097 -0.130517 -0.271666 0.619679 -0.938984 -0.437796 0.254479 0.454353 0.0921674 -0.217872 -0.22212 1.11641 -0.0843506 -0.497881 0.201772 0.266062 0.756815 0.104281 0.0555306 0.300821 -0.148313 -0.254014 0.19725 -0.214315 -0.457261 -0.404996 -0.0109315 -0.00546226 -0.141452 -0.122112 0.594322 -0.328688 -0.0340119 0.184804 -0.37352 -0.39965 -0.187851 -0.283661 0.419596 -0.43779 -0.358155 0.634141 0.120981 1.14908 -0.536633 -0.841994 0.0116931 0.101724 -1.35991 0.605424 -0.360458 0.350642 -0.418535 -0.160098 0.467046 -0.211737 0.855185 -0.00871907 0.26428 0.665128 -0.494207 0.415245 -0.266622 -0.00354121 0.648366 0.51632 0.610506 -0.716295 -0.21546 -0.057451 0.321491 0.378504 -0.000243216 0.0694942 1.126 -0.16952 0.590879 -0.14518 0.0793806 -0.640246 -0.110542 -0.314737 0.387326 -0.38862 0.964794 0.258809 -0.461143 0.72958 -0.07146 0.631311 -1.07075 -0.170568 -0.110243 0.086395 -0.157586 0.283922 -0.0862545 -0.495037 -0.978369 0.225449 0.130737 0.758705 -0.0504706 -0.0656846 -0.0245009 -0.339741 0.458295 -0.541139 0.725326 0.573837 0.304726 -0.373283 1.21759 0.296717 -0.464289 0.082041 0.155366 0.612401 -0.574736 -0.269046 -0.121102 0.173497 0.248761 -0.451547 0.580572 0.908659 -0.725458 -0.270848 -0.231086 -0.387064 0.207733 0.197456 -0.0616718 -0.143663 -0.124732 0.166387 -0.505516 1.21546 0.426275 -0.164028 -0.355616 0.454536 0.415679 -0.627751 -0.0114931 -0.0532997 0.310695 0.385032 -1.03097 -0.072241 -0.0486858 -0.157443 -0.536262 -0.343273 -0.298399 -0.0850177 0.14747 -0.0313402 0.227903 -0.684053 0.872697 -0.0958722 0.521653 0.122716 -0.710548 0.554076 0.277177 -0.839784 -0.21925 -0.107035 -0.437899 -0.0149565 -0.106597 0.123364 -0.749652 0.198946 -0.596386 -0.507077 0.613233 0.110355 -0.747204 -0.46431 -0.466905 0.0937549 -0.178109 0.0882205 0.0584105 0.557545 0.102308 -0.8545 0.129347 0.520132 -0.196004 0.0796633 0.371537 0.69162 -0.0947306 -0.169188 -0.266831 0.0293769 -0.534108 1.47418 -0.00706675 0.19885 -0.588302 -0.160809 -0.0909829 0.318545 0.290523 -0.829958 -0.810934 0.464474 0.0271506 0.33397 -0.664038 0.375359 0.0219209 0.660335 -0.201319 0.0179648 -0.496231 -1.22638 -0.57356 -0.712342 0.0452801 0.00545686 -0.191598 0.0352515 -0.882433 -0.275807 0.240458 0.328291 0.392369 -1.03227 -0.151397 -0.230462 -0.271938 0.0412822 -1.27568 0.060679 0.413027 0.649867 -0.16167 0.123445 -0.606436 0.980483 -0.218712 -0.636242 0.21921 0.69073 0.506426 0.0208222 0.896711 0.207903 0.137493 0.720755 0.286731 0.64789 -0.124918 0.591788 0.438066 -0.291103 -0.172631 -0.0191242 -0.244329 -0.0704604 -0.338289 0.764362 -0.410178 -0.710334 0.0433796 -0.459053 0.159842 0.327709 0.936858 -0.498305 0.301196 0.481634 -0.262398 1.50468 0.333408 0.585082 -0.508295 0.156301 -0.445266 0.0593026 -0.491422 0.308419 -0.0602382 0.292563 -0.000119209 -0.165161 -0.135895 -0.948547 0.297127 -0.154851 -0.140081 -0.0144145 0.258355 0.122518 -0.753993 -0.665354 0.71226 0.488347 -0.44254 -0.29104 -0.41942 -0.372043 0.0782217 -0.052182 0.254154 0.530083 0.113584 0.090364 -0.9288 -0.0316346 0.0344461 -0.783017 0.675258 0.354061 -0.371602 -0.379241 0.272486 -0.0986446 -0.241274 0.462783 0.685866 0.11528 -0.289353 -0.294206 -0.140019 -0.0382941 0.346229 0.284089 0.918632 -0.541194 0.101219 -0.0385675 -0.743683 0.400289 0.0946602 0.370247 -0.0176786 0.481966 0.131098 -0.717897 -0.701866 0.374761 -0.452836 0.241927 -0.255642 -0.566885 -0.135539 -0.314671 -0.4862 -0.436166 0.174468 0.400418 -0.226659 -0.34242 0.629029 0.506493 0.421186 -0.383602 -0.268597 0.431828 0.601332 -0.121736 0.208044 -0.244429 -0.0026888 -0.422194 -0.681352 -0.269143 -0.408857 0.176119 0.521553 0.67891 -0.578131 0.0323904 0.337289 0.138839 -0.191606 -0.588057 0.251957 -0.426816 0.375371 0.250905 -0.0197983 0.100733 -0.0142382 0.686134 0.197958 -0.451499 0.785888 -0.153846 -0.606734 0.825836 -0.90771 0.363251 -0.543314 -0.322854 -0.235601 0.0764302 0.20912 0.254115 -0.444734 0.360781 -0.131086 -0.127936 0.140814 0.707463 -0.167347 -0.152915 0.2723 0.0274397 0.163227 -0.772592 0.0665507 0.0188712 0.442345 0.512886 0.404511 -0.228738 0.432916 -0.252893 0.590775 -0.552147 -0.294245 0.0399411 -0.369143 0.357796 -0.372795 -0.401541 -0.0268798 0.0342109 -1.14596 0.0479639 -0.197876 1.06472 -0.466548 -0.768887 0.175526 -0.451503 0.0719748 0.339552 0.404486 -1.20299 0.0427717 0.287828 -0.147511 0.14473 0.498099 -0.0681967 0.101396 0.239958 0.330433 0.144518 -0.860508 0.334006 0.52759 -0.530754 0.452 -0.455795 0.485786 -0.405165 -0.455984 -0.383599 -0.399376 -0.109753 -0.353424 -0.264903 0.396488 0.147645 -0.382716 0.605131 -0.391719 -0.512443 -0.267528 -0.415646 0.68219 -0.552257 0.176213 -0.846683 0.190047 0.016951 0.022476 0.330207 -0.240431 -1.18499 0.321463 -0.133663 -0.481201 0.453116 0.312052 -0.0725427 0.293274 -0.234909 0.44824 0.420795 0.406377 -0.497228 -0.0248529 -0.147602 -0.451761 -0.534726 -0.497158 0.45836 -0.270337 0.145838 0.410233 0.0122422 -0.367042 0.0371249 -0.26165 -0.0904101 0.339755 -0.0306579 0.449564 0.834716 0.27658 -0.165432 -0.00274556 -0.176638 -0.0206524 -0.0252219 0.106314 -0.352834 0.142958 -0.354635 -0.413927 -0.0382119 -0.53193 0.095821 0.376083 -0.0757518 0.157887 0.150161 -0.605866 0.477443 -0.486588 -0.720905 -0.14042 0.177371 0.541001 0.172377 0.211957 -0.076422 0.137508 -0.729961 0.275302 0.0411023 -0.400076 -0.404326 -0.0499016 0.404657 0.0105546 -0.257418 0.0781829 -0.568615 -0.207075 0.936067 -0.851424 0.147464 -1.07655 0.789463 -0.328624 -0.214681 0.29994 -0.207532 -0.0516457 -0.00128089 -1.06938 -0.647913 0.229615 -0.640019 1.42167 0.132474 0.113674 0.842395 -0.546669 0.512842 0.2441 0.297798 0.183281 -0.242565 0.0819439 -0.294225 0.414921 0.242226 0.120318 0.0200534 0.709265 -0.534943 0.459098 -0.287892 -0.297856 -0.297672 0.23593 -0.217858 0.564306 -0.248904 -0.0149324 0.0975463 -0.152867 -0.15723 -0.363031 -0.235216 -0.264302 0.0168261 -0.323098 -0.353985 0.548963 0.0126755 0.427733 0.603869 0.188318 0.517271 -0.810642 -0.442194 -0.0193983 -0.516115 -0.167831 -0.0374378 -0.276047 -0.0511166 0.0558437 0.94697 -0.731963 -0.675006 -0.167478 -0.0992183 0.335791 0.0756593 0.357793 0.160931 0.385327 0.455902 0.0444036 0.317915 -0.360728 -0.000904607 -0.554793 0.642425 0.0715408 -0.463647 0.0968945 -0.630222 -0.257838 -0.312769 -0.301678 0.569496 0.0890837 0.231422 0.0725502 -0.676422 -0.720311 -0.772389 -0.504898 -0.0592388 0.0296013 -0.0630941 0.292878 0.111014 -0.180426 -0.142815 -0.303247 0.265349 0.199908 -0.571302 -0.412944 0.502793 0.0136927 0.13146 0.193705 -0.236568 -0.315411 -0.578057 0.119784 -0.449591 0.00173434 -0.0668505 0.975735 0.68933 0.689779 0.372092 0.0262133 0.0602388 -0.0406792 -0.478065 0.127483 -0.180666 0.069193 -0.425222 -0.3135 -0.75138 -0.856003 0.00207843 -0.042965 -0.603497 -0.232202 0.450508 0.0889147 -0.448215 -0.189581 0.805209 0.549759 -0.423928 0.117518 -0.55283 0.627006 0.314732 -0.368053 0.397837 0.513184 -0.291707 -0.500624 -0.620049 -0.266952 -0.22914 0.114458 0.986371 0.0177561 -0.0809472 0.198398 0.0765515 0.757393 -0.105871 0.0468283 0.448224 -0.534201 -0.241184 -0.601444 -0.346705 -0.20015 -0.142024 -0.512596 0.173448 0.0428062 -0.76825 0.230465 0.585945 0.0756148 -0.0143639 -0.00317233 0.236698 0.752516 -0.516495 0.0344424 -0.407388 -0.335761 -0.725096 0.229094 -0.353881 0.224417 0.0156889 -0.719064 -0.46441 0.248069 -0.382798 0.0625119 -0.479346 0.674432 0.381805 -0.260275 -0.0190298 -0.122487 0.145522 -0.240905 -0.654862 0.930047 0.215459 0.626594 0.151363 -1.17488 0.534988 -0.844398 0.359108 0.254923 0.347342 0.301504 -0.190661 0.350635 0.311276 0.891999 0.361704 -0.681664 0.686266 0.131915 -0.275606 -0.042671 -0.304871 0.3435 0.551052 0.679874 0.313132 -0.535347 0.135392 -0.080637 -0.301368 -0.55143 -0.642629 0.0265125 0.265891 -0.141807 0.200958 0.438493 -0.164691 0.453482 0.797395 -0.385039 -0.0797689 -0.338464 -0.22722 0.130524 0.128634 0.995655 -0.160688 0.0235856 -0.27192 0.312236 1.00781 0.373002 -0.180813 0.435801 -0.122328 -0.275281 -0.359635 0.305894 0.136379 -0.601534 -0.0351883 -0.617142 0.561551 -0.100069 -0.0516047 -0.888845 0.135476 0.00803629 -0.545885 0.319807 -0.131516 0.282214 0.282726 0.82813 -0.94103 -0.295631 -0.0142013 -0.363499 0.417252 -0.349559 0.356467 -0.255187 0.532781 -0.98505 0.35428 -0.473409 -0.067923 0.349036 -0.229785 1.00045 -0.103868 -0.240797 0.00109932 0.676764 -0.193684 -0.663173 0.158932 0.0932388 0.0710996 0.0310594 0.0876702 0.112544 0.31244 -1.24445 -0.669372 0.609242 0.631558 -0.0379757 -1.17462 -0.12611 0.266956 -0.799947 -0.0315478 -0.417316 -0.297208 0.0299798 0.306868 0.494027 -0.871778 -0.0428453 -0.11934 -0.333314 0.31829 0.338871 -0.56365 0.180569 -0.613564 -0.418966 
-0.292111 -0.327363 0.00846343 -0.316927 0.410295 -0.290442 0.32195 0.569202 -0.321264 0.417621 -0.230056 0.228501 0.215223 0.24522 -0.155753 -0.184102 -0.0787117 0.0662167 0.132681 -0.338513 0.192119 0.249993 -0.340069 0.513964 0.315406 0.604457 -0.281311 -0.215205 -0.558046 0.544977 -0.0540762 -0.270847 0.0517883 0.113527 0.0765216 0.89465 -0.615655 0.645044 0.206426 0.237503 -0.548189 -0.303721 0.724942 -0.718091 -0.462943 0.265681 0.1704 -0.165433 -0.175179 1.36371 0.699144 -0.440614 -1.13221 0.0168571 -0.3327 0.610126 -0.614906 -0.259069 0.959302 0.481186 0.207425 -0.864182 -0.710442 -0.191089 -0.551915 -0.0642467 -0.0424056 0.56201 -0.103122 0.112917 0.222137 0.475811 -0.643444 0.652174 0.337556 -0.212359 -0.566471 0.190727 -0.249159 0.491417 0.100862 0.0389985 -0.00367313 0.396262 -0.0663874 -0.71619 0.49359 -0.160984 -0.520474 0.573836 -0.587181 -0.176387 0.562676 -0.399531 -0.381664 -0.160532 0.198495 -0.510913 -0.854579 -0.728647 0.0213802 -0.217781 -0.551318 1.00563 -0.167234 -0.760048 -1.29498 -0.594846 -0.628539 -0.308294 0.457967 -0.529061 -0.0245314 -1.15418 0.809953 -0.0483139 -0.352959 0.635711 0.245277 -0.510993 -0.210739 0.384394 -0.183409 0.369446 -0.219519 0.0265173 -0.461224 0.378686 -0.478726 0.037712 0.200317 0.0767434 -0.06444 -0.145824 -0.291342 0.0817044 -0.800129 -0.101159 -0.303324 -0.451254 0.253845 0.166937 -0.65266 -0.0484537 -0.00255726 0.0917105 -0.221692 0.335348 0.233318 0.463298 0.782506 -0.663709 0.159363 -0.216804 0.0906044 -0.157095 -0.18125 -0.262471 0.529427 0.0538213 -0.204598 0.185237 -0.711134 0.437259 -0.841693 -0.143402 -0.178879 -0.142138 -0.0999644 -0.609466 -0.49664 -0.085208 -0.182976 -0.735593 0.234306 0.14879 0.611241 -0.298798 0.0127054 0.31012 -0.311028 0.162201 -0.604261 0.249433 0.428392 -0.47167 -0.204964 -0.156356 -0.332748 -0.452363 -0.0855367 0.147928 -0.164247 0.358043 -0.310972 -0.225829 0.239231 -0.194347 0.24262 0.587665 -0.435613 -0.151801 0.128275 0.194457 -0.395974 0.583943 0.356106 -0.415989 0.156847 -0.0624227 0.00918102 -0.147898 0.152458 -0.233113 0.444827 -0.394888 -0.512356 0.198151 0.199459 -0.575291 -0.454972 0.231839 -0.429939 -0.0327616 -0.320468 0.0925988 -0.456505 -0.121342 0.12954 0.568318 -0.282747 -0.11707 0.399937 0.11563 0.377821 0.0107658 -0.390417 0.0688501 0.495178 -0.290643 0.390369 -0.151399 -0.057378 0.194932 -0.385228 -0.00178087 -0.0813899 0.172606 0.18661 0.196198 -0.0949165 0.111235 0.105123 0.507963 -0.0412383 0.497803 -0.44769 0.0189642 -0.340043 0.139067 0.054325 -0.66661 -0.143282 -0.634313 -0.234411 -0.614627 0.421557 0.36308 0.539325 0.239 0.41473 0.00757062 0.474941 -0.150926 -0.155193 -0.2492 0.0933977 -0.470171 -0.221535 -0.674238 -0.844497 -0.422033 0.0743674 0.563959 -0.245262 -0.0541639 0.0711614 0.364241 0.367073 0.218026 -0.113626 -0.519875 0.492046 0.00925181 0.0130822 0.540663 -0.423761 -0.238735 -0.296226 0.0957247 -0.574157 -0.342403 0.246082 0.272579 -0.163801 -0.0832788 -0.265058 0.356841 0.134893 -0.285016 0.333752 -0.260712 0.45782 -0.524655 0.142762 0.0901175 -0.534196 0.488465 -0.422019 0.319071 -0.258787 -0.446012 -0.540836 0.226369 -0.211172 0.165564 0.0987086 0.410178 -0.0703377 0.245356 0.18534 -0.0480481 0.00448712 0.0165613 0.11408 0.865727 0.151035 -0.259916 -0.768183 0.140753 1.14387 1.18192 0.75571 0.00414182 0.282836 0.00383645 0.438945 -0.0314625 -0.4483 0.595661 0.402975 0.552601 -0.955087 0.281736 0.0486778 0.465197 -0.199047 0.123015 0.783952 0.580173 -0.245515 -0.635037 -1.14132 0.107293 -0.191632 -0.645823 0.239413 0.810766 0.132049 -0.0352528 1.25139 -0.783336 -0.203386 -0.297582 0.0800076 0.0496936 -0.575113 0.692251 0.29149 0.331883 -0.272284 -0.518583 -0.822781 -0.252071 0.16381 0.117602 -0.682534 -0.504345 -0.210849 -0.254685 -1.0651 -0.313289 -0.17291 -0.0406518 -0.825377 0.000769665 0.738388 0.530904 0.250723 0.111388 -0.0429765 -0.383376 0.832523 0.304197 -0.125645 -0.0247648 -0.271738 -0.2663 0.318568 -1.43513 -0.481525 0.961866 0.232892 0.0854183 -1.46058 -0.422985 0.929601 -0.138861 0.543025 -0.393823 0.424566 -0.375658 -0.295435 -0.101916 0.293118 0.864398 0.190164 0.785611 -0.489403 0.565861 -0.0324525 -0.417968 -0.16137 -1.1194 0.759345 0.75457 0.10853 -0.208306 -0.63235 0.329123 0.0687252 0.195221 0.845397 0.230158 -0.400885 -0.247378 0.628783 0.460622 0.166661 0.0508952 0.230755 -0.582643 0.0506602 0.0228693 0.44837 0.306513 -0.212589 -0.545704 0.144004 0.26377 -0.0284165 -0.367906 0.041197 0.279018 0.0208096 0.0623448 -0.286993 -0.678264 0.588523 0.0263881 -0.539676 0.123357 0.241575 -0.644609 0.351247 -0.256917 -0.266115 0.0407536 0.183468 0.558765 -0.486796 -0.415011 -0.293527 0.866272 -0.537789 -0.0347488 0.377578 -0.00711299 0.124014 0.137968 0.327675 0.296483 -0.700077 0.293698 -0.399574 -0.718089 0.379117 0.379338 0.215887 -0.251124 -0.63634 0.383112 -0.411706 -0.61811 0.42046 0.168805 0.985958 -0.624018 0.694953 0.0670662 0.791694 -0.718056 -0.447752 -0.332017 0.398317 0.427014 -0.134931 -0.769201 0.174347 0.106641 0.0068383 0.343451 0.494905 -0.0957469 -0.397819 -0.150061 0.0496041 0.271044 0.312878 -0.167965 -0.349933 -0.330689 0.474994 -0.156608 0.183927 0.353526 -0.27022 -0.165339 -0.438923 0.678581 -0.550829 -0.121811 -0.583745 -0.523284 -0.0453511 0.612602 0.192658 0.228832 0.17028 -0.168876 -0.256558 -0.428064 0.27314 0.238947 0.273894 0.272266 -0.0170418 -0.447725 -0.00231904 -0.768191 0.506376 0.0851796 -0.296437 -0.464751 -0.771179 0.517665 -0.999788 0.313127 -0.727041 0.125641 -0.445071 -0.822495 0.622277 -0.117395 -0.845299 -1.00588 -0.201137 0.442615 0.0218845 -0.320971 -0.589941 -0.773141 -0.310234 -0.413408 0.589755 -0.516491 -0.742149 -0.620006 -0.789804 -0.318952 -0.364141 0.00168672 0.150447 -0.128614 -0.168297 0.188949 -0.118224 0.325118 0.257225 0.406305 0.283987 0.819339 0.301057 -0.0252516 0.78487 -0.35778 0.811441 -0.104889 -0.519433 -0.625831 -0.312621 0.2875 0.784572 0.00623651 0.73557 -0.439733 0.525958 -0.212966 0.178382 0.282721 0.709119 0.412931 -0.444627 0.128421 -0.0844001 0.0146275 -0.654992 0.0805629 0.0545639 -0.736703 0.685197 0.280739 0.102525 -0.461632 0.492673 -0.306747 -0.300438 -0.096807 -0.570273 0.587322 -0.326297 -0.12711 0.0215534 -1.16055 0.00969145 0.252505 0.421072 0.534818 0.398483 -0.757757 -0.150356 -0.404437 -0.482634 -0.126694 -0.370973 -0.00412605 0.370536 -0.226575 0.672392 -0.281553 0.0802804 -0.239709 -0.0429261 -0.194235 0.0684458 -0.129976 0.328234 0.199273 -0.325611 0.609594 -0.673699 -0.313296 -0.268067 0.538507 0.694044 -0.189179 0.551386 -0.0842636 -0.907103 -0.145744 0.293776 -0.378143 -0.321663 -0.155355 0.458494 -0.554155 1.05218 -0.451257 -0.435534 0.528504 -0.030129 -1.17122 1.45932 -0.514887 0.238373 0.827812 0.0298067 0.16129 -0.277193 -0.0819059 0.00867748 -0.405203 0.707492 -0.322227 0.530633 0.245931 -0.0491337 0.253923 0.333569 0.176485 0.278848 -0.5859 0.384694 0.0497551 0.725604 0.301594 -1.0843 0.384565 0.548475 -0.651119 -0.044274 -0.414266 0.735694 1.13619 0.346623 -0.0320228 0.565732 -0.512807 0.134109 0.0919177 -0.140359 0.0565583 0.0106494 -0.377653 0.449448 -0.0576154 1.39662 -0.234719 -0.242757 -0.183067 0.0772733 -0.10415 -0.110138 -0.482323 -0.466872 -0.470457 0.302534 0.121773 0.530583 -0.574331 0.146428 -0.247809 0.192807 -0.0388885 -0.678068 0.259098 0.391854 0.1864 0.135414 0.0328366 0.333702 0.264986 -0.195555 0.93429 0.14239 -0.307156 -0.457556 -1.3938 0.0453466 -0.680578 -0.284179 0.346583 0.589441 -0.419593 -0.163544 0.540601 0.297439 0.463316 -0.394425 0.415178 0.276749 0.209497 0.395999 -0.28528 0.0514051 0.612317 0.127826 -0.153561 -0.213391 -0.658666 1.13095 0.0891176 -0.375949 -0.21591 0.40913 -0.0124083 -0.668559 -0.0630372 -0.194429 0.0282991 0.52016 -0.20597 -0.491961 -0.0272485 -0.18488 0.427206 0.502404 0.320398 -0.303334 0.727254 -0.128536 -0.144658 0.0571506 0.574997 0.21647 -0.563088 0.206215 0.693999 0.364709 -0.379253 -0.367511 0.367287 0.131572 -0.45317 -0.552467 0.0918859 -0.207206 0.164983 1.24987 0.471152 1.49153 0.133277 0.536437 0.162303 -0.642951 0.445807 0.973968 -0.16928 -0.713508 0.294941 0.843829 -0.458126 -0.0154125 -0.512402 -0.906562 -0.097038 -0.27086 -0.0278736 0.66026 0.474894 0.066124 -1.34561 -0.246831 0.212054 0.0797774 0.448915 -0.270523 0.287011 -0.373113 0.664087 0.194096 0.458759 0.468044 -0.344521 -0.320418 0.633845 0.058063 0.02329 -0.49019 0.137688 0.449776 -0.780773 0.0246531 -0.181508 0.0271409 -0.155909 0.367443 -0.650071 0.195435 -0.0747891 -0.487552 -0.915175 0.10336 -0.518893 0.332022 -0.415172 -0.49488 0.0632384 0.449962 -0.158303 0.0525254 -0.597065 -0.668669 -0.236241 0.0450302 -0.319217 -0.321839 -0.638532 0.29117 -0.42322 0.217631 -0.0706145 -0.0962965 0.295092 0.204773 0.261208 0.329008 -0.0124726 -0.242938 0.179575 -0.154151 0.451431 -0.842921 -0.166123 -0.468958 1.21193 -0.163359 -0.133845 0.187112 -0.459746 -1.40491 0.334725 -0.0622735 0.162565 0.841117 -0.751129 0.721132 -0.622503 -0.734458 -0.237892 0.65043 0.12977 0.305463 0.477011 -0.287419 -0.755227 0.124379 -0.38858 0.731631 1.17968 0.709939 -0.387488 0.0892812 -0.179845 -0.492267 0.0142643 0.1214 0.351818 -0.443455 -0.233562 -0.857632 -0.0789955 0.559115 0.122375 -0.380055 0.666602 0.551156 0.864681 0.19969 0.116153 0.176095 -0.085384 -0.666974 -0.241772 0.280941 -0.027361 0.0615943 0.284982 -0.119771 -0.0153966 -0.622034 0.330885 -0.161533 -0.226117 0.192747 0.0277263 0.562305 0.197709 -0.0747549 -0.376045 0.271456 -0.0548255 -0.181288 0.723663 0.52209 -0.994945 -0.26876 -0.276424 -0.0387688 -0.439923 0.328825 -0.344105 -0.194399 0.10545 0.0861529 -0.511473 0.424892 -0.731545 -0.042163 -0.335049 0.776975 0.36441 -0.10701 0.258715 0.0638147 -0.541559 -0.0390054 0.0553652 0.224381 -0.361823 -0.442643 -0.0182568 0.776097 -0.0981785 -0.0915313 -0.275668 -0.115333 0.838276 -0.412303 0.440226 -0.405318 -0.0996004 0.0310325 0.32059 0.126797 -0.565662 -0.9205 -0.391849 0.312316 -0.249346 -0.346383 -0.344747 0.291589 -0.344462 0.179088 -0.61081 0.0883135 0.921242 0.537994 0.385817 -0.321997 0.394664 0.938528 0.213823 -0.0963906 -0.407397 0.96774 0.270671 0.145043 -0.376218 0.631446 -0.515344 -0.638343 0.332497 -0.426766 -0.154862 -0.356609 -0.398879 0.726006 -0.908866 0.348136 -0.558404 -0.149828 -0.396939 0.431094 0.13557 0.0769058 0.434957 -0.724221 -0.432519 0.342937 -0.725727 -0.429399 0.0900454 -0.30581 -0.270077 -0.654623 -0.131212 0.0526608 -0.00211441 -0.203131 0.307605 -0.0347071 -0.476098 0.00704123 -0.633317 0.383037 -0.240084 0.243738 0.659571 0.603589 -0.0222315 0.306471 0.131969 -0.253506 -0.320025 0.248476 -0.228869 -0.19046 -0.270991 -0.0044617 -0.143437 -0.643329 -0.156201 0.0470675 -0.929644 0.628479 0.0264435 0.175161 -0.276505 0.0886437 -0.229271 0.182723 0.226718 0.111496 0.542152 -0.308933 0.0974868 -0.874147 0.201566 -0.660616 0.59226 0.00789102 -0.00239544 0.729721 0.0706406 -0.288561 -0.29083 -0.199585 -0.166851 0.612504 -1.14545 -0.270899 0.906583 0.420928 -0.25688 -0.486743 -0.145642 -0.534089 0.423411 0.123554 1.24859 0.617615 -0.580046 0.624086 -0.179784 -0.144489 -0.161884 -0.235934 -0.372758 -0.0405781 0.758995 0.359837 -0.425647 -0.34254 0.628559 0.601785 -0.658874 0.226659 0.101075 0.623197 0.0779777 0.251777 1.1835 0.726853 -0.793708 -0.361407 0.337841 -0.1036 -0.772523 0.154493 0.257785 -0.0347478 -0.251136 -0.0252765 -0.195412 -0.0303293 0.31298 0.575068 -0.531604 -0.379899 0.0881968 -0.16524 -0.0485949 -0.197728 -0.433161 0.060102 -0.860577 -0.0496455 0.421064 0.271453 0.0975491 -0.0129027 0.589948 -0.770867 -0.319819 -0.163702 -0.36226 0.602262 0.279672 0.0840736 0.128535 0.256106 0.285646 0.407079 0.264507 0.520916 -0.256122 0.582223 -0.222236 0.391448 0.766075 0.37842 -0.557585 -0.35691 0.606302 0.191677 0.0542858 -0.204135 -0.0481715 -0.152535 -0.138609 -0.746699 -0.0174786 -0.209832 0.639055 0.535924 -0.211306 0.0534415 0.00197148 1.17753 -0.552274 0.0302098 0.117161 -0.318435 1.04126 -0.15221 0.386936 0.0233383 -0.197084 -0.471954 -0.0241284 0.929053 0.770706 0.0316157 0.357451 0.277082 0.0865099 -0.986124 0.471205 -0.229276 0.420731 0.432433 -0.812849 0.470608 -0.475235 -0.0839016 0.56042 0.0888987 -0.371665 -0.170876 -0.449412 0.199651 0.453892 -0.557039 -0.289509 0.059102 -1.1055 -0.84651 -0.356529 -0.742633 0.705733 0.398054 -0.356571 0.0229808 -0.0113184 0.399566 0.139056 0.997007 0.647951 -0.314604 0.117338 0.170868 -0.520133 -0.24068 -1.08273 -0.789437 -0.746842 0.68711 -0.0548535 -0.407101 0.320127 0.387732 0.123191 -0.351739 -0.335284 -0.262409 -0.801598 -0.594148 -0.0085981 0.166074 -0.119736 -0.362043 -0.511003 0.0843826 -0.563763 0.206589 -0.300901 0.100855 0.135329 -0.0165792 -0.158119 0.0503027 0.603865 0.21985 0.0005956 0.270884 0.0924485 -0.335461 -1.18944 -0.404028 0.16835 -0.514413 -0.205296 0.37085 0.233401 -0.69092 -0.745888 -0.555893 -0.0720941 0.451963 0.643981 0.637993 -0.365045 -0.21529 0.21448 1.06101 -0.798056 0.163698 -1.12196 0.267904 -0.288345 -0.207509 -0.0350427 0.50099 0.190482 0.0425448 -0.138779 -0.168695 0.694645 0.333754 -0.60258 -0.320415 0.162124 0.275413 0.635999 0.295069 -0.512488 0.104896 0.522148 -0.313795 -0.341685 1.00211 0.30919 0.446488 0.053362 0.123084 -0.0240927 0.942216 0.0402851 -0.592902 -0.557497 0.369671 0.0485437 -0.260711 -0.831594 -0.263874 0.793489 -0.000944193 0.436844 0.259063 -0.36475 -0.760106 0.233234 -0.0964344 -0.0834302 0.22172 -0.224775 -0.292608 0.0866284 0.684689 0.200164 0.49202 -0.0493049 -0.108627 0.386549 1.17851 -0.100866 -0.903098 -0.278957 -0.584989 -0.26228 -0.411889 -0.239122 0.229194 -0.683691 0.0969972 -1.05144 -0.290384 -0.188288 -0.269098 -1.20398 -0.832491 0.334288 -0.406827 0.234672 -0.132303 -0.573714 -0.269718 0.143012 -0.560514 -0.0333715 0.308651 -0.482126 0.419164 -0.0269154 0.875906 -0.557368 0.538588 -0.0713371 -0.865744 -0.423706 0.108841 -0.12448 0.0338022 -0.111261 -0.0741153 -0.653912 0.845492 0.694424 0.139293 0.0654496 0.287201 0.20526 -0.0927934 0.568531 -0.960641 0.24025 -0.399263 -0.860764 -0.65894 0.201924 0.839548 0.0813687 0.167082 -0.147865 0.207334 0.508909 -0.0714322 -0.33685 -0.538221 -0.414102 -0.892888 0.957291 -0.310345 0.0764178 0.301336 -0.160458 -0.0129417 0.227371 -0.153619 0.391002 1.06204 0.215934 -0.0914346 0.40935 0.670222 0.297984 -0.0411913 -0.200742 -0.219251 -0.498709 0.333103 0.233657 -0.394877 0.0905732 -0.514779 0.0266948 -0.884663 -0.61426 -0.337397 -0.00476702 -0.172651 0.237123 -0.119649 -0.110431 -0.501767 -0.354459 -0.561324 -0.475633 0.331386 -0.0432749 -0.220073 -0.29073 -0.489183 0.777209 0.463838 -0.155394 -0.114944 -0.647133 -0.128581 0.550562 0.331044 -0.934109 0.322907 -0.934843 0.673878 -0.561798 0.259513 -0.107483 -0.86163 0.355591 0.2921 -0.0695368 0.497795 0.109689 -0.0382341 -0.872753 -0.62903 0.541773 -0.102697 0.310019 -0.282471 0.560361 0.652145 0.032196 0.620046 -0.133703 -0.139353 -0.379958 0.476076 -0.199272 0.0761556 0.00288926 -0.221389 -0.109091 0.00398033 0.347992 -0.205086 0.25243 -0.320186 0.862086 -0.0650111 -0.632236 1.04951 1.20306 0.426463 -0.813375 0.206384 -0.404859 0.209792 0.18753 0.346994 -0.448075 -0.895258 -0.259746 0.35299 0.599613 -0.165267 0.622066 0.0864451 -0.470701 0.77621 -0.920354 0.251585 0.0198257 0.0653742 -0.24389 0.114528 0.129589 -0.440337 -0.0581032 -0.160353 -0.427371 0.0215503 -0.308409 0.0308477 -0.357561 -0.245573 -0.640404 -0.830678 0.120069 0.462004 -0.77659 -0.123054 0.40487 0.36431 0.21145 -0.135877 0.239636 0.218513 -0.0519096 0.607735 -0.724709 0.0938626 -0.106826 -0.00653637 0.126744 -0.377618 -0.170598 0.706503 0.367129 0.425132 0.346243 -0.506805 -0.455358 0.0424308 0.225721 0.502672 0.232275 0.578882 -0.34424 -0.0605764 0.0658875 0.742658 0.178288 -0.108628 -0.323274 -0.586017 0.32979 0.346104 -0.219366 0.521352 0.118065 0.459593 -0.243745 -0.0520157 -0.431851 -0.0793324 -0.0164233 -0.301922 -0.361362 -0.0312045 -0.00897578 0.0777511 0.240397 0.0594319 -0.05493 -0.0197756 -0.233158 -0.973728 -0.650433 0.0799078 0.0768047 -0.295338 -0.266505 0.111142 -0.110696 0.144623 -0.255417 0.140893 -0.306693 -0.234764 0.879632 -0.552593 -0.167315 0.443105 0.455277 0.044705 -0.112291 -0.125085 0.0143092 -0.145293 -0.696357 1.01682 -0.588154 -0.0649532 0.126505 0.16625 -0.432282 -0.648891 0.0758298 0.655141 -0.881522 0.354072 0.0494641 0.144622 0.340925 -0.664119 -0.146415 0.337641 0.08188 0.124819 -0.0355643 0.278062 0.245751 -0.098325 0.149894 -0.0600744 -0.885927 -0.133764 -0.380219 -0.0093435 1.17867 -0.163481 -0.145825 -0.00862994 -0.432057 -0.248099 0.271486 -0.629838 0.129896 -0.123434 -0.31451 -0.32851 -0.00279575 0.0475727 0.0600794 -0.315773 -0.220226 0.686232 -0.0874913 0.0729742 -0.246621 -0.132399 -0.885658 0.376249 -0.026393 0.478513 0.523175 -0.89744 0.83162 -0.271112 0.214972 -0.884761 0.957055 -0.206078 0.229402 -0.102734 -0.181894 0.732184 0.405041 -0.590032 0.172496 0.388344 0.441711 -0.170152 -0.307375 0.850878 -0.0287974 -0.00621429 0.655224 0.793913 0.295032 0.36019 -0.0117015 -0.180567 0.0267955 -0.137207 -0.675107 -0.59472 0.0959551 -0.954238 0.803039 0.0749975 -0.76477 1.00413 0.306153 -0.38037 -0.533928 0.0235018 0.266699 0.363696 -0.718924 -0.141211 0.588917 0.312915 0.54005 -0.000619489 -0.113947 -0.132005 -0.0773659 -0.347926 -0.0329907 -1.10586 0.0207303 0.667668 0.906993 -1.34663 -0.192446 0.432042 0.197482 -0.282368 0.765724 -0.382827 0.314683 -0.130213 0.311845 -0.130535 0.194942 -0.770787 -0.388117 0.502931 0.902798 0.155279 -0.473979 0.374734 -0.67121 -0.323659 0.0296583 -0.113655 -0.451544 -0.361394 0.64405 0.138592 0.450273 -0.470566 -0.182926 0.568475 -0.402292 -0.159817 -0.385847 0.123434 -0.0505379 0.282926 -0.513466 -0.679839 0.358594 -0.971314 -0.0230807 -0.135024 0.0738678 -0.205575 -0.480005 0.526098 0.245316 -0.617468 0.217275 0.866682 0.270712 0.670688 0.330921 0.299311 0.226457 -0.242068 0.434825 0.0135775 0.189519 -0.243696 0.693817 0.930682 -0.437591 -0.491791 0.709535 -0.702769 -0.510086 0.0943471 -0.177366 0.352167 -0.63064 -0.0547522 -0.526405 0.166025 -0.029151 -0.62728 -0.0526552 0.246329 0.0169743 0.750652 0.282627 -0.182448 -0.736921 -0.453065 0.288335 -0.152093 0.626237 -0.349198 0.520449 -0.0628777 0.164239 -0.213891 -0.17682 0.123922 -0.0551122 0.505738 -0.238239 0.525109 0.4785 -0.681049 -0.353904 -0.0428843 -0.737096 1.20161 0.0868568 0.245506 0.021692 -0.15177 0.674557 0.100451 -0.854571 0.1492 -0.38113 -0.321074 -0.0986785 -0.332545 -0.0764732 0.200749 1.29293 0.691468 -0.713882 0.386515 0.0741499 -0.363552 0.127513 -0.329202 0.100941 0.612734 0.452268 -0.746403 0.409287 -0.196334 -0.0526457 -0.503061 0.621145 -0.0103208 0.244359 0.0155282 -0.425452 -0.110638 -0.343386 0.129353 -0.204786 0.427216 -0.505954 0.297563 -0.166618 -0.53441 -0.489977 -0.542843 1.29519 -0.155723 0.356265 -0.783512 0.724476 0.0273239 -0.78305 -0.373286 -0.691815 1.01779 -0.481532 0.188809 -0.538983 -0.00925491 0.948418 -0.00123 -0.473092 0.00957907 0.0407915 0.329457 0.517208 0.264452 -0.879735 -0.618009 0.387246 0.343481 0.329668 0.464581 0.174955 1.01579 0.0687718 0.0800251 0.781557 0.567586 0.782123 -0.340674 0.0396775 0.245109 1.1577 0.275946 -0.188388 -0.186931 -0.247963 0.324322 -0.154733 -0.514991 -0.448977 0.230514 0.00194643 -0.253157 -0.500855 0.165364 -1.19439 -0.0656331 -0.18771 -0.554143 0.308627 -0.0608099 0.362241 1.05476 -0.297991 -0.438276 -0.731027 0.0359522 -0.375361 0.0414673 0.487633 0.0266892 -0.102554 0.650917 -0.433078 0.0547704 0.718205 -0.236285 -0.0070166 0.637269 0.306078 0.347966 0.0338865 -0.174307 0.577703 0.477637 -0.273984 -0.185701 -0.218717 -0.102363 0.426699 -0.573487 0.716262 0.0984969 -0.0740129 -0.00937993 0.622949 -1.09868 0.177459 0.283485 0.345471 -0.181071 0.234751 -0.343829 0.116792 0.211783 -0.785251 0.730909 0.261086 0.00846119 0.306456 -0.203391 0.207793 
-0.405326 0.0830305 -0.300913 -0.818383 -0.458921 0.593375 -0.271378 -0.138242 0.134072 0.192199 0.125553 -0.430763 -0.0543769 -0.148685 0.232784 -0.444307 0.160493 0.00509555 -1.03489 0.124238 -0.111534 0.177431 -0.0187758 1.33368 -0.3484 -0.45476 0.476133 -0.327508 -0.0359125 1.16271 0.401196 0.634956 -0.0380189 0.116215 0.231995 -0.0564206 -0.671886 -0.194509 -0.136681 0.220899 -0.282619 -0.157243 -0.468801 0.587106 0.418454 -1.03341 0.461937 0.149247 -1.15943 0.382615 -0.28019 -0.249305 0.507752 0.0685048 0.742116 0.269363 -0.000341409 -0.460668 0.489109 0.747138 0.205549 0.298729 0.37713 -0.575981 -0.753857 -0.683101 -0.37646 -0.381639 -0.851489 0.313433 0.200003 -0.0829331 -0.230936 -0.0491387 -0.487214 0.0246669 -0.571372 0.931729 -0.225692 0.552523 0.0112023 -0.147035 -0.737093 0.159459 0.334872 -0.107392 -0.16701 -0.00204778 0.0668269 0.100244 0.455358 0.444931 0.0825466 -0.0699975 0.353732 0.0120924 0.413847 -0.266619 0.280983 -0.181 0.571717 0.33791 0.346166 -0.770366 -0.0208898 0.122925 -0.898861 -0.418596 0.315427 -0.103274 0.405463 0.147865 -0.211377 0.160221 -0.436731 0.702704 -0.381059 -0.681123 0.401317 0.56352 -0.462103 -0.463079 -0.247997 -0.0915233 0.0957371 -1.09387 -0.0759691 0.0297786 -0.151459 -0.208298 -0.0908307 -0.293569 0.269213 0.386656 -0.461079 0.579872 0.0686647 -0.696339 -0.0196322 0.311032 0.0880942 -0.372806 1.06797 -0.256393 -0.324708 -0.543245 0.152756 -0.935446 -0.0645663 0.124469 -0.193832 -0.0696974 0.134355 0.492895 0.297093 -0.0322824 -0.0477268 0.355366 0.275641 0.784481 -0.127193 -1.1503 -0.235342 0.238767 0.0982903 0.226835 -0.554451 -0.170649 -0.727434 -0.371655 0.316154 -0.285615 0.420526 -0.293651 -0.135032 -0.155257 -0.311495 -0.570525 -0.06088 0.700627 -0.235118 0.710619 -0.565685 0.196736 -0.113455 -0.14009 0.595569 0.801112 -0.565678 -0.7172 -0.251918 -0.411763 0.0814343 -0.357483 -0.656295 1.14167 0.12361 -0.381672 -0.84086 -0.101532 -0.666001 -0.50665 0.388584 -0.808549 -0.356772 0.147457 -0.400154 -0.0388018 -0.0839591 0.50428 0.0715874 0.440743 -0.0251106 0.302456 0.0721088 0.344332 0.379633 0.143712 -0.334812 0.0922969 -0.725171 0.176422 -0.489324 -0.602527 0.386842 -0.312989 0.282937 0.34931 0.492557 -0.10757 0.323095 -0.0356836 0.854171 -0.170641 -0.196927 0.0990743 -0.0794056 -1.14856 -0.239465 -0.269655 0.298053 0.164305 0.617785 -0.230757 0.616715 -0.283457 -0.0804442 -0.097853 0.665009 -0.26158 0.0280131 -0.197776 -0.430526 -0.426979 -0.329932 0.0620275 -0.986042 -0.196683 -0.494818 -0.589831 -0.33676 0.178298 0.442444 -0.640276 -8.51468e-05 0.00122346 -0.336926 -0.140978 -0.389017 0.493609 0.013878 -0.335525 -0.312669 0.673581 -0.43628 -0.555726 -0.0282753 -0.283567 0.392555 0.476472 0.327273 -0.569235 -0.485924 -0.490359 0.838022 -0.137596 -0.513754 0.0301343 -0.676259 0.0964243 0.148742 -0.193149 -0.109577 -0.237404 0.177039 -0.0478192 -0.153529 -0.444465 0.273913 -0.014119 -0.313875 0.196765 0.609435 0.0834243 -0.348409 -0.177697 0.594909 -0.571132 -0.383948 0.108049 0.119328 -0.850007 0.160284 0.464807 -0.479262 -0.0591446 0.83604 -0.573776 -0.316931 0.656308 0.289216 -0.340905 0.326065 0.385187 0.236856 0.302385 -1.09645 -0.308002 -0.0328699 -0.513821 -0.74103 0.651032 0.727963 -0.0668978 -0.23445 -0.730544 -0.694922 0.0895829 0.513991 0.361865 0.22321 -0.562021 0.470825 -0.177616 -0.0725522 0.0307197 -0.0595566 0.0637916 -0.0615019 0.270087 0.00489454 0.571763 -0.333313 0.341138 -0.119276 0.0843405 0.033314 -0.298789 0.193253 -0.0174598 0.161049 -0.0178138 0.531718 -0.582533 -0.509213 -0.142005 0.50568 0.0977889 0.184404 -0.215342 0.668416 0.642516 -0.643743 -0.915826 0.523368 -0.145262 -0.263298 0.485063 0.338073 0.326781 0.916109 0.15769 0.479039 0.0795337 0.243146 -0.400535 -0.460804 -0.733614 0.654746 -0.699175 -0.63806 -0.181167 -0.310195 -0.164232 0.300007 -0.698762 -0.100043 0.850572 -0.0770205 0.0504075 -0.000447715 -0.842619 -0.0610159 0.0709772 0.190038 0.45217 0.30881 -0.422607 1.13922 -0.284319 0.0953619 -0.596514 0.182613 0.323262 0.036336 -0.442781 -0.435571 0.842663 -0.448997 0.0814695 0.496715 -1.1031 -0.206689 0.579403 0.0290978 0.0208573 0.599006 -0.21524 0.518718 -0.0790186 -0.207732 -0.0527836 -0.0342277 -0.0112088 -0.403827 -0.11567 0.0954561 0.780015 -0.109524 0.0976682 0.112475 -0.138728 -0.0821931 -0.336458 -0.261362 -0.100052 -0.358099 0.101151 0.0395359 -0.178301 -0.216722 -0.486871 -0.107684 0.160657 -0.115688 0.486347 0.262699 0.0736643 0.416242 -0.862434 -0.172075 -0.514798 0.301859 -0.144409 -0.395628 -0.336437 -0.237114 -0.343621 0.354778 -0.00831868 0.227448 -0.0906664 0.850937 -0.32392 -0.797387 -0.440368 0.256221 0.490633 -0.722187 0.296961 -0.523587 0.317102 -0.154395 0.175729 0.614243 -0.62026 0.0637493 -0.13026 -0.242394 -0.0535755 -0.17036 -0.569825 -0.762795 -0.107343 0.42539 0.414794 0.53682 0.704141 0.32801 -0.381335 -0.371756 -0.033921 -0.220915 -0.782581 0.0631616 0.834186 0.387536 -0.0895345 -0.203594 -0.0810121 0.229276 -0.571502 0.610675 0.956503 -0.0174871 0.105134 -0.566668 -0.308193 -0.574457 -0.554272 -0.210385 0.337606 0.243796 -0.381307 0.131226 0.364292 -0.390044 0.0745375 -0.165365 0.759265 0.0613943 -0.427703 -0.184104 -0.189293 -0.384148 -0.580153 -0.436473 0.295442 0.196426 0.38059 -0.147323 -0.716401 -0.0202468 -0.655042 -0.361976 0.589376 -0.307374 -0.372047 -0.0171074 -0.473473 -0.207841 0.235119 0.632249 0.81636 -0.263666 -0.249612 -0.164757 0.875393 0.0472746 -0.0321972 0.991106 -0.300082 -0.22503 0.527729 0.124838 0.0538671 0.850292 -0.300532 0.242514 0.948546 0.54015 0.46413 0.340214 0.0347489 -0.288949 -0.169615 -0.985033 -0.187062 -0.00427368 -0.22996 -0.365504 0.382441 -0.120256 -0.258542 0.504634 -0.832214 0.362804 -0.168604 -0.810229 0.10877 1.22353 -0.561078 -0.889045 0.541321 0.1575 0.115716 -0.550151 -0.247808 -0.214908 -0.604379 0.124881 -0.18821 -0.212951 0.0299846 0.39295 -0.0887533 0.574994 -0.382353 -0.122635 0.170725 -0.16514 -0.0893129 0.24073 -0.46821 -0.431527 0.178658 0.410296 -0.38772 0.0407401 -0.214438 -0.285128 0.667526 0.0795723 0.271397 0.171417 0.19335 1.23162 0.280821 0.606388 -0.274586 0.273309 -0.06578 1.06081 0.116572 0.318688 -0.775993 -0.1228 -0.190616 0.0514504 0.118665 -0.515954 0.313174 0.44542 0.548091 -0.915846 0.0858774 -0.30824 0.0100338 -0.0283769 0.0962404 -0.0336829 0.251891 1.00479 -0.524674 -0.664292 -0.674349 0.377554 1.0772 -0.466721 0.463815 -0.729908 0.299813 0.441581 0.156319 0.0127903 -0.520452 0.0842911 0.312657 0.694153 -0.304124 -0.309471 0.00773829 -0.881511 0.924427 -0.447116 0.340172 0.0100429 -0.103706 0.792496 0.357509 -0.234737 -0.251356 0.0753854 0.203634 0.332558 0.699492 0.151737 -0.601048 0.214012 -0.206845 0.410717 0.671843 -0.364362 0.116608 0.599962 0.266218 0.166818 0.233147 0.683129 0.274554 0.260566 -0.156191 0.0666453 -0.19832 -0.550377 0.0268644 -0.615741 -0.0112091 -0.726829 0.193574 0.160341 -0.385921 -0.150814 -0.199943 0.305734 -0.335608 -0.425525 0.403674 0.304244 -0.202507 0.599356 -0.411 -0.271694 0.455582 0.125697 -0.0178446 0.913231 -0.690458 0.0945918 -0.500943 0.220998 0.0559163 0.607014 -0.58166 -0.128005 0.790796 0.023223 -0.164238 -0.0189581 -0.640337 0.234962 -0.0148134 0.750035 0.035798 0.397494 -0.247114 -0.634458 0.533665 -0.208633 0.0502384 0.110947 0.146089 0.137517 0.295616 -0.480291 0.094457 -0.527954 -0.529818 -0.207519 -0.153775 0.0279474 0.189287 -0.0605902 0.110342 -0.028364 0.144055 0.567812 -0.47431 0.122613 -0.208976 0.614494 -0.530087 0.00928103 -0.29938 -0.295933 0.30732 0.522712 -0.372774 -0.0226965 0.280249 -0.476857 -1.15742 0.155851 -0.0652363 0.694033 -0.322245 -0.382978 0.228814 0.599216 0.65846 0.827677 0.320063 -0.331149 0.393865 0.3173 -0.420345 -0.238836 0.544831 0.204638 -0.700246 0.572023 0.0533317 0.147849 -0.605689 -0.975895 -0.335984 0.192064 0.898208 -0.602061 0.374563 0.201266 -0.46617 0.162014 -0.248708 0.866535 -0.423842 -0.199518 0.583556 0.240826 0.293826 0.227251 0.167222 0.0210632 0.554936 -0.360444 0.0188289 -0.341843 -0.247428 -0.0880205 -0.265951 0.279104 -0.488622 -0.42916 -0.3192 -0.752986 0.235044 -0.48489 -1.14074 0.0293106 -0.0427634 0.674452 -0.406209 -0.0481727 -0.465717 0.057216 0.0267772 0.859614 0.235051 -0.0489572 0.739557 -0.642499 -0.700981 -0.0610999 0.133865 0.10859 0.902605 -0.590836 0.187245 -0.106979 0.386848 -0.363314 0.203785 -0.0224887 -0.961631 0.289257 -0.97948 0.0174942 -0.545921 -0.307913 -0.466223 0.460431 0.120934 0.345021 -0.226934 -1.77681 -0.24531 -0.858731 -0.541657 -0.403806 0.708265 -0.384373 -0.219401 0.113327 0.453213 -0.668902 0.00759012 0.962704 -0.675333 -0.0875785 -0.321575 -0.526651 -0.818585 0.345734 0.642122 0.333017 -0.0237661 1.20335 -0.188886 -0.400866 0.303713 -0.0267951 0.495017 -0.289842 0.635147 0.41345 0.636329 0.115819 0.442619 0.447982 0.187846 0.336631 0.658824 -0.260785 -0.491131 0.00505748 0.0566586 -0.149844 -0.495274 -0.0496509 -0.734869 0.834461 -0.231719 0.631415 0.387082 -0.678954 0.32693 -0.920057 0.389138 -0.150107 0.688009 0.795001 -0.112126 0.508856 0.315243 0.068535 -0.0510186 -0.0281971 -0.0824773 -0.0270818 0.0403626 -0.0938156 -0.310297 0.260861 -0.396559 0.352081 -0.213502 0.127542 0.0640519 0.580319 0.224948 -0.393595 -0.597118 -0.222174 -0.313563 0.64219 -0.388081 -0.392845 -0.13555 -0.0438887 -0.102932 0.0296558 -0.229054 -0.20824 0.433433 -0.0242247 -0.092544 0.38455 -0.870723 -0.0605185 0.5067 -0.236955 -0.742438 -0.145078 -0.505825 -0.582034 0.242038 -0.241582 -0.640669 0.502183 -0.173585 -0.0344321 0.373229 0.155427 0.165761 0.547388 -0.244806 0.0029352 -0.678567 0.0765848 1.06986 -0.598886 0.0119489 0.170193 -0.240053 0.412896 0.187528 -0.204662 -0.854796 -0.667898 0.0751322 0.181814 0.109612 0.0794964 0.769167 -0.616822 0.234455 -0.475296 0.344223 -0.230904 -0.0424196 -0.0255943 -0.796457 0.18749 0.263332 -0.175328 -0.0991158 0.399123 0.235054 -0.314871 0.456783 0.361282 0.500217 -0.0901614 -1.15265 0.0647135 -0.651115 -0.151202 0.87347 0.176637 -0.255497 0.274775 -0.6252 -0.589719 -0.389546 -0.00853058 0.0101831 -0.550292 -0.189951 -0.025494 1.30286 0.0371012 0.0119034 0.23538 0.519259 0.762294 0.214058 -0.00867721 -0.546825 0.316551 0.416319 0.308516 -0.50031 -0.419799 -0.0615248 -0.081975 0.340922 -0.15474 -0.804208 -0.133631 0.32042 0.233673 -0.199893 -0.158915 0.26545 0.618983 -0.0511162 0.208321 0.3009 0.208734 1.00295 0.45663 -0.394689 0.608011 -0.850033 -0.965347 -0.513996 0.417011 -0.0657192 0.271057 -0.8983 -0.130646 -0.0991975 0.600993 -0.213489 -0.579283 0.675327 -0.110329 -0.552905 -0.220606 -0.122916 0.0827438 0.0259223 0.262378 0.650761 -0.231818 -0.316064 0.0612608 -0.83024 -0.471892 -0.828071 -0.17601 -0.356562 -0.479339 0.453564 0.0199692 -0.842187 -1.12705 -0.10496 -0.45301 -0.582116 0.608208 0.717619 -0.0585638 -0.337012 0.118278 -0.0336887 -0.112145 0.61154 0.0129525 -0.75597 -0.725494 -0.0902227 0.139137 -0.102584 -0.192877 0.249881 0.51818 -0.202741 0.146139 -0.219999 0.164831 0.112181 -0.128387 0.226535 0.76971 -0.346111 0.771951 -0.270496 -0.680741 0.12025 -0.381307 -0.760844 -0.300473 -0.0417594 0.289697 -0.536832 -0.268524 0.467877 0.108653 0.602684 -0.208895 0.0447044 -0.110476 -0.666128 0.39602 -0.667159 0.241709 -0.287819 -0.199736 0.0183054 0.22607 0.294617 0.16489 -0.488302 -0.863358 0.934186 -0.0519802 -0.498972 -0.356211 -0.0501915 -0.0354691 0.338829 -0.143245 0.0429449 0.470904 -0.954284 -0.241347 -0.346601 0.0419228 0.477288 0.329258 -0.440668 -0.116574 -0.384547 0.445035 0.0510702 0.786006 0.192385 -0.312251 0.712444 0.221591 -0.139372 -0.0879316 -0.72971 -0.761693 0.27057 0.368198 -0.910771 0.172714 0.0951394 -0.365664 -0.0702544 -0.334825 -0.912622 0.544718 -0.166234 -0.550994 0.0125061 -0.309168 0.38767 -0.226511 0.166524 0.383599 -0.990778 -0.837014 0.570786 0.0729363 -0.114347 -0.175914 0.322637 0.352709 0.301207 0.113496 -0.193282 -0.273749 -0.189178 -0.385021 -0.0657618 -0.213222 0.631608 0.579556 0.31126 -0.445481 0.24483 0.114725 0.427549 0.914546 0.94744 -0.050984 0.488712 0.393761 -0.0132353 -0.0731251 0.634501 0.214279 -0.329558 -0.253927 0.0753948 -0.486017 1.11053 0.200583 1.2244 1.11976 -0.191597 -0.26406 0.107902 -0.23805 -0.439915 0.366418 0.0349306 1.392 -0.112298 0.4712 0.88955 0.666713 -0.0665592 -0.140073 -0.397935 -0.73905 0.149426 -0.0796352 -0.569501 -0.0819291 -0.229217 0.066661 -0.52423 -0.739789 0.167434 -0.0800647 0.0485605 -0.520725 0.124675 -0.649966 -0.627538 -0.0980774 -0.435923 -0.323957 -0.155982 -0.070774 0.683522 0.525694 0.0984273 0.211753 -0.14549 -0.429845 0.163612 -0.446919 0.0101312 0.550543 0.187616 0.332326 -0.0146807 -0.235567 -0.0608403 -0.405887 0.492965 0.507638 0.490199 -0.774031 -0.313401 0.174075 -0.50169 -0.327237 -0.353481 0.258028 -0.21026 0.407675 0.441581 0.0477461 0.582015 -0.440854 0.0456984 -0.690343 -0.0155605 0.322913 0.301774 0.202978 -0.0630268 -0.149865 0.524969 -0.268426 0.101059 0.0212349 -0.401429 0.181405 -0.700697 0.547378 -0.360092 0.179218 0.341424 0.638375 -0.166112 -0.0533785 0.187057 0.0818551 0.199234 0.390175 0.334831 0.262248 0.215319 -0.408748 0.430817 -0.430764 0.43082 -0.670826 0.514562 0.328208 0.104539 0.697898 -0.63533 0.045469 0.329345 0.401066 -0.0601049 -0.143821 0.725199 -0.679992 0.132809 0.486591 -0.468714 0.026092 -0.737018 0.477172 -0.398414 0.0312009 -0.200208 -0.156149 -0.763087 -0.0609262 -0.0801869 0.119776 0.284869 -0.300765 0.0985826 0.380671 0.327023 0.0525562 -0.292069 0.498974 0.0483602 0.0471245 -0.0556123 -0.497227 -0.0292659 -0.792451 -0.723926 -0.460955 0.0241103 -0.134267 -0.194595 0.355219 0.203438 0.227074 -0.419937 -0.349131 0.0877397 0.164268 0.365719 -0.680652 -0.0156668 -0.385379 -0.118996 0.615147 -0.722722 0.137344 -0.213382 -0.396148 -0.252097 0.186202 0.483599 -0.0154832 0.421871 1.07157 0.168764 0.609054 0.0136163 0.339414 -0.747114 1.14461 0.219906 0.093987 0.217833 0.326911 0.358984 0.248013 -0.584535 0.0975754 -0.0124555 0.850432 0.18226 0.136653 -0.192578 0.958996 0.411228 -0.928247 0.523986 -0.614889 0.289313 -0.269368 -0.0416481 -0.208518 -0.800318 -0.383914 0.274783 0.543437 0.3425 -0.00837397 -0.0973562 -0.669419 -0.268576 -0.304276 0.189902 -0.0509689 -0.173076 -0.0130862 -0.216382 0.12057 0.126973 0.434956 -0.174526 -0.00909755 0.646594 0.252669 0.215638 0.132857 -0.0373343 0.481928 0.386098 0.0101295 0.84613 0.0460199 0.258213 -0.396422 -0.429453 0.956154 -0.137445 0.316597 -0.455243 0.461186 -0.137742 0.662723 0.23408 -0.520896 1.16137 -0.0552452 -0.527629 -0.282945 -0.8239 0.0330757 0.704668 -0.691033 0.57546 -0.288391 -0.16934 -0.534866 -0.476139 -0.341619 0.148935 -0.452134 -0.361701 0.502778 0.107006 -0.100008 -0.238632 0.642309 1.0872 0.430369 0.106604 -0.482151 0.897277 -0.321045 0.318872 0.341494 -0.164392 -0.0414632 -0.883914 0.160841 -0.0476477 0.377679 -0.458251 -0.50474 -0.228773 0.121852 -0.0419456 -0.0801359 -0.47113 -0.513252 0.0943458 0.145311 -0.438776 0.600986 -0.162544 0.127743 0.0373721 0.397187 0.24584 -0.143744 -0.435231 0.0648112 -0.818013 -0.0191796 0.568434 0.191466 -0.625687 0.197938 0.471288 0.0392945 -0.042357 -0.225703 0.616537 0.167211 -0.944593 -0.000899515 0.164654 0.0573386 0.344554 -0.300134 -0.519536 -0.299534 0.082333 -0.290968 -1.15652 -0.0914829 0.847088 -0.143707 0.678888 0.678023 0.528057 -0.464597 -0.730504 -0.202923 0.294665 -0.222731 -0.108748 0.439981 0.0615035 -0.684894 0.310037 -0.118584 -0.0373983 0.18998 -0.228567 -0.541194 1.0646 0.244763 0.65099 -0.375618 0.146146 0.120875 -0.481926 -0.756616 -0.172139 0.0079155 -0.850316 0.0223848 -0.079632 0.215317 0.774732 -0.137033 -0.176871 -0.138495 -1.01757 -0.545967 -0.326851 0.106489 0.0328841 0.282306 0.350575 0.0851777 -0.66658 -0.130802 -0.442483 -0.358813 -0.448996 0.210227 0.0997949 0.528884 1.31111 -0.199844 -0.164811 -0.239914 0.689582 -0.271674 0.034144 -0.338895 0.0729527 0.179797 0.26074 -0.553644 0.0403214 -0.114819 0.408785 -0.51121 -0.156132 0.319971 -0.172505 -0.509412 -0.564261 0.235438 -0.593438 -0.706062 0.227118 0.47095 -0.481963 1.06283 -0.237015 0.388343 -0.257532 0.11232 -0.153679 -0.328522 -0.0046865 0.154152 -0.239661 0.827149 0.099809 -0.430796 0.163996 0.137646 0.211232 0.0448442 -0.241771 -0.158253 0.831639 -0.722819 -0.135979 -0.192311 0.106495 -0.856832 -0.189537 -0.311502 0.11322 0.518624 -0.299264 0.0707361 0.0585801 0.337713 -0.0510556 -0.201236 0.239775 -0.591743 0.00956555 -0.347247 0.253978 0.703814 0.407944 1.33509 0.255032 0.0490647 -0.560342 -0.137965 -0.508682 0.0121657 0.510649 0.00366793 0.25344 -0.0954692 0.205046 -0.054323 0.263312 0.429775 0.776188 -0.0389303 0.424007 0.595471 0.102026 -0.114291 -0.23493 -0.355661 -0.248176 -0.303131 0.363224 -0.312438 0.537997 -0.731991 0.177689 -1.03554 0.642528 0.211216 -0.680425 0.0752017 -0.683863 0.236515 0.451456 0.692095 0.626227 0.337262 -0.163103 -0.228997 0.609123 -0.160166 -0.0161887 0.124741 -0.123719 0.101343 0.525444 -1.07585 -0.236605 -0.964509 -0.326745 -0.453502 0.287475 0.0486936 -0.0114509 0.292121 0.282475 -0.478914 -0.570625 0.0305371 0.0708211 0.929608 0.00808036 0.26511 0.495499 -0.736344 0.259141 -0.555671 -0.225577 0.370721 -0.475029 -0.128523 -0.0289096 -0.28134 0.241086 1.37841 1.15504 -0.173295 -0.0452114 -0.503547 0.606601 -0.343228 0.641584 -0.0406133 0.552633 0.281427 -0.431982 0.0150048 -0.210044 -0.265045 0.0705842 -0.518374 -0.78022 0.300971 0.0331041 0.0664784 -0.217833 -0.45469 0.998143 0.104336 0.610323 0.0749569 -0.0598159 0.352575 0.24229 0.14948 -0.579193 -0.453378 -0.332076 0.150832 0.185216 -0.106064 -0.425957 0.0498578 -0.475511 -0.0916044 0.0222442 0.169665 -0.172637 0.125383 0.435429 -0.054402 0.159581 -0.218368 -0.855036 0.525701 1.28978 0.197422 -0.187033 -0.609255 0.584991 0.0190213 -0.68596 0.375989 0.179734 -1.28381 0.334754 0.55627 0.437468 0.455162 0.980287 -0.165509 0.117609 -0.16423 -0.642081 -0.0784854 -0.150615 0.524452 -0.579857 0.486824 -0.0933912 -0.291322 0.396272 -0.188936 -0.355849 -0.278002 0.187669 -0.962748 0.271803 0.377863 -0.700663 0.166449 -0.612454 0.285021 -0.350687 -0.102672 0.0572195 0.265086 -0.361797 0.115735 0.181917 -0.5271 -0.754296 0.466258 -0.63803 0.365896 -0.485104 0.112807 -0.0206531 -0.582468 -0.153372 -0.0229278 -0.150236 0.370767 0.468739 0.145304 0.604785 0.69532 0.0629014 0.319055 -0.129236 -0.762505 0.595441 0.182509 0.0593864 0.511624 -0.152795 -0.397724 -0.639077 -0.0668564 -0.387904 -0.473639 -0.235759 0.58712 0.0796379 -0.614608 -1.02837 -0.313449 -0.124533 0.21313 -0.909289 -0.189611 1.05248 -0.764842 -0.0782669 0.358733 0.325952 0.275874 0.568066 -0.294512 0.224458 -0.187334 -0.564032 -0.395859 0.176065 0.116002 -0.296473 0.167411 0.153923 0.0259615 0.0661727 0.649738 -0.0158172 -0.542557 0.423421 -0.601351 0.46381 0.120139 -0.914172 -0.512176 -0.0839754 -0.285774 0.349198 0.85868 0.65154 0.564632 -0.432187 0.486651 -0.0447817 0.313614 -0.43201 0.0596804 -0.251127 0.821439 -0.45671 1.4235 -0.208106 -0.232902 -0.51561 0.00338192 0.523275 -0.592758 0.661455 -0.209349 0.327508 0.158762 0.0800329 -0.499803 -0.469485 -0.0536499 0.63865 0.073793 0.458483 -0.172929 0.269274 0.457173 0.363284 -0.065191 -0.723565 -0.302457 -0.00473306 -0.0600385 -0.42788 -0.359759 -0.00708819 0.0038174 0.0300372 -0.372611 -0.0731437 -0.436242 -0.968149 0.0636552 -0.0956454 0.0830504 -0.408744 0.203767 -0.191505 -0.0510224 0.0142822 0.00572699 -0.329156 -0.141834 0.665331 0.0975495 0.0677244 -0.353935 -0.474496 -0.81617 0.12985 0.278197 0.129145 -0.188213 0.411826 0.314483 0.47531 0.0957475 0.33998 0.152288 0.070108 -0.442578 0.0977731 -0.798136 -0.129497 0.589939 0.351067 0.322705 0.0459228 -0.998505 0.0942634 -0.728061 0.29694 0.187797 -0.390711 -0.184388 -0.0376911 0.888379 0.015808 0.0576183 0.627116 0.323085 1.03916 0.116569 0.335561 -0.763874 -0.173478 0.318616 -1.00091 -0.116363 -0.343929 
0.0282158 -0.161219 0.721775 0.230027 0.622775 0.389699 0.884947 -0.50691 0.449008 -0.144151 0.279594 -0.409301 0.348724 0.172394 -0.167413 -0.749018 0.333212 0.832099 0.585811 0.079449 0.288038 0.534775 -0.398578 0.537076 -0.215997 0.668331 0.539497 -0.118852 -0.327598 -0.441351 -0.258073 -0.00417855 1.16556 0.0434168 0.230253 -0.302446 -0.0876928 0.332654 -0.0844948 -0.0592087 0.237498 -0.643545 -0.543897 0.261225 -0.133237 0.0418031 0.463985 0.00767647 0.537046 0.0801101 0.0510837 -0.46524 0.208169 0.246263 -0.00440453 0.305792 -0.0128366 -0.782224 0.0181953 -0.663319 0.275192 -0.628826 -0.296636 0.633263 0.162846 0.528151 0.767396 0.0186831 -0.484771 -0.0452022 0.215788 -0.0765145 0.029172 0.177307 -0.378346 -0.0552661 -0.105241 0.543811 0.900116 -0.588298 -0.471035 0.28245 -0.527016 0.661968 0.0413901 -0.454794 0.240727 0.338058 -0.108782 0.561417 -0.113305 0.405224 0.327219 0.596946 -0.304394 -0.183147 -0.784721 0.163393 0.662445 0.355318 0.290209 0.249734 0.212973 -0.305012 0.0612049 -0.0481323 -0.904095 -0.415956 -0.165774 -0.0482972 -0.125871 0.279422 -0.399092 -0.450842 -0.191358 0.101908 0.199203 -0.0079071 -0.791253 -0.0121371 -0.361411 -0.0175283 0.599977 0.612729 0.737309 0.63991 0.742748 0.312919 -0.207153 -0.0476579 0.073312 0.0110464 0.0582523 -0.259223 -0.58098 -0.189026 -0.604609 -0.78847 -0.371744 0.159353 0.344963 -0.00264954 -0.366731 -0.0223934 0.915879 0.828561 -0.6477 -0.142296 -0.216704 -0.166124 0.682167 0.436755 -0.296757 -0.656007 0.236025 -0.337108 0.562643 0.607408 0.460121 -0.797466 -0.0270714 0.103431 -0.736828 -0.394476 -0.380179 -0.477224 -0.304678 0.540231 0.489672 0.684822 0.251126 0.0335171 0.0100022 -0.592088 0.103359 -0.52536 -0.129348 0.0692849 -0.112451 -0.245064 -0.290666 0.23196 -0.0888013 -0.0520346 0.0220584 -0.195296 0.61686 0.0275511 -0.172736 0.118839 -0.623404 0.728008 -0.174098 0.297106 -0.459341 0.369646 0.538438 -0.139098 0.79141 -0.393968 0.393601 0.802633 0.13898 -0.214587 0.0198647 0.0311845 -0.373622 0.245555 0.362536 0.582341 0.543925 0.336711 -0.120215 -0.178738 0.892065 0.154183 -0.829498 0.546 -0.986902 -0.788285 -0.476735 0.715493 -0.111411 0.146329 -1.31278 0.302162 -0.480082 0.0233499 0.717486 0.097584 0.244203 -0.229539 0.342503 -0.372461 0.775033 0.302043 0.398544 0.040709 0.143142 -0.25463 -0.214126 -0.0165189 0.171739 -0.549833 1.23457 0.397558 -0.360163 0.469405 -0.253508 0.728468 0.412115 -0.428914 0.402095 0.0241826 0.267182 0.54261 -0.318114 0.0911717 0.034014 -0.414281 -0.01829 -0.124621 0.517803 -0.0763444 0.543961 0.516143 0.136806 0.119903 0.0362097 0.362443 0.113919 0.447713 0.769974 0.400573 0.227079 0.377491 0.329092 0.490224 -0.116725 -0.249895 0.00875708 0.43352 0.193373 0.229581 0.319755 -0.312319 -0.224932 0.155529 0.0957006 0.0855244 -0.591756 0.59283 0.075357 -0.559503 -0.3583 0.360417 -0.786801 0.603883 0.0288638 0.266184 0.976188 0.47698 0.503871 0.190869 -0.37609 -1.06794 -0.404518 -0.1494 0.339709 -0.0691839 -0.288897 0.302434 0.964774 -0.368305 -0.903086 -0.304082 -0.904066 -0.539565 -0.356165 -0.757804 0.724279 -0.628709 -0.144231 -0.0929722 0.198859 0.0662069 0.370987 0.00107134 -0.253569 0.219067 -0.675723 0.411895 -0.0628456 -0.0248059 0.0827542 -0.268729 0.142331 1.12286 -0.432234 -0.647987 -0.523919 0.688388 -0.246184 0.31361 -0.0714206 -0.0165326 0.345896 -0.225533 -0.278515 -0.148156 -0.504257 0.0112173 0.38614 0.0559124 -0.3759 -0.593437 0.712313 -0.323843 0.793357 -0.614987 -0.0714253 -0.962416 -0.818792 0.506217 0.238703 0.821158 0.0774956 0.326422 0.137399 0.184194 -0.340783 0.144339 -0.136156 0.712012 -0.0669057 -0.311981 -0.0224234 -0.657662 -0.0823452 -0.0598779 0.391274 -0.0571902 0.657869 0.419587 0.687487 -0.00120274 -0.180986 -0.0636904 -0.635443 0.0607714 0.517636 -0.551151 0.027447 -0.224698 0.328812 0.0162988 -0.903086 0.324298 -0.278871 -0.252989 -0.284732 0.338928 0.125563 -0.326738 0.063407 0.895706 -0.654779 -0.331363 -0.858867 -0.844539 -0.0666219 0.0731128 0.0732538 -1.06681 0.462647 -0.0339442 0.439829 -0.69175 -0.0993768 0.455815 -0.273757 -0.0163432 -0.333054 -0.119479 -0.241992 0.510777 0.255308 -0.0822246 0.168683 0.972448 -0.125815 -0.19616 -0.536061 -0.0560633 0.293165 0.556638 -0.448198 0.332046 -0.391047 0.128143 0.0576423 1.16125 -0.103957 -0.246065 0.217053 0.330452 0.177373 0.0999773 0.202977 -0.431229 -0.42053 0.0557371 -0.20115 0.48858 -0.189728 0.35861 -0.188111 -0.000838645 -0.684758 -0.91061 -0.35745 -0.734026 -0.381963 -0.453513 -0.0341176 0.0190929 0.171219 0.724578 0.363067 -0.0143991 0.0903708 -0.492223 0.00211687 0.725817 0.333593 0.0154111 0.147284 -0.309884 0.013416 -0.394689 0.350876 -0.288774 0.406447 0.778805 0.277662 -0.228371 -1.18617 -0.345337 -0.422784 0.558766 0.0663537 -0.434032 0.0352134 0.468003 -0.467928 -1.18208 -0.183868 0.385258 0.275039 -0.327282 0.433409 -0.685833 -0.622619 0.351715 0.424684 -0.138588 -0.470586 -0.293475 -0.252214 0.570634 0.420887 -0.173514 -0.0304274 -0.0121053 -0.0173989 -0.142001 -0.406645 -0.412286 -0.582652 -0.285253 -0.0905686 0.310496 -0.0390406 -0.508974 0.440234 0.142527 0.564203 0.407469 0.545005 0.572528 0.0315823 -0.0271376 0.549852 0.559822 -0.00611077 -0.836094 0.363446 -0.363179 -0.180807 0.0264693 -0.738246 -0.0887857 -0.231971 -0.454224 0.0594288 0.134724 -0.00355168 -0.566469 -0.270727 0.334554 -0.59647 -0.387462 -0.853926 -0.303397 0.509316 0.300352 -0.213723 -0.183184 0.555784 -0.832194 -0.0878687 -0.435525 0.00999878 0.510921 -0.153916 0.322037 -0.164141 -0.291286 0.184217 -0.677321 -0.0302303 -0.10224 0.685084 -0.616582 -0.0127268 1.01427 0.0132395 -0.160666 0.0342441 -0.362727 -0.2991 -0.583046 0.0681959 -0.470019 0.0684163 -0.138062 -0.48035 -0.520043 0.424345 -0.746888 -0.0724035 0.114087 0.47124 0.195916 -0.601727 -0.330457 0.198506 0.122555 -0.287888 -0.527782 0.423727 -0.806713 0.395562 0.173341 0.477477 0.547542 0.404589 0.250409 -0.299044 0.478661 -0.450906 -0.032644 0.537472 0.47841 -0.0389022 0.240754 0.208043 0.460292 -0.336741 -0.207473 0.437134 0.432323 -0.028081 -0.437919 0.203902 -0.36536 -0.413301 -0.0874217 -0.501276 -0.466951 -0.376261 -0.379595 -0.303905 0.777393 0.242659 -0.0130891 0.508165 0.0171492 0.0598006 0.078283 -0.773146 -0.436908 -0.00279 -0.176291 -0.0205311 -0.0149937 0.512111 0.205344 -0.00831967 -0.424892 0.325095 0.330828 -0.652873 -0.00560456 -0.0854676 0.0664055 -0.607445 0.0244904 -0.682528 -0.300709 -0.178129 -0.515935 -0.0697109 0.646873 0.205456 0.078625 0.407671 0.676508 -0.296298 0.130375 -0.128128 -0.250776 -0.251497 -0.377061 0.232085 0.0944262 -0.412831 -0.228875 -0.393676 0.0233067 0.497647 0.0648762 0.180064 1.00709 -0.524418 -0.778843 0.461715 -0.899832 0.425628 0.295239 -0.220022 -0.0179865 0.267411 -0.57756 0.191728 -0.544356 0.749967 -0.451064 -0.351549 0.823457 -0.439985 0.0415938 -0.25282 -0.176734 -0.639859 -0.774666 -1.08522 -0.248506 -0.151574 0.118928 0.214183 0.308656 -0.227683 0.521802 0.137053 -0.343384 -0.000719306 0.281635 0.26294 -1.12225 0.0304428 0.383647 0.370793 -0.877568 -0.141349 0.32347 -0.108702 -0.870719 0.869961 0.256968 0.40867 -0.764972 0.119679 0.0698015 0.0955558 -0.894321 0.403687 0.869003 0.00938465 -0.872516 0.681865 0.173052 0.437129 0.242179 -0.536439 -0.84992 -0.232839 0.183824 0.516666 0.141973 0.375957 0.283538 0.692263 -0.795647 -0.385491 -0.632289 0.71079 0.124531 0.134344 -0.415554 -0.822112 0.106889 -0.184603 0.305617 0.133511 0.0333028 0.296766 -0.555525 0.0384102 -0.367378 -0.354779 0.757464 -0.269009 0.0638828 -0.734193 -0.191434 0.476596 0.962638 -0.571708 -0.0580087 0.0186464 0.479002 1.02053 -0.43681 -0.129426 0.414161 0.450074 -0.131822 -0.24706 -0.0326642 -1.24582 0.132941 -0.194346 0.229889 0.491453 0.0165812 0.647443 0.139486 0.0838558 0.337488 -0.00565478 0.256839 -0.0854143 -0.558379 -0.220504 0.245703 0.598315 0.159983 -0.125561 -0.184419 -0.504029 -0.110966 -0.0431081 -0.623353 0.135408 -0.838589 -0.725738 -0.374536 -0.419528 -0.149654 0.059867 -0.214848 -0.469771 -0.336091 -0.066551 -0.69611 0.729388 -0.550999 0.22416 0.538149 0.206388 0.188127 0.0118227 0.160647 0.154125 0.163845 0.216486 -0.751986 0.55696 -0.12471 -0.412438 -0.283743 -0.409232 0.0187498 0.445366 -0.244327 -0.287525 -0.0951074 -0.487542 0.854003 0.185954 0.226292 0.625356 -0.137282 0.404137 -0.303514 0.335678 -0.361335 -0.517334 -0.574679 0.622441 0.30608 -0.0498264 -0.13542 0.88422 0.0245887 -0.226766 -0.543582 0.15756 0.774229 0.750459 0.126081 -0.0729287 -0.65985 -0.0789996 0.306469 0.449755 -0.0443798 -0.085905 0.0459973 0.0633791 0.994197 -0.0724163 0.31108 -0.633253 0.427455 0.752869 0.484844 0.0749599 0.325792 -0.470203 -0.00566862 -0.148449 -0.276228 0.972375 0.355657 0.265782 0.0200742 0.369316 -0.021434 -0.5364 -0.132985 -0.0471281 0.673684 0.796233 -0.199367 0.202466 0.138483 -0.423678 -0.469948 -0.846235 0.139616 0.22061 0.521255 -0.281868 -0.393072 0.166605 0.503812 0.06976 0.352469 0.181555 -0.206251 0.0263132 -0.380392 -0.585003 -0.0702471 0.417858 0.20566 -0.378903 0.333584 -0.722176 0.0236784 -0.242618 -0.128918 0.94925 0.197517 -0.442425 0.323553 -0.0423919 -0.47201 -0.292765 0.181986 -0.235594 -0.264074 -0.394008 -0.160524 -0.058251 -0.11464 -0.079731 0.507606 0.234649 0.353305 0.39339 0.103782 -0.185021 -0.484312 0.367073 0.0804725 0.34128 0.294091 -0.498419 0.0939232 0.556446 -0.375041 0.127819 0.518904 -0.329366 -0.524242 -0.438867 0.00955205 0.197591 0.40654 -0.08115 0.377395 -0.247011 -0.520463 -0.0983929 0.317003 -0.397155 0.846433 -0.422714 0.133505 -0.326867 -1.50309 -0.216833 0.411725 0.666592 -0.024809 -0.401331 -0.140623 -0.349878 -0.297445 0.129873 -0.557822 0.892556 -0.323492 -0.187284 -0.313912 -0.207254 -0.547217 0.202903 -0.371593 0.45426 -0.16329 0.542829 -0.0912997 0.37904 0.192365 0.271145 -0.358807 0.197272 0.47409 -0.369019 0.0643936 0.224856 0.392152 -0.474096 -0.113113 -0.0627456 0.400446 0.419051 0.0418003 0.127672 -0.398631 0.508713 -0.170859 -0.610434 -0.132235 0.59989 0.634937 0.465625 0.505305 0.498239 0.0866766 0.715734 -0.360495 0.247386 0.493343 -0.224296 0.807197 0.313699 0.124666 0.0532092 0.271698 -0.222431 -0.427703 0.541101 -0.220476 0.27555 -0.923762 0.221457 0.351582 -0.0579034 -0.0357538 0.509817 0.284343 0.105262 0.654083 0.569332 -0.767012 -0.703299 0.142121 0.382096 -0.336491 1.10319 0.937299 0.446144 0.260212 0.482139 0.148617 0.264492 0.0869163 0.147181 0.147449 -0.0960241 0.517691 -0.164582 -0.54589 -0.228649 0.206899 0.0894134 0.072352 -0.20599 0.687843 -0.328503 0.489555 -0.102594 0.218468 0.924311 0.136644 -0.463013 -1.02283 -0.0841587 0.514975 0.641196 0.544577 -0.104458 -0.348042 -0.437288 -0.542873 0.0793349 0.382384 -0.623707 -0.0531975 -0.323605 -0.686841 0.351963 0.771613 0.0815627 -0.563127 0.639364 0.0858395 -0.316504 -0.520847 -0.0550418 -0.199801 0.128948 -0.137556 -0.221838 0.906153 -0.206293 0.482984 -0.164043 -0.411168 -0.318678 -0.0509307 -0.774555 0.29217 0.829961 0.437757 0.765418 -0.531542 -0.639533 -0.0279312 -0.379979 0.542213 0.210753 0.0765379 -0.67149 0.274115 -0.257798 -0.0953117 0.228663 0.438478 0.264555 0.291692 0.182151 -0.310848 0.720572 -0.752258 0.0477103 -0.320186 -0.00630558 -0.379674 -0.0287102 0.208641 -0.0326557 0.423563 0.194492 -0.192713 0.130067 -0.212308 0.0103366 0.187307 -0.595399 0.0711956 -0.935258 0.583892 0.84535 -0.588544 0.260703 -0.2592 0.226382 -0.100646 0.350365 -0.105462 -1.02494 -0.420902 0.597575 -0.690051 0.888854 0.264177 0.434618 0.382403 0.856265 0.705612 -0.263864 -0.703074 -0.469377 -0.195719 -0.287719 0.338788 -0.229923 0.061535 -0.0633151 -0.100099 -0.523422 0.460223 -0.22073 0.518165 0.435697 0.260134 0.480602 -0.617209 -0.261711 0.760619 0.182168 0.011684 -0.212273 -0.00156983 0.531643 0.0265124 0.0931901 0.446125 0.0680746 0.624247 -0.179436 0.142821 0.295098 -0.0828499 0.0596403 -1.16283 -0.0517835 -0.106066 -0.00374216 -0.70176 0.581657 0.208021 0.390931 0.138115 -0.803706 -0.232037 0.567927 0.752872 0.042819 -0.0820406 -0.115754 0.263553 -0.0120088 -0.220487 -0.288982 -0.978052 0.516196 0.34265 1.70425 -0.503974 -0.511795 -1.03167 -0.288751 0.261034 0.0487477 -0.0327874 -0.315153 0.00791979 0.288943 -0.238136 0.0642443 -0.654353 -0.609277 0.439035 -0.185384 0.351033 0.616477 -0.242878 0.0772678 0.807655 0.871772 -0.717284 -0.115553 -0.137155 -0.481798 -1.31278 0.415334 -0.180493 0.131811 0.0364382 -0.372077 0.704583 0.796943 0.884626 -0.280322 -0.696914 0.954356 -1.07115 -0.850104 -0.0526982 -0.12989 -0.114565 -0.634294 0.375321 -1.02085 0.0132982 -0.422519 0.306527 0.227722 -0.511006 0.265342 -0.266453 0.67803 -0.241466 0.135211 0.106541 -0.130043 0.102675 0.269618 0.00148071 -0.341979 -0.073864 0.136812 0.421551 0.397332 -0.126165 -0.46176 0.376353 -0.428596 -0.244675 0.245008 0.417176 -0.0223701 -0.411154 -0.120164 0.392214 -0.538592 0.744654 0.35036 -0.397214 -0.180874 -0.357628 -0.463494 0.0451977 -0.676082 -0.533411 0.067879 0.277431 0.349829 0.650034 -0.0292818 -0.333415 -0.31592 -0.141422 -0.408338 0.188536 -0.255656 0.0140738 0.094759 -0.335419 -0.0488392 -0.0547392 0.0455298 0.550225 0.57827 1.18468 0.0125384 0.325975 -0.479132 -0.70462 0.137677 0.642314 -0.165257 -0.695004 0.161164 -0.243602 0.139615 0.0730937 -0.246952 0.173331 -0.0698456 0.0397393 0.761349 -0.170991 0.51489 0.435742 0.00744708 0.471169 0.856353 0.317959 0.129238 -0.0957109 0.270762 -0.235841 1.29207 0.535832 -0.495993 -0.0964226 0.315783 -0.0499417 0.400438 0.0522111 0.128409 0.364368 -0.198325 -0.307753 0.162284 -0.529036 0.43377 -0.282209 -0.0607691 0.344943 -0.525258 -0.258034 -0.889627 -0.231954 0.821216 -0.142998 -0.294036 -0.260228 0.504305 0.249533 -0.305684 0.0563508 -0.0950893 -0.208445 0.0858751 -0.508092 0.148892 0.221394 1.24923 -0.552913 -0.0751165 -0.599038 -0.411386 -0.256426 0.110464 -0.180042 -0.106726 0.0991799 0.418971 -0.641277 0.3869 -0.209956 0.636894 -0.035351 -0.424073 0.136256 -0.789515 0.118544 0.0106347 -0.0944951 -0.463933 -0.189039 -0.00108996 -0.0943519 0.414813 -0.169214 -0.411034 -0.0650762 -0.458688 -0.288319 0.0856328 0.455602 -0.356743 -0.412147 -0.372489 -0.221467 0.0989421 -0.117336 0.281929 -0.16409 -0.579082 0.232988 -0.118041 0.248591 -0.0414608 0.166911 0.195318 -0.324435 0.194761 0.140706 0.147151 0.229171 -0.0602698 0.0417436 -0.389051 -0.100781 -0.290254 0.0988223 0.190534 0.687597 -0.736812 -0.417713 -0.102096 -0.149687 0.0464436 0.18288 0.288223 0.0400524 0.0805751 0.0409805 -0.155632 0.0700407 -0.126793 -0.255635 -0.178316 -0.283674 0.959797 -0.0306245 0.163559 0.308504 -0.266154 0.282067 0.202665 0.0538254 -0.295582 0.215754 0.059171 0.313085 0.165021 -0.769927 -0.212853 0.291444 -0.468191 -1.28767 0.53771 0.347177 -0.596151 -0.773152 0.363596 -0.783669 -0.343507 0.423522 1.07622 -0.122317 -0.270681 -0.109232 0.495605 0.783252 0.0482696 0.284077 0.690721 0.125673 0.0357989 0.475913 -0.0218491 0.103413 -0.602823 0.696551 0.147155 0.949969 0.097404 -0.231457 0.639102 0.749109 -0.254392 -0.877773 -1.27742 0.0188283 -0.379877 -0.28134 0.0165111 -0.571166 0.480205 -0.0942032 -0.656819 -0.368934 -0.0192298 -0.129588 -0.276288 -0.171528 -0.524974 0.0482666 0.257628 0.14528 1.20399 0.177523 0.197371 0.0398523 -0.293953 0.411871 -0.157584 -0.409922 -0.381984 -0.585792 -0.149889 -0.986388 -0.596687 -1.00795 -0.132552 0.345201 0.605596 -0.437722 0.620127 1.05727 0.603652 0.0699775 0.376331 0.313996 -0.171563 -0.114761 0.259719 0.805156 -0.640332 -0.0597294 0.365193 0.78172 0.456913 0.492894 -0.586702 -0.304489 0.110832 0.60172 0.516384 0.233287 0.15499 -0.113795 0.216561 0.441861 0.668349 -0.324455 -0.478266 0.191622 1.04371 -0.144707 0.707451 -0.34868 -0.255105 0.33988 0.0679261 -0.155446 0.267887 0.564126 -0.00476262 0.198809 0.192909 0.295914 0.701708 -0.25941 -0.0135613 0.290777 -0.60904 -0.322923 0.531854 -0.268714 -0.994641 0.437144 -0.350307 -0.0460362 0.0868802 0.0352005 0.6812 -0.0959293 0.159579 0.167127 -0.102056 0.604868 -0.464904 -0.252391 -0.338693 -0.328244 0.284442 0.142795 0.178092 -0.503774 -0.219625 0.400665 0.485745 -0.0797137 -0.367848 0.0402829 0.143159 -0.21519 -0.296396 0.124715 0.296015 -0.315608 -0.102756 0.926494 0.0691821 0.602179 -0.303649 -0.500536 0.281326 0.120771 0.346039 0.103459 -0.266365 -0.711313 -0.136505 0.412275 0.112644 -0.0487074 -0.075439 0.0768921 0.0668335 0.491917 -0.229927 -0.280127 -0.318914 0.745934 0.184343 -0.154866 0.170502 -0.232175 -0.246874 -0.216305 0.694217 -0.273743 -0.155992 -0.0754097 -0.783343 -1.38724 0.0915239 -0.614035 -0.0881547 -0.0876492 0.157422 0.731073 0.549558 -0.0672197 -0.935934 -0.232919 0.615139 -0.386759 0.0232525 0.636629 -1.11535 0.101427 0.182506 0.265605 0.0800619 -0.318395 0.00247396 1.06117 0.343338 -0.240996 -0.230274 -0.00875631 -0.1612 -0.265128 0.451317 0.517833 0.273556 -0.403301 -0.965973 -0.0612775 -0.334631 0.0285044 0.360992 0.360714 0.0605467 -0.524457 0.13256 0.467724 -0.247139 -0.133115 -0.857532 0.0561172 0.449375 -0.496089 0.365686 -0.125884 -0.327402 -0.210546 0.194954 -0.502005 0.0875884 0.336947 -0.102068 -0.273842 -0.567917 0.231943 0.238841 -0.247879 -0.201753 -0.423519 0.121419 -0.436869 -0.105563 0.0553329 -1.21313 0.568981 0.391668 0.423406 0.551962 0.0583326 -0.0374534 -0.77004 0.137801 0.127971 0.12072 -0.10679 0.114559 -0.22595 0.366118 -0.318627 -0.768459 0.0161796 -0.182108 0.0829845 -0.177024 -0.0298672 -0.116504 0.141748 0.39526 0.0428115 -0.185837 0.462254 -0.334822 0.0137156 0.020818 -0.374782 0.0925293 0.0644556 0.382571 -0.2386 -0.547715 0.214953 0.232792 0.681473 -0.301641 -0.168581 0.960036 -0.0517544 0.236595 0.0123402 0.238862 -1.08818 0.0457729 0.0997052 0.586277 0.378863 -0.0165791 -1.02587 0.109939 -0.348771 0.126825 -1.03524 -0.67699 0.0512301 0.114729 0.638981 -0.187826 0.422941 -1.02544 0.773782 -0.372184 0.277449 -0.206519 0.0594055 -0.701379 0.441115 0.25003 -1.16577 0.648827 -0.639377 -0.0350139 -0.286584 -0.0847088 -0.381797 0.087172 0.659201 0.13825 -0.371407 0.490785 0.466044 0.0858177 0.895199 0.306372 0.349143 0.521158 -0.0478216 -0.512856 0.327442 0.439638 -0.212298 0.505833 0.727292 -0.53204 0.332469 0.113124 0.272838 0.428692 0.562202 -0.0751394 -0.342462 0.728745 -0.234772 0.106687 -0.589772 0.587782 -0.387086 1.14677 0.788335 -0.0656098 0.00216937 -0.448573 0.66114 -0.0867952 0.0959372 0.49766 -0.19666 0.870663 0.107964 -0.862951 0.00276064 -0.619381 0.552723 0.00449136 0.620974 -0.25383 -0.0436515 0.378013 -0.259324 -0.146448 -0.836704 -0.481899 0.0147257 0.305483 0.204502 -0.173045 0.319648 0.0236892 0.749093 -0.464628 0.514682 0.110993 0.118574 -0.25235 -0.407218 -0.0718387 -0.272849 0.0419533 0.0429239 0.323192 -0.709587 0.0691398 -0.167288 0.709181 0.166032 0.791205 0.186131 -0.0966908 -0.0112443 0.178807 -1.18965 0.740021 0.432145 -0.588469 -0.632946 0.558116 0.0632075 0.523567 0.0134619 0.224682 -0.500195 0.144972 -0.644191 0.307086 0.442542 0.429271 -0.345543 1.3009 -0.172273 0.459113 0.0910082 -0.966366 0.0793453 -0.185977 -0.629543 -0.5144 -0.433237 0.145428 -0.432853 0.454837 -0.2793 0.0713337 0.416129 0.117405 -0.0819576 -0.106394 -0.478776 0.260231 0.273888 -0.226896 0.139059 0.19858 0.324616 0.0523417 0.0744013 -0.406567 -0.160528 0.183543 0.139798 0.00156941 0.456618 -0.36627 -0.0653413 -0.358105 0.855552 -0.410476 0.271687 -0.0311177 0.25816 0.428359 -0.00500365 0.614496 1.13411 0.271785 0.0365026 -0.391157 -0.620809 -0.550086 0.336815 0.267075 -1.03805 0.704529 0.0686174 0.222935 -0.240961 0.218589 -0.0311909 0.064411 0.143048 -0.576135 -0.434678 -0.734764 0.281097 0.189571 0.594008 -0.257166 -0.164155 0.89181 0.228995 -0.791108 0.467026 0.0071978 0.309051 0.143554 0.0890405 0.311228 0.350914 0.302467 0.19653 -0.124709 0.487533 0.245748 0.311554 0.0705161 0.231114 0.48131 -0.183728 -0.0907281 0.0191949 0.973849 -0.108378 -0.348474 0.412168 -0.590404 -0.407609 
