124 512
-0.0315012 0.0649815 -0.0189999 0.0174518 -0.0492761 0.117077 0.2928 -0.176459 -0.115996 -0.139845 -0.0457279 -0.0157285 0.0666986 0.204043 0.0881179 -0.0339507 0.304457 -0.232998 -0.153815 -0.0397617 0.0580835 -0.196242 -0.0817914 -0.0328488 0.0187504 -0.0372947 0.0630574 -0.0241465 -0.0963477 0.00477992 0.108196 0.151065 0.0516925 0.388897 -0.219995 -0.103666 -0.0851288 -0.0324549 0.0182761 -0.0190104 -0.0541323 -0.199002 -0.101012 -0.0830265 -0.104277 -0.10562 0.0776664 0.0144379 -0.121563 -0.0966591 0.0397412 0.109094 0.252465 -0.0250259 -0.234742 0.212772 -0.0413741 0.317155 0.128451 -0.00427479 -0.0163982 -0.00869047 0.00663878 0.0929482 0.028852 -0.106151 -0.277751 -0.13096 -0.0289823 -0.0280953 0.031244 -0.0229831 0.107287 0.08593 -0.0303343 0.0741742 0.182701 0.0588644 -0.179479 0.0187165 0.00318522 -0.0358475 -0.0573739 0.0871319 -0.197264 0.190832 -0.168518 0.0836751 -0.188231 0.0309819 -0.100069 0.0358754 0.0305887 0.228016 0.143994 0.0306425 -0.264504 0.0389925 -0.078142 -0.11154 -0.0839492 0.163769 -0.244297 -0.158499 0.0710872 -0.0925195 -0.0344288 0.198103 0.0348391 0.0832802 -0.0627468 0.121514 0.157294 0.132688 -0.105043 0.116867 -0.364494 0.0375335 -0.0480017 -0.0228957 0.241247 -0.104134 0.0641817 0.0069269 0.133901 0.124421 0.0875216 -0.272788 -0.00408756 0.13091 0.134796 -0.261991 -0.0229816 -0.231252 -0.0264857 -0.0160287 -0.0291144 -0.0871404 -0.071963 -0.197585 0.0310692 -0.0880054 0.135296 -0.240561 -0.165267 -0.103308 -0.129883 -0.177363 0.170052 -0.0474011 0.013715 0.0727817 -0.0786813 0.0222876 -0.239993 0.0472473 -0.14909 -0.185474 0.100631 -0.0617505 0.151528 -0.0401297 0.156913 0.0108173 -0.133443 -0.0888331 -0.122246 -0.024878 -0.0492796 -0.0945713 0.0488687 0.172631 0.00841902 -0.0853677 -0.0520329 0.0562144 -0.0791345 -0.016978 -0.119563 -0.148259 -0.0127781 -0.0270045 0.0779129 -0.0316506 -0.0471267 0.273278 -0.113398 -0.0818319 -0.0187633 -0.0589932 0.0348744 0.0331713 -0.0289076 0.00537225 -0.0393333 -0.0780963 -0.0641555 -0.0357935 -0.071862 -0.0939842 -0.11302 0.060501 -0.0787504 -0.0543283 0.0495208 -0.11178 -0.126953 -0.231052 -0.141983 0.2371 0.0689647 0.00130709 0.24231 -0.0207724 -0.0266391 -0.0685871 0.0313233 0.0427021 0.0288798 0.188825 -0.0155831 0.194271 -0.131359 0.157278 0.0234359 0.150544 0.300381 -0.153173 0.0371346 0.221697 0.0665123 0.242901 -0.175537 0.114086 0.11445 -0.177966 0.170305 0.328332 0.134307 -0.0150056 -0.0728639 0.0868544 -0.0974282 -0.260288 -0.0445446 -0.448349 -0.156239 0.0845225 -0.164807 0.112038 -0.0653561 -0.000267675 -0.0352353 -0.174298 0.00965689 0.145428 0.0144136 0.201783 -0.0425544 -0.0409217 -0.0460583 0.00499317 0.0143458 -0.0533208 0.184158 -0.0197155 -0.129945 0.156402 0.0926212 -0.0478587 -0.251985 -0.0657647 0.099956 0.128514 -0.0675774 0.194299 -0.0177754 -0.114035 0.105477 0.00441043 0.027639 0.0223663 -0.153746 -0.0622639 -0.0659102 -0.252257 0.343346 -0.0117692 -0.00359944 -0.135832 0.015438 -0.137149 -0.0779452 -0.0447726 -0.420204 -0.115427 0.0933953 0.0438729 -0.0336253 -0.111367 0.112739 -0.175298 0.23282 -0.22379 -0.237172 -0.0497241 -0.203684 -0.0121734 0.0216066 -0.24582 0.162566 0.11045 0.254431 6.44041e-05 0.0555682 0.0106881 -0.0430807 -0.128995 0.107874 -0.00286369 -0.0952742 -0.142265 0.0861978 -0.177406 -0.0268729 -0.00888899 -0.138459 0.195852 0.0866479 0.0155004 0.0303051 -0.0619075 0.00784074 0.0293775 -0.199815 0.0840717 0.198621 -0.059175 0.00356281 0.0350715 -0.145582 0.0440743 0.0504523 -0.0329386 -0.0748736 0.0710954 -0.23408 0.00305089 -0.0855249 -0.0296207 0.0714715 0.0173128 -0.155244 0.185615 0.0582915 -0.134326 0.0174718 -0.0114232 0.255411 -0.0163907 0.0784487 -0.149477 -0.0142642 0.103301 0.17968 0.00210216 0.155863 0.102378 0.0894083 -0.188349 0.00724434 -0.093136 0.0195001 -0.129192 0.0380017 -0.168241 0.0872919 0.236279 0.113692 -0.14332 -0.0118914 -0.013326 0.154652 -0.123509 -0.135442 0.0254418 -0.125188 0.0170732 -0.100989 0.148607 -0.0856451 0.154079 0.118607 0.0536165 -0.198544 -0.199074 0.095036 0.057423 0.0935908 -0.0328002 -0.0429295 -0.0248146 -0.0433087 -0.053188 -0.046637 -0.00589506 0.0541178 -0.0380468 -0.193225 -0.223291 -0.0986471 -0.0456693 -0.169845 0.198642 0.360027 -0.0167007 0.188069 0.133034 -0.0809818 0.00968115 0.0781054 0.00821447 -0.0927935 -0.165177 0.127622 0.173326 -0.115126 0.236256 -0.204973 0.194777 -0.0903543 -0.199265 0.0482731 -0.0245681 -0.0486773 -0.0232552 -0.119569 0.128307 0.0972924 0.143899 0.129267 0.0270435 -0.0113626 -0.377852 0.253398 0.131275 0.0658473 0.271589 -0.05262 0.0633541 0.120271 0.363331 -0.0864719 0.0380381 0.0513636 -0.308039 -0.182891 0.067032 0.049498 0.160647 -0.0332958 -0.0259423 0.091469 0.0241347 0.0455582 0.26788 -0.0486293 -0.171897 -0.131518 0.0992146 0.147094 -0.0786881 0.0824378 -0.122146 -0.152749 0.230514 -0.14969 0.0837258 0.0155613 -0.210297 0.147305 0.0570102 -0.033142 0.0750915 0.130063 0.121728 -0.108162 0.175988 0.196938 -0.110059 -0.10392 -0.197883 0.0380313 0.173413 -0.0644154 0.00209065 0.0581475 0.0305706 0.165137 -0.283659 -0.090955 -0.0870526 0.0105873 0.00517913 -0.159747 0.0789639 0.103043 -0.0566313 0.173272 -0.0134503 0.239908 0.142854 
-0.0332707 -0.20323 -0.122988 -0.200103 0.0305045 -0.0538158 -0.172346 0.12724 -0.164824 -0.149668 0.0977649 2.51499e-05 -0.123308 -0.0133677 0.232106 -0.0331304 0.224529 -0.106582 0.0686523 -0.0558686 -0.0492392 0.0527912 -0.0054087 0.219532 0.0419439 0.0202043 0.17657 -0.000581586 -0.128854 0.0344704 -0.190938 -0.157868 0.235108 0.103375 -0.0724535 0.0650535 -0.0437418 -0.0104332 -0.211857 0.0599703 -0.0131651 0.0685838 0.201071 0.0438178 0.0045362 -0.115887 0.20759 0.094503 0.170558 0.170819 0.132411 -0.162122 -0.104799 0.180553 -0.218192 0.00812194 0.193932 0.127892 -0.0261749 0.236306 0.122628 0.174156 0.0533927 -0.0470905 0.113623 0.0525426 -0.122679 -0.0352956 0.0814012 0.157608 0.126833 -0.0851132 0.134019 -0.323669 -0.138115 0.0243497 0.174179 -0.0148287 -0.00636397 -0.0718492 -0.0359869 0.036829 -0.0980785 0.0980364 0.161234 -0.0184821 -0.35993 -0.313317 0.213284 -0.0329839 0.0239649 -0.307782 0.0577776 -0.261383 -0.197001 -0.0217699 -0.0421966 -0.072092 0.0825255 -0.114926 -0.0347102 0.0533897 0.0476165 0.248765 -0.0501168 0.137986 0.133664 -0.0431688 0.0779555 -0.119034 0.0484993 -0.0263351 -0.0181546 0.0800588 -0.0217418 0.00629022 0.0227687 0.173779 -0.0700184 -0.00553483 0.0339136 -0.0698501 -0.203242 -0.135574 -0.168956 0.151221 0.0381179 -0.00994736 0.0259472 -0.00324962 0.114563 -0.0992195 0.0821219 0.190283 0.0403991 0.0438835 0.081524 -0.0620462 0.12933 -0.170993 -0.0897956 0.0124771 0.109967 0.0821667 -0.174705 -0.0399069 -0.203411 -0.243193 0.0220981 -0.12269 0.113445 -0.18534 0.0683816 -0.175802 -0.161484 0.298083 0.0753714 -0.130374 -0.0219555 0.136978 0.173858 0.108179 -0.0433192 0.0732863 -0.024719 0.054504 -0.02466 0.0583172 0.254083 -0.323739 -0.0593197 0.020076 0.125554 -0.245519 -0.0353452 0.198023 0.0456011 0.0876296 0.0261483 0.133786 0.212631 0.136475 -0.0921206 -0.0190271 0.0239194 0.0457663 -0.128113 0.0100588 0.138002 0.301399 0.136142 0.240665 0.149471 -0.013326 0.0771578 0.0740516 0.0184847 0.00534557 -0.276468 0.0732881 -0.0692885 0.115316 -0.0737174 -0.232339 0.162709 -0.243391 -0.0947064 -0.14997 -0.110657 -0.115757 0.118574 0.0330661 -0.132572 0.0467735 -0.101199 0.012918 -0.138781 0.116099 -0.173457 -0.0908866 -0.128272 0.119358 0.100547 0.0716123 -0.11132 0.0258984 0.0753687 -0.252616 0.153291 0.112045 0.0861592 -0.0559561 -0.0990885 -0.157752 0.0185078 0.149319 -0.232666 -0.190632 -0.22291 -0.0502139 -0.0902022 0.0907542 -0.00551919 -0.170907 0.187501 0.259107 0.0645225 0.285796 0.0322586 -0.140288 0.234425 0.168469 -0.0443492 0.162301 0.191217 0.118257 0.0666763 -0.198209 0.0763969 -0.218272 0.180286 -0.235181 0.135012 0.0156726 0.0249151 0.0792681 -0.0556817 -0.115042 -0.149365 -0.183458 0.00927956 -0.0474052 -0.0403718 -0.0515785 0.0878321 0.0243758 -0.070236 0.171985 0.044257 0.1259 0.122488 -0.0743362 0.0205619 -0.0823755 0.0800679 -0.0998551 -0.0311141 -0.070061 -0.135162 0.0834664 0.228722 -0.0981474 -0.0470587 0.428783 0.0204871 0.165417 0.0550835 0.104858 -0.0801265 0.015871 -0.0410242 -0.107893 0.0648663 0.0455353 0.0272218 0.0356566 -0.0221826 -0.0305333 -0.182465 0.238394 -0.0571703 -0.145158 0.0195277 -0.0809275 -0.132813 0.0347342 0.053169 -0.179974 0.0724357 -0.0216991 -0.153663 0.125866 0.0652752 0.0618234 -0.0478538 0.100232 -0.0181413 0.0288118 -0.160166 0.0136452 -0.103093 -0.272086 -0.0283929 -0.0423289 0.0304037 -0.0366017 -0.0147294 -0.0760509 0.137008 0.0875841 -0.171425 -0.278263 0.181431 0.153722 0.0794829 -0.0705465 0.0753026 0.0303091 0.167182 0.117426 0.0447461 -0.00973014 0.113422 0.154238 -0.0985928 -0.0303564 -0.108608 0.0648322 0.0364638 0.0551526 -0.119858 -0.0143585 -0.0747748 0.038851 0.0277702 0.135868 -0.0119898 0.175885 -0.00776479 0.0604396 0.0244147 0.0703661 -0.208018 -0.100554 -0.140479 -0.275335 -0.0374387 0.200923 0.0841736 -0.197171 0.0396776 0.149035 -0.109686 -0.229325 -0.140947 -0.228609 -0.0685398 0.0912819 0.0555512 0.0549737 0.0633216 -0.176578 -0.299489 -0.112454 -0.172234 0.0659509 -0.149626 -0.0508602 -0.0141064 -0.130333 0.152846 -0.193309 0.0398727 -0.0913239 -0.0472935 0.0103654 -0.025452 0.157602 0.0877519 -0.195983 0.123471 -0.0401362 -0.0552687 -0.078771 -0.0680312 -0.0502864 -0.0843872 0.298438 -0.0480978 -0.0705729 -0.0153424 -0.213808 -0.00268042 0.0356097 -0.292487 0.0916653 -0.0258371 0.0966311 -0.100351 0.028442 -0.0895747 0.0573043 0.0373222 0.152844 -0.109453 0.0541194 0.208937 -0.0678668 -0.0560208 0.181313 -0.133982 -0.067926 -0.0883557 -0.249873 0.0526885 0.022782 0.0707755 0.0801927 -0.233484 0.0135414 0.131062 -0.0755729 -0.0589668 -0.150694 0.167955 -0.014112 -0.136893 0.0290881 -0.0385881 0.102364 -0.000937826 -0.245296 -0.162539 -0.0371647 0.0121398 0.169609 -0.0232273 -0.0480589 -0.160216 -0.0732193 -0.0671576 -0.0149158 0.0444122 0.131462 -0.106416 0.111979 -0.216387 0.0473202 -0.0760182 0.16628 -0.067628 -0.0900756 -0.140434 -0.0660223 0.167243 -0.166604 0.0830914 -0.116485 -0.0220579 0.0663523 0.040172 -0.00585085 0.108185 0.120718 -0.223713 -0.176279 -0.0848684 -0.0463422 -0.0737628 0.00330325 0.0118112 0.0712538 -0.019655 0.0840867 -0.0813281 -0.0485096 -0.131596 -0.208665 0.0520803 0.0321536 0.00104116 -0.208663 
0.170182 0.104084 0.0745066 -0.167166 0.00760556 0.0305556 0.0613238 -0.0447592 0.00405458 -0.026923 -0.127955 0.0322419 0.0993782 -0.0284067 -0.157916 -0.071934 0.136437 0.00832656 0.00479592 -0.191325 0.163248 0.116118 0.0375862 0.210882 0.0918859 0.290168 0.0650276 -0.144463 -0.0499362 0.0436408 0.208407 -0.0312885 -0.086778 0.0908595 -0.176487 -0.0828744 -0.0575944 -0.229037 -0.0772288 0.0668298 -0.126909 0.0917774 0.0915091 0.0576205 -0.15878 -0.132449 -0.107629 -0.172844 -0.177775 0.0899177 -0.116253 -0.000857796 0.0991265 -0.0471757 0.161667 0.0493087 0.0309619 -0.0314164 -0.22043 0.00521075 -0.00166294 -0.0645403 0.0473097 0.0154722 0.0248957 0.104015 0.0473091 0.0329464 -0.069827 0.0111924 0.100953 -0.087225 0.0861713 0.0502383 -0.0470893 -0.0775564 0.0244822 0.0124719 0.178391 0.115132 0.189613 -0.131266 0.0912638 -0.195435 0.130016 0.0777042 0.0864088 -0.037002 0.163154 0.0490895 0.0416949 -0.138632 -0.00917366 0.0234876 0.181872 0.0749858 -0.237331 -0.285118 -0.0437299 -0.0220762 -0.13712 -0.175931 0.0873976 0.0972517 0.298003 0.0478242 -0.048101 0.00595424 -0.0184959 -0.124294 0.110725 0.135041 0.031252 -0.209416 0.0149194 -0.0373455 -0.00797104 -0.07945 0.145295 -0.0576775 0.0833267 0.0439018 -0.0751816 0.129017 0.146977 0.238428 -0.0830098 -0.117612 -0.136245 -0.218706 0.114782 0.0413155 0.0233216 -0.00861027 0.198192 -0.0634177 -0.0564276 -0.0368335 -0.188444 -0.068672 0.132452 0.160156 -0.0923689 0.121627 0.121165 -0.103844 -0.297833 -0.168987 0.00314692 0.0125771 -0.0835332 0.213303 -0.268758 0.167506 -0.0892949 0.170662 -0.0239098 -0.0663441 -0.119318 -0.273622 -0.0912074 0.0543995 0.160388 0.140518 -0.0784328 0.110321 -0.0227994 0.102972 -0.112268 -0.0290509 -0.0323974 -0.1249 -0.115045 0.0353761 0.0714999 0.00379681 -0.169801 0.0208205 0.0923268 0.105994 -0.0582266 -0.0876107 0.123723 -0.105804 -0.109831 0.169087 -0.0955635 0.0397445 -0.0617277 -0.280388 0.0012936 -0.0667186 0.127399 0.16709 0.0978893 -0.0762015 -0.107698 0.0897035 -0.218518 0.00618977 -0.0600263 -0.154727 -0.00221638 0.183957 0.162133 -0.171408 -0.198026 0.0567445 0.116036 0.0325944 -0.0518668 -0.0928571 -0.246105 0.0828085 0.013554 -0.0922861 0.0403313 0.0592569 -0.0718205 -0.0773591 0.12447 -0.0542389 -0.0371217 -0.0437988 0.0538978 0.176393 0.0261193 -0.0310239 0.0493641 0.0295342 0.110457 0.147606 -0.0234829 0.0703256 0.13404 0.136908 0.0711085 -0.378809 0.05946 0.00991045 -0.101877 -0.0987226 -0.0236032 -0.0185778 0.157876 -0.00370719 0.381781 -0.265503 -0.221736 -0.137769 -0.071363 0.0293557 -0.151456 -0.112235 0.0802316 0.248257 -0.0683342 -0.0918582 0.0863212 -0.0367224 0.142949 -0.0405838 0.15441 0.0798682 0.0753462 -0.0314779 -0.0462462 -0.0377365 -0.0551569 -0.125909 0.0419078 -0.087761 -0.0733067 0.120338 0.233067 -0.0107991 0.0355124 -0.260758 0.0022902 0.0728027 0.192457 0.0451948 -0.100762 -0.192694 0.268137 -0.117238 -0.131389 -0.109188 -0.0699572 0.0953054 0.0704189 0.198954 -0.0348961 -0.0627368 -0.00597545 0.0536093 -0.079666 -0.020483 0.210509 -0.272359 0.151463 -0.144847 -0.00322155 -0.194859 0.0142357 -0.109964 0.237214 0.0240775 -0.0643283 -0.191002 -0.0776648 -0.0725867 0.156057 0.0278703 0.0738842 0.134165 -0.108055 -0.0172681 0.0429568 0.00703669 0.0022909 -0.00808359 -0.155289 -0.0212433 -0.108167 -0.0308084 0.0432146 -0.0682025 0.138191 0.0257015 -0.0658988 0.120932 -0.0695445 -0.112056 0.0247519 0.106445 -0.0217192 -0.236022 0.110193 0.0358237 -0.0314301 0.162935 0.135651 0.0285301 0.119429 -0.213866 0.0151729 -0.0932809 -0.0225837 -0.0951167 0.0909379 -0.0443782 -0.20015 -0.0191415 -0.0688567 -0.0219265 -0.0597281 -0.0307736 0.0949672 -0.0719867 -0.121413 -0.0253909 0.0378738 0.250858 -0.14786 0.0149921 0.243768 -0.100059 0.0638806 -0.016141 0.0469478 0.107339 0.246342 0.339254 -0.0469372 0.0729619 -0.0795533 0.0400599 -0.0557063 -0.00478848 0.047417 -0.219399 0.0912996 -0.0319547 0.0582937 -0.0956917 -0.0566408 -0.0229003 -0.0712383 0.207731 -0.162627 -0.133989 -0.199848 0.108594 0.15264 -0.255403 0.100761 -0.0435143 -0.161295 0.00199948 0.0448666 0.0202334 0.251627 0.107785 0.205179 -0.26237 0.121976 -0.0551457 -0.108946 -0.383609 -0.240823 0.0960967 0.125764 0.0436201 -0.0954634 0.0596955 -0.0481986 -0.208124 -0.0142534 0.00790452 0.0365663 -0.0831584 0.135177 -0.0232102 0.137169 0.116829 0.0334815 0.10139 -0.206778 0.0944304 0.150029 -0.0992096 -0.0446977 0.0683996 -0.129027 0.00180258 -0.169107 0.118887 0.137636 -0.0820076 0.149021 -0.113849 -0.0253327 0.0743055 0.092608 -0.020028 -0.18365 -0.0695027 0.0145851 0.0383068 0.018311 0.00311551 -0.0879285 -0.150739 -0.106617 0.175409 -0.256268 0.181347 0.161402 0.0163604 -0.0873752 -0.0221543 0.00518344 -0.0303876 0.0564293 0.0916705 -0.0497505 -0.151787 -0.0458918 -0.0039499 0.0185619 -0.0145736 -0.0121399 -0.0504106 -0.0818105 -0.0951222 -0.0788098 -0.0278263 0.00699836 0.20824 -0.0788256 -0.107899 -0.152194 -0.00670839 0.137709 0.00347351 0.0713964 0.217408 -0.0985926 0.0168022 0.0963754 -0.109645 -0.0334819 0.0184369 0.298409 0.0619063 0.0769441 -0.0770866 -0.069847 -0.00286761 0.158791 0.012743 0.0180279 0.0875492 -0.0417649 -0.0545126 -0.0235548 0.24029 0.0950483 -0.222432 -0.161186 -0.104946 
0.197203 -0.0743364 0.169321 0.148887 -0.0410038 -0.0109511 0.242386 0.0221794 0.00461902 -0.103026 -0.0175959 -0.0144669 0.0643508 -0.122826 0.147997 -0.184036 0.22464 0.026799 -0.0687747 -0.149336 -0.080387 -0.130494 -0.128791 0.270816 0.134414 -0.0231932 -0.208993 0.0816626 0.127724 -0.217281 -0.0392613 -0.107451 0.245737 -0.0541612 0.0487551 -0.0836778 0.116488 0.10026 -0.152255 -0.172344 -0.0276182 -0.257907 -0.1783 -0.203997 0.152546 0.052654 -0.0831049 -0.219667 0.353475 -0.355973 0.105991 -0.0133609 0.178349 0.122478 -0.177966 0.0271241 0.140077 0.22518 0.016622 0.0253769 0.0823549 -0.178038 -0.159463 -0.083017 -0.0545887 -0.019071 0.133672 -0.189696 -0.261904 -0.152672 0.15328 0.0884075 -0.0776591 0.0288273 0.141077 0.0369414 -0.170791 0.166646 -0.0559046 -0.123148 0.112994 0.00379353 0.0899748 0.195765 -0.0444177 0.084843 -0.0822065 0.156593 -0.0625983 -0.239298 0.0878579 -0.0059853 -0.077721 0.0473597 0.104375 0.101139 0.138369 0.325485 -0.113647 0.0367261 -0.054821 0.131349 -0.202731 0.0466561 0.00712261 0.0613768 0.0427765 0.00961355 -0.327844 -0.0250656 0.0533281 0.204291 -0.0735895 -0.16032 -0.246502 -0.0756324 -0.0172174 0.0586205 0.0910638 0.0612752 -0.046993 0.0286572 -0.088811 -0.0105006 -0.0540575 -0.0528524 -0.00767575 0.082994 -0.00187233 0.113582 0.12545 -0.0954182 0.315597 -0.219928 0.0823843 -0.218227 0.0897337 0.333507 0.0666928 0.071383 0.00220378 -0.195344 0.0545653 0.137528 0.0696907 0.0492778 0.00172031 -0.214717 -0.0578028 0.0950609 -0.0145823 0.0583817 -0.120636 0.121259 0.0768943 0.0629754 0.133245 0.0213864 0.00676438 -0.204048 -0.100057 0.00809782 -0.142396 0.0239834 0.0884127 0.125904 -0.112344 -0.21963 -0.140554 -0.0579409 0.188932 0.0690707 -0.0561722 0.126983 -0.181185 -0.0035488 -0.147182 -0.0118766 0.0121266 -0.170409 0.0161321 0.12547 -0.0276586 0.115118 0.188877 0.000979507 0.346587 -0.114836 -0.160182 -0.188 0.056109 -0.00662367 0.18144 -0.0184815 -0.00178967 0.132185 -0.0778539 -0.257035 0.0206737 -0.0861163 0.0639301 0.0611212 0.058201 0.068804 0.229735 -0.0100203 -0.0361999 0.0454814 0.230983 0.17629 0.159165 -0.294668 0.114487 0.0650369 0.190364 -0.00250316 0.0537318 0.069593 -0.230501 0.187453 0.307032 -0.01567 -0.0535059 0.14635 0.00900698 -0.0764135 -0.0780822 0.117501 -0.135643 -0.207505 -0.0248533 -0.0952265 0.14413 0.0873477 0.0973374 0.132428 -0.304572 0.0759646 0.0292811 -0.118866 -0.0520924 0.0419604 -0.032199 -0.026907 -0.0496787 -0.0188491 -0.01579 -0.0049399 0.0755107 -0.334775 -0.00974719 -0.079769 0.115766 0.0609485 -0.0567095 0.049597 -0.010911 -0.244475 -0.00042602 -0.0157066 -0.308036 0.234298 0.298725 -0.152708 0.0926292 0.0679141 -0.136644 -0.138628 0.323343 0.0968777 -0.0145626 -0.118816 -0.0925295 -0.06285 0.137072 -0.214426 -0.338482 0.0408146 0.180427 0.134657 -0.0391219 -0.0596843 -0.128339 0.159857 -0.0784602 0.281121 -0.0735796 -0.0834535 0.21794 -0.31854 0.110462 -0.0446353 -0.126952 -0.0684531 -0.0163565 -0.157566 -0.021213 0.199133 -0.0441655 0.291609 0.0522461 0.190146 0.084501 -0.0947479 0.096776 0.138294 -0.172636 -0.115636 0.00628141 0.0189478 -0.0904457 -0.0205561 0.0299792 0.00877227 -0.201278 -0.120079 -0.0412373 -0.227157 -0.323379 0.0216925 -0.0768213 0.0111948 -0.107626 0.0243625 0.0221977 0.00359557 0.0294599 -0.154236 0.208444 -0.0282567 -0.0438417 0.0421924 -0.0310015 0.0433638 0.0607977 0.165807 -0.131491 -0.133645 -0.0868768 0.143526 -0.182951 -0.0472956 0.139459 -0.100435 -0.186437 -0.0824746 -0.0947369 -0.197691 -0.0116545 -0.0157881 0.0462132 0.105591 0.0546068 -0.0473608 0.153164 0.103585 -0.107644 -0.10317 -0.360185 0.15653 -0.0449652 -0.0597431 0.251988 0.27481 -0.0477973 0.0321049 0.128955 -0.07352 0.263656 0.141747 -0.0600784 0.0502592 -0.0316288 0.160215 -0.0937593 0.0291273 0.0861396 0.228691 -0.0627223 0.0395764 -0.131378 -0.183561 0.0335828 -0.0550564 -0.134332 0.00445984 0.103093 0.148509 -0.0637992 0.0168866 0.0922477 -0.0409435 0.227013 -0.243518 0.0381231 -0.243498 -0.0142898 -0.0146042 -0.164861 -0.0419029 -0.0030343 -0.0508868 0.207686 0.0925652 0.0228025 -0.0246673 0.124066 0.0353242 0.100527 0.103333 -0.0663356 -0.0513774 -0.213178 -0.0173678 0.0691857 -0.0522726 -0.22019 -0.266528 -0.127696 -0.0352951 -0.194278 -0.117735 -0.0736365 0.292896 0.0650157 0.0334178 0.244706 0.228835 0.0380077 0.0672284 0.357244 0.101262 0.0942746 0.0977733 0.0168133 0.125864 0.0535844 0.0669709 -0.0944568 0.170067 -0.0462068 -0.111703 0.0802575 -0.222081 -0.153511 0.134756 -0.0175261 0.0305296 0.0963095 -0.366255 -0.191195 -0.126481 0.175804 0.111959 -0.0637071 0.143855 -0.0231738 -0.0184813 -0.0154111 0.255994 0.202482 -0.311505 -0.0815574 -0.177117 0.0786426 0.0292621 0.1548 -0.223309 -0.0741103 0.161816 0.0375001 -0.265464 -0.0216409 0.0641907 -0.133176 0.0694271 -0.0393405 -0.123753 0.114505 -0.128318 -0.0493893 -0.234204 -0.143617 0.0286153 -0.00620224 0.0117127 0.0608823 0.0543155 -0.0919401 0.0233541 0.0159823 0.134077 0.0591306 -0.106654 0.275811 -0.0823002 -0.0517405 0.0544661 -0.0676385 -0.0687786 -0.0183043 0.0585849 -0.0239642 -0.102349 -0.091367 -0.108332 -0.0513379 0.0508063 -0.0263944 0.131699 0.127452 0.167555 
0.192394 0.0349195 -0.0176424 -0.000665683 -0.103218 0.403046 -0.112287 -0.197837 -0.0126116 -0.0235665 0.0581049 0.103201 0.122509 -0.202244 -0.0263396 0.0543532 0.128884 -0.088617 0.157488 -0.139786 0.0146674 0.117968 0.0548481 0.0584962 0.16227 -0.312818 0.212199 -0.0283999 -0.0455844 0.124187 0.176651 -0.0755533 0.13511 -0.0454117 -0.192416 -0.000218773 -0.0424855 0.0565968 0.141429 -0.0437755 0.169256 0.158847 0.173035 0.0297807 0.0525325 0.11556 -0.142812 -0.0150689 -0.0715272 0.0866351 0.070171 0.0361648 -0.113724 -0.00252669 -0.149826 -0.0394469 -0.163731 -0.0645776 -0.0105035 -0.189079 0.0267263 -0.0156436 -0.135807 0.0658054 0.21981 -0.0524386 -0.0317553 0.138828 -0.0868291 0.0925418 -0.0700687 0.205049 -0.0535266 0.153383 -0.0830865 0.0366936 -0.0421842 -0.0474832 -0.106116 0.178512 -0.190929 0.25054 0.165314 -0.103702 -0.141701 0.0821451 -0.000472801 0.219807 -0.300043 -0.129318 -0.090204 -0.0792904 0.146463 0.00188934 -0.287872 0.127542 -0.210691 0.0496863 -0.146182 0.0120726 0.0219345 0.24298 0.0870084 -0.127604 -0.158408 0.14881 -0.126015 -0.193887 -0.197134 -0.0808303 -0.0248751 0.171958 -0.0213391 -0.109151 -0.0995527 -0.0745736 -0.0556211 0.0433161 0.0921409 0.25554 -0.261367 -0.0116099 0.0356297 -0.0986627 0.0437937 -0.108351 0.0285999 -0.175601 0.0891565 0.159274 0.0836924 -0.0405113 0.076843 0.00784002 0.131176 0.0296385 0.100553 0.0935967 0.0480961 0.039038 0.0982204 0.125121 0.131031 0.193463 -0.0550765 -0.233607 -0.0373412 0.26043 -0.012609 -0.0153599 -0.086103 -0.0289974 -0.0684602 0.0152722 0.00170208 0.247044 0.231672 -0.0469901 0.216032 -0.125108 -0.137381 0.241736 0.105267 0.0804899 -0.0749447 -0.0615058 0.0997686 0.0119156 0.130408 0.0377464 -0.220675 0.0249781 -0.0276054 0.116933 0.184177 -0.0547488 -0.0119853 -0.159047 -0.0406253 -0.169928 0.101569 -0.0322989 0.0475295 0.0534267 0.0757223 -0.00428269 -0.138434 -0.0991405 0.113327 0.170761 -0.113788 0.0964732 -0.00776146 0.0155837 0.131967 0.175711 0.132793 -0.0466841 -0.156587 0.0605802 0.118588 -0.256485 0.223728 0.133676 -0.0310569 0.151874 -0.00768239 -0.0346577 -0.0679513 0.0935936 0.18855 0.0041233 0.0768002 -0.169169 0.0584517 -0.268944 0.200792 0.293201 0.191057 0.17488 -0.148508 -0.0241679 0.0361462 0.0772768 -0.152475 0.0938731 0.0284013 0.156577 0.0466975 -0.14158 0.0673127 0.0863987 0.0483633 0.0422201 0.0783766 -0.0610657 -0.059135 -0.0251544 -0.0577531 0.0061394 -0.118152 0.135134 0.28451 -0.0288614 0.0671587 -0.0789807 0.0221895 -0.0802017 0.178882 -0.0321123 0.243412 0.184409 -0.189534 0.0661762 -0.0300191 0.028049 0.0540849 -0.0738552 -0.191635 -0.14192 -0.15302 -0.0862521 0.210309 0.12529 0.00597839 -0.077039 0.00893254 0.0326081 0.146912 0.108854 0.277087 0.187279 0.0835512 -0.0321142 -0.397771 -0.129975 -0.141867 0.022623 -0.200558 0.162655 0.116849 0.0362024 0.122835 0.160133 -0.251819 -0.00527056 0.233342 0.0857005 -0.109368 0.205838 -0.00303793 0.228384 -0.0392196 -0.131628 -0.0906605 0.0205379 -0.0413029 0.00714445 -0.145547 0.13391 -0.061832 -0.137665 -0.0570866 0.00337578 -0.098641 0.00527242 0.178173 0.0628532 -0.0180223 0.00324887 -0.24459 0.143269 0.0950844 0.133512 -0.16553 -0.065317 -0.038338 0.0528063 0.155625 -0.171306 0.0659707 0.144818 0.239722 -0.0517697 -0.0127414 -0.0763069 0.0313337 -0.215283 -0.34331 -0.106881 -0.168204 0.172489 -0.228006 0.112696 -0.15109 -0.047019 0.252018 0.0432845 -0.0932127 0.172234 -0.161296 -0.0603161 0.162013 0.0932743 -0.105376 -0.173118 -0.0768664 0.203197 0.104083 0.129279 -0.00468874 0.0240973 -0.118507 -0.346237 -0.0886309 0.166303 0.0482292 0.113503 -0.133652 0.161937 -0.00913562 0.18449 -0.0513495 -0.0257133 0.0665766 -0.0782377 0.0964908 0.102411 0.1413 -0.20244 0.0273947 -0.115214 0.182349 0.157799 0.0695348 -0.0663911 0.0359693 0.0641136 -0.0310534 -0.0840271 -0.149581 -0.172408 -0.128771 -0.104069 0.152281 0.0858184 -0.0217731 0.0147136 0.104977 -0.316874 0.0438514 0.0156385 0.0849891 -0.0771486 0.2486 -0.0347657 -0.0577015 -0.0334981 -0.0434636 -0.0250772 -0.13693 0.0590383 -0.180176 0.0305588 0.0840812 0.181142 -0.122807 -0.138179 0.0986406 0.150286 0.174253 0.0778021 0.0249953 0.103897 -0.0960537 0.0863548 0.0444699 0.0898955 -0.205374 -0.0303842 0.028063 0.0281536 0.0228742 -0.069048 -0.0467604 -0.0896343 0.107594 -0.0458197 0.167651 -0.0910806 -0.166071 -0.0503237 0.0596088 -0.0649692 -0.134585 -0.168338 0.0429393 0.0432651 -0.0699382 0.0917298 0.106783 0.163939 -0.0183878 -0.11738 -0.0183175 -0.196682 0.024709 -0.111557 0.050316 -0.089992 0.00402356 0.0856031 -0.0465406 -0.00520975 -0.0664579 -0.031531 0.0409967 0.0315263 -0.103063 -0.0512644 -0.021596 -0.0312509 -0.167509 0.0163113 -0.0328428 0.0647594 -0.110676 -0.147392 -0.0937202 0.150433 -0.329666 0.0915514 -0.00764641 -0.175155 0.156394 -0.0890669 -0.0212719 -0.0922624 0.208757 0.0254898 0.263512 -0.0814997 -0.0298893 0.135721 -0.136294 0.0288514 0.0257589 -0.0536579 -0.0477473 -0.0260415 0.109278 0.257903 0.0267781 0.0623448 0.0324617 -0.0689476 0.135193 0.168759 0.0942563 -0.112913 0.0426487 0.0615746 -0.136904 -0.00303673 -0.060745 0.137072 0.101201 0.0656168 0.126034 0.372301 -0.0940967 -0.0268845 
-0.0121716 -0.0899644 0.272711 0.0457701 0.119095 -0.12451 -0.191851 0.0476441 0.166779 0.150357 0.194226 -0.186466 -0.166952 -0.141179 -0.202695 -0.0337931 -0.0189226 0.0100759 -0.0555136 -0.0842779 -0.141912 -0.0253199 -0.106229 0.143962 -0.00830458 -0.0629703 -0.305764 0.0754041 0.036201 0.252301 -0.0218135 0.009725 -0.175677 -0.106561 -0.17518 -0.022158 -0.0873129 0.351716 0.0435 -0.0333215 0.000148419 0.0765492 0.0439596 -0.114007 0.0950217 0.172001 -0.126969 -0.301209 -0.127955 0.261483 0.0565118 -0.00109724 -0.0449765 -0.160784 -0.0587696 -0.0298459 -0.0303741 -0.255403 -0.118943 0.0886917 0.157488 -0.0842296 -0.136467 -0.130933 0.00081829 -0.186463 -0.0440599 0.228702 0.12357 -0.134365 -0.0580528 0.0387273 0.1362 0.124168 -0.069216 -0.103785 -0.048153 -0.107712 -0.0769022 -0.265351 -0.0673293 -0.16425 0.0402101 -0.0011646 -0.00191175 -0.117778 -0.0622223 0.0119635 -0.0462453 -0.11533 -0.0385804 -0.15165 -0.228415 -0.251128 0.0230863 -0.0357658 -0.207992 0.311633 -0.213837 0.295354 0.0613189 -0.00765227 -0.179671 0.132148 -0.126457 -0.0747254 -0.107028 -0.0933741 0.103463 0.0355353 0.166439 0.157683 -0.134519 0.119267 0.138579 -0.138509 0.0924113 0.0242894 0.0121834 -0.0272892 -0.0369282 0.113349 0.0206878 0.149615 -0.11853 -0.0774607 -0.255254 0.170265 -0.0133239 0.0781149 -0.341785 0.119631 0.173256 0.254827 0.0321916 -0.0395045 -0.0376983 0.042085 0.0252701 -0.129027 -0.0733656 0.246025 -0.0522023 -0.0264687 0.0427003 -0.0490606 -0.131944 -0.0259771 0.0426376 -0.00277422 -0.141796 -0.183157 0.0516079 -0.246063 -0.041573 -0.033437 0.107166 0.0719997 -0.0420238 -0.0887926 0.0980864 0.0923838 0.0902659 0.0210418 -0.225192 -0.0665568 -0.382907 -0.169977 0.169244 0.127497 0.0679496 -0.0878727 0.1323 -0.140421 0.15466 -0.290632 0.217038 -0.0210609 0.0825156 -0.151514 -0.108991 -0.00473142 -0.14988 -0.00316301 0.00473021 0.084895 -0.0748539 0.19445 -0.15957 0.135651 -0.0111681 -0.0974253 -0.0775334 0.0672872 -0.205193 0.0927801 0.130834 0.0158919 -0.00785806 0.334458 -0.200986 0.0361553 -0.185228 0.134013 0.0286795 0.0259893 -0.0281205 -0.0707453 0.271124 0.0317339 0.111151 -0.0383271 -0.04741 0.216167 -0.172523 -0.216882 0.146476 -0.212079 0.228842 0.00661907 0.019691 -0.154403 -0.00787966 0.0363302 0.0552391 -0.140442 -0.0569605 -0.0362413 -0.0798439 -0.120696 -0.129749 -0.10866 0.171173 0.0123502 -0.061092 0.125453 -0.177696 0.0455536 0.283269 -0.040186 0.128102 -0.100399 -0.0121905 -0.0876367 -0.0707041 0.37466 0.0825493 0.0592221 0.0954184 -0.162824 -0.0368475 0.258038 -0.0268775 0.0978912 0.0174189 -0.0797761 -0.0786 0.0997831 -0.213402 0.042436 -0.10649 -0.0653854 0.133465 -0.0474181 0.224398 -0.0851033 0.33943 0.0744135 0.188428 0.0702699 -0.0207125 0.0152592 0.0441438 0.057388 -0.0526617 -0.119647 0.0222294 0.057001 0.00814546 0.028964 -0.160019 -0.0558751 0.182975 -0.0436904 0.158575 -0.0822016 0.199463 0.0206663 0.0614596 0.162043 0.324093 -0.11681 0.276238 0.0607344 -0.054974 0.027467 -0.0624395 -0.179212 0.191437 0.110751 0.0745444 -0.089682 0.162445 -0.103256 -0.00119549 -0.0450223 -0.235268 0.121778 0.0358251 0.164895 0.0707486 0.18131 0.024754 -0.328552 -0.137035 -0.06527 0.091543 -0.0274149 0.172615 0.114546 0.0492588 -0.131348 -0.154398 0.0148517 0.0960061 0.139063 -0.0673504 -0.0203446 0.0245889 -0.0473047 0.183129 -0.000795255 -0.102152 -0.0418671 0.328764 -0.118259 0.238935 -0.0750731 0.125915 -0.0975414 -0.0997223 0.165983 -0.126154 -0.188198 0.148062 -0.156749 0.0724959 0.234674 0.106893 -0.114651 -0.0543589 0.193006 0.253631 -0.114608 0.239496 0.0421828 -0.00968653 -0.173437 0.0120443 0.0155418 -0.093661 0.00406761 -0.020815 0.113334 0.0887115 -0.0511637 -0.0334461 -0.0629369 0.00867717 0.0511618 0.0295207 0.0626852 0.0310688 -0.125607 0.0703631 0.0644119 0.017509 -0.149464 -0.0897029 -0.141894 -0.0107282 0.0104954 0.206322 -0.039449 0.291168 -0.120316 -0.0869663 -0.035237 0.0725064 0.0314352 -0.179343 -0.0701158 -0.0633901 0.0422489 -0.0591214 -0.0675466 -0.0688914 0.0935379 0.232544 0.0852472 0.0135531 -0.153499 0.203404 -0.202381 -0.0822868 0.0823868 0.147905 0.160266 -0.0231409 -0.0707065 -0.17031 -0.0272477 0.146072 -0.0624852 -0.0949085 0.0367859 0.127911 0.199128 -0.0567812 -0.000394262 -0.107477 0.159382 0.104733 -0.073348 0.0396224 0.0427331 0.122064 0.0592382 -0.134768 0.0695606 -0.0416443 -0.100585 -0.156398 -0.257289 -0.00118165 0.117214 -0.0045828 -0.102059 0.00713413 -0.121501 0.0516082 -0.0234077 -0.0432359 0.095023 -0.0538502 0.0576408 0.0583386 -0.0661729 -0.205085 -0.1228 0.0143489 -0.0227971 0.0364049 -0.0608313 0.0257089 -0.165241 -0.154701 0.114735 0.0438391 0.135577 0.0769671 0.0527685 0.0270361 -0.00650871 0.0518258 -0.044687 -0.160034 -0.0357811 -0.0844585 -0.0566243 0.123764 -0.070395 0.0222639 -0.0488737 -0.0347124 -0.0784295 0.13166 -0.321554 0.17799 -0.00666963 -0.0616012 0.170626 0.0717442 -0.137059 -0.172931 -0.0877538 -0.0605671 -0.114479 -0.0800171 -0.201353 0.301905 -0.00433822 0.0732227 0.213564 -0.131246 0.0245233 0.0974502 0.0350753 0.119225 -0.0207394 -0.132405 0.160369 -0.139318 -0.105652 0.0592608 -0.133282 0.160428 0.130467 -0.0393247 -0.0987911 0.0403957 0.0970675 
0.0393519 0.0250618 -0.179714 -0.133277 -0.145138 -0.0546834 0.0945194 0.0892446 -0.0050545 -0.0763197 -0.171613 0.117151 0.0583657 0.109371 -0.132802 -0.0260453 -0.0124343 0.125437 -0.130749 0.0424111 0.035784 -0.0991409 0.0242988 -0.035369 0.0444462 0.128887 -0.0634324 -0.0294591 -0.00504507 0.0616011 -0.0123442 -0.0116797 -0.314847 -0.0153779 -0.198608 0.0631712 -0.0847767 0.0494323 0.0282783 -0.0553908 0.0569896 0.303018 -0.152088 -0.0646566 0.0515323 -0.109079 -0.217425 -0.128127 -0.0492134 -0.0585253 0.0784171 -0.171279 0.114674 0.300676 -0.0929134 0.0542844 -0.116452 0.147912 -0.0844744 -0.023452 0.0022897 0.00485891 0.251669 0.139446 -0.129848 0.163344 -0.0667549 -0.0558027 0.0864622 0.104294 0.0136163 0.00407909 -0.425904 -0.0677813 -0.0596787 -0.0525327 0.0257143 -0.0396901 -0.0205373 -0.127584 0.0477774 -0.0278627 0.128487 -0.00703646 0.0325143 0.0311613 -0.145517 0.00193206 -0.062534 -0.00263402 -0.0186542 0.359384 -0.0216796 0.163403 0.0909659 -0.0246811 -0.0728516 -0.05676 0.149552 0.185655 -0.00584352 -0.0762903 -0.0686597 0.174182 0.0645844 0.038442 0.1989 0.149152 -0.0280232 0.142031 0.159348 0.148048 0.0468733 0.0435506 -0.115339 -0.0711398 -0.117631 0.0364283 0.146943 0.0964048 0.201682 0.0123799 0.017895 0.101061 0.172263 -0.0121094 -0.190158 -0.055885 -0.0908309 -0.0991134 -0.231402 0.259714 0.0726749 -0.120142 -0.125955 -0.232695 0.03023 -0.0437699 -0.160416 0.088864 0.0109957 -0.182271 -0.183437 0.0320065 0.00538097 0.141 0.159908 0.00271334 -0.182742 -0.0203563 0.00224016 -0.0447534 -0.214056 0.0660386 -0.15531 -0.0844271 0.124212 -0.168806 0.0222656 0.138647 -0.0478112 -0.136877 -0.0029006 -0.0685938 -0.14476 0.199671 -0.0906226 0.142896 0.15766 0.165621 -0.0490425 0.0678355 -0.0867114 0.0298275 0.0580554 -0.0665213 -0.132176 0.00973211 -0.185163 -0.148406 -0.0110958 0.0644209 0.0851615 0.179207 0.0255174 0.0193789 -0.00663447 -0.272435 -0.0590199 0.120457 0.122826 0.111238 -0.239688 -0.0792875 -0.0343089 0.232453 0.0130955 0.0495562 0.312002 -0.139847 0.130134 -0.028119 -0.0627472 -0.265545 0.0468353 -0.167973 -0.0905155 -0.0804432 0.176371 -0.00851806 0.150437 -0.0961009 -0.0599547 -0.0378109 -0.0950564 -0.199975 -0.0151133 -0.19622 -0.0224092 0.0057492 0.20496 -0.0801952 0.0302606 0.110155 -0.133157 -0.0355775 -0.144644 -0.0966546 0.0713084 -0.320062 0.0521391 0.0698238 0.0112103 -0.097007 0.121259 -0.280106 -0.0661735 0.000522876 0.00359754 -0.10432 -0.17699 -0.150292 -0.015201 0.111877 -0.039067 -0.0779082 0.194682 -0.124602 0.116728 0.0153458 0.101368 0.0901844 -0.0502958 0.00546343 0.132137 0.0598852 -0.0216997 0.082605 0.0802258 0.0885964 0.106651 0.0672913 0.134703 -0.0015735 -0.183388 -0.031751 -0.00346337 -0.165769 0.146425 0.107289 0.220199 -0.077669 0.0570473 0.221402 0.0768196 0.0129945 -0.108551 -0.236088 -0.164618 0.063803 -0.1457 -0.0594 0.0341509 -0.0203635 -0.203458 -0.110623 0.157559 -0.312099 0.116253 0.1692 0.18398 -0.0329202 -0.0694722 -0.242044 -0.337218 0.0406038 0.296199 -0.167022 -0.126863 -0.0172487 0.00669972 -0.0573413 0.104012 -0.166688 0.0831747 0.0137445 -0.0479961 -0.353446 -0.0252424 6.65723e-06 0.06305 0.0249317 -0.161768 -0.13067 -0.0101019 0.174009 0.0537944 -0.118471 0.0864771 -0.166466 -0.142397 -0.0640136 -0.147455 -0.165096 -0.117697 -0.159923 -0.0325602 -0.105419 -0.406307 0.0206397 0.0276101 0.0540221 -0.0934951 0.0252581 0.12827 -0.120329 -0.221656 0.0102946 0.19626 0.00351388 0.0606629 -0.0382779 0.0630078 -0.0533903 0.295044 -0.110524 0.0950056 0.00352698 -0.123944 0.0699992 -0.101781 0.0131304 -0.202484 0.0416656 0.154768 0.199597 0.205335 -0.112497 -0.0504828 -0.0550655 0.204646 -0.250938 -0.089261 0.177387 0.115061 0.177047 -0.108572 -0.135973 -0.0192915 -0.128858 -0.155053 -0.0160115 -0.145682 0.00369387 0.183296 0.0618557 -0.106466 -0.0485295 0.17516 -0.186078 -0.0582198 -0.0357578 -0.107237 -0.0178672 -0.162843 -0.00664413 -0.0632272 0.214201 -0.265912 -0.230012 0.156393 -0.127329 0.099661 -0.160475 -0.102204 0.272418 -0.00914865 0.0193354 0.0224028 0.0680608 -0.164643 -0.073968 0.0642555 -0.00826643 0.000337266 -0.292408 -0.115191 0.0607616 -0.139201 0.0170634 0.160231 0.105844 0.0227155 0.0991813 0.124826 0.0708419 -0.195163 -0.245566 0.0553534 -0.068288 0.179793 -0.228017 0.240247 0.198004 0.107832 -0.0801664 -0.0293198 0.00127848 -0.0456914 -0.106862 -0.0864317 0.00467238 -0.169068 0.123704 0.110264 -0.115148 -0.287238 0.345535 -0.0648593 -0.214496 0.127438 -0.116125 -0.147423 -0.137539 0.0198905 -0.161175 -0.0725387 0.101445 0.0104148 -0.0514273 -0.0486312 -0.163552 -0.131682 -0.0202194 -0.0145783 0.00454395 0.0817167 -0.0100821 0.0488489 -0.095271 0.166494 -0.146649 0.113835 0.065961 0.15105 -0.209964 0.0672931 -0.0308021 -0.0465664 -0.0452707 0.193868 -0.11829 0.129324 0.148522 -0.0403973 0.102114 0.159706 -0.0744945 0.137399 -0.0617054 -0.135545 0.166989 0.0283173 -0.102173 0.011162 -0.023435 -0.122374 -0.0354331 -0.0554565 -0.119088 0.0830807 0.116999 0.192694 -0.0445842 -0.193823 -0.0723183 -0.0669377 0.104154 -0.0902007 0.0244456 -0.0055285 0.311032 -0.0933958 0.0390698 0.00618342 0.0672153 -0.0756845 -0.244575 -0.222921 -0.0769307 0.065311 -0.101355 
0.0971225 -0.197987 0.0981409 -0.12523 0.0584057 -0.112065 0.102181 0.104149 -0.149779 0.195905 -0.0267137 0.00290364 0.0741329 -0.0010723 0.21557 -0.0971072 -0.0247957 -0.0547898 -0.207142 0.0477119 -0.0196113 0.072154 0.236596 0.0540843 0.0908013 0.17356 0.327296 0.143265 0.022525 0.0534631 0.0503361 0.0636796 -0.0836447 -0.0468223 -0.251821 0.0205755 0.00145104 0.202976 -0.0070782 0.0838242 0.0742125 0.0162275 0.00513641 -0.102666 0.094424 -0.027683 0.11242 0.00712383 -0.00968116 0.117182 0.177108 0.0843551 -0.0309979 0.0542008 0.172071 -0.189979 -0.150142 0.128346 -0.0636935 -0.0831975 -0.0201382 -0.0877852 -0.244797 -0.19912 -0.223804 -0.0214005 -0.139058 -0.194397 0.0314486 0.236438 0.0568734 0.161996 -0.0640928 -0.0582912 -0.0556133 -0.118648 -0.0343254 -0.0127917 0.374709 -0.00832706 -0.0480423 -0.00867094 0.055568 0.0482013 -0.0703257 -0.227953 -0.0320118 0.0518859 0.131902 -0.0836127 -0.0397597 -0.10901 0.00809729 0.0935489 0.00371813 0.027602 -0.0106776 -0.0713724 0.0616413 -0.116527 -0.0280224 0.0430398 0.0404573 -0.105147 -0.0251966 -0.183428 0.00246853 -0.281055 -0.0148177 0.0752483 0.0556549 -0.116416 0.264704 0.139314 0.116899 0.119219 0.113446 0.075563 -0.058637 -0.135098 0.269339 -0.257911 0.0184617 0.0438637 0.111503 0.101981 0.185086 0.00209997 0.0243783 -0.20893 0.355207 0.246514 0.056919 0.00701954 0.170085 -0.128252 0.146796 0.0471286 -0.264231 -0.00416418 0.0562755 -0.190316 0.206247 0.102351 0.12129 -0.101857 -0.0483517 0.049836 -0.216727 0.166355 -0.0272262 -0.0536219 -0.143196 0.0914728 0.0122427 0.0171339 -0.00203913 -0.164645 0.146338 0.0446074 -0.148096 0.036159 0.129011 -0.113069 -0.0936452 0.0529427 0.0818825 -0.0802573 -0.190452 -0.345448 0.0485369 -0.0301379 -0.180332 -0.0954394 -0.182892 0.118464 0.0730404 0.104088 0.150506 -0.0644364 0.00358719 -0.0362315 0.0586363 -0.218148 -0.13551 0.0370307 0.163779 0.113996 0.12392 0.0170608 -0.0683355 -0.0554897 -0.208208 -0.26025 0.131553 0.00648808 0.0696367 -0.0193209 0.146589 -0.155504 0.145217 -0.0945272 0.0792217 -0.29622 0.085764 -0.00145111 0.0254258 0.182644 0.0180576 -0.11363 0.152936 -0.0829203 0.0265161 -0.054214 -0.0320895 0.0570272 0.0195863 -0.0267598 0.0450532 0.0392184 0.0762388 0.00127957 -0.0867386 -0.0699587 -0.273127 -0.0480759 0.18618 -0.132837 0.0151903 -0.164002 0.00705222 0.0671136 -0.031145 0.0168648 0.164105 -0.154648 -0.0601685 -0.0763974 0.00388402 0.086591 -0.0851067 0.147642 -0.159997 0.160184 -0.0283123 0.247231 0.0382182 0.0829717 0.264771 0.0608786 -0.169431 -0.00454293 0.101476 0.00296281 0.135328 -0.191346 0.209271 -0.0541782 -0.0248379 0.244842 -0.00220404 0.0498962 -0.00975679 -0.138317 -0.119827 0.115844 0.176093 -0.22894 -0.216995 -0.11535 -0.173151 0.203129 0.256174 -0.240774 -0.0867631 -0.119485 0.0207499 0.275499 -0.0225581 0.0398043 0.0677559 -0.193621 -0.0269642 -0.0990251 0.0486702 -0.0390386 -0.0880985 0.00243156 -0.174076 -0.0131857 -0.0983528 0.241566 -0.152682 0.0345681 -0.0345065 -0.141066 -0.064678 0.00479304 -0.115225 0.021706 0.0139029 -0.0753084 -0.049462 0.102041 0.0408338 -0.0443573 0.135585 0.0796375 -0.199431 0.0354139 -0.0755104 0.136407 -0.0707475 0.13041 -0.0530659 -0.154494 0.0340406 -0.126514 0.142829 0.0416397 -0.0540025 -0.0108331 -0.285206 0.223052 0.24267 -0.111612 -0.195951 0.0166736 -0.118257 0.0598654 0.379259 0.127069 -0.0713667 -0.0718687 -0.0135766 0.0631844 0.261419 -0.063521 0.127873 -0.145972 -0.274191 0.248019 -0.210488 0.0474889 0.178147 -0.173592 0.0552441 0.0334606 0.15844 0.0388653 -0.238211 -0.138445 -0.0578802 0.0121416 0.0267052 -0.0819972 0.0364137 -0.00591002 -0.0520335 0.120727 -0.125648 -0.0499021 -0.279485 -0.0670842 0.0931013 0.0180795 0.199636 -0.0495495 -0.0591233 0.181201 0.219769 0.271829 -0.135195 0.180321 0.0896208 -0.000128447 -0.235034 -0.0241752 -0.00418575 -0.127877 -0.0385996 0.0433647 -0.153291 -0.00672175 -0.00452392 -0.0319676 -0.329445 -0.264334 -0.0497533 0.108981 -0.0849373 0.18141 -0.053401 0.177389 -0.130102 0.00161794 0.0505352 0.0796665 -0.0654889 -0.0293115 -0.0265548 0.027354 0.00435246 -0.273221 0.0605773 0.290068 -0.0553959 0.00189224 -0.0558742 -0.140563 0.048841 0.169035 0.149775 0.150408 0.0134763 -0.112776 0.0686035 -0.144495 -0.0239139 0.141232 0.0470805 0.116834 0.0547519 0.24708 -0.298158 0.121829 0.044024 0.211606 0.15772 0.157723 -0.0302517 -0.362345 0.141047 -0.00125973 0.131765 0.0111237 -0.152896 0.292913 0.0472906 -0.072413 0.104127 0.285845 -0.116236 -0.129393 -0.00373818 0.0550239 0.0652717 -0.0747342 -0.0630087 0.0294414 0.228241 -0.0366644 0.0317718 -0.104689 0.0104765 0.0610201 0.0156555 0.155464 -0.146738 0.0551116 -0.0929876 -0.0731315 -0.0333033 0.0437301 0.245588 0.30122 0.115972 0.0590002 0.122061 -0.114056 -0.0154427 0.0764639 -0.09287 0.183411 0.0141661 -0.043753 -0.195866 0.325729 -0.0480555 0.123471 -0.0390799 -0.122055 -0.0974763 0.29503 0.00785808 0.0758953 -0.00139839 -0.0146589 -0.0876108 -0.0360354 0.00667593 -0.135595 0.195061 -0.239161 -0.03066 -0.278016 0.118114 -0.27031 0.173516 -0.0959549 0.0438569 -0.0223096 0.134743 0.109742 0.173311 -0.0493013 -0.0904585 0.0601145 -0.0308108 -0.117487 -0.0417165 0.0315041 
-0.107698 -0.0778445 -0.0611095 0.0108023 -0.11696 0.0622645 -0.181682 -0.122405 0.120341 0.205399 -0.205357 -0.0214472 -0.000823033 -0.0643031 -0.0144281 -0.0711647 -0.0292899 0.095101 0.305201 -0.0429636 -0.147039 0.0485423 0.0967081 -0.0882756 0.106359 -0.140674 -0.124791 -0.148494 0.0539107 0.0867074 0.0251004 0.257017 0.11559 0.0180717 0.00475722 0.161127 -0.0385 -0.106705 -0.0154864 -0.0503651 0.0798649 0.0184436 -0.0169446 0.0521351 -0.276793 -0.029389 0.305171 -0.0774954 0.0228768 0.153418 -0.069188 0.0600205 0.189928 -0.110133 0.103419 -0.128782 -0.00467677 0.100482 0.176815 -0.00518415 -0.174651 -0.051263 0.00720013 -0.0540862 0.0161224 -0.233479 0.0184515 0.10167 -0.134159 0.131144 0.185627 0.155484 0.0799197 -0.0466108 0.0707441 -0.0222215 -0.284764 -0.193668 0.260134 -0.0325235 0.124012 0.0335116 -0.0429086 0.13385 -0.0689945 0.244761 0.0158627 -0.0876195 0.061206 0.0231648 0.131891 0.0499378 -0.312133 -0.109681 -0.13504 0.181922 -0.228937 -0.024249 0.0951196 0.0953552 0.207618 0.10279 0.193802 -0.147499 -0.190603 -0.209835 -0.0691653 0.0366941 -0.116533 -0.264252 -0.107203 0.190804 -0.0936194 0.179694 0.0714625 -0.0317228 0.00893135 0.0603078 0.22599 0.0903883 -0.157675 -0.102053 -0.145171 -0.0486732 -0.0366563 0.0283913 -0.257114 0.0532503 -0.10227 -0.0619481 -0.28301 0.00851601 0.00563018 -0.0511599 -0.270709 0.268289 -0.0747037 -0.0945055 0.232491 -0.0272057 0.014275 0.185276 0.0239674 -0.102146 0.181015 0.0415813 -0.177178 -0.125689 -0.177677 0.106541 0.0830295 0.109707 -0.056834 -0.102426 0.0565017 0.113695 0.00949727 -0.0921573 0.0251776 -0.130126 0.118042 -0.200932 0.133243 -0.137652 -0.125549 -0.272172 -0.0758463 -0.178751 0.111374 0.00881027 -0.170805 0.0579438 0.0640405 -0.0283417 0.133615 0.0392935 -0.142098 0.022409 0.134247 0.116228 0.0163488 0.215451 0.111486 0.20185 -0.00241284 0.079233 0.0651379 -0.00237892 -0.0199963 -0.0996789 0.0222058 -0.0881729 -0.161701 0.236886 -0.227595 0.11679 -0.166422 -0.0323442 -0.0271455 -0.116472 0.0160821 0.00191125 -0.269738 -0.0261077 -0.148761 -0.127518 0.0748951 -0.119669 -0.0555496 0.141381 -0.0641675 -0.126312 -0.0383606 0.0653341 0.118607 -0.0131705 0.186478 0.00572869 -0.155419 0.0431911 -0.0266876 0.0675466 -0.27018 0.00418883 0.0415573 -0.155198 0.119586 0.160732 -0.0278469 0.0734048 -0.00722976 -0.112479 -0.109996 -0.112142 -0.0997629 -0.0497115 -0.222109 0.0935831 0.157138 -0.0982159 -0.218331 0.145761 -0.0719631 0.0651748 -0.310199 -0.0879512 -0.0237786 0.158403 -0.181816 -0.151174 -0.136298 0.143168 0.129397 0.164535 0.0614286 -0.0062176 0.0117071 -0.179967 0.063949 -0.116445 -0.0618719 0.0146151 -0.184172 0.0856729 -0.0785392 -0.121239 -0.0064663 0.058122 0.170412 0.165554 -0.0469982 0.00702417 0.00738144 0.314031 -0.0400879 0.0430531 -0.105564 0.0407435 0.0191091 0.0100787 0.0713783 0.0634126 -0.0190125 -0.177224 -0.0260387 -0.0936408 -0.206186 0.0334219 -0.0588174 -0.0976179 0.189774 0.225565 0.187399 0.13426 0.0218314 -0.00627541 0.130364 -0.108548 -0.255424 -0.231846 -0.0755904 -0.161573 0.252731 -0.138807 -0.0848743 -0.0777956 0.0665147 0.0152182 0.172451 0.057113 -0.0655842 0.143604 0.103292 0.351792 0.110622 -0.138723 0.140275 -0.126918 0.162439 -0.110547 0.213689 -0.0219598 0.0566472 0.130244 0.00308104 0.0897248 -0.00280128 -0.06976 0.017013 0.000593032 -0.0964829 -0.000371144 -0.200037 0.23369 0.222652 -0.0533499 -0.154814 -0.200211 0.0937261 0.0813464 -0.0646493 0.039662 0.127194 0.0990285 0.223486 -0.0154117 0.0161407 0.121084 0.112923 0.142742 0.204861 0.192093 0.0358409 -0.168902 0.0519567 0.0999547 0.0253328 0.17348 0.128173 0.120021 0.0144915 -0.250144 -0.0908877 0.0678414 -0.0299097 -0.105481 -0.0649028 0.10925 -0.0341597 -0.0706543 -0.0736298 0.177461 -0.0209894 0.0320381 0.136967 -0.0149522 -0.14205 0.132888 0.0673618 -0.049157 0.159984 0.191969 -0.0452632 -0.0372005 -0.141291 0.0639691 0.0691141 0.197257 0.126101 0.141665 0.174192 0.0586093 0.148072 0.00182065 0.0846084 -0.0817618 0.0886569 -0.0335653 0.169573 0.180873 -0.0365746 -0.150318 -0.0133559 0.207408 0.0863729 0.0273611 0.0856231 0.0469535 0.0767378 -0.0909294 0.121621 -0.130667 0.12643 -0.0325652 0.113512 -0.0408562 0.176405 0.145953 -0.0891007 0.0214641 -0.00175928 0.0287789 -0.278524 0.10688 -0.163597 -0.348356 -0.201295 0.110538 0.0237056 0.103296 -0.0919106 -0.126275 -0.198598 0.140151 -0.0826016 0.0191092 -0.191718 0.0357095 -0.0472255 0.327581 0.14325 -0.216685 0.153203 0.19204 0.0266161 -0.114166 0.030251 -0.10209 -0.10039 -0.116592 0.148129 -0.314217 0.0731225 0.0132767 0.210185 0.124673 -0.168242 0.00996746 -0.0396351 -0.229952 -0.0506144 -0.0321256 -0.19712 -0.0195994 0.00212815 0.13681 -0.120809 -0.0276821 -0.112049 0.03921 0.143683 0.00535675 0.0115494 0.204716 0.0732663 0.199731 -0.0730789 -0.0926358 0.0363617 0.0990027 0.09414 -0.0390466 0.182022 -0.0890219 0.0425813 -0.139496 -0.12364 -0.0152046 -0.274469 0.274689 0.0146683 0.0600187 -0.0323102 -0.0396019 -0.0119816 0.0934785 -0.0650384 0.0506128 0.116975 -0.148945 0.135422 -0.216402 0.139139 -0.00463185 -0.120252 0.125878 -0.0174962 0.0315082 -0.0504985 0.0613999 0.00584652 0.0405234 
-0.078199 -0.0295142 -0.125399 -0.155387 -0.0786364 0.115339 -0.0601526 -0.0166112 0.0878412 -0.179486 -0.0765408 -0.00580131 0.313258 -0.0728546 0.0283418 -0.01484 -0.0147874 -0.0661635 -0.0317109 0.0112301 -0.13289 0.316381 0.210061 -0.151942 0.170709 0.198015 0.00132238 0.0325506 -0.100835 -0.0128715 0.00529722 -0.149843 -0.0378667 -0.129036 -0.176654 -0.089965 0.063487 -0.00791328 -0.0519958 -0.0526693 0.05859 -0.0655775 0.0244273 -0.0570455 0.11967 -0.0900479 0.0321142 0.0110973 -0.264399 -0.197538 0.219154 -0.0785231 0.0321102 -0.034758 -0.0733123 0.075082 0.0672477 -0.181235 -0.0674913 0.327745 0.0488003 -0.120738 -0.00927082 0.032763 0.0690226 -0.234632 -0.162182 -0.0412941 -0.0788285 -0.0699321 0.0366208 -0.152807 0.0939492 -0.105758 0.107025 -0.18448 0.0474572 0.0189706 0.0540543 -0.25183 -0.0258738 0.0225255 0.0900563 -0.00108778 -0.105379 -0.120881 -0.156882 0.140992 0.144915 -0.0308525 -0.137994 -0.111769 0.242302 0.00696017 -0.00347709 0.00506608 0.0802763 0.121964 0.0682883 -0.0161438 -0.0590611 -0.173613 -0.166324 0.0131162 -0.0660225 -0.166816 -0.0490753 -0.0851408 -0.0336708 0.301949 0.105353 -0.194241 0.100686 0.168817 -0.0942664 -0.0118842 -0.111703 -0.164235 -0.189958 -0.0879357 0.140936 0.262208 0.0280235 -0.135703 0.0900013 0.0434598 0.000243422 0.120859 -0.242247 -0.124958 -0.0120598 -0.0128187 0.033627 -0.155405 0.16783 0.166059 -0.0892038 -0.0696205 -0.0190675 -0.0507359 0.0918602 -0.158451 0.108483 -0.117816 0.00567664 0.294374 0.0349989 0.0876955 -0.0782398 -0.263482 -0.107891 -0.00542912 0.0355186 -0.0631305 -0.00646089 -0.171044 -0.0408877 0.113825 0.0449403 -0.0256596 -0.235737 0.147164 -0.125071 -0.139564 0.0315387 0.00478719 -0.288418 0.0817367 -0.0224981 0.139022 0.0634352 0.00090559 -0.061013 -0.0270487 0.029632 -0.100626 0.0236798 0.238505 0.0340606 0.0899848 -0.04505 -0.11279 -0.12977 0.173722 -0.114964 -0.240517 -0.115553 0.199852 -0.103656 -0.0114117 -0.290538 0.153877 0.162903 -0.0928603 0.173765 0.0899051 0.293858 -0.0817896 0.0728174 -0.101044 0.141323 -0.184359 0.0712542 -0.201803 0.0712922 -0.136775 0.151341 -0.0817184 0.133773 -0.0518174 -0.126369 0.101082 -0.0759652 0.00903675 -0.147722 0.127677 -0.0123945 0.463163 -0.15231 0.00358294 0.16818 0.243499 0.0993847 -0.186691 0.0537349 -0.15237 0.238258 0.206563 -0.0712002 0.0254361 -0.171483 -0.00263532 -0.387813 -0.0857964 0.0371707 0.167356 -0.125094 0.0783852 0.261309 -0.168624 -0.149857 0.264118 0.00612789 -0.261256 0.100226 -0.0299866 0.278332 -0.176827 0.075489 -0.4076 -0.0196227 -0.0973458 -0.0734437 0.120355 0.107129 -0.155334 -0.346086 -0.21989 0.052493 -0.0280663 0.229481 -0.253497 0.118116 -0.124313 0.0960289 -0.00240881 0.0851746 0.258928 -0.0547446 -0.125308 0.0662802 0.132847 0.0287203 0.0684115 0.120673 0.255991 0.0256186 -0.0485864 -0.103532 0.046718 0.140068 0.1598 -0.093882 -0.067952 0.306092 -0.212813 0.0221573 -0.0359485 0.130303 0.0715094 0.132445 -0.102101 -0.0148213 -0.300723 0.34934 -0.0397633 -0.159136 -0.0410899 -0.154872 0.126023 0.124396 0.0673855 -0.0970351 0.00898737 -0.162721 0.0431692 0.0772175 0.0612394 0.247717 0.0176806 0.0584084 -0.0616794 0.106361 -0.028707 0.0232524 -0.0971511 0.0735972 -0.0515378 0.124861 -0.0284611 0.0613712 0.00956043 0.0455612 0.348434 -0.147198 0.250213 -0.0796463 0.223052 0.170226 -0.190738 0.13353 0.0114097 0.00110826 -0.00361073 -0.104198 0.127794 -0.106572 -0.0524433 0.0324352 0.0939495 -0.0432847 -0.0212234 0.0106283 0.0725381 -0.0628926 0.094321 -0.199686 0.0974186 0.0977696 -0.0584664 0.00912635 -0.234231 0.0743357 0.0354842 -0.135206 -0.142906 -0.0894278 0.0672871 -0.105471 0.0363614 -0.0831641 0.00677272 -0.0557019 -0.0650075 0.0211186 0.0434233 -0.138421 0.0400755 -0.249927 0.0504203 0.0448877 0.0837864 -0.0694114 -0.166015 0.072959 -0.0780311 -0.0045459 -0.00385898 0.0512486 0.274648 0.181554 -0.21454 0.025401 -0.108393 -0.318924 -0.013803 -0.0618859 0.0625351 0.0512461 0.0436237 -0.0611601 0.103546 -0.0747658 -0.08967 -0.074832 0.152176 0.167978 -0.281535 -0.0290506 -0.0102532 0.0558801 -0.187178 -0.110674 0.150674 -0.00812675 0.0189694 0.00752525 -0.109481 -0.0687523 0.223087 -0.126839 -0.042067 -0.0574787 0.00478523 0.00333564 -0.22439 -0.173165 -0.0216191 -0.00667521 0.120797 -0.0897881 0.06371 0.0385973 -0.121372 0.144157 0.154179 -0.113133 0.0624452 -0.0681524 0.0385528 0.0943681 -0.0487364 -0.229166 -0.0840075 -0.132406 -0.099042 -0.248246 -0.0471745 0.0244954 0.0387094 0.0303739 0.21199 -0.0202865 -0.287157 -0.0375491 -0.123203 -0.0265883 -0.0481353 -0.080609 -0.0821885 0.080893 -0.0216507 -0.133685 0.0702867 0.0821986 -0.00670075 0.102765 0.0268301 -0.0679857 -0.108066 0.0826477 -0.00597985 0.154327 0.0032156 -0.0712803 -0.200599 -0.125278 0.172895 0.200377 -0.0393198 0.260827 -0.241485 0.121207 0.118125 0.0691191 0.0342371 0.0548546 0.0461983 0.0890638 0.0796756 -0.136345 -0.119655 -0.0954416 -0.0612386 0.0628061 0.121469 0.190761 -0.261297 0.101502 0.0204012 0.0998769 -0.0787272 0.154901 0.143018 -0.059402 0.0940564 0.0747563 0.10116 0.103301 0.0356162 0.00315324 -0.285713 0.461893 -0.121965 0.239432 -0.100214 -0.091416 -0.0450513 -0.0750943 -0.0326017 -0.00154849 0.160032 
0.0783729 -0.0554615 0.0681104 0.147979 0.162118 -0.0809186 -0.0889414 0.1214 0.0374059 0.22665 -0.0508788 0.0838012 0.38854 -0.0147684 -0.134851 0.165179 -0.0575022 -0.0476255 0.026343 -0.00832754 -0.0209061 -0.00682262 -0.033981 -0.0860138 0.0794006 -0.0448167 -0.11583 0.0349361 -0.27508 -0.0133123 0.0426326 0.010371 -0.0338584 -0.0781754 -0.119874 -0.153715 0.0800947 -0.0721802 0.14599 0.141139 0.0216131 -0.110077 0.0722593 0.0985615 -0.104445 -0.0328045 -0.048227 -0.0812255 -0.132686 0.0413926 0.0218864 -0.0356183 -0.0148647 0.0280565 -0.243679 0.0736279 -0.0262235 0.0636666 -0.077325 -0.0316783 -0.062036 0.113317 0.15774 -0.133782 -0.311102 0.211881 0.0618014 0.0177796 0.204294 0.0146537 0.0331321 -0.166858 0.0101368 -0.0765238 -0.0246094 0.0188524 -0.0871674 0.0391029 0.0854575 0.0212082 0.0314179 0.0263366 -0.140574 -0.0744119 0.060546 0.0868624 -0.0752739 0.100989 -0.0505622 -0.141985 -0.0222601 -0.27687 -0.0404909 -0.0793877 -0.140683 -0.0754807 -0.0057028 -0.150402 -0.033323 -0.0412604 0.0586428 -0.0857663 -0.078653 0.0556378 0.0363046 0.133297 0.066897 0.136242 -0.159127 0.13126 0.000278763 -0.0311052 -0.0413719 0.0613075 0.055749 -0.0115933 0.0528124 0.0668087 -0.0885242 -0.136757 -0.0646711 -0.0933147 -0.108276 0.148565 -0.0453204 -0.0884233 0.157397 -0.14728 0.145994 -0.107125 0.043892 0.0144664 0.0375788 -0.0224911 -0.188957 -0.0308792 0.162298 0.0761553 0.131862 0.0640631 0.0492597 0.121209 -0.0125894 -0.208111 -0.0884555 0.00965574 -0.140351 0.0598908 -0.204691 0.0406912 -0.136858 -0.360923 -0.0926209 0.00894543 -0.110991 -0.0628249 0.131795 0.0440637 -0.110687 0.052256 0.0524018 0.142556 0.0917509 -0.0169865 0.0633946 -0.0155259 -0.0830292 0.0819753 0.0667408 0.261142 -0.0452561 -0.169384 -0.0608604 0.183806 0.0773609 0.0671409 0.161499 0.0787802 -0.154422 -0.0968364 -0.214635 -0.202512 0.055587 0.0331939 0.184789 0.097221 0.090145 -0.164742 0.0774876 -0.020593 0.168248 0.0717119 0.135399 -0.0254099 0.097629 0.109959 -0.0177657 0.0540745 0.200033 0.199211 0.039692 0.123009 -0.00759033 -0.0579959 0.0644949 -0.0459693 -0.345064 0.139448 -0.0728736 0.158197 0.094574 0.0105195 -0.317887 0.146162 -0.0756755 0.0272256 0.153458 -0.179093 0.10073 0.160347 -0.0652276 -0.0319374 -0.125858 -0.0950956 0.0343287 -0.14526 -0.144142 -0.132695 0.311089 -0.0489554 0.114692 0.0179798 0.0898529 -0.0578773 0.0380834 -0.0917301 -0.0796543 0.0618558 0.203817 -0.0359557 0.0116265 -0.0247999 -0.0696146 0.109264 0.262599 0.0569054 -0.0972768 0.229649 -0.111523 0.145831 -0.0603644 -0.0975315 0.146159 -0.00787499 0.0930349 -0.0432092 0.0825753 0.125591 0.114513 0.0897863 -0.00414788 -0.0405694 -0.301869 -0.112149 -0.00732422 -0.169903 0.0630941 0.0819955 0.000636369 -0.268601 -0.124991 0.114942 -0.0324499 0.0798823 -0.0558633 0.259584 0.0815994 0.208574 0.215708 -0.0253857 0.213447 0.00830035 0.0852113 -0.038966 0.11006 -0.373311 -0.0775288 0.00393983 -0.117588 0.114482 0.156921 -0.133966 0.159384 -0.196344 -0.102315 0.114339 -0.250445 0.371906 0.108018 0.189788 0.220368 -0.0322487 0.0254483 0.0937832 -0.221694 0.0476102 0.12628 -0.0120188 -0.0884461 0.0937178 0.188186 0.0400381 -0.00840845 0.12803 0.219048 -0.0452477 0.0938236 -0.0818766 0.120681 0.113629 -0.0078111 -0.065796 -0.238243 0.0207133 0.0645527 -0.0802559 0.0205122 -0.0378256 0.0788056 0.0770253 0.0520273 0.185694 0.081422 -0.0300236 -0.00967818 -0.111275 0.151551 0.0205554 0.0128721 0.223596 -0.00400695 0.0177117 -0.124382 0.0341618 0.0388347 0.0538926 -0.141693 0.013362 0.118933 -0.152783 -0.146503 -0.0904366 0.24643 0.076903 0.0517391 0.126922 0.0973297 -0.0251898 -0.0274791 0.272349 -0.0631978 -0.167008 -0.0358258 0.138281 0.256323 -0.159206 -0.037828 -0.13589 -0.0483651 0.162003 0.0530808 -0.154919 -0.0860952 0.0308571 -0.0303137 -0.261401 0.151788 -0.0731622 -0.0402263 0.100425 -0.0336213 0.187949 0.0141546 -0.100784 -0.041749 0.158098 0.0344986 0.064745 0.343852 0.0663584 -0.0456589 -0.0125549 0.0989293 0.0272721 -0.0481045 0.0434045 0.0163533 -0.0369067 -0.0490354 0.172837 -0.00577495 0.102579 0.221928 0.0416666 -0.0367843 0.325148 -0.0431091 0.258386 -0.00879768 -0.263585 -0.137946 0.0349983 -0.123489 0.150131 0.149405 0.0811766 -0.26627 -0.0362089 -0.186557 0.00720314 0.247487 0.0828563 -0.0305583 -0.0693639 -0.0779914 0.147538 0.056462 0.20705 0.111875 -0.0869021 -0.074635 -0.107111 -0.00933486 -0.0561088 -0.177534 -0.145499 0.0488079 0.226821 0.0595488 0.0195408 -0.000482215 0.0163168 -0.125533 0.0862518 -0.0744905 0.0868752 -0.0545093 -0.101457 -0.133763 -0.158263 0.246665 0.101971 0.0656072 -0.172559 -0.0148064 -0.18267 -0.15729 -0.15975 -0.116354 -0.097464 -0.0503245 0.112573 0.0030981 -0.099156 -0.00859471 0.136461 -0.0678847 0.0246501 -0.277937 0.0727433 -0.0509438 -0.013872 0.128563 0.130367 -0.168384 0.0247785 -0.00566066 -0.0158511 -0.0272752 -0.0620465 0.0140383 0.0698348 0.0494891 -0.0263055 -0.0748774 0.0313723 -0.034253 -0.150813 0.0450534 0.0512764 0.277993 -0.000892292 0.031441 -0.0466762 -0.0664267 -0.225649 -0.145334 0.0148994 -0.0922885 0.020068 0.0266463 0.0679679 0.0167186 -0.0672337 -0.081142 0.154483 -0.123625 -0.0381886 -0.0111278 -0.0211471 -0.105649 0.0804547 
-0.0169945 -0.210355 -0.351535 0.0510262 -0.0644047 0.148673 0.0516599 -0.169705 0.0610007 0.0619045 0.0211511 0.0837927 -0.164711 -0.0418152 -0.0678805 0.0865766 0.0603673 -0.027403 0.146116 0.144694 0.120939 0.114119 -0.239276 0.157225 0.0546982 -0.000986717 -0.0497864 -0.0532698 0.0246794 -0.0595058 0.115894 -0.066844 0.185753 -0.151514 0.0314004 0.177635 -0.0142721 0.0255105 -0.105589 -0.116263 -0.172079 0.0233722 0.0242005 -0.152122 0.0381559 -0.125608 0.105268 -0.0607712 0.0180451 -0.0432168 -0.13042 -0.00247344 0.0660789 0.0111674 0.0122848 -0.15591 0.0503023 0.142762 -0.0173088 -0.118899 -0.103992 0.208954 -0.0975713 -0.014737 -0.0464268 0.0128762 0.101872 -0.00792054 -0.0301626 0.0946513 0.0527919 -0.00626782 0.0616055 0.167288 0.0662402 0.145913 -0.143228 -0.0613443 -0.0390905 -0.023959 0.156275 -0.393951 0.0154983 0.399723 0.0305246 -0.0361549 -0.0959646 -0.0452941 0.0538875 -0.0134013 0.123753 0.186303 -0.141931 0.167025 0.162531 0.178115 -0.0889614 -0.0860066 -0.162659 0.0818255 0.120449 0.0329631 -0.0420184 0.0433021 -0.0834768 0.0355043 0.189452 0.0648724 -0.109606 -0.335914 0.226027 0.315453 -0.0481576 -0.0108248 -0.0639289 -0.186553 0.0909849 -0.0603869 0.00462343 -0.00206827 0.257446 -0.120667 0.231777 -0.0733946 -0.18403 -0.0961152 0.0495978 0.106743 -0.0428758 0.0156398 -0.0551418 -0.13459 -0.0404936 0.0744972 0.117068 0.156895 -0.17034 -0.176743 0.0376676 0.157095 0.0792582 -0.0700927 -0.0624299 -0.0463393 0.066524 -0.00162614 -0.109227 -0.290958 0.0601138 -0.0179078 -0.0877377 -0.128193 -0.140781 -0.0755794 0.182842 -0.0501658 0.0814499 -0.0751151 0.176071 0.059959 -0.225739 -0.0513844 -0.178275 0.0243222 -0.00206297 -0.00582268 -0.246385 0.110633 0.194964 -0.0323823 -0.208213 -0.0212836 -0.033424 0.128486 -0.0701006 -0.0594477 0.0490163 -0.147775 -0.112591 -0.158855 -0.0951787 -0.138297 -0.0140844 0.141703 0.0495691 0.218447 0.0337868 -0.0389236 -0.124978 -0.129152 -0.0393191 -0.039887 0.2844 0.0881333 0.055834 -0.234763 0.039631 0.0707788 0.12864 0.00983037 0.0543724 0.290959 0.00807133 0.143696 0.0428961 0.141584 0.0154987 -0.017047 -0.0884948 -0.0551227 0.170805 0.0800928 -0.00216067 -0.131451 -0.0269808 -0.0523323 0.140766 -0.141153 -0.116406 -0.0830478 -0.00363855 0.160893 0.276463 0.0812881 -0.12403 0.172378 0.134938 -0.152609 0.0259988 0.0796139 -0.0058578 0.149077 -0.0238795 -0.129551 -0.00560913 0.0591327 0.103709 -0.0412744 -0.0211199 0.0405363 0.0201166 -0.0139432 0.0297004 0.130512 -0.00132076 -0.165417 -0.00206691 9.9342e-05 0.0745233 -0.0915183 -0.0459661 0.057982 -0.0245761 -0.0143238 0.133472 -0.0232123 0.186485 0.00178488 -0.143541 0.0871067 0.138745 0.0624294 0.128262 -0.168997 -0.114879 -0.075998 -0.120478 0.075021 -0.0460917 0.0561046 0.0928769 -0.0290291 -0.0136008 0.152903 0.276262 -0.24456 0.147031 0.148986 0.056785 -0.0321792 -0.24845 0.0384955 0.123911 -0.0908332 0.141137 -0.117362 -0.0381352 0.0356694 -0.263868 0.284754 -0.160844 0.180378 0.132825 0.00965703 -0.086246 -0.0915061 0.00114714 -0.285431 -0.0332538 0.00160408 0.132791 0.0907666 0.0130187 0.197123 -0.213298 -0.038177 -0.123916 0.0631342 -0.0637209 0.106064 0.0962322 -0.145513 0.284592 0.193081 0.0270543 0.119019 0.0968642 0.019353 -0.27614 -0.0186226 -0.0110984 -0.0749247 0.117463 -0.168904 0.0835041 0.0202768 0.0487681 0.156978 -0.0633987 -0.0201851 0.260384 0.0561638 -0.0781028 -0.120093 0.121423 0.0171191 0.0110215 0.084845 -0.182882 0.113937 -0.00273991 0.0476818 0.0393837 -0.210004 0.0909139 0.0435771 -0.217069 0.0171509 -0.0320929 0.187601 0.00567907 -0.0634282 0.172961 0.103257 0.129514 0.0548673 0.032258 0.0169909 0.0628012 0.0178794 0.322604 -0.14225 -0.34013 0.193795 0.00639872 -0.180985 -0.0615011 0.155668 -0.071537 -0.0598852 0.192296 -0.0868675 0.14251 -0.323029 -0.0747901 0.168486 0.123445 -0.0682415 0.232732 0.0379867 0.0274415 -0.0341475 -0.152178 0.0390399 0.115429 -0.00381203 -0.0355893 0.169435 -0.139748 0.0630867 -0.141291 -0.0164802 -0.0988402 -0.0323399 0.131521 -0.187637 0.0370479 0.0269866 0.0342935 -0.162182 -0.0187493 0.0334928 0.109291 0.00022259 0.273475 -0.0771214 -0.0206607 0.0202008 -0.119794 0.0963634 -0.27766 -0.173706 0.0401724 0.1937 0.0460924 -0.0727257 -0.0688212 0.0379529 -0.00259078 0.0351963 0.0663385 -0.201403 0.0787235 0.142272 -0.191935 0.181078 -0.00820777 0.00263433 0.00641659 0.013252 0.350874 0.207055 -0.0920668 0.21705 0.150211 0.0433828 0.0120352 0.108106 -0.299322 0.0183963 0.117591 0.00483891 -0.117897 -0.124859 0.0625744 -0.151331 -0.0946701 -0.0717254 0.0596614 0.132419 -0.091973 0.162751 0.0670493 0.00909257 -0.0319091 -0.166925 0.053834 0.0144826 -0.132761 0.2662 -0.106643 0.221022 -0.0263586 -0.0099077 0.0641674 0.0711336 -0.0351143 0.209486 -0.140321 -0.146923 -0.101104 0.0447568 0.109509 -0.0555433 0.00415796 -0.0694107 -0.294873 -0.19967 0.124492 0.0489518 -0.19631 -0.151868 -0.164923 0.155029 -0.228579 0.0696407 0.183548 0.00791114 -0.0223657 -0.0513089 0.0689896 0.114695 0.0427882 0.0350648 0.0871651 0.0704492 0.0763486 0.215346 0.235859 0.0968225 0.0174844 -0.0843917 0.093886 -0.0347556 0.0116459 -0.196922 0.0145632 -0.0573848 -0.115608 -0.0301073 0.00955124 0.0735064 
-0.00191712 0.0836958 0.0312711 0.0247373 0.245309 -0.101385 0.0023859 -0.00786453 -0.126049 -0.000166533 -0.0858869 -0.191377 -0.0205311 0.242154 -0.0991403 -0.122759 0.0667743 -0.327664 -0.158246 -0.0927583 -0.0129696 -0.304542 0.194813 -0.021614 0.0324295 -0.0554375 0.0820632 -0.0753683 -0.0177143 -0.113488 0.136378 0.0101224 0.0257184 -0.0052758 0.0152704 -0.101896 -0.203691 0.135837 0.0837595 0.00992295 0.204157 -0.107233 -0.196742 0.0198087 -0.0693306 0.0491834 0.244367 -0.0535365 -0.141137 -0.05712 0.000993041 0.0423078 0.13594 -0.0631023 0.0639646 -0.286914 0.205827 -0.272346 0.0919891 -0.0606509 -0.0381284 -0.13099 -0.0210653 -0.105831 0.00409963 0.0180847 0.21886 -0.248674 -0.271789 -0.0412327 -0.0112874 0.160721 0.0416468 0.180465 0.110094 0.0436876 -0.0446331 -0.0590277 -0.0551896 0.00888406 -0.0242684 0.0349533 0.0229019 0.168736 0.172026 -0.0704656 -0.0182691 0.155211 0.125272 -0.0767158 -0.0443773 0.182287 0.0908521 0.0368846 0.012834 0.0184617 0.198278 0.0264053 -0.149083 0.0221426 -0.0208834 0.033002 0.0915135 -0.188146 -0.072286 0.139523 -0.0966395 -0.174275 0.00994815 0.106323 -0.0914457 -0.0543773 -0.043623 -0.164638 -0.00756923 0.16081 -0.245155 0.148256 -0.0833755 0.100492 0.116607 0.0888745 -0.0280505 0.150603 0.0338778 0.0697161 -0.13911 -0.0409529 -0.0684567 0.208768 0.0440512 0.0656331 0.00583107 -0.10741 0.058144 -0.139531 0.117408 0.0508032 -0.00136183 -0.15274 -0.209244 0.180235 -0.0111793 -0.0347687 0.125747 0.0558336 0.0442329 -0.0602148 0.0516233 0.074354 -0.00133229 -0.0268857 0.117744 -0.0584942 -0.0926739 0.0666263 0.136602 0.201509 0.0738761 -0.149898 0.0373298 0.0539028 0.0486057 0.0397474 -0.0487789 0.183452 -0.0802576 -0.0971109 -0.0165121 0.0944278 -0.0657262 -0.0386917 0.10983 -0.0695114 0.0449341 0.0262706 -0.218746 -0.119272 -0.00953321 0.227477 -0.19774 -0.0133793 -0.164419 0.0619872 0.0275859 -0.0471604 0.028874 0.172369 -0.0356761 -0.0364866 0.212693 -0.0257629 -0.136842 -0.25423 0.0596641 -0.161397 -0.0268023 -0.0889999 -0.000599394 0.200616 0.00108843 0.169425 0.0546205 0.111339 0.0997367 0.0909286 -0.193779 -0.119104 -0.0346594 -0.0271537 0.0911011 0.204932 -0.0794571 -0.0623521 -0.00546366 0.0480226 -0.0406264 0.129402 -0.218257 -0.0159154 -0.107082 -0.161664 -0.0644638 -0.0684424 -0.328835 -0.0436374 0.00568306 0.056726 0.293449 0.00745664 -0.119687 -0.0510563 -0.0694075 -0.315808 0.152685 0.208141 0.00971608 -0.192878 -0.176228 0.0257952 -0.0436691 0.00244877 0.0118188 -0.0378595 -0.00182866 0.0467244 0.201426 0.165162 -0.0723169 0.171354 -0.000327904 0.290854 0.0649295 -0.173829 0.0814961 0.0593897 -0.173876 -0.320543 -0.144754 -0.0899086 0.232218 0.048035 0.160643 -0.031332 0.129422 -0.322937 0.111173 -0.0963476 0.194446 -0.265837 -0.198096 -0.175777 0.0466161 -0.0884483 0.0734431 -0.0229354 -0.0741449 0.198862 -0.184309 0.0563969 0.176135 0.119183 0.102724 -0.064554 -0.0743246 -0.0850932 -0.0771638 -0.0486021 0.206445 -0.0345766 -0.205311 -0.0287524 0.111987 -0.00514143 0.301158 -0.0769519 0.209193 0.038227 -0.0987154 -0.0473818 -0.126128 -0.0545432 -0.0445082 0.165587 0.0615141 -0.080166 0.0566918 -0.193171 -0.14641 -0.223578 0.011899 -0.0515582 0.0676961 0.0699082 0.136276 0.0445778 -0.113009 0.0263063 -0.0027623 -0.292089 -0.0590571 -0.0966245 0.164261 0.0916306 0.017903 0.0926073 -0.0445042 -0.0910681 -0.00384068 -0.169981 0.171833 0.180959 0.000680351 -0.0539683 0.161164 -0.022627 -0.0941945 -0.00194799 0.232028 -0.00371843 0.0546682 -0.00299676 0.0299189 -0.0170516 0.119273 -0.0347594 0.197022 0.0394942 -0.175755 0.0563362 -0.0413256 0.210586 -0.218069 -0.232799 -0.248511 0.0284917 -0.0376083 -0.060845 0.000245853 -0.0852489 0.34262 -0.0260011 0.0711083 0.073322 -0.0865499 -0.00839023 0.128244 0.0371548 0.00962268 -0.185198 0.0590495 0.146092 0.198572 0.125906 -0.0910277 -0.0563734 -0.0653285 0.00740943 0.0287971 0.151935 0.00241859 -0.0306156 0.121882 -0.0277964 -0.159442 0.0851623 -0.0158437 -0.138279 0.100025 0.0763633 -0.128239 -0.14057 -0.00145321 -0.0820917 -0.0788194 -0.0429292 -0.306229 0.0812793 0.163037 -0.0471194 -0.220654 -0.260683 -0.160646 0.00434861 -0.161437 -0.0916894 -0.0486358 -0.125306 -0.0947673 0.245752 -0.107127 -0.00676825 -0.213215 -0.124486 -0.124582 -0.0178217 -0.0199811 0.0118831 0.13996 -0.127561 -0.0323919 0.135202 -0.0566982 0.000159661 -0.05162 0.0910953 -0.110063 0.241427 0.154764 0.0794592 -0.160237 0.0408062 0.125456 0.259517 0.249131 -0.244867 0.119082 -0.013812 -0.0363064 -0.0806832 0.0428234 0.00174775 -0.0705891 0.0666043 -0.00847529 -0.0393323 -0.175125 0.0267019 -0.0684542 0.0537381 -0.325187 0.0796139 0.0155454 -0.129584 0.0294015 -0.104852 0.172457 -0.0993464 -0.0950845 0.0659877 0.0662194 0.164123 0.00964425 0.158686 0.0310709 0.0329257 -0.26039 0.0138441 -0.0269998 -0.0441869 0.0429834 0.0363122 -0.0993962 -0.0601182 -0.118942 -0.0782701 0.0757868 0.0984897 0.0779624 -0.103302 -0.053078 0.0242687 0.0642321 -0.0468756 -0.00386315 -0.0372155 -0.0689675 -0.0503414 -0.0777639 -0.140903 0.0928447 -0.141498 -0.303455 0.100836 0.223426 -0.00255814 0.00893615 -0.0425001 -0.213755 -0.0610773 0.0878761 0.248314 -0.0479304 -0.176166 -0.0393645 0.172671 0.17995 0.245355 -0.0735834 0.0196481 -0.13871 0.0789036 
0.10201 -0.140897 -0.086466 0.166936 -0.0485174 -0.0449514 -0.236068 -0.276152 -0.0892138 0.0363146 -0.0460813 0.102482 0.0230913 0.111941 0.215107 -0.0323014 0.153217 0.0626508 0.130147 0.0422784 0.217962 -0.234181 0.00701488 -0.0739301 0.00174241 0.148538 0.137089 0.122658 0.246603 -0.115506 0.0788101 0.0621367 0.0226721 0.122884 -0.0211309 0.0169788 0.0521775 -0.0524701 0.00208661 0.295917 -0.0803894 0.0483823 -0.0708468 0.101043 -0.10854 0.115457 -0.0684193 0.1263 -0.144132 -0.0894844 0.160331 0.00909267 0.0610492 0.00439473 0.110452 -0.0528514 -0.0327376 -0.187942 0.013313 -0.167447 0.168022 0.0546742 -0.0466504 -0.0477004 0.0825804 -0.256979 0.0179478 0.0037152 -0.0689212 0.260942 -0.0710012 0.0968853 -0.041719 -0.00860419 0.040392 -0.0722632 0.0166148 0.0657397 -0.0462621 -0.217115 -0.00435686 -0.0611626 -0.0388734 0.288338 0.214054 0.0564109 -0.0691956 0.00652477 -0.00533663 0.11701 0.176366 0.0139663 0.000194267 0.0447424 0.0549537 0.0130762 0.165325 -0.00411497 0.00849274 -0.284239 0.265976 0.0332678 0.290529 -0.161045 -0.0209608 -0.0535133 -0.0727839 0.0328928 -0.0263238 0.0788104 -0.0931075 -0.0158846 -0.0377996 -0.168974 0.0293756 -0.0785938 0.383269 0.0300954 -0.106804 -0.240091 0.164411 0.0542048 0.171493 0.0115506 0.0961579 0.109449 -0.219305 0.0176862 0.0540211 0.0107742 0.0537354 -0.0941424 -0.115274 0.191764 0.158774 -0.128233 -0.0117922 -0.197125 -0.0890076 -0.17542 -0.0590999 -0.0864306 0.0696047 0.171561 -0.0121133 0.170412 -0.0764051 0.091535 -0.0698604 0.0551453 0.0952329 -0.179474 0.0465217 -0.223865 0.0363053 0.114282 0.0047157 -0.077812 0.0862088 -0.0808225 -0.00629503 -0.055077 -0.10453 0.0131711 0.0398765 -0.0918332 -0.032812 0.0425175 0.0502934 -0.0861118 -0.0424368 0.0250655 -0.00629109 0.0272347 0.131097 -0.00523453 -0.1172 0.103525 -0.0210736 -0.120754 -0.00595847 -0.0693799 0.0245391 0.0411092 -0.0122208 0.201952 -0.112841 -0.140913 0.135396 0.166122 0.0476947 -0.139346 -0.00143222 -0.10815 -0.0613301 0.00868186 0.0695547 0.17912 -0.0437352 -0.105862 0.0812107 0.116333 0.0263634 0.0726767 0.0277617 0.0235989 0.159119 0.21572 0.143007 0.0305087 -0.0356394 0.0690683 -0.0584539 -0.0539394 -0.0261451 -0.0384023 0.0278032 -0.0106669 0.130243 0.173741 0.0193577 -0.007862 0.0747708 0.297191 -0.162483 0.0649062 -0.0963349 -0.0735608 -0.00396668 0.00463917 -0.130237 0.0685037 0.156159 0.180508 -0.0630124 0.05391 -0.00137011 0.0601248 0.183933 -0.201222 0.155951 -0.153578 0.153401 -0.254604 -0.0700543 -0.0355152 -0.160184 -0.0528379 -0.117813 0.0559328 -0.0427878 0.18211 -0.144828 -0.18481 -0.240865 0.0640802 0.0324812 -0.167024 -0.185292 0.0368214 -0.192086 0.158205 -0.0976374 -0.0508381 0.0147878 0.125595 0.0984685 -0.122395 0.0255933 -0.0210519 0.123411 -0.125772 -0.0673511 -0.0948698 -0.00791811 -0.0615513 -0.109656 0.0775938 0.158277 -0.133317 -0.0477522 0.0995655 0.15895 -0.00302465 -0.0722026 0.144397 -0.124585 0.0256528 0.0645762 -0.205192 -0.0147253 -0.0977957 0.15286 0.0204675 0.130549 0.11406 0.0629986 -0.153289 0.0857557 -0.125283 0.00269547 0.00956358 0.080008 -0.162927 0.0863214 0.0611539 0.158504 0.0758125 0.0382323 -0.0641013 0.192379 0.273385 -0.146231 -0.0739272 -0.0654925 -0.105866 -0.0362815 -0.0274444 0.235766 0.118035 -0.120328 0.118378 0.11869 0.157458 0.0975207 -0.0188871 0.0574996 -0.0156969 -0.00974844 -0.119503 0.0219102 0.00578966 -0.00293743 0.251522 0.157214 0.141796 -0.0186249 -0.218966 0.0206769 0.283848 -0.0378847 -0.0948038 0.168764 0.00965108 0.0103296 -0.136716 -0.00532047 -0.169731 -0.274253 -0.0224772 0.177778 0.163608 -0.0693897 0.0455797 0.0840108 -0.065506 0.0946432 0.129033 0.0760749 -0.0932493 -0.0314207 -0.0690138 -0.0383853 -0.00715804 -0.00435836 -0.249434 0.0438195 0.175065 -0.150054 0.0658997 0.100311 -0.0224867 -0.117895 -0.106329 -0.0506075 0.0151425 0.058315 0.135016 -0.243795 0.066692 -0.170041 -0.117155 -0.121825 -0.0934579 -0.0420109 -0.185629 -0.26634 -0.232997 0.136415 -0.0595508 0.156148 0.0290619 0.173695 -0.0443104 -0.0473225 -0.148646 0.104152 -0.00723496 0.13024 -0.0537464 0.171568 -0.0976017 0.00506608 0.0448354 -0.0550263 0.0288435 0.0566602 -0.0290955 0.100046 0.00501679 -0.211127 -0.0666495 -0.0995003 0.0205623 0.0633506 0.00179257 -0.183911 -0.0820745 0.0185491 -0.0137656 -0.0885763 -0.110815 -0.0246701 -0.165368 -0.0280264 -0.0158426 0.214552 -0.0568521 0.0105651 -0.0189282 -0.132566 -0.129659 0.222517 -0.104854 -0.0882754 0.0907169 0.0731817 0.0164527 -0.0622262 0.16132 0.136737 -0.101395 -0.0897787 -0.227403 -0.0885594 -0.00575491 -0.0403483 0.114711 -0.0173656 -0.142911 -0.364701 0.135093 -0.270851 -0.187542 -0.178449 0.263712 0.0708328 0.0291677 -0.180915 0.063361 0.14065 -0.0281847 0.22089 0.182621 0.00242311 -0.276533 -0.0653247 -0.182901 0.0948384 -0.0572173 -0.158001 0.107253 0.0145586 0.114086 -0.324811 0.0937021 -0.159434 0.0999584 0.216798 0.182419 -0.0234679 -0.115201 -0.0384407 -0.0272929 -0.0201733 0.128125 0.0339423 -0.0927985 -0.131894 0.07406 0.109899 0.0152684 0.0150808 0.0903211 -0.00780104 -0.204238 0.0418126 -0.0941434 -0.213922 0.0451268 -0.222005 0.0312261 -0.0705254 -0.140887 -0.188355 -0.0344073 0.061583 0.0697461 -0.0131598 -0.0861408 -0.0853956 -0.241294 
0.0682259 -0.148362 0.172169 0.0597661 0.047691 0.132529 -0.0121708 0.0174469 0.0324501 0.0748248 -0.202503 -0.12743 0.0192426 -0.132109 -0.103211 -0.021629 0.0915414 -0.209929 0.145005 -0.142774 -0.19397 -0.0751975 0.119879 0.092899 -0.27815 0.0366215 0.0290361 0.240847 0.00486017 -0.106624 -0.11658 0.0177847 0.268874 -0.0606762 -0.0319602 -0.288972 -0.0595321 0.0292698 -0.299184 -0.001736 0.0846144 -0.0681266 -0.111777 0.0880186 0.0764937 0.0547892 0.281544 -0.200704 -0.154013 0.176985 -0.211651 -0.125848 -0.219771 -0.0845522 0.0373371 -0.0868113 0.093987 0.233836 0.197785 -0.205902 0.0446762 0.0253181 -0.0633933 0.107969 0.0348874 0.154105 0.0766202 -0.0336959 -0.100941 -0.109246 -0.107649 0.117101 0.469267 -0.103592 -0.0311835 -0.0385262 -0.0292619 0.117746 -0.0322444 -0.171443 -0.134612 0.039641 -0.0288074 -0.0437159 0.00407517 0.0511752 0.195884 0.194819 -0.12611 -0.0879772 0.0857316 -0.131753 -0.0631627 0.0345168 -0.338503 0.0256525 -0.161517 -0.340074 -0.0428797 -0.14615 -0.0100695 0.136554 -0.0956307 -0.145965 0.131928 -0.044255 -0.00370934 0.0290198 0.0574022 0.0700412 -0.0117355 -0.00813657 -0.0327433 -0.0845895 0.022209 0.233749 0.224191 0.0864303 -0.114951 0.155691 -0.0761966 0.0334744 -0.128405 -0.0935567 -0.041689 -0.105171 -0.133227 0.130751 -0.0559403 0.206527 0.00538208 -0.0978636 -0.0690769 -0.213706 -0.0668552 -0.102977 0.0367492 0.0297466 0.0331284 0.0499587 0.135044 0.12454 -0.108585 -0.057716 0.0339166 -0.0502077 0.025521 0.0159076 0.0941657 0.0717814 -0.124511 -0.0675754 -0.155917 -0.123909 -0.0811366 -0.0690939 -0.03728 -0.187954 0.0522939 0.065972 0.0435382 -0.183104 0.0402416 0.0480502 0.0540069 0.247765 0.0382154 0.187452 -0.028007 0.189797 0.00969392 0.0748905 -0.0220732 0.185499 0.16034 0.221038 0.118827 -0.00629248 -0.0506411 -0.0771741 -0.160515 0.123345 0.055946 -0.0960274 0.0897371 0.0742978 0.0095391 0.0938823 -0.0400229 0.068253 -0.193883 -0.103472 -0.00321352 0.140345 0.292984 -0.0549437 -0.0765047 0.0573205 -0.2275 0.0539315 -0.0981909 -0.16264 -0.0512608 -0.263295 0.0618589 -0.147466 0.0722493 -0.120333 -0.131344 -0.0420809 -0.100771 -0.0487867 0.212731 0.0620348 0.0639671 -0.00180431 0.0909007 0.02228 0.00410832 0.0317903 0.0314888 -0.173444 0.319967 0.0436643 0.0460903 0.167833 -0.174787 0.159518 -0.0184002 -0.0622956 0.160441 -0.173111 0.130542 -0.190856 -0.0245395 -0.123671 0.294675 0.0837889 0.122159 0.0390346 -0.151151 0.0596568 -0.165083 -0.0337446 -0.0708933 0.108997 -0.124324 -0.161167 0.0202251 0.0900927 0.146224 0.0196087 -0.142745 0.0357836 -0.0841825 -0.0958588 -0.182604 -0.212592 0.00399015 0.0602563 0.0224124 0.0508415 0.108818 0.0963977 -0.0576675 -0.120195 0.232422 -0.00309793 0.0214966 0.0255796 0.0204292 0.0427673 -0.0920134 0.227607 -0.0614452 0.132645 0.0114508 -0.0452829 0.00515303 -0.0148963 -0.113945 -0.069597 0.0189409 0.042918 0.0582276 -0.00886133 -0.111079 0.16597 0.0831721 -0.256748 0.168279 -0.0451026 -0.0987531 -0.178016 0.15204 0.142405 -0.0632428 0.144331 -0.125062 0.15401 -0.115585 0.0775989 -0.153115 -0.0451179 0.00808801 -0.0961727 -0.0747146 0.0487251 0.0812966 -0.000394741 -0.111347 -0.129644 -0.0778674 -0.0832555 -0.0602791 -0.0282416 0.355585 -0.0518418 0.193079 -0.0891157 -0.00753577 -0.0965801 -0.0691717 0.00691893 -0.115076 -0.0704743 -0.190765 0.145981 -0.08186 -0.0933641 0.0557554 -0.0189988 0.0253978 0.0436685 0.0506807 -0.0160627 -0.172703 -0.160248 -0.153694 -0.0487405 -0.162664 0.10303 0.0254294 -0.0131568 -0.0225207 0.19023 -0.0377331 -0.0456428 0.0744399 0.0683243 0.0810081 -0.0325755 0.101851 0.0689275 -0.117696 0.234029 -0.119051 -0.00260608 -0.262819 0.0222362 0.00625913 0.0510521 -0.0209456 -0.127282 0.00882336 -0.214755 -0.116618 0.16371 -0.0409559 -0.10271 -0.128177 0.0462476 -0.0607199 -0.140132 -0.127311 -0.175621 -0.0279961 -0.101562 0.0946632 -0.0838193 0.111033 -0.186121 -0.0909594 -0.250974 -0.0256236 -0.179675 0.0345985 0.0142194 0.183324 -0.0261534 -0.0206003 -0.138246 0.0491198 0.0358751 0.146361 -0.0378549 -0.0494959 -0.059263 -0.0175589 -0.00965807 -0.273114 -0.128219 0.134148 0.00833217 -0.0769256 0.00286274 0.0965292 -0.0193215 0.110048 0.188043 -0.0100408 -0.17098 -0.0078005 0.00827193 -0.0880901 -0.0268918 -0.161035 -0.213586 -0.107466 -0.0203735 0.00846964 -0.066869 0.0880771 0.027247 -0.0299047 -0.111843 -0.337043 0.143965 -0.0323919 0.0970375 -0.0426746 -0.145585 0.115121 -0.11713 0.17389 0.116021 -0.0108621 0.000620346 0.0487572 -0.148458 0.0567035 0.0184421 -0.193037 0.0923948 -0.194456 -0.167286 -0.0608695 0.0123228 -0.145182 -0.183538 0.100684 -0.218959 0.129606 0.224448 -0.188282 -0.0428162 -0.150348 -0.00254874 0.227518 -0.145933 0.214927 -0.084594 0.239273 0.0442456 -0.174011 -0.00661621 -0.142165 0.0253747 0.0627894 -0.107626 0.0180812 -0.0845168 -0.0359457 -0.121204 -0.0406639 -0.223368 0.20891 0.0384161 -0.0233772 0.0408414 0.00209628 -0.0919183 -0.150742 -0.0720995 -0.00721734 -0.220476 0.0599119 -0.238074 0.0372819 0.242833 0.0285046 -0.0133557 -0.00168948 0.0627593 -0.000269011 0.0222533 0.0068251 -0.0129718 -0.257969 -0.0419356 0.186934 -0.0380334 -0.027987 0.104809 0.0979161 0.0242959 0.00489224 0.0298065 0.136321 -0.0119149 0.0645087 -0.105842 
-0.0100085 0.240521 -0.0524137 0.100194 0.117569 -0.0450182 0.113546 0.0158553 0.058765 -0.16162 0.07295 0.0869569 0.111439 0.0532815 0.0603409 0.0179989 0.00509775 -0.254465 -0.107413 0.214857 0.0938785 -0.0591637 -0.0392851 0.0238086 -0.0836235 0.214964 -0.0929368 -0.0830935 0.24477 0.191557 -0.0444097 0.00128572 -0.0520213 0.126214 0.0234253 -0.0424315 0.28251 0.0806443 0.0402087 -0.0512088 -0.0956491 0.166289 -0.199708 0.153788 0.0173558 0.063898 0.0230945 -0.0174504 0.074674 -0.161475 0.0389033 -0.0778495 0.00364687 -0.0547258 -0.170025 -0.0563991 0.171813 0.0869996 -0.0698951 0.0117968 0.217891 0.012743 -0.0837845 -0.0381097 0.133475 0.0746729 0.0305922 0.0341968 -0.0704824 -0.0315262 0.0771912 0.0288206 -0.044762 -0.13838 -0.247236 0.0206986 -0.0511744 0.102615 0.0565724 -0.102014 0.0376613 -0.0275322 -0.0507724 0.206247 -0.0924321 0.223458 -0.257846 -0.0295018 0.0939698 0.0661701 -0.0488384 -0.111011 -0.117521 0.00559509 0.0412103 0.00354364 -0.0770353 -0.0113629 0.0883533 0.0739907 0.0929859 -0.0713373 0.103481 0.0447645 0.0209149 -0.0492685 -0.00679575 0.0658362 0.0814453 0.167864 -0.00726882 -0.0195222 -0.0563735 0.00278469 0.0839723 0.292765 -0.216575 0.0904039 0.0168605 -0.0196826 -0.146494 -0.056065 -0.29248 -0.055765 -0.0801275 -0.0443843 0.0488938 -0.166093 0.0887118 -0.0326962 -0.0342453 -0.0728914 0.0584161 -0.164048 -0.180965 0.162823 -0.0938557 0.0832386 -0.29144 -0.0798279 0.0742593 -0.0640482 -0.199226 -0.201136 0.00141016 0.0670002 -0.297257 -0.0964978 -0.36027 -0.0309277 0.0847355 -0.0362396 0.120437 0.192004 -0.003045 0.138016 -0.0414292 -0.098188 0.0672966 -0.0537174 0.0498104 0.191246 0.0364971 -0.059089 0.0719519 -0.0867985 -0.125874 -0.0687853 0.0333843 0.0401723 -0.166739 0.0824419 -0.0830404 -0.0508542 -0.0551619 -0.0468246 -0.0758286 0.0169637 0.039979 0.0635421 -0.185325 0.0403076 -0.127729 0.00319673 0.0941122 0.134889 -0.11404 0.272827 -0.297155 0.0820318 -0.129339 0.017387 -0.0691624 0.190521 -0.0454061 -0.24708 0.125938 0.0441076 -0.207992 -0.0802448 0.132482 -0.241145 -0.103165 -0.0384979 0.113428 -0.137011 0.0196852 -0.206405 -0.141719 0.00484509 -0.151701 0.0239143 -0.0871486 0.143555 0.217766 -0.17161 -0.0122371 0.137456 -0.159371 -0.0635332 0.0781791 -0.199426 0.0862259 0.0395339 0.100135 -0.143473 -0.0651773 -0.0200064 -0.174221 -0.0575602 0.0295016 0.0516537 -0.00669673 -0.0086836 -0.166227 0.0338863 0.256155 0.110938 -0.126534 0.213511 0.0817381 0.172147 -0.350664 -0.0132846 0.0810356 0.094561 0.0938878 0.125664 0.176624 -0.123145 0.171269 0.0950764 0.0543494 -0.149434 -0.00681581 -0.111353 0.0565395 -0.017941 -0.0726619 0.03043 -0.0627986 0.0571806 -0.0237218 -0.230968 -0.0739772 0.119738 -0.0407137 0.110187 0.0930223 -0.157303 0.0705815 0.280488 -0.0610816 0.00809113 0.0771762 0.0189041 0.133077 -0.041075 0.0659911 -0.106527 0.121543 -0.0649997 0.00993402 0.0139269 0.115868 0.191362 -0.0810398 0.0941444 0.117468 0.104252 -0.0482087 -0.240658 0.160337 0.0363349 -0.177354 -0.228364 0.0125153 -0.107461 0.221096 0.0377615 0.147009 0.169495 -0.102086 -0.0779499 0.0380355 -0.100828 -0.180854 0.014844 0.168869 0.00802396 -0.136915 0.100297 0.245648 -0.230503 -0.147417 0.228052 0.0127393 0.0518649 -0.0735968 0.14447 -0.080178 -0.0809404 -0.296471 0.180339 0.298565 0.133714 0.0675619 -0.0994622 -0.229289 0.0816206 -0.0102224 -0.221553 -0.0366667 -0.0457017 -0.161411 0.057838 0.0639154 0.0219108 0.00625123 0.129659 0.230414 0.0113128 0.153029 0.139607 0.118101 0.0504971 -0.144351 0.149956 -0.00827748 0.160745 0.0631247 0.0823191 -0.139262 -0.0149295 -0.0422082 0.105589 -0.0452866 0.0334492 0.0975032 0.10727 -0.0532811 0.044434 -0.0564016 -0.0474156 -0.074295 -0.268781 -0.014857 -0.106498 -0.111979 0.0864368 -0.0866132 0.0153663 0.00463088 0.188733 -0.241045 -0.121658 -0.11336 0.0209372 0.0228929 -0.133236 -0.0388236 0.20251 0.0936934 0.162038 -0.293903 0.0131034 -0.127988 -0.0260496 -0.0363828 -0.119334 -0.0356993 0.00854367 0.158145 0.149349 0.0497906 0.290472 -0.0172525 -0.087137 0.050074 -0.0810702 -0.0806811 -0.112283 -0.0612261 -0.0710488 0.0821358 -0.0234981 0.0228895 0.217565 -0.0484488 0.228448 -0.307489 0.036802 0.140412 -0.129359 0.50675 0.219753 0.180633 0.337245 -0.0916297 0.307728 -0.210306 -0.0753197 -0.131986 -0.00399087 0.186637 -0.0504984 -0.0491732 0.00280679 -0.119101 -0.323051 0.0407071 0.209084 0.00361833 -0.0584061 0.0288723 0.00859561 0.0219314 0.155446 0.0266128 0.0848139 -0.0540613 -0.126606 -0.0769072 0.309993 -0.0371821 -0.000749881 0.112993 0.0440325 -0.157421 -0.0343693 -0.0999383 0.0441603 -0.0824497 -0.205133 0.167528 0.121722 -0.0284849 0.0570646 0.0511624 0.0680739 0.137214 0.131309 -0.0250175 0.101095 -0.00930295 -0.0338349 0.0104127 -0.00244969 -0.186584 0.0430297 0.0471779 -0.0970396 0.230958 0.124278 0.0482409 0.0377488 -0.0250006 -0.317389 0.227701 0.160497 -0.145341 0.181257 0.0719696 -0.0122002 -0.185876 -0.00560199 -0.164939 0.15687 -0.106099 -0.000499046 -0.0928443 0.059085 0.0208145 0.125547 0.081231 -0.0116324 -0.256913 -0.106646 -0.0454784 -0.187921 0.244835 -0.00275102 0.140822 -0.0155246 -0.115039 -0.0957993 0.0434526 -0.0330417 0.114686 -0.261559 -0.0751588 0.196678 
0.029861 0.0895929 -0.211105 -0.12279 0.00108922 0.0784153 -0.0730844 0.0277234 -0.0552843 -0.0752544 -0.076862 -0.150326 -0.133993 0.207764 -0.0335233 -0.120366 -0.0804238 0.0345522 -0.199663 0.171658 -0.00629388 0.0109647 0.171475 -0.0251289 -0.0746402 -0.0591786 0.123712 -0.0593152 0.10808 -0.0460314 0.156159 0.0927759 -0.0507133 -0.0181491 -0.137786 -0.0399821 -0.0116131 0.120919 0.0979004 -0.0612814 -0.0889675 0.0991713 -0.227377 -0.271652 0.0712784 -0.0832646 0.0196883 0.0179033 -0.032892 0.0834595 -0.047693 -0.0791698 0.0203113 -0.0804233 0.0534447 0.0831203 0.0688403 -0.170691 -0.0947393 0.103605 -0.06089 0.0902167 0.0617945 0.0219918 -0.172988 -0.180509 -0.152617 0.145129 0.00781922 -0.1578 -0.084223 0.13904 -0.210221 0.219723 0.0278067 -0.2303 -0.120512 -0.0656028 0.0920953 -0.120134 -0.0234465 -0.0705719 0.264676 -0.0603786 0.0314512 -0.0966251 -0.0678068 -0.139571 0.200402 -0.113198 0.0655412 -0.175614 -0.0305728 -0.0238732 0.00875533 -0.0409534 0.258627 -0.013494 0.0576164 -0.0610184 -0.0192229 0.0576537 -0.0848611 0.0969031 0.0168305 0.166582 -0.0708564 0.180439 -0.0753934 -0.0745548 -0.107895 -0.139299 0.0071747 0.0498092 0.112125 0.186554 0.020591 -0.174978 -0.0498866 -0.0803799 -0.187634 0.060453 0.120699 0.0880311 0.00128064 -0.106692 -0.0207064 0.0765414 -0.102316 0.082032 0.147258 -0.144947 0.0693893 0.0196901 0.133361 0.147016 0.231418 -0.112451 0.0964068 -0.0399334 0.076918 0.236169 0.125789 -0.0981276 0.290179 -0.154947 -0.078895 -0.0439669 -0.10729 -0.0986661 -0.0877631 -0.0397268 0.207396 -0.0607279 0.0143288 0.0411324 0.0646088 -0.00618127 0.0877146 -0.153223 -0.0207395 0.146722 0.0945258 -0.16712 -0.025024 -0.00570635 0.270414 -0.00869427 -0.00579644 -0.00820638 0.0759123 -0.0732269 -0.0936898 -0.496017 -0.0551322 0.163679 0.00357085 0.0474587 -0.335736 -0.253075 0.136317 -0.119032 -0.222278 0.160702 0.217913 -0.00982694 -0.225503 0.0755212 -0.0614231 0.012858 -0.134513 -0.0559355 0.0782072 -0.0717123 0.0259331 0.00938727 -0.0538989 0.0973113 -0.0896564 0.128225 -0.124272 -0.00529645 0.183154 0.133612 0.1764 -0.151902 0.120362 -0.198178 -0.069093 0.090832 0.087607 0.149032 -0.185764 -0.11029 -0.0588773 -0.051775 -0.170383 0.0724866 -0.172977 -0.0546104 -0.0880658 0.15175 0.0732351 -0.0889121 -0.0846544 -0.0957306 -0.0770589 -0.0146039 -0.18419 0.000905809 -0.0326486 0.325474 0.0476184 -0.111452 0.13367 0.00451626 0.0801045 -0.156556 0.0552137 -0.136737 0.124207 -0.0225427 0.00699667 -0.0320866 -0.108971 0.0541139 -0.140954 -0.16186 0.0922174 0.0625431 0.1603 0.0751494 -0.0117753 -0.158631 0.163289 0.0174109 -0.221865 0.130105 0.113303 -0.0241593 0.089108 -0.0215804 -0.0610039 0.15785 -0.0760271 0.202762 0.138091 0.133935 0.158337 -0.0120201 0.229857 -0.288894 -0.048036 -0.0182431 0.239743 -0.163399 0.470696 -0.0210772 -0.209303 -0.0216963 0.0163591 0.0961258 0.0317455 0.0897501 0.0311869 0.139712 0.0665306 0.109151 0.0915032 -0.1844 0.139402 0.0504205 -0.117855 0.180384 0.146183 0.0262737 -0.182079 -0.0359191 0.0113851 -0.00886268 -0.0615936 0.271402 0.126697 0.181868 0.0708772 0.163719 -0.122709 0.246766 -0.400936 0.216504 0.00623673 -0.0445847 -0.0379336 0.0758588 -0.0512775 0.0175762 0.272689 -0.00542732 -0.0187607 0.0164134 -0.0137845 0.0782356 0.342312 0.047957 -0.0839651 0.0643661 0.10093 -0.132434 0.0599169 -0.0349842 -0.0921007 -0.202718 -0.000815561 0.023442 0.0239293 0.129767 -0.0934896 0.182066 -0.0012861 -0.0688783 -0.0209585 -0.0501602 0.182418 0.0975905 -0.133818 -0.059776 -0.020829 0.192565 -0.0468412 0.159427 -0.038079 -0.0609017 0.0170441 -0.0321583 0.0859011 -0.14394 -0.0366027 -0.0503832 -0.0304735 -0.189651 0.0558257 -0.0784715 0.0820016 0.0858089 0.124913 0.0267871 -0.0333759 -0.0423818 -0.101291 0.17383 -0.23624 -0.0576409 0.138904 0.0734104 0.00635718 0.0460548 -0.0261816 -0.0999975 -0.148504 -0.144482 -0.182782 0.0573178 0.0584688 -0.115962 0.206796 0.0695891 0.0295044 0.0823029 0.00248667 0.181951 0.0116101 -0.123665 0.23938 -0.078691 -0.258277 -0.0881577 -0.039764 -0.198365 -0.192458 0.172018 -0.286061 0.155655 0.044708 -0.0638604 -0.0344064 -0.0214697 0.0347653 0.123153 0.0558359 -0.106411 0.0173678 -0.0100125 0.08239 -0.225309 0.203274 0.137422 -0.164814 0.155571 -0.0556384 0.231031 0.0465852 -0.138427 0.0715002 0.0515041 0.199987 -0.131542 -0.0689996 0.015823 0.100662 0.171176 -0.0636723 0.092196 0.0207823 -0.28007 -0.0247069 0.0791268 -0.232089 0.1313 0.111861 -0.017889 0.229986 -0.0774307 -0.17516 0.0287005 0.18044 -0.141898 -0.0497917 0.0371126 0.0186721 0.143733 0.107432 0.17106 -0.0308223 -0.0538413 -0.161767 0.055258 -0.0395121 -0.180392 0.0251322 -0.278566 -0.0250482 -0.0437132 0.21863 -0.0239181 0.114491 0.0386316 0.224118 0.15096 -0.0865262 -0.173122 -0.074512 0.0154363 0.0845635 0.0800844 0.180965 0.0149219 0.129836 -0.26631 0.0657378 0.235497 0.0244905 -0.130064 0.0961871 0.0870046 -0.134219 0.031867 -0.100888 -0.0147432 0.2177 0.099148 -0.013607 0.070243 0.00899135 0.21048 0.157627 -0.193094 0.0238614 0.0399734 0.232553 0.112722 -0.268869 -0.0473333 0.104631 0.0447984 -0.269429 -0.140843 0.084307 -0.27822 0.190612 0.0987819 0.0890052 -0.0388409 
-0.155591 -0.0753697 -0.0746038 -0.0766069 0.011145 -0.182505 0.0461021 0.0223938 0.254574 0.0398745 -0.168151 0.00429249 -0.230623 0.00447377 -0.186765 -0.113058 -0.212154 0.00720871 -0.0509275 -0.130115 0.0200661 0.126846 0.107875 -0.157849 -0.192633 -0.0597647 0.200964 0.0349275 -0.0244819 -0.131708 0.0150441 0.0330518 -0.0258301 -0.235641 -0.0123985 0.0397079 -0.0178663 -0.205442 0.0968276 -0.00668038 -0.0861824 -0.0584521 -0.0235168 -0.112046 0.0575647 0.0107305 -0.00770912 -0.0739754 0.0202086 -0.0785903 -0.192974 -0.0370984 0.155176 0.109845 -0.0610438 0.0407172 -0.220489 0.201279 0.147582 -0.16678 -0.184136 -0.0726116 0.0164684 -0.169453 -0.0658124 0.203948 -0.0133805 0.139003 -0.0867035 0.0225578 0.062179 -0.0185453 0.0405746 0.0422548 0.0276172 0.227296 0.0369095 0.190543 0.145692 -0.0177049 0.0152388 -0.0243624 -0.128008 0.170549 0.171112 -0.23917 0.140594 0.168136 -0.14531 0.0458404 0.0256848 -0.0769301 0.248364 0.107852 0.147767 0.123458 0.082687 0.0792757 -0.0554829 0.206893 0.00763183 0.214579 0.133925 0.250925 0.0200328 -0.0599664 0.210366 -0.0525234 0.0370865 0.145827 0.109879 0.110906 0.118981 0.0623945 -0.0720619 0.0939228 -0.0761863 0.0246054 0.0677923 0.110616 0.0316646 -0.0902968 0.0503417 -0.0166171 -0.0670831 -0.0107684 -0.408937 -0.0092989 0.0920825 0.14769 0.0506069 0.0475464 0.104999 0.0380296 0.0047461 0.0959695 0.0432327 -0.0156793 -0.200172 0.00253685 -0.0842192 -0.226491 -0.00619392 -0.297506 0.444409 -0.095488 -0.0193093 -0.0535016 -0.261997 -0.0189455 0.135194 -0.0146776 0.0655655 0.0781245 -0.0348799 0.0614925 -0.011505 0.0872523 -0.148115 -0.171718 0.15754 -0.0189883 -0.131993 0.0810058 0.266248 0.118397 0.120425 0.137229 -0.0476921 0.0479409 -0.198313 -0.154179 -0.199928 0.00901511 0.0986776 -0.335676 -0.043825 0.180943 0.0148138 -0.0849492 -0.0867807 -0.0468079 0.126632 0.0338117 -0.202774 0.0873508 -0.0317136 0.100606 -0.352574 -0.0329173 -0.0661156 -0.0616024 0.12119 0.226649 0.0806881 -0.0173906 -3.76996e-05 0.0464349 0.0739998 0.274561 -0.00123017 0.0472993 -0.00325632 0.0774811 0.0208828 -0.0214379 -0.0701466 -0.131857 0.184387 0.0353948 0.0078438 0.0113787 0.00598353 -0.0154416 0.236281 0.0664469 -0.168968 0.0610146 -0.123631 0.0817745 0.0294216 -0.0829167 -0.0668722 -0.0919163 0.147858 0.188848 -0.117709 -0.053094 0.243514 -0.0204137 0.0621214 -0.0348091 0.0562663 0.0942853 0.117847 0.109181 -0.131742 0.0623048 -0.151832 -0.0931304 0.111839 -0.130406 0.0221342 -0.0557588 0.261643 0.175931 -0.0433856 0.119201 0.225253 -0.0796398 -0.115775 0.0769712 -0.0582907 -0.0676122 -0.0534218 -0.152225 -0.0523733 -0.0680664 0.216365 -0.090288 0.0383742 0.000947327 0.209783 -0.0788063 -0.0507016 -0.0385337 -0.200056 -0.200286 0.269486 0.0181137 -0.120507 -0.177109 0.0125116 0.064509 -0.116029 0.009581 0.0538349 0.106568 0.0724136 -0.0868694 0.0106667 0.106444 0.053604 0.076636 0.123704 0.0504698 -0.0153702 -0.289643 0.107238 -0.161055 0.109758 -0.0079299 0.158479 -0.220815 -0.0952045 0.063894 -0.162854 0.0283539 0.167751 -0.210681 0.155383 -0.0286646 0.149092 -0.146398 0.0832596 0.0189144 0.0397503 0.209329 0.215563 0.0553026 0.0695654 -0.00228334 -0.0164023 0.298608 0.0448732 0.122739 -0.15418 -0.0463006 -0.182451 0.173841 0.0516856 0.0364591 -0.159184 0.174541 -0.0281738 -0.0276681 -0.00321259 -0.00834298 -0.0682651 -0.113849 -0.196772 -0.0614221 -0.162381 -0.0676021 0.0370588 -0.309705 -0.0813948 0.0303186 -0.135351 -0.204203 0.172134 -0.109695 -0.057949 -0.011407 0.118653 0.106721 -0.243037 0.0729358 -0.065885 -0.0709385 -0.21623 -0.0287888 -0.0509628 0.0442919 -0.276389 -0.0110241 0.0217365 -0.106439 0.00767362 -0.104691 0.0542543 -0.109515 -0.0549893 -0.104122 0.112195 0.034543 -0.170609 0.00363849 0.0348783 0.271789 0.0333449 0.0328099 -0.0791573 -0.0520317 -0.00570327 -0.113699 -0.13116 -0.0177581 0.0707261 0.217192 -0.20405 -0.0989637 0.0832368 0.13221 -0.242515 0.184382 0.0508551 0.0409094 -0.0287691 -0.101022 0.0128716 0.0817213 -0.28968 0.250694 -0.167516 0.0535225 0.0964606 0.0270137 -0.185589 -0.219237 -0.0681624 0.0402441 -0.105258 0.245109 -0.0340554 0.0433569 -0.121252 -0.131511 0.0421343 0.158977 0.00218756 0.252648 -0.145873 -0.0171461 0.0210833 0.332117 -0.0290232 0.0568347 -0.00969819 -0.151484 -0.043992 0.0662327 -0.127036 -0.0787606 -0.0160758 0.0385223 0.155239 -0.109097 0.305903 0.125664 0.0588337 -0.315705 -0.0865098 0.126939 0.268662 0.167111 -0.197166 -0.195039 -0.0880595 -0.0536854 -0.223921 0.0204007 -0.0215867 -0.0668488 0.0241687 -0.0102504 0.0746383 0.00104472 0.073567 0.103205 -0.0737253 0.0519781 0.142867 -0.0336466 -0.122699 -0.119963 0.0709585 0.0818439 0.239924 0.00822352 -0.0182575 0.192967 0.0677017 -0.319967 -0.064438 0.00128391 0.069967 0.165066 0.135193 -0.000630891 -0.29846 -0.170409 0.00924956 0.170525 -0.00837288 -0.0395467 -0.0309233 -0.00129658 0.0336893 -0.00325852 -0.110418 -0.0714394 0.0806561 0.101667 0.120562 0.0278234 0.113529 -0.318585 -0.0861607 0.315394 -0.0898601 0.0372122 -0.00826327 -0.142745 0.0263546 -0.100871 -0.0231795 0.0498498 0.102766 -0.0817857 -0.0786925 0.0912952 0.194693 -0.046361 -0.00379984 0.0296244 -0.0338641 0.119618 0.126816 0.13967 0.0716432 0.0652612 
0.128034 0.0768145 0.15547 0.115883 0.120908 0.149976 -0.171421 0.00868021 -0.0676543 -0.170309 -0.00998729 -0.0120238 0.189207 0.156426 -0.0141199 -0.279045 -0.128468 -0.0430794 -0.255569 0.145158 0.119685 -0.0293703 0.0266378 0.104526 0.071447 0.0979402 0.0703615 0.148046 -0.0356068 -0.182402 -0.128405 0.0232407 0.0179132 -0.218225 0.0618077 -0.168455 -0.0155024 -0.148525 0.149362 -0.0373055 -0.0451146 -0.0737067 0.0880069 0.344702 0.225851 -0.0512769 0.052185 0.120885 0.152727 -0.046322 0.152257 -0.324659 0.000325099 0.0988192 0.173339 -0.0617438 -0.0188384 -0.003222 0.106197 0.0474116 -0.0488298 0.0307941 0.172685 0.109776 -0.051754 -0.188679 0.0155228 0.0244711 0.229203 -0.0453498 0.103403 0.113591 0.0422726 0.125403 -0.0473792 -0.0163271 0.103126 -0.212498 -0.0615592 0.145095 0.0350862 0.0126075 0.0421639 -0.226769 0.101041 -0.0406164 0.049076 0.123151 -0.0323862 -0.047923 0.0545744 0.211626 -0.275826 -0.24542 -0.0310076 0.25429 0.0213388 -0.0526741 -0.0771891 0.00625425 0.056201 -0.301298 0.273675 0.0945779 -0.0914662 -0.0812328 -0.163692 0.0469274 -0.267601 -0.0285862 0.0107437 0.109367 -0.062168 -0.136651 -0.108746 -0.0153749 0.0768393 0.128316 0.0970718 -0.112043 -0.0227177 -0.0790407 0.126028 0.0230376 -0.0560763 0.12274 0.00144359 -0.0924288 -0.0013775 -0.0295487 -0.000535626 -0.0618111 -0.107746 0.0402129 -0.209703 0.0651066 -0.0118083 0.082857 0.266026 -0.147815 -0.0145322 0.021615 0.0939604 0.0239046 -0.0548802 0.00205719 0.180154 0.232531 0.0786692 -0.0481453 -0.0838572 0.00510827 0.074887 -0.109043 0.0272113 0.100769 -0.0549962 -0.0942064 -0.196573 -0.0712706 -0.0488537 -0.088439 -0.0741996 -0.0352501 0.229113 0.241086 -0.0057531 -0.10882 0.0998614 -0.0225043 -0.139267 -0.245048 0.0634755 -0.0397153 0.183963 -0.106326 -0.18681 -0.114975 0.07921 -0.119953 -0.122102 -0.0898956 -0.0376986 -0.0459316 0.0745494 -0.0981576 0.164715 0.0385894 -0.143588 -0.185804 -0.0281681 0.0886832 0.320775 -0.0878621 -0.219112 -0.00586725 -0.138596 0.0225531 -0.0024376 0.168762 0.0821959 -0.0265639 -0.00924268 -0.133195 -0.120156 -0.091511 -0.0451693 -0.040043 0.060607 0.149855 0.34688 0.26339 -0.00479387 -0.0526022 0.00504347 -0.0931607 -0.170528 0.0373061 0.0439508 0.025725 0.045089 0.111316 0.122044 0.154974 0.171106 0.0647696 0.195109 0.122595 0.0192563 -0.0882451 0.0937747 -0.00659325 -0.325825 -0.0520278 0.038073 0.0117408 -0.00403726 -0.155998 -0.029307 0.189618 0.0579745 0.0339372 0.0641174 -0.0176897 -0.211995 0.150195 -0.165513 0.0571337 0.0496949 0.0130867 0.0838508 0.251606 0.0313095 0.00338199 0.0918252 0.0599985 -0.00455047 -0.0445663 -0.0360204 -0.166989 0.0619519 -0.0707335 -0.154369 -0.0545988 0.303999 0.0622659 -0.0362337 -0.200466 -0.10521 -0.0847149 0.0400494 0.196923 -0.166174 -0.161402 0.0887485 -0.138654 -0.00876528 0.144179 -0.125101 -0.00217528 -0.218595 -0.0853428 -0.056182 -0.214146 0.0435768 -0.080253 -0.0308991 0.255 0.253795 -0.0217641 -0.0335077 -0.0323294 0.102689 0.0782374 -0.056853 0.0953535 0.0638985 0.106112 -0.0612766 0.0688659 0.0541796 0.106387 -0.162143 -0.0800524 -0.0656617 0.0769548 -0.170865 0.191709 0.0305884 0.00351396 0.000821214 0.0940864 0.162382 0.111766 -0.182406 -0.0120398 0.0961452 0.122696 -0.106795 0.215524 -0.0270803 0.164928 -0.00721949 -0.313003 0.217693 0.0453076 0.192326 -0.107851 0.0606503 0.0156508 0.0377247 0.0103887 0.0857915 0.130609 0.0355878 0.0230983 -0.0333176 0.0741644 0.0561631 0.133318 -0.0531194 0.267437 0.200514 -0.00958615 -0.05201 -0.00264277 -0.248691 0.0899348 0.00516939 0.132713 0.0972077 0.0569446 -0.0607774 0.0937061 0.0243182 0.0977337 -0.215454 -0.156946 0.0177085 0.0125164 -0.154279 -0.127902 -0.228645 -0.0802465 -0.0357615 0.0675744 0.0266874 0.0300215 -0.0762019 0.175878 0.043385 0.0165712 0.119786 -0.0533697 -0.164485 0.182387 -0.00377859 0.102087 0.079708 0.0557388 0.126783 -0.0370499 0.17214 0.0271546 0.0735344 -0.0108696 0.0992159 -0.0394275 -0.0391801 -0.076669 -0.0297172 -0.00462684 0.00597041 -0.0736009 -0.0849804 0.238952 0.23294 -0.357591 -0.0846969 -0.0606345 -0.0615198 -0.101542 0.053875 0.0688245 0.108257 0.00322317 -0.05495 0.00372632 0.0579685 0.237352 -0.0896047 -0.172687 -0.133734 -0.00740397 0.229493 -0.142644 0.0509819 -0.200901 -0.187874 0.205855 0.171652 -0.0615529 0.0853884 0.107885 0.0535528 -0.0422443 -0.0143237 -0.114113 0.138758 -0.274164 0.044233 -0.12651 0.0128111 0.0281102 0.0902349 -0.133935 0.203927 -0.0668352 0.133357 -0.121601 0.0664843 -0.158797 0.0459885 0.203963 0.217184 -0.06687 0.00120771 -0.017003 -0.0126184 -0.156568 0.173748 0.261926 0.189377 -0.256503 -0.00355978 0.0176854 -0.150385 0.112399 -0.0401787 0.160134 0.0986337 -0.0257903 -0.253059 -0.0257165 -0.038528 0.190534 -0.0914601 -0.140673 0.0280718 0.266427 0.113754 -0.184765 -0.00593108 0.11862 -0.111752 -0.00245228 0.0868103 0.223851 -0.137375 0.141249 -0.137902 0.0747325 0.174849 -0.0375696 -0.0216581 -0.256519 0.121028 -0.0284065 -0.110425 0.047171 0.0234838 -0.0770842 -0.163067 -0.0786626 -0.199866 -0.0307191 0.086762 -0.0591049 0.0231153 0.0701355 0.210748 0.103858 -0.101647 -0.0982127 0.156731 0.140218 0.129026 0.0728283 -0.029821 -0.187842 -0.0233358 -0.0666747 
